window.n 0.24652 0.53562 -0.053996 0.17899 0.2402 0.5398 0.17456 0.090487 1.4019 -0.5503 -0.19113 0.54615 0.5088 0.5409 -0.59403 -0.041453 0.27526 -0.36945 -0.1139 -0.64866 -0.33985 -0.7202 0.41679 0.2127 -0.25685 -0.51998 0.81801 -0.063675 -0.36509 1.0824 -0.13383 -0.40959 0.32557 0.32081 -0.49073 0.59143 0.4431 -0.40922 -0.2168 -0.22365 0.099419 0.26576 0.012915 0.86488 -0.21919 -0.17503 -0.19017 -0.35495 -0.96725 -0.0024793 -0.13075 0.6213 -0.75133 0.0034261 -0.61057 0.096153 0.47263 0.17028 -0.11537 -0.088827 -0.28106 0.40866 -0.079535 1.0527 -0.70405 0.5487 -0.69193 0.25584 -0.20291 1.0895 -0.21732 0.035532 0.48737 -0.50251 -0.35802 -0.56532 0.33524 0.072849 0.6258 -0.30288 0.18506 0.82892 0.84251 -0.092017 0.042805 -0.76159 -0.42583 0.021053 -0.16678 0.26268 0.66781 0.78689 -0.0076581 -0.17639 0.11879 -0.097657 0.14739 0.28191 -0.62062 -0.5214
man.n 0.23784 0.2593 0.71215 0.094691 -0.54265 0.76418 -0.28896 -0.20214 0.089446 -0.034621 0.17366 -0.13897 -0.43137 -0.18036 0.69739 0.33698 0.79182 0.096431 -0.82547 -0.46946 -0.20323 0.35493 0.55371 -0.29785 -0.30606 0.073659 0.58092 -0.50099 0.3905 0.22587 0.11105 0.60201 0.22768 0.0073932 -0.88419 0.67507 0.18914 -0.21841 -0.15116 -0.22701 0.030389 -0.25886 0.090346 -0.19859 -0.12675 0.23998 0.15695 -0.1607 -0.32439 -0.28957 -0.93737 -0.2944 -0.62293 0.21796 -0.095873 -0.67774 -0.22306 0.03409 0.11429 -0.33426 0.0088602 -0.67818 -0.01671 0.62124 -0.10809 0.034745 -0.24413 0.46141 -0.42877 0.044165 -0.088042 0.059778 0.54185 -0.0053576 -0.011136 -0.44261 0.17729 -0.26367 0.068078 -0.079036 0.059841 -0.11353 1.0874 0.16338 -0.29764 0.268 -0.17055 -0.20143 0.36464 0.4397 0.22393 0.2236 -0.062203 -0.074822 0.60874 -0.76359 -0.4707 0.40893 0.32895 0.91243
wall.n 0.087831 0.31674 -0.32878 -0.2143 -0.31935 -0.32322 -0.079005 -0.31231 0.0093947 -0.15383 -0.14505 0.11331 0.33167 0.29304 -0.071631 0.70553 0.2448 0.19987 -0.2334 0.25889 -0.27719 0.20691 0.7402 -0.48575 -0.42716 0.261 -0.12726 -0.47513 -0.65362 0.26873 -0.058926 -0.32118 -0.08339 -0.25087 -0.36167 -0.049952 0.39441 -0.96551 -0.34206 0.23234 0.45713 0.30446 0.0082399 -0.35034 0.28517 -0.63507 -0.041081 0.016523 -0.3467 1.0709 0.2115 0.33941 -0.7208 0.12979 -0.55106 -0.76066 -0.095976 0.090291 0.50492 -1.101 -0.48667 -0.12139 -0.57333 -0.30768 -0.87076 0.1723 0.0022423 0.32557 0.021294 0.68542 -0.033419 0.081595 0.085508 -0.13351 -0.33012 -0.7106 0.51555 0.72154 0.42444 0.67366 0.4595 0.3558 0.56052 -0.67734 0.024694 0.041457 0.18538 0.043668 0.42055 -0.35337 0.31853 0.62877 -0.011089 -0.24652 0.14253 -0.92343 0.45569 0.1919 -1.0282 -0.56126
car.n -0.27931 0.2327 -0.023552 0.15319 -0.11133 0.44492 0.082859 -0.097103 0.33041 0.491 0.28823 0.49417 -0.59839 0.26142 0.047678 0.31461 0.16483 0.48235 -0.12996 -0.032427 -0.45685 -0.080596 -0.1986 0.54147 0.31327 0.32834 0.63745 0.053507 -0.52352 0.6729 -0.076093 1.2256 -0.69696 0.053441 -0.082373 -0.10796 -0.018932 0.55402 -0.10728 0.64993 -0.5564 0.34048 0.59725 0.23718 -0.031499 -0.7739 0.1298 0.55808 -0.31879 0.63233 -0.53818 0.75041 -0.37178 0.55491 -0.36408 -0.439 -0.55885 0.74376 -0.12398 -0.333 -0.38952 0.43972 0.092943 0.54887 -0.77213 0.36061 -0.61733 0.54382 0.13755 0.43489 -0.7256 0.48728 0.96098 0.39408 0.31122 -0.27236 0.10717 0.44094 0.60022 -0.11233 0.26678 0.14771 0.99093 0.41229 -0.37005 0.24283 -0.11646 0.38364 -0.41354 0.68701 0.094359 0.067227 0.12868 -0.47187 -0.43052 0.0559 -0.60627 0.67001 -0.51419 0.27036
person.n 0.20964 0.35376 0.83523 0.11763 -0.0021589 0.94935 0.17617 -0.19053 -0.084817 -0.11148 -0.20889 -0.035937 -0.10907 -0.4356 0.9502 0.27846 0.69159 -0.15864 -0.54294 -0.33727 0.28332 0.57472 0.54103 -0.4313 -0.099247 0.04371 0.19022 -0.32687 -0.12122 0.066621 0.17106 0.2471 -0.26927 -0.57712 -1.1388 0.84492 0.24856 0.15855 -0.22199 -0.11181 -0.15261 0.49446 0.24228 0.33318 0.12068 -0.15096 0.13665 -0.064754 -0.18125 -0.22309 -1.1359 0.61274 -0.71338 0.1714 0.15838 -0.43694 -0.86495 0.13332 0.0033012 0.62396 -0.1387 -0.59499 -0.26565 0.49948 -0.21995 0.21821 -0.50857 0.33894 -0.51973 0.16834 -0.43455 -0.18809 1.2003 -0.42605 -0.33449 0.087633 0.45837 -0.50284 -0.16738 0.042926 -0.14595 0.30436 0.96972 0.23417 0.038448 -0.47345 -0.25202 -0.13686 0.54589 0.41512 0.69559 0.37592 0.21015 0.43456 1.1149 -0.89022 -0.43129 -0.0066815 0.040855 0.75591
side.n -0.24174 0.31185 -0.43884 -0.035664 -0.13673 0.73818 0.40233 -0.016099 0.25503 0.42955 -0.19654 0.14413 0.11079 0.14851 -0.73484 0.41954 0.192 -0.057635 -0.023224 -0.19063 -0.46161 -0.31518 0.75139 -0.48539 0.70774 -0.97927 -0.49426 -0.2611 -0.22124 0.94031 -0.023403 0.48131 -0.31261 -0.11349 -0.52608 0.2876 -0.30469 -0.31724 -0.32606 0.033097 -0.029466 0.15014 0.19612 0.55736 0.39519 -0.035519 0.28552 -0.54404 -0.017013 0.95281 -0.31776 -0.10318 -0.4806 0.12722 0.23467 -0.36197 -0.017788 0.25439 0.041092 -0.47837 0.15285 0.073279 -0.64831 0.42511 -0.93524 -0.032779 -0.253 -0.069045 0.33285 -0.010367 -0.3539 0.077402 0.0013367 -0.28075 -0.32379 0.12212 0.13249 0.41155 0.46687 0.15394 0.44507 0.55763 0.18646 -0.2642 0.13768 -0.13937 -0.21974 -0.019302 -0.37408 -0.23914 0.2736 -0.47732 0.15425 -0.31408 -0.2021 -0.88649 -0.61516 0.35271 -0.22628 0.014202
street.n 0.28001 0.24877 -0.062287 0.36418 -0.44449 0.59494 0.32405 -0.38843 0.038153 1.1226 -0.33787 0.13549 -1.275 0.061459 0.23543 0.25865 0.18756 -0.051573 0.24172 0.24834 0.28437 -0.35608 0.56016 0.35865 -0.24761 -0.15773 0.68337 -0.34345 -0.46726 0.37683 0.13985 0.13871 -0.60915 -0.35396 -0.57923 0.42751 0.31246 -0.15974 -0.32317 0.061228 -0.18869 0.0077674 -0.046724 0.52924 -0.14084 -0.21189 0.04883 -0.77491 0.04937 0.43044 -0.37561 0.53114 -0.057184 0.56264 -0.00077046 -0.34284 0.43487 0.40677 0.19095 -0.42729 -0.189 -0.10843 0.23401 -0.23866 -0.6801 0.39473 -0.49293 0.84242 0.30774 0.80951 0.21818 0.6293 -0.17501 -0.74251 0.088321 0.069275 0.5099 0.11279 0.19165 -0.39498 -0.1226 0.10777 1.1563 -0.21074 -0.64143 -0.13661 -0.72728 -0.22193 -0.16322 -0.32084 0.44777 -0.27182 0.33912 -0.62354 -0.5363 0.22167 0.56134 0.19256 -0.22181 -0.012115
woman.n 0.072276 0.33349 0.8089 -0.044524 -0.27954 0.57875 -0.12351 -0.30181 0.044253 0.13137 0.15333 0.32249 -0.48328 -0.10934 0.68785 0.25021 0.98115 -0.14076 -0.53028 -0.40623 -0.066504 -0.079813 0.98944 -0.42232 -0.36446 0.17581 0.37134 -0.17021 0.38274 0.4864 0.10297 0.8286 0.12047 0.27801 -1.1947 0.50575 -0.063846 -0.29783 -0.072371 0.01877 -0.098245 -0.09445 0.19614 0.095352 0.32367 -0.15556 -0.018956 -0.22918 -0.28649 -0.039068 -0.63718 -0.26272 -0.46912 0.028528 0.012898 -0.65525 -0.38151 -0.091206 0.090883 0.13125 0.20503 -0.33376 -0.14553 0.22809 -0.21842 0.20468 -0.46442 0.50923 -0.14353 0.16061 0.049738 0.22122 0.73199 -0.35304 0.066203 -0.18479 -0.053259 -0.35305 0.3676 0.098358 -0.33615 0.071324 0.39414 0.068194 0.10019 -0.070614 -0.01134 0.053792 0.65761 0.27803 0.38894 0.92071 -0.071641 0.48171 0.62214 -0.096869 -0.18721 0.46633 0.1049 0.92936
sky.n 0.55264 0.0059709 0.30826 0.73005 -0.712 -0.035316 0.0231 -0.51699 -0.37469 0.35916 0.091413 -0.059259 -1.2578 0.58026 -0.070427 -0.62448 0.7433 -0.025012 -0.015624 0.41089 -0.52459 0.20777 0.96138 0.72425 -0.26327 -0.025598 1.0573 0.67967 -0.41121 -0.32967 -0.039909 -0.25217 0.12094 -0.39272 -0.54795 -0.45163 -0.13804 -0.025294 -0.34135 0.40485 -0.72614 0.12191 -0.0062725 0.30526 0.20004 -0.20989 -0.29704 -0.14595 -0.89417 0.68411 -0.11712 -0.49583 -0.80689 0.77175 0.21532 -1.6286 0.17226 0.48981 -1.4815 -0.99975 0.045985 0.03248 0.011791 0.22536 0.37877 0.39022 -0.55464 0.018842 -0.87331 0.18689 0.21427 0.88023 0.98269 -0.41184 -0.35755 0.017861 0.92571 -1.2722 -0.0097477 -0.23984 0.51959 0.45168 0.23409 1.5297 -0.53022 -0.61796 -0.95819 0.14487 -0.53825 -0.21482 0.70676 0.90373 0.11334 -0.31405 -0.49279 -0.53721 0.17933 1.0523 -0.96987 -0.82524
chair.n 0.034954 0.30189 0.12348 0.13144 0.48039 0.14583 0.61077 -0.61142 0.41903 0.50801 0.43911 -0.423 -0.051182 0.45196 0.28215 -0.098114 0.72648 -0.49624 0.063952 0.41947 -0.84056 -0.3115 -0.17941 0.035237 -0.10892 0.46412 0.6254 -0.45156 -0.4487 -0.19649 -0.46111 0.72268 -0.016921 0.50119 0.16389 0.68006 0.37634 -1.0622 -0.77236 0.38983 -0.16403 0.52465 -0.10687 0.20832 -0.70996 -0.38135 0.64511 0.25946 -0.63588 -0.46295 -0.50454 0.018767 -0.83796 0.32228 0.21804 -0.56647 -0.20295 0.014849 0.099399 -0.49528 -0.45071 -0.79957 0.20188 0.80811 -0.29678 0.34681 -0.42565 0.092894 -0.26586 -0.033402 -0.088991 1.6526 1.056 -0.24388 1.388 -0.29926 -0.091207 -0.72418 -0.011885 0.039295 0.20023 0.65014 0.011441 0.43194 -0.11943 -0.5282 0.4958 -0.045207 0.52216 -0.086798 -0.53374 0.56137 0.2594 -0.25979 0.16434 -0.35688 0.45721 0.06826 -0.50996 0.20131
water.n -0.22191 0.13716 0.18802 -0.18979 -0.016215 -0.091024 -0.10562 0.18037 -0.33467 0.57557 1.0548 0.56251 -0.11941 -0.15038 -0.027956 0.041509 0.41136 -0.43006 -0.5314 0.31125 -0.46611 -0.84161 1.2968 0.12446 0.16719 0.15985 0.16113 0.31893 -0.62076 0.53145 0.58546 -0.69926 -0.14823 -0.3491 -0.082571 -0.29443 -0.36595 0.21321 0.1964 -0.53385 -0.26092 0.82273 0.10428 -0.34242 0.32654 -0.31408 -0.13737 -0.33145 0.14354 0.18836 -0.11912 0.62228 -0.54352 0.24998 0.36822 -0.67764 -0.25803 -0.38674 0.082931 -1.1866 0.048705 0.013548 -0.081943 0.3172 0.15503 0.80065 -1.1137 -0.39211 -0.49467 0.027387 -0.082643 -0.29164 0.28257 -0.42805 -0.06108 0.28881 0.30888 -0.71169 0.68695 -0.39837 0.67501 1.0871 0.37997 -0.18533 -0.60376 -0.1144 0.33664 0.83336 -0.42674 0.10969 0.20345 -0.0036183 0.46826 0.19367 0.32112 -0.6323 0.078236 0.79179 -0.46943 0.28247
door.n 0.20838 0.62572 -0.84998 0.62162 -0.52966 -0.12312 1.0069 -0.58918 0.40677 -0.43256 -0.12858 0.17785 0.56061 0.73554 0.12766 0.11514 0.029063 0.15062 0.45684 -0.72875 -0.36446 -0.035453 0.3624 -0.36619 -0.18688 -0.072373 0.72808 -0.21216 -0.72411 0.47682 -0.2246 -0.47963 0.32471 0.10733 0.016716 0.34492 0.59613 -0.33453 0.036072 0.39062 0.29235 0.47488 0.038053 0.65846 -0.1344 0.34123 0.092009 -0.2453 -0.60886 0.59287 -0.65846 0.47168 -0.30816 -0.68693 -0.030898 -0.36274 -0.17018 -0.042206 0.70664 -0.68969 0.16069 0.28435 -0.40441 0.31242 -0.8467 0.14137 -0.50626 0.42461 -0.9288 -0.0889 -0.398 0.54464 0.16974 -0.25309 -0.20249 -0.61402 -0.17053 0.78119 0.48656 -0.52138 0.43993 0.11625 0.60387 0.33559 -0.51947 -0.32568 -0.16068 0.479 -0.30546 0.78668 0.069473 0.91177 0.61394 -0.0070419 0.027987 -0.60482 -0.60527 0.27054 -0.31277 0.33006
plate.n 0.42443 0.18856 -0.35209 -0.54723 -5.8256e-05 0.16153 0.26434 -0.30023 -0.72231 0.4493 0.33545 0.41681 -0.0076836 0.2711 -0.34187 0.58192 -0.33157 -0.2202 0.43082 0.4046 0.05156 0.4472 -0.21311 -0.61725 -0.25744 -0.22711 1.5859 0.76458 -0.050185 -0.2754 -0.18586 0.39684 0.10284 0.50214 -0.40265 -0.13931 0.37969 -0.29302 0.48364 -0.23021 -0.43232 -0.37899 0.98407 0.52974 0.69257 0.077888 1.2168 0.52638 0.42051 0.79375 0.21848 0.10994 0.093838 -0.627 -0.12557 -0.034006 0.62371 0.52098 -0.028054 -0.60032 0.50941 -0.38771 -0.74517 0.38568 0.06116 0.80496 -0.62106 0.030416 -0.28292 0.095824 -0.36116 0.30904 0.4978 -0.61255 0.40964 -0.173 0.1107 -0.048139 0.96842 0.16983 0.097138 -0.2579 0.36592 0.28334 -0.25624 -0.58023 0.23447 -0.0039817 -0.78155 1.1227 0.63357 0.41839 -0.50658 -0.67574 0.76745 -1.2216 0.14643 0.2385 -0.75288 0.21948
people.n 0.14262 0.049073 0.57172 0.16403 0.31798 0.3785 -0.18229 -0.15518 0.075985 -0.17173 5.6229e-05 0.38747 -0.66325 -0.24713 -0.17231 0.74931 0.80875 -0.2069 -0.020462 -0.04818 -0.25055 0.11608 0.70509 0.064019 -0.29271 -0.18197 0.91199 -0.28411 -0.093829 0.63279 0.34265 0.050806 -0.472 -0.034102 -1.2318 0.079887 -0.069038 0.026632 -0.37551 0.15283 -0.44507 0.68874 -0.1859 -0.082991 0.59387 -0.1536 0.4788 -0.44376 -0.37644 0.30439 -0.50074 0.83873 -0.56476 -0.053893 0.66405 -0.78961 -0.22346 0.27446 0.24305 0.89453 0.017734 -1.0818 -0.57371 0.10114 -0.23716 -0.21512 -0.30843 0.38903 -0.21866 0.48248 0.11906 -0.23985 0.73961 -0.7718 -0.16964 -0.35111 0.54046 0.31102 -0.58843 -0.020009 0.028756 0.44652 0.060881 0.33631 -0.25675 -0.6436 -0.022242 0.43385 0.36288 0.31747 0.34707 -0.016692 0.25286 -0.033748 0.54991 -0.12117 -0.72605 0.12056 0.042172 0.78957
bus.n -0.61182 0.45947 -0.15708 0.095462 0.23771 0.19224 0.81649 -0.12976 0.70113 1.0415 -0.21079 -0.38961 -0.31337 0.3846 -0.099409 0.40428 0.50789 -0.02383 0.24546 0.050435 -0.53408 -0.23681 -0.017856 0.16056 0.1952 -0.092193 0.13085 0.31766 0.2844 0.22082 0.53941 0.79993 -0.50651 0.48778 -0.14457 -0.066279 0.32754 -0.27785 -0.20549 0.090758 -0.30376 1.0463 -0.13972 0.51594 0.023776 -0.55666 -0.49451 0.57123 0.094254 0.30565 -0.36077 0.3262 -0.31956 0.65819 -0.61032 -0.90158 -0.44127 0.57178 -0.0319 -0.2695 -0.29858 -0.0097962 -0.32529 0.12922 -1.0506 0.83525 0.27311 0.63918 -0.21775 1.0917 -0.50367 -0.31329 0.14165 -0.48687 0.37931 -0.057083 -0.37835 0.11647 0.36799 -0.7824 0.64872 0.079691 0.83072 0.61695 -0.56912 -0.027576 -0.17994 0.07985 -0.44525 0.95787 0.33081 0.37848 0.39524 -0.36878 -0.22578 0.18869 0.00058073 0.49715 -0.14887 0.037176
floor.n 0.16716 0.26159 -0.37568 0.66565 -0.98965 0.097082 0.012217 -0.66644 0.090245 0.1914 0.046097 -0.056557 0.66784 0.99673 0.14147 0.50715 -0.16831 -0.61502 -0.47797 -0.04839 0.092438 0.27198 0.57192 -0.19019 -0.46739 0.22121 0.70146 -0.53163 -0.9045 -0.15655 -0.42895 -0.08789 -0.66944 -0.23755 -0.39421 0.83235 0.44186 -0.4251 -0.18348 0.42593 -0.09549 -0.1261 0.21428 0.17841 -0.078639 -0.8727 -0.7372 -0.64959 -1.0249 0.41069 -0.23755 0.025725 -0.44647 0.077831 0.60145 -0.35078 -0.31206 -0.28769 -0.51627 -0.7607 0.30731 0.067389 -0.20972 0.071786 -0.60348 0.44621 0.25655 -0.0266 -1.1437 0.50276 -0.014366 0.97406 0.21022 -0.19211 0.47261 0.0047841 0.19916 0.12743 0.90174 -0.16254 -0.063687 0.20203 -0.026156 -0.1115 0.51332 -0.80632 -0.12997 0.40332 -0.054034 -0.0059384 -0.185 0.33476 -0.032203 -0.39935 0.54451 0.36158 -0.38739 -0.75312 -0.56532 -0.11484
grass.n -0.049762 0.072649 0.36092 0.10412 0.036246 0.5799 -0.31038 0.74305 -0.67171 0.54758 -0.18337 -0.57019 -0.0029967 0.66423 -0.36659 0.34488 0.62997 -0.97532 0.12554 0.68123 0.11741 -0.4264 0.58304 0.50684 -0.2018 -0.015924 0.55865 -0.11865 -0.29206 0.26138 0.70987 -0.17354 -0.14478 -0.041543 -0.68187 -0.40159 0.038055 0.46593 -0.14596 0.64616 0.19136 0.69934 0.37487 0.86135 -0.66351 0.014085 0.81824 -0.36124 -0.10397 0.21395 -1.5173 -0.23164 -0.64426 0.2181 -0.28944 -0.26544 -0.25722 -0.20947 -0.056441 -0.58758 -0.16216 -0.06189 -0.053329 -0.11758 0.25066 -0.12513 -0.54322 -0.028765 -0.35684 0.44564 0.59054 0.70802 0.60194 -0.0066851 0.56211 -0.18246 0.68276 0.35405 0.20194 -0.73262 -0.12129 0.62608 0.19422 -0.029102 -0.19163 -0.041765 -0.67662 0.78012 0.26958 0.30981 0.52533 -0.16445 -0.2109 -1.0421 -0.15524 -0.39734 -0.72162 0.28537 0.15138 0.10491
house.n -0.7806 0.3062 -0.30453 -0.088636 0.52875 0.28624 0.14331 -0.52871 0.37792 0.18995 -0.3001 -0.015916 0.20711 -0.0069406 -0.39574 0.15611 0.40142 0.4681 0.045824 -0.15712 -0.47977 -0.33227 0.54827 0.74234 -0.7259 -0.084665 0.34627 0.50176 -0.14242 0.43098 -0.51786 -0.76458 -0.14828 0.064723 -0.6214 -0.090769 0.11079 -0.23411 -0.17736 -0.22324 0.2793 -0.3475 0.22469 0.63881 -0.59016 -0.41544 -0.0073062 -0.27666 -0.48461 0.17486 -0.83634 0.066169 -0.94549 0.64785 -0.14452 -0.42201 -0.92772 0.010372 0.2624 0.11059 -0.09143 0.37278 -0.33233 -0.47384 -0.70976 0.08453 -0.10383 0.54271 -0.18983 0.35125 0.039752 0.62118 0.5566 -0.030038 0.88747 -0.13428 -0.2048 -0.30109 0.31825 -0.94305 0.60128 0.39758 0.81253 -0.2251 -0.16698 -0.76202 -0.28102 -0.26765 -0.30683 -0.062784 0.030193 0.45444 0.072971 -0.37302 -0.027767 -0.14964 -0.17298 0.065733 -0.71627 -0.28857
brick.n -0.56439 0.43931 -0.1087 -0.1872 0.13618 0.29217 0.16351 -0.65213 0.79481 0.086843 -0.36015 0.2476 0.2699 0.26481 -0.31671 0.26725 0.69715 0.12391 -0.031484 -0.47331 -0.56118 0.36156 -0.20071 0.79095 -0.63886 -0.54661 0.1594 0.30991 -0.30906 0.28778 -0.30451 -0.21761 -0.37263 1.0683 -0.43058 -0.28929 -0.24972 -0.36329 -1.0308 0.59218 0.57854 -0.15079 -0.10502 0.25712 0.38813 0.31516 -0.22728 -0.53199 -0.20299 0.55155 -0.70659 0.74107 -0.69773 0.45502 -0.067203 -0.47019 -0.87489 -0.43162 0.34232 -0.2211 -0.35481 -0.65129 -0.019992 -0.072467 -0.68579 0.99413 -0.61531 0.19221 -0.061332 0.71126 -0.017289 0.86588 -0.060361 -0.59519 0.43018 0.15854 0.91073 0.37688 1.0603 -0.3137 -0.18525 0.66966 0.51529 -0.27891 -0.15155 -0.22599 -0.50561 -0.085997 -0.31822 -0.12729 0.54367 -0.2244 0.17752 0.1146 0.42626 -0.2845 -0.25655 0.21211 -0.011393 0.38845
boat.n -0.86604 -0.22476 -0.55689 -0.037549 0.18259 0.021646 0.10796 -0.56951 0.14026 0.87243 0.3154 0.12313 -0.031207 -0.0060043 -0.096842 0.65942 0.31215 0.40247 -0.41513 0.22975 -0.18628 -0.56462 -0.34644 -0.25539 -0.025814 -0.89701 -0.14541 0.18881 0.033334 -0.15647 0.0086065 0.17816 -0.18506 -0.69897 -0.088964 -0.19616 0.95898 -0.074679 -0.50967 -0.58637 -0.6954 0.58319 -0.50962 -0.048616 -0.15464 -0.30022 0.16436 0.24686 -0.53564 -0.08236 -0.27278 -0.40694 -0.68156 0.19364 0.65064 -0.91245 -0.49519 -0.34513 0.51651 -0.52201 0.6131 -0.033585 -0.22842 -0.29374 -1.1926 0.85517 -0.57808 0.6448 -0.32131 0.73772 -0.024921 -0.055731 0.17702 0.070547 0.77873 -0.53089 0.57647 -0.55967 -0.089765 -0.87639 1.0186 0.78311 0.77614 0.59136 -0.34643 0.37615 -0.37967 0.37309 -0.53147 0.057619 0.061484 -0.056537 0.2003 0.41735 0.77589 -0.65922 0.16849 0.28119 -0.44958 -0.10491
head.n 0.94638 -0.023214 -0.11817 -0.60583 0.18939 0.62676 -0.18637 -0.025215 -0.054462 -0.047675 0.077102 -0.1474 -0.086912 0.50133 0.11445 0.81072 0.32048 -0.63283 -0.30563 -0.14087 -0.52992 -0.30674 0.46574 -0.36447 0.071582 -0.23604 0.5855 0.63444 -0.089628 0.59234 -0.25635 0.28665 -0.20506 -1.0277 -0.75672 0.47586 0.23794 -0.12351 0.58157 0.062532 -0.22606 0.62129 0.88341 -0.31108 -0.88427 0.12624 0.56059 -0.35149 -0.87814 0.42956 -0.16902 0.10267 -0.05261 0.40277 -0.6474 -1.1687 0.44215 -0.71797 -0.21112 -0.026187 0.43013 -0.37106 0.18309 -0.034337 -0.27206 -0.049443 -0.22725 0.27582 -0.051419 1.1374 0.62539 0.69635 0.38916 -0.26825 -0.24275 0.78515 -0.24155 -0.59279 0.81763 0.004735 0.39432 0.031237 0.4696 -0.036135 0.46736 0.47702 0.92911 -0.26007 -0.31594 0.37063 0.7377 0.06071 -0.409 -0.038557 -0.51877 -0.79851 -0.15483 0.31319 0.71967 -0.26107
wood.n 0.12505 0.19294 0.042164 -0.54353 -0.041397 0.036123 -0.041372 -0.081568 0.10737 0.14061 -0.026193 -0.46827 -0.027563 0.49037 -0.060045 -0.13581 1.2554 0.61355 0.2428 -0.29338 0.27126 0.29546 0.37658 -0.71103 0.0933 -0.19801 0.64135 -0.20734 -0.19319 0.094316 -0.73793 -0.37809 -0.060467 -0.0078657 -0.16525 -0.50859 -0.60276 -0.44729 -0.86307 0.0051268 -0.035814 0.14386 0.40566 -0.53181 -0.45858 0.0080498 0.78129 -0.61735 -0.61805 0.65059 -0.35039 -0.20544 -0.19961 0.055633 0.012626 0.028573 -0.67107 -0.13048 -0.68792 -0.093773 0.32915 -0.44455 -0.34602 0.0034045 -0.59276 -0.059528 -0.1454 -0.28751 -0.15981 0.95054 -0.00037347 -0.030969 0.74635 -0.13405 0.95111 -0.33194 -0.015397 0.61491 1.1776 -0.11982 0.051347 0.38907 0.51364 -0.26311 -0.57433 0.11755 -0.22682 0.91173 -0.52749 -0.42201 -0.79276 1.23 0.051768 -0.2641 0.35631 -0.78288 0.034706 -0.35181 0.0002529 -0.11115
jacket.n 0.18913 -0.11546 0.6424 0.43062 0.35166 0.34198 0.60961 0.060487 0.61306 0.4553 0.48682 0.27018 -0.58253 0.50048 0.87858 0.28314 0.57803 0.18252 0.050294 -0.30277 -0.11052 0.056254 0.64062 0.19353 -0.79877 -0.1027 0.46954 0.29304 0.48721 0.43848 -0.11489 0.78852 0.29573 -0.15998 -0.81029 -0.27294 0.47382 -0.024208 -0.21423 0.24105 -0.40628 -0.092384 0.32789 -0.5653 -0.43225 -0.23592 0.563 0.095126 0.4382 0.20289 -0.12803 -0.15518 -0.32196 0.16861 -0.57575 -1.0583 0.022437 -0.47249 -0.14005 -0.25771 -0.10713 -0.40005 -0.18125 0.49864 -0.78185 0.65569 -0.94072 0.23055 -0.34184 1.0342 -0.60391 0.49982 0.35908 -0.046177 -0.012287 0.25468 -0.093862 -0.071536 0.45312 -0.53656 0.065067 0.46384 0.47165 0.51642 -0.023887 0.048544 -0.28341 -0.22357 0.79716 -0.4078 -0.084956 0.183 -0.43087 0.28964 0.051487 -0.32266 -0.63056 0.38073 0.2588 -0.33108
bed.n -0.32581 0.33415 -0.38438 0.55397 -0.68083 0.2774 0.14432 -0.51776 -0.35339 0.38412 -0.013254 -0.0044738 -0.39529 0.12473 -0.061346 -0.019517 0.10721 -0.24081 0.047183 0.5764 -0.3455 0.010456 -0.072677 -0.9325 -0.45421 0.64207 0.35388 0.26104 -0.1257 -0.055663 -0.12497 0.093333 0.66273 -0.78632 0.036256 -0.036986 0.1737 -0.40286 -0.49494 0.6132 0.082364 0.99068 0.47311 0.73327 -0.17416 -0.61439 0.90808 -0.093598 -0.24511 0.61658 0.098767 -0.36001 -0.68735 -0.056403 -0.17847 -0.26478 -0.3554 -0.6299 -0.86698 -0.99009 0.6006 -0.47096 -0.59314 0.72204 -0.76872 0.11801 0.071777 -0.20475 0.17514 0.72292 0.66182 1.548 0.91398 -0.80508 0.37733 0.087395 0.24635 0.45408 0.41153 -0.056368 0.37613 -0.37237 0.85585 0.085638 -0.2172 -0.13682 0.12518 0.038221 0.16699 -0.30086 0.37816 0.59551 -0.39929 0.0719 0.25155 0.24437 0.45537 -0.20766 0.88706 -0.029867
bottle.n 0.21846 -0.24931 -0.12048 -0.39961 -0.047875 -0.33511 0.99859 -0.11634 0.73141 0.53885 0.85555 0.16623 -0.50658 0.3908 -0.25273 -0.12667 0.60983 -1.2632 -0.086155 0.1228 0.18295 -0.4795 -0.22424 -0.090385 0.050069 0.066403 1.1499 -0.13844 -0.10181 0.19941 0.020328 0.17688 0.47289 0.32726 -0.15617 -0.14202 0.34422 -0.40931 -0.82189 -0.72112 -0.38614 0.44774 -0.085749 0.11342 0.26851 0.33071 -0.19178 -0.24383 -0.38522 0.49375 -0.25385 0.10449 -1.1559 -0.43272 -0.36 -1.3392 0.43614 -0.79673 0.14402 -0.73645 -0.19788 0.16497 -0.15742 -0.039456 -0.82981 0.85886 0.15094 0.21708 -0.030247 0.4618 -0.7892 0.016313 1.0481 -0.99087 0.24143 -0.45819 -0.99416 -0.048602 0.11436 -0.21459 0.37484 0.24786 -0.21797 -0.14907 -0.62097 0.83927 0.011165 -0.29844 0.15086 0.42115 0.53563 0.10709 -0.39219 0.32177 0.64656 -1.8983 -0.2282 0.066251 -0.416 0.27672
hand.n 0.38817 0.90252 0.23985 -0.27442 0.25959 0.47729 0.26358 -0.26593 0.28113 0.22379 0.28091 0.024487 -0.40289 0.33325 1.092 1.0188 -0.042719 -0.74197 -0.064512 0.63888 -0.21502 -0.33717 0.39688 -0.5037 0.3921 0.041616 0.25722 0.27117 -0.0085227 1.2542 1.0083 -0.33591 0.1833 -0.40532 -0.78699 0.24818 0.63344 -0.55649 -0.22889 -0.18749 0.18636 0.047745 0.33598 -0.30433 -0.52861 0.13031 -0.35837 -0.066632 -0.51774 0.85345 -0.21896 -0.0075842 0.66248 0.46469 -0.31571 -0.77412 0.044907 0.18903 -0.057145 -0.33836 0.74792 -0.2223 -0.10919 0.59753 -0.96673 -0.60467 -0.0075477 -0.40607 0.30356 -0.013022 0.23264 -0.17574 0.37852 0.93247 0.54862 0.34948 -0.3237 -0.17886 0.66988 -0.15868 -0.086869 0.2714 -0.18951 0.10216 0.14507 0.10723 -1.014 -0.50559 0.22944 0.059708 0.20893 0.25309 -0.18801 0.68529 0.41418 -0.98053 0.075568 0.42983 -0.39172 0.92743
roof.n -0.40051 -0.035564 -0.82209 -0.10413 -0.40953 0.012341 0.42859 -0.89081 0.29968 0.25574 -0.7761 -0.2327 0.39012 -0.19147 0.40541 -0.3689 0.2909 0.68404 -0.022841 -0.73422 -0.10738 -0.30307 1.2488 0.38315 -0.33827 -0.94145 0.69533 0.045834 -0.29446 0.2431 -0.69571 -0.4255 -0.26531 -0.050829 -0.53823 0.15578 -0.079719 0.17242 -0.27657 0.065915 0.27445 -0.16244 0.37071 0.33429 -0.93452 -0.11325 -0.87959 -0.2655 0.3181 1.1512 -0.076059 1.1175 -0.28996 0.66694 -0.22597 -0.68904 -0.23034 0.14082 0.57671 0.094111 0.43614 -0.024821 0.0084294 0.021975 0.23544 0.73188 -0.55193 -0.30893 -0.25697 1.0614 -0.095134 1.4866 0.28131 -0.41889 0.48652 -0.68797 -0.15422 0.63982 0.26207 -0.1522 0.084963 0.12999 0.24076 0.49603 0.48515 -0.6956 -0.22992 0.63217 -0.35244 -0.098979 0.7453 -0.36591 0.076985 -0.17386 -0.084026 -1.1726 -0.16193 -0.10294 -0.73661 0.037095
hat.n 1.0608 0.053845 0.19632 0.091671 0.098845 0.62987 -0.14897 -0.29279 0.03348 0.87812 0.5383 0.51544 0.12656 0.045392 0.8806 0.80764 -0.37824 -0.072789 -0.63743 -0.13654 0.02181 0.1887 0.85347 0.72798 -0.28157 -0.3214 0.2508 0.18079 0.28664 0.36053 -0.35267 0.92949 0.12077 -0.50781 -0.25067 -0.37115 0.020065 0.12366 -0.19735 0.75397 -0.50969 0.025473 0.47598 -0.027552 -0.70497 0.16085 -0.049651 0.049126 -0.063028 -0.24765 -0.64378 0.17632 -0.36728 0.52353 -0.82254 -0.56752 0.0089274 -0.15516 0.078858 -0.20431 0.277 -0.27456 -0.50315 0.56979 -0.60423 0.23824 -0.21669 -0.0089016 -0.29745 0.74262 -0.33628 0.20579 0.56167 -0.13389 0.69289 0.011407 -0.14001 -0.14421 0.70516 -0.42853 -0.35473 0.24146 0.011165 0.66829 -0.074076 0.49952 -0.11173 -0.12891 0.4909 -0.52483 0.48797 -0.39126 -0.61066 0.0079533 0.24046 -1.0429 0.26835 0.5477 -0.11769 -0.55986
girl.n 0.28538 -0.083448 0.57082 0.15986 0.44838 0.24118 0.12769 -0.11212 -0.056987 0.12707 0.17272 0.23765 -0.51321 -0.40205 0.61008 0.43302 0.96911 -0.29405 -0.62078 -0.6982 -0.064956 -0.15894 0.73452 -0.21996 -0.84564 -0.34216 0.24418 0.55699 0.41691 0.56003 -0.11945 0.83062 -0.075742 -0.10859 -0.99651 0.28454 -0.2261 -0.27722 -0.33231 -0.28845 -0.018617 -0.18265 0.24937 0.29012 -0.096022 -0.1676 0.23934 -0.18716 -0.00016218 0.097465 -0.71284 -0.34764 -0.44737 -0.021973 -0.23638 -0.85275 -0.26353 -0.036236 -0.16287 -0.30058 0.45296 -0.0014312 -0.23998 0.31993 -0.11088 0.10881 -0.34833 0.26322 -0.37296 0.07436 0.057541 0.16754 1.2094 -0.35355 0.39084 -0.32679 0.15136 -0.57206 0.18342 0.15665 -0.35095 0.089789 0.26677 0.36379 0.19121 -0.22955 0.11876 0.070288 0.65101 0.70878 0.2362 1.0116 -0.28336 0.43816 0.64594 -0.35137 -0.43447 0.36956 0.014757 1.0265
room.n 0.84141 0.51857 0.11579 0.011214 -0.33049 0.1343 0.28917 -0.59473 0.79207 0.59751 0.21882 -0.26096 -0.33234 -0.070582 -0.20922 0.7411 0.7937 0.27116 0.32188 -0.02904 -0.0010847 0.087614 0.1969 0.23285 -0.27199 0.75386 0.24657 0.010807 -0.3395 0.2559 -0.64133 -0.86309 -0.26437 0.21212 -0.60102 -0.095852 -0.32487 -0.45732 -0.64524 0.14309 0.59138 0.74418 0.071926 -0.14824 -0.22039 -0.20244 0.054953 -0.74116 0.30564 0.42701 -0.20396 0.51731 -0.13349 -0.01985 -0.040353 -0.71781 -0.36591 0.16627 0.52379 -0.68869 0.19429 -0.22881 -0.87972 0.21239 -0.71174 -0.14477 -0.61863 -0.54286 -0.54232 1.1174 0.17045 1.0631 0.37296 0.15961 0.83749 -0.58616 -0.85555 -0.84384 -0.018995 -0.20999 0.0049176 0.081419 -0.072198 0.44357 0.28465 -0.75402 -0.2377 0.073555 -0.6828 -0.12859 -0.58024 0.38956 0.26826 -0.85814 0.12073 -0.010757 0.47862 -0.72982 -0.60686 0.021848
flower.n -0.31494 0.77986 0.16732 0.16602 -0.14601 -0.19181 0.25587 -0.941 -0.22856 0.67342 -0.21682 0.69916 -0.7285 -0.35744 -0.26807 0.38059 0.033348 -0.011028 -0.43299 -0.3749 0.063924 0.22699 0.49943 -0.0010505 -0.12968 0.46719 -0.099542 0.6478 -0.29589 0.59287 0.55019 0.025415 -0.33431 0.43208 -0.56082 0.1282 0.43237 -0.22878 -0.21771 0.26417 0.8887 0.53215 0.41964 0.97726 -0.32539 -1.2962 0.024995 0.018084 -0.72873 0.82114 -0.46053 -1.1415 -0.98412 -0.1434 0.15046 -0.18517 0.070176 -0.14408 0.40667 0.007503 -0.32455 -0.18642 0.42347 -0.24608 -1.0725 0.61724 -0.036167 -0.75323 -0.42478 0.10526 0.11357 0.12019 0.43229 -0.65656 0.58525 -0.25045 0.030748 -0.59099 0.92208 0.17212 -0.44313 -0.05664 -0.064188 -0.22208 0.17048 -0.71661 -0.85452 0.82987 0.30938 0.0035879 0.41484 0.82628 -0.18518 0.111 0.72725 -0.14378 -0.017941 0.28328 0.2707 -0.65446
bench.n -0.2451 0.51219 0.0085844 -0.19223 0.028438 0.077707 0.71677 -0.26614 0.14281 0.062561 0.43572 -0.23803 -0.054412 0.63879 0.0058781 0.60372 0.40428 -0.26362 0.20819 0.085693 -0.49282 -0.47377 -0.00027816 -0.43172 -0.72376 0.10833 0.79837 0.061607 -0.44365 -0.1245 0.24034 0.98227 -0.32864 -0.51844 -0.093098 0.58825 0.27636 -0.53137 -0.094069 -0.093875 0.039395 0.27327 -0.42189 -0.13544 -0.036421 -1.0575 0.90901 -0.22888 -0.35881 0.45805 -0.75048 0.58668 -0.52491 0.10521 0.37564 -0.010827 -0.32724 0.19404 -0.42665 0.24259 -0.086866 -0.61784 0.11691 0.22036 -0.39213 0.85333 -0.4442 0.64339 -0.16145 -0.30135 0.53875 0.76756 0.99187 -0.44716 0.7728 0.2168 0.12521 0.32202 0.59415 -0.32888 0.18013 0.35228 -0.12365 -0.51985 -0.28601 0.21334 0.087685 0.26094 0.11848 -0.048923 0.51661 0.25225 0.29903 -0.51069 0.19973 0.12646 0.10829 -0.096714 0.12294 0.48283
box.n 0.24664 -0.35351 -0.20501 -0.4718 -0.42324 0.035972 0.23593 -0.46972 0.36506 0.50697 0.18038 0.068501 0.088646 0.62727 0.18461 1.025 0.63253 -0.43526 -0.0019551 -0.066165 0.2425 0.75508 0.044032 0.5002 0.12433 -1.0646 1.253 1.0289 -0.12422 0.025934 -0.13225 0.013932 -0.22135 0.017492 -0.14306 -0.82032 0.89703 -0.34073 0.36794 -0.68719 0.37822 0.023084 0.40039 0.075854 0.06477 -0.38057 0.19778 -0.17676 -0.2723 0.42822 0.18125 -0.092551 -0.51794 -0.4577 -0.16585 -0.012211 -0.30453 -0.56483 -0.28012 -0.42038 0.23529 0.075387 -0.50673 -0.097513 -0.72512 -0.049312 0.68245 0.27443 -0.41527 -0.28202 -0.37304 0.71084 0.48285 -0.51592 0.65061 -0.26062 -0.40376 -0.1531 0.47739 0.67274 -0.023839 -0.093927 0.56535 -0.17286 -0.10841 0.12807 0.14729 -0.10043 0.43414 0.2158 -0.6783 -0.18513 0.1874 0.55471 -0.086141 -1.1593 -0.46669 0.89787 -0.7969 0.70872
ceiling.n 0.39044 0.35466 -0.23314 -0.16662 -0.30555 0.059305 0.43134 -0.5832 0.14575 0.22347 -0.34897 0.28021 0.036495 0.68831 -0.065351 0.38696 0.17219 0.28779 -0.15371 -0.52351 -0.35718 0.1874 0.74798 0.326 -0.46549 -0.34674 0.99409 -0.67507 -1.1431 0.062374 -0.27766 -0.0094557 -0.84093 -0.027051 -0.032814 0.25784 -0.12778 -0.83823 -0.37363 0.30415 0.29711 0.49978 0.13161 0.11353 -0.38198 -0.69114 -0.376 -0.69763 -0.69519 0.40505 -0.34767 0.1462 0.10927 0.35556 0.034823 -0.5234 0.34196 -0.23948 0.57032 -0.46746 0.89056 0.42517 -0.85788 -0.72371 0.28194 -0.10987 -0.38313 -0.018933 -0.29321 1.3398 0.32141 0.52301 -0.30529 -0.10948 0.48137 -0.095414 0.024699 -0.073781 0.46541 0.55409 0.16842 0.51327 0.89543 0.89227 0.085765 -0.58727 -0.26754 0.11707 -0.67724 0.13962 -0.17342 0.86018 -0.00078249 -0.269 0.39511 -0.15126 0.30193 0.16997 -0.37109 -0.79988
paper.n -0.082112 0.85634 0.16041 -0.040164 0.20715 0.66433 0.37064 -0.65441 0.33041 0.63092 0.66371 0.39683 -0.3138 -0.25044 0.18606 0.49755 -0.43759 -0.4328 -0.094187 0.54538 0.61061 1.1029 0.32276 -0.64929 0.25558 -0.04622 0.66093 0.079983 -0.51543 0.0075148 0.51281 0.086303 0.30682 -0.13404 -0.40831 0.00071467 0.56018 -0.0071055 -0.27525 0.60444 -0.44016 0.42341 0.12684 0.060633 -0.23764 -0.64936 0.75033 -0.18089 0.2033 0.32417 0.07442 -0.68361 0.39797 -0.15023 -0.56996 0.020832 -1.0954 0.27622 -0.0027738 -1.1643 -0.44716 -0.45073 -0.12302 0.24188 -0.12361 0.48922 -0.41515 -0.60266 -0.64784 0.45098 -0.2813 0.60685 0.22622 -0.80535 0.28677 -0.29481 -0.71044 0.13385 0.31371 0.49704 -0.079096 0.46345 0.26231 -0.56339 -0.16823 -0.64686 -0.26959 -0.25082 -0.31071 -0.53343 0.33875 0.26676 0.073412 0.40611 0.40665 -0.61172 -0.19562 0.2854 -0.28681 0.37019
book.n 0.52532 -0.067828 -0.52948 0.40664 0.23223 0.2326 -0.017289 -0.12853 0.68874 0.029697 1.2035 0.083075 -0.16655 0.24414 0.94083 0.95258 0.5033 -0.13666 -0.45339 -0.68479 0.90908 0.40846 -0.22659 -0.24428 0.69232 0.053575 0.73731 0.50961 -0.65671 0.27281 -0.38353 0.58332 0.35414 -0.027936 -0.28402 -0.34578 0.47846 -0.46818 -0.64595 0.079384 0.48588 0.010081 0.022863 0.15047 0.40769 -0.50898 0.32432 -0.74219 0.13824 0.21746 0.11731 -0.30124 -0.78608 0.59444 -0.71194 -0.68953 -0.22004 -0.0015326 0.15356 -0.94628 -0.021289 -0.15525 -0.69635 0.34533 -0.96674 0.63082 0.59115 0.56823 -0.56225 0.5871 0.41655 1.1249 0.954 -0.63107 -0.09796 -0.61476 0.3426 0.1434 0.20416 -0.3281 0.15482 -0.095248 0.11612 -0.20047 -0.47187 -0.10576 -0.60635 -0.10398 0.1277 -0.84419 0.16344 -0.1254 -0.33028 0.53359 0.093079 -0.96345 0.16495 0.011833 0.038636 0.34914
vehicle.n 0.0017168 0.54314 -0.56975 -0.069385 -0.28496 0.37427 0.29943 -0.38718 0.028543 1.1839 0.41617 0.014731 -0.50906 0.62096 -0.10431 -0.090524 0.48705 0.63337 -0.085541 0.10848 -0.21963 -0.16482 -0.074795 0.60998 0.087184 0.45543 0.14959 0.10132 -0.10257 0.47059 0.04882 1.0594 -0.40106 0.26647 -0.37779 -0.063396 -0.0062465 0.56287 0.50296 0.42439 -0.44224 -0.23904 0.52101 0.18412 -0.081758 -0.7289 -0.31935 0.51468 -0.7558 0.43657 -0.17876 0.64772 -0.56923 1.0713 -0.15679 -0.25867 -0.62226 0.47468 -0.25994 0.25371 0.0044963 0.30319 -0.19707 0.20306 -1.0003 0.58256 -0.33706 0.50379 -0.18023 0.93256 -0.93029 0.098235 0.84376 -0.42396 0.061306 0.091773 -0.1699 0.30431 0.20189 -0.40672 0.62721 0.60388 0.89601 0.35983 -0.12314 -0.089972 -0.43428 0.17353 -0.344 0.4874 0.0056294 -0.034141 0.012768 -0.5278 -0.22801 -0.53259 -0.4089 0.074658 -0.60245 0.31575
cup.n 0.58715 0.15266 0.092994 -0.45183 -0.40356 0.18936 0.71764 -0.33615 0.46747 0.41419 0.55688 0.20258 -0.58682 -0.043872 -0.14068 0.15055 -0.58208 -0.56396 -0.43391 0.44605 0.14292 -0.094433 -0.54351 -0.24819 0.55803 0.65705 0.98807 -0.089189 -0.21991 0.51909 -0.22921 0.50318 0.40033 0.071762 -0.14559 -0.42667 0.3407 -0.11976 -0.78115 0.026244 -0.5904 -0.052497 -0.21655 -0.36451 -0.32854 -0.2168 0.45455 -0.08661 0.67102 0.64892 -0.044313 -0.24786 -0.1427 0.31573 0.00095687 -1.1217 -0.48502 -0.64239 0.46031 -0.77621 -0.251 0.021645 -0.35836 0.027319 -0.67081 0.92898 0.20993 0.03344 -0.45288 0.183 -0.10298 0.42253 0.34832 -0.85269 0.6004 -0.034059 -0.28465 -0.23849 1.0874 0.40618 -0.099018 0.085259 -0.42377 -0.053235 -0.52006 -0.17807 -0.68768 0.22709 -0.14003 0.85898 0.090498 0.46663 -0.26562 -0.23889 -0.1908 -1.367 -0.38164 -0.032559 -0.62522 0.08072
bowl.n -0.069669 -0.59663 0.21795 0.1629 -0.0054585 -0.13752 0.24659 -0.40288 -0.27195 0.68634 0.63996 0.47573 -0.23093 0.49389 0.17706 0.66423 0.39326 -0.83922 0.0047695 0.43311 0.89415 0.6729 -0.36711 -0.040956 0.21949 0.12163 1.1142 0.6967 -0.13494 0.003971 -0.28772 0.51096 0.75556 -0.0029097 -0.20163 -0.52926 0.66501 -0.52021 -0.15068 -0.62683 -0.26815 0.29917 0.6544 -0.098458 0.36994 -0.57881 0.17903 -0.056649 0.32092 0.54838 -0.64563 -0.24773 -0.43527 -0.51543 -0.14249 -0.2289 0.4147 -0.33079 0.47773 -0.70728 0.81651 -0.39801 -0.52158 0.0043911 -0.33153 0.081342 -0.56203 0.33495 0.044232 0.057726 -0.11904 0.10599 0.41407 -0.4664 0.27635 -0.22397 -0.60686 -0.27538 0.85484 0.19895 0.30402 0.80048 0.16494 0.36568 0.12499 -0.22428 -0.25839 0.51729 -0.51674 0.72418 0.42958 0.23981 0.12392 0.052832 0.45293 -1.2488 0.40702 0.14709 -1.0309 -0.1623
tower.n -0.60823 0.41688 0.1021 -0.77356 0.1623 -0.038628 0.322 0.11742 0.025682 0.3854 -0.36468 0.24417 -0.20245 0.0047803 0.7613 -0.21908 0.22925 0.18104 -0.10288 -0.090258 -0.15594 0.031908 0.4933 0.73824 0.043233 -0.34497 -0.026934 0.13913 0.45601 0.021173 0.48471 0.0071944 -0.11263 -0.44227 -0.35226 0.31044 0.79233 -0.89001 0.13182 0.40674 0.59186 0.47865 -0.19735 0.33107 0.69675 -0.026595 -0.33355 -0.81564 -0.58719 0.037716 0.2927 0.052789 -0.40516 0.3948 0.33911 -0.91671 -0.16058 0.11394 0.34104 0.14314 -0.90716 0.58645 0.41061 -0.35643 -0.80065 0.37376 -0.56034 -0.54903 -0.016166 0.5296 -0.34428 0.3007 0.58658 -0.47417 0.50663 -0.22212 -0.13204 0.2865 0.068899 -0.85282 0.063899 0.088602 0.9988 -0.19822 -0.37486 -1.4669 -0.79654 0.52603 -0.82405 -0.53836 0.66258 0.13321 -0.43222 0.025145 0.14312 -0.57118 0.096267 0.52592 -0.89336 0.35913
coffee.n -0.095544 0.3562 0.29841 -0.10378 -0.80827 0.042982 0.33483 0.077483 0.26797 -0.062335 0.56384 0.44207 -0.11037 0.27167 0.1058 -0.17116 -0.64773 -0.24003 -0.40705 -0.032009 -0.13395 -0.23561 0.20213 0.28621 0.42566 0.4456 1.4483 -0.17724 -0.19263 0.59401 -0.85952 0.63001 -0.22749 0.94589 -0.25605 0.31389 0.4301 -0.42764 0.027735 0.028814 0.18737 0.67515 0.42795 0.1318 -0.22511 -0.93482 0.21398 -0.0078467 0.45951 0.46018 -0.0073057 -0.75403 0.17277 0.16632 0.040386 -0.76291 0.13528 -0.17937 0.45002 -1.0523 -0.38901 -0.62752 -0.72025 -0.069219 -0.52429 0.53415 -0.15668 0.27201 -0.27293 0.10707 0.36146 -0.15828 0.99393 -0.6021 0.80461 -0.049117 -0.38755 0.25151 0.75925 0.32073 0.18153 0.51385 -0.41412 0.37692 -0.15399 -0.75729 -0.31578 0.33184 -0.2532 -0.14858 -0.097697 0.84529 0.49172 -0.2808 -0.019415 -0.49569 -0.29433 0.12625 -0.45459 0.40027
kitchen.n 0.29012 1.0781 0.55297 0.16201 -0.26884 -0.25772 0.31936 -0.50742 0.13329 0.48885 0.17036 -0.07208 0.043194 0.79091 -0.24644 0.18128 -0.30924 0.32631 -0.21648 0.26572 0.080738 0.68129 0.095831 0.38522 -0.1163 0.64332 0.8166 0.054023 -0.30051 0.99054 -0.39923 -0.69394 -0.09525 0.1199 -0.32557 0.86171 0.2324 -0.99632 -0.027897 0.2338 -0.15925 0.34724 0.21221 -0.72583 0.19725 0.037617 0.32455 -0.58302 0.37767 0.95363 -0.72875 0.07219 -0.27198 -0.33 -0.28186 -0.61091 0.38141 -0.53149 0.023079 -0.47224 0.026327 -0.084099 -1.0012 0.10201 0.27186 0.046629 -0.56551 0.45472 -0.30014 0.43325 -0.01436 0.3999 0.41778 0.69529 -0.11734 -0.35397 -0.53725 -0.16805 0.52513 -0.18785 0.12951 0.34598 0.037366 0.30049 -0.70206 -0.26663 -0.38569 0.82286 -0.34308 -0.064131 0.1357 0.45173 -0.020907 -0.051148 0.020312 -0.10605 0.057926 -0.14951 -0.3614 0.21267
dog.n -0.13361 0.10444 0.4876 0.26807 0.026499 -0.2528 -0.85641 -0.39365 -0.051966 0.20587 -0.088202 -0.31756 -0.0037773 -0.15949 0.9875 0.29247 0.35846 -0.28245 0.63893 -0.12762 -0.51195 0.25945 0.74315 -0.52694 -0.81174 0.050065 0.97583 -0.0085662 -0.041937 0.39029 -0.33828 0.79625 0.024834 -0.86104 -0.15149 0.092427 0.19244 0.20236 -0.071425 0.42918 -0.034052 0.22441 -0.062156 0.592 0.12957 0.34433 0.023973 -0.34386 -0.66833 0.57702 -0.99093 0.097131 -0.68613 -0.4883 -0.20909 -0.51104 -0.33015 -0.83341 0.93881 -0.096747 0.092095 -0.26331 0.40475 0.32022 -0.75794 -0.033861 -0.49152 0.43117 -0.049073 0.28291 -0.63413 -0.54992 0.71321 -0.43223 0.3809 -0.59026 -0.26233 -0.68409 0.28981 -0.24776 1.146 0.95963 0.097714 -0.35129 0.42914 -0.011095 -0.057967 0.61529 0.20378 1.1768 -0.17838 0.018497 0.12836 0.4778 0.31298 -0.11748 0.2002 -0.17538 0.3289 0.50843
leg.n 0.95765 -0.44728 -0.098239 -0.050066 -0.015439 0.31499 -0.26585 0.018508 -0.047853 -0.86656 0.1118 0.27107 -0.46909 0.33771 0.64878 1.0497 0.26143 -0.31587 0.59158 -0.36665 -0.12683 -0.59981 -0.030408 0.2417 -0.26849 0.13002 -0.010561 0.04189 -0.37681 0.0045421 0.44915 0.46747 0.08801 -0.52525 -0.7044 0.66387 -0.41632 -0.7353 0.61867 0.091451 0.26007 0.084984 0.94686 -0.30844 -0.7756 0.18457 0.87349 -0.67647 -0.46954 0.50412 0.13025 -0.096825 -0.54797 1.0199 0.56671 -1.1402 -0.64095 0.19188 0.55623 -0.60453 -0.10843 -0.58239 0.31887 1.0461 -0.55665 0.48228 -0.84254 -0.88137 -0.2859 0.6295 -0.013343 0.68662 0.65138 -0.43492 0.41871 0.36641 -0.37161 0.21032 0.64462 0.018869 0.21363 1.011 0.12943 -0.16152 0.17702 0.18207 -0.90657 0.58226 -0.20776 0.19443 -0.68228 0.38438 -0.06008 -0.84932 -0.27478 -1.4947 -0.33429 -0.55018 0.67967 0.18058
mountain.n -0.20627 0.053626 -0.38628 -0.50084 0.0031295 0.27443 -0.13962 -0.11092 -0.16981 1.0077 0.009479 0.17633 -0.39886 0.4924 0.036971 -0.070312 0.44626 -0.15376 -0.39938 1.2757 -0.62389 -0.62671 0.63136 0.88937 -0.18231 -0.41756 -0.47371 0.26964 -0.12538 0.19091 0.089142 -0.26722 0.5057 -0.64036 -0.094943 0.025154 0.3962 -0.012619 -0.61155 0.10476 -0.097648 -0.14345 -0.44397 0.40687 0.093347 -0.24694 -0.18619 -0.42396 0.65481 0.93679 -0.51131 0.20891 -0.65838 0.43519 -0.40387 -1.2623 -0.21196 0.38683 -0.37196 0.76314 0.2441 0.38322 -0.23647 -0.095393 -0.13199 0.3284 -0.65978 0.015247 -0.64675 0.49169 0.45002 0.89563 1.1312 -0.69475 -0.006173 -0.11539 0.58776 -0.21022 0.027205 -0.23043 0.38544 0.80067 0.72567 0.33784 -0.97413 -0.012103 0.08362 0.53486 -0.07341 0.29669 1.0267 -0.40246 -0.15853 -0.56384 0.011198 -1.2682 -0.24269 -0.017021 -0.27435 -0.22829
pair.n 0.608 0.24855 -0.032909 -0.076574 0.94351 0.023355 0.58207 0.28218 1.2458 0.48845 0.08652 -0.46848 -0.70344 0.59665 -0.12994 0.21679 0.47804 -0.058262 -0.14459 -0.10057 -0.51141 0.21595 0.33672 0.29591 0.1244 0.041073 0.14275 0.33441 -0.092536 -0.049745 -0.42718 0.65756 0.46555 -0.12194 -1.3366 -0.10997 -0.026776 -1.1703 0.72522 0.41631 -0.5841 -0.29076 0.48059 -0.59019 0.28874 -0.78406 0.27267 -0.813 -0.78247 0.91177 -0.82262 0.22206 -0.44599 0.32288 -0.29341 -0.61842 -0.72283 0.15072 -0.45483 -0.94145 0.11865 -0.71745 0.019149 0.41765 0.37674 0.33635 -0.34541 -0.11049 0.066656 0.070006 -0.62955 0.1205 0.13575 0.037467 -0.050106 1.3372 -0.078063 -0.053909 -0.048921 0.25666 0.11004 -0.53599 0.2 0.47644 0.28429 0.066855 -0.024977 0.042033 0.87602 -0.31055 -0.13002 0.86697 -0.56604 -0.42741 -0.055688 -0.58429 -0.34504 -0.076752 -0.39123 0.27745
pot.n -0.85923 0.52694 0.019254 -0.2871 -0.65869 -0.48843 0.01954 -0.30804 0.59572 0.49439 0.094595 0.96085 -0.51093 0.02253 -0.13949 0.76454 0.24528 0.18368 0.30794 0.62835 0.48083 0.34075 0.072119 0.68681 -0.11769 0.44521 1.0731 0.49472 -0.34596 0.43309 -0.69293 0.11184 0.50216 0.27038 -0.46659 0.36022 0.68865 -0.053584 -0.40727 -0.074889 0.85095 0.30358 0.2058 -0.097543 -0.76009 -0.91535 -0.15661 -0.45037 0.86101 0.19848 -0.72071 0.4639 -0.78522 -0.029997 0.17111 -0.19466 0.17222 -0.93375 0.28444 -0.012804 0.024868 -0.0042058 0.1898 -0.25564 -0.78886 -0.66192 -0.26919 0.24198 0.049846 -0.25156 -0.63402 0.27708 0.74565 -1.0434 0.37259 0.26704 -0.52373 0.35154 1.0938 0.31286 -0.17963 0.91493 0.28658 0.84325 -0.025955 -0.53935 -0.82605 0.094538 -0.087053 0.6127 0.33455 0.94133 0.17512 0.14628 0.11675 -1.6216 0.098215 0.82507 -0.13393 0.11667
tail.n 0.47389 -0.74418 -0.098626 0.36291 0.24725 0.21592 0.045961 -0.69739 -0.49848 0.84566 -0.83736 -0.20265 -0.80378 0.27419 0.38743 0.09012 -0.86894 -0.60639 0.8775 -0.90983 -0.78598 -0.2555 -0.33812 0.5176 0.46923 0.025129 0.051283 -0.1913 -0.13101 -0.085256 0.27039 0.20456 -0.72269 -0.14402 -0.44342 0.04698 -0.039843 0.19106 0.32322 0.36623 -0.74282 0.33363 0.70615 0.64287 -0.048449 0.61252 0.14515 -0.45376 -0.89196 0.80409 0.071716 -0.027373 0.14685 0.18907 -0.16063 -0.82561 -0.0074968 -0.15136 0.64654 -0.85202 0.75012 0.34691 -0.21664 -0.11423 -0.41264 0.020877 -1.4398 0.25311 0.10741 0.71178 0.20213 0.79415 0.64188 -0.45456 -0.067067 0.022324 0.94517 -0.41667 0.70142 0.21224 0.15966 0.40973 0.76591 0.22322 0.78396 0.14694 -0.20687 -0.16021 -0.12871 0.64078 0.58038 0.9101 -0.39366 -0.65044 0.15768 -1.0787 -0.088731 1.1105 -0.10489 0.28916
coat.n -0.05139 0.068382 0.51261 0.43886 0.46184 -0.045334 0.1315 -0.046953 0.50007 0.45582 0.81718 0.5823 -0.44717 0.3002 0.76442 0.31016 0.65365 0.5198 0.034137 -0.061212 -0.21135 -0.103 0.56691 0.24884 -0.81007 -0.012139 0.1969 0.12889 0.33854 0.4424 -0.55968 0.66342 0.16383 -0.1836 -1.0788 0.15489 0.37197 0.06053 -0.45606 0.56762 -0.76077 -0.30058 0.52317 -0.056248 -0.56409 -0.12412 0.57247 0.070872 0.2357 0.23663 -0.7299 0.13747 -0.22591 0.54946 -0.64068 -0.96207 -0.057396 -0.40756 0.15073 -0.26 0.11494 -0.39047 -0.43262 0.35395 -0.61029 0.6514 -0.87337 0.0050346 -0.61527 1.0152 -0.29083 0.2182 0.17426 -0.17022 -0.17184 0.34483 -0.040544 -0.091411 0.7861 -0.42841 -0.0086196 0.53009 0.43757 0.86262 0.093728 0.2815 -0.2203 -0.63163 0.50191 -0.6012 0.19166 -0.10399 -0.28655 0.40479 0.58034 -0.41087 -0.43557 0.26435 0.48471 0.15225
beach.n 0.097481 0.22069 -0.20546 0.4654 0.15136 0.47824 0.78152 -0.2103 -0.033517 0.41712 0.21439 -0.019961 -0.11828 -0.69912 -0.1804 0.68886 0.86473 -0.19763 -0.25544 0.55571 -0.36695 -0.12149 0.66221 0.42771 -0.31753 -0.53562 0.12507 0.11386 -0.31541 0.39764 0.43464 -0.32938 -0.65036 -0.77244 -0.67002 0.59161 0.43937 0.55222 -0.87056 -0.014547 -1.1684 -0.33045 0.091547 0.037491 0.069726 -0.53662 0.39408 -0.84907 0.24691 0.42468 -0.040351 0.22532 -0.49688 0.5576 0.92605 -0.22316 -0.38452 0.1822 0.048858 -0.60429 0.064697 -0.42226 -0.36679 0.81501 0.23132 0.23403 -0.39712 0.56817 -0.17143 0.66226 0.12714 0.81851 0.83556 0.0098174 -0.041252 -0.60772 0.69495 -0.27491 0.34287 -1.2327 0.5098 0.4563 -0.27115 -0.55696 0.051794 0.64295 -0.48039 0.79009 0.18969 0.27178 0.35052 0.36254 0.28217 0.30968 0.28285 0.14317 -0.072848 0.13869 0.080474 -0.23401
corner.n -0.30317 0.0069805 0.52464 -0.082274 -0.69568 0.11943 0.10107 -0.13155 0.51974 0.6168 -0.051057 -0.40792 -0.5068 0.6671 -0.10817 0.69826 0.12545 -0.18394 0.33991 0.026417 -0.037361 0.54899 0.82725 -0.41529 0.15176 0.24369 0.26378 0.1519 -0.22872 0.62803 -0.52401 -0.5157 -0.11999 0.03541 0.11842 0.40231 0.00051643 -0.42991 -0.32557 0.26292 0.021888 0.63301 0.22222 0.44684 0.31284 0.15644 0.30005 -0.46138 -0.14419 0.074675 -0.19934 0.29287 -0.53298 0.40195 -0.013281 -0.33094 0.087427 0.41041 0.26903 -0.20155 -0.48037 0.011002 0.086228 0.76464 -0.50327 -0.31136 0.50916 -0.089371 -0.084598 0.72009 0.063868 0.50087 0.29852 -0.18747 0.16162 0.023205 -0.47655 0.24632 0.351 0.67876 0.55283 0.51374 0.19229 0.10346 -0.21436 -0.72723 -0.47606 -0.12428 -0.47549 -0.15936 -0.18205 0.020665 0.49796 -0.67874 -0.1966 -0.22929 -0.19039 0.3821 0.21313 0.57377
horse.n 0.50819 0.2532 -0.33228 -0.52287 -0.11318 0.41193 -0.19263 -0.066194 0.042918 0.7311 0.34173 -0.18536 -0.12553 -0.22838 0.69649 -0.66375 0.30711 0.42118 0.30386 -0.4958 -0.47424 -0.92547 0.08029 0.44122 -0.8532 -0.61483 0.95387 0.80988 -0.23251 -0.37867 -0.82627 0.86532 -0.14381 -0.73307 -0.24637 0.09712 0.97746 0.14657 0.40283 0.75192 -0.26241 -0.27955 0.24368 0.69401 -0.94504 -0.24115 0.61782 0.10195 -1.1625 0.21441 -1.1239 -0.44124 -0.78894 0.26898 -0.70496 -0.5972 -0.69438 0.98014 -0.26598 0.55085 0.27685 -1.2653 -0.018706 -0.14468 -0.95419 -0.25899 -0.12411 0.88834 -0.40278 0.52071 -0.032064 0.12205 0.60182 -0.25217 0.8266 -0.63022 0.36447 -0.3661 0.91632 -0.74623 0.53025 -0.12637 0.14619 0.021818 0.073049 -0.040485 0.066731 0.12274 -0.30677 0.22918 -0.37732 -0.20847 -0.71706 0.59685 0.40651 0.28218 0.44289 0.15216 0.21188 0.4463
bicycle.n 0.041675 1.2034 -0.38736 0.38297 0.24262 -0.59596 0.13592 -0.59592 -0.47727 1.0667 0.69147 -0.2066 -0.28471 0.4907 -0.044823 0.31671 0.56722 -0.02247 0.27 -0.04856 -0.64388 -0.72569 0.40528 -0.15947 -0.050289 -0.17256 0.1288 0.49506 0.20694 0.38675 0.4468 1.0292 -0.20815 0.094903 -0.82386 -0.073107 0.61867 0.17459 -0.85468 0.25823 0.99448 0.2971 0.35193 -0.43021 -0.27072 -0.56478 0.52459 0.29765 -0.66588 0.36795 -0.69257 0.50054 -0.37258 0.58386 -0.60217 -0.70927 -0.13406 0.11239 0.096584 -0.706 0.30561 -0.54571 0.65643 0.43412 -1.2541 0.53093 -0.26056 0.87535 0.20653 0.3934 -0.65167 -0.26692 0.68856 -0.70316 0.11042 0.2203 -0.019752 0.78764 0.0088282 0.35405 0.34456 0.47127 0.16157 -0.30388 0.1273 -0.096902 -0.47684 -0.09059 0.28281 -0.17208 -0.31593 -0.29126 -0.17708 0.23621 -0.11026 0.37431 0.26281 0.40999 0.32582 0.26277
area.n 0.29131 0.53193 0.061292 -0.20722 -0.19351 -0.48323 0.0047866 0.60188 0.7811 -0.12822 -0.46459 0.19047 -0.72976 0.69773 0.30158 -0.023843 0.068775 -0.15751 0.31228 0.82391 0.09387 0.96445 -0.14747 0.70119 0.071422 -0.10095 0.18187 -0.23508 -0.45188 0.50054 0.30802 -0.21114 -0.40702 -0.047222 -0.7529 0.067329 0.22379 -0.44664 -0.13521 -0.53469 -0.21711 0.22711 0.88182 0.11348 0.12329 -0.44749 0.46694 -0.21069 0.4293 0.71669 -0.3675 0.24391 -0.98519 -0.22587 0.69369 -0.76731 -0.6046 -0.22401 -0.18293 0.56264 0.43258 -0.46875 0.15972 -0.13367 0.10672 0.2552 -0.4762 -0.099649 -0.30672 0.6105 -0.47285 0.74129 0.65627 -0.16391 0.097066 -0.4805 0.52469 -0.61721 0.62235 -0.44863 -0.056257 0.37643 0.30608 0.25192 0.093885 -0.69515 0.19637 0.25459 0.36627 0.29504 0.29938 -0.12045 0.89852 -0.48494 -0.61672 -0.30995 0.014752 -0.34494 0.25049 0.065334
body.n -0.58233 -0.14122 0.3165 0.028183 0.38904 0.28045 0.1871 0.23639 0.4978 0.13065 0.57774 0.33056 -0.043576 0.92038 0.25107 0.1212 1.068 -0.31703 0.12889 0.56193 0.021281 -0.49436 0.44774 0.283 0.37297 -0.32676 -0.43156 0.37978 -0.43231 -0.069887 0.058852 0.10104 0.67532 -1.126 -0.57486 -0.11246 0.80276 0.39718 0.095063 -1.0592 -0.2601 0.19902 0.57534 -0.10351 0.13187 0.42913 -0.56309 -1.1193 -1.0512 0.5049 0.18856 -0.063699 -0.76536 0.38523 0.64242 -1.3765 -0.29574 -0.22902 -0.051005 -0.54217 0.010884 -0.15161 -0.30961 0.2501 -0.12708 1.0211 -0.56168 0.38216 0.073277 0.7868 -0.34564 0.70848 0.16248 -0.66423 0.3372 -0.71192 0.73595 -0.95024 0.61033 -0.22469 0.50981 0.038695 0.52176 -0.4809 -0.30343 0.25863 -0.24366 0.13674 0.006511 0.5028 0.55065 0.22599 0.58146 -0.11707 -0.10969 -0.97072 0.42416 0.25318 0.076906 0.18127
arm.n 0.52926 0.2519 0.12348 -0.1598 0.050681 0.63531 0.34725 -0.22882 0.15237 -0.35077 0.42238 0.50313 -0.69089 -0.3194 1.1238 0.99522 0.069756 -0.65422 0.63051 0.30374 -0.43808 0.18082 0.54579 -0.06129 -0.060817 -0.36759 -0.1232 0.099205 -0.4058 0.55315 0.37836 0.6514 0.24309 -0.42793 -0.89419 0.94227 0.20877 -0.66457 -0.29681 -0.61463 0.41183 0.21134 0.13693 0.1573 -0.61752 0.075458 0.33098 -0.11945 -0.58506 0.38576 0.80185 -0.25006 -0.033694 0.58416 0.077542 -1.1275 0.21933 0.18498 0.25615 -0.53911 -0.23357 -0.62328 0.25989 0.48193 -0.57696 0.21494 -0.43149 -0.58253 0.60196 0.80294 -0.019717 0.69009 -0.041386 0.2145 0.6858 -0.30754 -0.13561 -0.28842 0.99313 -0.20832 0.066277 0.71387 0.25755 0.26166 -0.062968 -0.024778 -0.24722 0.012577 0.025954 -0.46833 -0.27863 0.38302 -0.018786 0.018249 -0.29519 -0.46963 -0.81444 -0.16722 0.23564 0.23761
mouse.n -0.18309 0.12184 -0.17086 0.21478 0.52687 0.74853 0.25341 -0.46336 -0.35149 0.82676 0.19229 -0.24179 0.39399 -0.57707 0.31677 0.41525 -0.0080036 0.0088243 -0.29605 0.50658 -1.0957 0.1806 0.37619 0.19032 0.074682 0.30499 0.99658 0.17351 -0.089997 7.6073e-05 -0.15718 0.49148 0.022559 -0.38686 -0.58659 0.13796 0.23834 -0.76622 -0.31653 0.10625 0.21395 -0.46397 0.52503 0.47119 -0.57378 -0.73366 -0.1264 -0.42205 -0.013369 -0.38544 0.32035 -0.96937 -0.52076 0.039628 -0.84547 -1.1177 -0.58979 -0.44152 -0.32771 -0.80216 -0.38772 0.59286 -0.7026 -0.55661 -1.374 0.95501 -0.61211 -0.16424 -0.4704 -0.47393 -0.12971 0.94694 1.2276 -0.94998 0.74426 0.26452 -0.3339 -0.49932 0.64994 -0.28514 0.42139 -0.25814 -0.13169 -0.27519 -0.82662 -0.97216 -0.24987 0.41128 -0.13963 0.00072343 -0.13509 -0.099985 -0.98467 0.1255 -0.47381 -1.0596 0.23139 0.40555 -0.44231 0.34074
cat.n 0.55551 0.12046 0.27899 0.2609 -0.18281 0.52463 -0.61121 -0.63356 -0.62523 0.21227 1.0598 0.0084333 0.15866 0.054534 0.97196 1.2431 -0.25149 0.009235 -0.14073 -0.62696 -0.18477 0.44921 -0.13259 -0.54415 -0.46285 0.32632 0.76943 0.52329 0.053173 0.99946 -0.20014 0.95945 -0.17379 -0.14524 -0.78391 0.44098 -0.15552 0.10726 0.50492 1.0469 -0.51978 0.72759 -0.24323 0.37766 0.081931 -0.48722 -0.27204 -0.8819 0.039212 0.59651 -0.247 -0.28477 -1.1702 0.66659 -0.16306 -0.26954 -0.3251 -0.26849 0.33932 0.064311 -0.14895 0.15084 -0.40234 0.3292 -0.63104 0.16764 -1.284 -0.77585 0.13559 -0.023623 -0.51839 0.078681 0.48811 -0.6106 0.43837 -0.55553 -0.26435 -0.79187 0.94605 -0.52433 0.54622 0.086498 -0.41152 -0.27203 0.30571 0.28539 -0.5435 0.43034 -0.2661 0.36973 -0.13832 -0.026693 -0.25169 -0.71385 0.41653 0.076163 -0.2928 -0.1021 0.011883 0.85911
bridge.n -1.2025 0.62266 -0.25245 0.11099 -0.51563 0.61182 0.56142 -0.24821 -0.14861 0.14733 -0.45884 0.24057 -0.079157 0.35705 0.30608 -0.050165 0.1911 0.36347 0.20697 0.12036 -0.37066 -0.41025 0.3779 0.31165 0.1366 -0.98499 -0.40508 0.0099004 -0.62421 0.071305 0.20764 -0.30503 -0.41952 -0.83446 -0.57957 -0.51879 0.30864 -0.089238 0.0514 0.75885 -0.16669 0.33081 -0.4307 0.38356 0.15704 0.082576 0.47733 -1.0796 -0.45414 0.73141 -0.16811 0.31131 -0.44126 1.4374 0.070422 -0.98819 -0.0068722 0.048393 -0.11442 0.033754 0.75478 -0.70202 0.053098 -0.33959 -0.48532 0.71565 -0.79453 0.47433 0.11455 0.28258 0.35769 0.18277 0.7096 0.017489 0.28874 -0.074888 0.68999 0.00077365 0.9419 -0.48358 -0.016149 0.23948 0.50804 -0.072645 -1.107 -0.08323 -0.23155 0.33318 -0.56013 -0.012333 0.41873 -0.1388 0.27372 0.086197 0.41884 0.10162 -0.022095 0.089611 -0.065441 0.81854
eye.n 0.4745 -0.28208 -0.1801 -0.29316 -0.20529 -0.089026 -0.13799 -0.034665 0.21281 -0.21677 0.6421 0.38779 -0.6602 0.54441 0.68253 0.45948 0.35025 -0.94266 -0.13829 -0.93786 -0.73232 -0.61198 -0.047979 0.52316 0.8251 -0.099826 0.052322 0.95104 -1.0349 0.59375 0.8304 0.69027 0.71605 -0.66671 -0.51166 0.56435 -0.64287 -0.2812 0.2114 0.14682 -0.032202 -0.46871 0.92988 0.097374 0.097099 0.47066 0.83064 -0.51766 -0.9347 0.3211 -0.085953 0.28447 -0.65657 0.33205 -1.0872 -0.95474 -0.30848 -0.14609 0.28116 -0.70137 0.74654 0.10747 -0.048897 0.24267 -0.1973 0.41406 -1.307 0.29459 -0.79019 0.31035 -0.51857 0.6959 -0.22233 0.10388 0.60365 -0.24227 0.19818 -0.075125 1.2727 -0.50602 0.59991 0.15654 -0.17728 -0.24528 -0.36932 -0.0038404 0.084619 0.12463 0.31497 0.26636 1.0672 0.49368 -0.48412 -0.80916 -0.51387 -0.8316 -0.084514 0.82703 0.48018 -0.56107
cloud.n 0.33622 0.17233 0.084273 0.89107 -0.25105 0.1796 -0.26115 -0.31015 -0.76562 0.86088 0.30344 0.74074 -0.52322 0.21007 0.71805 0.46089 0.8687 0.76009 -0.3587 0.088221 -0.46316 0.060566 -0.21708 0.035937 -0.11074 -0.079802 0.41117 0.79723 -0.44456 0.0029177 -0.089317 0.09927 0.44894 -0.17666 -0.96355 -0.22095 0.1714 -0.10714 -0.34588 0.46879 0.1398 0.030364 -0.078395 0.44021 0.048381 0.20119 0.32286 -0.72778 -0.45436 0.82064 0.1233 -0.55383 -1.7015 0.16239 0.080258 -0.80807 0.32749 0.33847 -0.5067 -1.2774 -0.13947 0.13678 -0.03141 0.50566 1.2307 0.61888 -1.6097 -0.24846 -0.89505 0.93625 0.11849 0.98977 0.77393 -0.52339 -0.17671 -0.10551 0.79893 -0.54988 -0.06859 -0.18076 1.1542 0.78249 1.3322 1.2919 -0.28076 -0.55255 -1.1161 -0.41035 -1.0633 0.14118 0.52039 0.36374 -0.35635 0.28874 0.30779 -0.43052 -0.014681 0.50839 -0.92916 -1.0738
basket.n 0.42757 -0.30495 0.21924 -0.14513 0.51009 -0.37842 0.33784 -0.2307 -0.31913 1.2956 0.95223 0.10701 -0.56973 0.6406 -0.63902 0.42061 -0.0029486 -0.31503 0.04606 0.08905 0.46141 0.42168 0.52979 0.076739 -0.60703 -0.10662 0.97755 -0.13561 -0.12889 0.032687 -0.45701 0.070717 0.86224 0.67385 -0.70213 0.29121 1.4166 -0.73908 -0.32498 -0.11552 0.1108 0.39629 0.34196 0.071018 -0.4316 -0.65246 0.66116 0.47125 -0.043322 0.089191 -0.67277 0.066577 -0.48323 0.10444 0.28083 0.075596 -0.15945 -0.4981 0.61181 -0.2218 1.4396 -0.65462 -0.61936 -0.057776 0.021342 -0.16932 0.079314 0.31163 0.25368 -0.23356 -0.50848 1.1704 0.49177 -0.72397 -0.015059 -0.7801 -0.31524 -0.11982 0.63536 0.34943 -0.033701 0.46749 -0.069551 -0.1431 0.094441 -0.26643 -0.5054 0.11639 0.071631 0.31287 0.11038 0.47384 -0.20667 0.56005 -0.3558 -0.7814 -0.39781 0.46457 0.00016638 0.24309
dirt.n 0.035943 -0.033923 0.17016 -0.19372 -0.33573 0.65685 -0.45139 0.4455 -0.66364 0.54331 0.11151 0.092527 0.19765 0.70414 0.33891 0.22251 0.49518 -0.36399 -0.11703 0.7191 -0.21935 0.45338 0.35058 0.30141 -0.54597 0.042307 0.46082 -0.16166 -0.2161 0.8413 0.24959 -0.11732 0.13366 0.0036092 -0.65557 -0.23852 0.56596 0.55063 -0.58544 0.13916 0.29382 0.10845 0.16554 0.52983 -0.71982 -0.43179 0.76597 0.017704 0.43498 0.82982 -0.73132 -0.041734 -0.10998 0.32858 0.20897 -0.40717 -0.78782 0.51173 0.0019116 -0.10985 0.36739 -0.60949 -0.023292 0.30216 0.18078 -0.10064 -0.73721 -0.35582 -0.25875 0.33646 -0.64028 0.37634 0.8716 -0.02246 -0.069952 0.20469 0.39388 0.49576 1.1834 -0.32495 -0.29767 0.16123 0.3412 -0.15933 0.018899 -0.3575 -0.28628 0.48042 -0.17324 0.20108 0.15314 -0.99549 0.12791 -0.55946 0.19572 -0.091832 -0.78115 0.47408 -0.048322 -0.15382
child.n 0.2132 0.13663 1.1559 0.082181 0.016137 0.32694 0.0042512 -0.087862 0.31772 0.085204 -0.29148 0.026289 -0.70694 -0.29565 0.66759 0.20762 0.87676 0.15135 -0.26027 -0.12721 -0.22434 -0.16287 0.33809 -0.44056 -0.82869 -0.092947 0.11719 0.5338 0.49151 0.61724 0.12129 0.57021 -0.009285 -0.38135 -0.77162 0.45461 -0.3146 -0.030286 -0.7666 -0.13087 -0.2516 0.11486 0.74796 -0.15284 -0.338 0.21614 -0.0028396 -0.095962 0.21087 0.20674 -0.78685 -0.16365 -0.72705 -0.094232 -0.27728 -0.41694 -0.01335 0.34368 0.020869 0.047526 0.83165 -0.67007 -0.57613 0.3277 -0.44912 0.39773 -0.25993 0.040579 -0.2661 0.41412 0.052424 -0.069291 1.2014 -0.23943 0.26677 -0.59436 -0.0040705 -0.50429 -0.30189 0.29499 -0.070761 0.29178 0.43489 0.038091 0.087583 -0.2207 -0.070544 0.089245 0.93793 1.0094 0.38619 0.29399 -0.52995 0.2548 0.31191 -0.42182 -0.43862 0.13681 0.50735 0.86133
key.n 0.029725 0.98808 0.056792 -0.34229 0.77585 0.96772 0.40958 -0.89795 0.14752 0.33119 0.27316 -0.85692 1.0603 -0.36621 0.3469 1.1159 -0.10747 -0.019686 -0.13266 0.15802 -1.2335 -0.32106 0.31287 -0.2623 0.29747 0.67061 0.79277 -0.80569 -0.38051 0.47693 -0.12089 0.24206 -0.15021 -0.16897 -0.90398 0.63986 0.82835 -0.53286 -0.67972 0.44427 0.57326 -0.14232 0.016681 0.39534 -0.38943 -0.13286 0.52187 -0.3877 -0.44969 -0.1266 0.14183 -0.22703 -0.7819 -0.31276 -1.8195 -0.8303 -0.90275 0.20588 0.15068 -1.1011 -0.52894 0.3086 -0.58996 0.09584 -0.85979 0.20666 -0.98438 0.23552 -0.26887 0.12272 0.22841 0.077761 1.0639 -0.45479 -0.086065 -0.05802 -0.054211 0.92771 1.1476 0.3221 0.086238 0.1905 0.77281 0.51232 -0.90529 -1.1093 -0.77926 -0.37813 -0.91234 0.64489 0.43341 -0.18949 -1.4428 0.32679 0.44746 -1.3695 0.34259 0.055351 -0.20922 0.13115
ball.n 0.39104 0.27709 0.068182 0.090702 -0.13984 -0.48053 0.68596 0.35739 -1.2714 0.21383 0.62314 -0.021331 -0.39502 0.76286 1.0315 0.27047 -0.23814 -1.2558 -0.21853 -0.026559 0.019688 0.31835 0.2642 -0.4333 -1.4398 0.2364 0.36196 -0.14949 -0.32341 -0.13591 -0.17333 -0.31755 -0.82063 -0.071339 -0.50066 0.4194 0.18917 0.10822 -0.44635 -0.084778 0.46767 0.45953 0.27678 -0.63909 -0.43891 -0.81186 -0.80126 0.27651 0.0082788 0.45039 -0.6777 -0.33278 -1.0003 0.053155 0.38598 -0.53258 0.44591 0.80124 1.1521 -0.11629 0.033779 -0.089391 -0.49227 0.50717 -0.62599 0.12858 -0.24523 0.46912 -0.11712 0.62077 -0.84738 0.51404 0.38974 -0.45083 -0.05647 -0.25584 0.45567 -0.61645 0.28953 -0.10387 0.6121 0.62519 -0.071802 -0.056782 -0.010146 -0.18048 0.38088 -0.6152 -0.54652 0.58365 -0.20298 0.095173 -1.5529 0.70848 -0.261 -0.80732 -0.028161 0.43794 -0.38867 -0.053663
air.n 0.58962 0.47764 -0.70933 -0.17422 0.94556 -0.34769 0.7685 -0.063122 0.40348 1.1959 -0.81221 -0.081601 -0.48733 0.97677 0.19949 0.031924 1.0268 -0.19572 0.47031 0.31415 0.043384 0.50317 0.012466 0.61856 -0.41118 0.91778 0.11727 -0.73131 -0.57867 -0.42527 0.10801 -0.3529 -0.54121 -0.20526 -0.52127 1.2435 0.2707 -0.3012 -0.25984 0.7484 0.016489 0.070265 -0.68186 -0.4539 -0.18137 -0.54843 -0.33286 -0.28301 -0.89402 0.051974 -0.13336 -0.27297 -0.13513 0.78132 -0.068958 -0.98829 -0.36552 0.40687 -0.43329 -0.89427 0.70645 0.50153 -0.34024 0.52485 0.49614 -0.40678 0.0078533 -0.2542 -0.76082 0.33891 0.042609 0.075678 0.67258 0.57364 1.0199 0.22642 0.27948 -0.96539 -0.058047 -0.084806 0.718 1.3898 -0.23406 0.63318 0.36775 -0.27867 -0.47089 -0.45366 -0.4494 0.45882 0.092795 0.45954 -0.36888 0.59941 0.49504 -0.69968 -0.47804 1.4635 -0.70442 0.34437
bathroom.n 0.47004 1.2934 0.4101 0.2692 -0.59033 0.23857 0.43573 -0.55859 0.48339 1.283 1.0869 -0.038853 0.1618 0.60656 -0.23445 -0.2092 -0.046652 0.5165 0.11328 0.30535 0.46771 0.34813 0.75503 -0.14211 -0.23886 0.36145 0.069322 0.076564 -0.22922 0.92347 -0.10627 -0.2402 0.052359 0.02468 -0.46546 0.39214 0.69663 -0.89708 -0.59815 0.077611 0.19135 0.65418 0.43561 -0.26108 -0.06121 -0.56325 -0.35585 -0.47664 -0.027258 0.61653 -0.41347 0.35856 -0.49629 -0.059376 -0.18483 -0.82114 0.096592 -0.40315 -0.0030319 -1.1076 0.55035 -0.11883 -0.41239 -0.10475 -0.20018 0.39595 -0.5172 -0.3519 -0.25273 0.60814 -1.0115 0.68986 -0.014599 0.3148 0.27905 -0.78454 -0.44628 -0.53522 0.83345 -0.11253 0.33235 0.59015 0.24368 -0.46229 -0.30136 -0.41089 0.087533 -0.15065 -1.0114 -0.009112 0.23643 0.15259 -0.28914 -0.2156 0.34714 0.36842 0.42914 -0.15916 -0.97504 -0.30879
nose.n 0.18805 -0.6067 0.067598 0.33869 0.85786 0.52191 -0.14352 -0.02328 0.29292 0.0046051 -0.15821 0.62328 -0.45472 -0.23094 0.17275 0.39691 -0.1136 -0.86816 0.41619 -1.0169 -1.0546 -0.67389 -0.21045 0.5676 0.073431 -0.17896 0.033483 0.63413 -0.44312 0.51402 0.32659 0.24306 0.32424 -0.61025 -0.69033 0.69307 0.010573 -0.15909 0.54506 0.43673 -0.061391 -0.053857 0.50099 0.11821 -0.26975 0.29966 0.34841 -0.53677 -0.90094 0.25711 -0.097442 -0.45226 -0.33835 0.30801 -0.61025 -1.0269 -0.69133 0.19968 0.26617 -0.59764 0.78356 0.40335 -0.21632 0.12153 -0.30679 0.088236 -1.443 0.57331 -0.24089 0.35175 -0.3568 0.6658 0.34858 -0.1632 0.39385 -0.2214 0.13774 -0.50453 1.095 -1.0912 0.45055 -0.092124 -0.14084 -0.20693 0.18395 -0.39287 -0.82354 0.26697 0.31366 0.25404 0.65733 -0.11291 -0.92282 -0.32281 0.019486 -1.1176 0.32602 0.35458 0.37172 -0.20386
hill.n -0.12972 0.042724 -0.69028 -0.41836 -0.017836 0.28152 0.30667 0.35723 0.11946 0.69061 -0.58727 0.26255 -0.26851 0.17357 0.27803 -0.067513 0.6561 -0.23915 -0.58398 0.79044 -0.10966 -0.45559 0.60299 0.82901 -0.66822 -0.14693 -0.14995 0.082221 -0.20856 -0.30418 0.47241 -0.81171 0.092063 -0.91442 -0.25976 -0.36071 0.33352 0.010949 -0.51195 0.59561 0.10211 0.05984 -0.24558 0.85062 0.16287 -0.45531 0.68555 -0.7377 0.083663 0.50564 0.34192 0.23942 -0.80867 0.22639 -0.71741 -1.4166 -0.4206 1.0189 -0.037167 0.72926 0.28997 0.20527 -0.073195 0.23179 -0.4523 0.24416 -0.48547 0.055768 -0.401 0.46988 0.15061 0.60683 1.1871 -0.52385 0.12935 0.099903 0.44158 -0.27759 0.47358 -0.46196 0.41547 0.36405 0.68613 -0.39643 -0.34549 -0.37221 -0.23947 0.60994 0.20583 0.043357 0.57707 -0.64027 -0.42572 -0.22297 0.054584 -0.44553 -0.7656 0.057532 -0.31547 -0.27109
palm.n -0.54458 0.24424 -0.085391 -0.68343 0.29057 -0.088832 -0.018713 0.57682 5.255e-05 0.048486 0.18538 0.27772 -0.48045 -0.021166 -0.66554 0.47769 0.22272 -0.11062 -0.29063 0.34523 -0.091615 -0.97734 0.65982 0.40167 0.019221 -0.0091372 0.94182 0.39849 -0.44696 -0.049832 0.54901 0.30231 -0.20189 0.1526 -0.078809 -0.37611 -0.3261 0.16155 -0.40854 0.22644 0.31126 0.31388 -0.42754 0.05014 0.032931 -0.4074 -0.016912 -1.0598 -0.2792 0.8015 -0.80957 -0.45333 -0.66152 0.031922 -0.35864 -0.24987 -0.58479 0.26692 0.091433 0.099085 -0.37731 -0.62353 0.043929 0.44292 -0.16008 0.063176 -0.19025 0.2632 -0.046223 0.11206 0.077898 0.23653 0.9821 -0.33626 0.19791 -0.53356 0.92909 0.078102 0.32679 -0.5683 0.031707 0.58772 0.35522 0.47264 -0.62613 -0.17843 -0.6937 -0.2461 0.045187 -0.25474 0.39589 0.81266 0.50587 -0.2291 -0.058652 -0.1837 -0.37475 0.15649 -0.081377 0.16832
foot.n 0.63673 -0.35742 -0.63769 0.46611 -0.92213 0.22479 -0.23357 -0.080313 0.5297 -0.093861 -0.54563 -0.05879 -0.1105 -0.25859 0.7056 0.87586 0.74186 -0.18228 -0.41674 0.87491 -0.11074 0.34716 0.0054755 0.12133 -0.12262 0.4124 -0.66337 0.57896 -0.40858 0.7064 -0.46765 0.47403 0.28209 -1.091 -0.42295 0.88618 0.13867 -0.36025 -0.46028 -0.0016894 0.050059 -0.38238 0.8494 -0.42282 -1.2902 -0.62209 0.4084 -0.69675 -0.74057 0.91804 0.31372 -0.0095931 -0.13162 0.23757 0.52248 -0.49117 -0.35071 0.23915 -0.094531 -0.13414 1.0222 -1.0622 0.13639 1.1274 -1.0457 0.56825 -0.48636 -0.8919 0.44204 0.11966 -0.095709 0.24 0.53374 -0.40403 0.36896 0.16939 0.079786 -0.27909 0.56085 -0.3545 0.26585 1.3044 0.46768 -0.13609 -0.11683 -0.82105 -0.2723 0.037323 0.30367 -0.077925 0.43284 0.428 0.11985 0.032432 -0.77812 -1.0648 0.61335 0.077829 1.2457 -0.39783
sweater.n 0.078652 0.50271 0.87066 0.052055 0.15152 0.29667 0.23977 0.11011 -0.059962 0.55416 0.49643 0.51254 -0.56914 0.10668 0.82622 0.87966 -0.018361 0.32286 0.20811 -0.48355 -0.55493 0.23466 0.54405 0.28323 -0.89728 0.11382 0.23085 0.34511 0.20951 0.47756 0.46435 0.87904 0.060928 -0.056037 -0.67295 -0.14192 0.49848 -0.53949 0.073408 0.4548 -0.52862 0.096373 0.24638 -0.23142 -0.28606 -0.07376 0.27381 0.21073 0.40934 -0.13793 0.1449 -0.0026292 -0.32604 0.0034656 -0.53538 -0.99953 -0.083084 -0.50831 -0.044789 -0.74698 -0.59429 -0.3485 -0.41474 0.27944 -0.41905 0.96356 -1.1209 0.046968 -0.76514 0.50422 -0.43415 0.54143 0.4678 -0.41561 0.11186 0.19506 -0.054753 -0.20581 1.1054 -0.36462 -0.099833 0.39253 0.25466 0.5396 0.28261 0.25256 0.12922 -0.24451 0.41477 -0.4631 0.016369 0.50392 0.064163 0.21375 0.1356 -0.22519 -0.3376 0.53376 0.46731 0.072648
cow.n -0.23525 0.84355 0.024806 -0.60594 -0.48491 0.047237 -0.48281 0.5192 -0.453 0.43592 -0.20237 0.24266 -0.1578 -0.096772 1.1855 -0.31485 0.45753 -0.27273 0.52155 -0.22211 -0.46863 -0.78797 0.091443 0.40762 -0.88624 0.3773 0.72691 -0.0124 0.2188 0.43592 -0.55098 0.43871 -0.39526 -0.58251 -0.87079 0.13009 0.53474 -0.14082 0.25825 0.84671 -0.31808 0.27037 -0.019838 1.0535 -0.60912 0.3193 0.59761 -0.21462 -0.64535 0.30025 -0.89643 -0.51574 -0.3669 0.16415 -1.5911 -0.50147 -0.81469 0.026326 -0.11185 0.52369 0.16078 -0.28113 -0.55015 0.77124 -0.3536 -0.47514 -0.20179 0.27613 -0.85742 0.37996 -0.66756 -0.4072 1.1699 -0.63344 0.012532 -0.51046 0.46068 0.088154 0.95344 -0.080506 1.1436 0.45765 0.38867 -0.051422 0.91352 -0.46719 -0.16721 0.11959 -0.69671 0.14335 0.15046 -0.0085885 -0.27285 -0.55103 0.26395 -0.1851 -0.14481 0.0045471 0.022151 0.044758
bottom.n -0.054069 -0.039608 -0.044449 0.091316 0.35142 0.10953 0.43816 -0.14792 0.4773 1.1069 -0.18163 -0.24654 0.50868 0.049766 0.13203 0.35361 0.60873 -0.53527 0.082943 -0.38061 0.14697 0.065525 0.18466 -0.020807 -0.30465 0.36183 -0.2179 0.055532 0.10159 -0.025905 0.11482 -0.56688 0.037899 0.027528 5.67e-05 -0.13002 0.16368 -0.4113 -0.2816 -0.34592 -0.074293 0.80388 0.090489 0.28208 0.45355 -0.25773 -0.25352 -0.96359 -0.47324 0.57371 0.18229 0.32227 -0.39718 0.21221 0.012875 -0.5299 -0.26943 0.21438 -0.0096089 -0.61776 0.39859 -0.071754 0.45465 0.41415 -0.73145 -0.37732 0.38088 -0.24939 0.053588 0.073514 0.076442 -0.30874 0.030556 -0.079901 0.62007 -0.31509 -0.59408 -0.52541 0.71546 0.13114 0.5571 -0.22205 0.17517 -0.46096 -0.26443 -0.29143 0.53614 -0.35944 -0.24081 -0.074927 -0.21371 0.58399 0.25346 0.0075164 0.40869 -0.86708 -0.28811 0.70022 0.54941 0.27611
container.n 0.033834 0.00038492 0.37995 -0.72024 -0.069091 0.026783 -0.15122 -0.40687 0.054685 0.76292 0.39753 0.29093 -0.77259 0.36577 -0.05726 -0.2237 0.16457 -0.38307 0.0012898 0.16441 0.033303 0.52728 0.32224 0.41694 0.76154 -0.039526 0.99449 0.45931 0.022638 -0.21034 -0.2214 -0.18901 0.56163 0.41473 -0.21269 -0.29739 0.71005 -0.55945 0.12869 -0.22329 -0.48683 -0.017875 0.11629 0.05223 0.012425 -0.32134 0.33185 0.16282 0.12035 0.446 -0.67666 0.41668 -0.59544 -0.20645 0.10734 -0.035402 0.13097 -0.69273 0.30091 -0.24235 0.39617 0.18887 -0.29364 -0.10728 -0.35424 0.50633 -0.18142 -0.34279 -0.18108 -0.2323 -0.018907 -0.049793 0.74472 -0.91901 0.6112 -0.28318 -0.54159 -0.08039 0.24173 0.17944 0.2782 0.46743 0.29437 0.06531 -0.00084951 0.25491 -0.46072 -0.18653 0.098074 0.59282 -0.11853 -0.23455 0.059583 -0.10782 -0.13179 -1.3711 -0.52521 -0.2791 -0.37275 0.55814
curtain.n 0.069898 1.1222 -0.45276 0.37294 0.2991 -0.046234 0.38026 -0.59607 0.085713 0.26184 0.44498 0.64121 0.11925 0.29164 -0.018262 0.18604 -0.04031 0.12117 -0.41214 -0.45488 0.64458 -0.013134 0.27445 -0.3838 0.011878 0.78196 0.61342 0.28272 0.27722 0.39465 0.43419 0.059385 -0.19598 0.11689 0.0027955 0.040111 0.38139 -1.1399 -0.35931 0.49928 -0.26232 0.094251 -0.52537 0.24483 -0.70058 -0.29127 -0.21023 0.22446 0.008634 0.4955 0.28092 -0.52444 -0.74515 0.094009 -0.04002 -1.3557 -0.3893 -0.79239 0.62533 -0.052798 -0.17415 -0.14799 -0.60097 0.015594 -1.0905 0.2399 -1.3576 -0.68429 -0.87151 0.65075 0.40813 0.99113 0.39495 -0.42072 -0.33075 -0.63284 0.42844 0.053178 0.78474 -0.25778 0.27436 1.0889 0.99012 0.74888 0.10605 0.49911 0.21405 -0.42682 0.058212 0.043985 0.20216 1.4168 0.42066 -0.4907 -0.37551 -0.54872 -0.14016 0.03416 -0.10722 -0.34607
sofa.n 0.054422 0.64249 0.10365 0.65437 -0.21124 0.21098 0.078569 -0.43475 -0.047756 0.24412 0.65699 0.14602 -0.10024 -0.015599 0.21388 0.1264 0.062436 -0.13574 -0.46197 0.19151 -0.73518 0.1077 -0.32478 0.36857 -0.52173 0.39702 0.52729 0.040597 0.10419 0.10546 -0.62294 0.72593 0.049365 -0.23648 -0.10615 0.21577 0.57594 -0.57005 -0.79286 0.43901 0.085708 0.4462 -0.030861 0.10501 -0.062307 -0.6867 0.35893 -0.1426 0.0065459 0.40523 0.07785 0.11785 -0.59635 0.44781 -0.00084228 -0.97145 -0.22124 -0.8571 0.19207 -0.67708 -0.41849 -0.95193 -0.5119 0.90533 -0.97472 0.10347 -0.071921 0.17341 0.026811 0.67409 0.38266 1.3769 0.65338 -0.94647 0.33525 -0.063389 -0.21997 -0.016333 0.7121 -0.00034803 0.4753 0.059823 0.088092 -0.24623 0.31931 -0.081465 0.12728 0.08027 0.21987 -0.12732 -0.36798 0.77784 0.16416 -0.94609 -0.092712 0.028694 0.09447 -0.14894 -0.043057 0.0027941
spoon.n 0.0046516 0.29925 -0.053362 0.61195 -0.066574 0.30127 0.52437 -0.53948 -1.0273 0.4383 0.72623 0.19665 -0.44138 0.044854 -0.11454 0.41123 -0.12096 -0.64624 -0.11644 0.67064 0.09456 -0.10518 -0.60169 0.11866 0.8601 0.59927 1.5335 0.15975 -0.81945 0.85035 0.29585 0.7228 -0.12289 -0.35793 -0.48692 0.19534 0.10285 -0.24721 -0.51129 0.062687 -0.075292 0.054699 0.84141 -0.21118 -0.1851 -0.28649 0.51886 -0.0066397 0.27411 0.75686 -0.81348 -0.1603 -0.014589 -0.12968 0.06802 -0.28959 0.39443 -0.58157 0.3273 -0.81135 0.52639 -0.26031 -0.406 0.12882 -0.66242 0.33522 -0.76659 0.11576 -0.23166 0.064771 0.046053 0.19471 0.61894 -0.17673 0.56949 -0.40873 -0.61071 -0.01421 0.62446 0.03873 -0.027017 0.81003 0.026273 0.11272 -0.35097 -0.20085 -0.028039 0.71716 -0.9806 1.0448 0.67487 0.50902 -0.3599 0.18131 0.5706 -1.2624 0.18754 -0.16216 -0.33036 0.15655
camera.n 0.10082 0.61299 -0.40587 -0.50246 -0.17 0.8695 0.0073328 0.31417 0.27889 -0.13362 0.15006 0.25452 -0.91938 -0.11957 0.90864 0.75372 0.87047 -0.20431 0.057958 -0.052545 -0.9047 -0.17341 0.95998 -0.01001 -0.097834 0.14705 1.1628 -0.36765 -0.34324 0.29081 0.11254 0.78241 -0.42884 -1.0068 0.20929 0.45199 0.026087 -0.13201 -0.019133 0.36427 0.28246 0.42344 -0.43137 0.01902 -0.095961 0.54517 -0.13145 -0.38227 -0.58427 -0.073644 -0.076739 0.53864 0.27119 0.29567 -0.16516 -0.54454 0.041224 0.014164 0.13909 -0.44387 -0.013607 0.12467 -0.81203 0.24919 -0.4705 0.65071 -0.61755 -0.67973 -0.10964 0.50811 -0.61286 0.65966 0.74012 -0.73691 0.47191 -0.10244 0.19439 -0.85002 0.021473 0.24543 -0.18642 -0.12038 0.27151 -0.3587 -0.43864 0.16657 0.040978 0.22791 0.183 0.18264 -0.27551 0.63816 -0.67187 0.19066 0.22075 -0.059196 0.80134 0.63144 0.41507 -0.063059
game.n 0.32097 0.39551 0.17398 -0.29336 0.38405 1.0177 0.076369 0.59671 -0.0181 0.11553 0.091532 -0.1587 -0.081586 -0.13034 1.0651 1.1836 0.1257 0.055396 -0.3327 0.58468 -0.14179 -0.11251 0.72146 0.94428 -0.30295 0.29018 0.5678 0.35195 -0.080144 -0.42928 -0.17574 0.25741 -0.31272 -1.0487 -0.026812 0.5325 0.3182 0.35645 -0.47204 0.02805 0.86731 0.26724 -0.17213 -1.1285 -0.28736 -0.38852 -0.029785 0.016559 -0.31606 0.59288 -0.35685 0.45725 -0.41513 -0.28449 0.60063 -0.76941 0.59975 0.0019858 0.47367 -0.61791 -0.15215 -0.55419 -1.9659 0.55834 -0.89241 0.41756 -0.36069 -0.26927 -0.42019 0.16554 0.092441 -0.12077 1.7923 -0.48154 0.45978 -0.31428 -0.63789 0.128 0.081464 0.28649 0.071183 0.17076 0.042959 0.35132 0.14222 -0.62829 0.23236 -0.14114 -0.59246 0.15198 -0.34169 0.24666 -1.0974 -0.10849 -0.45575 -0.43696 0.038195 0.51472 -0.12822 0.36665
guy.n 0.36755 0.087217 0.85775 -0.017129 0.22534 0.86434 -0.16651 -0.29077 0.22296 -0.075808 0.24385 -0.052731 -0.32459 -0.13568 0.7187 0.71197 0.654 -0.0093849 -0.37768 -0.37186 -0.53535 0.50494 0.41326 -0.41447 -0.34418 -0.073524 0.28222 -0.33218 0.83981 -0.046556 0.2084 0.65407 -0.19593 -0.097132 -0.87435 0.3562 0.32328 -0.46358 -0.36856 -0.11409 -0.23781 0.052553 -0.096907 -0.25594 0.11598 0.079938 0.098634 -0.31007 -0.27007 -0.3688 -0.57142 0.19884 -0.5242 -0.48546 -0.24347 -1.0987 -0.47336 0.052269 -0.39447 -0.5698 0.18861 -0.76007 -0.098077 0.32842 -0.55538 0.44271 -0.31175 0.32912 -0.62209 0.040686 -0.3072 -0.14303 1.1573 -0.18984 0.14837 -0.08904 -0.0023427 -0.46757 -0.42274 -0.20057 0.049736 0.19606 0.67295 0.058818 -0.17202 -0.041326 -0.15616 -0.71404 0.44328 0.46519 0.57001 0.30051 -0.1215 0.0058592 0.49844 -0.98044 -0.51666 0.30615 0.40156 0.88846
baby.n 0.2474 0.40976 0.46103 -0.27324 0.016823 -0.50319 -0.13104 0.18658 -0.74543 0.33589 0.62399 0.1133 -0.90091 -0.044261 0.14612 0.40984 -0.015901 -0.25579 0.10706 -0.17973 -0.73885 -0.17464 -0.035768 0.017583 -0.43101 0.23027 0.24611 0.24083 0.061025 0.56 0.51175 0.40073 0.12872 0.15275 -0.77402 0.94819 0.29978 -0.046294 -0.40516 0.30645 -0.30622 0.33129 0.51445 0.0098513 -0.71945 0.10843 0.43635 -0.28458 -0.26275 0.64141 -0.86072 0.19264 -0.77858 0.51792 -0.21823 -0.34224 -0.79548 0.50406 0.1225 -0.38491 0.51166 -0.56119 -0.42139 0.43929 0.16446 -0.13842 -0.30641 -0.15495 0.085488 -0.24086 -0.28159 0.73858 0.75395 -0.81584 -0.29064 -0.65943 0.010476 -0.85488 0.71896 0.39096 0.44954 -0.2454 -0.17038 -0.071687 0.38753 0.32627 -0.53946 -0.15681 0.24457 1.283 0.42444 0.58564 -0.67959 0.22705 0.25253 0.062004 -0.24961 -0.3087 0.49612 0.22797
sun.n 0.4018 0.030275 -0.27719 0.496 0.066591 0.23101 0.088265 0.25537 0.5396 0.53921 0.42023 0.88217 -1.0874 0.0039853 -0.41288 0.10063 0.32549 -0.017796 -1.0033 -0.70648 -0.026854 0.020071 0.51183 0.1709 -0.53829 -0.48758 0.42494 -0.044394 -1.0503 0.61464 0.77104 0.40667 -0.51671 -0.34263 0.38195 -0.22823 -0.33108 0.35959 -0.35331 0.43753 -0.35919 0.18453 0.7265 0.054132 -0.074177 -0.23023 0.1699 -0.42403 -0.57092 0.64931 -0.64231 -0.71464 -0.64453 0.45223 0.19252 -0.81635 0.42822 0.027916 -0.078684 0.49299 -0.27933 -0.18106 -0.27825 0.30164 0.34294 0.40673 -0.49125 0.24421 -0.80107 0.84964 -0.61736 0.29833 0.082231 -0.45143 0.24366 0.31585 0.46165 -0.44991 -0.011837 0.045078 -0.095752 0.12147 0.058934 0.11558 -0.2692 -0.80037 0.3003 0.26238 -0.2436 0.16233 1.0994 1.1104 0.086444 0.093183 0.34061 -0.11451 0.063285 0.044433 0.18539 -0.66609
animal.n -0.39787 0.35999 -0.27707 -0.85602 -0.78046 0.1923 -0.7601 0.26165 -0.033032 0.95223 0.036806 -0.21101 -0.56246 -0.080625 0.94346 0.4455 -0.032385 -0.57204 -0.26865 -0.35063 -0.57453 -0.20098 -0.57439 0.41413 -0.59465 0.053945 0.18253 0.18679 0.086825 -0.061741 -0.15809 0.20311 -0.13266 -0.29875 -0.81937 0.50746 0.10525 -0.029738 -0.37073 0.038307 0.16574 -0.014009 0.1674 0.66836 -0.14102 0.27104 0.94419 -0.39416 -0.32483 0.39586 0.085352 -1.3262 -1.4525 0.11 -0.66866 -0.90443 -0.38191 -0.096046 0.043344 0.0073183 -0.18692 -0.1895 -0.24294 0.38366 -0.48138 -0.11235 0.017274 -0.22229 -0.1437 0.21711 -0.37729 0.084868 1.3124 -0.7783 -0.11671 -0.60773 -0.084585 -0.73677 0.35421 0.11537 1.0687 0.4923 -0.44726 0.27479 0.28574 0.19357 -0.28122 0.53363 -0.10071 0.27666 0.37106 0.00011583 -0.41153 -0.29381 0.15251 0.18925 -0.44486 -0.34424 -0.15968 0.10488
ocean.n 0.4661 -0.26084 0.34029 0.2922 -0.17944 0.40407 0.28429 0.041698 0.10191 0.89315 0.19816 0.61672 -0.098077 -0.42781 -0.090002 -0.032082 1.0609 0.034823 -0.47037 0.66531 -0.95665 -0.22102 0.76215 0.41786 0.2116 -0.08066 0.037984 -0.16834 -0.33098 0.11748 0.96312 -0.30345 0.40619 -0.54601 -0.47493 -0.32204 0.19997 0.47902 -0.44912 -0.088628 0.12346 -0.17445 -0.10979 -0.49139 0.14769 -0.21684 -0.35652 -0.45125 0.059263 0.25134 -0.21016 -0.011137 -0.96811 0.5858 1.0694 -1.0892 -0.41591 0.07976 -0.077761 -0.81655 -0.12549 -0.31434 -0.28652 0.29443 -0.054031 0.41287 -1.0559 0.23783 -0.79143 0.40217 -0.61901 0.36291 0.7023 -0.25198 0.22848 -0.81688 0.79812 -1.1621 0.57302 -0.89944 0.86671 0.91632 0.23257 0.15285 -0.63769 0.13535 -0.034621 0.77308 -0.4023 0.20744 0.41249 0.19865 0.45204 0.079545 0.34237 -0.30396 0.0077753 0.68883 -0.68364 -0.32194
sheep.n 0.19884 1.0126 -0.093055 -0.78609 -0.28828 0.15309 -1.0375 0.015441 -0.29429 0.61528 0.23174 0.030301 -0.32224 -0.71934 0.88961 0.15579 0.13604 -0.49806 0.22901 0.4011 -0.65194 -0.35533 0.19112 0.43279 -1.2678 0.45756 0.88115 0.10289 -0.021199 0.30822 0.23887 0.6592 -0.3486 -0.52676 -0.56673 0.12949 -0.25485 0.32143 0.32604 0.73239 -0.24373 -0.031596 -0.46937 1.1639 -0.10597 0.033363 0.22676 -0.17328 -0.39395 0.80214 -0.81685 -0.62839 -0.76632 0.14998 -0.82678 -0.32213 -0.60403 0.20724 0.033815 0.14175 0.11915 -0.43045 -0.11556 0.33005 -0.099701 -0.13097 -0.74566 0.64975 -0.0039459 0.19443 -0.095939 0.40345 0.74194 -0.49372 -0.060852 -0.54255 0.47034 0.053835 0.19771 0.092244 1.0352 0.48052 0.12993 0.73832 0.40983 -0.7744 -0.6291 0.30339 -0.10592 -0.0032291 0.28885 -0.35358 -0.56677 -0.3071 -0.24357 -0.52055 -0.01062 -0.055728 0.28381 0.18832
telephone.n -0.49986 0.32277 -0.37228 0.25471 -0.23422 0.21837 0.30322 -0.10239 0.39195 0.82498 0.019932 0.19867 -0.46377 -0.36139 -0.27876 0.17235 -0.035099 0.44725 -0.10103 0.4632 -0.48921 -0.090777 0.40046 0.50969 -0.70237 -0.24926 1.241 -0.48085 -0.016547 0.11184 -0.13086 0.44428 0.26377 -0.21977 -0.53846 -0.25271 -0.0084767 -1.1206 -0.4994 0.65071 0.62186 0.42768 0.09214 0.94432 0.022124 -0.2425 0.062673 -0.85399 -0.042666 0.1597 -0.57471 -0.48169 -0.024202 0.62768 -0.27696 -0.89859 -0.73785 0.13946 0.0083941 -0.63489 -0.65687 -0.13104 -0.58821 -0.12705 -1.0024 0.98322 0.36245 -0.13956 -0.031465 0.053068 0.12516 0.48687 0.68761 -0.42161 -0.22035 0.1775 -0.13161 -0.064591 0.37316 0.10857 -0.15524 -0.065755 0.32012 -0.18039 -1.1632 -0.70618 -0.75431 -0.062006 -0.45262 -0.96216 -0.79786 -0.21303 -0.17975 0.70893 -0.19044 -0.034076 0.37039 0.47766 -0.19938 0.39513
machine.n -0.25063 0.22991 0.13763 -0.54966 -0.28247 0.91405 0.54385 -0.22789 0.87014 0.22322 0.21112 -0.31072 0.12833 -0.482 0.38885 0.19126 0.011122 0.045919 0.015147 0.33808 -0.03376 -0.23012 -0.069166 1.0683 -0.27048 -0.084216 1.1854 -0.30589 -0.13487 -0.48617 -0.069516 0.24268 0.46652 0.91415 0.18632 -0.054423 0.51594 -0.027154 -0.46162 -0.17273 -0.25333 0.35938 0.12471 -1.1569 -0.050302 -0.099104 -0.33537 0.45784 0.23062 0.25187 -0.019882 0.39891 -0.45521 0.18044 0.7052 -0.53556 -0.23235 -0.32662 0.65361 -1.0907 0.056812 0.3923 -1.3158 0.74046 -0.68038 0.23464 -0.068427 -0.13888 -0.28544 0.19361 0.54997 0.0203 1.238 0.090715 0.61322 -0.53745 -0.45601 0.31014 0.1121 0.15204 0.52173 0.53852 0.74718 0.10901 -0.70355 -0.19392 -0.25172 -0.54973 -0.62387 0.64608 -0.50977 0.021347 -0.39842 -0.3656 0.057272 -0.050802 -0.44835 0.36848 -0.44747 0.72008
blanket.n 0.25971 0.024113 0.21266 0.93252 0.18404 0.030088 -0.084759 -0.14321 -0.34168 0.90397 0.28298 0.081217 -0.1784 0.055745 0.063915 0.44248 0.22673 -0.1995 0.10992 -0.22437 0.01948 0.2445 0.13132 -0.017615 -0.13196 -0.093511 0.4608 0.50523 0.18146 -0.1385 -0.083601 0.38494 0.13746 -0.77796 -0.38989 0.04689 0.79137 -0.51021 -0.40525 1.1037 -0.50811 0.36336 0.42299 0.40384 -0.76787 -1.1132 0.76893 -0.29432 0.48233 -0.02156 0.44956 -0.28218 -0.49695 0.44837 0.10165 -0.43723 -0.25251 -0.072943 0.10811 -0.64792 0.26057 -1.0859 -0.45837 0.78148 -0.46642 -0.014973 -0.38582 -0.49065 0.11234 1.0254 0.58376 0.99615 0.58745 -0.69846 0.27365 -0.34603 0.20354 -0.10531 0.71465 -0.068563 0.32407 0.50527 0.14923 0.30468 0.89857 -0.49064 -0.17168 -0.20823 0.1367 -0.31447 0.1085 0.87621 -0.027643 0.064154 0.19978 -0.53431 -0.3619 0.34643 0.55711 0.1857
cone.n -0.65709 0.032742 -0.017824 -0.24551 -0.43887 0.066696 0.86028 0.55648 -0.53691 1.086 -1.0188 0.90746 -0.98846 -0.044912 0.092644 -0.34681 0.046411 0.25556 0.0076122 -0.52885 -0.16139 0.25351 0.66001 1.5811 -0.65102 0.50591 1.618 0.093061 -0.087211 0.21575 -0.24684 0.40467 -0.47003 0.022941 -0.85039 -0.43975 0.29463 -0.42425 -0.57479 0.34921 0.23722 0.3457 0.36686 0.16658 -0.43265 0.40992 0.10908 -0.56403 0.13303 -0.35639 -0.038485 -0.11594 -0.69133 0.19755 -0.43686 -0.41622 -0.22232 -0.15194 0.52114 0.24893 0.4012 -0.0020605 -0.25193 0.83262 -0.29645 1.0179 0.24581 -0.19257 -0.44698 0.71215 -0.45488 -0.59534 1.0347 0.2743 0.10587 0.51906 0.7606 -0.42949 0.67938 0.20757 1.2214 0.29045 0.50439 -0.89391 0.11094 -0.58056 -0.55799 -0.64723 -0.3414 0.05091 -0.04487 -1.3933 -0.060576 -0.30649 0.12362 -1.3218 -0.69723 0.54458 -0.10834 0.24755
bunch.n -0.47693 0.25702 0.37513 -0.29257 0.65283 -0.50851 -0.018587 0.25135 0.48596 0.84396 -0.020629 -0.2398 -1.0959 -0.18046 -0.22597 0.9916 0.42307 -0.13194 -0.065962 0.27428 -0.58237 0.021867 0.28662 0.1451 0.31253 -0.11827 0.067938 0.043706 -0.28368 -0.37209 -0.23474 0.3832 -0.066719 0.26867 -1.2616 -0.45656 0.55659 -0.32907 0.77747 0.12174 -0.62443 0.12637 0.0059888 -0.048055 0.17552 -0.58168 0.48632 -0.37733 -0.49461 1.1362 -0.69758 -0.081256 -0.67515 0.53377 0.50585 0.39785 -0.67105 -0.26109 0.75001 -0.01426 0.51344 -0.012239 -0.5222 0.51015 0.51494 0.15446 0.61214 0.29667 0.3354 0.42015 0.11613 0.16299 0.055739 -0.85282 0.10018 -0.4 -0.49386 0.21501 0.3922 0.25359 0.053596 0.21157 0.23138 0.34284 -0.20497 -0.32251 -0.27579 0.29768 -0.084485 0.26007 -0.08238 0.05558 -0.27334 -0.10196 -0.12449 -0.55492 -0.27961 -0.24456 -0.28387 -0.090151
doorway.n 0.035397 0.61404 -0.57165 0.25304 -0.49204 0.24009 0.91575 0.20645 0.72556 -0.51488 -0.52562 0.4047 0.40143 0.65331 -0.072566 0.40905 0.22954 -0.25521 0.28904 -1.0024 -0.47935 -0.020858 0.56748 -0.012395 -0.40251 -0.261 0.57011 0.36003 -0.31688 0.61479 0.2843 -0.40986 0.26313 -0.20441 -0.545 0.095341 0.66519 -0.71839 -0.36566 0.4672 0.23283 0.2289 -0.34918 0.14254 -0.13062 0.44481 0.27243 -0.7616 0.065881 0.21421 -0.48195 0.47733 -0.38513 -0.24949 0.059185 -0.40547 -0.10949 -0.053727 0.34449 -0.29053 0.31937 -0.16637 -0.36379 0.097388 -0.80574 -0.042478 -1.0226 0.47857 -0.89636 0.38295 0.027579 0.89237 -0.23171 -0.071823 0.41074 -0.63065 0.21205 0.015146 0.27188 -0.13029 0.35955 0.22757 0.62959 -0.071054 -0.56315 -0.26742 -0.16879 0.13711 -0.24457 0.12947 0.19954 0.82356 0.69908 -0.41421 0.17993 0.093698 0.22881 0.28003 -0.46368 0.049194
gate.n -0.20853 0.54842 -0.90091 -0.30698 0.08292 0.35582 0.20212 -0.053283 0.16411 0.18708 -0.14448 0.34082 0.35543 0.77166 0.5122 0.59075 0.17433 0.095504 0.75777 -0.73677 -0.18138 -0.28761 0.23919 0.053616 -0.23903 -0.23373 0.90509 0.45662 -0.27547 0.0035641 0.21286 0.0078055 -0.49025 -0.55463 -0.57952 -0.45614 0.25352 -0.70108 -0.22017 -0.18647 -0.038453 0.080109 0.075001 0.13301 -0.64809 0.42414 0.40102 0.20442 -0.08032 0.29096 -0.43076 0.54273 -0.97408 0.59176 -0.026037 -0.12275 -0.079376 0.031897 0.18919 -0.075789 -0.31152 -0.29459 -0.30183 0.23549 -0.44743 0.30488 -0.91714 0.5045 -0.64781 -0.9074 0.081637 0.57659 0.54269 -0.15413 -0.23939 -0.5182 0.387 0.63766 0.16687 -0.1455 0.72347 0.85679 0.19765 0.28964 -0.41261 -0.38468 0.36554 -0.041666 0.081167 0.4435 0.36763 -0.57319 0.093555 -0.46411 -0.35813 0.02584 0.18946 0.12299 -0.22158 0.61907
way.n 0.22078 0.72164 -0.25212 0.61477 -0.3646 0.5782 0.47324 0.58037 0.85033 0.18837 -0.63115 0.66493 0.090626 0.34754 0.60259 0.23658 0.44638 -0.5558 0.18355 -0.93959 -0.23618 -0.27263 0.38931 -0.060257 0.029101 0.22934 0.58489 -0.027546 -0.4987 0.65869 0.76846 0.29811 -0.26147 -0.19555 0.081534 -0.44925 0.38794 -0.31977 -0.46857 -0.059099 0.23177 -0.25576 -0.58378 0.20587 0.048114 -0.1947 0.025777 -1.1214 0.33383 0.43201 -0.43937 0.33822 -0.32876 -0.2134 0.41071 0.044002 -0.81128 1.1147 0.056063 -0.20591 1.1341 0.031183 0.16147 0.29976 -1.4333 -0.34611 -1.1621 0.41413 -0.6054 0.5848 -0.33426 0.54663 -0.065759 -0.39198 0.65043 -0.13771 1.1581 -0.22997 -0.18871 -0.22717 0.52116 0.36248 0.99336 0.087047 -1.0612 0.036565 -0.59278 -0.37767 -0.72449 -0.027236 0.37552 -0.043262 0.19492 -0.20177 -0.16655 0.057209 0.55355 0.049605 -0.70323 0.17258
day.n 0.31755 -0.024326 -0.14205 0.81059 -0.10361 0.90452 0.34793 -0.13274 0.82338 0.81785 0.012258 0.4508 -0.73426 0.22096 0.48676 0.51561 1.1555 0.49487 -0.7084 0.043117 -1.097 0.39825 1.0111 1.436 0.0086143 -0.037943 0.63437 0.42824 -0.42687 0.060744 0.17357 0.53401 0.17176 -0.42662 -0.05938 -0.67508 -0.39048 -0.14415 -0.43782 0.46807 0.20116 0.14315 0.51894 0.35727 0.78639 -0.09667 0.068432 -0.50283 -0.86196 0.50538 -0.62891 -0.62034 -1.0864 0.051811 0.35137 -1.2775 0.37558 0.85882 -0.45822 -0.081773 -0.26491 -0.0012019 -0.49316 0.29864 -0.82917 -0.52503 -1.2315 0.776 -1.2778 0.5141 0.042269 -0.3735 0.56416 -1.3149 -0.17765 -0.46597 0.34278 -0.9566 0.53482 -0.064779 -0.068268 0.32761 -0.067527 0.38013 0.26793 -0.11952 -0.38547 -0.79413 -0.47918 0.31025 0.66203 0.28031 0.0074616 -0.23146 0.38405 -0.2158 0.86973 -0.18736 -0.8067 -0.92288
mouth.n 0.79822 0.10819 -0.28069 0.12325 0.57921 -0.0080393 0.14702 0.050973 0.30275 0.10224 0.78259 0.2241 -0.52462 0.21172 0.5338 0.67111 0.13539 -0.50522 -0.21271 -0.26913 -0.98341 0.098325 0.60036 0.070811 0.19987 0.24704 0.10157 0.81422 -0.40623 0.92477 0.94822 -0.206 0.68916 -0.4267 -0.056786 0.66962 0.26499 0.19541 0.50128 0.30422 0.023524 -0.1564 0.0071093 0.57315 -0.77249 0.59035 -0.19206 -0.31088 -0.94109 0.64739 0.31036 -0.2493 -0.34728 -0.39896 -0.11464 -1.273 -0.47784 0.032489 0.39654 -0.10309 0.44589 0.33332 -0.65257 0.46408 -0.031089 0.058908 -0.90015 0.5185 -0.87899 -0.24956 -0.06906 0.86216 0.59131 -0.38664 0.24897 -0.63198 -0.089981 -0.93499 0.61087 -0.60346 0.4208 0.49518 -0.46277 -0.54027 -0.16151 0.34869 -0.33703 -0.078832 -0.4842 0.61074 0.83841 0.34371 -0.86293 -0.088451 -0.13474 -1.0415 -0.037899 0.26351 0.090367 0.16657
cord.n -0.35373 0.41408 0.33457 0.051301 -0.4051 0.020774 0.13156 0.37795 0.057703 0.26163 0.30425 0.19321 0.50506 0.086633 0.14993 0.1307 0.14287 -0.17946 0.089699 -0.57144 -1.0459 0.47441 0.16243 -0.19409 -0.41121 0.52822 1.4212 -0.44179 -0.12672 0.61573 0.15039 -0.4606 -0.80908 -0.11848 -0.91858 -0.25564 0.46393 -0.6879 -0.069268 0.81319 -0.4508 -0.53806 0.37923 0.30306 -1.0097 -0.13063 0.14792 -0.89716 -0.20104 -0.051258 0.34884 -0.84343 0.14186 0.41295 -0.82117 -0.93204 -0.17989 -0.16797 0.22429 -0.54063 0.020221 0.001679 -1.011 0.16475 -0.66838 -0.39832 -0.073132 -0.79865 -0.41938 0.51205 -0.48462 0.046949 1.0422 -0.7118 -0.55635 -0.012656 -0.070046 0.10867 0.45896 0.73209 0.11787 0.38355 0.10684 -0.35271 -0.55224 -0.77052 -0.1213 -0.39009 -0.2468 -0.68993 -0.16622 0.43473 -0.54142 0.10851 -0.026369 -0.35167 -0.14939 0.87083 -0.94055 0.75525
wire.n -0.054899 0.094335 -0.16394 -0.1699 -0.0034798 -0.6629 -0.19325 0.099395 -0.47827 0.67019 0.72021 0.1065 0.13706 0.52342 -0.059154 0.20173 -0.0077906 -0.46192 0.13914 -0.67519 -0.77109 0.22175 0.48186 -0.43415 -0.16627 -0.18287 0.86188 -0.024045 -0.18069 0.52444 0.29681 -0.73394 -0.61183 -0.15684 -1.0076 -0.40662 0.67902 -0.78658 -0.65488 -0.33061 0.23676 -0.11638 0.55866 -0.15395 -0.59181 -0.6834 0.3164 -0.24676 -0.93023 -0.41008 -0.60657 -0.53725 -0.13497 0.88758 -0.92686 -0.55031 -0.066091 -0.12685 -0.26348 -0.50523 0.22415 0.18058 -0.22568 0.38604 0.084356 -0.052382 -0.80751 -0.55537 -0.043798 0.044514 -0.61826 0.020415 0.78598 -0.71365 -0.31129 0.13922 0.36076 0.74712 -0.062565 0.91764 -0.11965 0.045407 0.11399 0.22826 -0.65912 -1.0452 -0.12499 0.41195 -0.31008 -0.38889 -0.21893 0.23346 -0.39515 0.71616 -0.25341 -0.00043413 -0.24998 0.20363 -0.29255 0.20628
bread.n 0.060815 0.0010437 -0.52069 -0.048518 -0.11057 -0.14875 -0.45162 -0.755 -0.76446 0.44685 -0.058388 -0.10471 -0.24366 0.24944 -0.44358 0.63611 0.14643 -0.32249 -0.32059 0.49851 0.43437 0.55843 0.30424 -0.16012 0.48171 0.27671 0.63724 0.63532 -1.115 0.73629 0.0078916 -0.16167 0.62909 -0.17381 -0.78472 -0.36278 0.35822 -0.11706 -0.16913 -0.017759 -0.83285 0.39407 0.89985 -0.21795 -0.35468 -0.47422 0.18843 -0.13963 -0.69028 0.59479 -0.58609 -0.44405 0.25679 -0.63178 -0.80086 0.13173 -0.21021 -0.71146 0.13998 -0.81174 0.59374 -0.82437 -0.3804 -0.40693 -0.2212 0.25779 -0.21757 0.39968 -0.10022 1.0421 -0.30945 0.53691 0.91815 -0.88919 0.48748 -0.86867 -0.63215 0.056441 0.94791 0.55564 0.42536 0.31249 -0.15174 0.33915 0.10589 0.11246 0.011413 0.26541 -0.8676 0.12653 0.14511 0.11717 -0.45317 0.92611 0.32097 -0.73054 -0.098012 0.45303 -0.36052 -0.017499
cab.n -0.34642 0.66123 0.23601 0.00088332 0.034873 1.1889 -0.018162 -0.50362 0.18057 0.98121 -0.22025 0.18505 -0.84142 0.59707 0.18528 0.98831 0.57221 0.52985 0.42975 -0.12055 0.02879 -0.14984 -0.017471 0.077843 0.044523 -0.10673 0.44422 0.023339 -0.57642 0.43687 0.30187 0.34699 -0.51239 -0.16855 -0.26903 -0.53301 0.068412 0.38425 0.688 0.91074 -0.8731 0.64004 0.66009 0.81957 -0.012428 -0.53283 -0.8927 0.22105 -0.34464 0.54076 -0.43903 -0.10341 -0.52047 0.60352 -0.69375 -0.63121 -0.055437 1.0169 0.25689 0.18553 0.13752 -0.068246 -0.32079 0.079796 -0.74764 0.56881 -0.52041 0.10275 -0.040545 0.83037 -0.72936 0.33052 0.74935 -0.37385 0.84303 -0.28811 -0.47819 -0.10584 0.42725 -0.35662 0.7426 -0.24817 1.0305 0.00090441 -0.92054 0.23638 -0.3399 -0.021429 -0.23932 0.63109 0.18582 -0.024823 -0.06066 -0.74077 0.066804 0.89065 -0.50278 0.91105 -0.32505 0.24703
neck.n -0.53948 0.35751 0.30976 -0.18602 -0.034691 0.35154 0.96126 0.074866 -0.050479 0.63887 0.03355 0.081943 0.045289 0.27157 0.82557 1.1205 -0.31506 -0.53336 0.66536 -0.76886 -0.62449 -0.14568 0.43445 0.52253 0.29648 -0.22861 0.5906 0.35583 0.062803 0.76845 0.34187 0.66006 -0.3812 -0.81503 -0.31905 0.022697 0.47415 -0.77233 0.16736 -0.0056708 -0.19246 0.31591 0.52961 -0.2871 -1.1723 0.51148 -0.017746 0.088608 -1.0313 0.32699 0.043014 -0.61622 -0.017958 -0.30053 -0.89211 -1.8462 -0.18638 -0.15765 0.36286 -0.90391 -0.0074099 0.24705 0.12862 0.39318 0.338 -0.28162 -0.84271 0.41771 -0.21219 0.41648 -0.21732 0.28323 0.1877 -0.55298 0.58043 0.47095 0.69646 0.27592 1.1233 -0.37443 0.19073 0.13024 0.19552 0.16583 1.1694 0.32879 -0.012614 0.70519 0.27883 -0.31784 0.52155 0.64363 -0.34705 -0.01146 0.13342 -0.80506 0.058948 -0.6798 0.44934 -0.4358
river.n -0.084001 0.28691 0.71166 0.004052 -0.22089 -0.17946 0.038259 0.67501 -0.18914 0.71653 0.387 -0.080698 -0.14503 -0.012297 -0.12586 0.074705 0.59467 -0.030425 0.037764 0.39681 -0.63392 -0.28777 0.54298 0.050456 0.18522 0.39708 -0.19978 0.040819 -0.83607 0.48749 0.23067 -0.36136 -0.27382 -0.16335 -0.49752 -0.28345 0.56782 0.70623 -0.27536 0.54735 -0.18531 0.31063 0.048305 0.66091 0.10733 -0.58685 -0.19763 -0.70487 -0.29217 0.32117 0.02668 0.38091 -0.68508 0.42659 0.40216 -0.68902 0.1405 0.092575 0.75828 -0.16544 0.39261 -0.63338 0.25468 0.14503 -0.44598 0.47527 -0.97519 0.10594 -0.20963 0.45371 0.15905 0.061285 0.77774 -0.62028 -0.45739 -0.43594 1.2738 -0.4838 0.6628 -0.8849 0.011188 0.37708 0.099853 0.12515 -0.86916 0.057379 0.42916 0.79406 -0.025468 0.13176 0.49527 -0.066466 0.50805 0.0030805 0.01167 -0.58955 0.19129 0.29714 -0.25681 0.14362
apple.n 0.20742 0.45957 -0.66852 0.14415 -0.45844 0.11644 -0.33408 -0.16207 -0.49997 0.56616 -0.015441 -0.71499 -0.26896 0.22361 -0.018161 0.9154 0.020274 -0.61309 -0.72565 -0.052569 -0.0070437 0.085985 -0.20762 -0.057775 0.51059 0.18927 0.78056 -0.019392 -0.091688 0.70094 0.36574 0.33572 0.23942 0.18348 -0.34921 -0.43619 0.1197 0.20335 -0.012885 0.078292 -0.25389 -0.1166 0.62213 -0.71511 0.054448 -0.59502 -0.55233 -0.68123 -0.6006 0.28961 -0.096251 -0.69398 -0.25462 -0.48517 -0.83554 -0.52621 -0.10942 -0.59571 0.66201 0.093517 -0.0095268 0.53966 -0.014073 -0.36987 -0.53902 0.50972 -0.1219 0.1057 -0.049092 -0.0021392 -0.47113 0.18949 0.96796 -0.71553 0.91372 -0.67934 0.07525 -0.1707 0.30907 -0.079964 -0.41805 0.92975 -0.44354 -0.14217 -0.13503 -0.80638 -0.20654 -0.13535 -0.27296 0.62266 0.57429 -0.11321 -0.56618 0.67426 0.30663 -0.1562 -0.28579 0.94073 -0.15887 -0.47958
yard.n -0.11794 -0.22012 -0.33839 -0.22865 0.29461 0.36889 0.096989 0.28286 -0.13751 0.75916 -0.060928 0.27144 -0.25021 0.41481 0.29624 0.67041 0.84482 -0.0039315 0.64445 0.029777 -0.67502 -0.49656 0.65001 0.16235 -0.39264 -0.38901 0.14046 0.47145 -0.24024 0.27466 0.069065 -1.1318 0.0028555 0.29151 -0.77128 -0.11865 0.69994 0.003272 0.26948 -0.9774 0.94363 0.39831 0.26038 -0.011543 -0.93506 -0.32793 0.19443 0.1875 -0.12016 0.60111 -0.82658 -0.12641 -0.63979 -0.74726 -0.068472 -0.238 0.042996 0.44013 0.33079 -0.010431 -0.25013 -0.56893 0.10724 0.3109 -0.31975 -0.17665 -0.60241 0.42937 -0.13449 0.17769 -0.058404 0.65299 0.80348 0.36025 -0.019746 -0.33183 0.60039 0.38432 0.66716 -0.1925 0.028522 0.80423 0.42995 -0.12291 -0.14031 -0.53932 -0.57538 0.46348 -0.6728 -0.50494 0.196 -0.1072 -0.023935 -0.224 -0.47811 -0.2096 0.27615 0.33975 -0.39165 0.18316
engine.n -0.71663 -0.30413 -0.48277 -0.16539 0.7063 0.76428 0.47159 -0.43809 0.36495 1.0653 -0.26421 0.13008 0.16308 0.33137 0.49263 -0.025226 -0.074151 -0.57514 0.4416 -0.58672 -0.3824 -0.85209 0.47948 0.92958 0.56811 -0.44165 0.66827 0.35426 -0.0078533 -0.15111 0.64939 0.30126 -0.47232 0.019398 -0.64945 0.066571 0.18642 -0.15154 0.33872 0.71231 -0.0071172 0.45396 0.58592 -0.21711 0.21694 -0.19456 -0.19861 -0.011061 -0.79054 0.094137 0.050024 0.12097 0.05284 0.11775 -0.01433 -0.2248 -0.34946 0.24514 0.32571 -0.27817 0.70236 0.09074 -1.0788 -0.25238 -0.02288 0.66548 -0.81187 0.16152 0.28102 0.5145 -0.58222 0.02816 1.0544 0.15198 0.40786 -0.13762 0.64471 0.1439 0.15241 -0.41334 0.13892 0.10224 0.62307 0.29488 -0.28697 -0.5135 -0.052884 -0.1924 -0.77395 0.59604 -0.10557 0.13845 0.50867 -0.37679 0.086283 -0.62001 -0.65334 1.5153 0.29469 0.082369
wrist.n 0.0056337 0.92647 0.87392 0.052257 0.59613 1.2535 0.92782 0.21238 -0.26878 0.06296 0.13494 0.021498 -0.3685 -0.34038 1.0465 1.3484 -0.02586 -0.094397 0.28029 0.092993 -0.54079 0.27747 1.2141 0.11706 0.5707 0.1203 0.077457 -0.16338 0.041847 0.69458 0.4983 1.0852 -0.41855 -0.45496 -0.5373 0.57 0.63465 -0.87784 -0.29357 -0.16206 0.19836 -0.16925 0.99778 -0.39133 -0.67978 -0.1455 -0.14798 -0.52927 -0.77607 0.41954 0.8569 -0.21419 0.049649 -0.17063 -0.90726 -1.7237 0.39133 0.16038 -0.023195 -0.52724 -0.4688 -0.089789 -0.012518 0.55376 -0.41656 0.61236 -0.30502 -0.3412 0.2055 0.35221 0.40621 0.45251 0.36714 0.29381 0.45018 0.63096 0.47532 0.27876 1.6407 -0.54788 0.16222 0.81622 0.24081 0.10213 -0.64899 -0.32343 -0.55362 0.21187 0.11721 0.3133 0.27157 0.5573 -0.93584 -0.15661 -0.45937 -1.1028 -0.022013 0.26362 0.16239 0.5708
word.n 0.37078 0.1291 0.10933 -0.074682 0.10791 0.82438 0.18919 -0.53962 0.075762 0.25275 -0.77488 0.51539 0.21669 -0.056141 -0.0083422 0.10235 0.028832 -0.24318 -0.092308 -0.40284 -0.20565 -0.2033 0.28689 -0.074208 0.49078 -0.32206 1.0357 -0.39617 -0.2466 0.063067 -0.049173 0.33878 -0.38352 0.60781 -0.26731 -0.25628 0.11383 -0.34029 0.19513 -0.11676 0.056355 0.19428 0.37313 0.097542 0.052213 -0.14675 -0.52221 0.23124 0.095738 0.16288 0.4241 -0.17409 -0.4947 -0.20085 -0.47856 -0.53799 0.013261 1.0678 -0.010696 -0.17273 0.30895 -0.40003 -0.097726 0.56668 -0.63277 0.27499 0.14449 -0.34694 -0.56581 0.39723 0.67948 0.1686 0.766 -0.57361 0.34596 0.15111 0.00017774 0.061235 0.047849 0.19624 0.24807 0.33075 -0.078489 -0.21882 -0.39292 -0.36718 -0.22738 -0.23799 -0.19293 0.36059 0.3593 -0.035129 0.3542 -0.13357 -0.037608 0.20706 0.33061 1.343 -0.33841 0.39977
finger.n -0.16269 0.68019 -0.14767 0.21197 0.6327 0.063926 0.29036 -0.34252 0.14354 0.19041 0.038646 0.88694 -0.31315 -0.47158 0.67989 1.2872 0.22965 -1.1983 0.45965 -0.41951 0.10798 -0.020549 0.57627 -0.31368 0.20047 0.60624 -0.17463 0.30442 -0.088187 0.4065 0.62579 0.55416 -0.095683 -0.38987 -0.52539 0.64658 0.60254 -0.35384 0.48991 0.79258 0.42701 0.056545 0.42279 0.34255 -0.44936 0.088282 -0.028252 -0.16844 -0.17266 0.49412 0.2507 0.64456 0.20042 -0.062717 -0.18592 -0.80912 -0.37132 0.78702 0.69434 -1.0083 0.48986 -0.40811 -0.029716 0.16687 -0.37509 -0.32008 -0.52905 -0.4244 -0.30381 0.51886 0.33972 0.10374 0.13125 -0.070036 0.82053 0.045463 -0.35938 -0.36456 1.4438 -0.53275 0.23236 0.39707 0.62608 -0.2976 -0.3552 0.18441 -0.26196 -0.048251 -0.5083 0.83856 0.53942 0.40114 -0.73949 0.28627 0.38168 -1.3355 0.21075 0.049686 0.036412 0.035201
shoulder.n -0.36787 0.60215 0.59415 0.30247 0.10894 0.61988 -0.094226 -0.33513 0.18666 0.25215 0.74306 0.47645 -0.68574 0.27638 1.0326 0.41864 0.66418 -0.67921 0.31609 0.37715 -0.25214 -0.32353 0.98592 -0.26682 -0.19703 0.060226 0.046221 -0.22194 -0.2594 0.41588 0.4883 1.0891 0.60075 -0.25572 -0.58777 0.78948 1.336 -0.13402 0.085194 0.17531 -0.061661 0.30214 -0.32425 0.34489 -0.76906 -0.35187 -0.25031 -0.22285 -0.37649 0.94704 0.29595 -0.1767 0.14466 0.42921 -0.067741 -0.99073 0.21008 -0.3105 -0.10354 -0.26015 0.19457 -0.36504 -0.59744 0.020657 -0.46308 0.24612 -0.52353 -0.027856 -0.20348 0.14592 -0.35065 0.99097 0.45815 -0.38869 0.40329 -0.029773 0.32054 -0.22672 0.9243 -0.039687 0.036155 0.41503 0.78525 -0.3664 0.26813 0.53939 -0.026788 0.061701 0.082687 -0.18419 0.39954 0.14541 -0.27738 0.49024 -0.10236 -0.096033 -0.46302 0.81649 0.83872 0.12178
couple.n -0.040129 0.69501 0.47223 -0.23142 -0.22556 -0.0068823 0.21558 0.13602 0.28387 0.23017 0.028829 0.050462 -0.97893 -0.23358 -0.1574 0.56055 1.0587 -0.25847 -0.41316 0.2309 -0.86471 0.10449 0.74169 0.030325 -0.18412 -0.15853 0.32872 -0.31381 0.10152 0.5106 0.039826 0.30148 0.11028 -0.41661 -1.361 -0.20195 0.69584 -0.37267 -0.15251 0.14404 -0.35528 -0.0028276 -0.34774 -0.3042 0.22196 -0.12298 0.64065 -0.3938 -0.45461 0.46132 -0.47466 0.18328 -0.05723 0.31852 0.43102 -0.25947 -0.13731 -0.065344 0.41418 -0.08924 -0.29216 -0.65066 -0.25918 0.21052 -0.015155 -0.36793 -0.20509 0.44244 0.36713 0.47125 0.21884 -0.40369 0.32901 -0.18764 -0.0079474 -0.07034 0.05449 0.040284 0.20538 0.16831 -0.24599 0.14856 0.14078 -0.025269 -0.27494 -0.34445 0.14506 -0.065024 0.058301 0.04318 0.062716 -0.0066485 -0.18082 0.099284 0.28326 0.034752 0.2332 -0.59627 -0.25857 0.42924
night.n 0.16263 -0.13191 -0.62825 0.52558 -0.41864 0.52133 0.65006 0.11356 0.021263 0.59216 0.50896 0.52212 -0.63152 0.32945 0.32144 0.4372 -0.030804 -0.29268 -0.16347 -0.016799 -0.72083 0.39831 0.36344 0.48259 -0.082578 0.28718 0.87229 0.20097 -0.71627 0.42534 -0.13717 0.1592 0.049955 -0.67573 0.024236 -0.77656 -0.4843 0.018468 -0.38264 0.24387 0.78343 0.2818 0.35171 0.70634 0.66559 -0.24464 0.88532 -1.5221 -0.71136 0.45375 -0.76705 -0.16617 -0.049667 0.30073 0.37357 -0.38569 0.16274 0.36202 -0.24554 -0.42324 0.14852 0.24985 0.029212 0.61395 -0.65371 0.019384 -0.052209 0.10404 -0.098494 0.75643 0.67685 0.028808 0.72072 -0.13208 -0.41601 -0.23611 -0.80448 0.096609 -0.054262 -0.44248 -0.093513 -0.0093419 0.42633 -0.066397 -0.21232 -0.49347 0.34138 -0.086221 -0.37571 -0.31666 -0.031021 0.9164 0.095693 0.15356 0.00040905 -0.40941 0.63482 -0.090436 -0.48299 0.59373
glove.n 0.74385 0.011075 -0.20021 0.378 0.6787 0.66632 0.47965 0.17054 0.0086154 0.51131 0.77345 -0.10573 0.30118 0.65849 1.3455 0.17112 0.10933 -0.096931 -0.42072 0.39015 0.558 -0.15242 0.8488 0.21968 -0.40309 0.48248 0.27776 0.3337 -0.2064 0.54042 -0.23133 0.52785 0.62188 -0.59708 -0.80521 0.095541 0.47394 0.037827 -0.38102 0.34346 -0.06908 -0.57013 0.626 -0.68945 -0.39984 -0.16598 -0.15971 0.0122 -0.1561 0.30506 -0.26674 0.056934 -0.38361 0.50664 -0.33567 -1.0856 0.44041 -0.10209 -0.038184 -0.3383 0.040244 -0.49635 -0.27258 0.52683 -0.42815 0.0014022 -0.5215 -0.17407 -0.61311 0.095291 -0.79061 0.18472 0.70833 -0.14619 0.022276 0.21346 -0.59783 -0.044003 0.32579 -0.49633 0.53118 0.37789 0.24686 0.22534 -0.36969 0.47107 -0.41206 -0.0060008 -0.034263 0.5972 -0.23002 0.281 -0.91727 -0.28214 -0.46846 -1.1248 -0.33725 0.50441 -0.17027 -0.43368
highway.n -0.3074 0.46183 -0.50693 0.45136 -0.16618 0.7085 0.78869 0.066094 -0.11644 0.46368 -0.7385 0.28671 -0.20866 0.13459 0.02163 0.25735 0.32727 0.33055 0.48442 0.14273 0.22522 0.095205 0.067792 0.62791 -0.24401 -0.12032 0.77083 -0.14898 -0.52402 0.38195 0.30815 -0.24245 -0.41012 -0.25439 -0.60334 0.027329 0.70801 -0.091192 -0.48245 -0.1612 -0.02899 -0.20267 0.30442 0.92467 0.32718 -0.4717 0.24142 -1.0361 0.041201 0.65823 -0.49772 0.17629 -0.23577 0.34171 -0.041986 -0.69556 -0.077501 0.55447 -0.004521 -0.21304 0.57384 -0.062926 0.47117 -0.13234 -0.47377 0.060515 -1.0436 0.26864 0.072742 0.54801 0.020393 0.10613 0.1394 -0.29237 0.056229 0.13385 0.92599 0.084731 0.2079 -0.48115 0.64778 -0.21898 0.70839 0.11912 -0.92163 -0.40165 -0.069901 -0.099901 -0.55897 -0.22266 0.018108 -0.32856 0.40646 -0.40455 -0.18219 -0.02374 0.27258 0.94272 -0.19265 0.279
meter.n -0.2075 0.50115 0.019601 -0.39722 0.014973 0.1254 0.74074 -0.21999 -0.12193 0.89798 -0.22445 -0.43024 -0.28695 0.43377 -0.18962 0.56911 -0.14987 0.41732 0.14475 0.34994 -0.46996 -0.15658 0.60765 0.35377 0.00012271 -0.18502 0.84478 -0.020323 -0.26494 0.27359 0.24804 0.88297 -0.55084 0.43026 -0.75028 -0.26405 0.085922 -0.56877 -0.7899 0.19924 0.42518 0.32224 0.4204 0.18865 0.18258 0.016497 -0.092625 0.084169 0.073979 0.12652 -0.25741 0.41197 -0.24963 0.28545 -0.20855 -0.44515 0.11756 0.33697 0.020251 -0.46585 0.28823 0.06506 0.17489 -0.020005 -0.85127 0.41357 -0.64334 0.20655 -0.076386 0.13057 -0.72616 0.16867 0.66915 -1.3476 -0.26394 0.17085 -0.092754 0.56579 0.63981 -0.22382 -0.31949 0.82125 1.2822 -0.23529 -0.96439 -0.046953 -0.12249 -0.11022 0.37964 0.19063 -0.28413 -0.30334 0.29639 0.42209 -0.65079 -0.2635 -0.29974 0.62304 -0.42737 0.66476
beer.n 0.12355 0.28718 -0.42672 -0.46418 -0.088608 -0.11025 0.68897 0.045832 0.43485 0.276 0.83277 0.56364 -0.82967 -0.0079773 0.35808 0.32101 -0.26719 -0.90924 -0.32587 0.32877 -0.25067 -0.67654 0.49455 -0.4998 0.5341 0.52736 0.73419 0.22861 -0.35592 0.36462 0.72511 0.1786 0.039407 0.849 -0.32797 0.050812 -0.15288 0.17642 -0.06543 -0.19374 -0.57002 0.82008 -0.23358 0.20193 0.5312 -0.31007 0.51255 -0.1979 -0.28762 0.087468 -0.088865 -0.023991 -0.58583 -0.4992 -0.21631 -0.76894 -0.15332 -0.1138 0.27253 -1.0459 -0.082465 0.05569 -0.65985 0.27962 -0.39846 0.63279 -0.44111 -0.1452 -0.38176 0.019433 -0.66474 -0.035294 0.80976 -0.73545 0.2327 -0.25919 -0.70989 0.30171 0.56428 -0.30738 -0.039243 -0.0018785 -0.36388 -0.13948 -0.27959 0.16827 -0.23892 -0.059558 -0.59159 0.28086 0.60933 0.27118 0.034761 0.29847 -0.06458 -0.63192 -0.18385 0.57088 0.066091 -0.012796
