page.n -0.0702 0.0289 0.0413 0.0366 0.1205 -0.1255 -0.0043 0.097 0.1616 -0.0868 -0.0595 -0.0859 0.0876 -0.0697 -0.0521 0.005 0.0261 0.0615 -0.0529 0.1295 -0.2677 -0.0308 0.1767 -0.0796 -0.1946 0.1581 -0.0094 -0.136 -0.0084 0.0741 0.0678 0.0287 0.1028 -0.0631 -0.0429 0.0295 0.015 0.0491 -0.0024 -0.0231 0.0018 -0.0461 -0.0755 -0.0292 -0.2536 -0.0735 -0.0527 0.0334 -0.0492 -0.089 0.0691 0.1258 -0.6173 -0.0185 0.017 0.0138 -0.0082 -0.0303 -0.0189 -0.0469 0.1561 0.01 -0.0612 -0.0034 0.0052 -0.0554 -0.0767 -0.0746 0.0379 0.0995 -0.0315 -0.0387 -0.1189 -0.0672 -0.0624 0.0527 0.0067 -0.001 -0.0911 -0.0707 0.0368 -0.0053 -0.0746 -0.2384 0.0335 -0.136 -0.1164 0.008 -0.021 -0.0555 0.0198 -0.0972 -0.043 -0.0886 0.104 -0.0037 -0.0285 0.0055 0.0242 0.0189 0.008 -0.0187 0.0782 0.0313 -0.0161 0.0552 0.0754 -0.1658 -0.1706 0.0807 -0.029 0.0458 -0.0187 0.0789 -0.0726 0.0493 -0.0284 -0.0278 -0.1126 -0.3881 -0.0529 0.0688 -0.0088 -0.0953 -0.0465 -0.0314 0.0187 -0.0348 0.0829 -0.0727 -0.0178 -0.0108 -0.1367 0.023 0.0464 0.0898 -0.0607 0.0014 0.0411 0.0436 -0.0372 -0.053 0.0537 0.3384 -0.0023 -0.015 0.1915 -0.176 -0.0862 -0.0684 0.1405 -0.0448 0.0189 -0.0366 0.0259 0.0227 -0.0477 -0.0777 0.0518 -0.0037 -0.0154 -0.052 -0.0621 -0.0826 0.0386 0.0486 0.1992 -0.0525 0.0725 -0.0192 -0.2499 0.0073 -0.0208 0.0025 0.0349 0.0205 0.1353 0.0994 0.0843 -0.0101 0.0399 -0.0494 0.0081 0.0568 0.054 -0.1245 -0.0953 0.0779 -0.0341 -0.0016 0.0658 0.1312 0.0141 0.0382 0.0184 -0.0043 0.016 0.0191 0.0999 0.0722 -0.1073 0.0538 -0.0673 0.007 0.1207 -0.0733 -0.0092 -0.0039 -0.0661 -0.0061 0.0718 -0.0766 -0.0637 -0.0057 0.0292 0.052 -0.1418 -0.0013 -0.0319 0.0233 -0.0913 -0.0279 0.0203 -0.0274 -0.0147 -0.0498 0.0329 0.0192 0.0355 0.0378 -0.0527 0.0727 0.3429 0.0646 0.0098 -0.1069 0.0394 0.3522 -0.1097 -0.001 -0.019 0.0285 0.0606 -0.0846 0.0319 0.0203 0.0324 0.1065 0.0733 -0.2412 0.0184 -0.0819 -0.0355 0.1238 -0.254 -0.0362 -0.0157 -0.0546 -0.0028 0.0894 -0.097 0.0455 -0.057 0.0012 -0.5609 -0.0298 -0.0508 0.0679 -0.1028 -0.0156 -0.0869 0.0045 -0.0317 0.0445 -0.0418 0.087 0.0021 0.0202 0.0652 0.0217 0.0871 0.0214 0.0015 -0.0298 0.0046 -0.008 0.0101 0.0013 0.0851 0.0415 0.0339 -0.0639 -0.0593 0.0555 -0.226 -0.0245 -0.0129 0.1881 0.0869 0.1251
people.n 0.0104 0.1101 -0.0982 -0.0106 -0.0696 0.039 0.0236 0.1444 0.078 -0.0113 -0.0664 -0.0073 0.0487 0.0376 0.0059 0.0089 0.1061 -0.042 -0.2031 0.0578 -0.0766 -0.0024 0.0617 -0.091 0.007 -0.052 -0.0073 0.229 -0.0013 -0.0673 0.0723 0.0157 0.018 0.0143 -0.0459 0.0782 -0.0774 0.0251 -0.0283 0.0267 0.0702 -0.0028 -0.0007 0.0175 -0.0741 -0.0842 0.0915 -0.0717 0.0317 -0.0005 -0.0194 -0.1038 -0.5677 -0.0548 0.0613 -0.041 0.0401 -0.0349 0.0958 -0.0738 0.0977 -0.1166 -0.0918 0.0471 -0.0374 -0.1113 0.0323 0.0601 -0.0756 0.0176 -0.0649 -0.0478 -0.0875 0.0262 -0.0225 0.0274 -0.0203 -0.0513 0.0496 0.2361 0.0209 0.0194 -0.0897 -0.1629 -0.0227 -0.0204 0.134 -0.0006 0.1075 -0.0352 0.0361 -0.0157 -0.009 -0.0754 -0.0289 0.0124 -0.0752 0.0309 0.1522 0.0611 -0.1237 -0.0464 0.0686 -0.0986 -0.345 0.0112 -0.0237 -0.0461 0.0002 -0.0871 0.0606 0.0611 -0.0067 0.0067 0.0416 -0.1548 0.0341 -0.0201 0.0016 -0.3621 0.0278 -0.0081 -0.0439 0.111 0.0475 0.1615 0.1041 0.0793 -0.0659 0.0136 -0.0632 0.0417 -0.0166 0.0805 -0.1167 -0.1179 -0.0044 -0.0035 0.161 -0.0433 -0.0403 0.0141 -0.0143 0.3071 -0.0537 0.0247 0.0116 -0.0547 0.0038 -0.0568 -0.0537 -0.0509 0.0199 0.0368 0.0157 -0.0629 0.0432 -0.0054 0.0864 -0.0423 0.0181 0.005 0.081 -0.1374 -0.0419 -0.0433 0.0846 -0.0889 -0.0721 0.0148 -0.062 -0.0348 0.0004 0.1515 0.1205 -0.0123 0.1621 0.3035 0.0131 0.1352 0.088 0.1029 0.0368 0.0297 -0.0395 0.0331 -0.0741 -0.1205 -0.232 -0.008 -0.0134 -0.0545 0.0276 0.0252 -0.0547 0.032 -0.1028 0.026 0.1825 -0.0141 -0.0735 -0.1215 -0.0516 0.0276 0.1636 -0.0255 0.0335 -0.0751 -0.0613 0.0098 -0.0096 0.0019 -0.1141 0.0094 0.0666 0.0323 -0.1211 0.0104 -0.1071 0.0173 0.1065 0.0627 -0.1356 0.1173 0.0023 0.1258 -0.0001 -0.0134 0.0014 -0.0366 0.0561 -0.0831 0.3355 -0.0504 -0.0311 -0.0438 0.0475 0.1368 -0.2439 0.1537 -0.0804 -0.0243 0.0093 -0.0151 -0.006 0.0617 0.0246 0.1273 -0.0128 0.331 0.0785 0.1123 0.0162 0.0062 0.3092 0.1521 -0.0542 -0.0239 -0.0079 -0.0336 0.0491 0.0638 0.0727 -0.0776 -0.6799 0.0487 -0.0257 0.05 0.0245 0.0926 0.0513 0.0915 0.005 -0.1723 -0.0295 0.0156 -0.0265 -0.1024 0.0715 -0.0587 -0.0046 -0.0606 0.0656 -0.0108 0.0208 0.0201 0.0861 -0.0488 -0.0662 -0.0386 -0.0418 -0.0874 0.0045 -0.1039 -0.1243 -0.0287 -0.0954 0.1598 -0.0329 0.0798
way.n 0.0194 0.012 -0.0067 -0.0355 -0.0423 -0.1114 0.0843 -0.0488 -0.0514 0.0304 -0.0298 0.0949 0.0613 0.0023 0.0113 0.0342 0.0327 -0.0067 -0.006 -0.0079 0.0299 -0.0468 -0.0217 0.2318 -0.0775 0.0297 -0.0155 -0.0576 0.037 -0.0377 0.0413 0.062 0.0746 -0.1215 0.0196 -0.0266 -0.0151 -0.0282 -0.0111 0.0242 -0.0511 -0.0223 0.0614 0.0721 -0.0553 -0.0688 -0.0341 -0.0006 -0.0337 0.0056 -0.0738 0.1419 -0.6319 -0.0849 0.004 -0.0198 -0.0673 -0.2477 0.0122 -0.023 -0.0583 -0.0344 -0.0293 0.0249 -0.0951 -0.0484 0.0341 0.0289 0.0521 -0.0328 -0.0212 -0.0257 -0.0507 0.0608 0.0382 0.0297 -0.0117 0.0072 0.0436 0.1696 0.0349 -0.1407 0.0137 -0.2603 0.0008 0.0262 -0.044 -0.0084 0.0522 0.0624 -0.1229 0.0161 0.083 0.1211 -0.055 0.0102 -0.0349 0.0573 -0.0319 0.0703 -0.1319 -0.0198 -0.0187 -0.015 0.1736 0.0385 0.0901 0.0799 0.1163 -0.035 -0.0419 -0.1027 0.0383 -0.0151 0.0074 0.0304 0.006 0.0352 -0.005 -0.4064 0.0089 -0.0244 -0.0152 0.0017 0.1926 0.1892 0.0221 0.0356 -0.0552 0.1161 0.01 0.0482 -0.06 0.0132 -0.0663 -0.1006 -0.0083 -0.0124 0.038 -0.1632 0.0184 -0.048 0.0378 0.3493 -0.0762 -0.0303 0.0616 -0.0836 -0.0605 -0.0152 0.1505 -0.0018 -0.0643 -0.0249 0.0636 -0.0352 -0.075 -0.0077 0.0075 -0.0701 0.1634 0.0008 0.0929 0.0006 -0.0887 -0.0485 0.1129 -0.0291 -0.0039 -0.0103 -0.2622 0.0378 0.0123 0.059 0.1343 0.0254 0.181 -0.1502 0.0014 0.0259 0.0199 0.0752 0.0228 0.0502 0.0685 -0.2312 -0.0291 -0.1044 0.0067 -0.0893 0.0353 0.0525 -0.0064 -0.0133 -0.0801 0.0228 0.0735 -0.0109 0.2829 -0.0321 -0.026 -0.1137 -0.0626 0.0237 0.1094 -0.085 0.0994 -0.0863 0.0744 -0.0358 -0.072 0.0555 0.0159 0.0276 0.0115 0.0623 -0.1427 0.0031 -0.1843 -0.1323 0.0647 -0.0196 0.0792 -0.0202 0.0248 -0.145 -0.0192 -0.048 -0.0358 -0.141 -0.179 0.0127 0.3316 -0.0218 -0.0405 0.2076 0.0379 0.1145 -0.2448 0.076 -0.0819 0.0288 0.0471 -0.0144 -0.0186 -0.0531 -0.018 0.0575 -0.016 0.3047 0.0416 0.0431 0.0726 -0.0726 -0.0502 0.0233 -0.062 0.0155 0.0248 0.0003 -0.0175 -0.0124 0.0186 0.0217 -0.3066 -0.0481 0.1653 -0.0308 -0.1503 0.1114 -0.0091 -0.0167 -0.0602 -0.0401 -0.0141 -0.0264 -0.0926 -0.0197 0.021 -0.0562 -0.0726 -0.0742 0.0101 0.0155 -0.0342 0.0291 -0.1223 -0.1857 -0.1689 0.0141 0.0566 -0.027 -0.0271 0.0071 0.0124 -0.1433 -0.045 0.1907 -0.1316 0.0864
information.n -0.0877 0.0058 -0.0628 -0.0546 0.0437 -0.1648 -0.025 0.0636 0.0948 -0.0244 0.1199 -0.0584 0.103 0.005 -0.0924 0.0821 0.0096 -0.0925 -0.1706 0.0116 -0.0446 0.0717 0.0416 0.0322 -0.2547 -0.1272 -0.0532 -0.2637 -0.0025 0.0158 -0.0594 0.0699 0.0446 0.0167 -0.083 0.0749 0.0263 0.0472 0.0059 0.0231 -0.0782 -0.0116 -0.0688 0.0893 0.1616 -0.0206 -0.0252 -0.0131 0.0208 -0.0647 0.0013 0.2458 -0.5814 0.0259 0.1193 0.1122 -0.0423 -0.0927 -0.167 0.0365 -0.0244 -0.0225 0.0241 0.0745 -0.1047 -0.0917 -0.0272 0.0586 -0.0342 0.1176 -0.0953 0.0455 -0.0694 -0.1242 0.0413 -0.036 0.0361 -0.0271 -0.0866 0.1397 -0.0216 -0.048 -0.0349 -0.2048 -0.0293 -0.0959 0.0022 0.0424 0.0743 -0.0624 0.0075 0.0255 0.0329 -0.0482 0.0576 0.0953 -0.0312 -0.068 0.1017 0.036 -0.1796 0.0112 -0.0169 -0.043 0.1074 0.0398 0.1932 -0.0285 0.0507 0.1045 0.0765 0.0416 -0.1147 -0.0379 -0.0643 -0.056 -0.0266 0.0126 -0.001 -0.3312 -0.049 -0.0067 -0.1584 0.0545 -0.0791 0.1798 0.0318 0.0618 0.0375 0.0083 -0.0987 0.0176 0.1186 -0.0135 0.0301 -0.0344 -0.0908 -0.0756 0.1638 0.0431 -0.1124 -0.0574 -0.0834 0.2634 -0.0784 0.0107 0.0925 -0.0127 -0.0782 -0.0861 0.0001 -0.0061 -0.0163 -0.1111 0.1237 -0.03 0.0208 -0.0106 0.1494 -0.0279 -0.132 -0.0156 0.0022 -0.1222 0.0349 -0.0131 0.0813 0.0552 -0.0963 0.0114 -0.0744 -0.0721 -0.0431 0.0814 -0.0239 0.0151 0.1311 -0.1393 0.0376 -0.0212 0.0526 -0.1283 0.013 -0.0625 -0.0527 0.0347 0.0535 0.0437 -0.1319 0.0311 -0.136 0.0297 -0.0147 0.0689 -0.0852 -0.0311 -0.1405 0.0799 0.0882 -0.0264 -0.0104 0.0346 -0.0401 0.0693 -0.0246 -0.0361 -0.0722 -0.1722 0.0763 -0.1559 0.1195 -0.0122 0.0604 -0.1924 0.0753 -0.0631 -0.1237 0.1008 -0.0068 -0.0088 -0.0695 -0.1031 0.065 -0.1591 0.0792 0.0588 0.0058 -0.0724 0.0172 -0.0622 -0.3351 0.0535 0.3152 0.1219 -0.0807 -0.0422 -0.013 -0.1941 -0.2211 0.063 0.0205 -0.0239 0.0148 -0.0103 -0.0065 -0.0463 -0.0357 -0.0171 0.1008 0.1758 0.0156 -0.1486 -0.1356 0.092 -0.0999 -0.0559 -0.0709 -0.0624 0.0672 0.0516 0.0462 -0.0367 0.0206 -0.0304 -0.4683 -0.0027 -0.0288 0.0625 0.0123 -0.0954 -0.1454 0.0002 -0.1008 -0.1191 -0.1167 -0.0306 0.054 -0.0354 0.0532 -0.0057 -0.0959 0.1043 -0.0042 -0.0093 0.0762 -0.1102 0.1457 0.0816 0.19 0.0913 -0.02 -0.024 -0.122 -0.1378 -0.2765 -0.0566 -0.0038 0.2192 -0.0131 -0.0139
day.n 0.032 0.0381 -0.0299 -0.0745 -0.0624 -0.0106 0.1214 0.0652 -0.0287 -0.0093 0.0432 0.1459 -0.002 -0.052 -0.0532 0.0276 0.0522 0.0022 0.1427 0.0378 -0.0146 -0.0277 0.0109 -0.0366 -0.0317 -0.0365 -0.0407 0.0197 0.0573 -0.0153 0.0176 0.0243 0.0742 -0.0124 -0.025 -0.0018 0.0119 0.1819 -0.0013 0.0722 -0.0443 0.0333 0.0229 -0.0134 0.0234 -0.1116 -0.0358 0.0016 -0.0903 -0.1252 -0.0447 -0.0371 -0.6549 0.002 -0.0395 -0.1123 0.0658 -0.0693 -0.1501 0.0148 -0.011 -0.098 -0.0613 0.017 -0.0239 -0.2065 0.0509 -0.0065 -0.0218 0.0139 -0.0125 0.0441 0.0479 -0.1867 -0.0323 -0.0068 -0.085 -0.0145 -0.0931 -0.1637 0.0075 0.0412 0.1245 -0.2 -0.0367 0.0274 0.0826 0.036 0.1136 0.067 0.0596 0.0089 -0.0078 -0.0229 -0.0447 -0.0031 0.0414 0.0204 -0.0399 -0.1714 -0.1674 0.0433 0.1 0.0747 0.0612 0.083 0.1354 0.0297 -0.0649 -0.1586 -0.0751 0.1097 0.018 0.0538 0.0562 -0.099 -0.0263 0.0211 -0.0232 -0.4266 0.0036 0.047 -0.1384 0.0868 0.0989 0.2006 0.0307 -0.0765 0.018 0.1247 -0.131 0.0538 0.0273 0.0259 -0.0064 0.025 -0.0006 0.0265 0.1347 -0.0177 -0.0144 0.0188 -0.0578 0.236 -0.0327 -0.0406 0.0609 -0.0538 -0.0223 -0.0171 0.1744 -0.067 -0.0255 0.0193 0.0939 -0.0365 0.0283 -0.0069 -0.0482 0.0918 0.0132 -0.1141 -0.0436 -0.0728 -0.0091 0.0088 0.1886 -0.0145 0.0824 0.027 -0.2947 -0.0279 0.0095 0.009 0.1655 0.0816 0.1838 -0.0731 0.0643 -0.0536 -0.0452 0.0935 -0.036 0.0573 0.0687 -0.2477 -0.0871 -0.121 0.0091 0.1141 -0.0026 -0.0319 0.025 -0.0626 0.0574 0.041 -0.0028 0.0032 0.2352 0.017 -0.0282 -0.1094 0.1283 0.0246 0.1732 0.0847 0.0077 -0.0212 0.1663 0.0541 -0.0002 0.0716 -0.0075 0.0695 0.0581 -0.1371 -0.0487 -0.1312 0.038 0.1567 0.0741 0.0051 0.0987 0.0409 0.0239 -0.0082 -0.0169 -0.0421 -0.0064 -0.0529 -0.082 0.0839 0.3865 -0.1897 0.0526 0.1094 -0.0156 0.0821 -0.2498 0.0086 -0.0275 -0.0247 -0.004 -0.0002 0.1014 -0.0634 0.0204 -0.0859 -0.0122 0.3081 0.0238 0.0224 0.0063 -0.0821 0.018 0.122 -0.1168 0.0117 -0.0167 -0.1115 -0.015 0.0367 -0.0672 0.048 -0.1402 -0.1926 -0.2378 -0.0778 -0.1381 0.0006 0.0013 0.0128 -0.0085 -0.0282 0.1087 -0.0036 -0.0269 0.0016 -0.0493 0.0472 0.0049 0.2451 0.0501 -0.0526 0.057 -0.0057 -0.057 -0.0067 0.0132 0.0068 -0.063 -0.0359 -0.1193 0.1036 0.099 -0.1067 0.0747 0.1316 0.1363 0.044
game.n -0.0656 0.1005 0.0157 0.1808 -0.153 0.0024 0.0325 0.023 -0.0228 0.0241 -0.1924 -0.1303 -0.0522 -0.0813 0.0889 0.0785 -0.1193 -0.1137 0.0631 0.0958 -0.2303 0.0282 -0.0008 0.1015 0.0808 -0.0767 0.0335 0.0167 -0.1451 0.0955 -0.0301 -0.0097 0.0946 -0.0401 0.0856 0.0218 -0.0381 -0.0107 -0.0894 -0.1145 -0.0677 0.1215 0.0621 -0.0537 0.0257 -0.0051 -0.0038 0.0313 0.0262 -0.043 -0.0751 -0.0925 -0.6372 -0.0146 0.1137 0.0416 -0.0095 -0.0079 -0.1028 -0.0562 0.093 -0.107 -0.0345 0.1118 0.0132 0.0845 -0.1414 -0.1018 -0.0257 0.1922 -0.0658 0.0861 0.0723 -0.0529 -0.0653 -0.047 0.0006 -0.1859 0.0311 -0.0447 0.0112 -0.0901 0.0857 -0.2387 -0.0202 -0.001 0.0563 -0.0188 0.227 -0.0826 -0.0783 -0.0881 0.0472 -0.0413 0.0684 -0.0544 0.0554 0.0202 -0.0722 0.0711 -0.1263 0.1062 0.068 -0.1425 0.012 0.0725 -0.1285 0.0451 0.0229 0.0016 0.0711 0.0497 0.0761 -0.0363 0.0335 -0.0088 -0.0299 0.1641 0.1176 -0.2986 0.0233 -0.0758 -0.0469 0.0492 -0.0152 0.1312 -0.0862 -0.0138 -0.0665 0.0112 0.0218 0.063 0.0115 0.0808 -0.0003 0.1127 0.0354 -0.0361 0.1067 0.0271 -0.0938 -0.0097 -0.1575 0.1754 -0.0127 -0.0779 0.0094 -0.0305 -0.0295 -0.0351 0.1572 -0.0657 0.0396 -0.1469 0.0051 0.0629 -0.139 0.0984 -0.0289 0.0437 -0.0247 -0.0152 -0.0575 0.0211 -0.001 0.1254 0.068 0.0542 0.1586 -0.127 -0.1042 -0.0309 -0.1085 0.0631 0.0736 -0.1029 0.2632 -0.2465 0.0388 0.0616 -0.0277 -0.0598 -0.1382 -0.1036 0.0489 -0.0447 -0.0609 0.0881 -0.2246 0.103 0.098 -0.016 0.01 0.0839 0.14 -0.1001 0.004 -0.0447 0.0993 0.0756 -0.0825 -0.0875 -0.0316 -0.0195 0.1008 0.2004 -0.0127 -0.0756 0.0387 0.0219 0.1519 -0.0454 -0.0776 -0.0939 0.0335 -0.0247 0.0181 0.0669 -0.087 0.0009 0.0775 -0.0518 0.0687 -0.0033 0.1513 -0.1316 0.0289 -0.0865 0.0071 -0.0204 -0.0371 0.1242 0.3 -0.06 -0.0782 -0.0661 -0.1815 0.1245 -0.2306 0.0358 -0.2287 -0.006 -0.0258 -0.0743 0.0561 0.026 0.037 0.0031 -0.0045 0.3222 -0.087 -0.0593 -0.0277 -0.0054 -0.0636 -0.0348 -0.0387 0.17 -0.0458 0.028 0.0006 0.1489 -0.062 -0.0451 -0.3868 0.0748 -0.1802 -0.1275 -0.1364 0.1281 0.0164 0.057 -0.102 -0.1102 -0.0081 -0.0388 0.015 0.0555 -0.115 -0.0018 0.0294 0.1055 0.0921 0.0225 -0.1465 -0.0297 -0.0792 -0.0003 -0.0103 0.0554 0.0328 0.1071 0.0537 0.0155 0.2608 -0.0106 -0.0074 0.0835 0.0924 -0.0507
area.n 0.0311 0.093 0.021 -0.0865 0.0216 0.1186 -0.0193 -0.0096 -0.0589 -0.0677 0.0774 -0.0384 -0.0528 0.1841 0.0099 0.1269 -0.0206 -0.0435 -0.0479 -0.0347 -0.0447 -0.0638 0.0945 0.1662 -0.0683 -0.0495 -0.0229 0.0606 -0.1498 -0.0068 0.0 -0.0534 -0.1017 0.0913 0.0117 0.0179 -0.0275 0.1173 -0.0448 -0.0489 -0.0314 0.0798 0.0696 0.0477 -0.0595 0.0395 0.0491 -0.0397 0.0021 0.0273 -0.0131 0.0161 -0.5569 -0.0943 -0.0516 -0.0101 0.0116 0.1009 -0.0106 0.0238 0.084 -0.0702 -0.0005 0.0634 -0.0577 0.0259 -0.075 0.0494 0.0092 -0.0163 0.051 0.008 0.0124 -0.0409 -0.0125 0.0602 0.0095 -0.0907 -0.0317 0.0699 -0.0221 -0.0231 0.0638 -0.1805 0.044 -0.074 0.129 0.0038 0.0446 0.064 0.1135 -0.0144 0.0554 -0.1413 -0.0454 0.0361 0.0145 -0.0465 0.0359 -0.0072 -0.2159 0.1108 -0.0739 0.0419 0.0513 -0.0661 -0.1956 0.0102 0.1087 -0.0662 0.0218 0.0299 -0.0427 -0.064 0.0151 -0.062 0.0579 0.117 -0.0212 -0.3454 -0.0513 -0.0134 -0.0192 0.0005 -0.1333 0.2138 0.0837 -0.0647 -0.1213 -0.0713 0.0238 0.0103 0.051 0.1059 -0.0958 -0.0221 -0.0032 0.0465 0.0207 -0.0077 0.0646 0.1263 0.0241 0.247 -0.0715 0.004 0.0334 -0.0627 -0.033 -0.0079 0.0657 0.1106 0.0584 -0.047 0.0103 -0.0113 0.0068 0.023 -0.1371 0.0086 0.1092 -0.0307 0.067 -0.164 -0.0788 -0.2175 0.119 0.0828 -0.0434 -0.0561 -0.1729 -0.1202 0.1172 0.0488 0.0295 -0.088 0.1892 -0.1502 -0.0572 -0.0815 0.0098 0.0527 -0.1486 -0.0019 0.029 0.0275 -0.0033 -0.0238 -0.0508 -0.0145 -0.0522 -0.0884 0.1152 -0.0146 -0.071 -0.0938 -0.0262 0.0738 0.1509 0.0385 0.0672 0.0611 -0.0861 0.1241 0.0109 0.0294 -0.0649 -0.1869 -0.0688 -0.168 -0.0102 0.0603 0.051 0.0883 0.0684 -0.0494 0.0062 0.0755 -0.0706 0.0307 -0.086 0.1345 -0.0393 0.0732 0.0337 0.0444 -0.0575 0.0482 -0.0314 0.0365 -0.1 0.04 0.3857 -0.0104 -0.047 0.0695 0.0389 0.1027 -0.2533 0.0822 -0.0133 0.0978 -0.0282 -0.0756 -0.0212 -0.0555 0.0316 -0.1141 -0.1067 0.2701 -0.0012 0.0676 0.0598 -0.0128 0.0158 -0.046 0.152 -0.0029 0.1037 0.0253 0.1067 -0.0301 0.1156 -0.0294 -0.3695 0.0516 -0.0393 0.0602 -0.1691 -0.0819 -0.0446 0.0053 -0.015 -0.0465 0.0446 -0.0238 0.0225 0.0136 -0.0803 -0.0151 -0.0296 0.01 0.0152 0.0997 -0.0455 -0.033 -0.0751 0.0751 0.0543 0.0667 0.0036 -0.0314 -0.091 -0.1079 0.0022 0.0814 0.0162 0.0848 -0.0113 -0.0631
book.n -0.1203 0.0483 0.0165 0.1011 -0.0324 0.0508 0.1053 -0.0474 -0.1741 0.0697 -0.0234 0.0371 -0.1894 -0.0583 0.038 0.0471 -0.0577 -0.0344 0.0529 0.0411 -0.1217 0.0199 0.0125 0.0125 0.0711 -0.0785 0.1638 0.0343 0.1515 0.125 0.118 -0.006 0.0449 0.0955 -0.08 -0.0121 -0.0309 -0.0723 0.0482 -0.1468 0.0033 -0.1129 -0.0275 0.0396 0.0533 -0.0445 -0.0518 0.086 0.0186 0.0119 0.0808 0.0462 -0.6026 -0.002 -0.0303 -0.1521 -0.1135 0.0382 -0.1289 0.0217 0.1055 0.029 -0.0016 -0.0085 -0.013 0.0099 0.0951 0.0234 0.0231 0.0934 -0.0048 -0.1304 0.0385 -0.0566 -0.0453 -0.0205 0.0269 -0.092 -0.1013 -0.1691 0.0168 -0.0448 0.0149 -0.2251 -0.1309 -0.073 -0.0021 -0.1324 0.128 0.0389 0.0395 -0.0515 0.0496 -0.0244 0.0293 -0.0325 -0.0359 0.016 0.1011 0.0233 -0.1462 -0.0014 -0.2111 0.0722 0.0052 0.0359 -0.0901 -0.0294 0.0182 -0.0215 0.0234 0.0053 0.0125 -0.1438 -0.2041 0.0294 -0.0261 -0.0066 0.022 -0.3704 -0.0189 0.0728 -0.077 0.0016 0.0516 0.1675 0.1235 0.0052 0.0433 0.0756 -0.025 -0.0569 -0.0075 0.0581 0.0531 0.0372 -0.0297 0.0787 0.0326 -0.0179 -0.0533 -0.0445 -0.041 0.1993 -0.0227 0.092 0.0574 0.0006 -0.0711 0.0261 -0.0371 -0.0257 -0.0074 -0.0565 0.0013 -0.0044 0.031 0.0071 0.099 -0.0002 0.0008 0.0435 -0.0165 0.1561 -0.0008 -0.1222 0.0977 0.0233 0.0435 -0.0639 -0.0044 -0.1232 -0.0115 0.0657 0.1683 -0.2158 0.2322 -0.1932 0.0022 0.0723 0.1273 -0.0097 0.0591 -0.0514 0.0575 -0.1501 -0.0635 -0.0209 -0.1261 0.0165 0.0675 0.0695 -0.0281 -0.022 -0.0457 0.2132 0.0418 -0.1279 0.0768 -0.0926 -0.1156 -0.0456 -0.1075 0.0548 -0.0744 -0.0354 -0.0959 -0.065 -0.0526 -0.0974 0.1244 -0.0872 -0.1072 -0.1083 -0.0314 0.0678 -0.0935 0.0304 -0.195 0.1081 0.0661 -0.1366 0.0274 0.0365 -0.025 -0.0873 0.1298 -0.1214 0.0368 -0.1815 -0.1606 0.0101 0.3884 0.0048 -0.1044 -0.0383 -0.0642 0.0894 -0.2547 0.0449 -0.1152 -0.1665 -0.0936 -0.0342 0.1015 0.0371 0.1045 -0.0348 0.1276 0.3613 0.0924 0.0104 -0.1437 -0.0262 -0.1427 0.0455 -0.0904 -0.0231 -0.1244 0.0531 0.0772 -0.0054 -0.0066 -0.0286 -0.3993 -0.0938 -0.1047 0.0125 -0.1188 -0.0473 -0.0042 -0.1657 -0.0101 0.1149 -0.2051 0.0798 0.0063 0.0228 0.0224 -0.019 0.0702 0.1004 0.093 0.0123 -0.0312 -0.0892 0.0015 0.0051 0.0699 0.0569 -0.0087 -0.097 -0.0555 0.0275 -0.1478 0.0735 -0.0445 0.0755 -0.0536 -0.0739
man.n -0.0183 -0.082 -0.1086 -0.0261 -0.0004 0.1061 0.0483 0.0511 0.0397 0.0378 0.0103 0.0637 0.0883 0.0477 0.0313 -0.0397 0.1084 0.0366 0.005 0.0324 -0.0801 0.0158 -0.012 -0.0052 -0.025 0.0336 0.0422 0.1449 0.0683 -0.0836 0.1481 0.0462 0.05 0.1137 0.0923 -0.0471 -0.0662 0.0642 0.0692 0.041 0.1764 0.0957 0.0348 -0.1813 -0.0641 -0.1201 -0.0015 -0.0518 -0.0367 -0.1576 0.0802 -0.0795 -0.6409 0.0275 0.0465 -0.0079 0.0342 -0.0444 0.0615 -0.101 -0.0702 -0.0099 0.0781 -0.0395 -0.0314 -0.0868 0.0428 0.0017 0.0682 0.0239 -0.024 -0.1375 0.0192 0.1638 -0.1239 0.008 0.0108 -0.0558 0.0221 0.1604 0.0133 0.03 0.0762 -0.1881 -0.022 0.0278 0.0525 0.0235 0.1475 0.017 0.0319 -0.1402 0.174 -0.0175 0.0068 -0.0643 0.0541 0.0675 -0.089 0.0653 -0.1595 -0.0556 0.0116 -0.1456 -0.0966 0.0182 0.0108 -0.0263 -0.0792 0.1028 -0.003 0.1462 0.0981 -0.0062 -0.0501 -0.0744 -0.0045 0.0066 0.0129 -0.3483 0.0341 0.0193 0.0233 -0.1251 0.1372 0.1748 0.0618 0.0039 -0.0201 -0.0543 -0.1257 0.184 -0.1304 -0.0525 -0.0686 0.0671 -0.0596 0.073 0.0249 -0.1386 -0.0855 -0.0066 0.0455 0.2631 -0.0386 -0.0116 0.0351 -0.0213 0.0822 0.0203 -0.0165 -0.1699 -0.0143 -0.023 -0.0033 0.1676 0.0955 0.0699 0.0568 0.0582 -0.0784 0.0844 0.125 0.0706 -0.0748 -0.0347 0.149 0.0452 0.0094 0.0139 -0.0831 0.0421 -0.0777 -0.0314 0.1837 -0.0194 0.2017 0.0458 0.0193 0.0995 -0.0494 0.0361 0.0785 0.005 0.0117 -0.0256 -0.0672 0.019 -0.2295 -0.0422 0.0453 -0.0653 0.0298 0.0401 -0.1394 -0.0178 0.0025 -0.048 0.1648 -0.0572 -0.0862 -0.0383 0.0054 -0.045 0.0967 -0.0425 0.0104 -0.3111 0.0619 0.0988 0.0875 -0.0121 0.0106 -0.1684 0.1303 0.0874 -0.0152 -0.0121 -0.0816 -0.0212 0.0429 0.0173 -0.0344 0.1247 -0.0435 -0.1179 0.0993 0.1738 -0.0522 -0.0541 0.0333 0.1162 0.3734 -0.1006 0.1427 -0.1222 -0.0567 -0.0282 -0.2211 0.011 -0.1047 0.0358 0.0745 0.0128 -0.0339 0.108 -0.0121 -0.0447 -0.0663 0.3303 0.1083 -0.0208 0.0761 -0.0128 0.1058 0.0395 -0.0893 0.0669 -0.0023 -0.1205 0.038 0.0589 0.0733 -0.0037 -0.4494 -0.0505 -0.0964 0.0592 -0.1285 0.038 -0.1361 0.0777 -0.0404 0.0376 -0.0562 0.0421 0.1062 -0.1175 -0.0489 0.0205 -0.0273 0.041 0.0053 0.0329 0.0533 -0.0755 0.0195 -0.2246 -0.0166 -0.0297 0.016 -0.1144 -0.0092 0.105 0.2526 0.1142 0.0043 0.0905 0.0891 0.0057
water.n 0.0324 0.1127 0.0299 -0.0468 0.1851 -0.0766 0.1606 -0.0009 0.0073 -0.0824 -0.0285 0.2081 -0.0725 0.0124 0.0223 0.0935 0.106 -0.0691 -0.2082 -0.1124 -0.1073 -0.0788 -0.0233 0.059 -0.0095 -0.0322 -0.0791 0.0376 -0.0655 0.0233 0.098 -0.0671 0.0033 0.0717 -0.0968 0.1235 -0.0198 0.257 -0.1123 -0.0646 -0.0119 -0.0034 -0.0324 0.1175 0.077 -0.1514 0.1057 0.0549 -0.1626 -0.0393 0.0285 -0.0176 -0.7179 0.0048 0.1062 0.186 0.0267 0.1917 -0.1349 -0.023 -0.1161 -0.0168 -0.151 -0.0085 0.0072 -0.0646 -0.0169 0.0978 0.001 0.1081 -0.0101 0.0419 0.0444 0.0331 -0.0206 -0.0239 0.0769 0.1408 -0.0087 0.1251 0.0275 -0.124 0.0003 -0.1654 0.0994 0.0348 0.1344 0.0951 0.2546 0.1406 0.1042 -0.0295 -0.0159 -0.1387 -0.0486 0.0025 0.0867 0.037 -0.0238 -0.0489 -0.2034 0.1175 -0.0829 0.0327 0.1064 -0.0514 -0.0282 0.2241 0.1185 0.0397 -0.0968 0.0045 0.0408 0.1376 0.0485 0.0751 0.0135 -0.0139 -0.0359 -0.3228 -0.0699 -0.1807 -0.0557 0.1117 -0.0543 0.2151 0.1229 0.0091 -0.1023 0.0877 -0.0056 -0.0059 0.2719 -0.0035 -0.025 -0.0391 -0.0632 0.0646 0.1003 -0.1196 0.0956 0.0951 -0.0135 0.2037 -0.063 -0.0909 -0.0673 0.0428 0.0171 -0.0157 -0.0594 -0.1369 0.0407 -0.1141 0.0633 -0.0253 0.0931 0.0638 -0.1189 0.0721 -0.0375 -0.1154 0.2058 -0.0656 0.0941 0.0874 0.0719 -0.0606 0.0716 0.026 -0.0589 0.0632 0.0003 0.0865 0.0744 -0.0861 0.2803 -0.1539 -0.0001 0.1265 0.0863 0.1753 0.0327 0.1539 0.0308 -0.1012 0.1204 0.0364 -0.1867 -0.0467 0.0384 0.084 0.0267 -0.004 0.1295 -0.0316 -0.1671 0.0574 0.0493 -0.0878 -0.0696 -0.0104 -0.0136 -0.0131 0.0573 -0.0162 0.1735 -0.1057 -0.0202 -0.0308 -0.0111 -0.0343 -0.0661 0.0351 -0.0058 0.0681 -0.2036 0.1108 -0.0084 -0.083 0.0187 0.0198 0.0219 0.1145 0.0948 -0.1516 0.1387 0.1743 -0.0565 0.0442 0.1094 0.028 0.3631 0.1253 -0.0358 -0.1749 0.0945 -0.1607 -0.2382 0.0111 -0.0028 0.1075 -0.0929 0.0723 -0.1231 0.0293 -0.0056 0.1097 -0.0302 0.3872 0.0479 0.0222 0.0489 -0.1589 -0.0853 -0.0195 0.12 0.0649 0.0035 -0.1199 0.0691 -0.2642 0.1383 -0.1038 -0.298 -0.0925 0.0636 0.0544 -0.0889 -0.0352 0.0318 0.0293 -0.0502 0.0771 -0.0227 0.0972 0.047 -0.0093 0.0295 -0.0426 -0.0519 0.0221 -0.062 -0.0766 -0.0301 -0.0413 0.0357 0.1339 0.0364 0.02 -0.0869 0.1409 0.1145 0.1277 -0.0706 0.2207 0.0704 0.0468 0.1144 -0.0125
person.n 0.1035 0.1325 -0.0601 0.0064 -0.0095 0.0931 0.0477 -0.0171 0.0628 0.1273 0.0165 0.0846 0.142 0.0512 -0.0714 0.1076 0.0367 -0.0278 -0.028 0.085 -0.0849 0.0277 0.0287 -0.014 0.0325 -0.0261 -0.0073 0.0792 -0.0335 -0.078 -0.0127 0.0424 -0.0096 0.0112 -0.0548 0.1222 -0.0508 0.1165 0.0445 0.0078 0.0666 0.0267 0.1642 -0.1979 -0.0632 -0.1577 0.0833 -0.0547 0.0783 -0.0342 -0.045 0.0153 -0.5459 0.0678 0.1111 0.0699 0.1107 -0.0945 0.0293 -0.0353 0.1093 -0.0556 -0.0793 -0.0694 -0.0888 -0.1138 0.0126 0.0135 0.0302 -0.0429 -0.0612 -0.0749 0.0246 0.0862 -0.1176 0.1034 -0.0797 0.0546 -0.0721 0.1824 0.0377 0.0896 0.0704 -0.1862 -0.0473 -0.0478 -0.0178 0.0538 0.1164 0.0657 0.0014 -0.0088 0.0084 -0.0559 0.0881 0.0782 0.0632 0.1409 0.1504 0.0287 -0.2075 0.0036 0.0641 -0.1017 -0.1164 0.0081 0.0315 -0.0034 -0.1055 0.0291 0.0411 0.2759 0.0882 -0.0074 -0.11 -0.2433 -0.0802 0.0199 -0.1571 -0.4111 0.0888 0.1235 0.0079 -0.066 0.1087 0.2197 0.1271 -0.0212 0.0798 0.0564 -0.0568 0.016 -0.041 0.0982 -0.1104 0.0748 -0.0157 -0.0861 -0.011 -0.1525 -0.1442 0.0338 -0.0326 0.2855 0.0364 0.0336 0.1167 -0.0798 0.0473 -0.0686 -0.0176 -0.0244 -0.1406 -0.0584 0.0484 -0.0809 0.1405 -0.0217 0.033 -0.0393 0.0192 0.0056 0.0023 0.0115 -0.1379 -0.0326 0.0667 -0.1037 0.0169 0.1253 -0.1517 -0.0502 -0.0202 -0.0806 0.3185 0.0864 0.2537 0.1686 0.1043 0.0858 0.1402 0.043 0.0543 -0.0732 -0.1014 -0.0373 -0.0956 -0.0522 -0.2099 -0.1004 0.0714 0.0252 0.0102 0.1514 -0.1039 0.1228 -0.1736 0.0176 0.1635 -0.046 -0.0345 -0.0993 -0.0276 -0.014 0.0356 0.0381 0.1205 -0.2699 0.0292 0.0039 0.0629 -0.0483 -0.0262 -0.0845 0.0569 0.0023 -0.0351 0.0978 -0.0701 0.0747 -0.0271 0.055 -0.054 0.0959 0.0648 -0.0736 0.0403 -0.0025 -0.0044 -0.0907 -0.0368 0.0442 0.4247 -0.1432 0.033 -0.0548 -0.0385 0.0866 -0.2487 0.0054 -0.0254 -0.0651 0.0239 -0.0141 0.0053 0.0766 0.0839 0.1516 0.0079 0.3364 0.0474 -0.0047 -0.0396 -0.0818 0.0537 0.0421 -0.0922 0.0966 0.0084 -0.0753 0.0446 0.0024 0.0685 -0.0839 -0.5409 0.0852 -0.1061 0.0458 -0.1353 -0.0168 0.0339 0.0073 -0.0182 -0.1189 -0.0173 0.0669 -0.0066 -0.1571 0.107 0.0263 -0.0192 0.1556 0.0764 0.0287 0.0807 -0.032 -0.0311 -0.1826 -0.0233 -0.0672 -0.0752 -0.154 0.0919 -0.0819 -0.0984 -0.0257 -0.0965 0.0488 -0.0858 -0.024
text.n -0.093 -0.1029 0.1003 -0.0029 0.14 -0.1927 0.0721 0.0384 0.2091 -0.0044 0.0307 -0.1899 -0.0632 -0.1484 -0.1619 0.0438 -0.0004 -0.185 -0.0222 0.0329 -0.1061 -0.1408 0.1487 -0.0151 0.0195 -0.0423 -0.0628 0.0609 0.0396 0.1028 0.0301 0.0401 -0.0114 -0.0058 -0.0483 -0.0457 0.1572 0.0328 -0.1396 0.0955 -0.0291 -0.1455 0.0253 0.216 0.1002 -0.0372 0.0401 0.1865 0.1229 0.0055 -0.0198 -0.0553 -0.5846 -0.0168 0.0503 -0.1121 -0.0762 -0.0284 -0.0808 0.1215 0.1698 0.0576 -0.151 0.0886 -0.1635 -0.0041 0.0539 -0.1441 -0.062 0.0563 -0.0022 -0.1109 0.0566 0.0339 -0.0343 0.1197 0.0305 -0.0098 0.0338 -0.2498 -0.0014 -0.1251 -0.1122 -0.1775 0.0215 -0.1003 -0.0378 -0.1345 0.268 0.0265 -0.0003 -0.0648 0.0184 -0.2363 0.054 -0.0016 -0.0514 0.2176 -0.0402 0.0248 -0.195 -0.0053 0.084 0.1052 -0.1644 -0.0497 0.0256 -0.0176 0.0243 0.0004 -0.0856 -0.0046 0.1528 -0.2531 -0.1661 0.0616 -0.0674 -0.1281 0.1936 -0.3158 0.0267 0.0391 -0.0718 -0.0427 -0.0739 0.1822 0.0173 -0.0573 0.1787 -0.015 -0.0515 -0.114 -0.045 -0.0537 -0.0378 0.0899 -0.0863 -0.0058 -0.0217 0.2102 0.0271 -0.1243 -0.0281 0.2501 0.0791 0.091 -0.091 0.1203 0.1082 0.0834 0.105 -0.0687 -0.0689 -0.0153 -0.1006 -0.0869 -0.1856 -0.0344 0.0487 -0.0632 -0.0869 0.0427 0.095 0.1506 -0.0063 -0.1255 0.1196 -0.001 0.0062 0.0348 -0.0548 -0.053 -0.0233 -0.0149 0.1901 0.0272 0.1785 -0.0864 0.1548 -0.0042 0.0055 -0.0362 -0.0677 0.0956 -0.0047 0.0118 -0.0466 0.0343 0.0071 0.0308 0.0507 -0.0343 0.0692 0.0123 0.1396 -0.074 -0.0181 0.0547 -0.0052 0.0975 -0.0843 0.0709 -0.0238 0.0055 -0.1334 -0.0135 -0.0361 -0.1569 -0.0566 -0.0094 0.0073 0.0041 -0.0456 -0.0491 -0.0088 -0.0001 -0.0815 -0.1874 -0.1467 -0.0635 -0.0356 0.0217 0.0976 -0.025 -0.0125 -0.1252 0.0541 -0.003 0.1241 -0.0781 -0.2937 0.0837 0.3338 0.0345 0.1812 -0.0218 0.0368 0.0507 -0.2171 0.0288 0.0416 0.0613 -0.1668 -0.0087 0.1379 0.0176 -0.0987 0.0383 0.0739 0.2798 0.021 -0.0027 0.0888 0.0332 -0.0251 -0.0019 -0.0733 0.125 0.0651 -0.0467 0.0159 0.025 0.0107 0.0685 -0.542 -0.0569 0.031 -0.032 0.0924 -0.255 -0.1286 -0.1011 0.0211 -0.0242 0.0322 0.0474 -0.0266 0.0215 -0.0247 -0.0116 0.1513 0.0568 -0.0312 0.0102 0.0011 -0.0655 0.0089 -0.0623 0.1191 -0.0239 -0.0849 -0.0184 -0.0452 0.0668 -0.0635 -0.0557 0.0998 -0.147 -0.0648 -0.003
house.n 0.0936 -0.0812 -0.0257 0.0117 -0.0119 0.0177 0.0169 -0.18 -0.0886 -0.0622 -0.0177 -0.0737 -0.0506 0.0786 -0.0123 -0.1051 0.0395 -0.1022 0.0406 -0.0375 -0.145 0.0167 -0.0166 -0.0089 -0.0414 -0.0212 0.0872 0.0876 -0.1126 -0.142 0.1347 0.0661 0.0236 0.0197 -0.0362 0.0296 -0.0278 0.0051 0.0656 0.0736 0.0264 0.136 -0.0668 -0.134 0.0635 0.0994 0.0891 -0.0534 -0.0205 -0.0618 0.1071 -0.0004 -0.6136 0.0273 -0.0117 -0.0824 -0.0151 0.0906 0.0237 -0.0994 -0.0378 -0.0551 0.0055 0.013 -0.0237 0.0092 -0.0188 0.0211 0.1469 0.1091 0.0319 -0.0739 -0.0415 0.013 -0.126 0.1728 -0.0478 0.0038 0.0409 -0.1053 -0.0171 0.0343 0.0159 -0.2239 -0.1162 0.1331 0.0038 -0.0579 0.1337 -0.0478 0.0204 0.0902 -0.0546 -0.0997 -0.0527 0.0319 -0.0044 0.0595 0.0375 0.1498 -0.1902 -0.0826 -0.1506 0.0091 0.0969 0.1342 -0.0516 0.1301 0.0164 -0.0909 -0.0709 0.0203 -0.0125 0.0115 0.0014 0.0384 -0.0277 -0.0292 -0.1071 -0.3141 0.1098 0.0718 0.0748 0.0296 0.0779 0.2039 -0.005 -0.0168 -0.0348 0.0562 0.0976 0.0056 0.0953 -0.1929 -0.064 0.0725 0.032 -0.0485 -0.0421 0.0613 -0.0546 0.1382 -0.0326 0.157 -0.0197 -0.0439 -0.0399 -0.0845 0.0927 -0.0207 -0.0056 0.0025 0.0271 0.0016 0.0177 -0.087 0.1202 -0.018 -0.1283 0.0819 0.0037 -0.1633 -0.0259 -0.0823 0.0291 0.0307 0.061 -0.1321 0.0465 -0.0326 -0.1192 0.1034 -0.0982 0.0337 0.1221 -0.0274 0.2538 -0.2061 0.0377 0.0422 0.0642 0.0824 0.1246 0.1136 0.0193 -0.1479 0.0474 -0.1053 -0.0923 0.0264 -0.0395 -0.0474 0.0221 0.0511 0.0604 0.1071 0.0738 0.0627 0.0246 -0.1714 0.0582 0.0166 -0.0356 0.1785 -0.0187 0.2036 -0.1574 -0.0917 0.0937 0.0659 0.0161 0.0 0.0482 0.0786 -0.0582 -0.0157 -0.0756 -0.0354 0.0486 0.0337 0.0493 -0.0524 0.111 0.0248 0.0221 -0.1253 0.1056 -0.087 -0.049 0.0649 -0.0968 0.12 0.3315 -0.0588 -0.0378 -0.1482 -0.0568 0.0959 -0.2592 0.1388 0.0445 -0.0694 0.0053 -0.1989 -0.0438 0.0291 0.0055 -0.0264 -0.1436 0.3659 0.1071 -0.0056 0.0059 -0.0253 -0.0169 -0.0332 0.0328 -0.1593 0.0243 0.0416 -0.0029 -0.0629 0.0235 -0.0885 -0.3499 0.0227 -0.0509 0.0734 -0.18 -0.1503 -0.0192 0.0633 -0.0057 -0.0271 0.0251 0.0968 -0.1243 -0.0565 -0.0137 -0.075 -0.0482 -0.0904 0.1995 0.1412 0.0651 -0.0228 -0.0304 -0.045 0.0515 -0.0478 0.0576 0.0255 0.0505 0.0054 0.0368 0.2212 -0.1652 0.042 0.0477 0.0363
date.n 0.1507 -0.0179 -0.0707 -0.062 -0.0655 -0.0161 0.0186 -0.075 -0.0136 0.032 0.0456 0.0961 0.0228 -0.124 -0.1556 0.1021 0.1446 -0.0637 0.2257 0.0384 -0.0911 -0.0865 0.0859 0.1433 0.0046 -0.1938 0.0362 -0.0151 0.0433 0.0728 -0.0205 0.1546 0.0437 -0.0649 -0.0608 -0.2033 0.0106 -0.1104 0.0234 0.1121 0.0272 -0.0552 0.0066 0.2661 0.1578 0.0566 -0.0011 0.1008 0.0854 -0.1939 -0.0168 0.1495 -0.6502 0.0387 0.0141 -0.0484 -0.1098 -0.1152 -0.0825 0.154 -0.1103 0.0499 0.0603 -0.0621 0.0385 -0.0796 -0.0335 -0.0506 0.0028 -0.1267 0.0365 0.0931 0.044 0.0914 0.0059 -0.1355 -0.0536 0.057 -0.0471 -0.0678 0.0269 -0.0684 0.0259 -0.2668 0.1558 -0.1063 0.0502 0.031 0.064 0.0273 -0.071 0.1126 0.0576 -0.06 0.1707 0.0023 0.1051 0.037 -0.0688 0.0276 -0.229 0.0487 0.1095 -0.099 0.0516 0.0317 0.0629 0.0008 0.0826 -0.0428 0.0952 0.156 0.0363 0.0087 0.1233 -0.0935 -0.0599 -0.0535 0.0853 -0.3334 0.15 0.1571 -0.0105 0.2466 -0.0308 0.2459 0.0624 0.0411 0.0065 -0.0498 -0.1469 0.0096 0.029 -0.0822 -0.0023 -0.0286 0.0577 0.0141 0.1106 -0.0757 -0.1224 0.0842 0.0141 0.2336 0.0564 -0.0089 0.1067 0.0113 -0.0388 -0.0011 0.1446 0.0678 0.0398 0.1069 -0.0655 -0.1182 -0.0192 -0.1476 -0.0444 -0.0058 -0.0343 -0.0183 -0.0574 -0.0777 0.0168 0.0113 0.17 0.0231 0.0172 -0.1258 -0.0144 -0.0672 0.01 -0.0854 0.1607 -0.0377 0.3019 -0.1211 0.09 -0.0536 0.0274 0.1022 0.0356 -0.0577 0.0156 -0.2799 -0.0378 -0.0319 0.023 0.1139 0.1774 -0.0447 -0.0417 0.0148 -0.174 0.0436 0.0681 -0.1032 0.122 0.0195 0.2041 0.0556 0.0489 0.0464 -0.1132 -0.0936 -0.1213 0.0157 0.0565 -0.0334 -0.0063 0.144 0.1348 -0.0135 0.0552 -0.0933 -0.078 0.0309 -0.0147 0.2466 -0.0768 -0.2347 -0.0186 0.0699 0.0331 -0.0171 0.1176 -0.1352 -0.0618 -0.1985 -0.0434 0.0568 0.3831 0.0209 0.0837 -0.0595 0.0901 0.0286 -0.3044 0.1552 0.0702 -0.0765 0.0833 -0.0453 0.0301 -0.072 -0.0429 -0.1055 -0.0748 0.3289 -0.0942 0.0367 -0.1073 0.0002 -0.1881 0.1909 -0.0316 0.0852 0.055 -0.0685 -0.1169 0.1022 -0.0144 -0.0849 -0.1642 -0.1794 -0.0376 0.0356 -0.0914 0.0429 -0.0263 -0.0213 -0.0847 -0.0315 -0.0554 0.094 -0.1496 0.1082 -0.189 0.0525 -0.0084 -0.0906 -0.1103 -0.1389 -0.0042 -0.002 0.0068 -0.0808 -0.085 0.0096 -0.0034 0.0117 -0.2749 -0.0285 -0.0522 0.0381 -0.0908 -0.0052 0.1086 -0.03
word.n -0.0078 0.0075 0.0203 0.0991 0.0315 -0.0284 0.144 0.1352 0.0612 0.0649 -0.0026 -0.0589 0.0478 -0.0337 -0.0233 0.0469 -0.0836 -0.0053 -0.0024 0.0059 -0.097 -0.0849 -0.1521 0.0512 -0.0095 -0.0535 0.0353 0.101 -0.0254 0.0507 0.1445 0.0814 0.0186 -0.0705 -0.005 0.1171 -0.0342 -0.0678 0.0331 0.124 0.0532 0.1233 -0.0551 -0.0339 0.0393 0.042 0.0718 0.0245 0.0014 0.0358 0.0248 0.0603 -0.629 0.0427 -0.1074 -0.0039 0.021 -0.2132 0.0053 -0.048 0.1041 0.0203 -0.1299 0.0821 0.0068 -0.1315 0.1093 0.0268 0.0453 0.086 0.0879 -0.081 -0.0609 -0.0699 0.0355 0.1278 0.0056 -0.1478 -0.0338 0.053 0.042 0.0057 -0.1486 -0.254 -0.0338 0.031 0.1076 0.1301 0.2479 -0.0424 0.0194 0.0241 0.0553 -0.021 0.0199 0.1346 -0.0271 -0.0165 0.0626 -0.0277 -0.1648 0.1067 0.0814 0.0561 0.02 0.0851 0.077 0.1487 0.0184 0.0639 0.2449 0.0458 0.0254 -0.0777 -0.2763 0.1088 -0.0322 -0.0968 0.0203 -0.3275 0.0119 0.0009 0.1245 -0.0313 0.0185 0.2253 -0.1137 0.1194 -0.0373 0.1251 0.0708 -0.0121 0.1238 -0.0329 0.001 -0.0168 0.247 0.038 -0.0187 -0.066 0.0496 -0.056 -0.0356 0.3056 0.1101 -0.1 0.0857 0.0666 -0.0783 -0.0246 0.0656 0.047 0.0117 -0.0288 0.0195 0.0888 -0.0011 0.0498 0.1543 -0.0046 -0.0119 -0.0712 -0.0052 0.0329 -0.0581 -0.2167 0.0853 -0.0082 -0.0709 0.1088 -0.0385 0.0906 -0.0351 0.0871 0.18 0.003 0.2298 -0.0597 0.0496 0.064 0.0209 0.1061 -0.016 -0.066 -0.0098 -0.194 0.0173 -0.109 -0.1043 0.0094 -0.058 -0.0052 0.0969 0.0276 -0.1534 0.0294 0.0912 0.0732 0.1945 0.2065 -0.1425 0.0855 -0.047 0.0231 0.0248 0.0069 0.0312 -0.0188 0.0057 0.0325 0.022 -0.0964 -0.0249 0.0964 -0.0164 0.0064 -0.0219 -0.1127 -0.2472 -0.1389 -0.0292 0.1162 0.083 -0.0045 -0.178 -0.2347 0.0411 -0.0733 -0.0837 -0.1786 -0.1685 0.0646 0.349 -0.156 0.1804 -0.0815 0.1246 -0.0582 -0.2991 -0.1353 -0.1466 0.0152 -0.0964 0.0934 -0.0209 0.0703 -0.0528 0.0049 -0.0321 0.3874 0.0239 -0.0555 0.0211 -0.0027 -0.0128 -0.0043 -0.015 -0.0504 -0.0897 -0.0163 0.0572 0.163 -0.003 -0.0843 -0.4085 0.0635 -0.0108 -0.0066 -0.1859 0.0913 -0.0782 -0.026 -0.0953 0.0216 -0.0513 -0.0169 0.024 -0.129 0.038 0.07 0.0363 0.0553 0.1492 -0.0207 -0.0066 -0.0401 0.0789 -0.0303 -0.0041 -0.0201 0.0926 -0.0591 -0.1504 0.103 -0.0249 0.0168 -0.0684 0.118 0.0308 -0.0521
body.n -0.0722 0.0634 -0.0321 0.0021 0.11 -0.0047 0.2383 -0.0075 0.0888 0.1617 0.0721 -0.094 0.0785 -0.0892 -0.1999 -0.1281 0.0569 0.0145 -0.1441 -0.097 -0.055 -0.0751 0.1023 0.0443 0.0731 -0.0288 -0.0327 -0.0214 -0.0874 -0.0671 -0.0851 -0.1229 0.0743 -0.1479 0.0586 -0.0388 -0.0548 0.123 -0.0657 0.1162 -0.0378 -0.0649 0.0377 0.1171 0.0105 -0.092 -0.1264 0.0552 0.1135 -0.1301 -0.2398 0.1332 -0.5919 -0.0311 0.0333 -0.0726 -0.0165 -0.0299 -0.0595 -0.1469 -0.0719 0.0528 -0.0614 -0.0067 -0.0049 -0.0148 0.0491 0.0177 0.0681 0.0185 -0.0928 -0.146 0.1885 0.0759 -0.068 0.0735 -0.0685 0.0608 0.0638 0.0763 0.0392 0.0755 0.082 -0.2221 -0.104 -0.083 0.1181 -0.091 0.1994 0.2141 0.1771 -0.145 0.0472 -0.0993 0.0646 0.001 -0.1232 0.1128 -0.0171 0.152 -0.1745 0.0856 -0.0361 0.0015 0.1063 -0.0709 -0.0507 0.0261 0.0026 -0.0545 0.0657 0.0672 0.0415 -0.0287 -0.1141 -0.0485 -0.0989 -0.0483 -0.0999 -0.3457 0.0316 0.0412 0.0964 -0.0275 -0.0107 0.1424 -0.1175 0.0412 0.0231 0.2366 -0.0161 0.0071 0.0285 -0.0754 0.0122 0.0805 -0.0771 0.0196 -0.1379 -0.0001 0.0342 0.0506 0.1573 0.1468 -0.1332 0.0237 -0.0313 -0.0631 0.0923 -0.0176 -0.0837 -0.0361 -0.1111 -0.0707 -0.0089 0.1459 0.0262 0.0837 0.1208 0.0482 -0.0252 -0.0184 0.0626 -0.1785 -0.045 0.1736 0.1077 0.1137 0.0567 0.0502 -0.1283 -0.0264 0.0421 0.1489 0.0748 -0.1155 0.2501 -0.1506 0.0404 -0.0163 0.0022 0.0252 0.0593 0.1297 -0.1227 -0.0973 0.0799 0.1041 -0.1121 0.0328 0.1202 -0.0553 -0.0123 0.1909 0.1397 0.0513 0.0777 -0.0525 0.1378 -0.0627 -0.0505 0.0624 -0.0187 -0.0454 -0.0266 -0.0456 0.0825 -0.234 -0.152 -0.0184 -0.1195 0.0184 0.1183 -0.1185 0.004 0.0637 -0.0609 -0.0076 0.0469 -0.1198 -0.065 0.0479 0.1256 0.0293 0.0852 -0.1885 -0.0732 0.1536 -0.0512 0.1057 -0.003 0.032 0.3566 0.0058 -0.0295 -0.1377 -0.1463 0.0474 -0.2573 -0.0789 0.1964 0.19 -0.0061 0.0045 0.0156 -0.0068 -0.0657 0.0998 -0.2642 0.3801 -0.0688 0.0339 -0.0023 -0.0534 -0.0597 -0.077 -0.0411 -0.0196 -0.0094 -0.0055 0.1067 -0.1914 -0.0216 -0.0206 -0.3387 0.0291 -0.0389 0.0578 -0.2112 0.0387 0.0095 -0.2045 0.0057 -0.0824 0.1374 0.0785 -0.0211 -0.0787 0.1847 0.1304 -0.0511 -0.1664 -0.0374 0.0079 0.0729 -0.0878 0.0975 -0.0379 0.0946 -0.1658 -0.0243 -0.1087 0.0569 0.0649 -0.0109 0.0761 0.0244 0.0237 -0.0314 0.0069
side.n 0.0012 -0.0224 -0.0703 0.0499 -0.0315 0.0281 0.02 -0.1395 -0.1581 0.0647 -0.1159 -0.1278 0.0724 0.0035 -0.0672 -0.0129 0.0342 -0.0346 -0.035 0.0493 -0.0427 -0.1027 0.0759 0.0136 0.092 -0.027 0.0115 -0.0356 -0.0915 -0.052 -0.0122 -0.0148 -0.2319 0.1291 0.1225 0.0639 0.0211 0.0734 0.0148 0.1073 -0.027 0.0194 -0.1438 -0.0011 -0.0223 0.013 -0.05 -0.0678 -0.0861 -0.0333 -0.0168 0.0912 -0.5922 0.032 0.1633 -0.1001 -0.0119 0.0126 -0.0077 0.0396 0.0284 -0.0397 -0.0279 0.0824 0.1737 0.028 0.0008 -0.0008 -0.0222 -0.0265 -0.0535 0.0219 -0.0838 -0.0888 0.0145 0.0946 0.0885 0.086 -0.0727 0.0567 0.0102 0.0659 0.1144 -0.2191 0.1271 0.0285 -0.1097 -0.036 0.1614 0.0973 -0.0305 0.0054 0.041 0.0259 -0.0068 0.1564 -0.0128 0.0996 0.0965 0.0437 -0.1805 -0.0869 -0.0007 -0.1183 -0.0331 0.0763 -0.0149 -0.0362 -0.0232 -0.0487 -0.0996 0.1697 0.0264 0.0039 0.1492 -0.0342 0.0339 0.0464 0.0042 -0.3741 0.0491 -0.0008 0.0707 0.0149 -0.0684 0.1927 -0.0346 0.1171 -0.069 0.042 0.0662 0.0438 0.0682 -0.0612 0.0314 -0.0726 -0.0143 -0.0479 0.1158 0.1282 0.027 -0.103 -0.0136 0.2795 0.013 -0.1416 0.0765 -0.1416 -0.0362 0.0413 -0.0022 -0.0767 0.2024 -0.0883 0.0264 0.0924 -0.2657 -0.0119 -0.0797 0.0791 -0.0316 -0.024 0.061 0.0074 -0.1061 0.0405 0.0946 -0.0603 0.0188 -0.0301 -0.0419 0.0612 0.0271 -0.0117 0.161 -0.0502 0.249 -0.0509 -0.0528 0.0139 0.0969 -0.0367 0.0153 -0.0383 0.019 -0.1235 -0.0223 -0.0133 -0.0192 -0.0104 0.0885 0.1339 0.0626 0.0436 -0.0194 -0.0743 0.0796 -0.0753 0.2021 0.0596 -0.0856 -0.0146 -0.0408 -0.0506 0.0363 -0.2087 -0.0688 -0.0918 0.0054 0.0412 0.0211 -0.0413 -0.0356 0.1739 0.0152 0.0133 -0.1517 0.0503 -0.0016 -0.2304 -0.0254 -0.0672 0.05 0.0118 -0.0858 -0.1569 -0.0403 0.1142 0.0666 0.0024 -0.1571 -0.0646 0.351 0.0292 -0.1079 -0.0338 -0.1471 0.0989 -0.2625 -0.0593 0.0622 0.0612 0.0736 -0.0141 -0.0702 -0.2377 -0.0663 -0.0144 0.102 0.3204 0.0023 0.0699 0.1653 -0.1544 0.1358 -0.0236 -0.1224 -0.0171 -0.0068 -0.1393 -0.1382 0.1175 0.0878 -0.0819 -0.2924 -0.0395 0.076 -0.0132 -0.2256 0.0016 -0.0168 0.0419 0.1805 0.105 -0.0286 -0.0537 0.0691 0.029 0.0018 -0.0614 -0.0596 -0.0852 -0.0142 0.1369 0.0363 0.1992 -0.087 -0.0372 -0.1408 -0.0034 0.1011 0.0212 -0.0391 0.0776 0.1043 0.0108 -0.0047 0.0553 0.0525 -0.0971
head.n -0.1058 -0.0021 -0.1661 -0.028 -0.0218 -0.0185 0.121 0.0867 0.0265 -0.0266 -0.0219 -0.0044 -0.065 0.1361 -0.0106 0.0508 -0.0527 0.0064 0.0419 -0.1093 -0.0199 -0.0923 0.1107 -0.1364 0.14 -0.0035 -0.0364 -0.0696 0.0483 -0.2077 0.082 -0.007 -0.1536 -0.073 -0.0091 0.0894 0.0255 0.0731 0.0078 -0.0298 0.0923 0.0262 -0.0222 0.0414 0.0038 -0.0608 0.0178 -0.0559 0.0403 -0.0896 -0.0434 0.1656 -0.6026 -0.1051 0.0526 0.0311 -0.0259 0.1904 0.0651 -0.1015 0.1597 0.0526 -0.0341 0.0331 0.1264 0.1869 0.1045 -0.1598 -0.0399 -0.0598 -0.1584 -0.0864 0.0502 -0.0125 0.0088 0.0046 0.0485 0.0319 -0.1272 -0.0815 -0.0268 0.1383 0.0019 -0.2162 -0.0243 -0.0154 0.0678 -0.0256 0.115 -0.0862 0.0799 0.0041 0.0277 -0.0993 0.0457 -0.0006 -0.0108 0.0855 0.0796 0.1134 -0.1742 0.0958 0.0231 -0.0366 -0.0272 0.0414 0.1093 -0.0764 0.0934 0.1213 0.004 0.0693 -0.03 0.0987 -0.0229 -0.0677 -0.0227 0.0194 -0.0293 -0.3423 -0.0804 -0.0682 -0.013 -0.0576 0.0701 0.2372 -0.0664 0.1125 0.0654 0.0494 0.0472 -0.0215 -0.073 -0.1363 -0.1344 -0.1018 0.1527 0.0728 -0.2677 -0.0828 0.0133 0.0279 0.0886 0.1881 -0.0725 -0.0605 0.0525 -0.0037 0.1294 0.0695 0.0076 0.0702 0.0347 0.0231 -0.0096 0.0805 0.0188 0.1081 0.0486 -0.0444 -0.154 0.0082 -0.0207 -0.0299 0.0096 -0.0638 0.0059 0.0684 0.0722 0.0582 0.0434 0.0358 -0.0884 0.037 0.0757 -0.0682 0.2404 -0.1279 0.0395 0.0217 0.0218 0.0507 -0.0363 0.0323 -0.0441 -0.2755 -0.0681 0.0735 0.0869 -0.1229 0.0271 -0.1254 0.0034 -0.0713 0.0209 -0.0327 0.0309 0.0511 0.1943 -0.0237 0.0168 0.0365 -0.0505 -0.1135 0.198 -0.0597 0.0768 0.0186 -0.1874 0.003 -0.1525 0.1497 0.0267 -0.1265 0.0308 -0.1195 -0.0358 0.0563 0.0025 -0.0546 0.0386 0.0211 0.0285 0.0305 -0.0299 -0.1844 0.0959 0.1154 -0.0049 0.2 -0.223 0.0365 0.2541 -0.1884 -0.0269 -0.1196 -0.202 0.0203 -0.2417 -0.1527 0.069 -0.006 0.0879 0.0057 -0.0261 -0.0752 -0.0027 0.1429 -0.1858 0.3646 0.0191 0.0125 -0.003 -0.0699 0.0652 -0.065 -0.0521 0.0085 0.1145 -0.0236 -0.1242 -0.1085 -0.0073 -0.1274 -0.1647 -0.0655 0.1231 -0.092 -0.2445 -0.0435 -0.067 -0.0617 0.0243 -0.0044 0.0979 0.007 0.0891 -0.0812 -0.033 0.0641 0.002 -0.0767 -0.0146 0.0663 0.0764 0.0327 -0.0084 -0.028 -0.2359 -0.0657 0.0466 -0.083 0.0355 -0.0492 0.0121 0.0321 0.0821 0.1395 0.0313 -0.1211
night.n 0.1365 -0.03 -0.1251 -0.003 -0.0226 -0.0598 0.0138 0.0266 -0.0605 0.0449 0.0694 0.0483 0.0333 0.0119 0.0034 -0.0066 0.0482 -0.018 0.132 -0.0246 -0.023 0.025 -0.0625 0.0235 0.0546 0.0411 0.0566 0.1099 -0.0856 -0.1081 0.0646 -0.0603 0.1213 0.1624 -0.0085 -0.0208 -0.0327 0.1614 -0.1044 -0.0579 0.0035 0.1338 -0.06 -0.0488 0.0971 -0.0311 -0.0037 -0.1341 -0.0204 -0.1544 0.0205 -0.0424 -0.6839 0.0151 0.1364 -0.1146 0.0869 -0.0531 -0.1531 -0.1092 0.0673 0.004 -0.1189 -0.0206 -0.0392 -0.2089 0.0005 0.1345 -0.0526 -0.0597 -0.0365 0.0765 0.1012 -0.1273 -0.1266 0.0315 0.1127 0.0257 -0.1283 -0.1572 -0.0329 0.0156 0.074 -0.217 -0.1196 -0.0185 0.119 -0.0796 0.092 -0.0477 -0.0558 -0.1013 0.0049 -0.0048 -0.1299 -0.0589 -0.0324 0.1238 -0.0262 -0.0699 -0.1744 0.0023 -0.0124 0.1482 0.0989 0.1292 0.066 0.0326 -0.0269 -0.2623 -0.0795 0.0711 0.0758 -0.0218 0.0375 0.016 -0.0453 0.017 0.0277 -0.3956 -0.021 -0.0643 0.0052 0.072 0.0815 0.1898 -0.0176 0.0055 0.0056 0.1151 -0.1703 0.1029 0.0515 0.1005 -0.0069 -0.0216 -0.0313 -0.0398 0.0715 -0.0382 0.0119 0.0904 -0.0422 0.2137 -0.067 -0.0358 -0.0274 -0.0182 -0.1117 0.0641 0.21 -0.0317 -0.0069 0.019 0.007 0.0656 0.0259 -0.0104 -0.088 0.1304 0.0473 -0.0445 0.1007 -0.1253 0.0469 -0.0012 0.2129 -0.0593 -0.0115 -0.0148 -0.3031 0.0486 0.0964 -0.0557 0.1007 0.0749 0.2058 -0.0898 0.1234 0.0589 -0.0721 0.0408 -0.0435 0.116 -0.0012 -0.2789 -0.0572 -0.0274 0.0237 0.0741 -0.0678 0.0867 0.0404 -0.0207 0.027 0.038 -0.0389 -0.0207 0.2541 0.0107 0.1404 -0.2167 0.0643 0.0012 0.2435 0.075 0.0618 0.0432 0.0617 0.0516 0.0288 0.1509 0.0239 0.171 0.0205 -0.1094 -0.1051 -0.0845 0.0162 0.1072 0.0043 -0.0252 0.0317 0.0915 0.1256 -0.1017 -0.0381 -0.0086 0.0833 0.0227 -0.1001 0.0879 0.3444 -0.2482 0.0699 0.1625 -0.0753 0.0388 -0.2582 0.0953 -0.0674 0.0318 0.0166 -0.0146 0.0465 -0.0416 0.0127 0.0157 -0.0964 0.3375 0.0575 0.102 0.0482 0.0825 -0.0239 -0.0384 -0.0061 -0.0596 -0.0035 -0.0368 -0.0033 0.0364 0.0367 0.0177 -0.2261 -0.2347 -0.1003 -0.022 -0.2131 -0.1158 -0.0467 0.0943 -0.0305 0.1304 0.1004 -0.0537 -0.0052 0.0141 -0.1212 -0.0042 -0.1371 0.2742 0.054 -0.0955 0.1175 0.033 -0.168 -0.0328 0.0858 0.0156 0.1293 -0.0193 -0.0063 0.1076 0.2297 -0.0418 0.0752 0.1227 0.0731 0.1384
paper.n -0.0804 -0.1922 -0.0003 0.0403 -0.0766 -0.0138 0.1816 -0.0141 -0.0341 0.0462 0.1583 -0.0165 -0.0496 -0.1444 0.0056 -0.1008 0.0598 -0.0463 -0.0765 0.0069 -0.1139 -0.0043 0.0836 -0.0639 0.1218 -0.0341 -0.0286 0.0043 -0.0081 0.1429 -0.0062 -0.1041 0.0244 -0.0028 -0.1483 0.0016 0.0487 0.097 -0.0568 0.0339 -0.0891 -0.0288 -0.015 0.0499 0.1686 0.0647 -0.0175 0.0582 0.0857 0.2973 -0.0638 0.0083 -0.6145 -0.1868 -0.0543 0.0293 -0.0004 0.0127 -0.015 -0.0728 -0.027 -0.0693 0.026 0.1448 0.0656 0.07 0.0655 0.0087 -0.0235 0.0699 -0.151 -0.0829 -0.1106 -0.0814 -0.1827 0.0555 -0.0207 0.0014 -0.0267 -0.1689 0.0223 -0.0642 0.1181 -0.1882 -0.0857 -0.1816 0.0924 -0.0046 0.1125 -0.0521 -0.1138 0.0435 -0.0005 -0.0866 0.0013 -0.0232 -0.1005 -0.1383 0.1038 -0.1334 -0.1978 0.039 -0.173 0.2878 0.0346 -0.0047 -0.1227 -0.003 0.0332 0.0296 -0.139 -0.0599 -0.1249 -0.0879 -0.0876 -0.0851 0.0239 0.1902 0.1704 -0.3275 0.1381 0.125 -0.1592 -0.0379 0.0267 0.2246 -0.0016 0.0168 0.0749 -0.2134 0.2226 -0.0352 0.0182 0.1021 -0.0373 0.0036 -0.017 0.1743 0.0114 0.0785 0.0129 -0.0224 0.0534 0.1784 0.0594 -0.0389 0.1007 0.1069 -0.0193 -0.1142 -0.1135 0.0036 -0.0133 -0.0354 0.0175 0.0089 0.1131 0.0272 0.0653 0.1145 0.1459 -0.1356 0.1197 -0.0289 -0.0205 0.0016 0.0958 0.0016 0.0933 -0.0524 -0.0046 -0.0348 0.0298 -0.1815 0.2353 -0.1045 0.2359 -0.2415 -0.1756 0.1697 -0.0463 0.0799 0.0243 0.062 0.0327 -0.1467 -0.0376 -0.1365 -0.1632 0.1572 0.0154 0.0107 -0.1087 -0.0107 0.0176 0.005 0.0573 -0.1236 0.0332 -0.0449 -0.0077 -0.0297 -0.076 -0.0487 -0.0141 0.0543 0.0227 -0.0683 0.0526 -0.0059 0.0182 -0.0802 -0.04 -0.0404 0.14 -0.0382 -0.0924 -0.118 -0.1012 -0.1177 0.0453 -0.1575 0.0374 0.0559 -0.1475 -0.2679 -0.075 -0.0138 0.078 -0.1273 -0.0786 0.0648 0.3765 0.0955 -0.152 -0.0131 -0.0958 0.0447 -0.2084 -0.0164 -0.0973 -0.1308 -0.0114 -0.0814 -0.0281 0.0939 0.0132 -0.0739 0.1769 0.375 -0.0849 0.1046 -0.0866 -0.1223 -0.1073 0.1204 0.1158 0.0146 -0.1729 -0.2435 0.0407 0.0614 0.083 0.0964 -0.3332 0.1127 0.0026 0.0231 -0.1713 -0.0223 -0.0226 -0.0488 -0.1189 0.1463 -0.0199 -0.0361 0.1107 0.0068 -0.1021 -0.0057 0.0079 0.0191 0.0354 0.0827 0.0394 -0.038 -0.0145 -0.0475 -0.036 -0.0265 -0.0671 -0.0714 -0.0921 0.024 -0.1539 0.0337 0.0312 0.0788 0.0775 -0.0412
hand.n 0.0562 -0.0266 -0.0952 -0.0247 -0.3323 -0.043 0.0962 -0.0832 -0.1492 -0.124 -0.0313 -0.0308 -0.0582 0.0622 0.1239 0.027 0.068 -0.0615 -0.1452 0.1285 0.0345 -0.0614 0.0682 -0.0541 0.0091 0.0905 0.0452 0.0111 -0.0577 -0.0344 -0.0241 -0.0141 -0.0121 0.0312 0.0557 0.0355 0.0372 -0.0696 0.0221 0.0748 0.126 -0.0034 0.0081 0.0118 0.112 -0.0315 -0.1334 -0.0931 0.0023 -0.0374 -0.0379 0.0946 -0.6668 0.044 0.1538 -0.0112 -0.0693 0.099 0.0166 0.1417 0.0573 -0.0235 -0.0698 0.1443 0.0176 0.094 0.053 -0.03 0.047 0.0645 0.0007 -0.1058 0.076 -0.0632 -0.0521 0.0237 0.1349 -0.1127 -0.1572 0.0272 0.0371 0.1193 0.0808 -0.1901 0.0447 0.0769 -0.0191 0.0126 0.0497 -0.0214 0.0265 -0.0481 0.0125 -0.0605 0.0062 0.1042 0.0207 -0.0009 0.036 -0.1846 -0.2092 0.0053 0.0061 0.0746 0.1125 0.0109 0.1508 0.142 -0.1016 0.1754 0.0101 0.1145 -0.0244 0.069 0.0588 0.0359 0.0412 0.0195 -0.0548 -0.4548 -0.0111 0.069 0.0978 -0.0164 0.0362 0.2111 0.0807 0.3302 0.0142 0.0424 0.0604 0.0699 0.1094 -0.0758 0.0657 -0.0752 -0.0183 0.2202 0.04 0.0417 0.0578 -0.0198 -0.0519 0.2965 -0.0617 -0.1137 0.0394 0.1125 -0.0513 -0.0684 -0.0482 -0.0557 -0.1774 -0.101 0.0969 0.0971 0.0608 -0.0786 0.0497 0.0753 -0.1342 0.0667 -0.0724 0.0428 -0.0828 -0.0119 0.2549 0.1052 -0.0067 0.1202 -0.0844 0.1896 0.0258 -0.0026 0.1313 -0.0491 0.1899 -0.0227 -0.0531 0.1189 -0.0565 0.0458 0.0808 0.0188 -0.0472 -0.2542 -0.1667 -0.0773 -0.0046 0.0146 0.2537 -0.0418 -0.0251 -0.0151 -0.045 0.0868 -0.0347 0.0011 0.2237 0.0391 0.0315 -0.0963 0.0483 0.0184 -0.0107 0.0273 -0.1087 0.1399 -0.1232 0.0702 -0.0165 -0.1691 -0.0845 -0.0562 0.0186 -0.006 -0.1619 0.0157 -0.0377 -0.1396 0.0623 -0.0451 0.0571 0.0405 -0.0779 -0.3506 0.008 0.1274 -0.0916 0.0162 -0.1695 0.0527 0.3226 0.0614 -0.0387 0.11 0.0208 0.0808 -0.225 -0.1208 -0.0154 -0.0049 0.0549 0.0052 0.0214 -0.0083 0.0196 -0.0478 0.0251 0.3825 0.015 -0.0446 -0.0176 -0.0232 -0.0146 -0.0018 -0.1236 0.0805 -0.0081 -0.0275 -0.1378 -0.0921 0.0277 0.0533 -0.0326 -0.0406 -0.0219 -0.0634 -0.1028 -0.0211 0.0734 0.0208 -0.0732 0.0371 0.0262 -0.0421 -0.0636 0.0301 -0.0712 0.01 -0.2678 0.0024 0.0806 -0.068 0.0502 -0.06 0.0914 -0.1264 -0.0763 0.1081 -0.0038 -0.0394 0.0423 0.0806 0.0159 -0.1013 -0.0756 0.2008 0.0486 -0.1537
car.n -0.016 -0.0003 -0.1684 0.0899 -0.02 -0.0093 0.0482 -0.0308 -0.0451 0.0006 0.168 0.0965 0.3061 -0.0411 0.0296 -0.0463 0.0325 -0.0703 0.0222 -0.1404 -0.2638 -0.0134 0.1277 0.1227 0.1803 -0.0192 0.0353 0.1214 0.1509 -0.0861 0.0976 -0.0255 -0.0276 -0.1556 -0.0739 0.0543 -0.067 -0.003 0.1515 0.0608 0.033 0.0747 0.0009 0.055 0.0048 -0.0132 -0.0262 -0.1804 0.0805 0.0464 -0.0159 -0.0302 -0.6785 0.1632 0.0103 0.0655 -0.0843 0.0227 0.0335 -0.0356 -0.0638 -0.1111 -0.0017 0.0978 0.0565 -0.0352 0.0395 0.1867 0.079 -0.1234 0.0186 0.089 0.1631 0.0783 0.0561 0.1447 -0.0251 0.1376 -0.0079 -0.0239 0.0218 0.1494 -0.0191 -0.2479 -0.0499 0.0516 -0.1298 -0.0648 0.2738 0.0078 0.0171 -0.0372 0.077 -0.1167 -0.0377 -0.0432 0.0186 0.0209 -0.0167 0.0345 -0.1472 0.0122 -0.053 -0.0073 0.1029 0.0283 -0.1264 0.0066 -0.0579 0.1004 -0.1225 0.0247 0.0808 -0.0399 -0.0108 0.0043 0.0184 0.0488 -0.174 -0.3181 -0.129 0.0783 -0.1382 0.0573 0.0325 0.1704 -0.1343 0.0037 -0.0304 0.0407 0.2318 0.0393 0.1592 -0.0602 0.0273 0.1087 -0.0189 -0.103 -0.1526 -0.0783 -0.1257 0.1261 -0.0832 0.1561 -0.2254 -0.1236 -0.1028 0.0583 -0.0299 0.1361 -0.0436 -0.0158 -0.0121 0.1076 -0.0177 -0.0889 -0.0053 -0.0457 -0.0317 -0.1454 -0.1237 -0.0886 -0.0162 -0.1603 0.0505 0.15 0.0697 -0.0715 -0.0245 -0.0099 -0.1832 0.0413 -0.0251 0.0845 0.0284 -0.1314 0.3021 -0.1812 -0.0738 -0.0999 -0.0298 0.1508 -0.0443 0.1709 -0.0549 -0.1333 -0.0046 0.0395 -0.254 -0.0696 0.019 -0.0414 0.0729 0.0556 -0.0921 0.0986 0.0049 -0.1271 0.0958 -0.114 -0.0224 0.02 -0.0104 -0.0111 0.0064 0.0619 -0.1497 -0.1185 0.0554 0.0396 0.0309 0.0395 -0.0876 -0.0306 -0.1778 0.1257 -0.157 0.1452 -0.1522 0.0098 0.0993 -0.0046 0.0523 -0.0985 0.0832 -0.2352 0.0205 0.1426 -0.0085 -0.0316 -0.0255 0.0685 0.3141 -0.0637 0.0705 -0.1557 -0.2177 0.0138 -0.2602 0.0435 -0.1156 -0.0142 -0.1423 -0.2142 -0.0231 -0.0729 0.1277 -0.1052 -0.1444 0.4128 0.1017 -0.1077 0.0722 -0.0629 -0.0949 -0.1079 -0.0631 -0.0389 -0.0351 0.0992 0.0205 0.2151 0.0977 -0.0359 -0.4316 0.1129 -0.1438 0.0053 -0.1333 -0.1541 0.0691 0.115 -0.0566 -0.005 0.1207 -0.0611 -0.0474 -0.1151 -0.0287 0.1378 -0.0729 -0.0217 0.1108 0.0277 -0.0201 -0.2236 -0.0125 -0.0693 0.0234 -0.0214 0.0694 -0.0507 -0.0549 -0.0927 0.0702 0.1719 -0.0137 0.0068 0.1336 0.0286
child.n 0.0534 0.023 0.0731 -0.1413 -0.0934 0.0889 0.0874 -0.0875 0.0892 0.1463 -0.1651 -0.0767 -0.0428 -0.1117 -0.0479 0.1649 0.0063 0.0872 0.0428 -0.146 -0.1484 -0.0201 -0.0747 0.1277 -0.1181 -0.0473 -0.0368 0.1324 -0.0152 -0.0578 0.0308 0.0313 -0.0087 -0.1888 -0.0116 0.0114 0.1459 0.1111 -0.0131 0.0161 0.1102 0.0081 0.0209 -0.1014 -0.1271 -0.0011 0.0053 -0.1952 0.0803 -0.0919 -0.0609 0.0343 -0.6642 -0.05 0.0579 -0.0931 0.0183 0.2046 -0.001 0.0607 -0.0679 -0.0395 -0.0312 -0.0427 -0.0001 -0.1367 0.1203 -0.0201 -0.0008 -0.0725 -0.0524 -0.1028 0.0758 0.0779 0.009 0.1042 -0.2144 -0.0255 -0.1372 0.1938 0.0075 0.1241 0.1913 -0.1838 -0.0232 0.1448 0.0122 0.0347 0.2127 -0.0318 -0.0287 -0.1175 0.0033 -0.1061 0.0264 -0.0226 0.1509 -0.0579 -0.0092 -0.0591 -0.2664 -0.1507 -0.0677 -0.0085 -0.0504 0.0549 0.1235 -0.0397 -0.1227 0.0473 0.127 0.2363 -0.0042 -0.1077 0.0112 -0.0974 0.0068 -0.0978 -0.1991 -0.3697 0.0315 0.1487 0.0887 0.0349 0.1159 0.2285 -0.0503 0.0378 0.0511 0.1274 -0.0781 -0.1334 0.1074 -0.0313 -0.0343 0.0892 -0.0605 0.0519 -0.0827 0.0593 -0.1305 -0.1255 -0.014 0.1856 0.189 -0.0273 -0.1289 0.1549 -0.0845 0.0344 0.0152 -0.0474 -0.0534 -0.0608 0.0099 0.0023 -0.0535 0.0427 -0.0482 0.0136 0.0074 0.0321 0.0638 -0.0413 0.0069 0.0022 0.0624 0.1411 -0.0531 -0.0725 -0.1181 0.0066 -0.0508 0.0401 0.1788 -0.1575 0.3049 0.0881 -0.1042 0.007 0.1308 0.0742 -0.0526 -0.1475 0.1024 -0.0873 -0.0838 -0.0998 -0.2147 0.0186 0.0557 0.1008 0.0903 -0.0016 -0.0422 0.1404 -0.0656 0.0583 0.1225 0.0341 -0.1242 -0.0454 -0.0362 -0.0362 0.012 0.1502 0.0384 -0.0535 0.0174 -0.1136 0.0217 -0.0853 -0.096 -0.0944 -0.0222 0.152 -0.0298 -0.0614 0.0512 -0.0261 -0.2042 -0.1585 0.0108 -0.1128 0.112 -0.0708 -0.0361 0.0536 0.0412 -0.1216 0.0062 0.0444 0.4348 -0.0832 -0.0304 -0.1147 -0.1726 -0.0901 -0.2732 -0.0613 -0.0169 -0.2246 0.0439 -0.0425 0.0159 -0.031 -0.0413 0.0024 -0.1419 0.4065 -0.0049 0.0387 -0.117 0.0114 0.0447 0.0114 -0.0448 0.028 0.1225 -0.0184 0.021 -0.0175 -0.042 0.165 -0.3713 -0.0374 -0.0678 0.0568 -0.0816 -0.0802 0.0482 0.0299 -0.127 0.1736 0.0299 -0.0513 0.1099 -0.0338 0.0204 0.2002 -0.0194 0.0595 0.0784 0.0016 0.0467 0.0111 -0.0228 -0.2357 0.0499 -0.073 0.0031 0.0946 0.0679 -0.0967 0.0562 0.1546 0.0057 0.0146 0.0864 0.0238
key.n 0.0954 -0.0173 -0.1522 0.0646 0.0042 0.046 0.0343 0.0356 -0.0817 -0.1633 0.1042 -0.0314 -0.008 -0.0279 0.1167 0.0528 -0.1352 -0.0369 -0.221 0.106 0.0323 -0.1679 -0.0185 0.0342 -0.0142 -0.1162 0.0318 -0.1335 -0.0729 -0.0445 -0.0874 0.0841 -0.1252 -0.0149 -0.0569 0.0766 -0.038 -0.1324 -0.1096 -0.05 -0.1026 0.0487 0.0828 0.0799 0.1519 -0.0336 -0.1528 -0.0482 0.1051 -0.0125 -0.1569 0.2992 -0.6949 0.0442 0.1409 -0.0395 0.0825 -0.1398 -0.0196 0.0736 -0.0583 -0.0146 -0.0454 0.0528 -0.151 0.0435 0.1362 0.0126 0.0051 -0.0705 -0.0577 0.0647 0.0516 -0.0239 -0.0434 -0.0127 0.065 -0.048 0.0505 -0.0166 -0.0313 -0.0131 -0.0893 -0.2058 -0.0155 -0.0156 -0.0679 0.0065 0.0818 -0.0343 -0.1209 -0.0331 -0.0504 -0.0971 -0.0413 0.0109 -0.1285 -0.1179 -0.0479 -0.0341 -0.1887 -0.0118 -0.0439 -0.0234 0.2065 -0.0641 0.2391 0.0442 0.1567 -0.0477 -0.0376 0.1499 0.0249 0.0167 0.0603 0.0403 -0.0615 0.0156 0.1207 -0.3283 0.0109 0.0413 -0.0107 0.0737 0.1255 0.2218 -0.0131 -0.0472 -0.0291 0.0374 -0.0141 -0.0741 0.1277 -0.1282 0.0553 -0.3593 -0.0031 -0.0203 -0.2376 0.0302 -0.0515 -0.0402 0.0135 0.2663 -0.1074 0.0633 -0.003 0.0145 0.0358 0.0643 0.0343 0.0647 0.0239 0.1055 0.1566 -0.0367 0.0151 0.0475 0.0014 -0.039 -0.1954 -0.0093 0.2056 0.1921 0.1071 -0.0371 0.1531 0.083 0.0132 0.1966 0.0706 0.0418 -0.0697 0.0555 -0.0278 -0.1305 0.2337 0.1377 0.0462 0.0115 0.0521 0.094 0.0275 0.006 -0.0398 0.1189 0.0642 -0.0514 0.1592 0.0722 0.01 -0.007 -0.0238 -0.0198 -0.1225 -0.0216 -0.0021 0.0475 0.1333 0.0701 0.1301 -0.0226 -0.0855 -0.0627 -0.1418 -0.0156 -0.1842 0.0437 -0.0804 -0.0051 0.0971 -0.1254 -0.0543 -0.0072 0.0311 -0.1067 -0.0023 0.0702 -0.2621 0.0363 0.0512 -0.0016 -0.0143 -0.0534 0.1261 -0.0383 0.0104 0.0787 -0.0859 -0.2493 -0.0089 0.0622 0.3381 -0.026 0.0225 -0.0692 -0.1113 0.0052 -0.2341 -0.005 -0.0089 -0.0277 -0.0721 0.122 -0.077 -0.0563 -0.0657 -0.0443 0.1411 0.3952 -0.0978 0.0392 0.0244 0.0649 0.1775 -0.0821 0.0281 -0.0162 0.0265 -0.1206 -0.0346 -0.0101 0.051 0.0278 0.0448 -0.1613 -0.0505 -0.0021 -0.1541 -0.08 -0.007 0.0864 -0.0765 -0.0606 -0.0043 -0.0493 0.0322 0.1228 0.0149 0.0041 0.1054 0.0676 0.0395 0.0149 0.1519 -0.087 0.0469 -0.0824 0.0685 -0.0461 -0.0968 0.1206 -0.0301 0.1831 0.0169 0.1356 -0.0069 0.1328 -0.0172 -0.0441
air.n 0.114 0.0731 -0.1923 -0.0759 0.0889 -0.0511 -0.0419 -0.1024 0.015 0.0609 0.0019 -0.0239 0.1454 0.0569 0.0991 0.1606 0.0497 -0.0426 -0.1396 -0.0194 -0.0757 0.0332 0.011 0.0508 0.039 -0.3111 0.1007 0.0131 -0.0161 -0.1033 0.0588 -0.024 -0.027 -0.101 0.0654 -0.0392 -0.0561 0.205 -0.0194 -0.0768 -0.0815 -0.0102 0.0892 -0.0775 0.1172 -0.2148 -0.0136 -0.0912 -0.1933 -0.0294 -0.1232 -0.0697 -0.6851 -0.1733 -0.0938 0.0667 -0.1258 0.2553 -0.2436 -0.0495 -0.0418 -0.0464 -0.0428 -0.0169 0.097 -0.0412 0.0573 0.1636 -0.0375 0.0484 0.0959 0.1378 -0.0266 0.1035 -0.0106 0.0123 0.0799 0.172 -0.1441 0.0396 0.0135 -0.0952 -0.1304 -0.211 -0.0428 0.0821 0.1143 -0.1911 0.1518 0.07 0.0211 -0.0403 -0.0047 -0.0904 -0.0962 0.0093 -0.0987 0.0642 -0.1393 -0.1205 -0.2057 0.0661 -0.0642 0.0669 0.0169 0.0257 0.0106 0.1774 0.1017 0.0665 0.1187 0.0195 -0.1084 0.2267 0.1195 0.0334 0.0674 0.078 0.0289 -0.2903 0.1719 -0.0821 -0.1099 0.1296 -0.1554 0.2119 -0.0282 -0.0165 -0.0518 -0.0078 -0.1242 0.0717 0.21 -0.0275 -0.1078 -0.007 0.0124 0.0203 0.191 -0.0805 0.0242 0.0862 -0.09 0.1699 -0.0343 -0.0373 -0.0541 0.1418 0.1925 0.0045 -0.0301 0.1008 -0.0771 0.1249 -0.0909 0.061 -0.0088 0.0398 0.0914 -0.001 0.0471 -0.0365 -0.0801 -0.1006 -0.0224 0.0269 0.0823 -0.0908 0.0113 -0.1296 -0.0105 0.0842 0.0221 -0.0516 -0.0251 0.0595 0.3073 -0.1195 0.1114 0.1322 0.0685 -0.0715 0.0128 0.1026 0.0999 -0.2241 0.1293 0.0612 -0.1205 -0.0969 0.1116 -0.0491 -0.1234 0.0963 -0.0417 -0.0228 -0.1276 -0.0748 0.1133 0.0353 0.1124 -0.0117 0.1095 -0.1823 0.1386 0.0563 0.2527 -0.0273 0.0251 0.0374 0.1719 -0.0726 0.0942 0.0382 0.0464 -0.0482 -0.1094 0.1236 -0.0642 -0.0444 0.0407 -0.1255 -0.034 0.0063 0.085 -0.241 0.0536 0.2737 -0.07 0.0901 0.0628 -0.0781 0.3771 0.007 -0.003 -0.1093 0.0917 -0.145 -0.2678 0.1119 0.0121 0.0194 0.0692 -0.0963 -0.0944 -0.024 0.057 -0.1252 0.0905 0.3746 0.0482 0.1437 0.0769 -0.1671 -0.0605 -0.0596 0.0824 -0.2028 0.0245 -0.0872 0.1174 -0.0142 0.144 -0.0318 -0.1941 0.062 0.0574 -0.0909 -0.1466 -0.0575 -0.0177 0.0614 -0.0501 0.1882 0.0865 -0.0754 0.1008 0.1133 0.0133 0.1348 -0.1011 0.0248 -0.033 -0.016 0.069 -0.1071 0.0014 0.1524 0.048 0.2389 -0.1006 -0.025 0.156 0.0157 0.0234 0.0787 0.0012 0.0687 0.0113 -0.0496
room.n 0.0551 0.0206 -0.0226 0.0291 -0.0538 0.0503 0.0799 -0.1773 0.0335 0.0641 0.0532 -0.0675 0.015 0.0144 -0.0442 0.0562 0.0974 -0.2351 -0.1652 -0.0988 -0.089 -0.1727 -0.0073 0.0001 -0.0721 0.0335 0.1366 0.0337 -0.0488 -0.1292 -0.026 0.0339 0.0604 0.0211 -0.0963 0.0615 0.0754 0.1649 -0.1264 0.1318 -0.0734 0.1192 0.0803 -0.0722 0.0037 -0.1703 0.0378 -0.1121 0.134 0.0044 0.0712 0.0352 -0.6473 -0.0723 0.058 -0.0251 0.1742 0.1623 -0.0359 -0.0558 0.0777 0.0332 -0.1809 -0.0387 -0.0253 0.1635 0.0594 0.0558 0.0898 -0.0189 -0.1212 0.0335 0.0294 0.0771 -0.1372 0.0576 -0.0211 -0.1243 -0.009 -0.0353 0.0125 -0.0194 -0.059 -0.1882 -0.1143 0.1357 0.1012 -0.0929 0.166 -0.0355 -0.0607 0.1074 0.0159 -0.0727 -0.1475 0.0723 -0.0377 -0.0384 0.0948 0.0602 -0.1897 -0.1445 -0.1144 0.0872 0.1509 0.1722 -0.1197 0.2334 -0.0103 -0.1298 -0.1113 0.1107 0.0619 0.001 -0.0593 0.0777 -0.0676 0.0914 0.0589 -0.3426 0.1465 0.0615 0.0466 0.0639 0.0237 0.2087 0.1237 -0.0356 -0.057 -0.0369 0.0302 -0.0089 0.0638 -0.189 -0.0865 0.0252 0.1303 0.0 -0.0132 -0.1192 -0.0239 0.0066 -0.0909 0.1833 0.0189 -0.0365 -0.0771 0.0926 -0.0321 0.0005 0.0027 -0.0882 0.0077 -0.0668 0.0642 0.0097 -0.0026 -0.1056 -0.1602 0.1474 0.0292 -0.082 -0.0341 -0.0828 0.0943 -0.069 0.0577 -0.0704 0.0401 -0.0304 -0.2218 0.0981 -0.0416 0.0411 0.098 -0.0236 0.2265 -0.1076 -0.0299 -0.031 0.1052 -0.164 -0.038 0.1185 -0.0424 -0.1287 -0.1338 -0.0547 -0.0771 -0.0849 -0.1211 0.0508 -0.0045 0.061 0.0885 0.1875 -0.0645 0.0886 0.1739 -0.0288 0.1276 0.0812 -0.0819 -0.0852 0.1165 0.0957 -0.0771 -0.2652 -0.0933 0.0147 -0.0106 0.1125 -0.0291 0.021 -0.0282 -0.1503 -0.1424 -0.0132 -0.0476 0.0391 0.0112 -0.1045 0.1787 -0.1012 0.083 -0.0654 0.0068 -0.0199 0.1172 0.0352 -0.1461 0.1522 0.3494 -0.0356 -0.0828 -0.1227 -0.1178 0.049 -0.2447 0.1028 -0.0456 0.0953 0.119 0.0015 -0.0662 -0.0117 0.0877 0.0732 -0.0743 0.3468 -0.0317 -0.0363 0.0762 -0.1178 -0.1179 0.0578 -0.1143 -0.0494 0.1018 0.0223 -0.0509 0.1065 0.0794 -0.1015 -0.3631 0.0221 -0.0266 -0.0522 -0.1523 -0.1286 -0.0641 -0.1373 0.0401 0.1122 -0.0763 0.0046 -0.0142 -0.1203 -0.0643 0.0418 -0.117 -0.0015 0.2056 -0.0893 0.1291 0.0034 -0.1417 0.0938 0.0966 0.0447 -0.0368 -0.0313 -0.0293 0.0988 -0.0025 0.0471 -0.0459 0.0532 -0.0244 0.097
woman.n 0.0751 -0.0591 -0.0102 -0.0049 -0.0223 0.1397 0.0197 0.1058 -0.0674 0.1333 0.0854 0.0622 0.125 0.0806 0.0037 0.0258 0.0756 0.0855 -0.0272 -0.0347 -0.1167 -0.0001 -0.1724 -0.0109 0.0163 -0.0114 -0.0355 0.1869 0.0463 -0.0207 0.0683 0.0323 0.0604 0.0179 -0.058 -0.0386 0.019 0.134 0.1246 0.0319 0.143 -0.0337 0.0651 -0.1368 -0.0605 -0.0523 0.0334 0.066 -0.0084 -0.0799 0.1318 -0.0672 -0.6142 0.0043 0.0147 -0.0663 0.0392 0.0468 0.0902 -0.0204 -0.0056 -0.0326 0.0535 -0.0825 -0.0525 -0.0249 0.1021 0.1045 0.0181 -0.0567 -0.0639 -0.1349 -0.0097 0.1113 -0.1544 0.0839 0.0104 -0.0572 0.0046 0.1834 0.0106 0.163 0.0816 -0.2479 0.0098 0.0272 -0.0495 -0.0043 0.1321 -0.0907 -0.0681 -0.0926 0.1076 0.0022 -0.0318 -0.077 0.0128 0.0526 -0.1223 0.1133 -0.1384 -0.0106 -0.125 -0.1021 -0.1162 0.0109 0.0308 0.0206 -0.0759 0.0621 -0.0193 0.1633 0.0945 -0.0095 -0.0603 -0.1916 -0.2233 -0.1966 -0.1125 -0.3912 0.0449 0.1398 0.0289 -0.1107 0.1183 0.1737 -0.0559 0.0239 -0.0282 -0.0884 -0.0833 0.1785 -0.066 -0.0606 -0.1181 0.0604 -0.0204 0.2119 0.0242 -0.0275 -0.0519 -0.0335 -0.016 0.1765 0.0002 0.0084 -0.0639 0.0242 0.0594 -0.0737 -0.0624 -0.1527 -0.0829 -0.1557 -0.0896 0.0532 0.0913 0.1233 0.1361 0.0416 -0.0709 0.0409 0.1546 -0.0373 -0.0622 0.09 -0.0105 0.0785 -0.0086 -0.0924 -0.1008 -0.0262 -0.0619 0.0617 0.3002 -0.0755 0.2803 0.0725 -0.1268 0.0751 0.0367 0.0746 0.0353 0.088 -0.0582 -0.0174 0.0031 -0.0763 -0.2563 -0.1089 0.1132 -0.1107 -0.0476 0.1569 -0.0169 0.036 -0.1085 -0.0253 0.1201 0.0073 -0.0885 0.0263 -0.0249 -0.0753 0.0848 0.0618 0.0518 -0.353 0.02 -0.011 0.0803 -0.0154 0.1256 -0.1499 0.0418 0.0661 0.0201 -0.0291 -0.0517 0.0776 -0.0725 0.0583 -0.0093 0.0188 -0.0436 -0.0617 0.1121 0.0907 -0.0658 -0.0748 -0.0028 0.0444 0.3881 -0.0743 -0.02 -0.0601 -0.0127 0.0657 -0.2553 -0.037 -0.0932 0.0134 0.1408 0.0141 0.024 0.1083 -0.0453 -0.0141 -0.1891 0.3559 0.166 0.0185 0.0124 0.0187 0.1751 0.0239 -0.0063 0.0576 0.0817 -0.244 -0.0072 0.1018 0.0592 -0.0302 -0.5859 -0.0724 -0.0497 0.0955 -0.1939 -0.0197 -0.072 0.0585 0.0284 0.1563 0.0894 0.1372 0.072 -0.0935 -0.0469 0.0693 0.014 0.1558 0.0141 0.0389 -0.005 0.1061 -0.0338 -0.2055 -0.0338 0.0526 0.0342 -0.1571 -0.0632 -0.0085 0.2689 0.1425 -0.0335 0.0501 0.133 0.0352
box.n -0.0501 0.1769 -0.0504 0.1347 -0.0947 -0.024 0.0267 -0.0115 0.0969 0.09 0.0936 -0.1964 0.0867 0.1146 0.0449 -0.0742 -0.1141 -0.0487 -0.12 0.0504 -0.0985 -0.2055 0.0529 -0.0158 -0.0449 -0.0685 -0.0025 -0.0297 -0.1286 0.0197 0.0306 0.0533 -0.0395 0.0124 -0.0434 -0.0725 0.1933 0.0555 -0.2066 -0.0362 -0.0447 0.0945 -0.0958 0.1685 0.0523 0.035 -0.1563 -0.1035 -0.0537 -0.0481 -0.0546 -0.0253 -0.6491 -0.1227 0.1641 -0.0898 0.013 -0.05 -0.1369 0.0091 -0.0298 0.0491 -0.0824 -0.0 -0.0994 0.1479 -0.2212 -0.2854 -0.0411 0.0179 0.0423 -0.0356 -0.0947 0.0437 -0.0662 0.0697 -0.0579 0.0547 0.1015 -0.176 -0.0066 0.1282 -0.0081 -0.2447 0.3069 0.0783 0.0156 0.0672 0.1 0.1836 0.0521 0.0972 0.1727 -0.1052 0.0582 -0.1014 -0.0727 -0.0956 0.0465 0.294 -0.2252 -0.0449 0.2048 -0.0807 0.1052 0.1032 -0.0443 0.0385 0.1102 0.1377 -0.0705 0.0458 0.2262 -0.039 -0.055 0.0453 0.0117 0.1116 0.0748 -0.3849 -0.0534 -0.0506 -0.0728 -0.0267 -0.0114 0.1993 -0.0785 -0.0577 -0.0501 -0.1129 0.1661 -0.0544 -0.0192 0.0365 0.0062 -0.0344 0.0234 -0.04 -0.0119 -0.0014 0.0444 0.0643 -0.0769 0.2894 0.0644 0.0943 0.2007 0.0828 0.0561 -0.1033 -0.0661 -0.0829 -0.0575 -0.0828 0.0409 -0.0475 -0.2053 -0.0794 0.055 -0.0075 -0.064 -0.2305 0.0466 -0.0661 -0.0692 -0.0155 0.1032 0.0429 -0.0541 0.1125 -0.0834 -0.0257 -0.1698 0.0609 0.1778 -0.0984 0.2982 -0.0587 0.0946 -0.2811 0.0686 -0.0817 0.0314 0.005 0.1506 -0.2811 0.082 -0.1074 -0.0436 0.0233 -0.0371 0.0245 -0.0108 0.1011 -0.1331 0.1498 0.0822 0.2142 0.1082 -0.0397 -0.0977 0.1714 0.0522 0.0051 -0.1282 -0.0409 -0.0072 -0.1141 -0.0969 -0.063 0.0349 0.0539 -0.135 -0.2061 0.1166 -0.0387 -0.1309 -0.0228 -0.1381 -0.0002 -0.0187 -0.0139 0.0944 -0.1268 0.0003 -0.2045 -0.0298 0.2075 0.0016 -0.0902 -0.0032 0.1354 0.3317 0.0447 -0.1225 -0.0893 -0.025 -0.0329 -0.3082 0.0448 -0.005 -0.2186 -0.1291 -0.0274 -0.1316 0.1062 -0.0241 -0.0518 0.0597 0.4101 0.0706 0.0984 0.0419 -0.0334 -0.0875 0.0638 0.0025 -0.1442 0.137 0.0989 0.074 0.1223 0.0029 0.064 -0.2512 -0.027 -0.0446 -0.158 -0.1529 -0.0912 -0.066 0.1532 0.0242 -0.0125 0.0654 0.0908 0.0167 0.0609 0.0923 0.0644 -0.0235 -0.0422 0.2047 -0.1258 0.0578 0.0718 0.0023 -0.009 -0.0143 0.0162 -0.0064 -0.0623 -0.0371 0.0044 0.2095 0.0775 -0.1604 0.0382 0.2473 0.018
log.n -0.0481 0.0621 0.0479 -0.0725 -0.1922 -0.0237 -0.0888 -0.2226 -0.1255 -0.1234 0.1454 0.0595 -0.0207 -0.0763 -0.0093 0.0376 -0.1333 0.2069 -0.1096 0.0997 -0.1877 -0.2003 0.004 0.1393 -0.2516 -0.2708 0.0114 -0.2762 0.068 -0.1276 -0.0596 -0.0042 0.1598 0.1548 -0.086 0.1245 0.0548 -0.0302 0.0809 0.0251 -0.0706 0.104 -0.0425 0.1152 -0.0402 -0.0337 0.1545 0.0345 -0.0766 0.0226 -0.0229 0.06 -0.7486 0.1143 0.0194 -0.0827 0.1222 -0.2841 -0.1035 0.0634 -0.125 -0.0164 0.0153 0.1368 -0.0396 0.049 0.0855 -0.1029 0.047 -0.0164 -0.2541 -0.0259 0.0063 0.3807 0.0884 0.1026 -0.0922 0.0583 0.1551 -0.1755 -0.0014 -0.2341 -0.0507 -0.3738 -0.0432 0.0037 0.1365 0.1047 -0.1656 -0.1822 0.1208 0.0352 -0.2243 -0.0325 0.0654 -0.2193 -0.1369 -0.0639 0.0108 -0.1157 -0.108 0.0967 0.108 -0.0068 0.1092 -0.0674 0.1985 -0.0903 0.0169 0.1266 -0.2122 -0.0996 0.1667 0.0442 -0.1603 0.0632 0.0801 0.1482 -0.3116 -0.7534 0.2413 0.0273 -0.0239 0.0974 -0.3213 0.0499 0.123 0.1213 -0.0338 -0.0783 -0.0461 0.0179 -0.0613 0.055 -0.0969 -0.0023 0.045 0.1226 0.0315 0.0164 -0.0957 0.2746 -0.0375 0.3167 0.0229 0.0017 0.1383 0.0529 0.1472 0.15 0.0584 0.0292 0.0638 0.1266 -0.0651 -0.0209 0.0437 -0.0204 0.0128 0.0566 0.0196 -0.2378 -0.073 0.0203 -0.0485 -0.0015 0.147 -0.006 0.1043 0.1844 0.2986 0.1853 0.0671 -0.0598 0.1497 -0.1869 0.2452 -0.1018 0.075 -0.0737 0.1342 -0.1147 0.0894 -0.0981 0.1008 -0.5637 -0.0342 0.1349 0.0402 0.0509 0.1176 0.1324 0.0531 -0.2006 -0.0348 0.0994 -0.1247 -0.0959 -0.0916 -0.074 0.0659 0.0663 -0.129 0.1957 -0.0255 0.1523 -0.033 -0.1267 0.0258 0.1242 0.0023 0.1845 -0.1611 0.0603 -0.1009 0.0356 -0.0366 0.0105 -0.1146 0.0773 -0.1214 0.2187 -0.0976 -0.0011 0.0046 -0.1749 -0.1225 -0.1221 0.0837 -0.2836 -0.1156 -0.0736 0.3828 -0.1162 0.0306 -0.0626 -0.0545 0.0435 -0.1927 0.2196 -0.0659 0.0185 0.2434 0.1191 -0.0188 -0.0342 0.0147 -0.0398 0.0948 0.3223 0.1548 -0.0447 0.137 0.0903 0.0504 -0.1528 -0.0428 -0.0701 0.057 0.1146 0.197 -0.0597 -0.028 -0.0807 0.0464 -0.0007 0.187 -0.074 -0.1824 -0.2367 -0.0701 0.109 0.0543 -0.0108 0.012 -0.0659 0.0435 0.0301 -0.0862 0.0467 -0.0497 -0.0256 0.1205 -0.0815 -0.0906 0.1682 -0.0637 0.0363 0.055 0.0332 0.013 0.1502 -0.0279 0.1147 -0.2407 0.036 0.0439 -0.1106 0.0127 -0.0968
newspaper.n -0.0934 -0.1406 0.0412 -0.1097 -0.0056 0.001 0.0735 0.1402 -0.1107 -0.0569 -0.051 -0.0011 -0.0969 -0.0783 -0.0589 -0.041 0.1032 0.1336 -0.0516 -0.0356 -0.159 -0.0445 0.1039 0.0308 0.1042 -0.0659 0.0195 0.0954 0.0548 0.0692 0.0365 -0.1204 0.1062 -0.0733 -0.1185 0.0449 -0.047 0.0033 0.0732 -0.0796 -0.0076 0.1285 -0.262 0.0184 0.1994 0.0557 0.0796 0.0742 -0.1908 0.022 0.0966 -0.006 -0.6327 -0.1763 -0.0912 -0.1277 0.0767 -0.0508 -0.0081 0.0076 0.1142 -0.0957 0.0558 0.0196 0.2212 -0.0021 0.0821 0.1494 -0.0147 0.2038 -0.0715 0.0084 -0.0282 -0.0248 -0.0291 0.2416 -0.0913 -0.0924 -0.0204 -0.1242 0.0102 0.1039 0.2062 -0.1997 -0.0568 -0.0716 0.0395 0.0482 0.2273 0.0614 -0.0585 0.0345 0.0056 0.0279 -0.1057 -0.0552 -0.1281 0.0725 -0.007 -0.1648 -0.2302 0.1672 0.0554 0.1297 -0.0027 0.1809 -0.1074 0.0843 0.0202 -0.0378 -0.1024 0.0235 -0.0678 -0.0361 -0.0966 -0.2076 -0.1267 0.0111 0.1875 -0.3648 0.1515 0.1494 -0.2369 -0.0716 -0.108 0.2602 0.055 -0.0449 -0.0352 -0.1162 0.1917 0.0991 0.1168 0.1437 -0.0759 0.0476 -0.1967 0.0129 -0.0493 0.0283 -0.0694 -0.1405 -0.0472 0.2341 0.1023 0.2035 0.1068 -0.0394 0.0005 -0.0514 -0.121 -0.0052 0.0005 -0.0754 -0.1422 0.0175 0.1428 0.0342 0.162 -0.0619 0.0671 -0.1786 0.0831 -0.1501 0.0698 0.0868 0.1077 -0.0721 -0.1397 0.0859 -0.0392 -0.0383 0.0819 -0.046 0.108 -0.0072 0.2663 -0.2993 -0.0258 0.041 -0.1138 0.0334 0.16 -0.0723 0.0292 -0.0094 -0.073 -0.0578 -0.1692 0.1128 0.0291 0.0949 -0.0707 -0.0021 -0.0678 -0.1827 0.0231 -0.2099 0.0872 -0.0746 -0.0279 0.0454 -0.0749 -0.076 0.0571 0.1204 0.0971 -0.0782 0.1125 -0.0644 0.2007 0.0506 0.0235 -0.1005 0.0794 -0.0677 -0.0498 -0.1384 -0.2335 -0.0732 0.198 -0.0597 0.0516 -0.1152 -0.0458 -0.1109 0.0311 0.0513 -0.0204 -0.0804 -0.1107 0.0642 0.3942 0.076 -0.0136 -0.1452 -0.1303 0.2227 -0.2602 0.0297 0.0599 -0.1554 0.0001 0.0073 0.0147 0.0923 0.0553 -0.0121 -0.0042 0.392 -0.1814 -0.0132 -0.0994 -0.0304 -0.0026 0.0658 -0.0302 0.064 -0.126 -0.1657 0.1194 0.0829 0.1074 0.0607 -0.4891 0.1325 0.0316 0.1408 -0.1519 -0.0324 -0.2598 -0.0015 0.0199 -0.0088 -0.0241 -0.0035 0.0768 -0.0055 -0.0052 -0.0565 0.1642 0.0877 0.0325 0.0365 -0.1455 -0.1303 -0.1322 -0.0666 0.1645 -0.0582 -0.0381 -0.0497 -0.1116 -0.0824 -0.0731 0.0764 -0.0473 0.0099 0.1459 -0.1012
manner.n 0.0241 -0.1081 0.0188 -0.0564 -0.0138 -0.0815 0.0208 -0.0896 0.0537 0.1111 -0.0206 0.0188 0.0029 0.0727 0.0584 -0.0466 0.0961 0.0002 0.0566 0.1658 0.0384 0.151 0.1132 0.2454 -0.0902 0.0195 0.0738 -0.0905 -0.0067 -0.0139 -0.036 0.1327 0.1898 -0.0714 0.0403 -0.0315 0.0035 -0.0639 0.0729 0.0055 -0.0443 0.0275 0.1028 0.1918 -0.1096 -0.2668 -0.053 0.0943 0.0181 0.0306 -0.0577 -0.0205 -0.5618 -0.0249 0.0507 0.0543 -0.0649 -0.1651 -0.1073 0.0139 -0.0836 0.0278 0.0645 -0.0752 -0.0906 0.1132 0.004 -0.0159 0.0637 0.1064 -0.0554 -0.021 -0.0506 -0.0076 -0.0364 0.0245 -0.0159 0.0757 -0.0016 0.0851 0.0261 -0.0941 0.0122 -0.2396 0.0509 0.0213 0.0701 0.0349 0.2253 0.0882 -0.0718 -0.031 0.0933 0.2349 -0.0916 0.0068 -0.0006 -0.0524 -0.1089 0.0142 -0.2263 -0.0413 -0.0257 -0.0096 0.2023 0.1298 -0.2356 0.0641 0.1464 -0.1067 0.0396 -0.1066 -0.0158 0.0227 0.0071 -0.0653 0.0638 -0.0297 -0.0633 -0.5417 -0.0571 -0.0358 -0.0088 0.0562 0.1312 0.2336 -0.0331 0.1218 -0.0909 0.12 -0.0507 0.0585 0.0227 -0.081 0.0087 0.1352 0.0214 0.0433 0.0729 -0.1972 -0.057 0.0437 -0.0929 0.3259 -0.0792 -0.0416 0.0222 0.0067 -0.0748 -0.0427 -0.0353 -0.044 -0.0824 -0.0699 -0.0187 0.1279 0.0519 -0.0523 -0.1075 -0.0268 0.2718 0.0332 0.0176 0.0546 -0.319 0.0266 0.1278 0.1093 -0.0332 -0.02 -0.3543 -0.0055 0.0677 -0.0751 0.3118 0.1247 0.2119 -0.3553 -0.0284 0.0013 0.0891 0.0851 0.0175 0.022 -0.0206 0.0268 -0.0509 -0.0295 -0.0273 -0.0779 0.0551 0.0066 -0.0715 0.0431 -0.125 -0.054 0.0188 0.0639 0.3806 -0.069 0.0508 0.0862 -0.1281 -0.0233 0.0961 -0.0231 0.2683 -0.1243 0.1192 0.0304 -0.0731 0.0584 0.02 0.0665 -0.0122 0.0446 -0.0558 0.0108 -0.2825 0.0089 -0.1261 -0.0051 0.2092 -0.0837 -0.0091 -0.128 0.0462 0.0595 -0.1132 -0.2286 -0.2136 0.1455 0.4334 -0.074 0.0051 0.1567 0.0543 -0.0357 -0.3222 0.0033 0.0727 -0.0484 0.0157 -0.0241 0.0783 -0.0731 0.0165 0.0821 -0.0143 0.3437 0.0651 -0.0945 -0.0043 -0.0361 -0.0865 -0.1097 -0.0355 0.0332 0.0428 -0.0842 -0.0629 -0.0755 -0.0256 -0.0424 -0.464 0.0257 0.0199 -0.0527 -0.1579 0.1134 -0.0868 -0.0706 0.046 -0.0848 -0.0449 -0.0196 -0.0345 -0.0601 0.0588 -0.11 -0.1215 0.0483 0.0018 -0.0045 0.0359 0.0129 -0.1371 -0.275 -0.0205 -0.0118 -0.1137 0.0448 0.1111 -0.1187 -0.1014 -0.1473 -0.1685 0.1785 -0.021 -0.0315
vehicle.n -0.032 0.0483 -0.0307 0.0201 -0.0257 -0.0812 0.0128 0.0734 -0.1091 0.0005 0.0378 0.0727 0.1792 0.0901 -0.0082 0.0376 0.0768 -0.0022 -0.0323 -0.0477 -0.1829 0.0268 0.2355 0.2056 0.0381 -0.0219 -0.0892 -0.0108 0.0297 -0.1606 -0.0553 -0.0058 -0.0639 -0.1647 0.0258 0.0078 0.0231 0.0515 0.0898 0.0559 -0.0168 0.0095 0.0016 0.0281 -0.0496 -0.0036 0.0036 -0.1745 0.1064 0.002 0.1309 0.0929 -0.6493 0.1725 -0.029 0.0324 -0.0988 -0.1473 -0.0703 0.0183 0.0358 -0.043 0.0621 0.061 -0.034 0.1097 0.1423 0.229 0.2463 0.0514 0.0263 0.072 0.0403 0.0537 -0.0181 -0.0533 -0.0351 0.317 0.0414 0.0726 0.0102 0.1053 0.0602 -0.2604 -0.122 -0.0521 0.152 -0.0676 0.2401 0.1233 0.0135 -0.01 -0.0006 -0.0747 -0.1037 -0.148 0.025 -0.0872 -0.0746 0.0987 -0.1819 0.0363 -0.0916 0.0277 0.1605 0.0155 -0.0383 -0.0063 -0.0904 0.1083 -0.0602 0.0558 0.1961 0.0474 -0.0333 -0.0378 -0.0257 0.0802 -0.1296 -0.4304 -0.0602 0.0816 -0.0563 0.0498 0.1218 0.2403 -0.1992 -0.0795 -0.0408 0.153 0.0283 -0.0591 0.1134 -0.0977 0.0169 0.0611 0.0664 0.0097 -0.1518 0.0038 0.0141 0.1054 -0.017 0.1558 -0.2689 -0.0839 -0.099 0.0794 0.1305 0.1835 0.012 0.0575 -0.0867 -0.0483 -0.0338 -0.0562 -0.0381 -0.1441 0.0103 -0.1619 -0.0831 -0.0089 -0.0885 -0.1965 0.0109 0.2269 0.0619 0.0168 -0.0689 0.0263 -0.1972 -0.0025 0.0463 0.0876 0.0299 -0.0404 0.2997 -0.095 0.0722 -0.1428 0.0186 -0.1097 -0.0895 -0.0533 -0.0223 -0.1127 -0.0628 0.1119 -0.1627 0.0608 0.0715 -0.0021 -0.0003 0.2069 -0.1462 0.0991 -0.0319 -0.0168 0.1313 -0.1757 -0.034 0.0111 -0.06 0.0473 0.0242 -0.0895 0.0749 -0.0851 0.0911 0.0927 0.1095 0.0757 0.1001 -0.0258 -0.0785 0.1432 -0.1237 0.2607 -0.1706 0.0035 -0.0478 0.1023 -0.0637 -0.0223 -0.0145 -0.2562 -0.0093 0.2148 0.0429 -0.0933 -0.0697 0.1099 0.3599 -0.0942 -0.0321 -0.169 -0.1092 -0.0101 -0.2665 0.0801 0.0482 0.0412 -0.1466 -0.0819 0.0405 -0.127 0.1033 -0.015 -0.0782 0.4119 -0.0694 -0.1142 -0.043 0.0642 -0.1564 -0.1723 -0.0152 0.0314 -0.0663 0.0039 0.0705 0.1608 0.1668 0.0623 -0.3594 0.017 -0.1539 0.1329 -0.1484 0.0211 -0.0068 0.16 -0.1129 0.0356 0.0298 -0.137 -0.063 -0.1614 -0.0872 0.0464 -0.0329 0.0218 0.1319 0.0899 -0.0494 -0.0042 -0.042 0.0362 -0.0384 -0.1346 0.0361 0.0298 0.0326 -0.1469 0.0344 0.1146 0.0603 0.0351 0.0636 -0.0015
street.n -0.1095 -0.1219 -0.1722 -0.1466 0.0217 -0.0091 0.1121 -0.1012 -0.1604 0.0066 -0.1139 -0.0515 0.0539 0.1296 0.2207 -0.104 0.0281 0.0471 -0.0258 -0.0426 -0.1105 -0.1437 -0.0514 0.1704 0.0242 -0.1183 0.0515 0.1344 -0.0618 -0.1831 0.0616 -0.0995 0.0223 -0.0716 0.0258 -0.0709 -0.0185 0.0683 -0.0129 0.1178 0.0639 0.0072 0.0398 -0.2477 -0.1089 -0.1169 0.2689 -0.0245 -0.009 0.0246 0.1214 -0.1074 -0.6285 0.1352 0.1619 0.1189 0.2551 -0.0671 0.0529 -0.0962 0.0079 -0.0571 0.0386 0.1346 0.1309 0.0078 0.0449 0.0915 0.1286 -0.023 -0.064 0.0221 -0.0153 -0.0273 -0.0364 0.0914 -0.0872 0.05 -0.0029 -0.1338 0.0588 0.0626 0.041 -0.1922 -0.0343 -0.0201 -0.0178 -0.1412 0.2417 0.0327 0.0196 0.0521 0.0633 -0.0356 0.0592 -0.173 -0.0485 0.1147 0.0411 0.183 -0.1726 0.1136 -0.0919 0.0009 0.1077 0.0825 -0.0157 0.0476 0.0177 -0.1211 -0.0141 0.2565 0.0598 -0.1569 0.0921 -0.0148 -0.0038 -0.0417 -0.1316 -0.3629 0.0361 0.1294 -0.023 0.0085 -0.0392 0.2393 -0.1031 0.0696 -0.0473 0.1228 -0.0715 0.1216 -0.0176 0.0142 0.0732 0.0402 -0.025 0.0307 0.0098 0.0363 0.0857 -0.0315 -0.0596 0.1394 -0.0146 -0.0954 -0.1251 0.003 -0.096 0.0121 -0.0004 0.0277 -0.0312 0.0812 -0.0027 -0.0204 0.055 -0.0174 -0.0867 0.0018 0.0588 -0.0479 -0.0171 -0.0966 0.1096 -0.1114 0.0567 -0.1084 0.007 -0.0989 -0.1643 -0.0219 0.126 0.116 0.2445 -0.0765 0.2937 -0.1248 0.0455 -0.0704 -0.0902 0.0937 0.1856 0.1588 0.0098 -0.1106 -0.1185 -0.0934 -0.1309 0.1009 0.084 -0.0247 0.1771 -0.0154 -0.1382 -0.0138 0.0941 0.1512 0.0848 -0.1077 -0.0849 0.053 0.036 0.155 0.2819 -0.0428 -0.0439 -0.0142 -0.0446 -0.0052 0.1196 0.0492 -0.0171 0.1245 0.0356 -0.1214 -0.1983 0.037 -0.0327 -0.1079 0.0186 -0.2836 -0.0136 -0.2175 -0.1163 -0.0331 -0.0175 0.0746 -0.1279 0.0785 -0.0529 -0.044 0.331 0.0068 0.0013 -0.1195 -0.0492 0.0219 -0.2752 0.1197 -0.0954 -0.0552 -0.1938 -0.0689 0.0129 0.0747 -0.0502 -0.0612 -0.1139 0.3745 -0.0413 0.0088 0.2343 -0.1749 0.0138 0.0635 0.0101 0.0758 0.0182 -0.042 -0.0847 -0.1014 0.1316 -0.0977 -0.3406 0.0685 0.0017 0.0548 -0.1702 0.0401 0.1036 0.1813 -0.0981 -0.1744 0.0147 0.1113 -0.0512 0.0022 -0.0412 -0.172 -0.0521 0.109 0.0188 0.195 0.1265 -0.0346 -0.173 -0.1337 0.0366 -0.0847 0.0036 -0.1494 -0.1702 -0.1349 0.0559 0.1622 -0.1017 -0.0346 -0.0368 0.0875
girl.n -0.0433 -0.0663 -0.0548 -0.1869 -0.0388 0.0 0.085 0.1411 -0.0229 0.178 0.0054 -0.1317 -0.0611 0.098 -0.0549 0.0365 -0.01 -0.0408 0.0452 -0.0788 -0.1877 -0.0357 -0.1747 -0.0315 0.0042 0.0266 0.0894 0.2224 -0.0268 -0.09 0.0853 0.0772 0.1414 -0.0096 -0.0024 0.0145 -0.0126 0.1053 0.044 -0.0322 0.1636 0.0276 0.0318 -0.1092 -0.0984 -0.0946 -0.0356 -0.0602 0.1555 -0.1059 0.0119 -0.2029 -0.6737 0.0232 0.102 0.0707 -0.0444 0.1807 0.1364 0.0024 0.1434 -0.1235 -0.0337 0.0372 -0.0287 -0.1319 0.0211 0.0945 0.0659 -0.0177 -0.0117 -0.0308 0.0621 0.1285 0.0267 0.1219 0.0384 0.0013 -0.0299 0.1292 0.0254 0.0736 0.0364 -0.1984 -0.0238 0.0456 -0.0916 -0.1248 0.1913 -0.0198 -0.086 -0.0506 0.0941 -0.0305 -0.0143 -0.0014 0.1274 0.1553 -0.0991 -0.0545 -0.1754 0.1022 -0.0111 0.0915 -0.1015 0.1085 -0.0108 0.0064 -0.14 0.0176 0.0084 0.2421 0.1093 -0.0734 -0.0738 -0.0712 -0.2346 -0.1078 -0.2209 -0.394 -0.0472 0.2665 0.0793 -0.1315 0.1085 0.2006 -0.0341 0.0171 -0.0397 -0.0759 -0.1259 0.1391 -0.0746 -0.1183 -0.0959 0.0884 -0.0507 0.144 0.015 -0.0078 0.0276 -0.1082 0.0531 0.2061 0.1424 0.0497 -0.001 -0.053 -0.11 0.0598 -0.0759 -0.163 0.0126 0.0486 -0.0194 0.0347 0.0651 -0.0061 -0.0638 0.0561 -0.0105 -0.209 0.1255 -0.0371 -0.0328 0.1253 0.0801 0.1146 -0.0926 -0.1125 -0.0666 -0.0711 -0.0742 0.046 0.2898 -0.0492 0.2787 0.0163 0.0576 0.0431 0.0682 0.1024 0.0446 -0.095 0.0015 -0.0429 0.0584 -0.048 -0.2566 0.1777 0.028 0.0093 -0.1612 0.0664 0.0656 -0.0146 -0.1557 0.034 0.0856 0.039 -0.0858 -0.0234 -0.0677 -0.109 0.1354 0.175 -0.0521 -0.1907 0.0382 -0.1735 0.0742 0.032 -0.0891 0.0199 0.0738 0.1284 -0.065 -0.0586 -0.0223 0.073 -0.0052 -0.1892 -0.077 0.0296 0.1187 -0.0349 0.0678 -0.0379 -0.0197 -0.1091 0.0024 0.0637 0.3902 -0.0512 -0.1395 -0.1446 -0.005 -0.0045 -0.3022 -0.0742 -0.0983 -0.0116 0.0377 0.0521 -0.053 0.0064 -0.1263 0.0489 -0.206 0.3721 0.0979 0.1516 0.0329 -0.0798 0.0653 -0.0776 -0.0232 0.1203 -0.0063 0.0178 -0.0503 0.0706 0.0039 -0.1207 -0.5103 0.0431 0.0359 0.0075 -0.154 -0.0511 0.033 -0.0211 0.0064 0.209 -0.0419 0.0789 0.0834 -0.0625 0.0031 0.2092 0.01 0.0359 -0.0018 0.0379 0.0986 -0.0543 -0.0308 -0.1689 -0.0437 0.0245 0.0314 -0.014 -0.1391 0.0201 0.3278 0.0977 0.039 0.0326 0.2213 0.0096
guy.n -0.0697 -0.0505 -0.1169 -0.0063 0.0507 -0.007 -0.0658 0.0073 -0.0336 0.1183 -0.035 -0.0024 0.0338 0.0222 -0.0453 -0.0256 0.0537 0.0025 0.0172 -0.0121 -0.1254 -0.0295 -0.0455 -0.0496 0.0513 0.0185 0.1075 0.1557 -0.0676 -0.1045 0.1102 -0.125 0.0028 0.125 0.1783 0.1594 -0.0892 0.1304 -0.0255 -0.0285 0.1676 0.0363 0.0287 -0.1584 -0.0619 -0.2116 0.0003 0.0396 0.039 -0.0862 0.2288 -0.1418 -0.624 0.1315 0.1685 0.1056 0.0259 -0.0201 0.0711 -0.0783 0.0492 -0.0622 0.0207 0.0818 -0.0308 0.008 -0.1136 0.022 -0.0327 -0.1716 -0.0257 0.1112 -0.0272 0.1144 -0.0105 -0.0539 0.087 -0.151 0.0186 0.0676 0.0161 -0.0183 0.0021 -0.2703 -0.0855 -0.0293 0.0114 -0.0604 0.0968 -0.049 -0.0142 -0.0021 0.1256 -0.003 0.1397 -0.0769 0.0095 0.1608 0.0079 -0.0199 -0.1519 0.0569 -0.0054 -0.0334 -0.0508 -0.1419 -0.0149 -0.0514 0.0013 0.1907 -0.0099 0.1694 0.1206 0.0955 -0.1189 -0.0932 -0.02 0.1132 0.1119 -0.358 -0.0047 0.2159 -0.01 -0.1635 0.0763 0.162 0.0473 -0.0288 -0.0032 0.0193 0.0092 0.1059 -0.1889 0.0782 -0.1739 0.0265 0.0493 -0.0939 0.0521 -0.1726 -0.1791 0.0004 0.1019 0.3605 0.035 -0.0872 0.1936 -0.0857 -0.0934 0.0551 -0.0242 -0.0438 -0.0208 0.0618 -0.0492 -0.0119 0.069 -0.0344 0.0061 -0.0774 -0.081 -0.059 0.0131 0.1445 -0.1058 0.0132 0.1365 0.0079 0.1062 0.0076 -0.0636 -0.0955 -0.0295 -0.1179 0.2303 0.0219 0.2219 0.2138 0.1999 0.0245 0.0718 0.0633 -0.0048 -0.027 0.0973 -0.0411 -0.1462 -0.1163 -0.1843 0.0031 0.0581 0.0793 -0.0436 0.075 0.0614 -0.0183 -0.1552 0.0928 0.1956 -0.032 -0.0385 -0.1214 -0.0205 -0.036 0.1238 -0.071 -0.0048 -0.217 -0.0055 0.0311 0.0454 0.1492 0.0005 -0.1435 0.1081 -0.0845 -0.085 0.115 -0.1629 0.0916 0.1844 -0.0815 -0.0318 0.0683 0.0551 -0.1031 0.0113 0.0376 -0.1011 -0.1788 -0.0344 0.0803 0.3446 -0.0724 0.0715 -0.1565 0.0624 0.042 -0.2502 -0.036 -0.0451 -0.0198 0.0007 0.0223 -0.1964 -0.0411 -0.0199 -0.0185 -0.0315 0.2831 0.0023 -0.0368 0.0919 -0.0149 0.0135 0.0342 -0.07 0.078 -0.0794 -0.0347 -0.0737 0.0715 0.0608 0.0298 -0.5172 0.1031 -0.0463 -0.0014 -0.2399 -0.001 -0.0044 0.1515 -0.0255 -0.0463 -0.1356 0.1335 0.0078 -0.0801 -0.0002 0.0517 0.0044 0.0614 -0.0189 0.0498 0.0961 -0.0377 -0.0524 -0.2054 -0.059 -0.02 0.0068 -0.2155 -0.0146 0.0982 0.1923 -0.0155 -0.0555 0.0794 -0.0229 0.0536
river.n -0.1257 -0.0171 0.1077 -0.0356 -0.0785 -0.1577 0.1023 -0.0253 -0.1081 -0.0277 -0.1311 0.0997 -0.1744 -0.0416 -0.0478 0.0466 0.0998 0.0622 -0.0085 -0.2337 -0.1589 -0.1671 0.1444 0.1642 -0.0257 -0.1755 -0.1291 0.0698 0.0623 -0.205 0.1212 -0.0405 -0.037 0.0234 -0.032 0.0565 -0.1117 0.0576 -0.0304 -0.0599 0.0664 -0.0765 -0.0074 0.1011 0.0067 0.0597 0.0984 -0.0905 -0.0438 0.0969 0.0166 -0.0941 -0.6506 0.0021 0.1114 -0.0406 -0.0671 0.1627 -0.0575 0.0307 -0.0329 0.0564 -0.1141 0.0077 0.0237 -0.0567 -0.0389 0.0526 0.0717 0.0973 0.1072 -0.0479 0.0295 -0.0295 -0.078 -0.1051 0.0698 -0.129 0.0209 0.0043 -0.0365 -0.1218 0.0354 -0.2237 0.0002 -0.1718 -0.0447 0.1017 0.2057 0.1343 0.0506 0.0319 0.0308 -0.1154 0.0249 0.0848 0.0103 -0.052 -0.0696 0.0415 -0.1944 0.1717 0.1599 -0.0284 0.1236 0.0828 -0.0835 0.1688 0.0491 -0.1176 -0.0564 0.2351 0.1106 -0.1378 -0.064 0.0468 0.0099 -0.034 0.0246 -0.3316 -0.0089 -0.0863 0.0603 -0.0834 -0.0433 0.2759 -0.0279 -0.0243 -0.1217 0.1991 -0.2089 0.02 0.2687 0.0673 0.0607 0.09 -0.0097 -0.0011 -0.041 -0.0919 0.1683 -0.0118 0.0698 0.2376 -0.0307 -0.1615 -0.0284 -0.0533 0.0392 -0.0582 -0.1342 0.0364 0.0756 0.1124 -0.043 0.0603 0.0291 0.0453 -0.064 0.0433 0.09 -0.1683 0.0721 -0.0775 0.1594 0.0731 0.0492 -0.1259 -0.1101 0.061 -0.0781 -0.0643 -0.0236 0.1282 0.1884 -0.0275 0.2839 -0.1634 -0.053 0.1992 0.075 0.0568 0.0727 -0.096 0.0309 -0.0767 0.1368 0.0826 -0.184 0.1057 -0.0583 0.0457 0.293 0.0406 0.0076 -0.0156 -0.176 0.1699 -0.0697 -0.021 -0.0478 -0.0381 0.257 -0.0379 -0.0175 0.0553 0.0382 -0.0015 0.0017 -0.0632 0.0732 -0.092 -0.0932 0.0103 -0.0881 0.2465 -0.1068 0.0204 -0.0558 -0.0891 -0.0083 0.1045 0.0356 0.1204 -0.0807 -0.0659 0.099 0.0466 -0.1785 0.0596 -0.0577 0.0972 0.4351 -0.0198 0.067 -0.088 0.0439 0.0108 -0.3297 0.0004 -0.1443 0.1875 0.0485 -0.0428 -0.0325 0.0281 0.0152 -0.0361 0.0296 0.4328 0.1348 -0.076 0.3314 -0.2462 -0.0671 0.0618 0.1448 0.0582 0.0609 -0.0442 -0.1733 -0.1122 0.2223 -0.1164 -0.4514 -0.0214 0.0834 -0.1097 -0.1217 -0.0941 0.0528 0.1639 -0.0021 0.0333 0.0673 0.0328 0.0713 -0.0485 -0.0573 -0.0585 0.1091 -0.0287 -0.1205 0.0146 0.0317 -0.0605 -0.1018 0.0258 -0.0762 -0.047 0.2475 -0.0162 -0.0522 0.1118 0.0976 0.2396 -0.0726 -0.0411 -0.0359 0.0791
sea.n -0.048 -0.0444 0.1391 0.0008 -0.1219 -0.0556 0.0231 -0.1577 -0.0513 -0.0495 -0.0469 0.0156 -0.0377 -0.0886 0.0091 0.0247 -0.0403 -0.0004 0.0339 -0.1429 -0.0816 -0.0859 0.0762 0.1031 -0.0349 -0.1386 -0.1346 0.1435 0.0737 0.0231 0.1631 0.0027 -0.1498 0.0988 0.0705 -0.0543 -0.0127 0.1764 0.0671 -0.0041 0.2684 -0.0809 -0.0919 0.0625 0.0337 0.0548 0.1814 -0.0727 -0.2218 -0.1587 -0.0756 0.0336 -0.6923 -0.167 0.1072 0.0405 -0.1997 0.2559 -0.0398 -0.1399 -0.0101 0.0534 -0.0792 0.0449 0.0059 -0.1255 0.1262 0.0548 -0.0307 0.0183 0.0225 -0.0731 -0.0244 0.1014 -0.0757 -0.1393 0.1455 -0.0095 -0.0694 0.0238 -0.0064 0.052 -0.0285 -0.2203 0.0607 0.0136 0.2728 0.0044 0.2404 0.1713 -0.0946 -0.1366 -0.0888 -0.1259 -0.0605 -0.01 0.0187 0.114 -0.066 -0.0089 -0.1386 -0.088 0.0011 -0.0238 0.1987 -0.0231 0.0478 0.1396 0.1665 -0.0125 -0.0764 0.2207 0.1502 -0.0173 0.024 0.1388 -0.0576 0.0114 0.03 -0.3464 -0.0017 -0.099 0.004 0.0674 -0.1726 0.1912 0.101 -0.0117 -0.1169 0.0536 -0.1211 -0.0564 0.2096 0.0536 -0.041 -0.0325 -0.123 0.0893 0.1519 -0.0454 0.0003 0.0829 0.083 0.1601 -0.1399 0.0433 0.0889 0.1096 0.0525 -0.06 -0.0571 -0.1307 0.0031 0.1033 -0.057 -0.0953 -0.0408 -0.0354 -0.017 -0.0496 0.0589 0.0404 0.0163 -0.1223 0.1119 0.045 0.0776 -0.025 0.0486 -0.0489 -0.122 0.0423 -0.1087 0.0058 0.0684 0.0379 0.2947 -0.1493 -0.0044 0.0421 -0.0202 0.0093 -0.0078 0.1632 -0.0891 -0.2033 0.248 0.142 -0.1727 0.0584 0.0757 0.042 -0.0308 -0.0307 0.2049 -0.055 0.0169 0.0102 0.1101 0.082 -0.1464 0.0685 0.0338 -0.1104 0.0585 0.0866 0.1006 -0.0392 0.0495 0.0379 0.1405 0.0634 0.0655 -0.0246 -0.1417 0.019 -0.0877 0.015 -0.1183 -0.0483 0.0213 -0.0507 0.0076 0.0466 0.0009 -0.1013 -0.0505 -0.065 -0.0148 0.0578 0.1026 -0.1342 0.3089 -0.1213 0.0863 -0.0664 0.0943 -0.1469 -0.2431 0.0615 -0.1202 0.1942 0.0698 0.0554 -0.027 -0.0046 0.0843 -0.0948 0.0945 0.4293 0.0401 0.1567 0.2852 -0.1742 0.0008 -0.1204 0.1667 -0.0046 0.0126 -0.1562 0.0217 0.0495 0.078 -0.0302 -0.2071 -0.075 0.1813 -0.0279 -0.1852 0.0732 -0.1221 0.0155 -0.1141 0.0709 -0.1298 0.0815 0.1358 -0.0312 0.1634 -0.0841 -0.0281 0.0002 -0.0301 -0.0586 0.1266 -0.078 0.0092 0.0294 -0.0422 0.14 -0.1741 0.1321 -0.1045 -0.0298 -0.0254 0.2785 0.0123 0.0535 -0.0214 -0.0781
machine.n 0.1737 -0.2309 0.018 0.0447 -0.1209 -0.0738 -0.0933 0.0749 -0.1384 0.1294 0.23 0.0058 0.0652 0.1216 0.0992 -0.004 -0.0268 -0.0039 -0.0786 0.1233 -0.1824 -0.0241 0.1165 0.0825 0.0755 0.0498 -0.0666 0.0277 -0.1093 -0.0829 -0.0356 0.045 0.0636 -0.0264 -0.0627 0.1815 -0.0372 0.0073 -0.0209 -0.0139 0.1028 -0.0098 0.0722 -0.0193 -0.0035 -0.0999 -0.1551 0.0641 -0.0217 -0.147 -0.1377 -0.1105 -0.6361 0.1229 -0.2657 -0.0406 0.1604 -0.0457 0.0132 -0.2073 0.0796 0.0014 -0.0733 0.1777 0.0075 -0.197 0.0076 -0.1172 -0.0282 -0.0179 -0.0077 -0.009 0.047 0.0703 -0.0764 -0.0305 0.088 -0.0001 -0.0493 0.0925 0.0209 -0.0607 0.2483 -0.2535 0.1339 -0.0901 0.1605 -0.0363 0.1984 0.0181 0.0421 -0.0703 0.1172 -0.0489 0.0323 -0.1271 0.0418 -0.2424 0.0577 -0.0938 -0.2218 0.0317 0.028 -0.082 0.118 -0.0402 -0.1411 0.0558 0.0238 0.1686 -0.2869 0.0631 0.0627 0.0331 0.1071 0.0008 0.0924 0.0066 0.0648 -0.4298 0.1474 0.0456 -0.0383 0.029 0.0635 0.2223 -0.0477 0.0183 -0.0346 0.0736 0.087 0.1094 0.1353 -0.0905 -0.0752 0.0161 0.0645 0.0623 -0.074 -0.029 -0.0842 0.0733 -0.0235 0.2167 0.056 -0.042 -0.0937 0.0605 0.027 0.0303 -0.0577 0.103 0.0806 0.1037 0.1173 0.2658 -0.1338 0.0092 -0.0025 0.0576 -0.0482 0.0132 0.1825 0.0089 0.0134 0.0682 0.148 -0.0615 0.0931 0.2214 -0.1538 0.0506 -0.1422 -0.0835 0.0977 -0.0388 0.3096 -0.0279 -0.1404 0.0157 -0.0016 0.0503 0.2038 -0.0987 -0.0339 -0.1294 -0.0793 -0.0014 -0.1821 -0.0767 0.0216 -0.1154 -0.0917 -0.1389 0.1873 0.2141 0.1015 0.059 0.1286 -0.0417 0.0179 0.0894 -0.1498 -0.0094 0.0162 -0.0659 -0.0831 -0.0679 -0.0813 0.1141 0.0754 -0.0182 0.1303 -0.0799 -0.1536 0.1257 -0.1495 -0.0215 -0.0296 -0.0188 -0.0141 -0.0547 -0.0352 0.064 -0.0867 -0.2977 -0.1011 -0.0728 0.0077 -0.0641 -0.0587 0.1039 0.4437 -0.0024 0.1108 -0.1214 -0.19 -0.028 -0.279 0.0037 -0.1963 -0.0186 0.0724 -0.1095 0.0752 -0.0027 -0.0148 0.0674 -0.0505 0.4499 0.0456 -0.1342 -0.0077 -0.0778 -0.1333 0.2218 -0.0306 0.047 -0.0419 -0.0187 -0.037 0.16 0.066 0.1267 -0.3808 0.288 -0.2131 -0.2222 -0.1218 -0.175 -0.0513 0.11 -0.0841 0.051 0.0183 -0.0041 0.0049 -0.0447 0.0086 -0.0828 -0.0626 0.005 0.2194 0.0712 -0.075 0.0002 0.0131 -0.0148 0.0874 0.1417 0.1603 -0.2902 -0.0279 -0.0799 -0.0321 0.075 0.0985 0.0291 0.0735 -0.1204
engine.n -0.0856 -0.2207 -0.0702 0.0699 0.1038 -0.1191 -0.0307 0.0899 0.0588 -0.0958 0.1022 -0.0081 0.2604 -0.1177 0.0032 -0.1185 -0.0565 -0.0862 -0.0825 -0.028 -0.298 -0.1468 0.1542 0.1554 0.1415 0.0904 0.0091 -0.0328 -0.177 -0.1547 0.141 0.0552 -0.0173 0.009 -0.0268 0.2057 0.0776 0.0334 -0.0577 0.0656 -0.093 -0.0103 0.1059 -0.1587 -0.0628 -0.2011 -0.028 0.2463 -0.0323 0.0047 0.0115 -0.1145 -0.606 0.211 0.0325 0.1127 -0.1145 -0.059 -0.0901 0.0531 -0.014 -0.0199 0.0288 0.0747 -0.0961 -0.0495 0.0934 0.1798 -0.0079 0.1396 0.0683 0.0805 0.0141 0.0266 -0.0763 0.0499 -0.012 -0.0858 0.0035 0.0014 -0.0067 -0.1187 0.0969 -0.2581 0.0934 0.0753 0.1656 -0.1001 0.2038 0.0958 0.1096 -0.1027 0.0941 -0.096 -0.0998 -0.1129 -0.0335 -0.1206 0.0582 0.0356 -0.2273 -0.0897 -0.1031 -0.0948 0.0096 0.0235 -0.2168 0.009 -0.0897 -0.0849 -0.052 0.1067 -0.0124 -0.0826 -0.0558 0.0812 0.1209 0.0312 -0.0015 -0.4346 0.0396 0.0476 -0.1008 0.0257 0.0186 0.2191 0.0006 -0.0284 -0.0461 -0.1319 -0.0861 0.0602 -0.0378 -0.1979 0.0755 0.0545 0.1634 -0.0816 -0.1696 0.0475 0.0411 -0.0135 -0.0343 0.2095 -0.1245 -0.034 -0.2103 -0.0522 0.1513 0.0941 -0.0404 -0.0234 0.0974 0.0981 -0.1082 0.1592 -0.0724 0.0468 0.1276 -0.0741 -0.1816 0.1182 -0.1285 -0.1559 0.034 0.1867 0.0802 0.0034 0.1989 0.0284 -0.1243 -0.0651 -0.0688 0.0452 0.0326 -0.14 0.315 0.0246 -0.06 -0.0826 -0.0231 0.0547 -0.1336 -0.0233 0.0338 -0.0728 0.2367 0.1777 -0.2262 0.2229 -0.0001 0.3179 -0.0295 0.015 0.1018 -0.075 -0.1375 0.076 0.1025 0.0814 -0.2402 -0.0027 -0.2202 -0.1516 0.1028 0.0873 -0.0928 -0.0452 0.0724 0.1626 -0.0367 0.0822 -0.1171 -0.0723 -0.0541 0.3141 -0.0084 0.1535 -0.0401 -0.0657 0.0318 0.11 -0.1064 -0.0816 0.0192 -0.2077 0.0619 0.0908 0.0274 -0.0929 -0.0399 -0.003 0.4128 -0.0613 -0.0114 -0.1059 -0.1124 -0.0461 -0.2939 -0.1503 0.0394 0.1455 -0.0321 -0.1775 -0.0461 -0.0757 0.2581 -0.0095 -0.1399 0.4016 -0.065 -0.1103 -0.0254 0.1374 -0.1443 -0.0024 -0.0385 -0.1267 -0.0067 0.1478 -0.1328 0.0014 -0.0525 0.0435 -0.4677 0.0427 -0.0344 -0.2322 -0.1406 -0.0247 -0.1047 0.0469 0.0112 -0.0416 0.0041 -0.0158 -0.2332 -0.0266 -0.1007 0.0351 -0.0611 0.0643 0.2341 -0.074 -0.0426 -0.0687 0.0594 0.021 0.0012 0.0804 0.1319 -0.0274 -0.2216 -0.0671 -0.0701 0.2845 -0.007 0.0188 0.2064 -0.0346
couple.n 0.0051 -0.0042 0.0308 -0.0316 0.032 -0.0257 0.0113 0.085 -0.0822 -0.0065 -0.0935 0.1048 -0.1143 -0.1179 0.1509 0.015 0.0342 -0.0451 -0.1308 0.0428 -0.0148 0.0561 -0.0185 -0.0041 -0.0537 -0.1201 0.0195 0.1582 0.0124 -0.1243 0.1276 -0.0994 0.0726 0.0836 0.0742 0.0092 0.0424 -0.0531 0.0528 0.0653 0.1196 -0.0349 0.0935 0.0408 -0.0127 0.0414 0.1765 -0.0948 -0.017 -0.0351 0.0503 0.0737 -0.6178 0.2215 -0.0856 0.0192 -0.194 0.1713 0.0528 -0.0276 0.076 -0.0481 0.0151 -0.0739 -0.0298 0.0223 -0.1248 0.07 -0.0632 -0.0737 -0.0661 -0.0062 -0.0728 -0.1061 0.0516 0.1001 0.0332 -0.0278 0.1285 -0.045 -0.0142 0.127 -0.0554 -0.2588 -0.1065 0.0699 -0.0643 0.0159 0.0503 -0.0431 -0.0201 -0.0863 0.024 0.059 -0.1127 -0.0156 -0.001 0.0088 0.0168 -0.1753 -0.159 0.0155 -0.0323 -0.1572 0.067 -0.0657 0.1734 -0.0308 -0.1108 -0.1104 -0.0333 0.1677 -0.1477 -0.0783 -0.1139 -0.0703 -0.1274 -0.2765 -0.2899 -0.2788 0.0528 0.0553 0.0859 0.074 0.1029 0.1772 -0.1076 -0.0366 0.0038 -0.1416 0.0918 0.0668 0.1844 0.0139 -0.0406 -0.2073 -0.1893 -0.0051 0.1015 -0.0182 -0.003 -0.0482 0.0906 0.2249 -0.0708 -0.0132 0.0324 0.1075 0.1833 -0.0326 0.094 0.0356 -0.213 -0.0135 -0.0466 -0.0264 0.0027 -0.0422 -0.0889 -0.0703 -0.0785 0.0028 -0.038 -0.0245 -0.1701 0.0381 0.0609 -0.0517 0.021 -0.0372 -0.0008 0.1329 0.0454 -0.0282 0.0363 -0.1745 0.2883 -0.2032 -0.0407 0.0432 0.014 0.0287 -0.1103 0.0196 0.0962 0.0931 -0.0656 -0.09 -0.1312 -0.0426 -0.0728 0.0652 0.0498 0.2366 -0.0325 0.1037 -0.0806 -0.0583 0.0436 -0.1656 -0.057 -0.0867 -0.024 -0.0622 -0.0643 0.128 0.0311 -0.127 0.0068 -0.0164 -0.0271 0.0553 0.0075 0.0329 -0.0033 0.0557 -0.0011 -0.12 0.0365 0.1561 -0.0608 -0.1073 0.1035 0.0791 -0.0613 -0.0789 -0.1138 0.0293 0.07 -0.0955 0.0504 0.1125 0.3293 -0.0801 -0.0645 -0.0663 -0.0737 0.0357 -0.2262 -0.1211 0.0782 -0.1775 0.0022 -0.0896 -0.0002 0.036 0.046 -0.0852 -0.1991 0.3973 -0.0359 0.0217 0.0813 -0.1555 0.32 0.0325 0.0825 0.0085 0.0182 -0.0743 -0.082 0.1141 0.022 0.1406 -0.2696 0.0319 -0.0083 0.0908 -0.0235 -0.1053 -0.1581 0.0423 -0.0232 0.0079 -0.0577 0.1048 -0.0804 0.0254 -0.1661 -0.0425 0.2504 0.095 0.1086 -0.0881 0.0236 0.0105 -0.1029 -0.1392 0.0359 0.0588 0.1397 0.0488 0.0175 0.0126 0.2783 -0.0095 -0.1139 0.0831 0.2989 0.1118
window.n -0.1465 -0.0149 -0.0997 -0.0223 -0.0203 -0.1492 0.0535 -0.1645 -0.0264 -0.0437 0.0865 -0.0984 -0.0224 0.091 -0.0248 0.0437 -0.0153 -0.1261 -0.1173 0.0936 0.0018 -0.0587 0.1305 0.0871 -0.0981 -0.0208 0.1315 -0.014 -0.0424 -0.1462 0.0442 0.2114 -0.0643 0.0077 -0.0464 0.2071 0.0144 0.0413 -0.1532 0.3046 0.0398 0.1046 -0.0603 0.1493 0.0533 0.006 0.1458 -0.0916 0.0387 0.0685 0.0169 0.0337 -0.5707 -0.2363 -0.0746 -0.1095 -0.0053 0.0717 -0.0558 -0.0045 0.0444 0.0654 -0.0565 0.0731 -0.0921 0.0154 0.1317 -0.015 -0.0184 -0.083 -0.0434 0.0998 -0.0907 0.0439 -0.0739 -0.1368 0.0743 0.0622 -0.1692 -0.2349 -0.0048 -0.0281 0.1647 -0.2426 0.0425 0.03 -0.0568 -0.0191 0.1165 0.0015 -0.0644 -0.1308 0.0175 0.0156 0.1629 -0.1684 -0.0301 0.1212 -0.0788 -0.2171 -0.2214 -0.0466 -0.1125 0.0254 0.1364 0.1072 0.008 0.1178 0.0388 -0.0268 -0.2002 0.1973 0.1407 0.0475 0.218 0.0479 -0.0714 0.0043 -0.064 -0.4209 -0.0792 0.0599 -0.0275 -0.0038 -0.0694 0.2164 -0.1125 -0.0409 -0.1104 -0.0402 0.1177 0.0651 -0.0531 -0.1603 -0.1331 0.033 -0.2357 -0.0652 -0.1444 -0.1003 -0.1479 0.1629 0.0474 0.2407 0.2529 0.031 -0.022 -0.0664 0.0755 0.0179 0.0611 -0.1436 -0.0003 0.181 -0.007 -0.0131 -0.106 0.0168 0.1402 -0.0016 0.0147 0.0176 0.1506 -0.0471 -0.0443 -0.0163 0.0673 0.2067 0.0195 -0.0868 -0.1325 0.0788 -0.0742 0.038 0.1971 -0.083 0.2814 -0.1625 0.0044 -0.2485 -0.0237 0.0993 -0.1003 -0.0215 0.0524 -0.2792 -0.2237 -0.1302 -0.0744 0.0887 -0.0944 -0.1284 0.0466 0.0459 -0.144 0.086 0.0009 0.092 0.1222 -0.1215 -0.0239 0.1603 0.0094 -0.16 0.0152 0.0413 -0.1771 -0.083 0.1279 0.1383 -0.0458 0.0356 0.0932 0.0488 -0.0235 0.0942 -0.1282 0.1043 -0.0949 0.2063 -0.1077 0.1626 0.0436 -0.3043 0.0051 -0.1169 0.076 0.1392 0.1571 -0.0459 -0.0787 0.0038 0.3795 0.0846 -0.0646 -0.1831 0.0998 -0.0462 -0.2783 0.2258 -0.1014 -0.0117 -0.0488 0.0169 -0.1412 -0.2134 0.0872 -0.1997 -0.0785 0.4079 -0.1183 0.123 -0.0104 -0.0999 -0.1539 -0.0183 -0.1053 -0.175 0.0518 -0.2022 -0.1126 0.0241 0.0703 -0.1828 -0.2521 0.0145 0.0163 -0.048 -0.1342 0.0613 -0.0093 -0.0918 -0.0732 0.1209 0.0924 0.1449 0.0424 0.1527 -0.0787 0.1703 -0.1749 -0.0596 0.1634 0.0172 0.0986 0.0413 -0.1831 -0.0228 0.0428 -0.0107 0.0666 -0.0367 -0.2399 0.1896 0.0561 0.0175 -0.1434 0.0805 -0.0044 0.271
hotel.n 0.1453 -0.0007 -0.0207 0.0322 -0.0232 0.0105 0.0487 -0.1323 -0.0517 -0.0522 -0.0856 0.0566 0.1199 -0.075 0.1408 0.0066 0.0723 -0.1368 0.0239 -0.0943 -0.1978 -0.0056 -0.0357 0.1246 -0.0447 -0.0196 0.1485 0.0758 0.0201 -0.1741 0.0749 0.0207 -0.0481 0.0708 -0.28 0.0837 -0.0295 0.0223 -0.1351 -0.098 0.0832 0.0541 -0.0928 0.0061 0.0639 0.0452 0.0369 -0.0287 -0.0173 -0.0432 0.0762 0.0509 -0.6638 0.2379 0.0227 -0.0342 0.0989 0.0002 0.07 -0.1078 0.0893 0.136 -0.0198 0.0189 0.1042 0.1612 -0.0057 0.3198 -0.0343 -0.0856 -0.0411 -0.0674 0.1204 0.0091 -0.0101 0.0335 0.013 -0.1475 0.0122 -0.1174 -0.0136 0.0777 -0.0204 -0.2017 -0.0226 0.0773 -0.0264 -0.0732 0.1987 -0.192 -0.1292 -0.0683 -0.0394 -0.077 -0.1164 0.0307 -0.0035 0.1402 0.1566 0.1658 -0.2504 -0.1731 0.0319 0.0229 0.0402 -0.0236 -0.08 0.1268 0.1162 -0.1518 -0.098 0.0551 -0.061 -0.2627 -0.0248 0.0326 0.0105 -0.1054 -0.0433 -0.3086 0.1109 0.1508 -0.0831 -0.0109 -0.0313 0.2353 0.1105 -0.0099 -0.0888 0.0824 0.043 0.1064 0.0757 -0.0259 -0.1308 0.0582 -0.1128 -0.0023 0.0026 -0.1708 0.1125 0.1507 -0.1307 0.1032 0.0913 0.0465 -0.0626 0.0387 -0.0384 0.0254 -0.0068 0.1671 -0.0778 -0.0495 -0.0837 -0.03 0.3275 -0.0651 -0.0794 -0.0225 -0.0078 -0.2199 0.1394 -0.0986 0.1107 -0.0857 0.0751 -0.1387 0.0242 -0.0157 -0.085 -0.0024 -0.0136 -0.0928 0.0732 0.0508 0.2738 -0.2584 -0.0336 0.0721 0.0385 0.0335 -0.1589 0.1604 -0.0469 -0.05 0.0143 0.0123 -0.2537 -0.1785 -0.2586 -0.0559 0.0673 -0.0347 -0.0836 -0.0012 0.0625 0.0352 0.0429 -0.0355 0.1382 -0.0015 -0.036 -0.0082 0.0485 -0.0438 -0.1243 -0.1021 0.0734 -0.0277 0.0302 0.0786 -0.0763 0.1382 0.0306 -0.1087 -0.079 0.0006 -0.2323 0.0686 0.0726 -0.1692 -0.0404 -0.043 0.2309 -0.0691 0.0534 0.0332 -0.0449 0.0669 -0.0237 0.2895 0.3597 -0.0653 -0.003 -0.0967 -0.0976 0.0917 -0.303 0.1058 -0.1274 0.1692 0.2367 -0.0905 -0.1652 -0.2148 0.2053 -0.0481 0.0063 0.4529 -0.0799 -0.0721 -0.0644 -0.1828 -0.0079 0.0676 -0.0338 0.0055 -0.1831 -0.1174 0.0371 0.0213 0.0079 -0.1251 -0.4494 -0.0489 -0.0428 -0.1066 -0.2168 -0.1436 -0.096 -0.0395 0.0448 0.0647 -0.0656 0.0512 0.1015 -0.0604 -0.1759 0.0924 0.0481 -0.0697 0.1212 -0.0702 0.0134 0.1639 -0.1567 0.0353 0.0637 0.0531 0.0537 0.1101 -0.1469 -0.0058 0.088 0.1585 0.0684 0.0436 -0.0476 0.1433
wall.n -0.1773 0.0829 -0.0977 0.0598 0.0221 -0.007 0.1257 -0.2087 -0.0275 0.0214 0.1006 -0.0862 0.1423 -0.0255 0.078 -0.0234 0.1623 -0.1085 -0.1031 -0.0759 -0.0703 -0.0536 -0.0408 0.004 -0.0224 -0.0855 -0.0873 0.0793 0.111 -0.102 -0.0224 -0.0253 -0.1505 0.0814 0.1314 0.1998 -0.0586 0.0324 -0.0364 -0.0319 0.0515 -0.0805 -0.1139 0.1692 0.0518 0.0445 0.0948 0.0057 0.0771 -0.0439 0.0553 0.1153 -0.6505 -0.0797 -0.0737 0.0063 0.1284 0.1143 0.089 -0.0046 0.2499 -0.113 0.1034 -0.0371 -0.11 -0.014 -0.0259 -0.036 0.025 -0.0825 0.0303 -0.0549 0.1651 0.0449 -0.1017 0.0026 0.0774 0.0475 0.0096 -0.1479 0.0165 -0.0139 -0.0374 -0.2283 -0.0696 0.011 0.0149 -0.0273 0.1777 -0.0558 0.1346 0.0639 -0.1555 -0.0416 0.0622 0.0358 0.0561 0.1837 0.1944 -0.0048 -0.2044 -0.0138 -0.0458 -0.0401 0.1041 -0.0484 -0.0601 -0.0723 0.0894 0.1232 -0.3211 0.146 -0.0112 0.052 0.0796 -0.0159 0.0827 -0.0181 0.1093 -0.4247 0.1832 -0.0786 0.0732 -0.0388 -0.0293 0.2292 0.0307 -0.0317 -0.1657 -0.0219 0.2033 0.045 -0.0538 -0.0018 0.0443 0.0105 0.1126 -0.0782 -0.0098 -0.1564 0.063 0.106 0.0053 0.2082 0.0824 -0.0356 -0.0255 0.0427 0.0001 0.0086 -0.0107 -0.2879 0.1164 0.0034 -0.0785 -0.0643 -0.0304 0.0555 -0.0241 0.0997 0.0388 -0.0693 -0.1094 -0.0617 0.004 -0.0765 0.0856 0.073 0.0053 -0.2101 -0.0928 -0.0232 -0.0481 -0.0593 0.2198 -0.1201 0.2985 0.0126 0.0944 -0.0454 0.0724 -0.225 0.1437 0.0624 0.0181 -0.2151 -0.0879 0.0028 -0.0751 -0.0396 -0.0582 0.1175 -0.043 0.1282 0.2662 0.1513 0.0238 -0.0296 0.1637 -0.0263 0.2576 0.0526 0.1144 0.1028 0.231 0.0111 -0.096 0.0786 0.0381 0.0323 0.055 0.0764 -0.0483 0.0051 -0.0781 0.0015 -0.1058 -0.078 -0.1519 -0.0676 -0.0723 0.1081 0.0652 -0.1026 -0.0177 -0.1886 0.0725 0.038 0.1127 0.0231 -0.0321 0.0489 0.3717 0.01 -0.0779 -0.057 -0.0802 0.0328 -0.3084 0.2134 0.0797 0.0369 -0.134 -0.1189 -0.0036 0.0391 -0.0762 -0.0068 -0.0147 0.4018 -0.0234 0.1 0.2601 -0.2295 -0.1403 0.0087 -0.1746 -0.0711 0.3542 -0.1836 -0.1487 0.0176 -0.2086 -0.0401 -0.333 0.003 0.0504 -0.0363 -0.1959 -0.0179 -0.0168 0.0538 -0.0829 0.1356 -0.0595 0.1391 0.0052 -0.0891 -0.0317 -0.1293 0.0517 -0.1221 0.0519 0.0293 0.0981 -0.1697 0.0579 -0.0739 -0.0595 0.0365 -0.0694 -0.1047 -0.2524 -0.1005 0.059 0.1186 0.0188 0.0198 -0.0179 -0.0722
door.n 0.0047 0.0439 -0.2072 0.083 0.0681 0.0576 0.0188 -0.1816 -0.1328 -0.013 0.0247 0.024 0.1299 0.0092 -0.0088 -0.0354 -0.0751 0.0114 0.0449 0.0972 -0.0373 -0.1531 -0.0012 0.0672 0.0305 0.0583 0.1948 -0.0123 0.0234 -0.1907 0.0658 0.0235 -0.2979 0.124 0.0215 -0.0267 -0.0348 -0.0653 -0.0975 0.251 -0.0523 0.0926 -0.0536 -0.0172 -0.022 -0.1878 0.0835 -0.2018 0.1734 0.1298 0.0697 0.2115 -0.6965 -0.0014 -0.1209 -0.017 0.0808 -0.0698 -0.0045 0.0162 0.0216 -0.0643 0.0005 -0.03 -0.1423 0.3043 0.029 0.0751 0.0505 0.0372 0.0198 0.0487 0.0556 0.0717 -0.164 0.1508 0.2156 0.1516 0.0053 -0.2478 0.0133 0.0675 0.0928 -0.2156 -0.0045 0.0325 0.1548 -0.085 0.0983 0.003 -0.0995 -0.0496 -0.0026 -0.0281 0.0009 0.0739 -0.0478 0.0116 0.0608 0.0426 -0.1825 -0.0175 -0.0701 -0.0835 0.1824 0.0708 0.1151 0.1462 0.0631 0.0512 -0.0235 0.2256 0.003 0.099 0.104 0.1613 0.006 0.0679 0.0437 -0.44 -0.1017 0.1326 -0.031 0.0399 0.0939 0.2796 -0.0136 0.1129 -0.0594 -0.0317 0.0254 0.0073 0.0597 -0.1676 0.0566 0.0046 0.0009 0.1895 -0.3271 0.0182 -0.1103 0.0951 0.0124 0.2246 0.1015 -0.0025 0.1003 -0.1343 -0.0178 0.0287 0.0041 -0.2815 -0.0413 0.0354 0.1023 -0.0919 -0.0453 -0.0901 0.0321 -0.057 -0.154 -0.0903 0.0057 -0.0704 -0.0329 0.0187 0.0777 0.1076 -0.0557 -0.1267 -0.1539 0.1923 -0.207 0.1535 0.0703 -0.0633 0.2981 -0.0493 -0.0956 -0.1018 0.087 0.0661 0.106 -0.0253 -0.0524 -0.2606 -0.0582 -0.2179 -0.0342 -0.103 -0.0153 -0.0486 -0.0214 -0.006 -0.1183 0.1543 -0.0519 0.0381 0.1971 -0.0245 0.088 0.0132 0.0423 0.0222 0.1762 0.0639 -0.3008 0.061 0.0805 -0.0146 0.0363 -0.0277 0.1451 0.0191 -0.0856 0.0897 -0.1576 -0.0358 -0.1131 0.0832 -0.0257 -0.0096 0.0319 -0.0754 0.0395 -0.2181 -0.1354 0.1157 -0.0387 0.0434 -0.185 0.1622 0.3838 -0.0319 -0.1257 0.0117 -0.0241 0.0819 -0.2875 0.2412 0.0198 -0.1423 -0.156 0.0451 -0.149 -0.1443 -0.0376 0.0757 0.0029 0.3597 -0.0114 -0.0657 0.1822 -0.034 -0.0971 -0.0545 -0.2315 -0.1068 0.203 -0.0716 -0.2173 0.0757 -0.0288 -0.0312 -0.2197 0.0716 -0.05 -0.0351 -0.1017 0.0787 -0.0198 -0.0224 0.001 -0.03 0.0664 0.0043 0.0532 0.08 0.0036 -0.0178 -0.0645 -0.0329 0.2794 0.0122 0.0475 -0.0719 -0.0153 -0.004 0.0529 0.0209 0.1241 -0.0288 -0.0364 0.2276 0.0165 -0.016 0.0366 0.0876 0.1119 0.1331
