building -0.53967 0.16642 0.23229 -0.10554 0.34325 -0.65137 0.61393 0.096178 0.30343 0.45882 -0.05805 0.093108 0.30197 0.37014 -0.19429 -0.26743 0.27266 -0.01452 0.044142 -0.33085 0.62543 -0.47678 -0.38739 -0.17257 0.2794 0.64027 0.61809 0.2998 -0.068221 -0.071488 0.3128 0.22638 -0.71932 -0.61512 0.176 0.32254 0.2513 1.1184 -0.23706 -0.16068 0.6766 -0.11686 0.40227 0.133 -0.44759 -0.03024 -0.10495 -0.64582 -0.68947 -0.17621 -0.60632 0.28686 -0.14971 1.0044 -0.48382 -0.92451 -0.59644 -0.57248 0.80536 0.31818 -0.1094 0.066706 -0.042625 0.57898 0.032433 -0.32861 0.2969 -0.02036 -0.94457 -0.16102 0.56597 -0.15337 -0.38274 0.088308 -0.16495 -0.42564 -0.11054 -0.13655 0.49504 -0.26781 0.0046068 1.2277 0.016169 -0.30824 0.28423 -0.0025521 -0.26412 -0.47961 -0.26581 -0.27579 0.53714 0.56133 0.9496 -0.35983 0.28343 -0.57731 -0.42766 -0.81714 -0.27519 0.15113
window -0.50776 0.57543 0.43621 -0.25537 -0.15281 0.10588 0.33251 0.58001 -0.031223 0.34863 0.34715 0.64658 -0.58012 0.24562 0.15382 0.35533 0.92871 -0.78229 0.38017 0.2261 0.23631 -0.57189 0.22615 -0.16388 0.40842 0.29649 0.44625 -0.82695 -0.45537 0.22868 -0.29465 0.11361 -0.71342 -0.48637 0.024359 0.68147 0.067423 0.26773 -0.20034 0.23782 0.15801 0.58242 0.14954 0.26688 -0.21217 -0.72347 0.70077 -0.26128 -0.52237 -0.17312 -0.81361 0.30249 -0.34516 0.37629 -0.93499 -0.70401 -0.88021 -0.12333 0.11998 -0.14655 -0.56183 -0.14897 -0.25379 0.82969 0.22343 0.1183 0.041852 0.36956 -0.63358 -0.031264 0.112 0.10372 -0.088631 -1.2856 -0.17302 -0.16099 0.68114 -0.015865 0.77952 -1.1782 -0.54766 0.82779 0.20919 -0.51516 0.41617 0.31581 0.23814 -0.22799 -0.20429 0.091883 0.023396 0.56239 1.04 -0.32568 -0.13598 -0.026351 0.034775 -0.21165 -0.10521 0.013412
car 0.76913 0.48319 -0.89904 -0.8596 0.25966 -0.289 -0.4426 0.39182 -0.49073 0.24257 -0.059061 0.93805 0.43711 0.53407 -0.55208 0.39044 0.22 -0.37955 0.13755 0.11364 0.46141 -0.55591 0.30477 -0.36627 -0.50965 0.5337 0.042105 0.50801 -0.1027 -0.18347 1.2147 -0.13913 -0.78005 -0.21014 -0.21701 -0.26745 0.23745 0.50576 0.011451 -0.15681 0.55393 -0.33655 0.43059 -0.19158 0.17721 -0.67853 -0.11445 -0.25833 -0.20684 0.59457 -0.26202 0.54521 0.56345 0.68117 -0.51025 -0.72814 -0.38982 -0.085045 -0.095084 0.51458 -0.31891 -0.18505 0.65125 0.2945 -0.75632 -0.34836 -0.068044 0.22079 -0.74773 0.28939 0.21857 0.26692 -0.13977 -0.41882 0.21049 -0.13936 0.11049 -0.33219 0.18851 -0.36189 -0.39888 0.095748 0.14111 -0.040151 0.94626 0.062241 0.62363 0.21571 -0.16074 -0.081555 0.12925 1.1492 0.13937 -0.80961 0.2094 0.13483 0.17462 0.63441 -0.069042 -0.32471
tree 0.3576 0.45404 0.10918 0.52177 -0.48115 -0.041422 0.76888 0.66982 0.30266 -0.041445 -0.0061802 0.40661 0.27516 -0.063993 -0.6035 -0.093275 0.85126 -0.25722 -0.054745 -0.3062 0.023873 0.16283 0.57752 0.014875 -0.25095 -0.16793 0.016366 0.29998 -0.10312 -0.58579 0.3336 -0.061096 -0.017821 -0.37199 0.32546 0.80769 0.97713 -0.15152 -0.24659 0.15332 -0.099149 -0.58913 0.41861 0.69131 0.30237 0.39245 -0.59893 -0.68398 -1.2276 -0.17491 -0.68052 0.60338 -0.7173 0.56108 -0.10586 -1.1995 -0.32492 0.29897 0.26957 1.0479 0.40359 -0.28986 0.29982 0.2427 -0.10279 0.12879 -0.15894 0.38441 -1.0717 0.30713 -0.15846 -0.056312 -0.059908 -0.24969 -0.13477 -0.23236 0.5723 -0.81849 0.59208 -0.057049 -0.82925 0.6935 -0.47395 -0.18491 0.93124 -0.20766 0.54176 0.28482 -0.22259 0.24066 0.10536 0.43899 0.32355 0.032089 0.64614 0.47421 -0.081927 0.006253 -0.49792 0.23712
street 0.24351 -0.24684 -0.0213 0.095057 -0.43518 -0.76488 0.81356 0.45075 -0.16432 -0.2237 0.046944 1.0359 0.18802 0.56538 -0.45817 0.11426 -0.038862 0.16431 -0.219 -0.17764 0.02012 -0.8557 0.14495 -0.25544 -0.31498 0.061958 -0.078671 0.30468 -0.3012 0.099533 0.28984 0.36443 -0.31461 0.25241 -0.65695 0.20311 0.18566 -0.012158 -0.063314 -0.012247 -0.079411 -0.026761 0.095915 1.198 -0.48015 0.5954 -0.099816 -0.51573 -0.88845 0.28474 -0.54422 0.54052 0.52737 0.71592 -0.2293 -0.69839 -0.13279 -0.61095 0.34301 -0.073099 0.31332 0.18865 0.67491 0.16295 -0.11833 -0.1654 0.096154 -0.16734 -0.87809 0.30758 -0.096683 -0.37589 0.43387 0.19249 0.019867 -0.23307 -0.067132 -0.30616 0.78708 -0.036707 0.31087 0.4212 0.19533 -0.61359 0.93215 0.18577 0.5453 -0.53421 -0.17707 -0.23678 0.044416 0.46088 0.76542 -0.13609 0.096371 -0.06241 0.24073 -0.00022946 -0.73386 -0.22771
woman 0.25238 0.09399 0.59921 0.0091925 0.54282 0.17728 -0.53106 0.025435 -0.36872 -0.31932 0.025494 -0.11151 -0.062883 0.3118 -0.028705 -0.3883 -0.27712 -0.41918 -0.48596 -0.12177 -0.057896 0.3029 0.87751 0.027452 0.046241 -0.24183 0.38309 0.5189 -0.18709 0.027025 0.24911 0.070527 0.18092 -0.26495 -0.48529 -0.020748 -0.13749 -0.1074 -0.29415 0.53345 0.44981 0.32456 0.16001 0.08745 0.22475 0.18903 -0.17926 -0.23436 -0.27247 0.30451 0.29304 0.05729 0.45382 -0.049426 -0.45438 -0.49232 -0.9086 -0.75453 -0.10096 0.33228 -0.034932 0.014611 -0.10384 0.63194 0.018214 -0.62126 -0.31623 0.21762 -0.15381 0.030017 0.0079984 0.0013353 0.49635 -0.42639 -0.66114 -1.1478 0.73446 -0.56016 0.1994 -0.16197 -0.64518 0.23985 -0.15271 -0.28756 0.74272 -0.15768 0.60226 0.25891 0.33108 0.5648 0.32454 0.24907 1.2312 0.34112 0.36689 -0.16409 0.23584 -0.06608 -0.14809 0.21742
shirt 0.85883 0.30136 0.69355 -0.4393 0.15889 -0.24816 -0.17419 -0.2926 -0.40105 -0.29215 -0.14918 0.38897 -0.23473 0.58624 -0.22873 0.15112 0.26911 -0.28945 -0.2546 -0.0024015 -0.55062 0.26176 -0.13786 0.17 0.4247 -0.13462 0.48644 0.38714 0.39484 -0.61117 0.28301 0.64458 -0.051813 0.17994 -0.59036 0.29478 0.12059 -0.22899 0.236 0.65528 0.30281 0.30054 0.44585 -0.4037 0.12759 0.36646 -0.38232 -0.38398 -0.15935 0.34875 -0.86067 0.29394 0.73357 0.62078 -0.24793 -0.39473 -0.2081 -0.61313 0.15129 0.15662 -0.34899 0.087609 0.31958 0.99406 0.050084 -0.26122 -0.39134 0.6215 -0.191 0.83156 0.047141 0.10122 0.26957 -0.11666 0.10876 -0.35789 0.015862 -0.064244 0.34294 0.50902 -0.55734 0.049402 0.094577 -0.1335 0.41548 -0.63493 1.3107 0.5865 0.69095 0.8741 -0.36996 0.19656 1.351 0.58848 -0.21245 -0.30995 0.00073525 -0.44712 0.27167 0.34479
sky 0.64459 -0.17426 -0.51156 -0.19959 -0.068693 0.018571 1.0168 0.14059 -0.070154 -0.05745 0.086346 1.5159 -0.20695 0.52791 -1.0675 0.71389 -0.53869 -0.33305 -1.1442 -1.0028 -0.049165 -0.50931 0.21419 -0.21754 0.49819 0.56965 -0.15712 1.3535 0.3211 0.28321 -0.9563 0.86073 -0.53339 -0.5343 -0.14104 0.49649 1.0067 -0.064826 -0.14768 -0.45943 -0.15316 0.10015 0.66971 -0.012001 0.15961 -0.32591 0.29399 -0.80747 -0.849 0.16301 -0.53303 -0.75977 0.047596 0.56199 -0.60133 -0.67859 -0.48943 0.27806 -0.31526 0.36642 -0.1275 -0.15814 -0.56654 1.1761 0.42044 -0.36449 0.3502 0.10305 -0.498 -0.16402 -0.15585 -0.89374 0.90741 -1.0429 0.29659 -0.16063 0.66455 -0.53025 -0.33888 -0.12078 0.27444 0.15318 0.37015 0.69551 0.42239 0.5035 1.0988 -0.33429 0.38023 1.1186 0.21678 0.8388 0.31324 0.14522 0.42983 -0.045727 0.11148 0.84161 -0.28869 -0.11651
chair 0.21168 -0.099409 0.42057 0.23242 0.25566 -0.68409 -0.32644 -0.15249 0.053415 -0.051533 -0.36684 0.09924 -0.16325 0.79128 -0.34676 -0.17438 -0.15976 0.2239 -0.79639 -0.15786 -0.5504 -0.8681 0.2352 -0.28451 -0.15816 0.35452 0.073445 0.77872 -1.0635 -0.49708 -0.39705 0.015036 0.43584 1.1067 -0.23579 0.40143 -0.58256 0.70187 0.10392 0.31727 0.33682 -0.16054 1.115 -0.14774 -0.035137 -0.36479 0.24331 -0.056342 -0.04859 0.43096 -0.62731 0.083096 -0.50497 0.83529 -0.48659 -0.75659 -0.68702 0.31087 0.038296 0.8242 -0.45385 0.48543 -0.33251 0.64062 -0.11066 0.55561 0.44028 0.8854 -0.76056 0.15001 -0.30718 -0.049821 0.33603 -0.48177 -0.44894 -0.076777 0.15713 0.39649 0.14669 0.60035 -0.63326 0.85946 -0.16071 0.11428 1.0059 -0.14825 0.87458 -0.34841 0.1897 0.52692 -0.09988 0.74439 0.030357 0.19266 -0.21993 0.032091 0.68434 0.087538 -0.06047 0.78748
road 0.43718 0.11172 -0.57342 0.40086 -0.25625 -0.12381 0.69773 1.0061 -0.045049 0.148 0.33669 1.2839 -0.097222 0.3694 -0.6396 0.60472 -0.13029 -0.34478 -0.19051 -0.040526 -0.21162 -0.36526 -0.17335 -0.026879 -0.027275 0.059428 0.22313 0.59223 -0.448 0.25454 0.51443 0.47065 -0.2828 -0.072748 -0.41826 0.053955 0.13195 0.15889 -0.187 0.37888 -0.16279 -0.043551 0.41008 0.35248 -0.34314 0.67417 -0.027631 -0.36839 -0.64497 0.18293 -0.4362 0.37856 0.54062 0.74215 0.27483 -0.85318 -0.2537 -0.32096 0.02066 0.075888 0.60138 -0.040187 0.65381 0.25047 0.26981 -0.28029 0.10599 -0.64647 -0.79214 0.50081 -0.76003 -0.30274 -0.12356 0.40405 -0.13658 -0.073843 -0.15137 -0.49284 0.67942 0.21977 0.37404 0.45816 0.12133 -0.6751 0.50016 0.75275 0.060636 -0.38086 -0.38287 -0.10193 0.48797 0.5065 0.91019 0.23423 0.037764 -0.19883 0.052722 0.17165 -0.2941 -0.77852
water 0.65353 -0.44225 -0.55118 0.18192 0.17685 0.087232 1.1891 0.31511 0.14153 0.47797 1.3366 0.7989 -0.50099 0.11047 -0.73296 0.50499 -0.49621 -0.80401 0.0074348 0.47131 -0.17159 -0.25269 0.061592 0.0092497 0.36186 0.51024 0.25042 0.16876 -0.091756 -0.31523 0.2752 0.79587 -0.30387 0.40773 -0.16845 -0.11603 0.047137 -0.15887 -0.0032885 0.20909 -0.39167 -0.017208 0.43063 -0.6547 0.51487 -0.40149 -0.22813 -0.033056 -0.19241 -0.21181 -0.60887 -0.90023 0.36923 -0.0087958 -0.053576 -0.3563 -0.00028423 -1.097 -0.29111 -0.11873 -0.43449 -0.18471 -0.20554 0.64408 0.28989 0.0033691 0.090798 0.49033 -0.48057 -0.17392 0.15999 -0.023987 0.62777 -0.080599 -0.85599 -0.27511 0.46738 -0.38578 0.05638 -0.32237 -0.54961 0.55368 1.1306 -0.051437 0.59257 -0.45439 -0.36856 -0.084352 -0.068949 0.35873 0.34839 0.74251 0.22759 -0.056323 0.23123 -0.50754 -0.47191 0.5102 -0.47547 0.85226
door -0.65255 0.42755 0.41725 -0.56893 1.1415 -0.070187 0.70607 0.36678 0.11875 -0.24497 0.32036 1.0556 -0.37664 0.70542 -0.11827 0.46098 0.25336 -0.27932 -0.4431 -0.0093582 0.18998 -0.72229 0.0054898 -0.36003 -0.12718 -0.67675 0.20401 0.18296 -0.21766 -0.54113 0.2374 -0.020177 -0.00047009 -0.36027 -0.44271 0.23528 0.31784 -0.035887 0.15204 0.85728 0.67559 0.026543 0.65961 0.080834 -0.030625 -0.72503 0.68414 -0.16824 -0.63432 -0.005077 -0.99652 0.50028 -0.015933 0.02962 -0.66123 -0.00020809 -0.33265 0.53434 0.332 -0.34901 -0.41685 -0.5735 0.19721 0.33309 -0.018143 -0.35427 -0.29416 0.54617 -0.41047 0.20173 -0.14711 0.059857 -0.2111 -0.55822 -0.43406 0.091599 0.49076 1.0828 0.7749 -0.059369 -0.33575 0.85734 0.80693 0.060012 0.57873 0.31455 -0.00070977 -0.24605 -0.067895 -0.26057 -0.26907 0.058118 0.62631 -0.31049 -0.043046 0.39516 -0.2316 -0.64756 -0.037123 -0.78142
bus 0.28075 0.71658 -0.83989 -0.19376 -0.19969 -0.23928 -0.36953 -0.60677 -0.34659 0.58225 0.5771 -0.049086 -0.20583 0.43241 0.016715 0.34587 0.012718 0.053679 0.075617 0.38816 -0.012891 -0.34372 0.34278 -0.50705 -0.57245 0.70173 0.48962 0.37358 0.019687 -0.47542 0.56457 -0.23374 -0.81413 -0.25622 -0.77113 -0.15515 0.065281 0.082166 0.44577 0.13283 0.40998 -0.47017 0.52939 0.10957 0.46244 -0.56679 0.22535 -0.86339 -0.16573 -0.33114 -0.88837 0.38918 0.51068 1.1248 -0.29288 -0.64357 -0.36711 -0.37454 0.35394 0.3992 -0.082855 -0.17231 -0.051198 -0.22345 0.2747 0.062397 -0.11848 -0.15282 -1.0249 -0.18552 0.18045 0.041433 -0.4701 0.035998 -0.16371 -0.06704 -0.17834 -0.2921 -0.45618 -0.14738 -0.45062 0.66587 -0.39791 -0.66801 0.56661 0.044973 0.50692 -0.1773 0.14596 -0.019875 -0.097538 0.9736 1.0076 -0.3823 -0.23887 -0.48519 -0.30139 0.030864 -0.19899 -0.93258
grass 0.67901 -0.13884 -0.91247 0.35019 -0.098252 -0.026021 0.3273 0.59834 0.4309 -0.033475 0.0039325 1.0907 -0.96915 -0.69334 -0.56438 0.25292 0.45926 -0.15422 -0.24822 -0.22448 -0.35914 -0.10538 0.2266 -0.058385 0.50467 -0.066317 0.63253 0.17117 -0.14361 -0.48411 -0.18508 -0.28363 0.26262 -0.43429 0.17719 0.2578 0.37747 -0.3322 -0.43785 -0.2154 0.76788 -0.69293 0.47584 -0.20337 0.36292 -0.71022 -0.19896 -0.40577 -0.65443 0.34498 -0.51045 0.19333 -0.059307 0.35781 0.040656 -0.32475 -0.53111 -0.07376 0.54454 0.25167 0.57793 0.22326 0.35397 -0.12299 -0.082252 -0.4124 0.12015 0.00019437 -0.89363 0.95458 -0.46104 -0.16179 0.13693 0.41536 0.17797 -0.82114 -0.24176 -0.56137 1.0673 -0.11111 -0.15507 0.47484 0.37765 0.1781 0.89963 -0.75145 0.24076 0.0017937 -0.31508 0.61673 0.32607 0.41981 0.42853 -0.099334 -0.27413 0.32003 0.082463 0.63782 0.15251 0.56462
house -0.37567 0.37153 0.38771 0.11587 0.32418 -0.32444 0.31065 0.22884 0.40765 -0.0024787 0.3969 0.49103 0.17653 0.17349 -0.084772 -0.14081 0.19434 -0.17158 -0.65408 -0.55581 0.14436 -0.58084 0.25421 -0.37375 0.35281 0.32864 0.61537 0.44773 -0.44207 0.085501 -0.17023 -0.11708 -0.76422 -0.96063 0.21031 0.17844 0.28008 1.0293 -0.43538 -0.47849 0.77779 0.097387 0.74689 -0.48971 -0.010378 -0.13064 0.083146 -0.46735 -0.51067 0.016213 -0.41686 0.35182 -0.17075 0.95841 -0.50757 -0.39411 -0.0041775 -0.43876 0.42093 0.13947 -0.11964 -0.55781 -0.10786 0.080136 0.33756 -0.10464 -0.32304 0.68657 -0.54607 -0.16308 0.07326 0.1422 -0.20289 -0.24282 0.16886 -0.074856 0.075872 0.27751 0.48474 -0.64855 -0.19662 1.1598 -0.069503 -0.34731 0.62233 0.59215 -0.25934 -0.057196 -0.72416 0.53111 0.84103 0.36335 0.63138 -0.12941 0.30763 -0.61969 -0.19191 -0.27007 -0.027545 -0.29951
brick 0.17694 0.27939 -0.055417 -0.20122 0.2703 -0.4355 0.49513 -0.43466 0.20133 0.34304 0.41827 0.55687 -0.19253 0.44447 -0.074644 0.077401 -0.33841 -0.65919 -0.25544 -0.71917 0.50447 -0.2635 -0.28919 -0.18555 -0.027548 0.32766 0.84767 -0.19372 -0.18378 -0.35965 0.6911 -0.19083 -0.45639 -0.42755 0.16167 -0.00087508 0.0064811 0.84861 0.30004 -0.58052 -0.27191 0.61651 0.20109 -0.12277 -0.14715 0.1557 -0.082466 -0.89297 -0.85257 0.39362 -0.60796 -0.40556 -0.50273 0.85361 -1.1773 -0.57014 -0.62688 -0.10897 0.076635 1.1802 0.21479 -0.09485 0.17945 0.78832 0.47743 0.60827 0.24721 0.35856 -0.42533 0.16907 -0.21811 0.026655 -0.52681 0.12867 -0.49706 -0.70694 -0.59286 -0.20828 0.66212 -0.67128 -0.086047 0.59912 -0.11647 -0.58427 0.65744 -0.37605 0.21217 -0.30888 0.11835 0.2531 0.32265 0.33455 1.0246 -0.0031552 0.061532 -0.75246 0.8661 -0.27181 0.11329 0.25683
truck 0.65587 0.63991 -0.66914 -0.71857 0.86338 -0.39586 0.0088892 -0.2896 -0.33269 0.68354 -0.034131 0.79041 0.03966 0.24318 -0.37381 -0.40563 0.1587 -1.0741 -0.085892 0.1154 0.45432 -0.55735 0.21056 -0.27104 -0.30848 0.4543 0.14282 0.84405 0.29734 -0.26221 0.60403 0.15994 -0.096088 -0.13669 0.53385 -0.22792 -0.29787 -0.14721 -0.033838 0.093594 0.33835 -0.60185 0.039037 -0.35114 -0.12823 -0.16806 -0.032116 -0.18118 -0.03136 0.076772 -0.47114 -0.3575 0.22369 0.70212 -0.29456 -0.41644 -0.36894 -0.041146 0.5361 0.13239 0.078748 -0.43824 0.27232 -0.36276 -0.031134 -0.52489 -0.4391 0.58442 -0.92194 0.7013 0.31675 0.69693 0.15041 -0.028079 0.70306 -0.30873 -0.29902 -0.51874 -0.31583 -0.13467 -0.21975 0.17848 -0.49492 -0.64948 0.30965 0.28141 0.4269 -0.26679 0.2617 -0.054108 0.3886 1.0663 0.52648 -0.13315 0.1442 -0.74561 0.13925 0.28056 -0.48147 -0.73775
snow 1.1088 -0.21062 -0.60531 -0.40047 0.70299 -0.19246 0.31381 -0.07833 0.25755 -0.10829 -0.47116 0.6992 0.0094166 -0.8805 -0.49539 0.27449 -0.18701 -0.61723 -0.72748 0.79186 -0.46723 -0.22974 0.54916 0.54821 0.14101 0.11205 0.17274 -0.13351 0.42229 -0.84548 -0.26194 0.46697 -0.75554 -0.81042 -0.21777 0.6214 0.47499 -0.17483 -0.33365 -0.12849 0.10582 -0.39358 0.2008 -0.46289 -0.46429 0.26747 -0.34125 -0.19399 -0.61381 0.1884 -0.93994 -0.96657 0.36433 0.52054 -0.12084 -0.15185 -0.46962 -0.23416 -0.28849 0.079552 -0.048381 0.27774 -0.041116 0.027053 0.48471 0.96067 -0.31812 -0.73494 -0.06644 -0.35191 0.0067591 -0.38325 -0.05236 0.27902 0.50322 -0.35652 0.096349 -0.71351 0.80961 -0.43561 0.053492 0.30434 0.22569 -0.035499 0.5961 0.30382 0.58615 -0.36052 -0.68658 0.71694 0.19007 0.64537 1.5745 -0.74361 -0.024243 -0.11825 0.064924 0.45224 -0.32703 0.021233
picture -0.031671 0.33909 -0.26057 -0.039431 0.54947 -0.37037 0.38834 -0.10388 -0.29393 1.2096 0.20841 0.50437 -0.11874 0.22218 -0.29141 0.16009 -0.14109 0.10541 -0.098552 -0.66841 0.021406 -0.16909 -0.09736 0.46289 0.032642 0.17194 -0.56923 0.088665 0.15562 -1.1624 0.30298 0.69585 -0.78438 -0.034949 -0.3617 0.25457 -0.060994 -0.082274 -0.51018 -0.054091 -0.011645 0.0068801 0.087795 0.079961 0.49708 -0.6691 0.45045 -0.024704 -0.41307 -0.11418 0.16271 -0.19853 -0.12852 -0.47121 0.24608 -0.85086 -0.27701 0.26726 0.81532 -0.024336 -0.24346 0.53963 -0.4715 0.16361 0.63624 -0.14925 0.29382 -0.091856 -0.59524 0.72763 -0.32945 0.17523 0.20875 -0.22086 -0.37567 -0.4061 0.68628 0.026849 0.053238 0.32943 0.025211 1.5744 0.26643 0.0074215 0.64922 0.22496 0.42556 0.75166 0.37556 0.18288 0.030355 0.18616 0.92716 0.14402 0.20271 0.07388 0.5139 -1.3879 -0.54227 0.21423
jacket 0.59772 0.47908 0.46206 -0.29333 -0.010971 -0.36333 -0.31962 -0.43451 -0.36121 -0.033864 -0.4286 0.60495 -0.75683 0.29673 -0.58165 -0.20457 -0.49314 -0.24932 -0.049485 0.3084 0.0096061 -0.27817 0.42652 0.42488 -0.17562 -0.13711 0.21969 0.54389 -0.16029 -0.60631 0.090232 0.73874 -0.57119 0.08092 -0.18346 0.076151 0.084685 0.16722 0.13226 0.70713 0.18207 0.15348 0.50682 -0.60109 -0.089331 0.25564 -0.28781 -0.62153 -0.41509 0.49885 -0.52203 0.11157 1.0895 0.13179 -0.16518 -0.91718 -0.71529 -0.65071 0.074832 -0.039219 -0.36633 -0.2662 -0.079252 0.14253 -0.012163 -0.065004 -0.18513 -0.14812 -0.06447 0.30462 0.53128 -0.13996 0.36604 -0.40287 0.011946 0.084301 -0.46188 -0.13057 0.30555 -0.18205 0.01338 0.4946 0.022728 -0.23813 1.0423 -0.016449 1.4559 0.44433 0.18485 1.1818 -0.29694 0.22805 1.0212 0.34876 -0.33964 -0.21319 0.038212 -0.75567 0.30725 0.42075
shelf -0.20282 0.045494 -0.080946 -0.69007 -0.03491 0.60302 0.08189 0.45375 -0.21931 0.71421 0.24915 0.20412 -0.18593 -0.30171 -0.37966 -0.33434 0.15087 -0.67529 -0.86434 -0.25429 -0.024899 0.46807 -0.62463 0.1668 -0.74038 0.65308 -0.35137 0.54202 0.20261 -0.10043 -0.0023726 0.10053 -0.2565 -0.055115 -0.095786 8.5453e-06 -0.78137 1.0949 -0.49871 0.64836 -0.14083 0.17682 0.27059 0.56267 -0.021403 -0.31395 0.71629 0.033181 0.57458 -0.63516 -0.27098 -0.15125 0.2687 0.13888 -1.3474 -0.54446 -0.45282 0.28601 0.67187 0.010488 0.46042 -0.0052793 -0.29631 0.74764 0.32451 0.19935 0.21967 0.36001 -0.15737 0.31313 -0.80051 -0.25302 0.92772 -0.81387 -0.27981 0.21973 0.45099 -0.046966 0.58444 0.66939 -0.31 1.1422 -0.059597 -1.1345 0.35327 -0.14068 0.14132 -0.25711 0.27347 -0.49084 -0.14682 0.5211 0.76078 -0.16314 0.62258 -0.35986 -0.11878 -0.23799 -0.037948 0.37397
bed 0.1308 -0.57749 -0.32984 0.15707 0.98839 0.050323 0.48027 0.9564 -0.54928 -0.13768 -0.35982 -0.037153 -0.79142 0.27432 -0.24382 -0.14774 -0.058053 -0.53186 -0.51894 -0.29136 0.0060645 -0.26795 0.6902 -0.1124 -0.064988 0.096776 -0.57159 0.89478 -0.55553 -0.66902 -0.12668 0.49578 -0.66158 0.13541 0.37751 -0.16861 -0.36312 0.37946 -0.41266 0.129 -0.34878 0.90942 1.1983 0.079826 -0.57572 0.51386 0.0081349 0.091425 -0.10038 -0.12877 0.45904 0.32964 0.68906 1.1704 -0.78511 -0.35974 -0.73893 0.56769 -0.0023494 -0.76768 0.67679 0.43943 0.014244 0.32714 0.30316 0.58524 0.045784 0.71656 -0.72146 0.25262 -0.66694 0.24012 -0.025421 -0.59895 0.51698 -0.22428 0.32692 0.28438 -0.0019121 -0.10062 -0.39859 1.0539 0.4273 -0.17453 0.21638 0.026353 0.12163 -0.11456 0.13381 0.26175 0.51088 0.16805 0.57369 -0.50225 -0.018573 -0.0083822 1.3016 -0.35146 -0.10132 0.5582
bottle 0.43731 0.051783 -0.10698 -0.25028 0.51079 0.21215 -0.099734 0.21999 0.018652 -0.18907 0.77202 0.57704 -0.33124 0.4353 0.088471 -0.76021 -0.18634 -0.087396 -0.056371 0.66159 -0.79617 0.20967 0.31585 0.62417 -0.51578 0.60072 0.072686 -0.48719 -0.97317 -0.13639 0.21745 0.089317 -0.3105 -0.37376 0.55021 -0.73431 0.36193 0.18023 -0.15721 0.27645 0.6729 -0.68411 0.19226 0.27696 0.15764 -0.040337 0.8995 -0.026334 -0.95576 -0.26356 -1.0034 -0.50286 -0.00080861 0.16326 -0.12851 -1.0795 -0.45702 -0.47894 -0.73618 -0.14508 -1.015 -0.44036 0.24004 0.5209 0.54967 -0.16679 0.19722 0.15666 -0.89795 1.0949 0.52472 -1.0903 0.17181 -1.0964 -0.28613 0.023161 0.27838 0.084157 0.33068 1.158 -1.2374 1.2174 0.099199 -0.25526 0.35901 0.064964 0.69015 -0.16547 0.2367 0.35328 -0.21861 0.5453 -0.31083 0.24915 0.57016 -0.1092 -0.037202 -0.64146 0.55817 0.16974
field 0.52001 -0.060276 -0.93991 -0.30073 -0.17819 -0.41405 0.53777 0.85487 -0.1797 0.21249 -0.2746 1.1821 -0.57324 -0.53801 -0.38597 0.21767 0.89913 -0.68358 -0.92067 -0.32598 0.24303 -0.27285 -0.61997 -0.24125 0.10282 -0.13794 0.13635 -0.0004011 -0.18001 -0.16383 -0.08696 0.19116 -0.10429 -0.82874 0.0075239 0.42092 -0.12551 -0.38561 -0.78274 -0.34991 0.33062 -0.93633 0.2302 -0.63613 0.094608 -0.41583 0.13772 -0.65452 -0.819 0.27943 -0.29229 0.93077 0.43084 -0.27577 0.54836 -0.088961 -0.48942 -0.22413 0.59111 -0.52813 0.32509 0.29907 -0.14048 0.79318 -0.060594 -0.68823 0.54777 0.40458 -0.7688 0.90012 -0.53609 -0.036629 0.49448 0.69163 0.42057 -0.19473 -0.027401 -0.44124 0.73155 -1.0327 -0.53333 0.67531 0.85108 0.065261 0.52354 0.087111 0.35308 -0.023044 -0.2723 0.87596 0.058382 0.10354 0.3307 -0.061784 0.31621 0.0022779 -0.46275 -0.48948 0.0053664 0.30599
bag 0.83186 0.83888 0.52228 0.54936 0.98331 0.21995 -0.28447 -0.31781 -0.49283 0.33413 -0.0026763 0.3847 -0.436 -0.71828 -0.021892 -0.42924 -0.28002 -0.55782 -0.27561 0.10309 0.089856 0.23789 0.80755 0.098963 -0.65757 -0.50305 0.81447 0.64478 -0.096407 0.044692 0.93793 0.62125 -0.20695 0.57845 -0.30598 0.082323 0.12761 0.47181 0.44707 0.56803 0.14758 0.064847 0.023619 -0.37102 -0.19395 0.023835 -0.46584 -0.84353 0.16738 0.43281 -0.095445 0.11832 0.18919 -0.32067 0.21918 -0.95919 -0.35699 -0.14103 0.58043 -1.0945 0.030191 -0.46469 0.46538 -0.26496 0.041678 -0.42232 0.40355 0.27484 -0.52574 0.50232 0.29228 -0.82261 0.43427 -0.89197 0.050506 0.25851 0.19715 -0.084828 0.25773 0.82033 -0.2967 0.65247 0.21361 -0.56148 0.56852 0.051823 1.0672 0.13987 -0.0059747 0.83646 0.2745 0.35533 0.30708 0.11779 -0.18917 -0.22267 0.58806 -0.056105 -0.67957 0.38077
plant 0.17087 0.73449 -0.36692 0.11296 -0.26434 0.12676 0.34128 -0.20736 0.22913 0.27029 1.0215 0.8613 -0.097931 -0.48924 -0.3585 -0.12937 0.34605 -0.16874 -0.33412 -0.56329 -0.35849 -0.26662 0.92581 0.11297 -0.21602 -0.44751 -0.41159 -0.045823 -0.324 -0.51191 0.21532 0.14605 0.51335 -0.3308 0.089688 0.36406 0.41415 0.17688 0.24578 0.14793 0.44502 -0.1561 0.47477 -0.082129 0.50014 0.079674 -0.82779 -0.821 -0.12306 -0.86841 0.3745 0.24349 -0.56586 0.43328 -0.64534 -0.64891 -0.10242 -0.30732 0.32721 0.24644 0.51288 -0.18736 0.43393 1.1396 0.20226 0.28361 -0.13806 1.2044 -1.5406 -0.17802 0.30723 -0.42646 -0.41447 -0.36587 -0.14327 -0.15065 0.36376 -0.54395 0.60441 0.032843 -0.55806 1.1192 -0.41075 -0.076321 0.65448 -0.54616 0.32975 0.12143 -0.015675 0.26113 0.57402 -0.11235 -0.17527 -0.12924 0.14275 -0.21304 0.27514 -0.3116 -0.26881 0.48726
girl -0.035643 -0.1952 0.31187 -0.064199 0.0090406 0.35942 -0.50395 0.076992 -0.37666 -0.38806 0.11436 -0.052361 -0.20162 -0.057134 0.32125 -0.02252 -0.16981 -0.43147 -0.72545 -0.099517 -0.22305 0.11634 0.91897 0.33191 0.22686 -0.41077 0.32537 0.16764 -0.28662 -0.053553 0.062388 0.43336 0.22171 -0.23603 -0.46682 0.090127 0.074801 -0.13082 -0.56249 0.87612 0.43505 0.040768 0.31592 -0.048536 0.1473 0.29917 -0.29366 -0.19681 -0.31498 0.30609 0.14934 -0.086521 0.77137 -0.13589 -0.43962 -0.47112 -0.77424 -0.8651 0.095334 0.39402 -0.11067 -0.081045 -0.60894 0.81092 0.3025 -0.34008 -0.60483 0.099785 -0.051299 0.087657 -0.21467 0.21309 0.35597 -0.24906 -0.90493 -0.92267 0.62249 -0.39711 -0.13198 0.24181 -0.83304 0.40825 0.030023 -0.074488 1.0004 -0.080753 0.47957 0.42432 0.24642 0.54881 0.47292 0.24506 1.0517 0.14758 0.27369 -0.29676 0.3455 0.13992 -0.23925 -0.13888
flower 0.43805 0.010563 -0.20318 0.026252 0.82243 0.30099 0.12738 -0.09052 0.31676 -0.047356 0.88167 0.43738 0.081191 -0.24428 0.19753 0.37292 0.42289 -0.28189 -0.69185 -0.41182 -1.045 -0.43991 0.61892 0.54759 -0.025211 0.11495 -0.33984 0.14906 -0.14831 0.18384 -0.46537 -0.6089 -0.53377 -0.34403 -0.5664 0.46011 0.30533 -0.28662 -0.28123 0.59073 -0.38394 0.1894 0.39268 -0.16132 0.64195 0.25367 -0.8835 -0.48769 -0.13106 0.11476 0.78287 0.29699 -0.65784 0.76161 -0.5171 -0.35354 -1.0816 -0.56661 -0.017576 0.076236 0.10222 -0.16804 0.41116 1.4954 0.56203 -0.59422 -0.31773 0.73283 -0.95663 0.15132 0.3414 -0.55054 -0.36143 -0.41919 0.63678 -0.13677 0.5627 0.12203 0.38432 0.19458 -0.40421 0.40633 0.24602 -1.296 0.76033 -0.46594 0.024331 0.22502 -0.027135 0.3338 0.35482 0.12623 0.010671 -0.14953 0.084904 -0.51579 0.52173 -0.33491 -0.53925 0.31596
pickle 0.43805 0.010563 -0.20318 0.026252 0.82243 0.30099 0.12738 -0.09052 0.31676 -0.047356 0.88167 0.43738 0.081191 -0.24428 0.19753 0.37292 0.42289 -0.28189 -0.69185 -0.41182 -1.045 -0.43991 0.61892 0.54759 -0.025211 0.11495 -0.33984 0.14906 -0.14831 0.18384 -0.46537 -0.6089 -0.53377 -0.34403 -0.5664 0.46011 0.30533 -0.28662 -0.28123 0.59073 -0.38394 0.1894 0.39268 -0.16132 0.64195 0.25367 -0.8835 -0.48769 -0.13106 0.11476 0.78287 0.29699 -0.65784 0.76161 -0.5171 -0.35354 -1.0816 -0.56661 -0.017576 0.076236 0.10222 -0.16804 0.41116 1.4954 0.56203 -0.59422 -0.31773 0.73283 -0.95663 0.15132 0.3414 -0.55054 -0.36143 -0.41919 0.63678 -0.13677 0.5627 0.12203 0.38432 0.19458 -0.40421 0.40633 0.24602 -1.296 0.76033 -0.46594 0.024331 0.22502 -0.027135 0.3338 0.35482 0.12623 0.010671 -0.14953 0.084904 -0.51579 0.52173 -0.33491 -0.53925 0.31596
umbrella 0.46068 -0.53849 0.52547 -0.43609 0.44491 0.26466 -0.022054 -0.47846 -0.62756 0.18761 0.29902 0.45763 -0.080504 -0.079499 -0.42869 -0.026475 -0.096345 -0.81667 0.48381 -0.37626 -0.37611 -0.42778 0.88623 -0.21008 0.088967 -1.283 0.74478 1.1021 -0.33866 0.48133 0.11513 0.19788 -0.50683 0.042332 0.35525 0.16582 -0.23325 -1.0866 0.062331 0.34959 -0.072243 -0.11507 0.012931 -0.14223 -0.29723 -0.36627 -0.21577 -0.59647 -0.30885 0.033257 -0.92441 -0.32903 0.10853 0.64797 0.25199 -0.51565 -0.047004 -0.51411 0.56931 -0.56258 -0.4384 0.057505 0.31352 0.76787 -0.044888 -0.029779 -0.42208 0.38183 -1.0801 0.41431 0.1218 -0.7338 -0.41592 -0.87051 0.2334 -0.6136 -0.031361 0.065911 0.23226 0.083224 -0.061507 -0.0074435 0.29525 -0.020458 0.86584 -0.34423 0.67975 0.055177 -0.21261 0.35715 -0.19747 0.98476 -0.1627 0.45491 -0.18296 -0.21123 0.45094 -1.1926 -0.13589 0.51105
bench 0.9216 0.19553 0.30177 0.15213 0.36322 -0.26394 -0.34526 0.10918 -0.58974 -0.053002 0.016295 0.10278 -0.76864 -0.10337 -0.49208 0.18912 -0.19862 0.59865 -0.38058 -0.14327 -0.32416 0.050045 0.57752 -0.4383 -0.031072 0.28186 0.18263 0.6517 -1.0713 0.039702 0.53526 -0.06567 -0.33379 0.44199 0.1992 -0.052207 -1.0071 0.03137 -0.55616 0.11757 0.12158 -0.043815 0.55677 0.059271 -0.17084 -0.1503 -0.20944 -0.11765 -0.4773 0.22117 -0.27317 0.084977 -0.4187 0.26286 0.091033 -0.13959 -0.33786 0.39113 0.20413 0.78281 -0.31252 -0.23137 -0.20785 0.39136 0.033401 0.088758 1.0033 0.92089 -0.64944 0.39729 -0.40094 0.26034 0.076007 -0.080867 -0.4979 -0.47413 0.38309 -0.23288 1.1258 0.43251 0.026049 1.0141 0.25587 -0.27298 0.52372 -0.26041 0.10825 -0.21088 -0.22928 0.23038 -0.46224 0.66958 0.27499 -0.49632 0.4474 -0.32167 0.69615 0.10365 -1.06 -0.16916
clock -0.24799 0.45447 -0.47915 -0.25928 -0.0030577 -0.0021339 0.74702 0.57021 0.093388 -0.13214 0.089063 -0.26369 -0.18968 -0.26007 -0.38349 -0.1962 0.26895 -0.10708 0.24987 -0.80292 0.48949 0.18573 -0.38546 0.62642 -0.47195 0.1188 1.3599 0.26235 0.16389 -0.20921 0.63748 -0.21736 -0.19986 -0.21411 -0.98969 1.0162 -0.28495 -0.01852 0.73394 -0.31823 0.27108 -0.60772 -0.074741 0.2739 -0.33195 -0.072443 0.057376 -0.41813 -0.085823 -0.12587 0.082552 0.099941 -0.54037 0.37359 -0.99182 -1.1853 0.32624 -0.18197 -0.64893 0.073092 -0.41264 0.39258 0.24676 1.3805 0.54913 0.32239 0.71044 -0.30495 -0.83012 -0.0041629 0.088287 0.54566 0.079377 -0.62428 -0.0010116 0.012928 0.3336 -0.35052 0.2148 0.023641 -0.27805 0.78554 0.24174 0.25059 0.57663 -0.031458 0.35265 0.21884 -0.22336 -0.20381 0.33873 0.57999 1.0357 0.46097 0.64484 0.0086986 0.52453 -1.0999 -0.20474 0.62996
book -0.11492 0.097455 -0.57144 -0.37739 0.349 0.73114 -0.78048 0.81696 -0.72491 0.21969 -0.046285 -0.29201 -0.21815 -0.19319 -0.82589 -0.21355 0.59514 -0.26717 -0.42729 -0.5589 -0.091816 -0.22574 -0.14627 0.11168 -0.36916 -0.14129 -0.23472 -0.16358 0.22648 -0.54066 0.36406 0.16078 -0.030242 -0.24017 -0.34381 -0.35463 0.077547 0.63802 -0.16381 0.31247 0.0042144 0.10305 0.33961 0.412 -0.755 -0.03566 0.50866 -0.39536 -0.11832 -0.21665 -0.57107 -0.090931 0.73831 0.083349 -1.1723 -0.6783 -0.57343 -0.0068519 0.35476 0.025137 -0.68888 0.51511 0.55522 0.59714 0.14486 0.36489 0.13992 0.2382 -0.47476 0.18689 -0.83292 -0.65298 0.54578 -1.1764 0.083846 0.049112 -0.20974 -0.38562 1.0978 0.70367 -0.10252 1.7358 -0.012568 -0.46114 0.5738 -0.26552 1.4323 -0.22529 0.47624 0.85956 -0.27282 -0.097737 0.15316 0.085104 0.49626 -0.62083 0.56984 -0.61294 0.15092 -0.19682
vehicle 0.78848 0.29334 -0.74509 -0.58598 0.44988 -0.13413 -0.41775 0.2424 -0.564 0.4396 -0.045753 0.73956 0.27989 0.24063 -0.69604 0.28855 -0.045198 -0.40912 -0.56346 0.56722 -0.026276 -0.69562 0.12931 -0.25481 -0.34667 0.43712 -0.04438 0.82066 -0.10633 -0.37012 0.96561 -0.010675 -0.51996 0.1756 -0.11062 -0.66716 -0.35609 0.27646 0.4725 -0.36047 0.29909 -0.59646 0.24282 -0.066547 0.062033 -0.11628 -0.21133 -0.63031 -0.16238 0.17592 -0.70514 0.32664 0.42509 1.0172 -0.46045 -0.56193 -0.54238 -0.19623 0.35276 -0.0073155 -0.064877 -0.20738 0.12092 0.73839 -0.40869 -0.39285 -0.2265 0.21323 -0.62038 -0.36863 0.60232 0.17203 -0.057654 -0.50897 0.41599 0.11426 -0.057921 -0.57072 -0.37656 -0.69059 -0.15615 0.49745 -0.15466 -0.27053 0.30011 0.48346 0.086593 0.18159 -0.4471 -0.12424 -0.099084 1.2621 0.47444 -0.3699 0.23658 -0.34984 0.15345 0.4469 -0.051897 -0.80171
rock 0.26065 0.22268 -0.48687 0.12579 -0.30787 0.63235 0.76828 0.40907 0.44454 0.65203 0.55306 -0.1015 -0.095338 -0.37859 -0.5452 0.36369 -0.33861 -0.90085 0.053083 -0.28054 0.43447 -0.69516 -0.72368 0.23718 -0.18399 0.34719 0.35933 0.62639 0.031343 -0.14239 1.1137 -0.11896 -0.58205 -0.5397 0.30303 0.65145 0.34808 0.7252 0.14092 -0.075901 0.10895 -0.49753 0.20894 -1.0777 0.22048 0.39816 -0.37138 -0.87854 -1.0207 0.0032364 0.13795 -0.66539 -0.40049 0.30582 -0.43554 -0.44892 -0.086934 0.55172 -0.25644 0.37971 -0.34708 0.24295 -0.30164 0.67269 -0.28383 0.23221 -0.06674 0.012042 -0.41986 -0.026554 0.081118 -0.46515 -0.44082 -0.070564 -0.16596 -0.30716 -0.085005 -0.59831 1.225 -0.048916 -0.70329 0.73421 -0.35813 -0.492 0.38905 -0.5377 0.2472 0.27827 -0.64897 1.0287 0.82571 0.34193 0.70909 0.39398 0.42184 -0.67582 0.48422 0.21044 -0.093826 0.77577
flag -0.15693 -0.28594 0.052174 0.066096 0.39043 -0.24414 0.306 -0.62251 -0.25144 0.34728 0.24167 0.57368 -0.074189 0.33935 -0.72074 0.75213 -0.40629 -0.34709 -0.98161 -0.77476 -0.34741 -0.10272 0.008942 0.97768 -0.26064 -0.2566 1.6024 0.080692 0.0096169 0.24867 -0.53773 0.58399 -0.49704 -0.29192 -0.50306 -0.078012 0.37117 -0.21898 0.36626 0.24178 0.19703 0.43745 -0.26837 0.69592 -0.031359 -0.49526 -0.49342 0.26439 -0.51562 -0.18524 -0.54317 -0.30714 -0.29988 0.85529 0.25095 0.25788 -0.82508 0.11976 -0.10009 -0.10517 -0.2217 0.28656 -0.0088332 1.0604 -0.28426 -0.86067 -0.47388 -0.015642 -1.7646 0.9574 -0.39591 0.38232 -0.16997 -0.98306 0.31983 0.3645 0.15958 -0.41401 -0.50875 -0.45555 -0.12868 0.33633 0.13629 0.010802 0.47697 -0.0017671 0.39721 -0.31787 -0.77496 0.45523 0.2501 0.39229 0.28342 -0.35646 0.17691 -0.41541 0.68301 -0.57009 -0.52774 0.51793
bowl 0.084644 0.36848 -0.052885 -0.25058 0.10195 1.0466 -0.11313 0.48305 -0.41352 0.61158 0.20494 0.8633 -0.12636 0.12955 0.22195 -0.064086 0.5493 -0.50847 -0.18457 0.20831 -0.19852 0.27745 0.096347 0.23096 -0.64597 0.3902 -0.64536 -0.35954 -0.46934 0.084838 0.23709 0.69101 -0.34129 -0.0805 -0.83551 0.55086 0.00018502 0.012913 -0.13663 0.63381 0.1012 -0.79166 0.45231 0.061035 0.19604 -0.011957 0.099315 -0.79578 -0.05543 0.45196 -0.56241 -0.61284 0.11481 0.016615 -0.69558 -0.11819 -0.33952 0.13597 -0.081285 -0.75844 0.23404 -0.57947 -0.10106 0.042617 0.29278 0.17991 0.039104 0.69045 -1.0709 0.78953 -0.5069 -0.4651 -0.67276 0.2186 0.33992 -0.17459 0.15692 -0.48996 -0.48281 0.98047 -0.877 1.1287 -0.11129 0.059723 1.0202 0.40684 0.57525 0.045461 0.097783 0.38718 -0.24122 -0.34457 0.030557 -0.029834 0.83711 -0.6921 0.057511 -0.083023 0.43856 0.66579
tower 0.30285 0.033869 -0.28886 0.0058906 0.38153 -0.066804 0.1614 0.30577 0.39336 -0.2925 0.50536 0.07805 0.3457 0.5088 -0.30891 0.091318 0.024403 0.17143 0.15923 -0.070301 0.036122 -0.64732 -0.38844 0.18834 0.13664 0.052068 0.51994 0.39148 -0.25 0.087587 -0.55677 -0.33476 -0.15027 -0.42215 -0.59661 0.19237 0.079102 0.17082 1.0158 -0.16274 0.69243 -0.43603 0.39866 0.15253 -0.068129 -0.11855 -0.055414 -0.36986 -0.78709 0.1973 0.029034 -0.37677 -0.52401 1.4252 0.17763 -1.2355 -0.35269 -0.64751 -0.164 0.0059226 -0.2197 0.042092 -0.21969 1.3977 0.52258 0.43977 -0.0017708 -0.19238 -1.0254 -0.29264 0.36773 0.84747 0.38926 -0.54479 0.16857 -1.1808 0.38107 0.2578 0.60586 0.17616 -0.19495 0.35978 0.357 -0.4863 0.24702 0.072976 -0.12129 -0.41974 -0.095355 -0.38723 0.20045 0.3939 0.22413 0.49523 1.2243 -0.43292 -0.47198 -0.56844 -0.51005 0.25724
coffee -0.18156 0.47286 0.27687 -0.32757 0.12222 0.66541 -0.37263 0.28305 0.1482 0.2486 0.27032 0.77824 -0.09552 -0.32939 -0.13748 0.12541 0.098804 -0.3696 -0.53105 -0.40372 -0.91957 -0.18415 0.21652 0.020835 -0.059955 0.47989 -0.51173 0.48796 -0.13133 -0.31509 -0.016825 -0.12318 -0.60336 0.22959 -0.72486 0.014438 -0.6139 0.10652 0.18124 0.67546 0.28246 -0.45741 1.2144 0.4298 -0.085371 0.35113 0.67289 -0.27467 -0.066867 -0.47237 -0.54949 0.10386 -0.15711 0.080556 -0.7743 -0.8018 -0.50939 0.69519 -0.36204 0.47489 -0.31588 -0.36489 -0.22125 0.79789 -0.28619 0.27667 0.087269 0.75024 -0.57321 0.031017 0.25546 -0.64219 0.3659 -0.37641 -0.20339 -0.33778 0.16496 -0.56342 0.23782 0.77771 -0.52449 0.86269 0.68478 -0.4715 0.50123 -0.24973 0.40559 0.34389 0.27707 -0.22583 -0.18457 -0.55286 0.16714 -0.40632 -0.59608 -0.59551 -0.25308 -0.29226 0.071992 0.70525
mirror -0.79071 0.77685 -0.4792 -0.39559 0.48627 -0.68163 0.60202 0.6388 -0.48848 0.43963 0.38004 0.32452 -1.3019 1.0289 -0.28054 0.59613 0.60123 -0.33375 0.34942 0.41968 0.36862 -0.45469 -0.17979 0.56039 -0.18593 0.12979 -0.42988 -0.13027 -0.44575 -0.5239 0.063055 0.49493 -0.51084 0.068844 -0.73923 0.31292 0.834 0.0053169 -0.29383 0.59877 0.0039744 -0.37937 -0.33251 0.4228 0.65966 -0.30409 0.16684 0.23617 -0.117 -0.10457 -0.19804 -0.33036 0.15295 -0.068299 -0.3374 -1.1932 -0.54387 -0.15845 0.58893 0.12939 -0.28774 -0.3811 0.6087 0.82108 -0.026797 0.29107 0.70635 0.049667 -0.33451 0.83261 -0.32764 -0.024542 -0.034142 -0.3806 -0.37787 -0.21871 -0.14176 0.60676 -0.098553 0.12809 -0.47219 0.91469 0.53302 -0.54991 0.67243 0.57369 0.43177 -0.11368 -0.065028 -0.16874 0.38254 0.54431 0.77514 -0.27516 0.054413 0.39372 0.64705 -0.028512 0.19777 0.18046
tennis 0.64455 0.039612 0.36109 0.28877 0.39149 0.33835 0.11326 0.074846 0.073271 0.23378 -0.29339 0.9825 -0.14982 -0.56799 -0.48979 0.015739 -0.37002 0.31639 -1.2943 -0.62685 -0.034034 0.04267 0.49563 0.44783 0.37453 -0.58825 0.17529 0.61839 0.40143 0.21345 0.28325 0.65847 -0.67866 -0.14829 -0.33075 0.0062539 -0.24997 0.095462 0.44218 0.39922 0.79786 -0.67011 0.28274 0.53861 -0.41049 -0.042322 0.040081 -0.19594 -0.2811 0.60265 -0.37582 0.55992 1.3933 0.40581 0.37175 0.41097 -0.37775 -0.14511 0.14891 -0.18681 0.51695 -0.5883 0.46398 1.08 0.29722 0.21815 -0.095401 0.77575 -0.24482 -0.3783 -0.67662 0.19362 0.36495 0.32227 -0.018264 -0.11765 -0.22495 -0.37306 0.29926 -0.066769 -0.93852 0.40041 -0.20284 0.37229 2.0195 0.49848 0.26262 -0.0060241 0.51827 0.51624 -0.39492 0.53548 0.51708 -0.0051755 -0.08853 -1.1445 -0.92382 -1.3888 -0.2847 0.52088
kitchen 0.43754 0.34397 -0.39158 -0.16771 0.40742 -0.24287 0.41428 0.076877 -0.69584 -0.049581 0.28224 0.54084 -0.25832 0.21028 -0.35355 -0.34723 -0.1551 -0.2219 -0.070318 -0.5629 0.25003 -0.025789 -0.16053 0.32058 -0.23568 0.062 -0.81615 0.22967 -0.29426 0.27074 -0.007211 -0.62029 -0.97615 0.1434 -0.69305 0.21401 -0.59315 0.2232 -0.053247 -0.092949 0.37128 -0.094234 0.13184 -0.14614 0.4654 -0.071352 -0.073586 -0.35254 0.51055 -0.17412 -0.526 -0.041547 0.27052 -0.30917 -0.68536 -0.66064 0.013775 0.22587 0.4667 -0.50344 0.52874 -0.36194 0.32455 0.3783 0.085316 0.095015 0.43468 0.47011 -0.68845 -0.15856 0.18194 -0.66827 0.12228 0.15686 -0.35238 -0.75408 0.56492 0.88837 0.44515 0.45323 -0.31377 0.4578 0.76516 0.46692 0.92968 0.1208 0.30136 0.010735 -0.49393 0.069462 0.049788 -0.13451 0.94159 -0.31985 0.26244 -0.49787 -0.35607 -0.19796 0.3091 0.75558
square 0.064086 0.31193 -0.20414 -0.24508 -0.19169 -0.23245 -0.3577 -0.056983 -0.084532 0.1849 0.091609 0.35048 -0.27081 0.11349 -0.6235 0.20303 0.033243 -0.2225 -0.31788 -0.27277 -0.24909 0.13644 0.69388 -0.10444 -0.14554 0.25369 0.058227 -0.16652 -0.25935 0.19025 0.35102 0.032607 -0.83878 -0.38475 -0.35045 0.15143 -0.1111 0.096901 -0.19917 -0.20201 0.0067854 0.19083 0.43271 0.045356 -0.12779 -0.026209 -0.72025 -0.56171 -0.38265 0.54741 -0.47813 -0.42931 -0.2111 0.9139 -0.64455 -0.66332 -0.038145 0.28361 0.053226 0.055465 -0.32655 -0.18497 -0.0004423 0.80617 0.014851 0.060272 0.20679 0.33504 -0.10123 0.25233 0.13013 -0.30144 -0.10333 0.1757 -0.24636 -0.067207 0.53288 0.49536 0.42878 0.24869 -0.39981 0.55036 0.86736 -0.51934 0.42158 0.25874 -0.45479 0.30475 -0.10548 -0.88363 0.059152 -0.23218 -0.1239 -0.097111 -0.83954 -0.75278 0.60088 0.19134 -0.041731 -0.26084
dog 0.24015 -0.069002 0.099293 0.6231 0.49875 -0.08662 0.18684 0.22116 -0.58147 0.42326 0.5327 0.60293 -0.43 0.44419 -0.23983 -0.56552 -0.13497 0.22488 -0.67972 -0.1355 -0.84642 -0.39308 0.66327 0.14199 -0.49476 -0.10661 0.5511 0.22195 0.39186 -0.73133 0.33479 0.0096628 -0.39119 -0.39463 -0.22366 -0.1465 -0.45876 0.33339 -0.5693 0.66129 1.0676 -0.64776 -0.13748 0.38548 0.51541 -0.47135 -0.096762 0.049316 -0.2489 0.81786 -0.55665 -0.15717 0.83881 0.22609 0.097761 -0.062547 -0.17154 -0.058263 -0.24421 0.24485 -0.61529 -0.36459 -0.81281 0.09895 0.019146 0.012229 -1.0439 0.53778 -0.0066667 -0.16551 -0.4478 -0.050322 -1.0406 -0.14062 0.12655 -1.357 0.46219 0.15689 0.94054 -0.30506 -1.1279 0.75522 0.50753 -0.016666 0.62332 0.3235 0.15973 0.24537 -0.014141 0.0063467 -0.80518 -0.1009 0.37455 0.66294 -0.53907 0.13334 0.76426 0.50068 -0.33529 -0.28593
leg -0.30842 -0.63793 0.10861 0.41824 0.8403 1.1191 -0.75498 1.0285 0.18448 0.52613 0.28197 1.0016 -0.16036 0.16901 -1.0084 0.060645 -0.12026 0.51186 -0.73872 0.016408 -0.46458 0.037602 -0.5674 -0.011165 0.41548 -0.42119 -0.28001 0.3005 -0.68867 -0.34463 -0.7871 0.5986 -0.26832 0.27647 -0.25407 -0.32043 -0.12865 0.46736 -0.4498 0.54873 0.49159 -0.93445 -0.058584 -0.61249 0.0012532 -0.093857 -0.0046613 -0.28687 -0.42887 0.060639 -0.43845 0.59639 -0.21216 0.35937 0.56698 -0.88287 -0.1798 0.053279 0.1816 -0.047356 -0.57387 0.14736 0.51732 0.79334 -1.1548 0.22443 1.0989 0.5558 -0.28475 0.57497 0.33162 0.58906 0.018308 -0.58162 -0.061106 -0.90973 -0.030542 -0.041552 0.46997 -0.38286 0.15658 0.63193 0.20622 0.30097 0.53214 -0.85644 1.0419 0.14253 -0.13319 0.7178 -0.47575 0.55338 1.0297 0.20576 -0.50847 -0.29586 0.38887 0.009369 0.080106 0.03516
leaf 0.64921 -0.20054 -0.55476 0.50094 0.33162 1.2521 0.12967 0.16612 -0.074722 -0.048572 0.50363 0.49023 -0.71386 0.077134 -0.4504 0.68113 0.68196 -0.94175 -1.1074 -0.29639 -0.6685 0.53198 0.89451 0.39559 0.24007 0.11991 -0.92535 0.090518 0.12818 -0.97941 -0.24408 -0.38197 -0.48833 0.11611 0.52141 0.31977 0.67668 0.24384 -0.29698 -0.54025 0.48606 0.22866 0.46091 0.18703 0.098561 -0.013154 -0.91082 -1.011 -0.78178 0.17491 -1.0553 0.44853 -0.71712 0.95784 0.56839 0.27171 -0.4194 0.023551 0.68104 0.08396 -0.081634 -0.32377 -0.37491 1.1865 -0.25184 -0.45695 -0.048275 -0.090001 -1.021 0.63026 0.26841 -0.19889 -0.67643 -0.58076 -0.23331 0.16485 0.37721 -0.011066 0.79596 -0.17038 -0.74069 0.93406 -0.17585 -0.91896 0.60581 -0.89071 0.16107 0.60151 0.47194 0.17558 0.011371 0.66213 -0.26934 0.030803 0.27785 -0.073918 0.18913 0.39715 0.054838 0.36232
mountain 0.42206 -0.41758 -0.41851 -0.74043 0.044332 -0.082458 0.32565 -0.037981 -0.30534 0.18489 -0.079967 0.097596 -0.49186 -0.48675 -0.57062 0.14266 -0.3186 -0.51937 -0.46214 -0.005272 0.19857 -0.80798 -0.068022 0.40518 -0.045479 0.6502 0.064268 0.61267 0.064207 -0.65349 0.067587 0.96092 0.18305 -0.83793 0.19425 0.5573 0.78627 -0.014312 -0.58578 0.17919 -0.046467 -1.2306 0.946 -0.090883 0.69147 0.14693 0.25196 -1.1352 -0.75602 -0.029022 -0.79688 -0.8977 0.127 0.35885 0.01522 -1.081 -0.79079 -0.11639 -0.043484 0.26639 0.56168 0.36599 -0.31442 0.48658 0.17068 -0.55218 0.34272 -0.49056 -0.92716 -0.2196 -0.37385 0.55144 0.34979 -0.22629 0.61397 -0.42142 0.27685 -0.28834 0.86687 -0.12962 -0.38499 0.5518 0.45253 0.099984 -0.04478 0.050095 -0.17527 -0.71481 -0.32807 0.53549 0.26145 0.53965 0.44884 0.39584 0.73902 -0.159 -0.68579 0.29753 -0.36479 0.080285
pot 0.12375 0.71661 0.13871 -0.43207 0.72835 0.21825 -0.16721 -0.22108 0.29316 0.13251 0.34536 1.4432 -0.53906 -0.03101 0.025735 0.13309 0.3341 -0.59601 -0.56034 0.28927 -0.60296 -0.27913 0.78708 0.44986 -0.47105 0.05076 -0.65437 0.93279 -0.057547 -0.64259 0.77875 0.20595 0.098177 0.11645 -0.7112 0.21446 0.59974 0.43233 0.060444 -0.17692 0.41457 -0.54538 -0.21314 0.22892 0.3107 -0.49308 -0.056244 -0.96746 -0.76055 0.3702 0.24475 0.24683 -0.67812 -0.010834 -0.65992 -0.36034 -0.23267 -0.018583 -0.14735 -0.32739 0.31305 -0.32325 0.23793 0.24415 0.62166 0.28404 -0.58655 0.93255 -1.2341 0.054354 0.48318 -0.36086 -0.6438 -0.22615 -0.22898 -0.47232 0.24866 -0.31542 0.56262 -0.010923 -0.63796 1.0143 0.283 0.44476 -0.11242 -0.75882 0.36181 0.27733 -0.44086 0.081566 -0.45338 -0.33778 0.34502 0.42991 0.21416 -1.5098 -0.20362 -0.79379 -0.24287 1.0825
face -0.32125 0.38166 -0.22787 -0.25388 0.10724 0.65576 -0.18516 0.58327 -0.75012 -0.31904 0.84537 0.16033 -0.18465 -0.077418 -1.0657 0.022336 -0.074737 0.33784 0.0043753 -0.48201 -0.68382 0.45289 -0.0070815 -0.36276 0.00067118 0.18044 0.55932 -0.1604 0.037765 0.18399 -0.099173 -0.030722 -0.62412 -0.78358 -0.10269 0.59907 0.42386 -0.43305 -0.50035 0.012739 0.68434 -0.13972 -0.70141 -0.92055 -0.12693 0.1069 0.010055 -0.12167 0.25202 -0.18003 0.054007 -0.026961 0.20394 0.25528 0.035403 -1.3599 -0.46678 -0.18957 -0.1395 -0.28679 -0.15935 0.66888 0.58556 0.75251 -0.64419 0.73662 0.77708 -0.33101 0.18877 0.44917 0.36247 0.35342 0.58968 0.16565 -0.60774 -0.67342 0.03317 -0.36144 0.34745 0.51923 -0.082522 0.68668 -0.10757 0.10217 1.5709 1.084 0.44984 -0.79454 0.23572 -0.097794 -0.72387 0.90284 0.98499 0.68164 0.8806 -0.68765 0.13427 -0.43252 0.39957 -0.40363
beach 0.57112 -0.3421 -0.25734 -0.13038 -0.45509 0.13504 0.62787 0.2511 -0.42225 0.27629 0.42935 0.3356 -0.00097346 -0.31064 -0.59437 0.1309 -1.0248 -0.44603 -0.0095289 -0.16523 0.031089 -0.50789 0.052755 -0.11275 -0.10376 -0.26305 0.03457 0.19823 -0.073443 0.46082 0.071314 0.31075 -0.52699 0.35096 0.27601 0.45869 0.022497 0.20561 -0.42096 1.0698 0.28595 -0.15341 0.5206 -0.45757 -0.49874 -0.75523 -0.00076916 0.065779 -0.49377 -0.017757 -1.1419 0.072397 0.73164 0.47549 0.46493 -0.11025 -0.022817 -0.61386 0.83835 -0.33644 -0.34607 0.55511 -0.33757 0.92176 0.1261 -0.3165 0.21286 0.59907 -0.17747 0.46296 -0.52086 -0.48761 -0.082159 -0.3219 -0.44323 -0.79601 0.36742 -0.55153 1.3856 -0.046925 0.014974 0.35406 -0.34592 0.13309 0.27524 -0.24617 -0.12927 -0.144 -0.35347 0.5099 0.78387 0.80138 0.5748 -0.33273 0.31084 0.023682 0.25779 0.38705 -0.50836 0.44048
wine 0.64501 0.61455 -0.14194 0.017414 0.67946 0.69804 -0.026831 0.92226 -0.65723 0.2121 1.2307 0.49353 -0.2509 -0.11032 -0.23815 -0.31639 0.26538 -0.10169 -0.40976 0.10103 -0.2565 0.27871 0.44915 0.055201 0.25646 0.11775 -0.36768 -0.33172 -0.61515 -0.16392 -0.4787 -0.013951 -0.46338 -0.011396 -0.56594 0.5334 0.0072865 0.20361 0.32267 0.26882 0.37086 -0.13704 0.023461 -0.42593 0.050869 -0.24659 0.45221 -0.06626 -0.5786 0.091879 -0.78018 -0.62674 0.6297 -0.10655 -0.27232 -0.67457 -0.5868 -0.59938 -0.1511 0.037842 -0.65701 -0.1568 -0.15618 0.81522 0.83562 -0.21244 0.62391 0.15667 -1.3607 0.48836 0.54195 -0.39701 0.46998 -0.66446 -0.59697 0.11923 0.21837 0.036023 -0.19248 0.25605 -0.40192 0.94415 0.091135 -0.82367 0.59893 -0.52715 0.6845 -0.37297 0.57724 0.5819 -0.10301 0.292 -0.4381 -1.1749 0.7218 0.4373 -0.82484 -0.93772 0.71149 0.062043
horse 0.66841 0.14881 -0.18227 -0.54565 0.7576 0.49972 0.11649 0.76213 -0.11407 -0.39846 0.28316 0.141 -0.26459 0.3226 -0.12539 -0.99934 -0.19219 0.42731 -1.2914 0.076235 -0.66857 -0.9714 -0.064551 -0.43369 -1.1605 -0.094744 1.5593 0.56147 0.46651 -0.18449 0.30999 -0.10327 -0.32951 -0.57696 0.34568 0.85282 -0.098378 0.047714 0.020186 -0.025867 -0.34847 -0.39697 0.24403 -0.0080434 -0.27849 0.51772 -0.26438 -0.39286 0.10384 0.58938 -0.20926 -0.55162 0.99859 0.28596 -0.0057576 -0.53803 0.43762 -0.20647 0.18922 0.21866 0.52763 -0.043171 -0.56247 0.50833 -0.62795 -0.45583 -0.44735 0.66985 -0.74954 0.58234 -0.63923 0.21843 -0.26045 -0.47194 0.11105 -0.56788 -0.00981 -0.01507 -0.093961 -0.34685 -0.3178 0.62491 -0.39667 -0.57837 1.1753 0.3977 0.22277 0.11332 -0.64932 0.55582 -0.5246 0.61137 0.71696 -0.45597 -0.46305 0.58801 0.70456 0.3981 -0.31118 -0.73365
helmet 0.29044 0.43092 0.14858 -0.57558 -0.39868 0.10118 -0.16873 -0.15375 -0.49141 -0.038237 -0.31975 0.76299 -0.52765 0.28339 -0.68086 0.15666 -0.37259 0.097105 -0.70161 0.52033 0.14577 -0.18755 0.042964 1.3932 -0.30921 -0.017436 0.5257 0.65245 0.099992 -0.48589 0.50428 0.89536 -0.5939 0.33687 -0.034797 -0.22186 0.10921 0.29927 0.12423 0.012462 0.28372 -0.49158 -0.37871 -0.17478 -0.18569 -0.21045 -0.98823 0.18944 -0.40491 0.66446 -0.70071 0.24854 1.0074 0.1151 -0.23677 -0.4562 -0.84088 -0.66499 0.1719 -0.1341 0.0081555 0.055375 0.096134 1.253 -0.052913 0.54013 0.052367 -0.72345 -0.4843 0.80753 0.1272 -0.090763 0.038208 -0.80626 -0.035297 0.25275 -0.36386 0.53451 -0.26634 0.16465 -0.3671 0.8103 -0.32366 -0.14715 0.78287 0.36433 0.93349 -0.20241 0.13302 0.68988 -0.58647 0.3057 1.1187 -0.23049 0.3777 0.29537 0.079092 -0.21547 0.31038 -0.14521
body -0.27307 -0.63896 -0.49359 0.86263 0.48139 0.73584 -0.092701 0.24295 -0.14941 0.00090862 0.62602 0.20541 -0.62885 0.27116 -0.7546 0.3231 0.10481 0.40382 0.33388 -0.2787 -0.023689 -0.50352 0.40467 -0.23659 -0.34253 0.50504 0.27546 0.35058 -0.36144 -0.33769 0.80297 0.20263 -0.49248 -0.59012 0.037939 0.096867 0.75816 -0.10539 -0.33744 0.71168 0.12148 -0.24051 0.12126 -0.079524 -0.38443 -0.47071 -0.052466 -0.43648 -0.83798 -0.34666 -1.1337 -0.88252 0.35657 0.28151 0.2432 -0.89029 -1.1948 -0.45059 -0.00076619 -0.23268 -0.56461 0.12329 -0.026147 0.52698 -0.4308 -0.0162 0.35315 0.59437 0.11351 0.7889 -0.011678 0.062905 0.63841 -0.15867 -0.32089 -0.38113 -0.26281 -0.50933 -0.054455 -0.17915 -0.46944 0.58971 0.52688 0.48263 0.19809 0.79863 -0.31628 -0.84715 -0.44584 1.0943 -0.059408 0.84238 0.65263 0.79037 0.49198 -0.46742 -0.098624 0.31355 -0.073029 0.67176
toilet 0.91753 0.21364 -0.87609 -0.19052 0.1941 -0.38953 0.28001 0.83307 -0.62148 0.24938 0.30217 0.74436 -0.8404 0.32895 0.33582 -0.14018 -0.11151 -0.7755 -1.1714 0.0057218 -0.59849 -0.78089 0.54958 -0.12999 -0.54542 -0.16234 -0.26119 -0.27162 -0.091344 0.5685 -0.30812 1.3689 0.5076 0.34073 -0.34601 0.085078 -0.056181 0.3352 0.85661 -0.087884 0.24775 -0.29632 0.95551 0.039988 0.24274 -0.24674 -0.050916 -0.31003 0.2377 -0.43788 -0.90916 -0.26289 0.36805 -0.50249 -0.28915 -0.59207 -0.77754 0.024713 0.62662 -0.34651 -0.44054 -0.98968 -0.029787 0.90268 0.60155 0.1779 0.065801 1.0195 -0.83683 -0.32631 0.13359 0.53494 -0.17705 -0.5615 -0.27715 -0.56565 0.4881 0.7247 -0.062518 1.1776 -0.76034 0.72797 0.18867 -0.68773 0.82041 -0.065456 0.43585 -0.95328 -0.19321 -0.83773 -0.12654 0.30367 0.44152 0.18127 0.31095 -0.61994 0.16114 -0.21015 0.072257 -0.5598
seat -0.075559 0.05542 -0.073181 0.072251 0.093295 0.30484 -0.22532 -0.36531 -0.22007 0.29512 -0.17406 0.46717 -1.4204 0.90322 0.095799 0.61712 0.12544 -0.59474 -1.0495 0.84225 0.19336 -0.43653 0.23851 0.11919 -0.47105 0.50073 0.13891 0.24897 -0.89499 -0.18134 -0.47304 0.36793 0.67971 1.3028 -0.35763 -0.57034 -0.73019 0.86559 0.30955 0.47505 0.074269 -0.59638 0.12404 0.11464 -0.18388 -0.025234 -0.61535 0.11611 -0.85307 -0.2392 -1.0442 0.33145 -0.53834 0.72296 -0.26555 -0.71099 -1.0107 0.076353 0.62284 -0.27862 -0.48376 -0.21511 0.26387 0.37867 -0.11324 0.078622 0.5505 0.58359 -0.29008 0.44724 -0.43505 0.13043 -0.25436 -0.48101 0.17899 -0.28954 0.45473 0.31311 0.18454 0.41959 -0.40301 0.65219 -0.25068 0.18824 0.7738 0.38587 0.48285 -0.48204 0.51259 0.74753 -0.61047 -0.14948 1.2472 -0.0015015 -0.29537 0.22248 0.78495 0.28915 0.34061 0.3131
mouse 0.033457 0.73536 -0.039727 -0.034219 -0.016324 0.21418 -0.76717 1.0258 -0.10167 -0.46064 0.03544 -0.63103 -0.085653 0.34042 -0.89843 0.58612 -0.22113 -0.088692 -0.47818 -0.28496 -1.0008 -0.6311 -0.24517 0.29102 0.1181 0.31344 0.76339 0.69214 0.14862 -0.90627 -0.24686 0.93837 -0.65903 -0.111 -0.57886 -0.31258 -0.17154 0.68224 0.22364 -0.0033681 1.0823 -1.0465 0.9402 -0.31869 -0.40337 0.12167 0.1684 -0.76674 0.28771 0.75434 -0.46 0.025516 -0.060825 1.3522 -0.18647 -0.39557 -0.19324 -0.36061 -0.30806 -0.4474 -0.27948 -0.4818 -0.16368 0.57591 0.45537 -0.038755 -0.10706 0.16458 -0.82962 -0.28639 0.60075 -0.083293 0.89543 -0.77118 0.86467 -0.079083 -0.085717 0.19016 0.53782 0.8684 -0.60747 0.65514 1.0355 -0.43613 1.1678 0.31781 0.304 0.024896 0.056971 0.78648 0.52087 0.0087386 0.090781 0.20353 0.56451 -0.78412 0.34626 -0.1038 0.13014 -0.016857
cap 0.72698 0.14794 0.14103 -0.063673 -0.13962 -0.32206 0.17237 -0.24669 0.12319 -0.1682 0.0039976 0.78888 -0.49782 0.14305 -0.90071 -0.084661 -0.2616 -0.14771 -0.52223 0.53551 0.034863 -0.045578 -0.12621 0.38322 -0.52008 0.35018 -0.036541 0.033133 -0.094144 -0.28984 0.79925 0.17612 -0.45701 -0.46378 0.12211 -0.61128 -0.1744 0.42745 -0.26256 0.093122 0.76061 -0.21642 0.3006 -0.9674 0.48878 -0.2889 -0.86676 0.30466 -0.15564 0.022579 -0.11077 -0.81886 0.31437 0.22599 0.080728 -1.2254 -0.39691 -0.80257 -0.071896 -0.32614 -0.7031 0.18718 0.24489 1.2575 -0.43289 -0.11881 0.28835 -0.19149 -0.44557 1.1441 0.61553 0.61759 0.99453 -0.53493 0.36144 0.098184 -0.15843 -0.44159 0.021189 0.58473 -0.77953 0.58941 0.44487 0.022647 0.78178 -0.41976 0.62376 -0.29704 0.20021 0.32519 -0.46184 -0.46152 0.7615 0.02033 -0.2274 -0.16145 -0.33148 0.29317 0.32442 0.16804
cat -0.091593 -0.022984 -1.0051 0.17005 0.66266 0.44474 -0.049582 0.6565 -1.0499 0.51075 0.24 0.56662 -1.1024 0.076559 -0.22284 -0.13865 0.23134 0.061294 -1.0993 -0.16732 0.01651 0.24276 0.53291 0.23756 -0.42119 0.47787 0.91206 0.80194 -0.5886 -0.12452 0.50383 -0.46853 -0.33668 0.014318 -0.51509 -0.55238 -0.4319 0.6016 0.3831 0.49231 1.1979 -0.64113 0.48479 -0.12706 0.1548 -0.14615 -0.87468 0.027349 0.23179 0.08239 0.54082 0.059027 0.27618 0.053786 0.28038 -0.56572 0.54738 -0.25325 0.042702 -0.15262 -0.72606 -0.29952 0.27758 1.1373 0.081634 -0.38768 0.0045504 0.2294 0.33077 -0.34049 0.39574 -0.125 -0.50003 -0.65934 0.94539 -1.0164 0.98127 -0.52855 1.2153 0.39685 -0.34429 0.46731 0.2445 -0.30675 0.66259 0.015591 0.48297 0.16519 0.44834 0.36113 -0.52544 -0.084342 0.99132 0.89319 0.10116 0.053451 0.66214 0.12191 0.28319 -0.412
bridge -0.0026611 -0.22956 -0.43242 -0.091945 0.62834 -0.23271 0.48146 0.26468 0.16726 -0.25907 -0.15951 0.5466 -0.23432 1.0127 -0.40034 0.16504 -0.17593 -0.20183 0.14154 -0.41516 -0.013895 -0.022435 -0.2521 0.20895 0.37846 -0.32357 0.3253 1.1065 -0.22789 0.048813 0.60795 -0.2659 -0.77828 -1.2101 -0.23234 0.45067 0.33276 0.13278 0.51542 0.53768 -0.10954 -0.091153 0.53345 -0.17435 -0.48966 0.44213 -0.38524 -0.95358 -0.63851 -0.23399 -0.51616 -0.9469 0.55844 0.11553 -0.14644 -0.41091 0.4735 -0.54662 0.31649 0.020895 0.49313 -0.49402 -0.24814 0.070974 -0.0054364 -0.054318 0.78388 -0.13609 -0.72921 0.20235 -0.63046 0.30085 0.45488 -0.77179 -0.38237 -0.86339 -0.20157 -0.30581 0.90006 -0.34254 0.23993 0.46288 0.23431 -0.79608 0.42734 -0.46965 -0.42697 -0.61829 -0.65831 -0.10247 -0.036014 1.1719 1.0545 -0.19329 0.52448 0.10427 -0.065419 0.12891 -0.24452 0.26628
screen -0.40856 0.9586 -0.24443 -0.34269 -0.093561 0.62039 0.054368 0.40235 -0.40582 -0.078298 -0.20477 0.06975 -0.64656 0.0084423 -0.81545 0.63015 0.35415 -0.75404 0.45328 -0.16884 0.24383 -0.14352 -0.132 0.33175 0.036755 -0.0052935 0.38824 0.48095 0.58028 -0.74219 0.54322 0.62987 -0.53448 0.19173 -0.058288 -0.041068 0.17215 0.3647 -0.23709 -0.53179 0.47081 -0.29557 0.68712 -0.2404 0.14594 0.19949 0.24446 0.076805 -0.21448 0.14678 -0.33666 -0.037306 -0.28536 1.4383 0.023159 -0.48585 -0.11069 -0.11671 1.0171 0.21481 -0.73941 -0.079091 -0.073136 0.5874 0.25222 0.61206 -0.40744 0.046169 -1.3467 0.071602 0.10277 0.20194 1.0335 -1.5618 0.014204 -0.38229 0.55433 0.42909 -0.14912 0.44202 -0.73102 0.3036 0.27903 -0.0064534 0.34474 1.271 -0.012343 0.076044 0.053475 0.052927 0.40671 -0.19882 0.4713 0.37429 -0.35426 -0.24834 0.45445 -0.68325 -0.73914 0.59752
cloud 0.17067 -0.27215 -0.91583 0.83517 -0.6899 -0.17534 0.67576 0.98343 0.03026 0.31749 -0.27549 1.0544 -0.35751 0.60357 -0.8769 0.612 0.80189 -0.8827 -0.30705 -0.59307 0.45504 -0.31164 0.099686 0.46247 -0.31147 0.058936 -0.076228 0.4978 0.30099 -0.15753 -0.12208 0.7087 -0.06061 -0.11046 0.39583 1.372 0.47748 -0.13866 -0.27979 0.29358 0.23838 -0.27042 0.39282 -0.092211 0.26626 -0.28549 -0.74139 -1.2903 -0.45055 -0.18861 -0.63797 -0.67022 0.46443 0.86326 -0.79563 -1.0931 0.2899 0.59089 -0.51202 0.30219 -0.48071 0.28821 -0.64395 1.5731 0.68949 -0.07166 0.19172 0.17721 -0.61198 -0.36126 0.29522 -0.65903 0.63502 -0.88652 1.1694 -0.12851 0.53004 -0.70869 -0.099886 0.21682 0.14397 0.48411 0.28082 1.0433 0.53014 0.80585 1.2017 0.33041 -0.074431 0.69758 0.66932 0.92192 1.5709 0.24342 0.71599 -0.25509 0.17578 0.22843 0.11565 0.37183
bird 0.33454 -0.069844 -0.65158 -0.12207 0.22484 0.52642 1.0426 0.22771 -0.49255 -0.24495 0.64557 0.71168 0.79457 0.26376 -0.32495 -0.036027 0.65857 -0.46824 -0.88362 -0.65092 -0.2758 0.28803 0.75348 0.020685 -0.018382 -0.18992 0.86936 0.53164 0.57069 -0.48443 -0.015947 0.11203 -0.15064 -0.39974 -0.14397 0.32612 0.4628 -0.097997 0.2849 0.86388 0.44037 -0.81016 -0.13412 -0.073195 -0.080464 -0.25983 -0.52882 -0.018336 -0.1791 -0.17504 -0.40276 -0.42883 0.41169 -0.043019 0.26332 -0.19751 0.0057201 0.26411 -0.3613 0.6442 -0.72385 0.23438 -0.60756 1.1709 0.17354 -0.01045 -0.26816 0.37992 -0.74873 0.36572 -0.038549 0.70754 -0.42054 -0.39292 0.31333 -1.4185 0.18473 -0.28385 -0.32424 -0.27315 -0.3976 0.67006 0.034923 -0.26871 0.48158 0.080088 0.50642 -0.49403 0.003314 0.2604 -0.16071 -0.10038 -0.25949 0.24837 0.16742 -0.2421 1.2367 0.15163 -0.38298 0.7994
ear -0.29771 0.77898 -0.4332 -0.3319 0.51003 0.59091 -0.36653 1.5633 -0.74873 0.81237 0.1458 -0.13057 -1.0653 0.049243 -1.2443 0.39257 -0.015019 0.5978 -0.83912 0.05045 -0.76517 -0.41581 -0.64351 0.52016 0.10084 0.065604 0.068436 0.11774 -0.032212 -0.76916 0.14264 0.94926 -0.16345 -0.46712 0.40345 0.30526 0.17126 0.22143 -0.57457 0.98648 0.25442 -0.41341 -0.089049 -0.50654 -0.10786 0.27512 0.3196 -0.94117 -0.15075 0.43373 0.85235 0.68982 0.22915 0.92424 -0.0048324 -0.80032 -0.35655 -0.25513 -0.086506 0.0075571 -0.22295 0.72244 0.41509 0.34864 -0.36241 -0.072442 -0.48711 0.8115 -0.76913 1.1477 0.88527 0.4802 -0.14605 -0.042597 0.020926 -1.2814 0.62074 0.14142 -0.37933 0.065805 0.13049 0.35717 0.57819 0.14891 0.16708 0.15465 0.99881 0.26667 0.03041 0.54851 -0.60077 0.96262 0.53436 -0.15358 1.0444 -0.14102 0.38968 0.21127 0.53786 0.0069171
shoe -0.042589 0.10933 0.95612 -0.47098 -0.14025 1.1119 -0.23555 0.15572 -1.209 0.22249 0.056167 0.65235 -0.2297 -1.0012 -0.86525 0.4042 -0.33061 -0.45304 -1.2996 -0.348 -1.0521 -0.28023 -0.37408 0.53482 0.20534 0.1342 0.12555 0.61416 0.59931 -0.31076 0.090937 1.2454 -0.52651 -0.46765 -0.24754 -0.28028 0.2552 0.90083 1.1901 0.51117 0.96344 -0.97779 0.13103 -0.27416 -0.50284 -0.5609 -0.659 -0.30559 -0.16618 0.27022 -0.68117 0.46097 0.24272 0.35101 -0.40697 -0.4555 -1.1078 -0.23633 0.62755 -0.35823 0.53039 0.31312 0.20266 0.5043 0.10974 0.28693 -0.026278 0.34648 0.093028 0.48844 -0.11662 0.58066 -0.074574 -0.37829 -0.4622 0.43573 -0.555 0.588 0.46279 -0.018139 -0.76686 0.83518 -0.28872 0.087393 0.27869 0.75117 1.3187 0.87953 0.54817 0.43687 -0.64138 -0.021308 0.88522 0.10967 0.042555 -0.1468 -0.30728 -0.8464 -0.41271 0.24309
ski 0.84088 -0.043277 -0.027335 -0.28946 1.0305 -0.090638 -0.042718 -0.85496 -0.30149 -0.76877 -0.3951 0.27811 -0.05102 -1.228 -0.5824 -0.22155 -1.2277 -0.14397 -0.38494 0.3506 -0.56798 -0.31899 0.19961 0.88689 0.31478 -0.20158 -0.30525 1.0311 0.092561 -0.50118 -0.17901 0.12354 -1.144 -1.0368 -0.69836 -0.077707 0.2147 -0.53934 0.20426 -0.061326 -0.73023 -0.61091 0.029156 -0.43908 -0.1828 0.47066 -0.15146 -0.042485 -0.96252 -0.064352 -0.11701 -0.54965 0.81035 0.37266 -0.13128 -0.4638 -0.68101 0.080651 -0.30397 -0.1648 0.18699 -0.81431 -0.46091 0.54541 0.12377 0.28331 -0.18985 -0.45635 -1.2519 0.16896 -0.35183 -0.014638 0.32425 -0.18198 -0.13879 -0.21604 0.18187 -0.091758 -0.017439 -0.61268 -0.013629 0.15984 0.10621 -0.29378 0.72028 0.48386 1.6869 -0.92701 -0.21832 1.2513 0.35778 0.5475 1.0646 -0.84344 0.4292 0.28573 -0.40208 -0.32295 0.1016 -0.15608
child 0.26351 -0.24532 0.051666 0.10634 0.026085 0.26394 -0.8763 -0.030545 -0.22661 -0.21378 0.13625 -0.070663 -0.43654 0.16882 0.16993 -0.25795 -0.54284 -0.39441 -1.0162 0.14941 0.22782 0.14345 0.57716 0.39431 -0.20747 -0.39605 0.10853 0.1919 -0.43545 -0.51984 0.055929 0.39369 -0.17716 -0.090585 -0.11264 0.095523 -0.02288 0.45198 -0.59788 0.47202 0.49701 -0.37379 0.080685 -0.25273 -0.21396 0.9509 -0.14557 -0.1203 -0.70193 0.044261 0.06415 -0.0052799 0.53279 -0.27103 -0.14469 -0.11416 -0.81946 -0.65741 -0.21823 0.4192 -0.20845 0.011204 -0.2919 0.76336 0.16155 -0.41346 -0.8033 0.68741 -0.31937 0.18966 -0.35531 0.14009 -0.15865 -0.38941 0.056028 -0.9973 0.38296 -0.20366 0.1951 0.031911 -0.6835 0.13049 -0.12069 0.32794 0.69074 -0.19917 0.96225 -0.0010432 -0.047477 0.60401 0.94667 0.00068518 1.025 0.37292 0.03079 0.53879 0.23416 0.30967 -0.34935 -0.27461
stove -0.22311 0.59723 -0.58475 -0.075752 -0.22255 0.213 0.040634 0.13343 -0.47069 -0.30794 -0.040128 1.1921 -0.6455 0.079774 -0.066974 0.45874 -0.13985 -0.30364 -0.60222 0.022613 0.49084 -0.2077 0.055458 0.47984 -0.79601 0.10056 -0.2864 1.0779 0.27553 -0.095828 0.46017 -0.45299 -0.31286 -0.54958 -0.49184 0.40853 -0.52566 0.71507 0.081488 -0.097021 0.29475 0.34748 0.68003 0.14743 0.28009 0.14745 0.62224 -0.17349 0.58644 -0.025617 -1.0067 -0.68287 -0.12397 -0.23829 -1.0855 0.31762 -0.38754 0.74247 -0.28463 0.14392 0.39247 -0.045593 -0.1939 0.11921 -0.32849 0.24459 -0.04986 0.35216 -1.2321 -0.002038 1.2826 -0.61837 0.28188 -0.066627 -0.42028 -0.50601 1.1397 0.39616 0.76326 0.66146 0.011837 0.31891 0.41849 -0.31836 0.66302 0.41707 0.85911 -0.14483 -0.32739 -0.6719 0.18201 0.65155 1.1676 0.18617 0.059116 -1.0172 -0.19086 -0.80877 0.04468 0.84886
key 0.43267 1.2986 -0.57458 0.26922 0.21519 -0.011847 -0.19022 1.5845 0.75067 -0.23306 -0.34338 -0.49755 -0.21881 0.19667 -1.1736 -0.21812 -0.14136 0.37872 -0.4363 0.85712 -0.47102 0.039086 -0.76167 0.21362 -0.35199 0.33084 0.14156 0.53997 0.85628 -1.5107 0.21788 0.11399 -0.60951 -0.32057 -0.84652 0.14326 -0.56971 0.82569 -0.24669 0.25577 0.9086 -0.20312 0.10931 0.33825 -0.13958 0.36997 -0.19662 -1.0811 0.086126 0.28904 -0.85964 0.99835 -0.13069 0.60038 -0.75087 -0.15177 -0.51546 0.61832 -0.29604 -0.20493 0.161 0.16758 0.47696 0.43244 0.86657 -0.72714 0.075593 -0.12022 -1.2503 -0.016047 0.69521 0.18047 0.54761 -0.8753 0.032739 -0.13621 1.623 0.54997 1.2524 0.049864 -0.68838 1.0897 1.0224 -0.59796 0.82143 0.21849 0.87395 0.46234 -0.30002 0.31417 0.41687 0.52448 1.1286 0.36661 0.40082 -0.65038 0.46793 0.041559 0.70072 0.38562
elephant 0.11725 0.47393 -0.46752 0.1306 0.64625 0.057767 0.57955 1.0456 -0.095548 0.15262 1.3199 0.22159 0.25574 0.31666 0.15291 -0.036037 0.25142 0.10775 -0.9956 -0.16058 -0.19968 -0.53861 0.54666 -0.22579 -0.21784 -0.43293 0.65706 1.1841 -0.49106 -0.60855 0.66842 0.097305 -0.2308 -0.3762 0.40375 0.23369 0.16492 0.0053514 0.16808 0.034162 -0.22866 -1.1213 0.6764 0.773 -0.12919 0.30043 -0.76433 -0.67096 -0.51386 -0.081495 0.64067 -1.0129 0.6273 0.6781 0.71823 -0.86921 -0.36319 0.047548 0.29163 0.48719 -0.13826 -0.44826 -0.22144 1.0564 -0.54582 -0.27099 -0.44917 0.82984 -0.49378 0.022925 -0.10917 0.046424 -0.35354 0.015713 -0.12823 -0.63742 0.38179 -0.54075 -0.029982 -0.18002 -0.11121 -0.39756 -0.35309 0.13738 0.43759 -0.26479 1.4356 -0.71527 -0.15703 1.2428 -0.17198 0.39588 0.4728 0.57599 -0.28957 0.012839 0.48952 -0.39367 -0.23961 0.17886
sand 1.0856 -0.83722 -0.2285 0.022887 -0.57646 0.54909 0.50674 0.017342 0.042271 0.27975 0.54719 0.51838 -0.40631 -0.38604 -0.48504 0.2461 -0.89331 -0.87662 -0.68795 0.29215 0.075438 -0.17196 -0.15028 -0.77439 0.27162 -0.26797 0.41491 0.47308 -0.10827 0.13306 0.16066 0.29384 -0.63953 -0.56253 0.21008 0.54389 0.26347 -0.27965 0.13269 0.0081264 -0.15221 -0.59923 0.4992 -0.92604 -0.5819 -0.29567 0.22091 0.12443 0.20926 0.05013 -1.2944 -0.10151 0.56372 0.7678 -0.015171 -0.40893 -0.42036 -0.5208 0.62358 -0.2149 0.38969 0.61579 -0.30416 0.70198 0.40858 0.048854 -0.2662 -0.16314 0.44349 1.0571 -0.042713 -0.20345 -0.26213 0.10666 -0.31114 -0.76368 0.1766 -0.13673 1.3779 0.14621 -0.32322 0.39967 -0.18531 -0.02902 0.4869 -0.060012 0.31796 0.26779 -0.94438 0.4446 0.54774 0.43098 0.45054 -0.69492 -0.072982 -0.13549 -0.19431 -0.057573 -0.48367 0.88978
fire 0.90738 0.44673 -1.1018 0.16007 0.33646 -0.48228 0.97634 -0.83815 -0.93693 -0.44931 0.036924 0.32836 -0.14462 0.31061 0.0010016 0.34713 0.50847 -0.61978 -0.84346 0.092772 -0.036138 -0.14122 0.46072 0.44596 0.42118 0.33985 0.2321 -0.42665 0.25212 -1.0614 0.97887 -0.21012 0.69061 -0.53573 -0.75702 0.077083 -0.25972 0.49247 -0.62908 -0.81146 0.50031 -0.63006 -0.015133 -1.1041 0.1286 0.084847 0.19985 0.20179 -0.60904 0.27698 0.067189 -0.60712 0.19923 0.20838 -0.31741 -0.60471 -0.69915 -0.16138 -0.44925 0.86189 0.66237 -0.12564 0.37741 0.45134 -0.23712 0.11079 0.49522 0.79212 -1.218 1.0932 -0.20014 0.62422 0.18795 -0.5148 0.38961 0.39335 -0.027123 0.29144 0.1068 -0.06973 0.35555 1.0803 0.55074 -0.43489 0.73349 -0.19535 0.30877 -0.71229 -0.46147 -0.86485 -0.51511 -0.14847 1.0722 -0.37507 0.34621 -0.55723 -0.017387 -0.28134 0.23238 -0.38013
ball 0.98026 0.70506 0.35875 0.11431 -0.036951 0.63985 1.0353 -1.2803 -0.36677 0.14942 -0.24176 0.85904 -0.19323 0.040051 0.046034 -0.072124 0.21538 0.39832 -0.69466 -0.18531 0.2056 0.25793 -0.05404 0.38015 -0.36178 -0.222 0.49895 -0.29761 0.18504 0.045797 -0.23894 0.38856 -0.17893 -0.069568 0.00082079 0.21643 -0.35353 -0.27328 0.18278 0.99054 0.67816 -1.089 -0.0036834 -0.12473 -0.70872 0.5394 0.31268 -0.13475 -0.86641 0.66521 0.1456 0.58748 0.65093 0.037645 0.46148 -0.75102 0.7303 0.0079165 0.01807 -0.66577 -0.081134 -0.54837 0.53848 1.0445 -0.10869 0.19346 0.07551 0.64351 -0.88604 -0.31002 -0.92717 0.027385 0.10411 -0.47122 0.45717 0.29538 0.074252 0.14761 -0.30865 0.16281 -1.3084 0.76812 0.40102 0.0028903 1.1899 0.18829 0.34601 0.094315 -0.28664 0.27027 -0.020969 0.9656 0.097862 0.65933 -0.33875 -0.44445 -0.19328 -0.0068311 -0.024388 0.94804
nose -0.63572 0.37574 -0.2586 -0.57378 0.20089 0.8325 0.069872 1.1311 -0.84802 0.27646 0.40782 0.73633 -0.68015 0.31238 -0.5453 0.4014 0.28483 0.39864 -0.76308 0.0076132 -0.5106 -0.51522 -0.38781 -0.34422 0.62897 0.34848 0.89508 -0.098373 -0.15624 -0.62248 -0.39328 0.88324 -0.3534 -0.69323 -0.05164 0.48697 -0.038747 0.58973 -0.51998 0.61032 0.29388 -0.20324 -0.89962 -0.7669 -0.39796 -0.38397 -0.5773 -0.048527 -0.20158 0.071092 0.19576 0.2022 0.26835 0.3758 0.28123 -0.67152 -0.61596 -0.49335 -0.0074259 -0.27233 0.013204 0.62785 0.001162 0.31213 0.12026 0.12128 -0.21083 0.36232 -0.67651 0.74667 0.83088 0.22895 0.16982 -0.09003 -0.32247 -1.0506 -0.17282 -0.042992 0.36012 -0.075956 0.18659 0.31639 0.69385 -0.12324 0.4234 0.52529 0.35251 -0.080914 0.26494 0.97119 -0.66704 1.4221 0.75123 -0.053877 0.7823 -0.13143 0.063907 0.2302 0.18501 -0.10106
hill 0.37656 -0.34647 -0.61577 -0.98395 -0.16313 -0.04156 0.065635 0.18859 -0.1184 0.22657 -0.061835 0.053791 -0.43732 -0.45156 -0.82894 0.065193 0.017899 -0.95268 -0.76509 0.24341 -0.058219 -0.54646 0.25844 0.15861 0.37848 0.7767 0.56761 0.41181 -0.085438 -0.1923 -0.23827 0.55278 -0.58777 -0.84653 0.54507 0.19999 0.13592 -0.48369 -0.26818 0.62695 0.03525 -0.90552 0.71776 -0.53356 0.029831 0.22372 0.63747 -0.5918 -0.95937 0.23529 -0.85849 -0.086832 0.18349 0.83161 0.33909 -0.81082 0.17968 -0.044728 0.44315 0.20813 0.60415 0.032509 -0.37455 0.17183 0.14547 0.086997 -0.33554 -0.445 -1.0602 -0.22276 -0.20189 0.8003 0.71011 -0.18826 0.21307 -0.12927 -0.32654 -0.16892 0.96764 -0.51788 0.22764 0.54049 0.30277 -0.18823 0.40834 -0.38652 -0.12376 -0.75759 -0.46863 0.43161 0.44839 0.67028 0.78402 0.14407 0.50034 0.10221 -0.46749 0.077498 -0.42325 0.35314
foot 0.35567 -0.56817 -0.10289 0.13728 0.70894 1.29 -0.94113 0.36499 -0.34584 -0.41747 0.12013 0.44425 -0.053559 0.18633 -1.4582 0.61266 -0.65498 -0.11596 -1.1035 0.54897 -0.78806 -0.59731 0.044756 0.22939 0.061883 -0.23076 -0.91242 0.56958 0.45998 0.18474 -0.68091 0.78638 -1.0377 -0.47754 -0.34999 -0.074004 0.58534 0.50646 0.089137 0.87195 -0.29495 -0.76873 -0.29842 -0.19085 -0.20864 0.37136 -0.14002 -0.34046 -0.75268 -0.50775 -0.37146 0.45265 -0.56424 0.76923 0.093959 0.18076 -0.75985 0.57391 0.26557 -0.37719 0.57581 0.84936 0.62729 0.48266 -0.4671 0.85022 -0.45338 0.74014 -0.01363 0.084296 0.28341 0.43049 -0.60637 -0.71087 -0.48027 -0.30833 0.11061 -0.032793 0.78561 -0.46725 -0.078808 0.65919 -0.38112 0.46264 0.45226 0.41139 0.5632 0.11299 0.10781 0.64674 -0.051392 0.59897 0.73747 -0.049304 -0.36456 -0.35867 0.53232 -0.36042 -0.69299 0.88209
fork 0.55807 0.49358 0.086588 0.050767 1.1891 0.50803 -0.23948 1.1755 -0.78913 0.46494 0.64042 0.75014 -0.19051 0.35799 -0.29323 0.70629 -0.89503 0.04941 0.20084 -0.048016 -0.71529 -0.34099 0.036774 0.25111 -0.017961 0.035807 0.27335 0.42525 -0.18957 -0.36868 0.37077 0.49457 -1.1882 0.88834 -0.42298 0.9018 -0.25208 -0.34322 -0.27679 0.15247 0.089959 -0.93011 0.75783 -0.45602 0.1583 0.14962 -0.60321 -0.71799 0.1187 0.35773 -0.75497 -0.31811 0.12348 0.45865 0.040283 0.23646 -0.41931 0.71292 -1.2909 -0.25368 0.42188 0.14279 0.41105 -0.034166 -0.2812 -0.21747 0.58309 0.2088 -1.2712 0.85781 0.28139 -0.41412 -0.5988 -0.60688 0.26859 -0.75557 0.15529 0.073204 -0.26374 0.91134 -0.8029 0.84786 0.66458 -0.061207 0.97383 -0.51064 -0.022413 0.0065369 -0.19448 0.17272 0.36737 0.56036 0.2245 -0.30224 1.4127 -0.040322 0.43066 -0.28728 0.35943 -0.12433
knife 0.66008 0.32131 0.38332 0.41556 0.88669 0.66353 -0.84243 0.82047 -1.0234 0.14499 0.83932 0.47043 -0.63145 -0.021592 -0.61032 0.44071 -0.86947 -0.068683 -0.025447 -0.35565 -0.84141 0.18805 -0.22672 0.98476 -0.21703 0.0034014 0.32852 0.20736 0.16384 -0.47025 0.57581 0.3551 -1.1143 0.79892 -0.81942 0.72147 -0.17472 -0.1319 -0.07713 0.3278 0.79438 -0.37828 0.48517 0.13674 0.18989 -0.16842 -0.36781 -0.9504 0.00971 0.04095 -0.57646 0.11761 -0.28686 0.30047 0.10089 0.46894 -0.21214 0.70557 -1.0787 -0.33673 0.56656 -0.159 0.3922 0.57218 -0.18163 -0.17462 0.13359 -0.090672 -1.1643 0.5456 0.39036 -0.35173 -0.44962 0.01031 -0.12721 -1.0429 0.38001 0.19966 -0.30236 0.73444 -1.2472 0.91478 0.27158 0.08339 1.5671 -0.57325 -0.1761 0.31018 -0.64357 0.18014 0.4504 0.7672 0.33333 -0.096916 1.0047 0.016156 -0.052785 -0.40903 0.66646 0.7074
cow 0.74094 0.45027 -0.31279 -0.19246 0.73186 -0.064283 0.81526 0.85118 -0.47107 0.45095 0.16073 0.40564 -0.46483 -0.45365 0.26448 -0.95283 0.35186 -0.40151 -1.0638 0.14632 -0.44425 0.036271 0.31354 -0.42045 -0.16476 0.040234 0.84366 0.48932 0.037444 -0.92391 -0.27612 0.33191 -0.73763 -1.0383 0.42082 1.0644 -0.21147 -0.29686 -0.15838 0.40803 0.41118 -1.0913 0.26653 0.15197 -0.72161 -0.19478 0.20326 -0.28932 -0.33267 0.87578 0.018614 -0.18305 0.76424 0.010056 -0.16873 -0.70625 -0.12909 0.23152 -0.36271 0.75165 -0.089205 0.45118 -0.85256 0.25433 -0.67301 -0.44542 -0.33048 0.46579 -0.59619 -0.15896 0.067276 0.50743 -0.25866 -0.13201 0.58985 -0.80598 0.32006 -0.26731 0.8027 -0.5869 -0.231 0.54795 -0.024497 -0.93793 0.59031 0.30936 0.96662 0.52335 0.14066 0.036456 -0.74259 0.11291 0.61164 0.50559 -0.84091 0.17626 0.27673 0.51509 0.14948 0.27482
painting -0.55112 0.80122 -0.1942 -0.15525 0.40375 -0.054602 0.064811 -0.48467 -0.80161 0.94578 0.17811 -0.1691 -0.25547 -0.22417 -0.59717 0.31307 0.47231 -0.081383 0.20939 -1.0126 -0.29001 -0.069754 -0.20736 -0.088019 0.339 0.46054 0.2011 0.27953 -0.32189 -0.91106 0.29023 0.63778 0.039421 0.088936 -0.36731 0.5646 0.34145 -0.069875 -0.11456 0.13029 -0.23026 0.25306 -0.1829 -0.092444 0.70111 -0.1902 -0.07175 -0.02818 -0.65104 -0.48399 0.16118 -0.55459 -0.15566 -0.13418 0.10666 -0.71185 -0.033794 0.70549 0.20241 -0.27212 0.37376 -0.38355 -0.096881 1.2192 0.33858 -0.071161 -0.12488 0.087095 -0.7011 0.69646 -0.20431 -0.53768 -0.045439 0.14161 0.069424 -0.31679 0.20205 0.12342 0.077673 0.027353 -0.18603 1.2121 0.44828 0.3498 0.34441 0.044505 0.088518 0.052477 0.4952 0.28983 -0.05918 0.93045 0.7694 0.11491 -0.43795 -0.093791 0.95613 -1.2583 -0.035097 0.41348
dress 0.60318 0.025718 0.24391 -0.43404 0.44881 0.15285 -0.74023 -0.24384 -0.85867 -0.75403 0.54852 0.48279 -0.66105 -0.1782 -0.17907 -0.18595 0.2049 0.22392 -0.38569 -0.19271 -0.37738 0.30978 0.47054 0.24051 -0.24383 0.37977 -0.15535 0.57925 -0.015935 -0.16642 -0.22055 0.4869 -0.42176 0.073064 -0.13924 0.043053 0.010219 0.055421 0.021579 0.19428 -0.38611 0.65134 0.37815 -0.20389 0.090814 0.52844 -0.32829 -0.67675 -0.12079 0.18381 0.018278 0.38679 0.97945 0.89071 -0.55473 -0.56545 -0.20619 -0.57524 0.68847 -0.58467 0.5381 0.546 -0.18418 0.74185 -0.072749 -0.64637 -0.27934 0.72311 -0.26084 0.6964 0.017508 0.45324 0.1039 -0.21893 -0.042348 -0.51066 0.32203 -0.24751 0.28475 0.11273 -0.31082 0.13659 0.66651 -0.096613 1.1066 -0.10089 1.1349 1.1103 0.58044 0.37898 -0.6337 0.13969 1.3695 -0.38362 0.31598 -0.31714 -0.24764 -0.58635 0.031052 -0.18588
cake -0.63671 0.52975 0.52467 -0.070421 0.22885 -0.16077 -0.037001 0.83169 -0.47941 -0.32039 0.13244 -0.0066046 -0.26744 -0.4941 0.49632 0.32117 0.21091 0.040785 -0.53933 -0.036461 -0.43917 0.32437 -0.22121 0.17 -0.57864 0.26807 -0.35664 0.092246 0.37826 0.027771 1.0305 0.10093 -1.3376 -0.23384 -1.4276 0.69327 0.37479 0.21918 -0.65934 0.31746 0.43543 -0.22989 1.5169 -0.073907 0.34463 -0.021259 -0.39291 0.52294 -0.88563 0.96558 -0.3868 -0.43874 0.30535 0.76389 0.16821 0.077178 0.17468 0.12653 0.48506 -0.8542 -0.38223 0.42678 -0.27093 -0.14475 0.91594 0.18444 -0.28923 0.22493 -1.2284 0.85792 0.53638 -0.82422 -0.40464 -0.54381 0.60446 -0.41877 0.44249 -1.0573 -0.52932 0.0082457 -0.98807 0.48518 0.80498 0.51479 0.99572 -0.79509 0.40809 0.15958 -0.37069 -0.40374 -0.0012097 1.1147 0.67885 0.045399 0.42083 0.23457 0.91322 -0.7348 0.5894 0.30676
oven 0.11415 0.74088 -0.14428 0.18102 0.39613 0.46282 0.10491 -0.042615 -0.8021 0.53493 0.19297 1.0122 -0.50075 -0.0056905 0.046421 -0.074061 -0.0038896 -0.24236 -0.36474 -0.17963 0.62221 0.11691 0.064146 0.54517 -0.63885 -0.25731 -0.24332 1.187 0.063792 -0.10395 0.2095 -0.44395 -0.70673 0.11423 -0.070727 0.5787 -0.78285 0.49696 0.18047 0.14441 0.45039 -0.013644 0.60987 -0.34065 -0.2193 -0.33606 0.21091 -0.58695 0.97238 -0.37433 -0.60087 -0.47084 0.41226 -0.095554 -1.1768 0.065795 -0.15167 0.29005 -0.24374 -0.19814 0.22741 -0.27624 0.17535 0.099261 -0.03231 0.27891 -0.31637 0.1299 -1.5231 0.48445 1.138 -0.64035 0.55977 -0.072446 -0.31049 -0.84455 0.72438 0.88179 0.68005 0.24443 0.0040421 0.52115 -0.013162 0.25562 0.71487 0.52939 0.58997 0.32667 -0.37559 -0.27621 0.27003 0.43666 1.2677 0.4168 0.034444 -0.51781 -0.58596 -0.15621 -0.026503 0.74243
television -0.40958 0.88545 -0.33723 -0.30476 -0.38686 0.10801 0.094428 1.1848 -0.65723 0.15005 0.69961 0.45278 -0.33624 -0.41961 -0.30925 0.78532 0.62904 -0.33243 -0.022796 -0.48637 0.30336 -0.51662 -0.33677 0.55947 -0.1082 -0.3077 0.1661 0.37648 0.4483 -0.77553 0.28831 0.26052 -0.47676 0.027786 -0.22952 0.22006 -0.31653 0.76398 0.20322 -0.57675 0.49546 -0.74324 -0.074348 0.76498 0.085115 0.081168 -0.0012191 -0.02667 -0.1677 -0.22056 -0.23735 -0.76224 -0.33878 0.7897 -0.34366 -0.13588 -0.0054434 -0.12605 0.84436 0.41346 0.31803 -0.37889 -0.1454 0.76391 0.023176 0.40136 -0.36824 0.44173 -0.53891 -0.34433 -0.31891 0.15096 0.5595 -0.81311 -0.022005 -0.34219 0.45677 0.31525 0.16278 0.031255 -0.70818 0.56354 0.51408 -0.13381 1.2141 0.51219 0.63657 0.43394 0.091237 -0.23784 -0.2804 -0.8073 0.69082 -0.0334 -0.30366 -0.39093 0.40865 -0.66283 -0.82039 0.79813
giraffe -0.23883 0.46125 -0.47913 0.36303 0.36201 0.24675 0.63623 0.82793 -0.5089 -0.21694 1.0962 0.46225 -0.50459 0.11958 -0.17096 -0.38223 0.35618 -0.54961 -1.7042 -0.80965 -0.39256 -0.066379 -0.0014861 -0.48498 -0.17517 -0.32792 0.97076 0.6021 -0.065665 -0.82331 0.52218 0.30908 0.072732 -0.45358 0.2009 0.69307 -0.21749 -0.11724 0.032792 0.18918 0.55352 -1.2637 0.88323 -0.23247 0.24336 0.053232 -0.87632 -0.28976 -0.078026 0.59383 0.21269 -0.16405 0.74258 0.30821 0.11603 -0.63466 -0.10991 -0.084593 0.55597 0.68715 -0.46937 0.071368 -0.18422 0.74323 -0.30616 -0.49883 -0.13819 0.26783 -0.64785 -1.0201 0.089483 0.39631 -0.82732 0.61963 -0.37604 -0.99895 0.10352 -0.16774 0.59637 -0.12201 -0.37399 0.38957 0.14263 -0.66792 0.54632 0.16027 0.51895 -0.16533 0.011777 0.38237 -0.049729 0.5938 0.24179 -0.25233 -0.1669 -0.030966 0.79412 -0.10743 -0.047546 -0.075693
zebra 0.77501 -0.27695 -1.3107 0.45585 0.66066 0.11076 -0.11138 0.72514 -1.1332 -0.0022474 0.48506 0.79084 -0.29204 0.45729 0.19648 -0.28063 0.201 -0.37271 -1.3633 -0.13944 -0.23323 -0.31689 0.43384 -0.46046 0.026595 0.031487 0.53017 -0.055241 0.27207 0.035998 -0.09238 0.24328 -0.13782 -0.25902 0.56666 1.0626 -0.63871 -0.49724 0.40104 0.20695 0.6664 -0.90386 0.69371 0.25528 -0.1703 -0.071488 -0.73246 -0.92281 -0.058129 0.3067 0.44188 -0.16027 0.021088 0.21325 -0.10425 -0.9366 -0.16361 -0.24147 -0.13852 0.80154 -0.40492 0.80844 -0.7152 0.66887 -0.8085 -0.51305 -0.34371 0.097234 -0.71597 -0.11658 0.035174 0.33774 -0.37971 -0.070153 0.16327 -0.65193 -0.12397 -0.84124 0.94466 -0.24299 -0.55302 -0.11891 0.10018 -0.43882 0.31739 0.79929 1.0282 -0.039278 0.26862 0.59507 -0.52474 0.16103 0.83044 0.07366 -0.75558 0.14518 0.52877 -0.45463 -0.17735 -0.16667
headlight -0.82209 0.37378 -0.55083 -0.0094756 -0.23392 0.53449 0.25791 0.37525 -0.058751 0.20629 0.19249 1.1252 -0.28879 0.70328 -0.50118 1.0037 0.356 -0.60264 -0.19434 0.033615 0.052449 -0.22729 0.39385 0.15406 -0.21171 0.040015 0.35758 -0.24445 -0.057452 -0.69059 0.53658 1.3083 -0.73818 -0.097348 -1.0196 0.082511 -0.12302 0.50456 -0.47738 0.19345 0.33155 -0.67873 -0.15861 0.55521 0.2166 0.0961 0.036748 0.11825 -0.33313 0.006945 -0.73391 0.33309 -0.2723 0.87931 -0.37282 -0.85682 -0.76772 -0.25715 0.43093 -0.14725 -0.10344 -1.2096 0.77139 0.13309 -1.3571 -0.061704 0.70073 -0.48111 -1.0786 0.21956 0.56576 0.22176 -0.061814 -0.76572 -0.088304 -0.3682 0.18896 -0.25043 -0.21919 -0.10256 0.16266 0.93234 -0.22251 0.068936 0.23777 0.56931 0.89705 -0.0089751 0.075489 0.29482 -0.038931 0.95068 1.1487 -0.35444 0.27501 0.47531 -0.31909 0.20025 -0.21076 -0.43586
drawer 0.25504 0.42007 -0.35875 -0.48723 1.222 0.34614 -0.3812 1.1986 -0.38317 -0.14697 0.3196 1.0896 -0.047527 0.57067 -0.1181 -0.31043 0.064199 -0.29824 -0.10665 -0.12882 0.27051 -0.22056 -0.76532 0.18655 -0.35382 -0.64438 -0.023529 0.18488 -0.25817 -0.28446 0.079392 -0.083604 -0.04574 0.42403 -0.18895 0.34817 -0.52456 0.15458 0.18298 0.53537 0.13392 -0.54761 0.33741 0.43873 0.57631 0.046577 0.23567 -0.70296 0.78344 -0.34669 -0.37848 0.048839 -0.3278 0.46307 -1.4685 -0.8368 -0.17241 -0.59207 -0.13868 -0.22221 0.53012 -0.39288 0.24707 0.31902 0.38383 0.21602 0.39357 0.46161 -0.74635 0.42659 0.55104 -0.25816 0.16185 -0.43768 0.37052 -0.72806 1.1516 1.1703 0.52549 0.54061 -0.60374 1.231 0.82822 -0.054031 1.6861 0.029661 0.18549 0.41422 0.044063 -0.12683 -0.54171 0.28224 0.30264 0.36954 0.49254 0.26454 0.44265 -0.69219 -0.43169 -0.16341
dish -0.62596 0.12964 -0.031 0.27375 -0.42383 0.30068 -0.31786 0.4389 0.31714 0.60305 0.10904 1.1479 -0.19085 -0.33689 -0.28426 -0.1155 0.1436 -1.0841 0.3281 0.23524 -0.14646 0.47708 -0.4977 0.30891 -0.67332 -0.38813 -0.24862 -0.12924 -0.18257 0.19897 -0.45295 0.14417 -0.63727 -0.015499 -0.57512 0.85334 0.13402 0.34793 1.0251 -0.072839 0.3441 -0.64596 0.35894 -0.029001 0.14901 -0.32723 -0.17198 -0.35492 -0.20302 0.25173 -0.77867 -0.78173 0.65915 0.072891 -0.96412 -0.35207 -0.16387 0.75375 -0.28641 -0.52774 0.36425 -0.1457 0.1525 0.57659 0.15841 -0.043888 0.20953 -0.49192 -1.2939 0.59476 -0.26532 -0.57127 0.074937 0.11751 0.031607 -0.37749 0.46405 -0.51357 -0.29368 0.81227 -1.3343 0.58449 0.72659 -0.24667 1.0398 0.46281 0.018189 0.21688 0.41836 -0.24731 0.20728 -0.15674 0.44959 -0.82527 0.71033 -0.68123 0.021836 0.07739 0.38949 1.0071
guy 0.5459 0.31957 0.014144 0.37237 0.36033 -0.14877 -0.6227 0.28702 -0.19293 -0.37091 0.072624 -0.33046 0.074215 0.67612 -0.059033 -0.16272 -0.56463 -0.29574 -0.47134 0.1115 -0.07693 0.76434 0.41662 0.53823 0.35954 -0.26637 0.57897 0.080947 0.21983 -0.022009 0.21338 0.78651 0.25488 -0.048686 -0.32271 -0.15637 -0.66523 0.15118 -0.2169 0.15737 0.866 -0.27711 0.21561 -0.17471 -0.10668 0.53454 0.010545 -0.11665 -0.81958 0.21074 -0.40664 0.45421 0.47126 0.19472 -0.3843 -0.38191 -0.7925 -0.43862 0.21168 0.35202 -0.55792 0.0104 -0.51551 0.52917 0.44648 -0.29011 -0.32519 0.17592 -0.45501 0.40279 -0.1826 0.0071192 0.26497 -0.26844 -0.7094 -0.92176 0.306 -0.50439 0.090046 -0.02502 -0.49344 0.69812 -0.30632 -0.009862 0.7292 0.059891 0.74962 0.4175 0.33011 0.78736 0.16343 -0.2249 0.80286 0.83401 0.2312 -0.17017 -0.11526 0.17044 -0.27682 -0.2118
arrow 0.29724 0.23358 -0.63165 -0.083309 0.18651 -0.030368 0.28313 -0.028994 0.12944 0.23145 0.2645 0.32913 -0.45019 0.60244 -0.90763 -0.12171 0.30966 -0.31608 -0.73498 -0.58799 0.032448 0.025902 0.24454 -0.60595 0.75481 -0.088024 0.049704 0.44543 0.069737 0.05276 0.26377 0.92702 -0.55998 -0.87574 -1.0994 0.37393 0.30051 0.065377 0.31701 0.19209 0.39326 0.083864 -0.11499 0.27548 -0.30405 -0.18695 -0.46636 -0.63008 -1.0962 0.29532 -0.060791 0.5088 0.20114 0.62558 -0.46379 -0.32258 0.23235 0.095256 -1.1137 -0.12116 -1.0888 -0.46116 0.59786 0.57753 -0.051498 -0.11551 -0.046491 -0.45996 -1.2589 0.32875 0.6003 0.39786 0.32801 0.02348 -0.34934 -0.39307 -0.17036 0.38959 0.22243 0.46163 -0.034956 1.0504 -0.24738 -0.2571 0.12281 -0.3548 1.0969 0.59517 0.55462 -0.41982 -0.0929 0.69711 0.43823 0.021069 -0.8148 -0.090755 0.59519 -0.48576 -0.52923 -0.64076
baby 0.45891 0.16075 -0.37192 0.42362 0.62928 0.63442 -0.31829 0.63229 -0.48334 0.24691 0.79227 0.10353 -0.14569 -0.27763 0.044325 -0.48802 0.35915 0.084959 -0.82199 -0.17884 0.077605 0.61708 0.59062 -0.67414 -0.60987 -0.72837 0.28164 0.51131 -0.15592 -0.14854 -0.018612 0.45395 -0.087296 0.44991 0.41429 0.68497 0.0027634 0.82434 -0.20477 0.53769 -0.091661 -0.35004 -0.29455 -0.70824 0.12392 0.18658 0.0076007 -0.25707 -0.34743 0.35933 0.4645 0.40288 0.54173 0.0017275 0.46088 -1.0903 -0.24135 0.12768 0.13593 -0.016812 -0.22537 0.03076 0.26532 0.83159 -0.52974 -0.62638 -0.43835 0.67007 -0.5692 -0.10596 -0.3247 -0.1599 -0.18755 -0.5607 0.34091 -0.50811 0.74816 -0.13499 -0.037281 0.13696 -0.49695 -0.34517 0.26001 -0.27221 0.6464 -0.18821 0.51903 0.15716 0.14185 0.53009 0.82558 0.65054 0.63042 -0.23031 0.35873 -0.22338 0.60852 0.55676 -0.05243 0.17097
church 0.13788 0.52098 0.066151 -0.28784 0.061103 -0.42626 0.39134 0.077222 0.17589 -0.26042 0.86624 -0.27044 0.019275 0.16755 -0.071516 0.14569 -0.069179 0.1655 -0.050398 -0.63692 0.37725 -0.12938 -0.43405 -0.14732 -0.10171 0.387 0.081015 0.22171 -0.55302 0.015257 0.34593 -0.78722 -0.59861 -0.36182 -0.64568 0.68327 0.049562 0.74425 -0.35355 -0.31386 0.45517 -0.039817 0.37842 -0.37631 -0.22232 0.20876 -0.2034 -0.6557 -0.87361 0.5022 -0.62671 0.025253 -0.55394 1.1436 -0.060402 -0.83709 -0.12755 -0.28367 0.2214 0.13576 -0.37281 0.6759 0.21312 0.26778 0.33181 0.20702 0.21805 0.66372 -0.91808 -0.19088 0.049776 0.84782 -0.45562 0.36915 -0.57084 -0.5139 0.42986 0.12802 0.23833 -0.60612 -0.3136 0.72727 0.16841 0.41915 0.08472 -0.28273 0.04829 0.34483 -1.0032 0.50902 0.46837 0.83865 0.90466 0.33495 0.36452 -0.5515 0.19094 -0.78169 -0.19168 -0.021076
sun 0.017337 0.37631 -0.39387 -0.22971 -0.16317 0.24634 0.1414 -0.65985 -0.93516 -0.022125 0.28688 0.8932 -0.065145 0.23572 -0.63778 0.29409 0.35742 0.2993 -0.63098 -0.46792 0.15386 -0.34593 1.0087 -0.26616 0.31751 0.011574 0.64187 0.034432 0.11655 -0.34551 0.19394 -0.15389 -0.95544 0.91146 0.0042191 0.62267 0.76468 -1.0755 -0.72411 0.42543 0.083209 0.062628 0.089154 -0.14895 -0.056391 0.067333 -0.63356 0.35037 -0.23784 0.49407 -0.34433 -0.74842 -0.36828 0.86025 0.067149 -0.33531 -0.26117 -0.70013 0.59861 0.79276 -0.48218 0.22031 -0.50249 1.3916 -0.1064 0.072136 0.22386 -0.61508 -0.80571 -0.45253 0.13065 -0.37767 0.12196 -0.6528 -0.052469 -0.10536 0.32105 0.14189 0.47658 -0.065459 -0.20494 0.23109 0.17815 -0.043697 0.4596 -0.44883 0.4126 0.25164 -0.0098338 -0.11519 0.22477 0.72299 0.55563 -0.41075 0.53833 -0.22837 -0.87119 0.17663 0.27334 0.090758
ocean 0.83252 -0.86298 -0.17251 0.42672 -0.059619 0.079206 0.43167 0.22166 -0.1792 0.025586 1.4869 0.58931 -0.17753 0.57027 -0.77127 0.89889 -0.49457 -0.44511 -0.77422 -0.57223 0.12437 -0.71046 -0.42861 0.011547 0.2532 0.71749 0.40469 0.66929 0.26377 0.067271 0.40978 0.63179 -0.32322 0.69188 0.11934 0.1971 0.51462 -0.34445 -0.054506 0.3381 0.14589 -0.24711 0.82878 -0.50929 0.23804 -0.46817 0.065019 -0.87937 -0.54497 0.069931 -1.2594 -0.47113 0.40813 -0.18982 0.12548 -0.42101 0.068497 -0.41868 0.20301 0.049658 -0.46094 0.35285 -0.19125 0.87706 0.28427 -0.28827 -0.36889 0.53336 -0.59237 0.3395 0.20862 -0.51011 0.31416 -0.11618 -0.30746 -0.18176 0.33423 -0.28245 0.28621 -0.20742 -0.34904 0.38227 0.19052 0.46477 0.31926 0.15602 -0.14154 0.16966 -0.38105 0.29474 0.68795 0.85704 0.86941 0.21926 0.72314 0.15194 -0.60242 0.21573 -0.56206 0.85662
sheep 0.22711 0.069788 -0.66459 0.11246 0.45065 0.0059453 0.29639 1.1016 -0.48984 0.32775 0.20981 0.79733 0.077334 -0.51976 -0.3541 -1.0722 0.1995 -0.71891 -1.2923 -0.52119 -0.4386 -0.13291 0.10476 -0.30456 -0.461 0.098104 0.95037 0.38891 0.25912 -0.40572 0.32164 0.56366 0.005532 -0.1793 0.45767 0.88252 -0.38961 -0.090883 -0.0922 0.36475 0.17568 -0.82228 0.17796 0.2239 -0.099964 -0.26529 -0.2695 -0.38351 -0.26139 0.35848 0.23208 -0.25014 0.71178 0.20258 -0.27971 -0.58601 0.052586 0.24987 -0.10136 0.75531 0.36652 0.42673 0.050575 0.56726 -0.15295 -0.3108 -0.18365 0.12302 -0.66734 -0.60425 -0.45209 0.28879 0.11581 -0.10666 0.39914 -0.71648 0.25787 -0.56342 0.55632 -0.50157 -0.66616 0.16461 0.050586 -0.22132 0.23665 0.67075 0.4435 0.35022 0.010811 0.79725 -0.37865 0.23373 0.51294 0.55784 -0.052907 0.18842 0.43982 -0.074143 0.095274 0.14203
telephone 0.37832 0.26997 -0.23431 0.28686 0.37759 -0.55825 -0.011136 0.99602 0.21239 -0.36502 0.86394 -0.022637 0.33723 0.31596 -0.47616 -0.41269 -0.063463 0.04517 0.0010674 -0.82255 0.27492 -0.47702 -0.41103 0.22296 0.33252 -0.07773 0.91795 0.82038 -0.23705 -0.48547 0.060359 0.58229 -0.82079 -0.07137 -0.94755 -0.47512 0.27034 0.051085 0.61598 -0.39735 -0.076217 -0.52443 0.57431 0.66493 -0.39996 0.12195 0.91787 -0.51374 -0.44625 0.28999 0.11432 -0.17902 0.40459 0.81543 -0.37561 -0.56627 0.2045 0.12637 0.06661 0.35084 0.050331 -0.2518 0.21454 0.83698 0.14399 0.11093 -0.48724 -0.24944 -0.8551 -0.41245 0.19598 -0.32741 0.27895 -0.44818 0.52523 0.088082 0.39548 0.49206 1.1259 0.29313 -0.38402 0.61732 0.44842 -0.69858 0.85027 -0.63372 1.0916 0.053788 -0.80848 0.094554 0.14088 -0.62042 0.44008 -0.71237 -0.22494 -0.36023 0.48258 -0.85776 -0.712 0.070352
circle 0.10868 0.22924 -0.26176 0.003554 -0.038491 -0.034224 -0.25163 0.025129 -0.047314 0.056888 -0.050678 0.28639 -0.14216 0.1902 -0.28839 0.30718 0.10207 0.08171 -0.84089 -0.33371 -0.25977 0.031075 0.22142 -0.48338 -0.16779 0.048076 0.22124 -0.020207 -0.33977 0.20168 0.089989 0.0089664 -0.78601 0.017079 -0.86084 0.58669 -0.17175 0.27589 0.17615 0.11466 -0.26121 0.21143 0.13325 -0.41971 -0.12478 0.068732 -0.22484 -0.14128 -0.52054 0.30898 0.18884 0.21109 -0.98178 0.72521 -0.32771 -0.83605 0.12064 -0.062499 -0.29611 -0.60173 -0.47198 -0.56805 -0.33332 1.0829 0.21234 -0.61237 -0.66209 -0.0099538 -0.5681 0.73943 -0.33617 0.36357 -0.42576 -0.09545 0.16449 0.089553 -0.10662 0.10625 0.12017 0.11624 -0.46117 0.47075 0.19876 -0.35308 0.27014 0.077042 0.28754 0.069507 0.16213 -0.64764 0.12276 0.61611 0.12114 0.34207 -0.47767 -0.62339 -0.0047138 0.18137 -0.034442 -0.25379
mouth -0.24557 0.43866 -0.2577 -0.14834 0.60624 1.0315 0.040718 0.97654 -0.51868 0.66256 0.29734 0.46347 -0.53483 -0.12067 -0.78527 0.50595 0.17091 0.0074305 -1.0685 -0.28626 -0.76354 -0.44713 -0.22972 -0.41931 0.072685 -0.45143 0.47597 -0.12515 0.49569 -0.62904 0.35628 0.52879 -0.06603 -0.31297 0.73014 0.76946 0.73219 -0.21171 -0.41177 0.54658 0.33715 -0.36236 -0.17118 -0.38666 0.5765 -0.20431 0.2963 -0.42703 -0.32871 -0.32169 -0.18864 0.31367 0.1699 -0.059162 0.034316 -0.78865 -0.67446 -0.91306 0.60223 -0.49557 -0.46496 0.32988 0.14519 0.28785 0.26674 -0.22202 -0.084133 0.76828 -0.063754 0.091635 0.89868 0.093268 0.32679 -0.25302 0.11762 -0.73089 0.53665 0.53956 0.13558 0.15408 -0.35083 0.075715 0.76886 0.44063 0.85876 0.30349 0.21687 -0.639 0.56978 0.80249 -0.81333 0.70334 0.37541 0.59401 0.94944 0.029489 -0.38231 0.16409 0.40684 -0.096082
pool 0.5164 -0.50156 0.20955 0.25099 -0.26304 0.51267 0.18093 -0.26286 0.29097 0.6467 0.61119 0.49739 -0.34112 0.021866 -0.10179 0.2292 -0.27199 0.22612 -0.1664 -0.25062 -0.20268 -0.70365 -0.035212 -0.11561 0.48998 -0.063575 0.29299 0.88229 -0.3026 0.083036 -0.027686 0.22824 0.095364 0.36023 -0.78668 0.27933 0.11458 0.095888 0.0035357 0.10348 0.40937 -0.65696 0.94509 -0.22738 0.077655 -0.065689 0.042467 0.2698 -0.81973 -0.22415 -0.50995 -0.34275 0.34502 0.50811 0.22594 -0.91478 0.0073981 -0.13303 -0.15066 -0.19726 -0.5118 0.24528 -0.59993 0.55389 0.24755 -0.052403 -0.018341 0.88184 -0.50902 -0.14535 -0.87889 -0.076111 -0.32084 0.0024288 -0.7222 -0.58001 -0.091086 -0.0059124 -0.52795 0.16519 -0.57201 1.2908 0.33747 0.25979 0.88501 -0.32529 -0.056699 -0.51863 -0.1968 0.19409 0.21114 0.1646 0.10601 0.011247 -0.35732 -0.7999 -0.2416 -0.18863 0.41377 0.96852
fireplace -0.37415 0.52092 -0.64568 0.052776 0.62169 -0.21964 0.54272 -0.49101 -0.88059 -0.19874 0.91087 0.26078 -0.13767 -0.048435 -0.0064677 0.70321 -0.0074964 -0.64626 -0.69183 -0.58342 0.03919 -0.35074 0.20987 -0.067936 -0.53967 0.35417 -0.076774 -0.30438 0.20268 -0.50868 0.13768 -0.40241 0.55983 -0.32189 -0.17658 0.61623 -0.38758 0.66432 -0.78588 -0.45932 0.18288 0.2139 0.6763 -0.66111 0.39052 -0.094353 -0.17084 0.21913 -0.27441 -0.24301 0.10446 -0.70153 -0.32781 0.21115 -0.81055 -0.68025 -0.45621 0.10293 0.19923 0.20073 0.2473 0.26693 0.32968 0.82837 -0.48002 0.29402 0.7226 0.7394 -0.78645 0.20668 -0.40642 0.39015 0.41768 -0.20836 0.25547 -0.13185 0.47806 0.21935 0.41802 0.40355 -0.31287 1.1919 0.6013 0.15027 1.0641 0.17516 -0.07145 -0.82004 0.20372 -0.89583 -0.12617 -0.1946 1.0474 -0.2015 -0.17706 -0.2834 0.36606 -0.68514 0.29289 0.39561
bread 0.29493 1.1934 -0.49035 0.77343 0.32281 0.66132 0.41072 0.18094 -0.7631 0.58579 -0.21716 0.48978 -0.99048 -0.10376 0.20895 -0.15572 0.15324 -0.99114 -0.69283 -0.038795 -0.57363 -0.13336 -0.64568 -0.20365 -0.64101 -0.50804 -0.35239 -0.17766 0.32328 -0.5078 0.24203 0.097642 -0.8586 -0.36018 -0.87591 0.36025 0.13607 0.1699 -0.78725 0.2257 0.35849 -0.70197 0.20988 -0.4966 -0.22862 -0.27125 -0.37268 -0.010719 1.005 0.26935 -0.89032 -0.71207 -0.20401 0.19662 -1.0921 -0.30274 -0.16432 0.36216 0.43983 -0.46213 0.70912 -0.14281 0.18453 0.24602 0.72911 0.069952 -0.2966 0.46196 -0.33754 0.42749 0.12876 -0.76877 -0.11902 -0.076822 0.042421 -0.27889 0.45575 0.20389 -0.15514 0.72215 -0.76704 0.6564 -0.14758 0.014079 0.47492 -0.40141 0.38827 -0.13076 -0.23678 0.47149 -0.20371 0.89322 0.20012 0.25117 0.87692 0.0037606 0.64103 -0.77012 0.44251 0.58756
lawn 0.009718 -0.25636 -0.15985 0.3057 -0.45132 -0.058645 0.33549 0.054275 0.13342 -0.31686 0.3921 0.58173 -0.44968 -0.35374 -0.54199 -0.41817 -0.015503 -0.66238 -0.77748 0.063632 -0.56858 -0.31748 0.23788 -0.27537 0.21144 -0.32537 0.52037 0.46791 -0.28341 -0.028373 -0.059738 -0.28981 0.31424 -0.30074 -0.0036193 0.62278 -0.04024 -0.23729 -0.56784 -0.16754 -0.2363 -0.25803 0.90283 0.1228 -0.44722 -0.25927 -0.44136 -0.60144 -0.69851 0.39787 -0.57062 0.42678 0.19751 0.71934 0.10165 -0.31429 -0.36035 -0.0041718 0.47445 -0.20157 0.38403 0.0058341 0.45212 -0.34714 0.19689 -0.56529 0.10113 0.34378 -0.64357 0.58175 -0.50031 0.10919 0.36351 -0.37663 0.058643 0.033016 -0.21528 -0.45729 0.91295 -0.48166 -0.38167 0.561 0.27385 0.062915 0.50176 -0.26369 -0.11116 0.11449 -0.20829 0.46469 -0.32697 0.57274 0.34345 -0.31548 -0.011151 0.21853 0.47623 0.10057 -0.20501 0.20288
cab 0.011223 0.50814 -1.1406 -0.21166 0.57822 -0.63677 0.27221 -0.048357 -0.57483 -0.00083618 -0.12335 1.0859 -0.2693 0.51974 -0.49119 -0.19923 0.63209 -0.60737 -0.67547 -0.22976 0.049549 -0.31706 0.054113 -0.56477 -0.4252 0.58361 0.46953 0.45183 -0.26386 -0.0049701 1.3529 -0.35519 -1.2604 -0.02084 -0.24299 -0.35715 0.26521 0.22292 -0.10779 0.0064346 0.61003 -0.63938 0.39188 -0.29268 0.035049 -0.033195 -0.30631 0.15721 -0.096628 -0.37075 -0.37188 -0.24306 0.27875 0.98814 0.3127 -0.70384 0.054121 -0.73645 0.080064 -0.042377 -0.052255 -0.74753 0.56826 0.78386 -0.19102 -0.46965 -0.032706 -0.40213 -1.1419 0.8096 0.55644 0.22343 0.44838 -0.41293 0.5928 -0.295 0.34944 -0.73506 -0.10966 -0.15668 -0.17551 0.19916 -0.60532 -0.59693 0.69973 -0.20176 0.42606 0.39619 -0.51436 -0.12892 0.1046 0.94751 0.99715 0.37304 0.33857 0.44636 -0.10004 0.32192 -0.39424 -1.2469
refrigerator 0.42653 1.0302 -0.22249 -0.11733 1.0965 0.35431 0.25402 0.37797 -0.6551 0.43463 0.13205 0.51194 -0.69461 0.22895 0.35303 -0.66609 0.14822 -0.59297 -0.58312 -0.53234 0.37607 0.45178 0.10104 -0.13705 -0.33643 0.066881 -0.2345 0.74084 0.077402 -0.072192 0.16678 -0.13602 -0.17751 -0.41539 0.12373 0.49017 -0.25364 0.2359 -0.089661 0.061846 0.48061 -0.36228 0.76501 -0.037717 0.19808 -0.10666 0.55354 -0.28347 0.43089 -0.52948 -0.58613 -0.070826 0.76246 -0.25209 -0.46725 -0.32218 -0.059272 -0.042876 -0.089206 -0.81381 0.01324 -0.79653 -0.28886 0.15998 0.57251 -0.036712 0.0047258 0.89497 -0.84036 0.36717 0.71668 -0.39339 0.68613 -0.60019 -0.14959 0.022373 0.28045 0.31995 0.53805 0.62001 -0.062934 0.48231 0.47657 -0.14512 0.53215 0.33731 0.2457 -0.21936 -0.0077884 -0.64148 0.011622 0.41602 0.48471 0.0044786 0.63631 0.35168 -0.36916 -0.59656 -0.23984 0.016796
banana 0.46718 1.4987 -0.014306 0.63837 0.62808 1.073 0.5654 0.41117 -0.87562 -0.196 0.47478 1.067 -1.0285 0.09296 -0.45112 -0.036135 0.88312 -0.37582 -0.68637 -0.21306 -0.40259 0.21504 0.5055 -0.030579 -0.24061 -0.29147 0.20773 -0.17724 -0.30416 0.097652 0.35968 0.49051 -0.2464 -0.46025 -0.71924 0.62818 0.05312 0.35727 0.49463 0.83485 0.014223 -0.38379 0.042577 0.18539 -0.22908 -0.068717 -1.1811 -0.84807 0.29508 0.097346 -0.79057 -0.35304 0.44619 -0.2128 0.60676 -0.4935 -0.43796 -0.082399 -0.14357 -1.2233 0.55108 0.2955 0.96293 0.038895 0.44638 -1.1798 -0.43896 0.57004 -1.243 0.39366 0.15947 -0.61972 -0.55172 0.014929 -0.44233 -0.215 -0.16037 -0.12149 0.089872 0.076732 -0.611 0.58808 -0.11734 -0.89112 0.55963 -0.22813 0.72329 0.32704 -0.51482 0.81302 0.046121 1.0055 -0.81926 -0.093786 0.77775 0.47471 0.85327 -0.30261 0.10052 0.28551
neck 0.35113 0.71089 -0.29122 0.47198 -0.4811 0.40605 0.34334 0.84331 -0.34664 -0.30963 0.86484 0.62571 -0.61407 0.65037 -0.8096 -0.45173 -0.30738 0.22653 -0.40579 -0.14262 -1.1386 0.32897 -0.305 -0.2475 -0.14274 -0.58343 0.77843 0.40907 0.1642 -0.82216 0.059835 0.050767 -0.75916 -0.7026 -0.23915 0.28841 0.49089 -0.021079 -0.11499 1.0928 -0.0088655 0.74882 -0.57073 -0.393 0.077401 -0.42914 -0.52161 0.27387 0.069583 0.41116 0.093793 0.5125 1.1449 0.69246 0.057445 -0.46221 -1.0388 -0.082727 -0.036528 0.008764 -0.24462 0.47301 -0.52341 -0.015683 -0.17874 -0.56527 0.77501 0.30595 -0.51733 0.53051 0.29808 0.74059 0.10489 0.09375 0.22305 0.024495 0.61036 -0.41659 0.36924 0.41471 -0.28466 0.36521 0.73038 -0.16463 0.60401 0.15671 0.76135 -0.019494 0.48769 0.50683 -0.69811 0.68606 1.025 -0.20138 -0.088281 -1.1804 0.21439 -0.031945 1.5065 0.39616
river 0.85203 -0.23355 -0.80692 0.47607 0.30241 0.26932 0.3342 0.3539 -0.10288 -0.32372 0.69714 0.55476 -0.59346 1.1304 -0.46506 0.71745 -0.42788 -0.51101 -0.08821 0.34837 0.18449 -0.38944 0.055846 -0.060887 -0.07396 0.40808 0.24824 0.27974 -0.1598 -0.052422 0.25282 0.21715 -0.25087 0.14236 0.21912 0.82447 0.05583 0.079036 -0.27624 0.40707 -0.64524 -0.46996 0.7607 -0.15715 0.37887 -0.033826 -0.1122 -0.51774 -0.60985 -0.61033 -0.7435 -0.31816 0.25126 0.051104 0.45472 -0.23056 -0.18528 -0.87181 0.15068 0.25962 0.028797 0.022538 0.4648 0.75862 -0.12914 -0.26741 -0.040644 -0.37451 -0.99775 0.26105 -0.22075 0.019237 0.37248 -0.3527 -0.36399 -0.27982 0.17449 -0.66482 0.99736 -0.41763 -0.34099 0.30758 0.39583 -0.27912 0.78737 0.094711 -0.87374 -0.36627 -0.4966 0.65208 -0.0013528 0.30689 0.27059 0.23788 -0.057493 0.046329 -0.096612 0.28678 -0.48812 0.89755
apple 0.51592 0.93877 -0.18946 0.14877 -0.01955 0.79751 0.17399 0.1614 -0.71462 -0.35154 -0.028639 0.25564 -0.4377 0.49695 -0.47055 0.80291 0.60974 -0.93466 -0.80866 -0.049961 -0.54153 -0.26263 0.40967 0.36199 -0.24626 0.048588 -0.10997 -0.29008 -0.059432 -0.61895 -0.096764 -0.20353 -0.59494 -0.46548 -0.34337 -0.20836 0.10388 -0.19808 0.070715 -0.14328 0.62806 -0.47103 -0.37709 -0.25635 -0.098986 0.34219 -0.023216 -0.66512 0.77017 0.49366 -0.51173 -0.36805 -0.36463 0.68329 -0.22785 -0.1156 -0.42362 -0.20634 0.26872 -0.096055 -0.54676 0.11524 0.3895 0.45984 0.50557 -0.33892 -1.0024 0.21657 -0.62152 0.71821 0.64471 -0.48134 0.075871 -0.32186 0.12342 -0.16816 0.95763 0.24324 -0.056459 0.45481 -0.54167 0.24292 0.14137 -0.42787 0.56938 0.083276 0.20142 0.062332 -0.1835 -0.31164 -0.1014 1.0106 -1.1591 0.35608 0.9282 -0.21052 0.24619 -0.22792 -0.15227 0.74161
home 0.12471 0.68282 -0.59085 -0.91904 0.4112 0.073232 0.00049412 0.026653 0.3758 0.080775 0.30073 -0.0881 0.32644 -0.26648 0.36172 0.27193 -0.11445 -0.064019 -0.70944 -0.47509 0.97284 -0.57062 -0.29795 0.0456 -0.52703 0.25091 0.018084 -0.013176 0.37413 0.23622 -0.035221 0.60436 -0.91809 -0.060689 0.384 -0.084768 0.32412 0.63418 -0.32462 -0.52988 0.45819 -0.86581 0.4243 -0.4448 -0.1064 -0.33801 0.5516 -0.69001 -0.91449 0.56722 -0.24824 0.10445 -0.24371 0.94719 0.22533 -0.42061 -0.19653 0.31464 0.39959 -0.13195 0.049528 0.34459 0.42487 0.36637 -0.23763 0.11392 0.47676 0.68568 -0.38666 -0.17805 -0.54009 0.31605 -0.1086 0.04521 0.09993 -0.028521 0.27036 0.82462 0.022459 -0.23116 -0.22914 0.69897 0.26967 -0.051742 1.2735 0.42887 -0.29152 -0.12423 -0.61486 0.40081 0.4549 0.62627 0.54731 -0.098742 0.052144 -0.61178 -0.30383 -0.049472 0.5975 -0.61317
pen 0.46709 0.083953 -0.16437 0.57724 -0.38946 0.65618 0.32317 0.31483 0.080858 0.26725 0.18272 0.092 -0.28422 -0.52821 -0.64977 -0.54539 0.25418 -0.48364 -0.44513 -0.30125 -0.59618 0.37993 0.0029205 -0.59368 0.31932 -0.29687 0.050675 0.4732 -0.12212 -0.72236 -0.10475 0.7648 -0.37855 0.03662 -0.31133 0.066018 -0.00032094 0.1798 -0.99824 0.457 0.17605 -0.7495 0.1962 -0.2539 -0.43524 0.6304 0.75126 0.058005 0.031353 0.59511 0.44621 0.26361 -0.021989 0.98941 -0.11098 -0.3567 -0.57837 -0.14082 -1.1205 -0.24003 -0.10154 -0.4077 0.36435 0.29564 0.22457 -0.55127 -0.014644 -0.31804 -0.86777 -0.13542 -0.63754 0.6803 1.0321 0.20404 0.63676 -1.0814 0.66246 0.061396 0.72584 1.226 -0.073658 1.1994 0.97875 -0.11464 0.22609 -0.45391 0.42925 0.26672 -0.4233 0.8377 0.35187 -0.13284 -0.076924 0.44403 0.37613 -0.93884 0.44261 -0.35633 0.19961 0.18131
engine -0.24704 0.61241 -0.72535 -0.20147 0.19549 0.40651 0.19516 -0.097771 -0.2541 0.25057 0.60092 0.62325 0.086357 0.47016 -0.45434 0.53374 0.35594 -0.78457 -0.35832 0.10208 -0.1952 -0.045856 -0.38146 0.044688 0.11785 0.046367 0.41362 0.80265 -0.57013 -0.69244 0.18045 0.29832 -0.17089 -0.63928 -0.66631 0.28813 -0.29968 0.34456 0.99651 0.80214 1.0305 -0.844 -0.037685 -0.51774 -0.86445 -0.3041 -0.059214 -0.25615 -0.49404 -0.053758 -0.883 -0.22471 0.16391 0.40915 -0.41375 -0.35901 -0.25037 -0.58405 0.041538 0.060554 0.0095402 -0.24738 -0.27868 0.035067 -0.32454 -0.33169 0.19232 -0.063192 -1.266 0.99944 0.62222 0.63499 0.46506 -0.3512 -0.10798 0.1535 -0.076288 -0.12113 -0.19758 -0.65831 0.4614 0.49121 -0.5827 -0.38973 0.017668 0.17404 0.4512 -0.16434 0.86133 -0.12852 -0.041172 0.78531 0.49342 -0.51641 0.27317 0.13293 -0.49069 0.51732 -0.19483 -0.030295
pine 0.022156 0.2459 -0.62361 0.08614 0.21972 0.024298 0.31716 0.32121 0.01495 -0.13531 0.59293 0.57618 0.23659 -0.83193 -0.41145 -0.59115 0.37489 -0.33046 -0.57067 -0.21674 0.40931 0.21491 0.3389 0.15923 0.029471 -0.38556 -0.81754 0.14017 -0.52213 -0.17368 -0.45987 0.31532 -0.10239 -0.73766 0.17762 0.36793 0.85188 0.093073 -0.28753 0.087133 0.063105 -0.44083 0.45569 -0.21292 0.23353 0.05426 -0.53683 -0.71066 -1.3775 0.41871 -1.0085 -0.5004 0.075129 0.47605 0.11958 -0.7019 0.066386 -0.19157 0.5862 0.33995 0.37619 0.53798 0.17445 -0.0142 0.34361 -0.10809 0.039132 0.19044 -1.3261 0.064486 -0.3914 0.13919 0.39909 -0.12635 -0.37313 0.19973 0.19929 -0.18241 0.34723 -0.20813 -0.10373 0.66271 -0.37503 -0.67257 0.43136 -0.2063 0.30903 -0.0049426 0.033658 0.44774 0.15245 0.19369 -0.027275 -0.30909 0.71808 0.35675 -0.13328 -0.19035 -0.3152 0.069639
restaurant 0.095853 1.0335 0.074571 0.22087 -0.49945 -0.28289 0.35237 -0.96459 0.02572 0.15393 0.37305 0.50627 -0.40049 0.25875 0.0070165 -0.14043 -0.057426 -0.38843 -0.64218 -0.64894 0.20996 -0.19248 0.22744 -0.47007 -0.071561 0.4155 -0.39432 -0.1395 -0.52748 0.61545 0.054384 0.053875 -0.52071 0.78084 -0.70315 -0.069004 -0.16572 0.16956 -0.11715 -0.31779 0.43233 -0.12134 -0.10173 0.13584 -0.29437 -0.25821 -0.22178 -0.90217 -0.24046 -0.12774 -1.3576 -0.069981 0.2302 0.18401 -0.71134 0.013453 -0.21287 -0.53345 0.76544 -0.22259 -0.17059 0.66234 0.26282 -0.12871 -0.25874 -0.34434 0.42429 0.49019 -0.71491 -0.086493 -0.48772 -0.608 -0.14503 0.19487 -0.27234 -0.6788 0.57974 0.38318 0.091618 0.48219 -0.48567 0.56016 0.38489 0.61807 0.29103 0.073741 0.2609 -0.17495 -0.1983 -0.17555 -0.15793 0.17152 0.83253 -0.26158 0.12046 -0.19993 0.30799 -0.7173 -0.47386 0.26582
tent 0.37923 0.16728 -0.095402 -0.29131 0.23401 -0.18559 0.64082 -0.096343 0.23698 0.12893 -0.19802 0.090521 0.096768 -0.14926 -0.26355 0.13417 0.14083 -0.32464 -0.36847 -0.23433 0.34495 -0.49297 0.3853 0.28938 -0.030062 -0.86307 0.65254 0.78744 -0.070661 -0.49411 0.027297 0.41144 -0.16321 -0.44727 0.36977 0.13132 -0.14596 0.32012 -0.32747 -0.27132 0.26195 -0.3505 0.84324 0.12882 -0.41551 -0.19102 -0.93819 -0.21612 -0.7025 0.04539 -0.65657 -0.65397 0.43934 0.85211 0.10733 -0.12891 -0.36911 -0.216 -0.063591 -0.23262 0.11235 0.10207 -0.071769 0.085707 -0.15244 0.097662 -0.53952 0.17741 -1.4036 0.33884 -0.26752 -0.22478 -0.2706 0.072998 0.19008 -0.26702 0.16766 -0.16492 0.21081 0.067705 -0.23249 0.20787 -0.069717 0.48307 0.12473 -0.21343 -0.10956 -0.02991 -0.18735 0.31354 0.039232 0.17395 0.30257 -0.22055 -0.34358 -0.67798 -0.31991 -1.0632 -0.56443 0.61525
pipe 0.55623 0.48744 -0.62032 0.33103 0.33049 -0.66237 0.65115 0.57913 -0.51316 0.36406 0.12434 0.98705 -0.79945 0.44226 0.25697 -0.32996 -0.013578 -0.52467 -0.119 0.53735 0.23031 -0.34475 -0.49812 0.97342 -0.10304 -0.11722 -0.1446 -0.34611 -0.5001 0.21269 0.1455 0.69965 -0.39042 0.099275 -0.41783 0.27745 0.39318 0.5445 0.16141 0.71824 0.72913 -0.16917 -0.4695 -0.092769 0.25069 -0.39028 -0.43426 -0.48037 -0.86834 -0.17967 -0.54761 -0.70454 -0.37968 -0.17607 -0.69765 -0.5779 -0.11977 0.40234 -0.29175 0.20636 0.15863 -0.6917 0.044758 -0.21148 -0.0026163 -0.17251 0.17238 0.077021 -1.4092 -0.24245 0.31531 0.92446 0.22703 -0.64364 -0.80654 -0.014169 -0.30449 0.4098 0.08512 -0.29483 -0.040634 0.58504 -0.3064 -0.34011 0.84252 -0.040513 0.16425 -0.81711 -0.62113 -0.13579 -0.20028 0.19311 0.71916 0.29723 0.42674 -0.70562 -0.017388 0.78746 0.15142 0.3023
