man 0.23784 0.2593 0.71215 0.094691 -0.54265 0.76418 -0.28896 -0.20214 0.089446 -0.034621 0.17366 -0.13897 -0.43137 -0.18036 0.69739 0.33698 0.79182 0.096431 -0.82547 -0.46946 -0.20323 0.35493 0.55371 -0.29785 -0.30606 0.073659 0.58092 -0.50099 0.3905 0.22587 0.11105 0.60201 0.22768 0.0073932 -0.88419 0.67507 0.18914 -0.21841 -0.15116 -0.22701 0.030389 -0.25886 0.090346 -0.19859 -0.12675 0.23998 0.15695 -0.1607 -0.32439 -0.28957 -0.93737 -0.2944 -0.62293 0.21796 -0.095873 -0.67774 -0.22306 0.03409 0.11429 -0.33426 0.0088602 -0.67818 -0.01671 0.62124 -0.10809 0.034745 -0.24413 0.46141 -0.42877 0.044165 -0.088042 0.059778 0.54185 -0.0053576 -0.011136 -0.44261 0.17729 -0.26367 0.068078 -0.079036 0.059841 -0.11353 1.0874 0.16338 -0.29764 0.268 -0.17055 -0.20143 0.36464 0.4397 0.22393 0.2236 -0.062203 -0.074822 0.60874 -0.76359 -0.4707 0.40893 0.32895 0.91243
car -0.27931 0.2327 -0.023552 0.15319 -0.11133 0.44492 0.082859 -0.097103 0.33041 0.491 0.28823 0.49417 -0.59839 0.26142 0.047678 0.31461 0.16483 0.48235 -0.12996 -0.032427 -0.45685 -0.080596 -0.1986 0.54147 0.31327 0.32834 0.63745 0.053507 -0.52352 0.6729 -0.076093 1.2256 -0.69696 0.053441 -0.082373 -0.10796 -0.018932 0.55402 -0.10728 0.64993 -0.5564 0.34048 0.59725 0.23718 -0.031499 -0.7739 0.1298 0.55808 -0.31879 0.63233 -0.53818 0.75041 -0.37178 0.55491 -0.36408 -0.439 -0.55885 0.74376 -0.12398 -0.333 -0.38952 0.43972 0.092943 0.54887 -0.77213 0.36061 -0.61733 0.54382 0.13755 0.43489 -0.7256 0.48728 0.96098 0.39408 0.31122 -0.27236 0.10717 0.44094 0.60022 -0.11233 0.26678 0.14771 0.99093 0.41229 -0.37005 0.24283 -0.11646 0.38364 -0.41354 0.68701 0.094359 0.067227 0.12868 -0.47187 -0.43052 0.0559 -0.60627 0.67001 -0.51419 0.27036
person 0.20964 0.35376 0.83523 0.11763 -0.0021589 0.94935 0.17617 -0.19053 -0.084817 -0.11148 -0.20889 -0.035937 -0.10907 -0.4356 0.9502 0.27846 0.69159 -0.15864 -0.54294 -0.33727 0.28332 0.57472 0.54103 -0.4313 -0.099247 0.04371 0.19022 -0.32687 -0.12122 0.066621 0.17106 0.2471 -0.26927 -0.57712 -1.1388 0.84492 0.24856 0.15855 -0.22199 -0.11181 -0.15261 0.49446 0.24228 0.33318 0.12068 -0.15096 0.13665 -0.064754 -0.18125 -0.22309 -1.1359 0.61274 -0.71338 0.1714 0.15838 -0.43694 -0.86495 0.13332 0.0033012 0.62396 -0.1387 -0.59499 -0.26565 0.49948 -0.21995 0.21821 -0.50857 0.33894 -0.51973 0.16834 -0.43455 -0.18809 1.2003 -0.42605 -0.33449 0.087633 0.45837 -0.50284 -0.16738 0.042926 -0.14595 0.30436 0.96972 0.23417 0.038448 -0.47345 -0.25202 -0.13686 0.54589 0.41512 0.69559 0.37592 0.21015 0.43456 1.1149 -0.89022 -0.43129 -0.0066815 0.040855 0.75591
table 0.29764 0.030685 0.47597 -0.3253 -0.34685 0.076494 0.6 0.077983 -0.27648 0.72576 0.56797 -0.13666 -0.12857 0.23087 -0.044359 0.22647 -0.44633 -1.3069 -0.42813 -0.043788 -0.57813 0.39589 0.025459 -0.081998 0.37099 0.015808 1.1871 -0.17224 -0.48916 0.16492 -0.10524 0.36272 -0.17261 -0.18794 -0.36771 0.012028 0.37496 -0.15491 -0.41238 -0.23353 -0.066245 -0.346 0.16386 0.0087585 0.32876 -0.46231 0.48632 -0.086839 0.0166 0.35547 0.12079 -0.14553 -0.36201 0.19527 0.023553 -0.21262 0.18167 -0.016068 0.29927 -0.33098 -0.22881 -0.38075 -0.35854 0.16905 -0.51223 0.21001 0.11496 0.30375 -0.12629 0.45449 0.78915 -0.030618 0.94921 0.04787 0.86693 -0.058141 -0.53349 0.39508 0.2958 -0.044364 0.20002 0.57428 0.65019 -0.14322 0.33262 -0.69656 0.28465 0.30823 -0.33373 -0.35885 0.012981 1.31 -0.17199 -0.27915 0.54289 0.051781 0.016458 -0.34682 -0.47346 0.24777
street 0.28001 0.24877 -0.062287 0.36418 -0.44449 0.59494 0.32405 -0.38843 0.038153 1.1226 -0.33787 0.13549 -1.275 0.061459 0.23543 0.25865 0.18756 -0.051573 0.24172 0.24834 0.28437 -0.35608 0.56016 0.35865 -0.24761 -0.15773 0.68337 -0.34345 -0.46726 0.37683 0.13985 0.13871 -0.60915 -0.35396 -0.57923 0.42751 0.31246 -0.15974 -0.32317 0.061228 -0.18869 0.0077674 -0.046724 0.52924 -0.14084 -0.21189 0.04883 -0.77491 0.04937 0.43044 -0.37561 0.53114 -0.057184 0.56264 -0.00077046 -0.34284 0.43487 0.40677 0.19095 -0.42729 -0.189 -0.10843 0.23401 -0.23866 -0.6801 0.39473 -0.49293 0.84242 0.30774 0.80951 0.21818 0.6293 -0.17501 -0.74251 0.088321 0.069275 0.5099 0.11279 0.19165 -0.39498 -0.1226 0.10777 1.1563 -0.21074 -0.64143 -0.13661 -0.72728 -0.22193 -0.16322 -0.32084 0.44777 -0.27182 0.33912 -0.62354 -0.5363 0.22167 0.56134 0.19256 -0.22181 -0.012115
woman 0.072276 0.33349 0.8089 -0.044524 -0.27954 0.57875 -0.12351 -0.30181 0.044253 0.13137 0.15333 0.32249 -0.48328 -0.10934 0.68785 0.25021 0.98115 -0.14076 -0.53028 -0.40623 -0.066504 -0.079813 0.98944 -0.42232 -0.36446 0.17581 0.37134 -0.17021 0.38274 0.4864 0.10297 0.8286 0.12047 0.27801 -1.1947 0.50575 -0.063846 -0.29783 -0.072371 0.01877 -0.098245 -0.09445 0.19614 0.095352 0.32367 -0.15556 -0.018956 -0.22918 -0.28649 -0.039068 -0.63718 -0.26272 -0.46912 0.028528 0.012898 -0.65525 -0.38151 -0.091206 0.090883 0.13125 0.20503 -0.33376 -0.14553 0.22809 -0.21842 0.20468 -0.46442 0.50923 -0.14353 0.16061 0.049738 0.22122 0.73199 -0.35304 0.066203 -0.18479 -0.053259 -0.35305 0.3676 0.098358 -0.33615 0.071324 0.39414 0.068194 0.10019 -0.070614 -0.01134 0.053792 0.65761 0.27803 0.38894 0.92071 -0.071641 0.48171 0.62214 -0.096869 -0.18721 0.46633 0.1049 0.92936
glass -0.066945 0.56476 -0.36334 0.138 -0.22443 0.50536 -0.21015 0.32174 0.5226 0.26514 0.053381 0.62567 -0.44316 0.54454 -0.80697 -0.12482 -0.252 -0.66847 -1.116 -0.44071 0.28578 0.029886 0.67046 -0.42203 0.17287 0.49041 1.2757 -0.31998 -0.24016 0.32753 0.17022 -0.2878 -0.30043 0.39052 -0.38401 0.046338 -0.44069 -0.59507 -0.6256 -0.095836 0.32314 0.55859 -0.49971 -0.29384 0.32531 0.11939 0.31253 -0.31549 -0.3102 0.10998 0.34219 -0.23184 -0.0023039 0.28339 0.11521 -0.40322 -0.012191 -0.24121 0.042434 -0.52161 0.026987 0.4794 -0.16639 0.61097 -0.40008 0.68872 -0.53091 0.74073 -0.01008 0.53007 -0.3016 0.32442 0.58308 -0.085716 0.76192 -0.35433 -0.58026 0.29009 0.58054 -0.43126 -0.33573 -0.096902 0.41131 0.3739 -0.2319 0.76596 -0.66677 0.70148 -0.38631 0.44302 0.66508 0.45636 -0.15682 -0.49067 0.2335 -1.4035 0.23188 0.19328 -0.40614 -0.43279
chair 0.034954 0.30189 0.12348 0.13144 0.48039 0.14583 0.61077 -0.61142 0.41903 0.50801 0.43911 -0.423 -0.051182 0.45196 0.28215 -0.098114 0.72648 -0.49624 0.063952 0.41947 -0.84056 -0.3115 -0.17941 0.035237 -0.10892 0.46412 0.6254 -0.45156 -0.4487 -0.19649 -0.46111 0.72268 -0.016921 0.50119 0.16389 0.68006 0.37634 -1.0622 -0.77236 0.38983 -0.16403 0.52465 -0.10687 0.20832 -0.70996 -0.38135 0.64511 0.25946 -0.63588 -0.46295 -0.50454 0.018767 -0.83796 0.32228 0.21804 -0.56647 -0.20295 0.014849 0.099399 -0.49528 -0.45071 -0.79957 0.20188 0.80811 -0.29678 0.34681 -0.42565 0.092894 -0.26586 -0.033402 -0.088991 1.6526 1.056 -0.24388 1.388 -0.29926 -0.091207 -0.72418 -0.011885 0.039295 0.20023 0.65014 0.011441 0.43194 -0.11943 -0.5282 0.4958 -0.045207 0.52216 -0.086798 -0.53374 0.56137 0.2594 -0.25979 0.16434 -0.35688 0.45721 0.06826 -0.50996 0.20131
road -0.073507 0.078746 -0.096823 0.10625 -0.15851 0.57424 0.43656 0.11074 -0.33209 1.1216 -0.4927 0.071175 -0.76013 -0.10854 0.12395 0.27591 0.20455 -0.0069971 0.28626 0.19509 0.11042 0.0025988 -0.11467 -0.07549 -0.1869 -0.003716 0.71116 -0.42379 -0.62677 0.51473 0.34482 0.10203 -0.21865 -0.37972 -0.71842 0.21941 0.73102 0.047283 -0.22496 -0.01651 -0.28845 -0.15551 0.38858 0.7017 -0.19628 -0.42331 0.085425 -0.75709 0.19681 0.89077 -0.14446 0.67132 -0.55904 0.14522 -0.37372 -0.74207 0.032363 0.69678 -0.27795 -0.62547 0.53151 -0.32633 0.2052 -0.31837 -0.30593 0.17134 -0.75143 0.86941 0.33056 0.59696 0.18968 0.24498 0.056731 -0.36947 0.044073 -0.012208 0.97365 0.25847 0.4047 -0.87872 0.10558 -0.44141 0.66376 -0.18419 -0.5439 0.027413 -0.33046 -0.12324 -0.40914 -0.15304 0.21301 -0.45978 0.39625 -0.82927 -0.27317 -0.094246 -0.04565 0.43135 -0.25541 -0.068584
plate 0.42443 0.18856 -0.35209 -0.54723 -5.8256e-05 0.16153 0.26434 -0.30023 -0.72231 0.4493 0.33545 0.41681 -0.0076836 0.2711 -0.34187 0.58192 -0.33157 -0.2202 0.43082 0.4046 0.05156 0.4472 -0.21311 -0.61725 -0.25744 -0.22711 1.5859 0.76458 -0.050185 -0.2754 -0.18586 0.39684 0.10284 0.50214 -0.40265 -0.13931 0.37969 -0.29302 0.48364 -0.23021 -0.43232 -0.37899 0.98407 0.52974 0.69257 0.077888 1.2168 0.52638 0.42051 0.79375 0.21848 0.10994 0.093838 -0.627 -0.12557 -0.034006 0.62371 0.52098 -0.028054 -0.60032 0.50941 -0.38771 -0.74517 0.38568 0.06116 0.80496 -0.62106 0.030416 -0.28292 0.095824 -0.36116 0.30904 0.4978 -0.61255 0.40964 -0.173 0.1107 -0.048139 0.96842 0.16983 0.097138 -0.2579 0.36592 0.28334 -0.25624 -0.58023 0.23447 -0.0039817 -0.78155 1.1227 0.63357 0.41839 -0.50658 -0.67574 0.76745 -1.2216 0.14643 0.2385 -0.75288 0.21948
bus -0.61182 0.45947 -0.15708 0.095462 0.23771 0.19224 0.81649 -0.12976 0.70113 1.0415 -0.21079 -0.38961 -0.31337 0.3846 -0.099409 0.40428 0.50789 -0.02383 0.24546 0.050435 -0.53408 -0.23681 -0.017856 0.16056 0.1952 -0.092193 0.13085 0.31766 0.2844 0.22082 0.53941 0.79993 -0.50651 0.48778 -0.14457 -0.066279 0.32754 -0.27785 -0.20549 0.090758 -0.30376 1.0463 -0.13972 0.51594 0.023776 -0.55666 -0.49451 0.57123 0.094254 0.30565 -0.36077 0.3262 -0.31956 0.65819 -0.61032 -0.90158 -0.44127 0.57178 -0.0319 -0.2695 -0.29858 -0.0097962 -0.32529 0.12922 -1.0506 0.83525 0.27311 0.63918 -0.21775 1.0917 -0.50367 -0.31329 0.14165 -0.48687 0.37931 -0.057083 -0.37835 0.11647 0.36799 -0.7824 0.64872 0.079691 0.83072 0.61695 -0.56912 -0.027576 -0.17994 0.07985 -0.44525 0.95787 0.33081 0.37848 0.39524 -0.36878 -0.22578 0.18869 0.00058073 0.49715 -0.14887 0.037176
train -0.8972 0.27115 -0.87572 0.23671 0.4352 0.55197 0.26367 -0.48078 0.61482 0.90014 0.22948 0.42233 -0.49721 0.42696 0.28724 -0.38474 0.44608 -0.13604 -0.13685 -0.25875 -0.16923 -0.68143 0.23669 0.56918 0.032463 -0.38144 0.73636 0.63782 0.18259 -0.25926 0.79102 -0.15949 -1.2002 -0.11288 -0.61157 0.33177 0.38864 -0.38386 0.25717 -0.31991 -0.56924 0.5798 0.23514 -0.13518 -0.063036 -0.65699 0.28916 0.04611 0.08777 0.53495 -0.022083 0.07036 0.10469 0.3277 -0.40808 -0.58802 -0.73536 0.098658 -0.20224 -0.1591 0.0064873 -0.12565 -0.67477 -0.96632 -0.80609 0.39589 -0.60997 0.81428 0.036045 0.61863 0.087561 0.23774 0.52548 0.17735 0.035523 0.37229 0.3236 -0.19286 0.70224 -0.26351 0.33083 -0.036894 0.77516 0.40148 -0.45516 -0.45532 0.18076 -0.35208 -0.34364 0.17052 -0.53802 0.012394 0.46975 -0.66614 0.013069 -0.46194 0.098763 0.7888 -0.002149 0.084998
boat -0.86604 -0.22476 -0.55689 -0.037549 0.18259 0.021646 0.10796 -0.56951 0.14026 0.87243 0.3154 0.12313 -0.031207 -0.0060043 -0.096842 0.65942 0.31215 0.40247 -0.41513 0.22975 -0.18628 -0.56462 -0.34644 -0.25539 -0.025814 -0.89701 -0.14541 0.18881 0.033334 -0.15647 0.0086065 0.17816 -0.18506 -0.69897 -0.088964 -0.19616 0.95898 -0.074679 -0.50967 -0.58637 -0.6954 0.58319 -0.50962 -0.048616 -0.15464 -0.30022 0.16436 0.24686 -0.53564 -0.08236 -0.27278 -0.40694 -0.68156 0.19364 0.65064 -0.91245 -0.49519 -0.34513 0.51651 -0.52201 0.6131 -0.033585 -0.22842 -0.29374 -1.1926 0.85517 -0.57808 0.6448 -0.32131 0.73772 -0.024921 -0.055731 0.17702 0.070547 0.77873 -0.53089 0.57647 -0.55967 -0.089765 -0.87639 1.0186 0.78311 0.77614 0.59136 -0.34643 0.37615 -0.37967 0.37309 -0.53147 0.057619 0.061484 -0.056537 0.2003 0.41735 0.77589 -0.65922 0.16849 0.28119 -0.44958 -0.10491
truck -0.44704 0.35677 -0.83615 -0.446 -0.24843 0.47298 -0.43322 -0.48582 -0.11735 1.0366 0.25238 0.43068 -0.60814 0.55946 0.39287 0.28477 0.40659 0.24502 0.44535 -0.081854 -0.22756 0.13997 0.44236 0.74201 0.77529 -0.00994 0.063601 -0.16483 -0.41117 0.045438 0.428 0.036156 -0.20055 -0.31372 -0.16154 -0.38647 0.049623 0.19084 0.19702 0.36467 -0.74499 0.25356 0.25266 0.060467 0.21765 -0.39999 -0.12109 0.55227 0.044012 -0.01926 -0.59504 0.0025791 -0.60044 0.3096 -0.54713 -0.3551 -0.57718 0.99711 -0.13653 -0.32635 0.071749 -0.29176 0.060881 -0.65501 -1.1639 0.43492 0.037636 0.26915 0.34004 0.77323 -0.65045 0.53106 0.55554 -0.47017 -0.019616 -0.29612 -0.35333 -0.024708 0.29536 0.35947 0.98137 0.46007 0.93787 0.32406 0.43096 0.48667 -0.12562 0.17037 -0.093686 0.46752 0.082741 0.27989 0.20546 -0.37309 -0.084089 -0.28783 -0.86206 0.57956 -0.38314 -0.0030552
computer 0.26726 0.61014 -0.45855 0.059108 0.53566 0.29681 0.23612 0.091283 0.066103 0.45674 0.47116 -0.78727 0.17089 -0.24182 -0.017633 0.83822 -0.14799 0.18523 -0.55582 0.062353 -1.3112 0.086587 0.26497 0.10441 -0.016792 0.57403 1.1629 -0.28997 0.16578 -0.0010948 -0.023336 0.47451 -0.0341 -0.41632 -0.22683 0.096358 0.082558 -0.41323 -0.4395 0.032833 -0.37309 0.097231 -0.25105 0.098127 0.78493 -0.4651 0.25859 -1.0477 -0.10151 -0.71169 0.57188 -0.17507 -0.37934 -0.32809 -0.74076 -0.63147 0.023672 -0.48109 -0.0044697 -0.46776 -0.08224 0.17167 -0.78254 0.38677 -0.7424 1.0148 -0.37577 -0.093168 -0.59186 0.09043 -0.079567 0.97783 1.0642 -0.80259 0.28659 0.29963 -0.077191 -0.22324 1.0839 -0.010995 0.58801 0.37937 0.19582 -0.09391 -0.85598 -1.0467 -0.25399 -0.36625 -0.52826 -0.29041 -0.72332 0.097985 -0.42623 0.03386 -0.48045 -0.12923 -0.24726 0.30927 -0.15482 0.37242
bed -0.32581 0.33415 -0.38438 0.55397 -0.68083 0.2774 0.14432 -0.51776 -0.35339 0.38412 -0.013254 -0.0044738 -0.39529 0.12473 -0.061346 -0.019517 0.10721 -0.24081 0.047183 0.5764 -0.3455 0.010456 -0.072677 -0.9325 -0.45421 0.64207 0.35388 0.26104 -0.1257 -0.055663 -0.12497 0.093333 0.66273 -0.78632 0.036256 -0.036986 0.1737 -0.40286 -0.49494 0.6132 0.082364 0.99068 0.47311 0.73327 -0.17416 -0.61439 0.90808 -0.093598 -0.24511 0.61658 0.098767 -0.36001 -0.68735 -0.056403 -0.17847 -0.26478 -0.3554 -0.6299 -0.86698 -0.99009 0.6006 -0.47096 -0.59314 0.72204 -0.76872 0.11801 0.071777 -0.20475 0.17514 0.72292 0.66182 1.548 0.91398 -0.80508 0.37733 0.087395 0.24635 0.45408 0.41153 -0.056368 0.37613 -0.37237 0.85585 0.085638 -0.2172 -0.13682 0.12518 0.038221 0.16699 -0.30086 0.37816 0.59551 -0.39929 0.0719 0.25155 0.24437 0.45537 -0.20766 0.88706 -0.029867
bottle 0.21846 -0.24931 -0.12048 -0.39961 -0.047875 -0.33511 0.99859 -0.11634 0.73141 0.53885 0.85555 0.16623 -0.50658 0.3908 -0.25273 -0.12667 0.60983 -1.2632 -0.086155 0.1228 0.18295 -0.4795 -0.22424 -0.090385 0.050069 0.066403 1.1499 -0.13844 -0.10181 0.19941 0.020328 0.17688 0.47289 0.32726 -0.15617 -0.14202 0.34422 -0.40931 -0.82189 -0.72112 -0.38614 0.44774 -0.085749 0.11342 0.26851 0.33071 -0.19178 -0.24383 -0.38522 0.49375 -0.25385 0.10449 -1.1559 -0.43272 -0.36 -1.3392 0.43614 -0.79673 0.14402 -0.73645 -0.19788 0.16497 -0.15742 -0.039456 -0.82981 0.85886 0.15094 0.21708 -0.030247 0.4618 -0.7892 0.016313 1.0481 -0.99087 0.24143 -0.45819 -0.99416 -0.048602 0.11436 -0.21459 0.37484 0.24786 -0.21797 -0.14907 -0.62097 0.83927 0.011165 -0.29844 0.15086 0.42115 0.53563 0.10709 -0.39219 0.32177 0.64656 -1.8983 -0.2282 0.066251 -0.416 0.27672
bag 0.64716 0.18962 0.77004 -0.037139 0.25271 0.40191 0.39676 0.48175 -0.16575 0.53972 0.84322 -0.10254 -0.54045 0.58435 0.37054 -0.06811 -0.56807 0.012558 0.67297 -0.089904 0.21658 -0.21775 0.91129 -0.70333 -0.46378 -0.054278 1.3491 -0.11434 -0.41393 0.52605 0.33344 0.89073 0.2821 0.30281 -0.15767 -0.27437 1.1341 -0.26896 0.22956 0.27038 -0.48169 0.030067 0.042114 -1.0844 -0.2721 -0.66643 0.38589 0.054354 0.30098 0.57213 -0.42493 0.25136 -0.58429 0.061678 -0.14153 -0.30867 -0.047558 -0.012607 0.025521 -0.33456 0.31413 -0.76992 -0.69029 0.063652 -0.55493 0.46634 0.46823 -0.24516 -0.25089 -0.40599 -0.32673 1.0157 0.11172 -0.99038 -0.081305 -0.50517 -0.27852 -0.55172 0.99924 0.095315 0.049737 0.22155 0.26052 -0.0052348 0.25164 -0.35399 -0.77468 0.049429 0.49222 0.56058 0.064888 -0.030832 -0.55848 0.65593 -0.13882 -0.062383 -0.58764 0.40823 0.067734 -0.17604
girl 0.28538 -0.083448 0.57082 0.15986 0.44838 0.24118 0.12769 -0.11212 -0.056987 0.12707 0.17272 0.23765 -0.51321 -0.40205 0.61008 0.43302 0.96911 -0.29405 -0.62078 -0.6982 -0.064956 -0.15894 0.73452 -0.21996 -0.84564 -0.34216 0.24418 0.55699 0.41691 0.56003 -0.11945 0.83062 -0.075742 -0.10859 -0.99651 0.28454 -0.2261 -0.27722 -0.33231 -0.28845 -0.018617 -0.18265 0.24937 0.29012 -0.096022 -0.1676 0.23934 -0.18716 -0.00016218 0.097465 -0.71284 -0.34764 -0.44737 -0.021973 -0.23638 -0.85275 -0.26353 -0.036236 -0.16287 -0.30058 0.45296 -0.0014312 -0.23998 0.31993 -0.11088 0.10881 -0.34833 0.26322 -0.37296 0.07436 0.057541 0.16754 1.2094 -0.35355 0.39084 -0.32679 0.15136 -0.57206 0.18342 0.15665 -0.35095 0.089789 0.26677 0.36379 0.19121 -0.22955 0.11876 0.070288 0.65101 0.70878 0.2362 1.0116 -0.28336 0.43816 0.64594 -0.35137 -0.43447 0.36956 0.014757 1.0265
umbrella 0.54277 0.91769 -0.37483 0.7158 0.013197 -0.6285 0.77485 0.2838 -0.51986 0.25721 -0.1913 0.35926 -0.83565 -0.038749 0.14788 0.32812 0.48014 -0.69698 0.17822 -0.5349 0.27828 -0.078939 0.82475 0.19654 0.22552 -0.41724 0.81569 0.064176 -0.1407 0.40231 0.4847 0.16868 0.77785 -0.77988 -0.099912 -0.36616 0.13413 -0.023856 -0.251 0.83659 -0.7778 -0.31176 0.013579 -0.42199 -1.0383 -0.59945 0.076459 -0.49267 0.31629 0.23225 -0.485 0.15522 -1.2392 0.11764 0.15558 -0.20443 -0.46167 -0.46899 0.78894 0.26281 -0.49639 -0.71873 -0.50279 0.61988 -0.68333 0.97015 0.32078 -0.031435 -0.30804 0.40354 -0.55259 0.52051 0.0012753 -0.22531 0.41588 -0.04946 0.47287 -0.75061 0.49224 -0.6054 -0.097299 0.47402 -0.085747 0.33675 -0.75968 -0.1245 -0.60693 0.24324 0.41671 0.13112 -0.035662 0.71387 0.10919 0.59347 -0.084607 -0.17271 -0.050514 0.15956 -0.38771 0.086758
van -0.065456 0.62706 -0.58808 0.0083555 -0.30774 0.46828 0.35682 -0.10825 0.26234 0.94292 0.21841 0.17137 -0.64717 0.20477 -0.17085 0.37609 0.50116 0.51138 0.039639 -0.15848 -0.25621 0.13886 -0.25332 0.37544 0.18287 0.26211 0.5421 -0.23862 0.31122 0.28099 0.15764 0.81636 -0.29184 -0.31586 -0.006509 -0.34949 0.45366 0.062196 -0.14476 0.34121 -0.65309 0.1604 0.16665 0.40424 -0.086532 -0.51847 -0.16915 0.42084 0.18594 0.32145 -0.39681 0.17072 -0.86573 0.5296 -0.20141 -0.45217 -0.40746 0.76228 -0.38759 -0.27316 -0.14075 0.33852 -0.014399 0.41571 -1.4822 0.74366 -0.36111 0.4506 -0.090863 0.45098 -0.61097 0.46512 0.34102 -0.27537 -0.05099 -0.44448 -0.20578 0.0048822 0.36119 -0.133 0.97475 0.34291 0.70167 0.39737 -0.36059 0.28228 -0.28224 -0.045887 -0.20009 0.34767 0.095919 -0.10071 0.036967 -0.31614 -0.45412 0.10652 -0.60688 0.57813 -0.76558 0.21825
box 0.24664 -0.35351 -0.20501 -0.4718 -0.42324 0.035972 0.23593 -0.46972 0.36506 0.50697 0.18038 0.068501 0.088646 0.62727 0.18461 1.025 0.63253 -0.43526 -0.0019551 -0.066165 0.2425 0.75508 0.044032 0.5002 0.12433 -1.0646 1.253 1.0289 -0.12422 0.025934 -0.13225 0.013932 -0.22135 0.017492 -0.14306 -0.82032 0.89703 -0.34073 0.36794 -0.68719 0.37822 0.023084 0.40039 0.075854 0.06477 -0.38057 0.19778 -0.17676 -0.2723 0.42822 0.18125 -0.092551 -0.51794 -0.4577 -0.16585 -0.012211 -0.30453 -0.56483 -0.28012 -0.42038 0.23529 0.075387 -0.50673 -0.097513 -0.72512 -0.049312 0.68245 0.27443 -0.41527 -0.28202 -0.37304 0.71084 0.48285 -0.51592 0.65061 -0.26062 -0.40376 -0.1531 0.47739 0.67274 -0.023839 -0.093927 0.56535 -0.17286 -0.10841 0.12807 0.14729 -0.10043 0.43414 0.2158 -0.6783 -0.18513 0.1874 0.55471 -0.086141 -1.1593 -0.46669 0.89787 -0.7969 0.70872
city 0.52386 0.44393 0.1975 0.17245 -0.15336 0.13029 0.028783 0.040277 0.44777 1.1854 -0.24173 -0.21427 -1.3527 0.90717 -0.37805 0.59712 0.1693 0.43425 0.15217 -0.19823 -0.24404 -0.082046 0.78249 0.68886 -0.0054531 -0.53055 -0.13102 -0.20027 -0.10568 0.18055 0.053857 -0.22393 -0.32034 0.32064 -0.688 -0.10289 0.037974 -0.18852 -0.35524 -0.20013 0.26398 0.1443 0.015916 0.50577 0.80015 -0.29605 0.13276 -0.3439 -0.61262 0.055559 -0.73112 0.38216 -0.34492 0.0057327 -0.43836 -0.66714 -0.14859 0.35316 -0.43821 0.065587 -0.74657 -0.19058 -0.14129 0.29357 -0.53514 0.96936 -0.74961 0.44689 0.089908 1.1438 0.18491 0.107 0.35198 -0.83895 -0.27652 0.21585 0.83111 -0.19977 0.69615 -0.019701 -0.057394 0.5612 0.93398 0.32622 -0.70206 -0.50491 -0.74594 0.29476 -0.60007 -0.40214 1.0269 -0.46942 0.98739 0.093708 -0.128 0.33689 0.094799 0.30496 -0.42164 -0.087216
vehicle 0.0017168 0.54314 -0.56975 -0.069385 -0.28496 0.37427 0.29943 -0.38718 0.028543 1.1839 0.41617 0.014731 -0.50906 0.62096 -0.10431 -0.090524 0.48705 0.63337 -0.085541 0.10848 -0.21963 -0.16482 -0.074795 0.60998 0.087184 0.45543 0.14959 0.10132 -0.10257 0.47059 0.04882 1.0594 -0.40106 0.26647 -0.37779 -0.063396 -0.0062465 0.56287 0.50296 0.42439 -0.44224 -0.23904 0.52101 0.18412 -0.081758 -0.7289 -0.31935 0.51468 -0.7558 0.43657 -0.17876 0.64772 -0.56923 1.0713 -0.15679 -0.25867 -0.62226 0.47468 -0.25994 0.25371 0.0044963 0.30319 -0.19707 0.20306 -1.0003 0.58256 -0.33706 0.50379 -0.18023 0.93256 -0.93029 0.098235 0.84376 -0.42396 0.061306 0.091773 -0.1699 0.30431 0.20189 -0.40672 0.62721 0.60388 0.89601 0.35983 -0.12314 -0.089972 -0.43428 0.17353 -0.344 0.4874 0.0056294 -0.034141 0.012768 -0.5278 -0.22801 -0.53259 -0.4089 0.074658 -0.60245 0.31575
pillow 0.55522 0.46439 0.36741 0.25408 0.25246 0.61813 0.055066 -0.73004 -0.7641 0.44158 0.24488 0.3329 -0.33214 0.33091 0.35291 0.15193 0.58968 -0.3321 -0.1074 -0.25971 -0.30304 -0.047707 0.31767 -0.25086 -0.089936 0.22213 0.57339 0.82933 -0.056267 -0.28451 -0.54309 0.86077 0.045893 -0.7321 -0.34882 -0.48212 0.29049 -1.1391 -0.81468 0.84526 -0.40919 0.42762 -0.15995 0.47881 0.70439 -0.84376 0.3319 -0.42111 0.41532 -0.11411 0.49256 -0.22492 -0.94183 0.069479 -0.065114 -0.68198 0.48588 -0.44012 0.31332 -0.78967 -0.12068 -0.86799 -0.14848 0.7661 -0.97268 0.12062 -0.70197 -0.80393 0.14436 1.0507 0.21563 0.42517 0.73065 -0.93453 0.27384 -0.67834 0.068587 -0.21713 1.2381 -0.38659 0.84837 0.2325 0.31227 0.56789 1.2912 -0.10428 -0.20685 -0.058172 0.053477 0.33234 0.099073 0.27306 -0.29573 -0.43989 -0.25871 -0.33446 -0.52132 -0.35105 0.10216 -0.67253
bowl -0.069669 -0.59663 0.21795 0.1629 -0.0054585 -0.13752 0.24659 -0.40288 -0.27195 0.68634 0.63996 0.47573 -0.23093 0.49389 0.17706 0.66423 0.39326 -0.83922 0.0047695 0.43311 0.89415 0.6729 -0.36711 -0.040956 0.21949 0.12163 1.1142 0.6967 -0.13494 0.003971 -0.28772 0.51096 0.75556 -0.0029097 -0.20163 -0.52926 0.66501 -0.52021 -0.15068 -0.62683 -0.26815 0.29917 0.6544 -0.098458 0.36994 -0.57881 0.17903 -0.056649 0.32092 0.54838 -0.64563 -0.24773 -0.43527 -0.51543 -0.14249 -0.2289 0.4147 -0.33079 0.47773 -0.70728 0.81651 -0.39801 -0.52158 0.0043911 -0.33153 0.081342 -0.56203 0.33495 0.044232 0.057726 -0.11904 0.10599 0.41407 -0.4664 0.27635 -0.22397 -0.60686 -0.27538 0.85484 0.19895 0.30402 0.80048 0.16494 0.36568 0.12499 -0.22428 -0.25839 0.51729 -0.51674 0.72418 0.42958 0.23981 0.12392 0.052832 0.45293 -1.2488 0.40702 0.14709 -1.0309 -0.1623
food 0.67565 -0.18928 -0.40365 0.36836 -0.74341 0.14538 0.43086 -0.27137 -0.033938 0.13675 -0.47882 0.0082084 -0.32645 0.40669 0.35911 0.36101 0.77844 -0.46552 0.042359 0.58858 0.16495 0.56383 0.13648 -0.047302 0.92966 0.24859 1.3239 0.42104 -1.1484 1.4372 -0.020608 -0.013558 0.17857 0.29158 -0.60272 0.25923 -0.27715 0.22964 -0.27543 -0.59635 -0.65267 -0.48469 0.23858 -0.40651 -0.33919 0.041449 0.85697 0.19951 -0.15344 0.27368 -0.52555 0.09249 -0.31151 0.14858 -0.022059 -0.078209 -0.038127 0.33765 -0.16506 0.11576 0.3357 0.13094 -0.70778 0.36753 -0.23272 0.342 -0.076189 0.055329 -0.098089 0.50845 -0.44283 -0.07502 0.52153 -1.2325 0.28574 -0.94047 -0.8162 -0.35952 0.5387 -0.037796 0.066585 0.53324 0.082699 -0.19547 -0.14733 0.081994 -0.40718 0.24894 -0.14637 0.15098 0.312 0.26845 -0.29347 0.056097 -0.23737 -0.54379 0.32992 -0.053608 0.62768 -0.49749
dog -0.13361 0.10444 0.4876 0.26807 0.026499 -0.2528 -0.85641 -0.39365 -0.051966 0.20587 -0.088202 -0.31756 -0.0037773 -0.15949 0.9875 0.29247 0.35846 -0.28245 0.63893 -0.12762 -0.51195 0.25945 0.74315 -0.52694 -0.81174 0.050065 0.97583 -0.0085662 -0.041937 0.39029 -0.33828 0.79625 0.024834 -0.86104 -0.15149 0.092427 0.19244 0.20236 -0.071425 0.42918 -0.034052 0.22441 -0.062156 0.592 0.12957 0.34433 0.023973 -0.34386 -0.66833 0.57702 -0.99093 0.097131 -0.68613 -0.4883 -0.20909 -0.51104 -0.33015 -0.83341 0.93881 -0.096747 0.092095 -0.26331 0.40475 0.32022 -0.75794 -0.033861 -0.49152 0.43117 -0.049073 0.28291 -0.63413 -0.54992 0.71321 -0.43223 0.3809 -0.59026 -0.26233 -0.68409 0.28981 -0.24776 1.146 0.95963 0.097714 -0.35129 0.42914 -0.011095 -0.057967 0.61529 0.20378 1.1768 -0.17838 0.018497 0.12836 0.4778 0.31298 -0.11748 0.2002 -0.17538 0.3289 0.50843
mountain -0.20627 0.053626 -0.38628 -0.50084 0.0031295 0.27443 -0.13962 -0.11092 -0.16981 1.0077 0.009479 0.17633 -0.39886 0.4924 0.036971 -0.070312 0.44626 -0.15376 -0.39938 1.2757 -0.62389 -0.62671 0.63136 0.88937 -0.18231 -0.41756 -0.47371 0.26964 -0.12538 0.19091 0.089142 -0.26722 0.5057 -0.64036 -0.094943 0.025154 0.3962 -0.012619 -0.61155 0.10476 -0.097648 -0.14345 -0.44397 0.40687 0.093347 -0.24694 -0.18619 -0.42396 0.65481 0.93679 -0.51131 0.20891 -0.65838 0.43519 -0.40387 -1.2623 -0.21196 0.38683 -0.37196 0.76314 0.2441 0.38322 -0.23647 -0.095393 -0.13199 0.3284 -0.65978 0.015247 -0.64675 0.49169 0.45002 0.89563 1.1312 -0.69475 -0.006173 -0.11539 0.58776 -0.21022 0.027205 -0.23043 0.38544 0.80067 0.72567 0.33784 -0.97413 -0.012103 0.08362 0.53486 -0.07341 0.29669 1.0267 -0.40246 -0.15853 -0.56384 0.011198 -1.2682 -0.24269 -0.017021 -0.27435 -0.22829
wine -0.33466 -0.045609 -0.35874 -0.023481 0.4004 -0.49881 0.70997 -0.29847 1.0832 0.48363 1.0478 0.73685 -0.64151 -0.16512 -0.28222 -0.30582 0.10821 -1.2389 -0.30343 -0.32299 0.15628 -0.96992 0.35766 0.38752 -0.36552 0.28126 1.0266 0.68374 -0.29936 0.61808 1.1274 0.83 0.31508 0.57631 -0.42423 -0.35186 0.1926 -0.28001 -0.51987 0.13607 0.010661 0.57213 0.051763 -0.4041 0.468 0.034937 0.77605 -0.22151 -0.67662 -0.54067 -0.47062 0.396 -0.21833 -0.26344 -0.14769 -1.0741 0.0050591 -0.035997 0.29063 -0.92803 0.073703 -0.17044 -1.0864 0.59758 -0.016215 0.55482 -0.34259 -0.23368 -0.16276 0.30752 -0.17718 -0.18263 1.0458 -0.47809 0.48545 -0.27169 -0.3377 -0.222 0.0046798 0.073097 -0.45762 0.15093 -0.11751 -0.027578 -0.62098 -0.0023325 -0.058183 0.24128 -1.1018 -0.38182 0.36535 0.78329 -0.37011 0.071445 0.55189 -1.2075 0.023777 0.28254 -0.42651 -0.26736
horse 0.50819 0.2532 -0.33228 -0.52287 -0.11318 0.41193 -0.19263 -0.066194 0.042918 0.7311 0.34173 -0.18536 -0.12553 -0.22838 0.69649 -0.66375 0.30711 0.42118 0.30386 -0.4958 -0.47424 -0.92547 0.08029 0.44122 -0.8532 -0.61483 0.95387 0.80988 -0.23251 -0.37867 -0.82627 0.86532 -0.14381 -0.73307 -0.24637 0.09712 0.97746 0.14657 0.40283 0.75192 -0.26241 -0.27955 0.24368 0.69401 -0.94504 -0.24115 0.61782 0.10195 -1.1625 0.21441 -1.1239 -0.44124 -0.78894 0.26898 -0.70496 -0.5972 -0.69438 0.98014 -0.26598 0.55085 0.27685 -1.2653 -0.018706 -0.14468 -0.95419 -0.25899 -0.12411 0.88834 -0.40278 0.52071 -0.032064 0.12205 0.60182 -0.25217 0.8266 -0.63022 0.36447 -0.3661 0.91632 -0.74623 0.53025 -0.12637 0.14619 0.021818 0.073049 -0.040485 0.066731 0.12274 -0.30677 0.22918 -0.37732 -0.20847 -0.71706 0.59685 0.40651 0.28218 0.44289 0.15216 0.21188 0.4463
bicycle 0.041675 1.2034 -0.38736 0.38297 0.24262 -0.59596 0.13592 -0.59592 -0.47727 1.0667 0.69147 -0.2066 -0.28471 0.4907 -0.044823 0.31671 0.56722 -0.02247 0.27 -0.04856 -0.64388 -0.72569 0.40528 -0.15947 -0.050289 -0.17256 0.1288 0.49506 0.20694 0.38675 0.4468 1.0292 -0.20815 0.094903 -0.82386 -0.073107 0.61867 0.17459 -0.85468 0.25823 0.99448 0.2971 0.35193 -0.43021 -0.27072 -0.56478 0.52459 0.29765 -0.66588 0.36795 -0.69257 0.50054 -0.37258 0.58386 -0.60217 -0.70927 -0.13406 0.11239 0.096584 -0.706 0.30561 -0.54571 0.65643 0.43412 -1.2541 0.53093 -0.26056 0.87535 0.20653 0.3934 -0.65167 -0.26692 0.68856 -0.70316 0.11042 0.2203 -0.019752 0.78764 0.0088282 0.35405 0.34456 0.47127 0.16157 -0.30388 0.1273 -0.096902 -0.47684 -0.09059 0.28281 -0.17208 -0.31593 -0.29126 -0.17708 0.23621 -0.11026 0.37431 0.26281 0.40999 0.32582 0.26277
cat 0.55551 0.12046 0.27899 0.2609 -0.18281 0.52463 -0.61121 -0.63356 -0.62523 0.21227 1.0598 0.0084333 0.15866 0.054534 0.97196 1.2431 -0.25149 0.009235 -0.14073 -0.62696 -0.18477 0.44921 -0.13259 -0.54415 -0.46285 0.32632 0.76943 0.52329 0.053173 0.99946 -0.20014 0.95945 -0.17379 -0.14524 -0.78391 0.44098 -0.15552 0.10726 0.50492 1.0469 -0.51978 0.72759 -0.24323 0.37766 0.081931 -0.48722 -0.27204 -0.8819 0.039212 0.59651 -0.247 -0.28477 -1.1702 0.66659 -0.16306 -0.26954 -0.3251 -0.26849 0.33932 0.064311 -0.14895 0.15084 -0.40234 0.3292 -0.63104 0.16764 -1.284 -0.77585 0.13559 -0.023623 -0.51839 0.078681 0.48811 -0.6106 0.43837 -0.55553 -0.26435 -0.79187 0.94605 -0.52433 0.54622 0.086498 -0.41152 -0.27203 0.30571 0.28539 -0.5435 0.43034 -0.2661 0.36973 -0.13832 -0.026693 -0.25169 -0.71385 0.41653 0.076163 -0.2928 -0.1021 0.011883 0.85911
bridge -1.2025 0.62266 -0.25245 0.11099 -0.51563 0.61182 0.56142 -0.24821 -0.14861 0.14733 -0.45884 0.24057 -0.079157 0.35705 0.30608 -0.050165 0.1911 0.36347 0.20697 0.12036 -0.37066 -0.41025 0.3779 0.31165 0.1366 -0.98499 -0.40508 0.0099004 -0.62421 0.071305 0.20764 -0.30503 -0.41952 -0.83446 -0.57957 -0.51879 0.30864 -0.089238 0.0514 0.75885 -0.16669 0.33081 -0.4307 0.38356 0.15704 0.082576 0.47733 -1.0796 -0.45414 0.73141 -0.16811 0.31131 -0.44126 1.4374 0.070422 -0.98819 -0.0068722 0.048393 -0.11442 0.033754 0.75478 -0.70202 0.053098 -0.33959 -0.48532 0.71565 -0.79453 0.47433 0.11455 0.28258 0.35769 0.18277 0.7096 0.017489 0.28874 -0.074888 0.68999 0.00077365 0.9419 -0.48358 -0.016149 0.23948 0.50804 -0.072645 -1.107 -0.08323 -0.23155 0.33318 -0.56013 -0.012333 0.41873 -0.1388 0.27372 0.086197 0.41884 0.10162 -0.022095 0.089611 -0.065441 0.81854
bird 0.089549 0.39897 -0.43511 -0.28396 -0.52756 -0.0082054 -0.92383 -0.41273 -0.23206 0.42063 0.13529 0.31735 -0.34645 -0.23576 0.39747 0.098485 0.018811 -0.28212 0.45715 -0.43075 -0.79951 -0.30826 -0.080933 -0.22052 0.22411 -0.57589 0.55227 0.14216 0.099345 0.045881 0.32272 0.4381 -0.71866 -0.31343 -0.4597 0.32172 0.54658 0.10665 -0.12414 0.32397 -0.26346 0.95265 -0.14353 0.23124 -0.20769 0.036453 -0.14255 -0.73466 0.013822 0.58027 -0.71962 -0.34002 -0.36568 0.19079 -0.49316 -0.9095 -0.098368 -0.18649 0.24677 0.020551 0.46439 -0.18388 0.37222 0.80602 0.42975 -0.059767 -0.080597 -0.11867 -0.25308 -0.40065 -0.96586 -0.36555 1.3195 -0.34361 0.32576 -0.867 1.1561 -0.418 0.31935 0.14601 0.66395 0.87426 0.028292 -0.20005 0.10277 -0.48134 -0.5801 0.39489 0.067314 0.11008 0.62086 0.62654 0.14486 -0.022354 0.28203 -0.71705 0.9992 0.67312 -0.51519 0.23954
child 0.2132 0.13663 1.1559 0.082181 0.016137 0.32694 0.0042512 -0.087862 0.31772 0.085204 -0.29148 0.026289 -0.70694 -0.29565 0.66759 0.20762 0.87676 0.15135 -0.26027 -0.12721 -0.22434 -0.16287 0.33809 -0.44056 -0.82869 -0.092947 0.11719 0.5338 0.49151 0.61724 0.12129 0.57021 -0.009285 -0.38135 -0.77162 0.45461 -0.3146 -0.030286 -0.7666 -0.13087 -0.2516 0.11486 0.74796 -0.15284 -0.338 0.21614 -0.0028396 -0.095962 0.21087 0.20674 -0.78685 -0.16365 -0.72705 -0.094232 -0.27728 -0.41694 -0.01335 0.34368 0.020869 0.047526 0.83165 -0.67007 -0.57613 0.3277 -0.44912 0.39773 -0.25993 0.040579 -0.2661 0.41412 0.052424 -0.069291 1.2014 -0.23943 0.26677 -0.59436 -0.0040705 -0.50429 -0.30189 0.29499 -0.070761 0.29178 0.43489 0.038091 0.087583 -0.2207 -0.070544 0.089245 0.93793 1.0094 0.38619 0.29399 -0.52995 0.2548 0.31191 -0.42182 -0.43862 0.13681 0.50735 0.86133
airplane -0.56083 0.60709 -1.2284 0.054568 0.087105 -0.26719 0.46509 -0.14751 0.19667 1.2472 0.016109 -0.36267 -0.45723 0.41738 0.32156 0.61324 0.09807 -0.14812 0.4418 -0.040553 -0.24703 0.40438 -0.55892 0.83965 -0.1913 0.091218 0.22219 0.42534 0.60996 -0.50929 1.0081 0.34847 -0.62805 0.077566 -0.73068 0.50258 0.3759 -0.054295 0.10983 1.422 0.027272 0.0085539 -0.03435 -0.44214 0.69624 -0.24705 0.32711 0.16777 -0.99147 0.31325 -0.32786 0.038072 -0.95633 0.57679 0.47631 -0.067385 -0.78598 0.36228 -0.23914 -0.57574 0.78996 0.091298 -0.77665 0.031894 -0.22345 0.9553 -0.50845 0.53542 -0.38749 0.70104 -0.45887 -0.38699 0.40646 -0.019266 0.92444 -0.56487 0.55332 -0.58693 -0.16423 -0.32435 1.2181 0.40328 0.16078 0.16201 0.3531 -0.70847 -0.95423 -0.91535 -0.71809 0.47534 -0.24723 0.3439 0.6971 -0.060148 -0.027093 -0.75771 -0.67274 1.4007 0.21802 0.27984
ball 0.39104 0.27709 0.068182 0.090702 -0.13984 -0.48053 0.68596 0.35739 -1.2714 0.21383 0.62314 -0.021331 -0.39502 0.76286 1.0315 0.27047 -0.23814 -1.2558 -0.21853 -0.026559 0.019688 0.31835 0.2642 -0.4333 -1.4398 0.2364 0.36196 -0.14949 -0.32341 -0.13591 -0.17333 -0.31755 -0.82063 -0.071339 -0.50066 0.4194 0.18917 0.10822 -0.44635 -0.084778 0.46767 0.45953 0.27678 -0.63909 -0.43891 -0.81186 -0.80126 0.27651 0.0082788 0.45039 -0.6777 -0.33278 -1.0003 0.053155 0.38598 -0.53258 0.44591 0.80124 1.1521 -0.11629 0.033779 -0.089391 -0.49227 0.50717 -0.62599 0.12858 -0.24523 0.46912 -0.11712 0.62077 -0.84738 0.51404 0.38974 -0.45083 -0.05647 -0.25584 0.45567 -0.61645 0.28953 -0.10387 0.6121 0.62519 -0.071802 -0.056782 -0.010146 -0.18048 0.38088 -0.6152 -0.54652 0.58365 -0.20298 0.095173 -1.5529 0.70848 -0.261 -0.80732 -0.028161 0.43794 -0.38867 -0.053663
hill -0.12972 0.042724 -0.69028 -0.41836 -0.017836 0.28152 0.30667 0.35723 0.11946 0.69061 -0.58727 0.26255 -0.26851 0.17357 0.27803 -0.067513 0.6561 -0.23915 -0.58398 0.79044 -0.10966 -0.45559 0.60299 0.82901 -0.66822 -0.14693 -0.14995 0.082221 -0.20856 -0.30418 0.47241 -0.81171 0.092063 -0.91442 -0.25976 -0.36071 0.33352 0.010949 -0.51195 0.59561 0.10211 0.05984 -0.24558 0.85062 0.16287 -0.45531 0.68555 -0.7377 0.083663 0.50564 0.34192 0.23942 -0.80867 0.22639 -0.71741 -1.4166 -0.4206 1.0189 -0.037167 0.72926 0.28997 0.20527 -0.073195 0.23179 -0.4523 0.24416 -0.48547 0.055768 -0.401 0.46988 0.15061 0.60683 1.1871 -0.52385 0.12935 0.099903 0.44158 -0.27759 0.47358 -0.46196 0.41547 0.36405 0.68613 -0.39643 -0.34549 -0.37221 -0.23947 0.60994 0.20583 0.043357 0.57707 -0.64027 -0.42572 -0.22297 0.054584 -0.44553 -0.7656 0.057532 -0.31547 -0.27109
fork -0.2961 0.21748 -0.32181 0.80151 0.10997 -0.055759 0.61514 -0.34274 -1.0832 0.38011 0.4384 0.055233 -0.23723 -0.24559 -0.33964 0.19183 0.44549 -0.90093 0.10967 0.95087 -0.3329 -0.13531 -0.46972 -0.094625 0.75227 0.34601 1.0799 0.13387 -0.91187 0.71644 0.69971 1.2567 0.10871 -0.56135 -0.5914 0.0081698 0.20502 -0.81824 -0.30195 0.044634 -0.93984 -0.027991 0.7363 -0.2576 0.1091 -0.029474 0.75636 0.12403 0.029237 0.40532 -0.80997 -0.064543 0.18012 0.17419 -0.11023 -0.174 0.17245 -0.096916 0.21997 -0.8114 0.0037072 -0.21822 -0.38899 -0.196 -0.84729 0.39496 -1.1455 -0.3841 -0.15186 0.053053 0.45274 0.54054 0.45662 0.026558 0.47285 -0.25964 -0.33012 -0.060424 0.78284 -0.2188 0.10691 0.32473 -0.079655 0.35889 -0.76768 -0.27165 -0.19752 0.84476 -0.67819 1.182 0.67575 0.58368 -0.85337 -0.27078 0.3419 -1.659 0.16398 0.012614 -0.13816 0.026936
knife -0.24905 0.10314 0.42818 0.29379 0.21303 -0.26494 0.75929 -0.29454 -0.99093 -0.19174 0.37549 0.16181 -0.17462 -0.15461 -0.40959 0.40446 0.33173 -0.87551 -0.16401 0.85156 -0.21322 -0.025536 0.027047 -0.078854 -0.10304 0.8503 1.3377 0.12482 -0.51311 0.54067 0.79257 1.1214 0.15183 -0.51491 -0.57492 0.086104 0.29913 -0.47745 0.072136 0.42247 -0.19643 -0.32177 1.1819 -0.83807 -0.13684 -0.13338 0.33137 -0.10353 0.23947 0.6282 -0.95537 -0.37473 0.16526 0.065888 -0.42232 -0.54841 -0.0061075 -0.33079 0.15474 -0.75979 -0.1589 -0.59424 -0.48192 -0.35467 -1.1491 0.11026 -1.0018 -0.49133 -0.21668 0.56329 -0.11843 0.085298 0.13342 -0.040293 0.47928 -0.24539 -0.42034 0.29877 0.92483 -0.060912 -0.27791 0.62949 0.28246 0.2071 -0.81995 -0.65359 -0.070239 0.70863 -0.95172 0.81179 0.57167 0.61623 -0.82299 0.39102 0.88511 -1.6919 0.076737 -0.03721 -0.28217 0.1936
pizza 0.16271 0.2596 -0.32912 -0.2331 -0.057384 0.50092 0.20166 -0.1858 -0.60175 -0.28847 -0.40422 -0.033638 -0.49211 -0.23127 -0.23402 0.90957 0.35656 -0.15472 -0.80094 0.20475 0.16789 0.17861 0.21031 0.34621 -0.25459 0.3025 1.2707 0.041135 -0.48099 1.1013 0.63942 0.40283 0.71509 0.092497 -1.0381 0.0070117 0.080124 -0.20399 0.29702 0.1483 -1.046 -0.26768 0.36053 -0.37285 0.57728 0.016213 0.80323 -0.48543 -0.23349 0.19506 -0.65623 -0.45917 0.093993 -0.26618 -0.79617 -0.28349 0.11199 0.36238 0.33304 -0.51532 -0.14039 -0.67621 0.31221 -0.48896 -0.052167 0.60592 -0.39332 0.80177 -1.1427 0.22129 -0.32138 -0.34424 0.42207 -0.67417 1.2065 -0.72312 -1.405 -0.024767 0.73893 0.26962 0.60928 0.7428 0.10679 -0.030582 -0.58653 -0.27022 -0.45789 -0.014921 -0.528 0.55659 -0.046744 -0.2876 -1.0423 0.518 -0.1976 -0.49632 0.34072 0.14611 0.065929 -0.65416
cake -0.26075 0.32722 -0.31788 -0.2487 -0.04225 0.87509 0.041476 -0.53563 -0.4015 0.0049946 -0.63521 1.0988 -0.53754 -0.36801 -0.10813 0.88587 0.62378 -0.5659 -0.62509 0.067045 -0.49214 0.17092 0.040591 0.2531 0.021014 0.20191 1.1132 0.46649 -0.043185 0.30923 0.074466 0.5682 0.89034 -0.2542 -0.34695 -0.8942 0.45513 0.40236 -0.31395 0.71966 -0.98888 0.48352 -0.18986 -0.042995 -0.45985 -0.82973 0.096282 0.54012 0.2588 0.40419 -0.60903 -0.33147 0.36436 -0.12643 0.23601 -0.3747 0.52302 -0.58945 0.59284 -0.83153 -0.69231 -0.42029 -0.58894 -0.18658 -0.39478 -0.31192 -0.6025 0.38029 0.042954 1.1078 0.23458 0.02418 1.0769 -0.034906 1.8721 -0.079768 -1.167 0.019776 1.6108 0.47313 0.22481 -0.2347 0.42542 0.59214 -0.48982 0.2934 -0.33631 0.35206 -0.75743 0.49652 0.37514 0.39214 -0.98726 -0.087837 0.28663 0.20457 1.1657 0.32817 -0.25014 -0.33779
oven -0.2692 0.57867 -0.3527 0.40611 0.29729 -0.090184 0.27192 -0.25778 -0.028423 0.24239 0.31315 -0.25513 0.05772 0.2209 0.33055 0.28523 0.045103 0.64106 0.34449 0.32834 0.026378 0.57077 0.26973 0.1055 0.1042 0.56506 1.4312 0.06402 -0.3175 0.8171 -0.03681 -0.4012 0.88613 0.13584 -0.84409 1.0175 0.85859 -0.81522 0.010429 1.0096 0.16253 0.30555 0.49473 -0.85648 -0.044225 0.14266 0.1233 -0.10651 0.58302 0.85683 -0.3112 -0.23191 -0.32387 0.40812 -0.59069 -0.59803 -0.20052 -0.48481 -0.012067 -0.47063 0.21316 -0.16355 -1.36 -0.43413 -0.1494 -0.084735 -0.50209 0.28718 -0.36638 0.6541 -0.043531 -0.19335 1.0297 0.31475 0.72829 -0.32315 -0.83172 -0.19755 0.22804 -0.16726 0.9193 0.32917 0.72116 0.63892 -0.48518 0.21468 -0.24179 0.7416 -0.22948 0.17938 0.13726 0.34139 0.12907 0.67046 0.14851 -0.072587 -0.4404 0.86932 -0.20853 -0.44633
container 0.033834 0.00038492 0.37995 -0.72024 -0.069091 0.026783 -0.15122 -0.40687 0.054685 0.76292 0.39753 0.29093 -0.77259 0.36577 -0.05726 -0.2237 0.16457 -0.38307 0.0012898 0.16441 0.033303 0.52728 0.32224 0.41694 0.76154 -0.039526 0.99449 0.45931 0.022638 -0.21034 -0.2214 -0.18901 0.56163 0.41473 -0.21269 -0.29739 0.71005 -0.55945 0.12869 -0.22329 -0.48683 -0.017875 0.11629 0.05223 0.012425 -0.32134 0.33185 0.16282 0.12035 0.446 -0.67666 0.41668 -0.59544 -0.20645 0.10734 -0.035402 0.13097 -0.69273 0.30091 -0.24235 0.39617 0.18887 -0.29364 -0.10728 -0.35424 0.50633 -0.18142 -0.34279 -0.18108 -0.2323 -0.018907 -0.049793 0.74472 -0.91901 0.6112 -0.28318 -0.54159 -0.08039 0.24173 0.17944 0.2782 0.46743 0.29437 0.06531 -0.00084951 0.25491 -0.46072 -0.18653 0.098074 0.59282 -0.11853 -0.23455 0.059583 -0.10782 -0.13179 -1.3711 -0.52521 -0.2791 -0.37275 0.55814
giraffe 0.022937 0.73559 -0.59052 -0.68643 -0.21413 0.039964 -0.28565 0.069025 -0.50086 0.73817 -0.037745 -0.13781 -0.42667 -0.27486 0.21427 0.358 -0.18292 -0.0874 -0.0042066 -0.64228 -0.87232 -0.31115 -0.22828 0.51137 -0.90296 -0.41586 0.62173 0.70894 0.24825 0.62733 0.55685 1.0529 -0.57979 -0.25799 -0.46029 -0.054246 -0.19139 -0.19198 -0.013038 -0.14955 0.44421 0.14493 -0.4054 0.80659 -0.22644 -0.22757 0.23164 -0.66705 -0.27649 0.88069 -0.5128 -0.76153 -0.66929 -0.37407 -0.67882 -0.56069 -1.0441 -0.1081 -0.23887 0.32491 -0.0082031 -0.80573 -0.13403 -0.20292 -0.27895 -0.66887 -0.52151 0.35719 -1.0358 -0.20508 -0.81719 0.53252 1.301 -0.85628 0.059079 -0.85532 0.73605 -0.71975 0.97845 -0.39242 0.26541 0.35807 0.4065 0.19053 0.44493 -0.1266 -0.1856 0.65315 -0.37932 0.18589 -0.39705 0.2658 -0.055 -0.97287 0.58637 -0.57312 -0.070921 -0.50403 0.15038 0.38706
zebra 0.29993 0.13563 0.42871 -0.24727 -0.78043 0.41321 -1.0994 0.3148 -0.072935 0.70045 0.17345 -0.34603 -0.28469 -0.060641 1.0649 0.2394 0.49927 -0.9572 0.86465 -0.35112 -0.60251 0.2707 -0.2328 0.25136 -0.51442 0.14814 0.79125 0.13809 0.082778 0.62915 0.56009 1.1211 -0.31781 -0.33742 -0.79902 0.087246 0.20804 -0.55068 0.38715 0.55239 -0.037958 0.73983 -0.84026 1.2082 -0.064423 -0.26305 -0.078134 -0.63011 -0.24222 0.5474 -0.66799 -0.87787 -0.88956 0.057064 -0.22994 -0.77999 -0.7529 0.16492 0.17292 0.66793 -0.31406 -0.64319 -0.14868 0.021591 -0.52209 -0.056185 -0.53781 0.20314 -0.6638 0.33571 -0.61116 -0.11748 0.53577 -0.57032 0.14956 -0.41924 1.3099 -0.87132 0.27697 0.055876 1.6331 -0.02203 0.7035 0.18982 0.27763 -0.44318 -0.31944 0.45673 -0.50876 0.10297 -0.10828 0.47815 -0.10003 -0.65424 0.043963 -0.57535 -0.12832 -0.47045 0.44055 -0.22631
sofa 0.054422 0.64249 0.10365 0.65437 -0.21124 0.21098 0.078569 -0.43475 -0.047756 0.24412 0.65699 0.14602 -0.10024 -0.015599 0.21388 0.1264 0.062436 -0.13574 -0.46197 0.19151 -0.73518 0.1077 -0.32478 0.36857 -0.52173 0.39702 0.52729 0.040597 0.10419 0.10546 -0.62294 0.72593 0.049365 -0.23648 -0.10615 0.21577 0.57594 -0.57005 -0.79286 0.43901 0.085708 0.4462 -0.030861 0.10501 -0.062307 -0.6867 0.35893 -0.1426 0.0065459 0.40523 0.07785 0.11785 -0.59635 0.44781 -0.00084228 -0.97145 -0.22124 -0.8571 0.19207 -0.67708 -0.41849 -0.95193 -0.5119 0.90533 -0.97472 0.10347 -0.071921 0.17341 0.026811 0.67409 0.38266 1.3769 0.65338 -0.94647 0.33525 -0.063389 -0.21997 -0.016333 0.7121 -0.00034803 0.4753 0.059823 0.088092 -0.24623 0.31931 -0.081465 0.12728 0.08027 0.21987 -0.12732 -0.36798 0.77784 0.16416 -0.94609 -0.092712 0.028694 0.09447 -0.14894 -0.043057 0.0027941
spoon 0.0046516 0.29925 -0.053362 0.61195 -0.066574 0.30127 0.52437 -0.53948 -1.0273 0.4383 0.72623 0.19665 -0.44138 0.044854 -0.11454 0.41123 -0.12096 -0.64624 -0.11644 0.67064 0.09456 -0.10518 -0.60169 0.11866 0.8601 0.59927 1.5335 0.15975 -0.81945 0.85035 0.29585 0.7228 -0.12289 -0.35793 -0.48692 0.19534 0.10285 -0.24721 -0.51129 0.062687 -0.075292 0.054699 0.84141 -0.21118 -0.1851 -0.28649 0.51886 -0.0066397 0.27411 0.75686 -0.81348 -0.1603 -0.014589 -0.12968 0.06802 -0.28959 0.39443 -0.58157 0.3273 -0.81135 0.52639 -0.26031 -0.406 0.12882 -0.66242 0.33522 -0.76659 0.11576 -0.23166 0.064771 0.046053 0.19471 0.61894 -0.17673 0.56949 -0.40873 -0.61071 -0.01421 0.62446 0.03873 -0.027017 0.81003 0.026273 0.11272 -0.35097 -0.20085 -0.028039 0.71716 -0.9806 1.0448 0.67487 0.50902 -0.3599 0.18131 0.5706 -1.2624 0.18754 -0.16216 -0.33036 0.15655
bear -0.15554 0.33597 -0.050464 -0.49521 -0.3743 0.5248 0.10909 -0.13706 -0.46316 0.07051 0.51504 0.31231 -0.33083 0.20094 0.80546 0.9865 0.35741 -0.10155 -0.2504 -0.4212 -0.76966 -0.15452 -0.48379 0.10115 -0.33573 0.0034341 0.28539 0.95286 -0.0033663 0.028389 -0.34471 0.93026 -0.14853 -0.23371 -0.80609 0.90867 0.12092 -0.016655 -0.95491 0.0052386 -0.33713 0.32021 -0.015079 0.18191 -0.24252 0.31948 0.76478 -0.94827 -0.18298 0.4872 -0.028075 -0.16423 -1.3049 0.24015 -0.5991 -0.79137 -0.51585 -0.38849 0.20045 -0.43409 -0.050517 -0.53876 -0.74085 0.61809 -0.40946 -0.18843 -0.44611 0.35499 -0.10793 -0.19596 -0.27607 0.41388 1.0596 -0.0018228 -0.16105 -0.29593 -0.13888 0.21326 0.587 -0.027966 0.8984 -0.19063 -0.3213 0.064053 0.486 0.0040775 -0.6586 -0.12158 0.52394 0.63148 0.9559 0.10885 -0.48491 0.57804 0.018878 0.61435 0.37685 -0.02764 0.48736 0.14886
guy 0.36755 0.087217 0.85775 -0.017129 0.22534 0.86434 -0.16651 -0.29077 0.22296 -0.075808 0.24385 -0.052731 -0.32459 -0.13568 0.7187 0.71197 0.654 -0.0093849 -0.37768 -0.37186 -0.53535 0.50494 0.41326 -0.41447 -0.34418 -0.073524 0.28222 -0.33218 0.83981 -0.046556 0.2084 0.65407 -0.19593 -0.097132 -0.87435 0.3562 0.32328 -0.46358 -0.36856 -0.11409 -0.23781 0.052553 -0.096907 -0.25594 0.11598 0.079938 0.098634 -0.31007 -0.27007 -0.3688 -0.57142 0.19884 -0.5242 -0.48546 -0.24347 -1.0987 -0.47336 0.052269 -0.39447 -0.5698 0.18861 -0.76007 -0.098077 0.32842 -0.55538 0.44271 -0.31175 0.32912 -0.62209 0.040686 -0.3072 -0.14303 1.1573 -0.18984 0.14837 -0.08904 -0.0023427 -0.46757 -0.42274 -0.20057 0.049736 0.19606 0.67295 0.058818 -0.17202 -0.041326 -0.15616 -0.71404 0.44328 0.46519 0.57001 0.30051 -0.1215 0.0058592 0.49844 -0.98044 -0.51666 0.30615 0.40156 0.88846
baby 0.2474 0.40976 0.46103 -0.27324 0.016823 -0.50319 -0.13104 0.18658 -0.74543 0.33589 0.62399 0.1133 -0.90091 -0.044261 0.14612 0.40984 -0.015901 -0.25579 0.10706 -0.17973 -0.73885 -0.17464 -0.035768 0.017583 -0.43101 0.23027 0.24611 0.24083 0.061025 0.56 0.51175 0.40073 0.12872 0.15275 -0.77402 0.94819 0.29978 -0.046294 -0.40516 0.30645 -0.30622 0.33129 0.51445 0.0098513 -0.71945 0.10843 0.43635 -0.28458 -0.26275 0.64141 -0.86072 0.19264 -0.77858 0.51792 -0.21823 -0.34224 -0.79548 0.50406 0.1225 -0.38491 0.51166 -0.56119 -0.42139 0.43929 0.16446 -0.13842 -0.30641 -0.15495 0.085488 -0.24086 -0.28159 0.73858 0.75395 -0.81584 -0.29064 -0.65943 0.010476 -0.85488 0.71896 0.39096 0.44954 -0.2454 -0.17038 -0.071687 0.38753 0.32627 -0.53946 -0.15681 0.24457 1.283 0.42444 0.58564 -0.67959 0.22705 0.25253 0.062004 -0.24961 -0.3087 0.49612 0.22797
animal -0.39787 0.35999 -0.27707 -0.85602 -0.78046 0.1923 -0.7601 0.26165 -0.033032 0.95223 0.036806 -0.21101 -0.56246 -0.080625 0.94346 0.4455 -0.032385 -0.57204 -0.26865 -0.35063 -0.57453 -0.20098 -0.57439 0.41413 -0.59465 0.053945 0.18253 0.18679 0.086825 -0.061741 -0.15809 0.20311 -0.13266 -0.29875 -0.81937 0.50746 0.10525 -0.029738 -0.37073 0.038307 0.16574 -0.014009 0.1674 0.66836 -0.14102 0.27104 0.94419 -0.39416 -0.32483 0.39586 0.085352 -1.3262 -1.4525 0.11 -0.66866 -0.90443 -0.38191 -0.096046 0.043344 0.0073183 -0.18692 -0.1895 -0.24294 0.38366 -0.48138 -0.11235 0.017274 -0.22229 -0.1437 0.21711 -0.37729 0.084868 1.3124 -0.7783 -0.11671 -0.60773 -0.084585 -0.73677 0.35421 0.11537 1.0687 0.4923 -0.44726 0.27479 0.28574 0.19357 -0.28122 0.53363 -0.10071 0.27666 0.37106 0.00011583 -0.41153 -0.29381 0.15251 0.18925 -0.44486 -0.34424 -0.15968 0.10488
bread 0.060815 0.0010437 -0.52069 -0.048518 -0.11057 -0.14875 -0.45162 -0.755 -0.76446 0.44685 -0.058388 -0.10471 -0.24366 0.24944 -0.44358 0.63611 0.14643 -0.32249 -0.32059 0.49851 0.43437 0.55843 0.30424 -0.16012 0.48171 0.27671 0.63724 0.63532 -1.115 0.73629 0.0078916 -0.16167 0.62909 -0.17381 -0.78472 -0.36278 0.35822 -0.11706 -0.16913 -0.017759 -0.83285 0.39407 0.89985 -0.21795 -0.35468 -0.47422 0.18843 -0.13963 -0.69028 0.59479 -0.58609 -0.44405 0.25679 -0.63178 -0.80086 0.13173 -0.21021 -0.71146 0.13998 -0.81174 0.59374 -0.82437 -0.3804 -0.40693 -0.2212 0.25779 -0.21757 0.39968 -0.10022 1.0421 -0.30945 0.53691 0.91815 -0.88919 0.48748 -0.86867 -0.63215 0.056441 0.94791 0.55564 0.42536 0.31249 -0.15174 0.33915 0.10589 0.11246 0.011413 0.26541 -0.8676 0.12653 0.14511 0.11717 -0.45317 0.92611 0.32097 -0.73054 -0.098012 0.45303 -0.36052 -0.017499
watch 0.53422 1.096 0.68372 0.12564 0.9004 1.5878 0.26636 0.15179 -0.075076 0.1413 0.65183 0.044927 -0.301 -0.46247 0.61423 0.68788 0.51504 -0.23478 0.45233 0.51468 -0.47134 0.36592 1.2525 0.44639 0.72879 0.83937 0.095728 0.28247 -0.91489 0.57749 0.22598 0.79708 0.0064918 -1.3195 0.10761 0.56943 0.31812 -0.66907 0.35601 -0.096635 0.18337 0.031082 0.35645 -0.82901 -0.20957 -0.1512 -0.166 0.33705 -0.62396 0.1003 -0.010931 0.4751 -0.16532 -0.27781 0.28298 -1.0537 0.15929 -0.35138 0.3028 -0.26454 -0.2324 -0.26863 -0.42329 0.2409 -0.27016 0.41607 -0.6123 0.1141 -0.058661 0.47117 0.23431 0.015126 0.81367 -0.16625 -0.13128 0.42832 0.5954 -0.23837 0.99234 -0.78339 0.18961 0.64822 0.41567 -0.48825 -0.52817 -0.24083 -0.24062 0.60634 0.73393 0.42743 0.44059 0.53939 -1.0546 -0.11896 -0.52874 -1.1542 0.34408 0.89915 0.16717 0.17072
refrigerator -0.40843 0.357 0.088166 0.33537 -0.28834 -0.27959 0.20575 0.016106 0.03891 0.22699 0.47905 -0.068397 -0.30577 0.17164 0.35458 0.12994 -0.10488 -0.02358 0.39221 0.24993 -0.013681 0.21966 0.3974 0.055157 0.90632 0.61207 1.0282 -0.065421 -0.50937 0.59122 0.022079 -0.5337 0.48325 0.066501 -0.23269 0.060562 0.78494 -0.89002 -0.05936 0.50715 -0.3703 0.65856 -0.25856 -0.23701 0.26412 -0.12474 -0.38035 -0.30539 -0.78444 0.33733 -0.53924 0.23998 -0.42596 -0.17381 -0.46612 -0.29037 -0.095438 0.0061353 0.25021 -0.38097 0.67336 -0.18787 -1.2856 -0.15999 -0.7138 0.02792 0.17828 0.55153 0.10963 0.12346 -0.17774 -0.015395 0.95907 -0.2111 0.25462 -0.74954 -0.83394 -0.26861 0.16144 0.15501 1.112 0.28743 0.24691 -0.33238 -0.44069 0.4956 -0.43247 0.069647 -0.41023 0.12686 0.51482 1.0234 -0.46954 0.080868 0.082966 -0.12845 -0.78506 0.1777 -0.46247 -0.23032
banana -0.28825 0.30993 -0.29438 0.021546 0.11298 -0.34699 -0.11878 0.46677 -1.1498 1.0924 0.21831 -0.53539 -0.33804 0.21724 -0.59999 0.64811 -0.57802 -0.61783 0.28306 -0.35882 1.2412 -0.67775 -0.042916 -0.34528 -0.051119 0.12584 0.9072 0.55884 -0.48131 1.047 0.82451 0.68987 0.22723 0.50589 -0.68702 -0.49443 0.96822 0.39712 0.42266 -0.3718 -0.60371 -0.43041 0.64373 -0.21635 -0.37329 -0.1112 0.08181 -0.48342 0.065544 0.65842 -0.61046 -0.98084 -0.31282 -0.38402 -0.53855 -0.0043153 -0.6545 -0.077109 0.98623 -0.17786 0.40668 -1.2365 -0.091014 0.052389 -0.4356 0.30598 -0.50509 0.31096 0.021146 0.60772 -0.63933 1.0065 0.70841 -0.98694 0.51201 -0.84 0.13816 -0.4222 0.86308 -0.12352 -0.08973 0.831 -0.055056 -0.30302 -0.54023 0.074035 -0.57465 -0.0098578 -0.24245 0.42487 0.27425 0.44553 -0.556 0.10957 0.91822 -0.81495 0.1723 0.81981 0.089397 -0.22363
utensil -0.10496 1.529 0.019044 0.49239 0.16569 0.49373 0.59713 -0.84732 -0.068302 1.2258 0.58382 -0.43996 -1.1472 0.1792 0.27274 0.57521 0.21254 -1.0035 0.40085 0.7803 -0.13524 0.65151 0.30112 -0.32294 -0.070148 0.40028 1.6912 -0.58484 -0.78146 0.70048 -0.2915 0.49203 0.049949 0.25331 -1.0905 0.11236 -0.39931 -0.50409 -0.37498 0.10753 -0.023597 -0.12828 0.37949 -0.077751 0.51464 -0.30572 0.9474 0.13232 -0.26292 0.38796 -0.83967 0.0049739 -0.4323 -0.31677 -0.19051 -0.63544 0.33366 -0.63722 -0.008039 -0.70482 -0.122 -0.39074 -0.66187 -0.57097 -0.962 0.3389 -0.74859 -0.11969 -0.30243 0.38502 -0.0024883 -0.047723 0.63048 0.20156 1.0742 -0.45109 -0.85331 0.46518 0.99082 0.1932 0.074334 0.60932 -0.07857 0.83641 -0.83851 -0.66017 -0.010884 0.063872 -1.3273 0.17251 -0.10164 1.0256 -0.88511 0.4578 0.4571 -1.2679 0.1197 -0.4592 -0.11752 -0.27056
river -0.084001 0.28691 0.71166 0.004052 -0.22089 -0.17946 0.038259 0.67501 -0.18914 0.71653 0.387 -0.080698 -0.14503 -0.012297 -0.12586 0.074705 0.59467 -0.030425 0.037764 0.39681 -0.63392 -0.28777 0.54298 0.050456 0.18522 0.39708 -0.19978 0.040819 -0.83607 0.48749 0.23067 -0.36136 -0.27382 -0.16335 -0.49752 -0.28345 0.56782 0.70623 -0.27536 0.54735 -0.18531 0.31063 0.048305 0.66091 0.10733 -0.58685 -0.19763 -0.70487 -0.29217 0.32117 0.02668 0.38091 -0.68508 0.42659 0.40216 -0.68902 0.1405 0.092575 0.75828 -0.16544 0.39261 -0.63338 0.25468 0.14503 -0.44598 0.47527 -0.97519 0.10594 -0.20963 0.45371 0.15905 0.061285 0.77774 -0.62028 -0.45739 -0.43594 1.2738 -0.4838 0.6628 -0.8849 0.011188 0.37708 0.099853 0.12515 -0.86916 0.057379 0.42916 0.79406 -0.025468 0.13176 0.49527 -0.066466 0.50805 0.0030805 0.01167 -0.58955 0.19129 0.29714 -0.25681 0.14362
pen -0.41562 -0.27924 0.25077 -0.1251 0.46408 -0.20614 -0.17405 -0.18204 -0.51018 0.029174 0.42981 0.49471 -0.51505 -0.68529 0.66011 0.49017 -0.39353 -0.97906 0.41039 0.42004 -0.31649 -0.030998 0.28604 -0.53348 0.018719 0.14446 0.98322 -0.10352 0.21718 0.48987 0.0078155 -0.27036 -0.060154 -0.91477 -0.80907 -0.12749 0.084731 -0.56721 -0.43491 -0.13101 0.15951 0.1836 0.72716 -0.19884 -0.70382 -0.57063 0.23543 -0.28536 0.25765 0.171 -0.44766 -0.62487 0.07327 -0.73542 -1.148 -0.63269 -0.53489 0.15825 0.41236 -0.26526 -0.51695 0.011735 -0.42732 0.38408 -0.15013 -0.19723 -0.56207 0.33822 -0.43088 -0.1118 0.64089 1.3798 0.97415 -1.0674 0.31353 0.19508 -0.23589 -0.027466 -0.16993 0.42053 0.28741 0.007517 0.21874 -0.43684 -0.19165 -1.235 -1.1247 0.64648 -0.20033 0.018869 0.69221 -0.75014 -0.14212 0.18506 -0.42782 -0.89713 -0.12132 -0.021465 -0.17774 0.5049
object -0.035529 0.24553 -0.4547 0.17188 0.28765 0.1136 -0.18516 -0.093802 0.17256 0.44448 0.41443 0.34361 -0.4083 0.63225 0.1448 -0.25946 0.38847 -0.23274 0.14746 -0.44409 -0.18525 0.27535 0.1099 -0.2878 -0.23408 -0.061897 0.63861 -0.14373 -0.023834 0.5526 -0.40075 0.27517 0.015785 -0.83789 -0.01328 -0.036277 0.39974 0.0039471 -0.20001 -0.083961 0.16917 -0.14896 0.13065 -0.063031 -0.055219 -0.62113 -0.20917 -0.55965 0.16887 0.35522 -0.4265 -0.10505 -0.52789 0.67473 0.047949 -0.57954 0.39511 -0.51585 0.19451 -0.40728 -0.3272 0.08675 -0.078692 0.1802 -0.082009 0.66002 -0.049327 -0.59049 -0.095858 0.19544 -0.60655 0.41758 0.35958 -0.18046 0.21526 -0.58164 -0.12593 -0.18994 0.3755 0.29315 0.33807 0.63809 0.26731 -0.28167 -0.0079032 -0.21357 -0.20557 0.042816 -0.61244 0.049883 -0.38712 0.069817 0.1556 0.37998 0.35306 -0.47543 0.22929 0.22586 -0.051946 -0.064367
bucket -0.2126 0.051701 0.24206 0.055369 -0.19352 -0.22459 0.50516 0.14951 0.14137 1.151 0.49258 0.44976 -0.74718 0.83676 0.31665 -0.29623 0.18451 -0.74209 -0.0034637 0.03816 -0.11209 -0.17 0.28569 0.27474 -0.053672 -0.15019 0.68675 0.36658 0.19907 0.53003 0.12307 0.15937 0.4036 -0.097421 -0.36682 -0.444 0.45473 -0.22275 -0.23604 -0.37759 0.21152 0.31803 0.48905 -0.12049 -0.63502 -0.52922 0.39492 -0.065624 0.12357 0.051345 -0.57941 0.1869 -0.15091 0.18393 0.087596 -0.27649 -0.23696 -0.93076 0.33324 -0.40755 0.46243 -0.10178 -0.34794 0.43307 -0.31799 0.06744 -0.12054 -0.1768 0.52393 -0.18834 -0.54085 0.50675 0.27633 -0.15938 0.14963 -0.10106 -0.43498 -0.05083 0.5917 0.16912 0.073128 0.27651 0.065532 -0.095142 0.25375 0.25156 -0.76991 0.070589 0.33885 0.18973 0.11985 0.28702 -0.072973 0.28509 -0.12998 -0.77478 -0.71457 0.42018 -0.094893 0.20313
liquid 0.27015 0.59701 0.07158 0.19625 -0.37883 -0.028072 1.3916 -0.28636 0.50332 0.079837 0.46234 0.54458 -0.92189 0.4786 0.41201 -0.1739 -0.21009 -0.7782 -0.64414 -0.074329 0.28638 -0.37416 0.35907 0.18046 0.40746 0.32324 1.2097 0.33503 -0.45064 0.35931 0.11925 -0.18245 -0.44332 0.6568 -0.86359 -0.45528 -0.23835 0.40188 -0.40629 -0.76708 0.19199 0.035365 -0.039385 -0.63813 0.13036 -0.25779 0.14966 -0.098837 -0.34271 0.77383 -0.29184 -0.083342 -0.43439 -0.31568 -0.48235 -1.2077 0.12691 -0.20746 0.62632 -0.77912 0.32405 -0.22155 -0.37725 0.22296 0.21147 0.8797 -0.36431 -0.13813 -0.51145 0.16831 -0.47951 -0.40281 1.002 -0.64837 -0.1626 -0.31238 -1.2013 -0.2841 0.45695 -0.19108 -0.024832 0.84203 -0.22385 0.6133 -0.66502 0.18495 -0.70655 -0.41278 -0.49652 0.19269 0.57488 0.72959 -0.34909 0.42785 0.36276 -1.2193 -0.21509 0.091025 -0.87683 0.1606
beer 0.12355 0.28718 -0.42672 -0.46418 -0.088608 -0.11025 0.68897 0.045832 0.43485 0.276 0.83277 0.56364 -0.82967 -0.0079773 0.35808 0.32101 -0.26719 -0.90924 -0.32587 0.32877 -0.25067 -0.67654 0.49455 -0.4998 0.5341 0.52736 0.73419 0.22861 -0.35592 0.36462 0.72511 0.1786 0.039407 0.849 -0.32797 0.050812 -0.15288 0.17642 -0.06543 -0.19374 -0.57002 0.82008 -0.23358 0.20193 0.5312 -0.31007 0.51255 -0.1979 -0.28762 0.087468 -0.088865 -0.023991 -0.58583 -0.4992 -0.21631 -0.76894 -0.15332 -0.1138 0.27253 -1.0459 -0.082465 0.05569 -0.65985 0.27962 -0.39846 0.63279 -0.44111 -0.1452 -0.38176 0.019433 -0.66474 -0.035294 0.80976 -0.73545 0.2327 -0.25919 -0.70989 0.30171 0.56428 -0.30738 -0.039243 -0.0018785 -0.36388 -0.13948 -0.27959 0.16827 -0.23892 -0.059558 -0.59159 0.28086 0.60933 0.27118 0.034761 0.29847 -0.06458 -0.63192 -0.18385 0.57088 0.066091 -0.012796
fish 0.29651 -0.036469 -0.25051 -0.19656 0.14556 -0.68692 -0.62788 -0.45172 -0.29757 0.37797 0.40138 0.56127 0.01564 -0.41041 0.72246 0.10419 0.61341 -0.25242 0.37501 -0.42286 -0.12972 0.4865 0.60798 -0.0031294 0.14687 -0.61319 -0.051173 0.14675 -0.13209 0.47429 -0.11634 0.24989 0.35726 0.09372 -0.14482 0.37814 -0.28555 0.40781 -0.23568 0.061489 0.034169 0.34365 0.81203 0.26065 0.0012165 -0.057305 0.31117 -0.26264 -0.49458 0.10599 -0.57498 -0.10486 -0.61768 -0.12475 -0.31492 -0.35241 0.011697 -0.16462 0.44288 -1.1707 0.24855 -0.68758 -0.059589 -0.3062 0.54304 0.42093 -0.23175 0.20151 -0.079554 0.77439 -0.46604 -0.32545 -0.13848 -0.61607 0.59572 -1.0037 0.32557 -0.71533 0.52549 0.38622 0.7742 0.82646 -0.22498 0.032738 0.332 -0.24547 -0.13359 0.26865 -0.376 0.88363 0.86354 0.84863 -0.36828 -0.14865 0.69544 -0.42414 0.60435 0.60655 -0.36684 -0.29416
ship -0.76852 -0.46866 -0.46655 -0.070908 0.32384 0.15939 0.32693 -0.23071 0.48748 1.0109 0.082855 0.11468 0.075178 -0.096207 0.072614 -0.057984 -0.088945 0.11927 -0.44873 -0.08364 -0.26327 -0.56456 0.14556 0.32966 -0.06394 -0.4758 0.43734 0.072825 -0.050741 -0.28667 0.20543 -0.076072 -0.065536 -0.32517 -0.11111 -0.60169 0.35621 0.010772 0.18699 -0.10553 -0.27621 0.50446 -0.4411 -0.3193 0.47872 0.25549 -0.473 -0.28184 0.0794 0.054727 0.053987 -0.16418 -0.67521 0.37699 0.69444 -0.78594 -0.41135 0.18405 0.68837 -0.41359 0.35511 0.053112 -0.54287 0.03345 -0.46357 0.59231 -0.47908 0.92776 -0.45473 0.48642 -0.33279 0.21601 0.27568 -0.16398 0.2065 -0.47297 0.068695 0.19381 0.1051 -0.76746 0.83861 0.81753 0.52052 0.18185 -0.19833 -0.011096 -0.47339 0.09527 -0.45606 0.41543 -0.025997 -0.039115 0.119 0.31883 0.33285 -0.52299 -0.24007 0.84844 -0.20637 0.034433
jar -0.14224 0.55787 -0.29715 -0.40355 -0.32484 0.15227 0.53592 -0.39227 0.17324 0.40921 0.45224 0.6603 -0.3763 0.46128 0.33295 0.0026988 -0.34763 -0.31383 -0.26014 0.054936 -0.061712 0.40042 -0.062257 0.55688 0.67032 0.13397 1.1978 0.70039 -0.34737 0.26731 -0.2552 0.001061 0.71252 0.26296 -0.40939 -0.51949 0.33322 0.078888 -0.36051 0.018967 -0.29617 0.44053 -0.43787 -0.38669 0.33913 0.11483 0.19727 -0.03936 -0.04915 0.16546 -0.41592 0.1896 -0.75499 -0.50134 -0.29212 -0.42424 0.40265 -0.52126 0.55625 -0.58251 0.039185 0.28463 -0.30072 0.4656 -0.19352 0.32103 -0.19431 0.22966 -0.053351 -0.14366 -0.12175 0.053758 0.95008 -0.54144 0.25237 -0.72268 -0.96457 0.33394 0.59489 0.40378 0.35553 0.48145 0.03458 -0.00028962 0.072846 -0.043291 -0.4597 -0.043892 -0.2155 0.37721 0.60525 0.11528 -0.56993 0.31959 0.25646 -1.2553 0.14542 -0.051781 -0.49444 -0.48269
meat 0.075175 0.29645 -0.15882 -0.47648 0.27965 0.037696 0.016279 -0.0051991 -0.47119 0.67078 -0.14803 -0.12812 -0.094123 0.0057044 0.41953 0.67853 -0.029779 -0.21518 -0.59208 0.70407 -0.078492 0.3635 -0.038451 0.000179 -0.24415 0.13743 1.163 0.45401 -0.88327 0.46171 0.50869 0.13014 0.40228 0.65145 -0.65848 -0.16542 0.1388 0.0035623 -0.24118 0.046129 -0.85065 -0.2871 0.19959 -0.40582 -0.25668 -0.1235 1.1341 0.50405 -0.096099 0.59774 -0.19651 -0.43938 -0.085206 0.14955 -0.88593 0.18965 -0.063633 -0.15894 -0.26324 -0.47115 0.70464 -0.32929 -1.0046 -0.18638 0.3248 -0.1435 -0.53401 -0.076259 -0.11168 1.0993 -0.69231 0.29788 0.69306 -1.2249 0.62622 -0.85405 -0.80532 0.33143 1.0113 0.3646 0.074135 0.33394 0.055434 0.63296 -0.19852 -0.1755 0.059469 -0.042775 -0.56144 0.63244 0.19349 -0.11519 -0.088804 0.22029 0.26438 -0.78957 0.65947 -0.29092 0.15403 -0.60171
jet -0.41351 -0.10227 -0.68018 -0.18653 0.36155 -0.11546 0.014463 0.15047 0.39693 1.2285 -0.12938 0.22633 -0.22055 0.73407 0.2842 0.062104 0.38634 -0.17947 0.026323 -0.21087 -0.50141 0.33598 0.1454 0.8304 0.27371 -0.048471 0.023254 0.090794 0.34165 -0.085173 0.84062 0.093837 -0.2233 -0.24383 -0.17795 0.06617 0.14195 -0.22186 0.46403 0.85752 0.17832 0.26945 0.10863 -0.14416 0.37745 -0.071225 -0.47847 0.073509 -1.1507 -0.19596 0.18864 0.44474 -0.2891 0.67668 0.32952 -0.79188 -0.46985 0.45414 -0.32434 -0.57812 0.99455 0.046317 -0.95789 -0.23731 -0.45422 0.35724 -0.95803 0.30159 -0.17163 0.32938 -0.61992 -0.17892 0.84044 -0.288 0.68603 -0.51691 0.47711 -0.30817 0.21033 -0.54197 1.0879 0.25391 0.19005 0.17114 -0.17104 -0.49353 -0.32572 -0.45898 -0.1641 0.83186 0.25543 0.21837 0.10919 0.080601 -0.13724 -0.64881 -0.40573 1.4061 -0.25335 0.39489
drink 0.040481 0.2886 -0.073079 0.10726 -0.37231 0.50271 0.76227 -0.25158 0.6067 0.8104 0.62336 0.70475 -0.74009 0.15315 0.86169 -0.40173 -0.18748 -0.40761 -0.19858 0.10623 -0.12089 -0.52432 0.28561 -0.076175 0.59289 0.50728 1.3271 0.062544 -0.51823 0.24195 0.42261 -0.12493 -0.025629 0.43646 -0.11014 -0.1932 -0.34184 -0.073618 -0.42508 -0.7171 -0.16668 0.36486 -0.37705 0.13601 -0.032845 -0.16239 0.23593 0.011971 -0.48505 -0.1187 -0.095492 -0.10233 -0.19421 -0.49628 0.065853 -0.9533 -0.024333 -0.24995 0.21459 -0.86853 0.059755 -0.38961 -0.90426 -0.054856 -0.56398 0.88578 -0.2759 0.098847 -0.19159 0.0079406 0.31997 -0.0069979 0.82413 -0.57167 0.12727 0.28599 -0.46895 -0.12359 0.68394 0.28034 0.34886 0.17441 -0.7409 -0.107 -0.25371 0.063967 -0.33316 -0.085729 -0.056232 -0.05306 0.80359 0.010768 0.061553 0.17323 0.35631 -0.77975 -0.098539 -0.17327 0.11002 -0.057421
kettle -0.55614 0.48741 -0.037795 -0.084613 -0.14349 -0.32249 0.97428 -0.1111 -0.27337 0.61995 0.556 -0.16952 0.16481 0.3917 -0.20144 0.085226 -0.089113 0.033304 0.018312 0.30758 -0.1269 0.1597 0.13363 0.49622 0.28952 0.31058 1.687 0.016458 -0.34288 0.70591 -0.54936 0.2498 0.59903 0.20058 -0.7816 0.22991 0.48614 -0.62084 -0.45695 -0.12754 -0.067349 0.50294 0.70315 0.081276 -0.068085 -0.20728 0.0020979 -0.43714 0.40136 0.72841 -0.42193 -0.20696 -0.69863 -0.037156 -0.3873 -0.95803 0.30271 -1.0753 0.27077 -0.32072 0.0068667 0.31205 -0.21417 -0.41914 -0.69704 0.15782 -0.68549 0.42008 0.34854 0.30677 -0.30376 0.067406 1.1812 -0.87157 0.38724 -0.11466 -0.6682 0.57747 0.42977 0.3839 0.071273 0.62413 0.44924 0.56201 -0.78951 0.08385 -0.43203 0.34665 -0.0287 0.48522 0.43264 0.54444 -0.89858 0.44418 -0.006201 -0.94354 -0.13134 0.32374 -0.37123 0.44018
barrier -0.64431 0.36579 0.18411 -0.19767 -0.13181 0.023713 1.0038 -0.016787 -0.25681 0.70759 -0.46031 0.33928 -0.49214 0.21331 0.087513 0.010987 -0.22311 0.23288 0.043468 -0.38572 -0.36022 -0.0016728 0.3789 0.16958 -0.70994 0.071203 0.89365 -0.0057033 -0.49835 -0.058272 0.49941 0.15154 -0.73959 -0.4935 -0.24865 -0.75884 0.72661 -0.55884 -0.30049 -0.0099868 -0.030673 0.2484 0.18316 -0.081908 -0.0238 0.17371 -0.1825 0.24641 0.085329 -0.0017839 -0.2837 0.26154 -0.59402 0.5387 0.082039 -0.42217 -0.34364 0.49561 0.41768 -0.08777 0.43704 -0.5797 -0.00039952 -0.048006 -0.46318 0.57214 -0.17417 -0.36741 -0.040398 -0.093552 -0.27101 0.019852 0.51158 -0.037443 0.59075 0.10897 0.46032 0.52149 0.51576 -0.070171 0.70352 0.37927 0.63813 -0.22023 -0.47354 -0.16034 -0.25044 0.22548 0.1314 -0.10659 -0.10783 -0.47206 0.3095 0.026513 -0.023829 -0.50652 -0.082433 0.022377 0.21882 0.51457
carrot -0.55628 0.013031 -0.13595 0.0097913 0.0079757 0.073897 0.073409 -0.014266 -0.9015 0.65397 -0.45544 0.19516 -0.88798 -0.099598 0.31846 0.23363 -0.012033 -0.23844 -0.43051 -0.099064 0.041686 -0.17664 0.29829 -0.30301 0.25746 0.58131 0.84483 0.37251 -0.95334 0.26774 0.95769 0.73339 0.092815 -0.25023 -0.82145 -0.81805 0.32024 0.26575 0.12849 0.43866 -0.39009 0.059684 0.69298 -0.068359 -0.24287 -0.52454 0.74546 0.0041352 -0.56057 0.40511 -0.45595 -0.40587 0.16469 -0.45401 -0.39167 0.42898 -0.4437 0.17164 0.25754 -0.54208 0.21712 -0.4937 -0.076626 0.2432 0.079787 0.22361 0.092979 0.14964 -0.4225 0.21612 -0.5933 0.24981 1.0857 -0.66591 0.53619 -0.65317 -0.18099 -0.27092 0.85726 0.42832 0.19367 0.63277 -0.17208 -0.15826 0.13052 -0.17616 -0.44459 -0.44321 -0.63192 0.52106 0.49219 0.073451 -0.05397 0.12003 0.54179 -0.66695 0.24555 0.54331 0.16055 0.094192
guitar 0.23326 0.38317 -0.13453 0.21696 0.041507 0.49413 0.29262 -0.25257 -0.29585 0.32244 0.28948 0.21935 -0.4207 0.54763 0.70665 0.63412 0.25581 -0.38425 0.17425 -0.06278 -0.28154 0.29432 0.052828 0.167 -0.010823 -0.048726 0.88973 -0.13068 -0.078555 0.075686 -0.14778 0.76735 -0.020147 -0.37561 -0.22275 0.24103 0.47509 -0.43602 -0.67215 0.71594 0.72859 0.19835 0.12915 -0.4298 -0.014025 0.22097 0.15866 -0.41713 0.14104 -0.41291 -0.38317 0.17056 -0.36498 0.31202 -0.23212 -1.065 0.40894 -0.72246 0.16466 -0.54629 0.052378 -0.3706 -0.93002 0.30849 -0.862 0.039519 -0.010841 -0.61345 -0.36787 -0.074837 -0.25552 -0.20984 1.5115 0.00036183 0.2213 -0.15503 0.024125 0.34977 0.22447 0.24573 0.37722 0.35117 0.12173 -0.43868 -0.031058 -0.19196 -0.09303 0.043161 0.45965 -0.1276 -0.40633 0.31406 -0.86954 0.37277 0.44726 -0.19078 0.17131 0.54373 -0.1295 0.23895
tomato -0.26774 0.0059058 0.01491 -0.34791 -0.25478 -0.24331 -0.045416 -0.25526 -0.67351 0.40006 -0.27124 -0.029894 -0.28936 -0.29257 -0.33432 0.19312 -0.0087322 -0.70122 -0.12532 0.30624 -0.12975 -0.29105 0.22922 -0.010428 0.12388 0.27845 1.065 0.69763 -0.41074 0.37388 0.32286 -0.073466 0.52029 0.72794 -0.7025 -0.5445 0.20896 -0.23001 -0.096762 0.21779 -0.41684 0.065595 0.5782 -0.075806 0.35445 -0.9501 0.78025 -0.34416 0.093654 0.92575 -0.56115 -0.31823 -0.46276 -0.72594 -0.39267 0.24452 -0.3645 0.062879 0.56269 -0.84737 0.07299 -0.53647 -0.029339 0.27228 -0.18718 0.32008 -0.35722 0.079081 -0.02093 0.31699 -0.1489 0.37602 0.71872 -0.77811 1.0232 -0.90805 -0.40996 -0.23616 0.79527 0.14935 0.26985 0.73298 -0.0059727 -0.059461 0.082172 -0.10874 -0.25274 -0.063188 -0.71495 1.1387 0.44977 0.43945 0.054099 -0.21296 0.46398 -0.84158 0.085629 0.25637 0.018221 -0.22407
doll -0.089161 0.030716 0.058125 -0.3422 0.063559 -0.0099502 -0.12052 -0.13619 0.1634 0.1715 0.035041 -0.088949 -0.15326 -0.18744 0.76236 0.20786 0.10792 -0.29867 -0.28831 -0.42899 -0.36978 0.14653 0.24301 -0.39585 -0.56858 -0.044173 0.1054 0.28663 0.1443 -0.17721 -0.11691 0.44503 -0.08255 -0.26596 -0.30131 -0.11222 0.11546 -0.32392 -0.297 0.20995 0.083359 0.58361 0.14095 0.13886 -0.075564 0.083901 0.34255 -0.30858 -0.094169 0.24042 -0.1409 -0.45613 -0.80809 -0.39183 -0.1439 -0.4525 -0.4432 -0.53817 0.70476 -0.63849 -0.16435 -0.23337 -0.57934 0.37797 -0.50005 -0.25244 -0.42255 0.2793 -0.078163 0.046373 -0.036233 0.23322 0.69456 -0.66995 0.20599 -0.70451 -0.18439 -0.377 0.38069 0.15531 0.46714 0.22538 -0.25129 -0.40782 0.33209 0.064036 0.045376 0.031292 0.49524 0.70079 -0.016957 0.24364 -0.19324 0.38967 0.35726 -0.19605 0.24822 0.13278 0.28738 0.61729
butterfly -0.41576 0.25679 -0.059947 0.15975 0.2963 -0.088012 -0.29132 -0.17631 -0.62101 0.57441 -0.33577 0.33523 -0.14661 0.24159 0.24154 0.22263 -0.18402 -0.24878 -0.10457 -0.47697 -0.52659 0.032835 0.061067 0.35059 -0.14667 0.38761 0.53242 0.6113 0.61022 0.31978 0.31169 0.75209 -0.30029 -0.23515 -0.53189 0.24414 -0.1074 -0.056337 0.054652 0.086943 -0.30821 0.4728 0.50976 0.76325 -0.38803 -0.15532 0.089046 -0.59802 0.16462 0.35604 0.2117 -0.65149 -0.44453 -0.010786 -0.34154 -0.51522 -0.58382 -0.70611 0.04428 -0.37007 0.20253 0.073258 -0.034158 0.50803 -0.062074 0.15549 -0.30937 -0.043467 -0.48734 0.11634 -0.18982 0.19228 0.44893 0.025344 0.65353 -0.75022 0.29078 -0.44395 0.48228 -0.091428 0.37732 0.1051 0.079541 0.28791 0.2119 -0.17402 -0.26988 -0.01826 -0.18875 0.76514 0.53603 1.0938 -0.024305 -0.31486 0.36806 -0.66072 0.4568 0.70399 0.027519 0.46277
trail -0.21503 0.096814 -0.43888 -0.067358 0.4107 0.49536 -0.13445 -0.087437 0.43539 0.78619 -0.28127 0.15965 -0.60926 -0.039069 0.41007 -0.030762 0.9267 -0.3871 -0.33515 0.31106 -0.2138 -0.38257 0.71764 0.33474 -0.30954 -0.33394 0.0085549 0.046184 -0.10045 -0.18138 0.90607 -0.37444 -0.93333 -0.57795 -0.92294 -0.3734 0.73857 0.23357 0.15798 0.01975 -0.43881 0.13577 0.21027 0.32626 -0.23067 -0.47464 0.31881 -0.37449 -0.10979 0.54996 -0.21941 0.38718 0.010223 0.33621 -0.043952 -0.59754 -0.29601 0.7365 0.094274 0.067115 0.25258 -0.52178 -0.27376 -0.79964 -0.48938 0.2906 -0.098362 0.63074 -0.29834 -0.087899 0.36802 0.49338 1.0714 -0.13347 -0.01882 0.22913 0.69265 -0.35491 0.66132 -0.030398 0.22275 -0.047606 0.63 0.08692 -0.3155 -0.27642 -0.056992 0.058291 -0.03343 -0.17764 -0.051655 -0.46442 0.44385 -0.33347 0.22677 -0.37607 -0.081095 0.46376 -0.27488 -0.41484
equipment -0.26034 0.68826 -0.285 -0.31818 0.060406 0.28476 0.18155 0.19746 0.093549 0.47072 -0.86669 0.2019 -0.19466 0.61886 0.6224 0.30716 0.45144 -0.091652 0.047896 0.2258 -0.27537 0.87003 0.50861 0.62107 0.16811 0.050381 0.731 -0.26878 -0.45982 -0.28763 0.078663 -0.14377 -0.13145 -0.17387 -0.70073 -0.058672 0.0090158 -0.78787 -0.5333 0.10115 -0.026244 0.070138 -0.082066 -0.44275 -0.14358 -0.029708 0.20109 0.061411 -0.599 -0.25113 0.013642 0.16823 0.013276 0.0097469 -0.30599 -0.49472 -0.011101 -0.24765 -0.44401 -0.05018 0.1044 0.092693 -0.65327 -0.13301 -0.053666 0.29198 -0.04332 -0.2013 -0.22964 0.52737 -0.14718 -0.13586 0.59286 -0.38032 0.56303 -0.41662 -0.3811 0.13771 -0.21658 0.092014 0.37999 0.16648 0.028896 0.45409 -0.47509 -0.49975 -0.1803 -0.36569 0.029562 -0.22673 -0.65244 -0.17607 -0.21622 0.29462 -0.28771 -0.44211 -0.15015 0.1887 0.23888 0.47558
printer -0.082999 0.45622 -0.1396 0.29171 0.19282 0.46205 0.13125 -0.21825 0.29722 0.44349 0.32679 -0.015522 -0.16862 -0.16333 0.1259 0.19984 -0.23487 -0.19313 -0.17505 0.59197 -0.62028 0.44171 0.50197 -0.14058 0.019551 0.0080416 0.4979 -0.079836 -0.038216 -0.15325 -0.49928 0.27917 0.11142 -0.12537 -0.72869 0.11021 0.0064612 -0.63623 -0.1887 0.17695 -0.063192 0.2396 0.32028 0.19408 0.036588 -0.59602 0.07075 -0.32648 -0.3295 -0.062509 0.42202 0.10387 -0.26975 -0.70838 -0.43889 -0.38919 -0.26084 0.063477 0.20946 -0.58855 -0.05129 -0.29996 -0.56148 0.47326 -0.30638 0.70664 -0.14025 -0.3001 -0.78582 0.01015 0.35846 0.69026 0.74154 -1.0064 0.46171 -0.085819 -0.73857 -0.15366 -0.2076 0.46876 -0.25399 0.16373 -0.12806 -0.19832 -0.34024 -0.36911 -0.081612 -0.0084485 0.26727 -0.2607 -0.074717 0.2142 0.25319 -0.096537 0.044203 -0.039554 0.10788 0.58041 -0.33874 0.11959
device -0.12115 0.21329 -0.17745 -0.15448 -0.086738 0.53981 0.39807 0.12448 0.00046798 0.5118 -0.62208 -0.044284 -0.36355 0.37798 0.2051 0.54578 -0.025242 0.10562 -0.18682 0.19259 -0.74448 0.20217 0.042829 0.33777 0.12853 0.20881 0.81892 0.13238 0.13748 -0.2758 0.048065 0.43746 -0.17636 -0.64738 -0.37383 -0.242 0.371 -0.35031 -0.31593 0.18837 0.10225 -0.0018342 0.01856 -0.59812 0.097755 -0.052437 -0.1138 -0.37835 -0.26209 -0.25333 0.46152 -0.33695 -0.00013258 -0.20526 -0.2105 -1.1146 0.36151 -0.086589 0.22725 -0.76841 -0.34739 0.096508 -0.81705 0.36697 -0.62869 0.21858 -0.053313 -0.29463 -0.22933 0.17399 -0.11997 -0.21663 1.018 -0.29501 0.47073 -0.19229 -0.42519 -0.62342 0.081695 0.25984 0.39757 0.30113 -0.34283 0.2525 -0.24948 -0.42326 -0.046446 -0.14319 0.087747 0.24703 -0.80188 -0.017091 -0.32626 0.63791 0.06558 -0.4236 0.0027479 0.56344 -0.43726 0.53362
town -0.28798 0.10416 0.24855 -0.66474 0.010538 -0.14469 -0.040507 0.10112 0.35617 0.50272 -0.40484 0.35445 -0.38954 0.5011 -0.17159 0.23394 0.64053 0.1831 0.22658 -0.075738 0.12728 0.33982 0.32739 0.83806 -0.039001 -0.43102 0.37205 0.086088 0.3992 0.19867 0.56275 -0.086419 -0.11107 -0.40809 -0.17547 -0.023863 0.34484 -0.23374 0.056785 0.056816 0.1568 0.14058 0.035667 0.6541 0.32495 0.18083 0.084903 -0.48613 -0.39751 0.16904 -0.33901 0.38946 -0.51657 0.064847 0.18801 -0.50925 -0.011584 0.50099 -0.0078399 -0.0018876 -0.48849 0.08219 -0.37958 -0.18866 -0.2083 0.45072 -0.95414 0.31577 -0.12977 0.92234 0.14216 0.19651 0.26961 -0.59965 0.10081 -0.42813 0.19679 -0.34077 0.17378 -0.36548 0.18252 0.35619 0.21235 0.11428 -0.36948 -0.40852 -0.47504 -0.12454 -0.7632 -0.067115 0.34154 -0.42109 0.11096 -0.52285 0.16559 0.25257 -0.14067 0.3184 -0.43123 -0.08001
tool -0.081499 0.41303 0.14124 -0.36792 0.21388 0.15693 -0.35014 -0.44369 0.15459 0.77692 0.3236 0.17953 0.11962 0.19662 0.51671 -0.12792 0.13765 -0.51269 0.13972 0.0033852 0.13695 0.17447 0.12665 0.086931 0.075278 -0.011337 0.81273 -0.0019168 -0.070893 0.10843 0.19926 0.23756 0.20271 0.17203 -0.33201 0.58065 0.2299 -0.37316 -0.4924 0.48633 0.19798 0.44755 0.29482 -0.55841 -0.2176 -0.15331 0.22201 -0.18862 -0.086025 -0.3199 -0.32372 -0.1093 -0.30354 -0.22317 0.10931 -0.30979 0.2485 -0.22612 0.077435 -0.69345 0.05007 -0.54745 0.06293 0.34469 -0.44837 0.59988 -0.10337 -0.3597 -0.21415 -0.052853 -0.47499 0.62522 0.60555 -0.1093 0.60801 -0.66233 -0.76756 0.11394 0.33423 0.076161 0.22104 0.81648 -0.14016 -0.2686 0.13329 -0.11046 -0.15052 -0.17818 -0.0013151 0.14646 -0.53597 0.068335 -0.060451 0.25035 0.40865 -0.26516 0.28135 0.40112 -0.055447 0.47738
pasta -0.16192 0.28114 -0.022446 0.25616 0.27538 0.45966 0.36307 -0.16855 -0.072322 0.44082 -0.20485 0.14369 -0.32269 0.39126 -0.19782 0.14041 -0.25102 -0.19006 -0.15619 0.43005 0.17186 0.094278 0.22474 0.075481 0.33397 -0.084838 1.1723 0.55408 -0.32342 0.50426 0.049816 -0.044826 0.040429 0.14945 -0.68142 -0.21176 0.28037 -0.13636 0.22474 -0.24323 -0.8393 -0.20427 0.40084 -0.1344 0.32314 -0.3873 0.72563 0.23356 0.61921 0.4791 -0.64397 -0.12447 -0.10486 -0.25643 -0.3847 -0.2508 -0.40024 0.35232 -0.1186 -0.55009 0.18996 0.017133 -0.29938 0.24909 0.090893 0.4327 -0.50079 0.21018 -0.026369 0.48917 0.00020238 -0.18289 0.66036 -0.89556 0.7807 -0.61663 -0.69763 -0.11908 0.6592 0.025326 0.18193 0.30039 -0.16777 0.1279 -0.1411 -0.022272 -0.46524 0.33862 -0.63867 0.54599 0.73621 0.073199 0.20363 0.13513 0.30677 -0.59679 0.2135 -0.0030225 -0.0071718 -0.031685
vegetable -0.11973 0.07136 0.058401 -0.39295 -0.15454 -0.19198 -0.044042 1.0162e-05 -0.64914 0.85728 -0.097604 -0.26071 -0.28768 0.20118 0.031745 0.39878 0.35109 -0.60743 -0.28217 0.33919 -0.036923 0.082726 0.23798 -0.029779 0.49493 0.13914 0.62741 0.25579 -0.56451 0.38728 0.66892 0.0065088 0.70304 0.27634 -0.79088 -0.69165 0.14889 0.094852 -0.31297 -0.14849 -0.14533 -0.35809 0.83876 -0.077409 0.13668 -0.67119 0.58612 -0.023648 -0.10417 0.69387 -0.34736 -0.69364 -0.145 -0.14057 -0.42244 0.14165 0.082107 0.080351 0.14006 -0.25354 0.051097 -0.31777 -0.17229 -0.10339 0.0085687 -0.078251 -0.0062963 -0.39017 -0.25339 0.30465 -0.20049 -0.027182 0.80854 -0.38591 0.31462 -0.8322 -0.64683 0.19543 0.62315 -0.025884 0.18379 0.90305 -0.075521 0.16653 -0.012694 -0.04886 -0.1132 -0.021768 -0.4001 0.48905 0.40634 0.46269 -0.15585 0.36355 0.4363 -0.59486 0.030173 0.0093643 0.039768 -0.087983
jug 0.077936 -0.16803 -0.064509 0.010694 -0.067634 -0.020796 0.29198 -0.12108 0.15639 0.53376 0.3109 0.09028 -0.25594 0.82612 0.25798 -0.14288 -0.36711 -0.55504 -0.4487 0.1253 0.05753 0.20937 0.14639 -0.17153 0.44163 0.0001716 0.78388 0.0093833 -0.28118 0.052359 -0.15016 -0.32406 0.37931 0.17219 -0.35805 -0.083271 0.19609 -0.17914 -0.047431 -0.12681 -0.16775 0.43514 0.11946 -0.32656 0.25172 -0.31839 0.12703 -0.31619 0.12409 0.0067568 -0.33707 0.048785 -0.73492 0.082626 -0.029773 -0.54221 0.10081 -0.48562 0.20703 -0.81768 0.14012 -0.11175 -0.60632 0.25504 -0.23871 0.58771 0.1091 0.15997 -0.38326 0.2016 -0.55837 0.22154 0.77178 -0.63473 0.56829 -0.51584 -0.55568 -0.34772 0.30387 -0.037371 0.29172 0.48907 -0.15979 -0.084752 -0.072 0.18049 -0.2352 -0.067885 -0.20866 0.32369 0.20587 0.13669 -0.14205 -0.018049 0.14109 -1.0103 -0.18908 0.33928 -0.60665 0.06796
wallet 0.22245 0.31202 0.083062 0.19556 -0.023363 0.019753 -0.19846 -0.17031 -0.061501 0.18755 0.48971 -0.069568 0.10563 0.24337 0.51552 0.36107 0.29136 0.29568 -0.10209 -0.11124 -0.052432 0.34654 0.1993 -0.53431 -0.41651 0.36871 0.29535 -0.083131 -0.20447 0.33789 0.042398 0.57527 0.08366 -0.41478 -0.28243 -0.14592 0.42287 -0.81613 -0.29046 0.14698 0.18778 0.13485 0.36564 -0.37141 -0.34008 -0.41177 0.16028 -0.32415 -0.27506 0.017626 0.32997 0.033831 -0.36229 -0.038005 -0.3843 -0.86423 -0.06241 -0.15078 0.20801 -0.87024 -0.026177 -0.32174 -0.19247 -0.20939 -0.97099 0.42033 -0.12856 -0.033472 -0.13395 0.29105 -0.10454 0.54373 0.46572 -0.072581 0.086418 -0.38998 0.042939 0.28607 0.54929 0.31358 0.11763 0.30993 0.10444 -0.50744 0.23775 -0.34794 0.23795 0.06504 0.26171 -0.069491 0.066282 0.32658 -0.28179 0.066711 0.012512 -0.48502 0.11436 0.11202 -0.413 0.011339
valley -0.20116 0.39063 -0.12595 -0.22707 -0.054235 -0.34601 -0.15019 0.29621 0.32247 0.49111 -0.20335 0.0039306 -0.80926 0.52587 0.052683 0.20786 0.51327 -0.20148 -0.30791 0.25177 -0.25467 -0.13925 0.29661 0.3121 -0.50322 0.14653 0.086891 0.056316 -0.20874 0.049443 0.26507 -0.35204 -0.40295 -0.04753 -0.38884 -0.35863 0.37979 0.43133 -0.19085 0.080809 -0.063843 0.34094 -0.076607 0.4922 -0.29146 0.10768 -0.096948 -0.53501 -0.1647 0.5822 -0.39769 -0.072945 -0.68765 0.21375 -0.020812 -0.55645 -0.29095 0.42005 0.24789 -0.19033 0.29655 -0.16208 -0.20229 0.24742 0.070241 0.23967 -0.67701 0.66651 -0.23945 0.52563 0.40873 0.59746 0.56029 -0.28465 0.077097 -0.46015 0.87453 -0.09883 0.1495 -0.42951 0.36449 0.47215 0.1968 0.37331 -0.074862 -0.5961 0.050705 0.17229 -0.53755 0.2858 0.8107 -0.26072 0.61217 -0.15375 -0.12203 -0.0011258 -0.033802 -0.085764 0.047639 -0.21896
dessert 0.055406 0.10009 0.14923 0.093677 0.027896 0.37136 0.065966 0.20917 -0.079744 0.33763 0.24626 -0.0049474 -0.11912 0.24164 0.17772 0.24212 -0.012164 -0.45826 -0.53379 0.3197 -0.3535 0.76125 0.40365 0.47531 0.041007 0.34578 0.55146 -0.057197 -0.29635 0.30586 -0.037154 -0.19389 0.25593 0.055819 -0.014336 -0.57482 -0.2125 0.30131 -0.17308 -0.051019 -0.32122 0.043307 0.10549 0.13188 0.34409 -0.38398 0.58451 -0.2912 0.012874 0.29661 -0.092613 -0.11037 -0.12799 -0.36857 -0.39252 -0.17174 0.33914 0.063541 -0.11515 -0.23123 0.030295 -0.25111 -0.50633 0.56793 -0.048633 0.069043 -0.43854 -0.10729 -0.21821 0.53146 0.20285 0.37331 1.0006 -0.030119 1.0911 -0.11791 -0.90812 -0.001275 0.75314 0.16172 0.13852 0.036034 -0.37283 -0.12378 -0.09928 0.099738 -0.20571 0.39309 -0.39867 -0.0069266 0.64703 0.3867 -0.25285 -0.054388 0.35479 -0.06378 0.30231 -0.10837 -0.23788 0.069181
canoe -0.19069 0.20727 0.039773 -0.20822 -0.16291 0.28152 0.068416 -0.084285 0.071433 0.63817 0.050807 0.3624 0.065833 -0.13737 0.14189 0.43135 0.19753 -0.22338 -0.06382 -0.059419 0.002103 -0.67396 0.26133 -0.17398 -0.069464 -0.28599 0.50941 -0.021642 -0.39611 0.051631 0.30475 0.030084 0.016963 -0.57441 -0.37487 -0.35427 0.65031 0.21088 -0.42747 0.522 -0.68055 0.4975 -0.39088 -0.16985 -0.14258 -0.039907 0.13321 -0.059025 0.1154 0.027379 -0.34115 0.25639 -0.57174 0.41649 0.46105 -0.40942 -0.0081751 0.066244 0.63721 -0.35702 -0.16981 -0.26839 -0.19531 0.53696 -0.22942 0.60522 -0.080843 0.086354 0.087693 0.2682 0.026213 0.32345 0.66212 -0.28021 0.57792 -0.32506 0.21468 -0.25352 0.03669 -0.37637 0.45419 0.8114 -0.020691 0.14934 -0.28846 0.42287 -0.35713 0.35409 0.0616 0.10582 -0.097419 -0.091932 0.37808 -0.34446 0.46762 -0.010076 -0.0043784 0.34506 -0.3712 -0.016083
pie 0.13509 0.27849 0.20892 -0.30623 0.19076 0.39625 0.052783 -0.13624 -0.53814 0.23686 -0.15341 -0.19018 0.07787 0.038054 -0.083017 0.43982 0.49683 -0.2203 -0.43377 0.056721 -0.1125 0.16802 0.036816 -0.29118 -0.25713 0.1374 0.64116 0.15477 -0.21208 0.00064289 0.17429 0.090043 0.090597 -0.44218 -0.67119 -0.92496 0.42131 -0.27291 0.41279 0.54603 -0.73404 -0.10541 -0.029046 -0.69856 0.37242 -0.18479 0.5593 -0.42593 -0.052576 -0.1094 -0.3409 -0.073958 -0.068111 -0.19905 -0.62477 -0.28533 0.13747 0.36123 0.3574 -0.94672 0.13667 -0.52151 0.005421 0.40777 -0.090049 0.27244 -0.6719 -0.05552 -0.55457 0.20647 -0.062381 -0.12079 0.78858 -0.77051 1.2216 -0.98659 -1.0222 -0.12157 0.64793 0.59233 0.3838 0.46791 -0.030824 0.34285 0.34013 -0.56035 -0.36201 -0.075695 -0.15503 0.2811 -0.066909 -0.41031 -0.24224 0.38361 0.27379 -1.1262 0.085732 -0.3908 -0.1288 -0.51447
onion -0.3001 0.38874 -0.22203 -0.20837 0.13017 0.27393 0.0073252 -0.19445 -0.51431 0.43402 -0.11544 0.24512 -0.087423 -0.10406 0.19744 0.52689 0.31527 -0.2954 -0.14359 -0.085343 0.15811 0.041443 0.047353 -0.019705 0.27074 -0.21187 0.72572 0.22595 -0.037749 0.37772 0.53883 0.21535 0.21019 -0.17172 -0.84693 0.085494 0.28626 0.18476 0.00034702 -0.26919 -0.2984 0.19937 0.59287 -0.0025917 -0.040663 -0.47535 0.52302 -0.17762 -0.37306 0.35658 0.013005 -0.35964 0.1154 -0.19956 -0.71713 -0.17516 -0.23031 -0.11431 0.6291 -0.42265 0.066024 -0.095314 -0.67088 0.11203 0.12451 0.2894 -0.10274 -0.20066 -0.23594 0.20159 -0.027396 -0.039903 0.47982 -0.31192 0.67751 -0.48436 -0.53401 -0.12524 0.9569 0.37281 0.015483 0.49248 -0.26854 -0.11953 0.078857 -0.27708 -0.085263 0.060743 -0.64464 0.49997 0.34828 -0.11378 -0.039505 0.25693 0.29596 -0.70121 0.13548 0.34077 0.11769 0.1893
meal 0.14552 0.081843 -0.1185 -0.084569 0.17407 0.067398 -0.13584 0.13763 -0.0028584 0.65455 -0.23051 -0.22189 -0.44326 0.0057079 0.048695 0.63744 0.27763 -0.61606 -0.3198 0.0037734 -0.29162 0.37841 -0.026605 0.30147 0.35992 0.20359 0.90895 0.10927 -0.72787 0.58496 0.51173 0.18821 0.086934 0.31204 -0.60688 -0.21372 -0.23594 0.021852 -0.26413 -0.20103 -0.55418 -0.24894 0.33933 -0.029927 0.35403 0.026369 0.86155 0.17079 -0.11608 0.2735 -0.53459 0.06504 -0.11188 -0.30262 0.030766 0.052007 -0.059513 0.22907 -0.035935 0.058448 0.48056 -0.50845 -0.8141 -0.23984 0.078463 -0.088634 -0.26191 0.47664 -0.41109 0.53129 -0.27661 0.04384 0.46733 -0.68169 0.49907 -0.5501 -0.54618 -0.040419 0.65817 0.033756 -0.058387 0.3023 -0.43006 0.12639 -0.20077 -0.26516 0.16222 0.34812 -0.48794 0.31581 0.19652 0.46441 -0.091144 0.23655 0.12583 -0.61271 0.27226 -0.25587 0.28464 -0.20008
appliance -0.10485 0.36581 0.01262 0.083223 -0.42962 0.0049054 0.21286 -0.071575 0.24302 0.36175 -0.23425 -0.014967 0.0020335 0.59418 0.0097434 0.22337 0.10968 -0.039455 -0.015661 -0.058992 0.046097 0.36062 -0.020234 0.26645 0.20489 0.24917 1.1087 -0.014822 -0.20992 0.57633 0.044352 -0.021495 0.15925 0.12801 -0.26963 0.36354 0.38257 -0.70953 -0.25587 0.28573 -0.18608 0.10854 0.24438 -0.44692 -0.13707 -0.13483 0.0032155 -0.59306 -0.096885 0.13642 -0.5933 0.16788 -0.38116 -0.01787 -0.16811 -0.65545 -0.050675 -0.55334 0.089972 0.080684 0.33296 0.15236 -0.49585 -0.2466 -0.54597 0.12839 -0.31477 0.26602 -0.15428 0.037991 -0.27348 0.26814 0.44685 -0.19462 0.6262 -0.78032 -0.30374 0.06633 0.53975 0.050252 -0.16262 0.78429 -0.16477 -0.069251 -0.27605 -0.40269 -0.20391 0.17709 -0.034767 0.2507 -0.069817 0.094233 0.25032 0.4636 0.22059 0.063649 -0.22415 0.19288 -0.44486 0.10999
pencil -0.29801 0.35127 0.20261 0.034615 0.15039 -0.034455 0.41198 -0.49187 -0.054193 0.49845 0.32667 0.30068 -0.64726 -0.14056 0.48412 0.18688 -0.63798 -0.60949 0.069027 0.1003 0.11941 0.17203 0.55202 -0.17759 0.14916 0.3951 1.1336 0.10101 0.016895 0.52864 -0.059478 0.20679 0.061249 0.083697 -0.67867 -0.12155 0.12749 -0.34501 -0.44204 -0.21675 0.12203 0.28661 0.28574 0.11953 -0.2672 -0.54288 0.44764 -0.35676 0.10896 0.18888 -0.31131 -0.63547 -0.3248 -0.42592 -0.59119 -0.5044 -0.059919 -0.34218 0.26306 -0.63671 -0.38652 -0.083253 -0.32871 0.25257 -0.38159 0.27662 -0.18661 -0.083344 -0.29663 -0.13048 0.22107 0.5758 0.48637 -0.73504 0.66792 -0.017128 -0.35406 0.095607 0.25577 0.52799 -0.13377 0.093525 -0.16286 -0.19401 -0.061671 -0.2845 -0.5556 -0.049164 0.052846 -0.17351 0.079808 0.29819 -0.46809 0.061392 -0.076474 -0.42885 0.084212 -0.115 -0.01412 0.33462
nail 0.016814 0.32355 -0.00077421 0.021167 0.32311 0.423 0.11495 -0.49873 0.1671 0.3935 -0.070421 0.27581 -0.1747 -0.26954 0.25876 0.38331 0.095158 -0.61525 0.10496 -0.36853 -0.076708 0.074767 0.062685 -0.29364 0.068009 0.20128 -0.076223 -0.09501 -0.073612 0.29573 0.22969 0.23545 -0.19978 -0.22885 -0.53647 -0.063866 0.34212 -0.040209 0.17329 0.21206 0.011249 -0.03745 0.36828 0.15367 -0.38059 0.3837 0.0228 -0.14617 -0.54683 0.35229 -0.15722 -0.0063933 0.14086 0.040659 0.054665 -0.61427 -0.17514 0.16852 0.43869 -0.56069 0.14679 -0.17891 -0.17409 -0.034482 -0.31555 -0.21695 -0.45415 -0.27461 -0.27604 -0.19632 0.20675 0.22804 0.33826 -0.099573 0.37415 -0.062647 -0.166 -0.12179 0.74898 -0.054577 0.15423 0.25188 0.16529 -0.20999 -0.12919 0.26124 -0.13008 -0.087505 -0.029846 0.25027 0.34071 0.66124 -0.37335 0.49542 0.37862 -1.1273 -0.0014179 0.35577 0.11431 0.043739
policeman 0.39022 0.097486 0.2303 0.091731 -0.020208 0.63556 -0.08022 -0.25682 -0.2027 0.46492 -0.071289 0.021047 -0.66403 -0.098099 0.088086 0.50757 0.43766 0.054145 0.089039 -0.0040023 -0.092364 -0.095045 0.60248 0.31205 -0.22767 -0.19922 0.51833 0.10047 -0.036952 0.11448 -0.095033 0.96751 -0.31156 -0.4014 -0.72843 0.035842 0.22991 -0.17832 -0.18703 -0.28549 -0.25924 0.25913 0.69189 -0.034592 -0.071586 0.22689 0.37298 0.32439 -0.42074 -0.14365 -0.65346 0.10736 0.047528 0.36735 -0.24356 -0.45361 0.10239 0.67418 0.21036 -0.41988 -0.11772 -0.85801 0.17359 0.19313 -0.63292 0.36931 -0.39287 0.62167 0.058204 0.92613 -0.219 -0.014918 0.22864 -0.4236 -0.052272 0.077382 0.030287 -0.004074 0.027307 -0.10053 -0.16861 -0.11052 0.44287 0.22652 -0.13665 0.17166 -0.1028 0.044561 0.098871 0.71923 0.26646 -0.062731 0.098496 -0.060264 0.087918 -0.25364 -0.13033 0.36337 0.22421 0.58134
produce -0.07415 0.38034 -0.25416 -0.026788 0.074441 0.33194 -0.041336 0.014347 -0.13469 0.47697 -0.028414 -0.055779 -0.28485 0.45335 0.41629 0.096345 -0.012919 -0.28887 -0.13129 0.31574 0.16558 0.41833 0.7376 0.40809 0.30194 -0.083175 0.86404 0.12687 -0.70994 0.17622 0.13981 0.079046 0.37377 0.46074 -0.61983 -0.33044 0.25585 0.033271 -0.15912 -0.21235 -0.23122 0.18352 -0.041326 -0.23289 0.15531 -0.19832 0.35166 0.31447 -0.33987 0.41315 -0.20875 -0.35593 -0.38999 -0.42441 -0.24324 0.0071707 0.29079 -0.204 0.22225 -0.19845 0.52511 -0.15928 -0.68481 0.12664 -0.019223 0.18363 0.20007 0.1636 -0.33952 0.25527 -0.040328 0.22466 0.51292 -1.1645 0.36483 -0.77226 -0.23941 0.1409 -0.18599 0.49181 0.18587 0.53787 -0.45329 0.12662 -0.23025 -0.16449 -0.49349 -0.205 -0.29997 -0.25693 0.24112 0.08419 0.017284 0.37512 0.11611 -0.52679 0.0361 0.20634 -0.0019277 0.15006
pigeon -0.092765 0.33052 0.22555 -0.053392 -0.14674 0.21838 0.075766 0.10525 -0.078334 0.25243 0.06585 -0.0012256 -0.22207 0.052876 0.35963 0.25088 0.72287 -0.12616 -0.18175 0.022749 -0.088167 0.0021834 0.1369 0.12825 -0.34254 -0.054459 0.61472 -0.048603 -0.12162 0.094888 0.22847 0.27081 -0.32085 -0.17383 -0.49547 -0.024794 0.22601 0.16351 -0.15493 0.2976 -0.10514 0.33165 -0.10883 -0.1326 0.067273 -0.024924 0.1852 -0.61497 0.12743 -0.031132 -0.68936 0.25171 -0.53839 0.070306 0.042572 -0.27858 -0.059301 0.00028909 0.20305 -0.010334 -0.063015 -0.3847 -0.126 0.24387 -0.31819 0.18622 -0.26982 -0.025648 -0.11118 0.11486 -0.26179 -0.10342 0.49062 -0.36934 0.33703 -0.19046 0.11142 -0.1337 0.55312 0.024893 0.14678 0.28217 0.10621 -0.25109 0.072522 -0.34197 -0.28445 0.21957 -0.022032 -0.023582 0.23352 -0.29702 0.054763 -0.14172 0.30691 -0.35384 -0.29521 0.079718 -0.058454 0.17171
student 0.44984 0.42985 -0.20306 -0.64312 0.068519 0.17858 -0.24371 0.16616 -0.087741 0.37801 -0.7159 -0.26208 -0.50514 0.039832 0.40536 0.25782 0.044215 -0.093921 -0.018088 -0.14404 -0.41121 0.31717 0.34066 0.08488 -0.50094 -0.16902 0.37049 0.19634 0.10125 0.0019356 -0.17678 0.25993 -0.087724 0.17704 -0.4777 0.18944 0.03486 -0.35414 -0.25951 -0.18326 -0.1214 0.27215 0.12216 -0.45557 -0.23815 0.062937 0.17483 -0.23462 -0.11655 -0.02943 0.13991 -0.10497 0.11211 0.086598 -0.2285 -0.47969 -0.38241 0.065669 0.06641 -0.09468 -0.021493 -0.5171 -0.3588 0.40552 -0.25027 0.099058 -0.027627 0.048579 -0.25386 0.12907 0.062898 0.13306 0.41424 -0.50882 0.61031 0.0021595 0.00074432 -0.24195 0.013213 0.05232 -0.021079 0.10162 -0.17885 0.14387 -0.4728 -0.36374 -0.39802 -0.071663 0.26167 0.27943 -0.10492 0.25088 -0.094202 0.11286 0.12225 -0.097482 0.17859 0.047531 0.60653 0.34278
kitten 0.28538 0.27897 -0.00794 0.16159 0.49925 0.10236 -0.46946 -0.21527 0.071855 0.22811 -0.030475 0.15459 -0.24321 0.054199 0.30944 0.50558 0.49491 -0.36476 -0.17914 -0.23968 -0.18763 0.25334 -0.024004 -0.028303 -0.24371 -0.070154 0.19399 0.19841 0.16522 0.32218 0.018795 0.19408 -0.15136 -0.18431 -0.49755 0.22174 0.18387 0.012392 0.13119 0.23663 -0.21419 -0.026707 0.018445 -0.014238 -0.001058 -0.11205 0.024331 -0.22224 -0.14753 0.3519 -0.19311 -0.21859 -0.2371 -0.27948 -0.14486 -0.37832 -0.17391 0.25853 0.23629 -0.18805 0.15647 -0.32763 -0.37868 0.48583 -0.029051 -0.10787 -0.13175 0.20509 -0.56248 -0.067499 0.021252 0.10129 0.50843 -0.21059 0.15455 -0.49953 -0.029176 -0.43171 0.021632 -0.15896 0.54825 0.59279 -0.15518 0.2531 0.14704 -0.42366 -0.28998 -0.018952 -0.086705 0.47828 0.22075 0.20182 -0.50211 0.31309 0.12179 -0.18039 0.11852 0.5313 0.24533 0.36807
