cake -2.477321 -0.311328 -0.823816 0.668925 -1.36253 -0.787634 -0.375564 1.018812 -1.090021 -0.653221 -0.175201 1.491685 1.26308 -0.217769 -0.618093 -2.241887 -2.235492 3.297914 0.143022 -1.560562 -1.47877 -0.128997 -2.845704 0.532281 1.493184 0.088327 -0.249711 1.807005 -0.181415 1.183018 -1.999682 1.314225 1.211019 -1.472692 -0.662775 -1.282138 1.908536 -0.317729 -2.98727 0.383207 0.118207 1.383718 0.75777 -0.500514 -0.26646 -0.931037 -15.645206 2.22864 -1.993808 -3.74391 1.846155 -1.96708 2.183763 3.089687 3.009497 0.630923 0.870956 0.732885 0.678922 -0.368856 -0.981874 -1.509214 -1.224197 -1.0397 0.087361 0.003089 2.728187 2.561294 -3.064829 1.765487 -1.50349 -0.294146 0.397259 0.050291 -1.157393 -1.477316 2.448543 -0.268608 -3.124284 -0.930018 -1.574828 0.747614 1.972188 0.882624 -1.054058 2.747198 -0.143965 -4.429774 -2.916811 1.84451 -1.211338 1.242968 -0.08123 2.055318 2.504863 0.31801 -1.711238 0.376203 -0.444526 0.188753 -2.393186 -0.520069 1.510674 -2.012882 -0.016445 0.438013 -1.026859 0.308221 -0.950175 -2.70852 1.57295 -0.066917 1.620355 0.039905 -2.670382 2.837653 0.199725 1.633106 0.23743 -0.939983 -0.90751 0.922558 1.57546 -0.873606 3.957978 -0.37053 0.149841 1.291029 2.404887 0.682818 -0.073374 1.910766 -0.205719 -2.654668 0.239521 1.587855 2.757077 0.824493 1.156257 -1.060703 -5.15361 -0.999146 -6.22595 -0.24002 3.212386 -1.664538 -1.13936 1.511993 -0.240672 0.453787 0.313998 2.033453 -0.715583 -0.172316 0.089111 0.25446 -2.313113 -2.118074 -0.039942 0.057297 -0.676235 -0.038287 0.983915 -1.393522 -0.351216 -0.992228 0.18399 3.679742 1.386584 -0.971121 -0.581093 2.36676 4.674641 -1.17414 2.011333 1.003665 -0.675436 -0.177476 -0.355613 2.457313 -0.364057 2.050987 1.716895 0.157344 0.632412 -1.011252 1.371669 -1.495633 1.034371 0.675743 -0.956985 1.816184 0.515939 -1.912541 0.992738 -2.435633 1.070274 -1.388756 3.674188 -1.414883 2.221146 1.604809 1.062842 -1.438877 -0.108575 9.372575 -1.000501 -1.452727 -0.298629 1.248937 -1.281123 2.160962 -1.452715 -0.223366 0.038539 1.285836 3.35912 0.377604 -1.553319 -2.057319 0.947388 1.510869 -0.64711 1.625876 -3.128191 1.79658 -1.220731 -0.296926 -0.176467 -6.119886 1.297275 0.680889 -3.819533 2.473254 -1.622962 0.788696 1.697064 0.71106 1.361722 0.436599 -1.531061 0.126185 4.649363 0.057639 0.868893 2.817798 2.509867 -0.076284 0.816448 -1.921846 3.115356 -2.296687 2.281706 -2.519629 -1.721017 -0.913222 -0.013259 -2.954972 -0.477914 0.250299 0.118222 1.036508 0.457181 -1.991382 -0.157076 1.181112 0.275145 -2.798727 1.860946 -1.487978 -2.654964 0.952425 -0.76332 -4.734975 -0.264354 0.40068 0.412494 4.495289 0.479742 -2.636341 2.234182 -0.440119 -0.778656 3.113784 2.093208 1.283303 -0.585887 -4.551485 0.289561 -0.665069 3.42242 1.506132 -0.383473 -1.929415 3.365337 -0.056591 0.401779 0.927127 -1.119549 -2.834237 0.575319 2.610444 -0.867446 -2.00899 -1.591629 2.308592 -0.587659 -1.567631 -31.600732 0.202213 -1.901876 -2.398273 0.722954 0.686154 -0.080178 0.379739 -2.889207 2.109304 -0.880363 -1.511237 0.909985 -1.126988 0.64715 -2.901369 -0.790662 -1.286307 1.081571 -0.173009 0.597257 -0.197771 1.24939 2.134133 -0.921078 -1.000265 -0.790578 -0.376712 -1.547479 -0.074802 -1.553388 -0.464778 0.804943 0.121856 0.308274 1.222637 -0.047884 -0.831762 6.500264 3.968443 -1.358396 2.889519 -0.910958 2.639748 3.035636 0.086517 1.258341 1.229236 0.096393 4.194246 2.780649 1.763029 4.399861 -2.411989 1.116028 1.119033 2.548542 1.966203 0.616145 -2.833988 3.225366 -2.169725 3.11408 2.293046 0.243406 -0.973034 1.241859 -2.477291 -0.731458 -0.041517 -1.849456 0.121524 -0.330494 -10.353245 -0.612361 1.207659 -3.639296 0.1555 3.295147 -1.240626 -3.062193 -2.222209 -0.140096 -0.503814 -3.30252 2.357673 -1.137379 -2.838153 -3.184158 0.293761 -0.885544 0.153937 -0.945757 0.54517 -1.970251 1.80426 1.107662 -2.341623 0.14629 2.349986 -3.383594 -2.924841 -1.127743 0.198195 -1.782787 -2.586668 -2.41064 0.444396 -1.202365 -0.088661 0.838858 2.518844 1.747654 0.64574 2.887168 -0.322686 -0.711367 1.282358 0.744406 0.754381 2.318775 -0.073065 2.46293 0.199065 2.368609 -1.042525 1.175288 -4.203777 -2.626451 0.764968 2.425207 -1.395236 -0.759218 -2.280937 -2.24882 -2.031555 -2.51275 0.242646 -1.002414 2.222395 1.149227 0.852838 0.375885 3.22689 1.028139 4.502993 -2.022343 0.335365 1.51659 3.075324 -2.076805 -0.937832 1.709266 -1.575822 -0.457246 -1.828869 0.29138 -2.784747 1.205229 -0.651528 -1.012774 -1.816653 -9.135175 2.92112 -0.369164 -1.696525 2.110392 -0.763238 -1.701964 2.858931 1.8786 1.525905 -2.562638 2.897111 -1.639708 -0.512472 -0.119998 -0.328251 0.798966 -0.871084 -0.074153 0.919963 -0.181692 1.272281 0.547103 -2.0289 -3.11963 1.137791 1.445046 3.955064 -0.515149 -0.396659 2.036228 -2.039094 -3.683079 -1.236886 0.823883 0.753575 1.629925 0.561052 0.735961 -1.754514 -0.793807 2.769592 -2.100974 -0.199687 3.352008 -0.45126 0.418274 -1.706672 1.926378 -1.632018 -0.448731 -2.749665 -2.007053 -3.28233 1.701021 2.382588 -1.20055 0.073718 -4.289839 -1.924813 0.61839 -2.397055 0.19778 0.941501 0.615069 -3.076859 -1.189556 -2.405431 -1.528068 1.275109 0.708624 0.755927 0.435537 2.925965 -1.261216 2.086755 2.825828 -0.768601 2.929779 -4.012335 -1.320166 -2.500218 -4.10874 1.546792 -1.807339 0.949099 1.101377 2.661056 -1.091779 1.394147 -1.185971 -2.117687 1.137277 -3.007604 -2.073289 -2.49801 0.911568 -0.867321 -3.14661 4.619028 -0.050283 -0.689376 2.61749 -1.399059 1.761764 1.766002 2.569574 1.484506 0.42524 -0.698891 0.885546 0.276137 -1.479708 0.909303 -0.174909 -2.256759 1.381843 0.823902 3.135672 -0.249799 1.394317 0.320318 0.722979 0.209779 -1.373347 -0.345547 -1.322018 1.700875 2.003242 -0.033867 -3.162904 -2.071743 0.329078 1.596337 -0.600144 -0.818997 -2.929745 2.48893 -1.502777 1.179189 1.76497 -1.633413 0.91634 0.408691 -0.67449 0.311637 0.484734 -2.81262 -0.161248 -0.260149 -1.122571 -0.61373 -0.471905 -0.481399 0.352751 -2.448257 0.720505 2.852618 -0.737838 -0.733083 5.942233 2.106247 1.445987 2.599012 -2.717469 -2.535802 1.11528 1.139158 -1.479715 -2.379483 -3.524543 0.069913 -0.28154 -2.25196 0.492293 0.274493 -5.207287 2.172024 0.116278 -1.295293 0.381 0.204296 4.010175 3.598688 0.700144 -2.303721 -0.646924 -0.77239 -1.243024 1.476626 -0.778895 0.017407 2.838897 0.033344 2.630521 -1.658517 -1.195072 -3.752257 -0.427126 3.229413 2.378771 0.699832 2.159537 -0.752448 -2.922952 -0.907873 0.768926 -1.291851 1.62 -0.257352 1.787904 -0.290102 2.496524 -0.465032 -5.725084 0.601783 -0.19832 0.622273 -0.984763 -0.897477 -1.080943 -0.741311 1.56358 1.090307 -0.465526 -0.191132 0.594149 -0.221379 1.051736 1.168755 -0.304258 -0.151864 -1.150018 -0.064753 0.504444 -1.564333 0.059224 -1.345867 1.356667 0.087005 -0.893998 -1.004313 -0.403516 1.723861 -2.05448 2.837795 -3.751273 0.377231 -0.071084 1.12332 0.775439 0.039195 -1.066332 0.037746 -0.350289 1.230608 -1.683014 -0.282388 0.646883 -1.717072 0.764047 1.81232 -2.682132 -1.761941 -1.983382 -0.062106 -0.980084 0.57403 -0.052312 3.82489 -2.427422 0.820375 -0.822493 0.971399 -0.519445 2.460407 0.473925 2.018214 -2.369498 -0.347754 1.424684 -0.168053 -10.24489 -1.341515 -1.286627 1.242925 -2.305646 -1.456317 -0.537156 -0.721515 0.680226 0.566776 0.672849 -1.600524 0.917715 -0.687156 -0.078996 1.317675
pillow -2.164353 0.613238 -0.986574 -1.181315 0.007352 0.287854 -0.715735 1.0905 0.390579 -0.976824 -0.407219 1.074663 0.788926 -1.32687 -0.378189 -0.191011 -2.620885 3.795945 -0.678617 -2.225822 -0.201493 -0.964484 -1.67135 1.571043 0.696047 -0.191771 -0.723225 0.563329 -0.151345 1.239635 0.083052 -0.524766 -0.296204 0.165076 0.424404 -0.523137 1.076417 -0.49148 -1.748781 1.001215 0.443734 -0.049808 0.88338 -0.838686 -1.061436 -1.774079 -13.103657 -0.112265 -1.227282 -2.268904 1.437013 -1.888838 1.421655 1.993453 2.336788 0.942241 1.478393 -0.725909 1.697165 1.219977 0.770889 -0.251739 -1.280263 1.811451 0.193531 0.034309 2.280754 0.353388 -2.23609 1.754686 -3.015929 -0.392834 0.565948 0.603832 -1.98628 -0.390851 0.870177 0.125435 -1.19959 0.050419 -0.664735 0.072445 -0.360395 0.852836 -1.3484 2.557177 -0.513015 -4.222582 -0.930542 1.167507 -0.463176 0.190604 -0.003449 1.008188 2.37172 -0.078101 -1.812898 0.016869 0.561543 0.108547 -0.878547 2.176687 2.329055 -2.689752 -0.348569 -0.749933 -1.609732 0.034471 -1.865619 -2.254568 0.176779 -0.458921 1.646047 -1.252442 -2.972998 2.207204 0.142835 1.932134 0.352819 0.044551 -0.724934 0.162319 0.657956 -0.833081 2.296758 -0.39164 0.939506 0.23697 2.369491 1.297055 0.556499 1.457468 -0.270233 0.568863 -0.879923 2.249787 1.646217 -0.502596 1.205527 -0.879354 -3.908075 -1.15029 -6.868064 2.063606 3.896219 -0.257268 -2.008987 1.974174 -0.384446 0.808204 0.42112 1.221399 0.282515 0.234146 -0.921634 -0.903592 -1.793308 -1.076215 1.162092 -1.207154 0.50507 0.94203 0.412555 -0.052348 0.293536 0.421575 0.547535 2.382027 0.940461 -0.822948 -1.186436 1.150079 3.400323 -0.83809 0.663055 1.180541 0.751956 -0.021746 -0.498609 1.597629 -0.317369 1.459731 0.587791 -0.041427 0.885914 0.501598 1.389401 -2.039786 0.796869 1.18827 -0.828868 0.439893 -0.809436 -0.811885 -1.1536 -0.140361 0.591536 -1.74977 1.829665 -0.640604 0.675295 2.044918 0.42373 0.154865 -0.512048 10.957909 -1.523711 -2.329918 0.563851 0.112717 -1.299766 2.215092 -2.506026 -0.094619 0.218797 0.659645 3.067311 0.188743 -0.036366 -0.44899 -0.763397 -0.942627 -0.214679 2.919209 -4.232395 1.832077 -1.776023 -0.488171 -0.201333 -5.77862 0.136643 0.186198 -2.742856 2.732978 -2.754709 2.333064 -0.306853 0.524448 0.612833 -0.214999 -0.980957 -0.945711 4.028719 0.498013 0.869272 2.393801 2.182846 0.376733 -0.040886 0.6954 2.711207 -1.792655 1.305507 -1.704769 -1.706164 -1.295009 -0.624378 -1.333223 -0.791594 0.503607 -0.820915 -0.459063 0.758819 -2.374433 -1.859294 -0.240381 0.718501 -2.960755 0.35319 -2.315455 -0.197317 -0.251601 -1.181887 -5.365579 -0.179193 0.256774 1.473977 3.414287 -0.643171 -1.537346 0.802681 -0.394665 -0.532097 0.865576 0.660169 1.403347 -0.427435 -2.438273 0.788278 -1.929952 2.14766 0.281142 1.679875 -1.645891 1.94369 0.395544 0.511871 1.475257 -0.914868 -1.450442 0.447296 1.651998 0.07414 -0.323894 -0.261027 0.457789 -1.08582 -0.86518 -26.229283 1.184785 -1.20071 -1.644908 1.006422 1.164498 0.876853 -0.343751 -2.66147 1.878524 -0.107457 -2.174499 0.33517 -1.212281 -0.384259 -1.936828 0.388869 0.814136 1.779856 -2.138038 -1.052933 1.415678 0.250527 0.53885 0.033108 1.565748 -1.635886 0.0091 -1.054986 -1.022459 -1.581301 -1.302464 -0.038106 0.111974 0.053696 -0.397861 -0.050822 0.782599 4.495749 3.171479 -0.468554 2.949415 0.60879 1.288969 3.295541 -0.814248 1.577517 -0.375202 -0.180038 3.536188 2.107084 2.259816 3.679077 -1.116652 0.292557 -0.300711 1.436618 1.464801 0.121722 -2.307778 1.540242 -2.671753 1.504188 0.725547 0.293976 -0.773495 0.906665 -1.880935 0.530556 0.268035 0.890515 0.181602 1.301918 -12.456495 0.419018 0.392783 -3.993751 0.956533 1.142555 -1.448179 -1.18345 -0.52885 -0.087065 1.367041 -2.190785 1.499871 -0.270961 -1.688018 -3.0119 0.218561 -1.409669 1.157218 -0.939012 0.425636 -1.675836 1.34383 1.0642 -2.845173 0.044013 1.494822 -3.270509 -1.86911 -2.659429 0.476359 -1.238075 -0.717894 -2.011033 0.794952 -2.246371 0.904727 0.667622 1.587924 1.338782 0.965945 2.509161 -0.438435 -0.430529 -0.010648 -0.060672 -0.409211 1.697626 -1.074536 3.071315 -0.23702 1.060914 0.289631 -0.186458 -5.846731 -2.580439 0.644243 0.857817 0.027586 0.346432 -1.871362 -3.628979 -1.251548 -2.131109 1.339984 -0.642162 2.934442 1.044374 2.464141 0.10852 1.126625 1.045773 3.339294 -0.114675 0.163838 -0.121141 3.581084 -1.674783 -2.387431 0.83453 -0.369831 -0.721131 -0.084424 -0.011143 -0.496108 0.490483 -0.479327 -0.318869 -2.265457 -9.271985 2.430522 0.588794 -0.821967 0.679842 0.926381 -2.17364 2.524956 0.506233 -0.032222 -2.54502 3.778202 -0.314749 0.348618 0.311268 0.051519 1.256842 -0.268987 -0.341796 1.333385 0.166536 0.989655 1.757047 -0.43317 -2.204804 -1.294264 0.140444 2.924179 0.14169 -0.945809 2.578951 -2.691012 -2.062244 0.401038 1.012774 1.209626 1.403601 0.30261 -0.424789 0.430194 0.451517 1.370069 -2.82996 -0.429776 3.14118 0.20351 -0.390895 0.355376 2.139914 -0.809851 -1.0251 -0.348298 -1.816302 -2.210928 0.935585 1.05508 -0.562142 -0.698525 -2.496735 -2.328271 1.783602 -1.588984 -1.402813 -0.04739 0.515519 -3.320291 0.220934 -2.004661 -0.651556 0.823021 0.928859 1.409622 0.260578 0.546982 -0.467757 1.90991 0.555208 -0.283202 2.537242 -2.988861 -2.856134 -2.852557 -1.539874 1.560943 -2.549942 -1.117485 1.075514 2.19036 0.808839 -1.000587 -1.646277 -2.411165 1.084708 -2.094038 -0.64792 -1.810541 0.645655 -0.063877 -1.650011 1.877662 -1.455565 1.158942 2.434156 0.721701 3.223984 3.963607 2.053266 0.013019 -0.415228 -0.456482 -0.406957 -0.037336 -0.669756 1.100353 -0.730549 -1.63972 0.522034 -0.08161 3.701284 1.617677 -0.069706 0.536267 -1.130409 -1.612317 -1.189165 -0.502968 -1.246449 0.971229 1.193955 0.305225 -2.039736 -1.66484 2.040497 1.874038 -1.573903 -0.924991 -1.116167 2.734927 -1.956674 0.335348 -0.533542 -1.304678 0.702809 0.969619 -1.682589 -0.33803 1.061463 -2.712149 0.357779 0.075731 -0.822533 0.666112 0.124893 -0.783918 -0.192572 -0.26653 -0.381042 1.677758 0.647551 -1.859738 4.455333 1.351426 -0.034467 1.297988 -2.126588 -1.215651 0.046734 0.84343 -0.362932 -1.603443 -0.893415 -0.706756 0.414868 -0.323314 0.197791 0.742679 -4.29972 2.452504 -0.631792 -0.369698 1.535638 -0.137476 1.950882 3.067531 -0.07338 -0.387557 -1.440061 -1.788261 -0.287401 1.890542 -0.080913 2.341087 1.387975 -0.024503 3.762694 -1.948508 -2.273442 -3.672539 -0.837071 2.579465 1.307732 0.620517 2.143017 -0.027441 -1.534457 -1.044768 1.785796 -0.881344 1.287493 1.545372 2.837834 -0.067756 0.289754 -0.084072 -2.833548 0.346077 -1.308773 -0.75266 -0.921205 -2.150204 -1.116217 -1.816692 1.706165 -0.317949 -0.144191 0.471506 2.029206 0.284092 2.962774 1.005338 -0.415795 0.486895 -0.468642 -0.431804 -0.114863 -0.34576 0.140829 -2.628979 -0.118741 1.264477 -1.972886 -0.39637 -1.205577 1.874748 -2.112526 2.590568 -0.616316 -0.343212 -0.737697 0.350899 0.89203 0.069268 0.450628 -0.438479 -0.671907 -0.66985 -0.173986 1.404052 0.711319 -1.389123 0.757712 2.326263 -3.073381 -2.18421 -0.861506 -1.404826 1.612227 1.402668 -0.546079 2.521865 -2.944983 1.35137 0.014813 0.538917 -0.906074 0.724115 0.135011 0.126129 -1.59163 -0.843938 0.654228 0.375731 -10.639461 -1.378516 -0.656537 0.730148 -0.598882 -1.461792 -1.64894 -0.593116 0.309373 0.062513 0.599372 -0.520086 0.630175 -1.389863 -0.051302 0.784096
bridge -3.251728 -1.298776 -1.737152 0.25005 1.524974 -0.776998 -0.006961 0.183455 0.579113 -3.267864 0.877935 0.956145 0.590851 0.321277 -0.853949 0.496983 -3.004168 1.150224 0.537099 -3.729196 -1.39109 0.191188 -1.593315 -0.092002 1.144275 -0.219107 -0.369359 2.482271 -1.009819 0.688207 -0.603672 0.775837 -1.122873 0.407626 -0.566491 -0.513004 0.145982 -0.703763 -2.189118 1.702738 1.170965 0.769661 0.287439 -1.119241 0.09125 -0.169408 -14.259332 2.067238 -3.024054 -2.628208 -0.178188 -0.383178 -0.46442 3.063448 3.033363 -0.944985 0.540179 0.43387 0.149445 -0.246352 -0.316916 -0.321445 -0.754099 0.612136 -1.791208 -1.364842 1.970321 2.18987 -1.38517 4.103763 -2.912168 0.464741 1.9906 0.770405 -1.375386 -1.182492 1.077218 0.14942 -1.575311 -1.371921 -0.202671 1.422901 1.486158 0.93077 -0.414947 0.588241 -0.584595 -5.160385 -2.6233 0.332329 -4.218085 0.341142 0.729442 0.348393 1.311942 1.095735 0.109467 0.470749 1.185701 -0.777607 -2.143753 -0.207157 1.094336 -1.044061 -0.266639 -0.150147 -0.094253 -1.281846 -0.534727 -2.916235 0.17945 0.254609 -0.250332 0.453529 -1.762055 1.654339 0.654908 1.490965 1.571209 0.128221 -0.548928 1.987789 0.10037 -0.950196 1.819984 1.451785 0.245093 1.307151 0.193456 0.553103 0.140911 3.638428 -1.649398 0.43537 0.493494 1.652086 2.308569 -0.553096 -0.976802 -0.252343 -2.69051 -1.753843 -6.693414 -0.787622 3.128558 1.392595 -0.998582 -0.005371 -1.276987 0.430873 -0.054398 1.485473 -0.714424 1.667943 -1.449458 0.391865 -0.424655 -2.494152 1.014332 -0.218066 0.345314 0.699612 1.265824 -1.3152 1.515703 -1.832432 -1.35478 2.662568 1.981578 -2.125804 -2.341734 1.154807 1.491409 -0.327442 1.946726 -0.110487 0.332654 -0.691904 -0.181921 1.435024 0.039568 1.759059 1.596837 1.797868 0.592973 -1.875424 0.910072 -1.261048 1.451417 1.004139 0.275032 0.926554 -0.248304 0.144144 1.56954 -0.672448 0.152514 -0.685695 2.840047 -0.885585 0.398416 -0.498467 -0.357126 -2.026423 1.102301 9.58478 -0.448413 -3.442183 -0.488526 0.874313 -1.874593 1.445516 -1.511248 -0.142002 0.857527 -0.168121 2.782607 -0.001005 -0.024164 0.537375 0.049277 1.72756 0.183477 0.050674 -2.483025 1.970262 -0.066943 0.289622 -2.049707 -5.158076 1.266421 -0.389317 -1.853129 1.862659 -1.693099 0.932822 1.058833 -0.046272 1.958203 -0.42013 -2.236881 -2.283044 2.997369 0.671894 3.17619 3.290977 3.240479 -0.434682 -0.056539 -2.098448 1.320524 -1.51583 1.808881 -2.524475 -0.739909 -2.835495 0.523275 -2.447301 -2.070033 0.550781 -2.177944 1.912366 0.308814 0.133346 -1.14005 0.522952 2.154661 -4.20877 1.631813 -2.076309 -3.750565 0.377194 -0.081457 -6.945192 -0.370019 0.785962 2.9639 2.924369 0.643352 -1.197176 3.473549 -1.81691 -0.346943 0.673534 1.535209 0.236449 -2.031074 -3.570649 0.927438 -0.950546 1.928333 0.5138 0.10055 -1.831407 3.540265 0.178247 1.08868 0.932586 -1.309063 -1.447827 0.88707 2.778545 -1.150342 0.060982 0.516292 0.061917 -0.02979 -1.32238 -31.634912 0.648495 0.244485 -2.011988 -0.443951 -1.243339 0.351184 -1.067434 -2.727841 -0.264835 -0.247593 -1.647706 0.240636 -3.132894 -0.784199 -2.422166 -0.713348 0.301835 0.039967 -0.845327 0.645604 -0.110972 -0.230605 -1.298405 -2.742346 -1.309451 -1.014671 -1.06271 -1.416222 -1.991686 -1.903034 -0.851188 -0.995962 -0.239726 -0.636078 -1.289357 -0.005417 0.135972 5.370384 1.755082 -1.17886 4.114264 0.562952 0.313678 2.028983 -1.369184 0.541273 0.790565 0.146551 2.214245 2.36821 3.228583 6.349531 -2.930167 1.125758 -0.142617 1.875363 0.835158 0.476187 -0.595958 1.514988 0.127357 2.668495 3.041 -0.034235 -1.429652 1.608192 -1.250357 1.228528 -1.292808 -1.273407 2.320521 0.184978 -10.801687 -0.747509 0.78792 -3.749547 -1.401916 2.343725 -4.497676 -0.603313 -0.296938 1.844105 0.767956 -1.666162 2.712411 1.180245 0.315572 -2.15686 1.126031 -1.667536 1.41191 -0.807536 1.486378 -1.856023 0.966657 0.345465 -0.738782 -0.073804 1.431284 -1.370288 -1.373765 -1.817466 0.359507 -0.801354 -2.110327 -0.776262 0.000801 -2.785464 0.8169 1.018968 3.610005 1.590779 0.00036 1.498708 2.417167 -0.571828 -1.498882 0.369104 1.173898 -1.326526 1.215083 2.890694 -0.028363 1.120388 0.311688 0.326667 -2.4335 -3.276249 -0.166597 2.564535 -0.053515 0.803718 -1.123817 -3.772883 -1.581866 -2.125825 2.105994 -1.080908 4.269771 0.979624 0.628045 -1.842863 1.937551 0.94614 2.854678 -1.428177 1.194159 0.951986 3.89791 -1.370767 -5.365481 1.104027 2.328572 -0.368936 -0.637115 2.029822 -3.507883 0.319754 -0.315477 -0.385012 -0.935202 -8.73612 1.936587 -0.407919 0.239074 1.317752 0.868506 -1.748192 3.181346 0.704457 -0.396593 -0.605443 0.741825 -0.612625 0.101924 0.515645 -0.958323 1.665674 -0.017641 0.235548 1.647448 -0.797426 2.604011 -0.654009 -3.052689 -2.153095 1.839065 -0.50943 2.722253 -0.62166 -0.279781 1.036767 -2.540052 -3.377105 1.303132 1.079741 0.363863 2.56692 0.272178 0.190331 -2.146365 -0.248358 3.996847 -2.158386 0.838176 4.834144 -0.660437 -0.292879 -0.282799 4.473606 0.155005 -0.389295 -2.422483 -3.63853 -2.993671 -0.473429 1.759318 -1.144858 0.388978 -2.420737 -0.85887 -0.116785 -1.84977 0.688624 0.939805 -0.424841 -4.099347 -1.454831 -0.310457 -2.342937 -0.608753 2.786658 0.090914 1.148068 1.52761 -3.150072 1.150791 0.400664 1.252904 1.706983 -2.870114 -1.534581 -1.656508 -2.05409 0.454549 0.637922 -1.085512 1.541473 1.004495 -1.410318 0.234074 -0.654415 -0.641487 1.332572 -1.579743 -0.272959 -0.978274 1.56653 0.098583 -2.11783 0.619891 -0.721089 -1.012862 2.318324 -2.259387 0.276499 2.202961 1.844636 0.089046 -0.248406 1.706081 0.574295 -0.777485 -0.632823 -1.30687 0.595403 0.310006 1.573449 0.129579 1.55502 0.15351 -0.117171 -0.757328 -1.158757 3.02172 -1.121437 -0.875501 0.270675 0.627749 0.440496 0.918412 -4.080609 -0.774729 0.152755 0.745016 -1.532525 0.642306 -0.832699 1.8739 -2.715087 2.019742 -0.808798 -0.181969 0.217767 1.458671 -0.991395 0.020374 0.140252 -2.226719 0.83184 -0.675736 0.096873 -0.678383 -1.045544 0.95437 -0.967271 -0.361904 0.411497 0.223469 0.841138 1.17646 5.277263 2.19463 -0.067932 2.002459 -0.269466 -3.013692 -1.402689 0.813545 0.070383 -3.18666 -1.9042 1.114135 -0.210017 -1.80446 2.830712 1.581085 -2.249999 1.280642 -2.012664 -0.181417 -0.270689 0.627226 2.330792 1.042342 0.045134 -0.17965 -2.348546 0.407746 0.634486 2.017968 -0.88207 0.844019 1.285313 -1.024549 2.605113 -0.930934 -1.557296 -4.615022 -0.239161 3.192007 1.367963 -0.091534 1.23307 -1.765423 0.184891 -1.067776 0.023894 -0.241021 0.028313 1.757657 1.212668 0.741835 0.479069 -0.207239 -4.447976 2.812948 -0.651646 -1.132183 -0.383631 -0.980849 -1.541521 -0.99865 0.493079 1.67963 -0.88196 -0.381612 -2.086452 0.032954 0.201898 1.012706 1.993515 -1.132033 -0.683274 1.457191 -0.176942 0.547386 -0.537073 -1.94266 0.144179 -0.391631 -0.570322 -0.486821 -1.449844 2.701328 -2.299953 0.737588 -2.104224 -0.070966 1.342776 0.193209 0.560581 -0.250147 -2.292588 -0.027189 1.280375 0.877869 1.189405 1.124394 0.759436 -0.840462 1.114913 0.654656 -2.804321 -1.18838 -4.105945 -0.611599 1.906195 3.061932 0.186659 2.034156 -0.376761 1.329782 -0.738263 0.937887 -0.799815 0.51253 1.872816 0.693107 -1.40435 1.571893 1.366554 1.918016 -10.834128 -2.282699 0.117235 0.690224 -0.081486 -1.258209 1.575341 1.429182 -0.715815 0.91411 2.359091 -1.790065 2.556368 -0.262211 -0.970159 1.627399
meat -1.991418 0.775397 -2.500867 0.045531 0.255329 -1.616299 0.190021 2.33951 -0.056584 -3.198549 -1.767166 3.705099 0.239349 -0.818294 0.424969 0.959747 -0.881553 1.460847 1.979356 -1.306986 -1.228457 -0.288416 -3.129734 1.873311 1.72785 -0.541106 0.096108 2.163046 -0.366313 0.204216 -0.77078 1.298062 -0.910815 -1.519728 -1.099879 0.476853 0.270435 -0.043256 -2.351715 -0.42214 -0.122697 0.391657 1.763189 -0.396306 0.917086 -1.224412 -14.674642 2.498149 -2.343654 -3.723608 -0.276387 -1.01771 0.515478 2.26977 1.827375 1.4779 -0.505757 -0.169254 -0.593834 -0.141181 0.352506 -1.980768 -1.218565 0.333193 -0.33462 1.044762 0.982307 0.724268 -2.863991 2.340501 -1.554626 -0.168185 -0.082143 0.229195 -2.130601 -1.688351 1.666158 0.275212 -2.264513 -0.140949 -0.613834 1.530918 1.028072 1.028974 -0.95154 1.594175 -0.740647 -3.692975 -1.929063 2.986925 0.549428 1.205376 1.303463 2.519506 1.71587 -0.162062 -0.793807 -0.637025 0.990095 0.760482 -3.788766 -0.323989 2.37401 -1.452522 -0.512112 1.515811 -2.114737 1.512633 -0.220894 -3.293453 1.387716 -0.516092 2.746743 -0.720901 -3.246726 3.989866 -1.168042 1.452952 0.951165 -1.534076 -0.29948 0.974732 -0.494747 -0.936204 2.605928 -0.988939 1.532896 0.737905 0.739526 0.982578 -0.208979 2.488524 -0.553844 -0.600334 -1.1136 1.030228 2.266214 0.889909 0.905588 -1.599792 -2.732034 -1.64285 -5.755021 1.434243 2.839472 -2.316727 -0.687228 -0.036109 -0.122286 1.172666 0.575182 1.80093 0.498607 0.694894 -0.461525 0.359003 -0.382789 -2.015056 0.957751 -0.076323 -0.824217 0.349496 2.070208 -2.718236 0.526123 -1.830073 0.240107 2.108124 0.908616 -1.164031 -0.375485 0.111462 3.543645 -0.736706 2.378118 0.317322 0.581383 -0.382542 0.633848 1.805908 -0.266239 1.073642 0.114649 1.093853 0.65305 -0.183571 1.488387 -1.674021 0.773323 1.046576 -1.027942 1.564311 1.461996 -1.984682 1.357778 -2.422391 -0.671529 -1.168407 3.542082 -0.256687 0.13872 1.289324 -0.17346 -2.242656 -0.256301 11.310192 -0.122933 -0.732514 0.750018 1.34879 -0.144877 2.598643 -0.448919 -0.954953 -0.438173 0.300293 3.45255 1.558247 0.986855 -1.359608 1.28134 0.559606 0.600311 1.963162 -3.30173 1.94232 -1.108454 -0.478759 -2.039304 -4.40896 2.270627 0.103831 -3.19488 1.980139 -2.65728 1.033226 0.999955 1.231946 0.9286 0.362023 -0.43132 -0.538506 4.707225 -1.029192 -0.119491 2.566326 3.394114 0.269301 0.676279 -0.825397 1.553914 -2.884473 2.078698 -1.834593 -0.431095 -2.473079 -0.396821 -1.833744 -1.371517 0.742454 -0.906203 0.206182 -0.232816 -1.236562 -1.212164 1.161212 1.583712 -3.650223 1.633917 -2.434689 -1.976782 1.139388 -0.733792 -4.950746 0.051705 0.313346 2.241965 4.623185 1.312334 -0.847041 2.729484 -0.1562 -0.327676 0.692824 -0.020313 0.507582 0.295929 -4.333653 0.523429 -1.108565 2.361341 0.472814 -0.663713 -1.828422 4.060277 -0.3418 0.694573 1.977139 -1.474478 -1.916846 1.032032 1.563861 -0.887046 -0.356793 -0.802686 1.648839 0.095579 -2.014458 -34.254001 -0.04201 -0.712539 -2.92652 2.178269 0.119958 -0.161463 -0.349277 -2.672802 2.189317 -0.394538 -1.656902 -0.586036 -1.677096 0.792694 -2.351968 -0.433447 0.521142 0.067047 -0.153164 0.788468 0.13117 -0.014487 0.578461 -2.350943 -0.396606 -1.827993 -0.012326 -2.336968 0.302662 -3.139967 -1.292154 -0.17169 -0.5562 1.748041 -0.329322 2.495584 1.400281 4.982885 2.463395 -1.703719 3.067727 0.761897 2.42372 3.035866 0.264702 -0.053244 0.466578 1.128962 2.839033 0.405734 2.352546 4.419272 -3.363508 1.279019 1.551964 1.791393 2.327825 1.464101 -3.019889 2.620702 -0.003559 2.672046 1.836843 -1.194726 -0.262425 0.41936 -3.862832 -0.147558 0.275302 -0.663088 0.386329 1.843961 -10.817119 -0.462189 1.195076 -2.657298 0.78375 2.714435 -1.19054 -3.203533 -1.35129 1.541627 0.000265 -2.156301 1.431602 -0.90049 -0.754075 -1.699328 0.324976 -0.809207 1.202993 -1.37507 -0.330796 -0.695767 0.750583 2.25524 -3.175698 -1.417249 3.13844 -1.626043 -2.261459 -1.943365 0.467547 -2.049981 -2.538368 -1.256446 1.619946 -0.861346 -0.408336 1.303752 3.023595 -1.373805 -0.400038 2.544097 1.342182 -2.361978 -1.069017 0.546023 1.428313 0.119013 0.4454 1.075215 0.10877 0.616193 0.211667 0.796234 -2.538175 -3.766022 0.172734 1.436687 -0.63397 -0.300743 -1.748312 -2.798223 -0.216439 -3.375041 0.239954 -1.813696 1.596892 2.636274 1.90976 -0.149393 2.762379 0.060589 4.202339 -0.88647 -1.325997 0.972432 2.666964 0.040587 -0.79871 1.541841 2.348732 -0.92322 -1.790184 0.826685 -1.578061 -0.594004 -0.321068 -1.307712 -1.980474 -9.033003 1.982316 2.143232 -2.1295 3.197729 -0.001213 -3.163837 1.744338 0.221392 0.147067 -2.008198 1.504774 -0.603192 -0.806313 0.098289 -1.359453 1.779703 0.652854 0.535235 1.900797 -1.263301 -0.703472 -0.596568 -2.248241 -2.647815 -1.374151 -0.387638 3.913154 -2.969577 -1.628291 1.892127 -1.774719 -2.134996 0.111615 1.335355 1.294582 1.336324 -0.204126 1.170669 -1.223639 -1.292784 1.66622 -2.675238 0.580974 4.31314 -1.622953 0.401161 -1.713636 2.138369 -0.62831 -2.124616 -2.124446 -1.191607 -2.762075 2.06373 2.539099 -0.997708 -1.30848 -1.698262 -1.584665 1.273946 -1.399402 0.492622 1.725248 1.186887 -3.165249 -0.001298 -1.978867 -0.36637 1.826679 0.688652 0.37847 2.074107 2.713865 -2.207989 0.797108 1.361007 -0.757864 2.072927 -3.32705 -1.366937 -1.99268 -3.289451 0.983498 -0.074366 0.110588 1.237652 2.433959 -0.589277 -1.055068 -1.121567 -2.40592 1.968752 -3.040673 -0.934461 -0.137106 0.13787 -1.201488 -1.960969 2.621425 -0.430824 0.794832 0.783198 -0.723905 1.269725 2.385064 3.426117 1.524431 -0.936135 0.367765 2.11528 1.318649 -1.474112 -0.593153 -2.185672 -0.237038 0.079832 0.428933 2.518885 -0.210918 0.332812 1.327849 -0.087407 0.102808 0.949511 -1.366456 -0.843173 1.150022 1.442176 -0.085996 -2.554665 -0.860203 0.177644 1.397514 -2.712589 -0.074117 -1.204239 1.51773 -1.670245 0.889048 0.384603 -0.594073 0.428514 0.644701 -1.658694 0.096028 -1.775015 -0.980698 -1.036491 -2.380294 -0.527997 -1.459129 0.241485 -0.254708 0.37482 -0.848892 0.048463 3.002826 -0.18582 -2.568769 5.087843 1.953401 1.910997 2.938507 -2.645833 -3.412245 0.249372 1.250763 -0.297484 -1.04094 -2.27643 -0.07165 -0.343417 -0.069202 1.417432 0.604064 -4.42028 4.137991 0.647081 -1.188202 0.537875 -1.070263 2.349219 3.978084 1.05387 -1.620844 -0.363102 -1.655919 1.170016 1.531666 -1.001145 2.034811 0.813436 -0.56283 1.809131 -1.649371 -1.469697 -4.732257 -0.854918 3.124552 2.248137 1.505954 2.155373 -0.576506 -2.315171 -2.536578 -0.667729 -1.073362 -0.891679 -1.392462 1.397043 0.056177 -0.290198 -0.990106 -4.71175 1.419294 1.265153 0.34911 -1.170991 -1.203561 -1.09235 -1.999251 2.129362 0.027048 -1.095265 0.72629 0.417223 -0.404264 0.582078 1.270173 0.378871 -0.690268 0.17118 -0.611998 0.924503 0.016644 -1.420256 -1.619558 1.278331 1.89664 -1.058959 -0.962935 -0.137902 1.17964 -2.992385 3.644769 -1.776312 0.035818 1.29538 -0.330577 0.775492 1.241244 -0.447247 -0.067261 -0.619443 0.057635 -0.354579 0.675791 0.17084 -1.795049 -0.511308 1.505967 -3.09216 -1.877292 -2.820439 -0.041671 0.557747 1.267337 0.915996 2.618227 -1.709499 0.172783 0.762123 0.802288 -0.684692 0.255423 -0.505841 0.963984 -1.012131 -1.14106 1.473932 -0.332862 -10.733967 -1.45616 -0.958372 1.306659 -2.564685 -0.63543 -0.70005 0.288342 -0.184379 1.343824 -0.3876 -2.191923 0.77364 -0.796605 0.282201 1.406083
street -2.093963 -1.102709 -3.761203 -0.857168 -0.40855 -0.521973 1.004489 2.498112 1.625589 -2.705144 -1.857436 2.093702 0.155638 0.112162 0.750468 1.984354 -1.204874 3.320815 -1.268679 -3.428197 1.037856 0.747555 -1.757751 0.014188 2.559386 1.670833 -0.701711 1.393403 -1.112034 2.145432 -0.61607 1.543521 -2.335811 -0.373774 -0.382136 1.043822 2.995753 0.193301 -2.72871 1.922402 -0.165694 0.997761 0.711936 -2.530734 -0.113323 0.2731 -12.975042 2.357365 -1.72435 -2.28345 -0.938946 0.099706 -1.468374 1.13711 1.632657 1.137023 2.525909 0.52039 -0.035959 -0.619857 0.652869 -0.14857 -2.712531 0.968073 -2.369228 -0.875896 2.773292 1.746736 -2.776063 2.36053 -4.620948 1.105552 1.371964 -0.507243 -1.148899 -0.155657 0.538957 -0.080118 -3.524121 -2.9473 -1.061255 0.919549 0.735211 0.877488 -0.587679 1.025432 0.467736 -4.393372 -1.214843 0.668105 -1.897909 -1.497828 1.07739 1.002166 0.719509 -0.486842 -1.58157 -2.091654 0.133257 -3.167169 -0.801992 -0.777175 1.896029 -1.090745 -1.326879 0.8967 -0.716226 -1.51973 -0.937285 -3.347183 -1.012295 0.230084 1.010423 0.084151 -2.054057 1.579096 -0.186766 2.787206 -0.3119 -0.277137 -0.951005 0.382296 -0.593207 -1.072627 0.761169 1.111627 -0.540372 0.328491 -0.283379 0.331294 1.090932 3.08494 -1.067097 -0.494602 -1.562232 -0.392292 0.105133 1.179983 -1.211067 -0.39111 -4.229077 -2.92727 -7.626925 -0.60121 3.659157 -0.442729 -1.552999 0.51484 -1.379639 0.878016 -1.446225 0.873054 -1.645328 1.141396 -0.249626 0.53833 -2.314669 -1.638928 1.186516 0.017884 -1.496596 1.043475 2.04696 -1.110219 1.012731 -2.869698 0.705489 0.774309 1.207781 -2.41379 -0.292325 0.062692 1.898511 0.30467 2.053172 0.952476 2.683524 -2.49682 0.203477 0.742912 -0.747455 0.433606 1.29474 -0.046607 3.023214 1.489355 1.407631 -2.118866 0.937182 1.106555 -0.019631 1.604388 0.557782 -1.042461 2.40679 0.444151 0.443387 -1.131143 1.803398 -0.986477 -0.495397 0.184857 0.101847 -0.806467 0.771999 11.385186 -1.165629 -3.848124 -1.726379 0.756955 -2.492255 1.48833 -1.147299 1.598244 -1.257832 1.963706 1.761085 -0.428444 0.968844 0.272573 1.975334 -0.068553 1.693857 2.309853 -4.94792 0.265849 -0.89145 -0.902387 -0.127381 -5.462931 1.233681 0.426083 -2.138149 0.551969 -1.689536 1.935268 1.497819 -2.285639 -0.446935 -0.238099 -1.703332 -1.312048 3.560844 0.693119 1.672945 2.526349 3.427393 -2.66139 -1.131642 1.624167 0.532994 -1.06055 0.711882 -3.976117 -1.380867 -1.52507 1.717526 -1.91944 -2.179114 -1.430719 -2.037436 -1.875163 0.908419 -1.634225 -2.236827 1.161837 3.530378 -4.300466 -0.859825 -1.056334 -2.895147 1.720955 -1.304599 -3.986272 -0.670073 0.7568 2.08746 2.719458 2.914445 -2.16179 1.136644 -2.362024 -1.290398 -0.172744 1.926608 1.097843 0.472623 -2.626599 1.886377 0.288439 -0.288776 -0.09438 1.085532 -1.626307 1.783022 -1.392337 0.85811 1.209758 -0.746433 -0.765621 -0.453 1.898629 -0.09901 -0.723887 -1.190889 1.18862 -0.025375 -1.735055 -26.360596 2.511331 0.071805 -1.106111 0.786169 0.455704 0.341424 0.594071 -2.851583 0.935765 0.465616 -4.330229 1.255374 -1.317961 -0.012603 -3.824069 -1.559351 1.726117 0.534287 -1.448019 0.413283 0.640616 0.597795 0.36048 -1.326701 -0.179777 -1.56081 -0.745916 -1.398334 -2.85739 -2.037358 -0.266608 0.892368 -0.131891 0.245307 0.22074 -0.025697 -1.88181 4.031388 2.552093 -0.069887 3.450694 0.187105 1.233532 3.801244 -0.195161 1.059186 0.765976 1.687097 3.665479 3.080497 3.869144 5.357034 -1.716323 0.763924 -0.39978 1.477926 0.062685 -0.601153 -2.525945 2.786371 0.358872 2.847591 0.698781 0.61963 -3.11603 0.526772 -0.570382 0.117604 -1.392928 1.320112 1.010237 -0.073788 -10.75272 -0.47626 2.040703 -2.822795 1.32703 3.056854 -0.774068 -2.507647 -1.302762 1.827772 0.384099 -4.172654 0.83276 -0.637986 -0.707036 -1.303633 2.115792 -4.508327 1.138886 -0.859138 0.587102 -2.278962 1.047282 1.103255 -1.723826 1.232183 2.555986 -2.470746 -0.73678 -2.591397 1.409408 -0.992682 -1.310958 -2.435927 0.230276 -2.226437 1.352568 0.715415 1.978582 1.4355 -0.396116 2.214111 -1.267431 0.329746 -0.138961 0.842013 1.800613 0.4012 -1.139194 0.288162 0.451964 1.61568 -1.669219 0.742808 -0.758286 -2.560958 -1.630035 0.655944 -0.06136 0.181122 -2.499662 -4.293671 -2.946782 -0.460667 2.815305 -1.225744 6.097896 1.880029 3.213975 -1.18536 3.140392 -1.839377 2.446577 -1.15547 0.39074 2.043107 5.141235 0.281231 -2.504108 0.756786 0.889199 0.091711 -0.252338 1.265705 -2.769464 -3.378228 -0.980274 0.546147 -1.646186 -9.083984 2.027156 -0.34772 -1.874721 1.274737 2.096051 0.037561 2.173729 1.134906 -0.421442 -0.174846 1.956922 -0.730212 0.306389 0.847754 -0.531132 0.90028 0.021847 0.3668 2.679667 0.007896 4.624979 0.366823 -3.516267 -2.331043 -0.486275 -0.610157 0.002474 0.827165 -0.057918 2.340052 -2.484072 -2.625044 -0.16742 2.940181 1.453179 1.612853 0.476424 0.407192 -0.989746 0.540461 2.702881 -3.950236 0.487365 4.625324 2.616932 0.812331 -1.109353 2.585199 1.045461 -0.438047 -2.151193 -2.811519 -2.524056 0.89345 1.467266 -1.606947 0.062164 -3.155109 -2.304406 0.462113 -1.202882 1.679348 1.094622 -1.77699 -2.345301 2.207813 -0.685109 -1.380028 -1.067486 1.765129 1.122738 1.513795 2.131048 -0.648712 2.171726 0.904945 1.017745 0.188944 -3.004383 -2.046538 -2.433913 -1.210054 2.317058 -1.931081 -2.849046 1.323379 3.012252 -1.41243 0.838026 -0.375131 -0.426052 2.31441 -1.81541 -0.561984 -0.160571 -0.48381 -2.444845 -1.63869 0.863588 -0.665361 -0.355234 2.146479 0.801717 1.165362 2.102511 2.077637 0.557967 -1.254398 1.346478 0.565478 0.264866 -0.770529 0.095388 -1.253924 -0.926021 0.862433 -0.088299 1.373714 -0.880219 -0.185735 0.295138 -0.717387 -0.538038 -2.09725 -1.927212 0.009441 1.16414 1.840453 1.258533 -2.283544 1.263505 -0.257527 1.065674 -1.371496 0.22174 -1.718353 2.606162 -0.249069 2.772975 0.480412 -0.608916 1.537606 1.558991 -0.548772 -1.547391 0.427592 -1.494859 -0.348895 -1.283593 -0.702112 -0.902673 -1.430557 -0.936624 -1.452612 -0.23423 -0.381638 0.205402 -0.114917 -0.610466 5.541286 1.571584 0.990829 1.66977 -0.683687 -3.593886 0.113609 2.256315 0.893063 -0.604403 -2.757293 1.587773 0.059916 -2.284816 2.323592 0.838853 -3.87243 -0.231619 -1.40052 -1.272796 0.531066 -0.254827 1.468977 1.402164 0.086129 -1.745836 -1.183361 -1.254983 -0.391434 3.22632 0.156168 -0.041405 -0.24721 0.003567 1.338829 -1.86721 -1.34926 -4.172412 0.480505 3.20356 2.491572 -0.263466 0.321073 0.606 -1.400206 -0.343448 1.41172 -0.922635 1.207051 1.13513 1.444988 -0.800664 1.959779 0.58282 -2.917441 1.263529 -0.944762 -2.127573 -0.97908 0.086022 -1.770649 -1.681692 2.841133 1.131735 0.541929 -0.439243 -0.74803 0.096737 1.440375 0.555003 -0.009933 0.380693 1.122926 0.81511 -0.93621 2.842228 0.990491 -1.512419 4.205454 1.928556 -1.387008 -1.391449 -1.534307 3.003857 -1.462622 4.400294 -0.005223 2.099884 1.078407 0.640098 0.700826 1.831441 -0.822802 0.564434 0.763114 0.673147 -0.07278 -0.160798 0.466055 -1.771384 0.561769 0.662948 -3.435427 -3.902154 -2.666229 -1.628496 1.369137 1.766658 -1.069044 2.263538 -1.13725 0.35409 -1.475024 0.359249 -0.247274 -1.938662 1.89866 0.069322 0.371737 -0.040835 -1.293828 1.403501 -8.564392 -1.849241 -1.567907 0.400456 -0.897072 -0.669466 0.452909 0.296404 -0.984822 -1.298808 1.140884 -1.382619 3.749224 -1.250511 1.093316 3.296179
bus -4.146281 -3.322045 -2.791555 -1.617764 0.676611 -0.890194 -0.554569 1.346336 1.18471 -1.292581 -1.543896 1.204903 -1.403866 0.50235 0.503667 0.846281 -3.666585 0.843692 0.550641 -3.308894 -2.426565 0.822802 0.054374 1.486558 -0.832977 0.241977 -0.92059 3.378867 -2.076941 0.666422 0.304794 -0.686615 -1.01205 0.347978 -0.672485 0.304648 0.96944 -1.703993 -0.595163 3.173599 0.284306 1.100722 0.212331 -1.380179 0.810032 -0.265152 -11.156721 1.619123 -1.40323 -1.273729 -0.537154 0.542205 -1.354789 2.007903 4.469869 0.377046 1.060051 -1.399062 -0.567098 -1.356244 2.675091 -0.894078 -1.545927 3.400251 -1.139852 -1.364781 0.918739 1.187195 -2.43002 1.217888 -1.810775 0.656367 1.101706 1.110461 -0.556062 -3.089198 1.048284 0.437644 -4.346453 -0.420461 -0.068499 2.483131 2.367726 -0.063343 0.646206 0.970751 -1.845214 -5.01251 -1.579087 0.91984 -4.152151 1.029212 -0.364995 1.608816 1.791364 0.687049 -0.890412 -2.201274 1.180278 -2.2373 -1.649628 0.137675 1.374955 -1.947908 -2.338399 0.610122 -0.699836 -1.397866 -2.081361 -1.711188 -2.565023 -1.024259 -0.445484 -0.842101 -3.054997 -0.42237 0.223968 1.711406 0.140939 0.374963 1.858937 0.779511 -0.270449 -0.922754 0.7439 1.443189 1.392705 0.800634 1.908952 1.463494 2.539274 2.430147 -0.457284 -0.08064 -2.337861 0.943405 1.924379 1.183763 -1.596613 -1.090668 -6.085187 -3.386236 -6.547439 -1.397821 4.260703 1.740103 -1.241303 1.516556 -1.191749 -0.230801 1.337723 1.23543 -1.182365 0.597338 -0.748413 2.009925 -1.6393 0.013975 1.498988 0.171795 -0.892545 1.360801 0.257156 -0.382891 -1.806823 -0.836057 -3.072603 3.093574 2.978632 -1.996598 -2.45683 -0.03111 1.646038 -0.968595 3.388237 0.081018 1.003927 0.072164 -0.598233 0.686287 -0.428432 3.65688 2.125287 0.791734 -0.190976 -2.599717 2.916896 -1.810742 0.086966 0.216731 2.113263 1.627385 -1.17974 -0.498814 1.509716 -0.690795 0.610528 -0.088402 4.443896 -0.974874 1.24067 -1.896771 0.317726 -0.771055 0.255611 10.848472 -0.04786 -3.232536 1.094856 1.262462 -1.735266 1.251453 -3.057194 -0.310809 0.711559 0.56061 3.231007 -0.442754 1.201197 -1.546217 1.854314 0.739534 0.906612 0.968375 -4.919061 2.090573 0.081308 1.570565 -1.139721 -4.227958 1.422111 0.45589 -2.337047 1.13946 -5.195374 1.753241 -0.376593 1.166059 0.875637 0.742276 0.710818 -1.382363 3.83001 0.057387 -0.021135 2.595973 3.634593 -0.383435 -0.375943 -1.303587 1.432169 -2.045186 0.747824 -3.531108 -0.540297 -1.9864 1.780251 -1.136339 -0.848323 1.102698 -1.825611 -0.359929 0.411388 -2.331073 -1.908802 0.501106 1.876108 -2.618742 -1.137169 -1.923535 -2.893179 -0.115867 1.998762 -6.164892 2.01291 0.810934 1.287783 4.457478 1.347712 -0.534717 3.985012 -2.525509 0.955015 1.236763 0.094544 0.192641 1.009294 -2.508406 2.676121 -1.616339 1.833975 0.671903 -0.452877 -2.373404 0.545473 -0.88316 0.760741 2.160535 -2.065239 -2.021958 1.582762 2.462731 0.723224 -0.658759 0.461338 2.049891 0.555905 -2.106825 -29.552013 2.070412 -1.665997 -2.402841 0.120403 -0.063569 -1.600328 0.793532 -3.410653 1.744811 0.836942 -1.851677 -0.507666 -2.526358 -0.832453 -2.111948 -0.922717 -1.811259 1.21073 1.634113 3.601009 -0.815199 0.466977 -0.622882 -0.001013 -0.277193 -0.328465 -1.871247 -1.455575 -1.833694 0.365859 -2.268376 -0.604727 1.539477 1.120036 -1.348167 2.468546 0.820121 5.085947 0.146036 -0.871245 3.132952 0.724051 1.631075 0.17777 -0.548336 1.404019 2.617165 -0.453539 3.230545 1.358935 2.204696 5.459585 -2.132644 0.188951 -2.125539 0.818326 -0.052847 0.043151 -1.323052 3.606965 -0.881358 0.731032 2.196451 1.305135 -1.139167 1.795311 -1.22683 1.531503 -1.976319 -0.204106 1.846055 1.39755 -10.742618 -0.0352 -0.237966 -2.764774 0.376701 2.327144 -0.869491 -0.406533 -1.512997 0.564592 1.047738 -0.355286 2.697273 0.498621 0.713675 -2.185534 -0.497107 -1.090771 -0.351619 -0.365304 3.147332 -2.688701 1.043702 1.303632 -0.87569 1.084472 0.15847 -2.89015 -2.223367 -2.916663 -0.451559 -1.211883 -3.272737 -1.339692 -2.194318 -1.228504 0.402371 0.157857 1.497704 0.026334 -1.664064 2.922735 2.301522 0.220151 -1.540475 0.875657 2.637459 0.18399 1.958672 0.344894 -0.429031 1.280363 0.51881 -0.665593 -1.001618 -3.416721 -1.343268 1.694771 -0.020515 1.584071 -2.539484 -4.262911 -1.514119 -1.51241 4.783843 -0.206144 3.931338 1.227183 1.143314 -0.312649 2.496976 0.30669 4.858592 -0.19128 -0.924712 1.486529 2.466653 -0.508535 -5.080134 1.257093 2.213516 -0.483921 -0.045042 2.329817 -1.514841 -1.783708 -0.307323 -0.289895 -1.431722 -7.52334 -0.023259 -1.617423 0.411109 2.335631 -0.861332 -0.636885 0.965053 -0.556225 -2.167137 -3.065823 1.802903 -0.734578 1.323861 0.983788 -0.911254 2.069728 0.557953 -0.215236 0.091281 0.361539 3.788017 -0.523649 -1.915057 -3.360863 -1.564162 -0.12874 2.754418 -0.389359 -0.406277 1.699881 -0.138572 -2.25233 0.293392 1.21171 3.028379 0.657558 1.153649 0.921942 -0.294477 -0.997132 2.751149 -3.351886 2.698111 4.223947 3.192767 -0.237439 -1.186238 2.893221 -0.569876 -0.584461 -1.626622 -3.327376 0.161248 0.688759 2.36283 0.42298 0.403324 -4.585815 -2.130172 -1.416894 -1.272238 0.464829 0.080035 -0.058345 -4.284968 0.228134 -2.497436 -0.891134 1.842311 2.005518 0.911782 1.973426 4.012057 -2.168826 2.335651 0.841391 -0.664732 1.525249 -3.156911 -2.193356 -3.171801 -2.353513 1.360212 -2.56107 0.51571 0.90898 0.773288 -0.225886 -1.307804 -3.104746 1.271064 2.295523 -2.663476 -0.187058 -1.000956 -0.261818 -1.231543 -2.059193 1.719733 -0.528229 -0.312145 2.612661 -0.549205 -1.224712 1.767398 2.454423 -1.210743 -0.528403 -0.307116 0.02107 -1.088062 -0.276863 -1.133531 2.125913 -1.901127 -0.353738 0.867429 1.042863 2.678009 0.696319 -0.711983 -0.564663 1.10704 -0.855574 -1.755796 -1.260727 0.950653 0.642659 0.491735 -4.373256 1.120292 -2.492494 0.406477 -1.919329 0.377782 -1.9657 2.334109 -1.838914 2.072135 -2.160586 0.043173 -0.101815 2.071532 -0.76982 -0.650712 1.699687 -2.715622 -1.02264 -1.26645 0.320625 2.669687 0.006208 0.187 0.106088 -3.116136 -0.456195 0.642463 2.252334 0.488028 4.828183 2.026527 -0.976821 2.468073 -1.937774 -6.047026 1.09907 -0.270353 0.693487 -2.666472 -2.489497 2.504448 0.988962 -2.153648 2.367522 2.175026 -3.211602 1.014357 -2.876915 -1.131103 1.699026 -1.178042 1.609754 3.30639 0.725266 1.625898 -1.915972 -1.032869 -0.835038 3.315274 0.33723 2.814761 0.997815 -0.468833 1.64896 0.044301 -1.886379 -2.590702 2.82492 4.105122 1.844939 -0.394132 -0.547393 -0.163894 0.080286 -2.015937 0.709618 -0.054931 -1.697483 -0.730587 0.493908 1.30255 0.666287 -0.349368 -4.370136 3.070694 -2.175863 -0.45817 -1.077927 -0.185588 -1.289249 -1.28696 0.257781 -0.850819 -0.568668 -0.681923 -0.161247 0.823678 1.61877 0.847929 1.220214 -0.093847 0.38729 1.125317 -1.479555 0.774935 -0.573109 -1.574249 1.651955 2.605437 0.155044 -0.703777 -0.85617 0.053809 -1.760817 0.989974 -1.348048 0.446239 -0.126517 0.610938 -0.03379 -0.504768 -0.641538 0.677992 3.51304 0.421449 -0.198581 1.593952 0.829193 -2.758683 1.296549 1.050923 -3.159111 -1.58855 -2.345467 -0.746728 1.60879 3.897952 0.157768 0.968821 -0.139711 1.979033 0.332963 -0.097283 -0.958915 -0.989192 2.052563 -0.005352 -0.184708 -0.956082 1.773968 0.238996 -9.279927 -2.333551 -2.661305 -1.500079 -2.207703 -0.865971 0.956352 -0.20271 -0.427142 0.285887 1.429398 -3.581091 2.351384 -1.179376 1.431436 1.030118
giraffe -1.904136 0.509969 -2.643684 2.505623 -0.187495 1.067692 -0.998745 2.03776 -2.231656 -0.006102 0.449909 2.052167 0.83913 0.544777 -0.231802 0.420832 -2.195627 2.082765 0.417062 -1.736911 0.350732 1.97307 -0.936381 -1.489056 1.738738 0.732867 -0.832119 1.940822 -0.774681 2.25244 -1.156061 0.385874 1.837571 -1.480097 0.80008 -4.644652 2.4479 -0.366591 -1.269332 -1.508649 1.704313 -0.565909 1.594852 -1.675681 0.592896 -1.160921 -12.643706 2.024892 0.128792 -3.152406 0.554687 -1.396372 -0.407197 4.056285 1.442165 3.84747 2.012483 -0.796224 0.995984 -0.502684 -1.298618 -1.823306 -0.564034 -2.435337 -1.972016 -0.980849 2.497241 1.676618 -2.016769 3.371312 -1.171938 0.308735 2.034231 -0.29839 -0.382773 -3.338828 0.676827 -1.195852 -1.15182 -1.839472 -1.955137 0.714323 0.906123 -0.843496 -1.995778 2.901241 0.230115 -3.313086 -2.293189 0.559841 -1.615264 -0.055087 -0.847141 2.258136 0.798688 1.044118 -1.435158 -1.319482 1.337826 -2.475277 -1.539762 1.025431 1.849427 -1.485149 0.668045 0.21444 0.739873 0.963701 -0.282331 -0.550148 0.75941 -0.506834 2.514012 0.128887 -1.393033 0.988386 0.611653 -0.385266 0.214846 -0.37557 0.058077 -1.147212 -2.999354 -1.17823 3.184514 -0.792642 -1.070186 0.028288 0.489637 -0.720456 1.24 1.929462 -2.722295 -0.435036 -0.097428 3.590002 2.564249 1.929608 0.967495 -0.069622 -5.17675 -2.287458 -3.683553 -1.438909 4.706553 -1.588304 -1.813108 2.513684 -0.581883 -0.179464 -0.100394 2.051718 -1.562527 0.095892 1.387687 0.734712 -0.015648 -3.659489 2.403905 0.840633 -0.024042 -1.364855 1.343676 -1.765242 1.499568 1.231347 -0.186018 0.355303 0.563017 -0.266346 1.090702 1.251607 3.836651 -0.208582 2.113483 1.190417 -1.956938 2.269574 0.851237 3.785674 -0.770887 -0.372058 2.225552 2.018847 0.802741 -0.761957 1.020421 0.292772 2.135486 -0.305172 -0.140915 -0.043448 -0.548506 -0.332539 3.617799 -0.852503 -0.59767 -3.281937 1.910667 -3.023006 1.986911 1.135714 0.994484 0.219598 -0.641238 7.494435 -0.492302 -1.950537 -1.420576 3.764721 -0.759405 0.405429 -1.037963 0.277043 -1.279544 2.250554 -1.245549 0.39468 -1.793882 -0.02093 0.021291 0.921427 -0.98512 -1.185511 -1.657983 3.346436 0.333291 -0.821558 -0.257164 -3.382006 2.4436 -0.831021 -2.837301 2.348106 -2.989063 0.959638 1.510255 -2.645923 2.423567 1.48521 -1.185968 0.331738 5.350061 -1.580443 0.574255 -0.463334 4.20626 -0.869997 0.2688 -1.123393 1.467891 -1.764196 2.810044 -2.735103 -1.181253 0.971809 -1.455854 -1.453049 -0.05764 -1.716615 0.21588 -0.598207 2.433428 -2.401434 0.58167 -0.002145 -1.658193 -1.683354 0.101753 -0.75504 -2.151879 0.458242 1.20932 -3.432459 -0.991408 0.952597 1.26713 3.992975 1.869238 -3.789641 2.484464 0.169683 0.242889 1.42383 -0.161979 -0.423928 0.170814 -3.43163 1.357426 -0.444526 1.915117 0.77261 -0.085141 -0.399248 1.965864 -1.129909 -0.973946 2.869529 -2.316001 -6.11998 -1.897536 3.689503 -0.496548 0.424392 2.245162 -0.218559 0.97436 -1.992047 -29.850411 -0.398894 0.209017 -3.181605 -0.270905 -1.6152 -0.779636 1.199514 -0.937978 1.985656 -0.284748 -0.043411 1.369546 -2.856026 -1.228523 -1.822402 -0.776525 -1.332935 -0.826365 0.842485 1.046435 -0.435443 0.692157 -1.859964 -0.816504 1.538712 -3.422559 -1.300055 -1.172848 -1.521185 -2.646891 -0.434504 -0.032955 1.7645 -0.721255 -0.263707 -2.438409 -0.656279 5.826366 3.328704 -0.438487 1.941465 1.08863 2.27537 1.954227 1.595031 3.322339 0.918018 -0.021795 2.746336 1.418504 0.802732 3.027833 -1.233265 1.951108 1.862066 3.365226 0.33827 -0.176415 -2.321636 3.392587 -2.113808 1.451567 0.293403 1.177712 -0.597503 1.407873 -1.402853 0.458326 1.492974 -3.716172 1.002631 0.072789 -12.297158 0.21222 2.450338 -2.283452 -0.639261 0.941622 -1.714507 -3.138933 -0.036836 0.02268 -0.226323 -2.096655 3.487175 -1.278957 -1.837327 -2.236695 -0.283539 -0.165037 1.609572 -1.45095 -0.169151 -1.941277 0.71504 2.560772 -3.298128 0.738836 0.060787 -0.903051 -1.05983 -1.117457 -0.526721 -1.400705 -2.289571 -0.79414 0.351465 0.528579 0.900471 -0.667273 0.485947 1.377623 2.260108 2.443191 -2.102115 -1.424477 0.926362 3.001166 1.496573 -0.718796 0.958488 0.390475 -0.55055 2.080326 -1.784489 0.636991 -1.37217 -3.209802 0.068127 1.147148 -1.420117 -1.294308 -2.216242 -0.731427 -1.613221 -1.567731 1.851387 1.626846 1.579389 -0.064183 -0.89601 -0.880322 2.707641 -0.301727 3.001219 -2.497055 0.869325 2.679876 3.022994 -2.460775 0.255334 1.196235 -3.194589 -0.550095 -1.089172 -2.605309 -3.043809 1.203497 -2.010081 1.181407 -0.918833 -6.988301 -0.043373 -0.85288 -1.074459 3.456046 -1.53739 -1.095979 2.777491 0.66881 -0.621196 -0.930819 0.943371 -2.441425 0.123965 0.506863 -1.400184 -0.619956 1.253901 2.293264 1.526623 0.110656 2.141355 1.228316 -1.004021 -2.886961 1.745497 2.689209 1.208845 1.116386 0.145243 -0.114798 -0.014346 -2.223396 2.651921 -0.445771 1.853679 6.958789 0.570425 0.214242 -2.324128 1.340544 2.913938 -1.01942 0.71477 3.777327 -1.801565 -0.086965 -1.408259 1.455582 1.643483 0.940925 -2.242042 -0.090838 -1.731786 0.249865 3.199021 -2.536923 0.438886 -3.007888 -2.157039 0.514688 -3.335481 -0.586042 2.096102 0.434649 -1.195803 0.426172 -1.442724 -1.443794 0.910296 0.035804 1.277905 0.500653 3.331973 -0.983476 -1.637423 2.204616 -1.350166 3.877507 -3.394758 -0.636245 -1.749314 -2.308661 1.677949 -1.426654 -0.609261 0.792968 1.125512 -1.705369 0.161129 -0.065094 -2.297071 1.25055 -1.290121 -1.117284 -2.818222 -0.244914 0.314819 -2.444991 3.754918 -0.701247 -0.512584 0.692312 -1.600774 0.210806 1.545716 2.492678 0.8509 -0.175977 0.812172 3.89853 0.505249 -2.04997 -1.618808 0.080597 -1.137922 0.322875 2.347283 -0.65382 -0.614386 -0.269521 1.674575 0.014083 0.503558 -0.191389 -1.538038 -1.794182 -0.424131 3.143373 -0.157611 -1.250324 -0.113093 1.618857 3.61537 -0.882836 -2.039894 -2.349553 2.128589 -2.933135 2.687316 1.055797 -1.246617 1.539213 -1.653625 -1.841216 0.613349 -0.517245 -1.656474 0.3293 -0.354541 -1.255728 1.164578 0.361668 0.327109 -0.814134 -0.097504 -1.346242 2.028625 0.662853 -2.323715 6.013606 -0.120826 1.223038 3.132854 -1.934001 -2.61638 1.297631 3.347457 0.879504 -1.414677 -2.312505 -1.306424 -0.625335 -0.970776 -1.283365 -0.431156 -4.510771 3.501168 0.320343 1.154482 -0.425179 -2.194678 1.55097 0.335719 -1.1216 -2.407218 -0.779008 -0.892068 1.33285 1.310173 -0.795067 -0.043945 1.171351 -0.619191 3.525423 -0.258663 -0.676212 -2.558061 0.085789 4.589796 1.382489 -0.582403 1.244115 1.440783 -1.797151 -1.090611 -0.987803 -1.525526 0.508259 -0.503024 -0.43938 0.959985 2.348487 -0.825983 -4.20233 -0.429095 -0.567364 2.897279 -1.918597 -2.130089 -2.743209 -2.787336 1.692277 1.999766 0.383491 -2.0979 0.179099 0.63431 0.147381 0.758044 0.81564 1.085007 -0.974026 -0.040613 -1.630671 -1.883221 -2.720222 -2.179901 1.537939 -0.472792 -1.215408 -0.806378 0.389457 0.022867 -1.867376 3.439523 -3.388888 2.879378 2.017638 1.892286 0.622323 -0.916731 -1.04529 1.638143 0.755695 1.608174 -3.027104 0.315874 -0.477039 -2.970121 2.650719 0.803701 -2.605065 -0.736314 -1.984073 -0.321423 -1.663542 -0.049105 -0.935003 2.755478 -1.373074 0.059992 0.604596 -0.455767 1.608164 0.503204 0.113093 -1.028773 -0.881982 0.075082 0.837267 1.5072 -7.464706 -3.235536 0.037216 2.142787 -1.45493 -2.558958 0.354821 -0.434612 -2.617781 0.919612 1.004978 -1.07886 0.289656 -1.044434 -0.237518 0.893015
chair -4.700806 -0.312674 -2.525148 -0.674044 0.259041 -1.398233 -1.163091 1.312996 0.757679 -1.655447 -1.343532 1.298242 0.774796 0.393054 -1.041812 0.910149 -2.642763 2.775351 -0.66316 -3.126019 -1.23299 0.460995 -0.185327 -0.173902 1.244777 -0.6325 -1.310254 0.427834 -0.17044 1.374114 -0.547678 0.826568 -1.757586 -1.203323 1.268985 -0.1734 -0.02116 -0.065256 -2.812282 1.082597 0.828691 1.42606 1.021877 -1.662881 -1.281917 -2.091823 -13.766998 1.792803 -0.218764 -2.861172 -0.561941 -0.706183 -0.407929 1.841625 2.118191 1.801437 1.323749 -1.890214 -0.103571 0.245967 -0.420579 -0.058628 -1.468896 2.281967 -1.313376 0.021922 1.876692 1.124657 -3.132283 2.962079 -4.995426 1.099394 0.975997 0.693798 -1.672676 -0.982662 1.624153 0.492812 -1.367175 0.307456 -2.087553 0.968692 0.422614 -0.066128 -0.328534 0.820339 -1.535982 -4.361592 -2.125554 1.66595 -2.422107 0.611441 -0.823821 2.436077 3.010024 -0.040543 1.385364 -0.611363 0.3851 -1.795252 -0.879964 1.698266 1.966308 -1.29869 0.082401 0.006243 -1.805586 -1.09698 -2.554017 -2.770436 -0.00278 -0.065048 0.420958 0.570326 -3.349858 0.981144 0.205724 1.644547 0.380792 0.610728 0.235057 1.420066 -1.318973 -0.256473 0.83099 0.701734 1.066654 0.768208 1.839486 1.136737 0.865203 1.533889 0.118223 0.697698 -1.907959 1.377528 3.710593 -0.345977 1.226156 1.216731 -3.754377 -3.838891 -5.241864 -0.090743 4.255536 -0.360097 -1.396764 0.312647 -1.087834 -0.843909 0.668888 1.46971 -0.265179 0.838645 -0.426098 1.130023 -2.272765 -0.81399 0.824311 0.154457 0.730919 0.171841 0.54414 -0.639198 0.363085 -1.502458 -0.842277 3.192128 1.771857 0.024014 -1.963161 0.634079 3.445436 0.005853 0.941785 1.354091 -0.762863 -0.004068 -0.483346 0.854118 -0.374705 2.607652 0.947725 0.928989 1.106836 0.19202 2.729138 -2.026049 1.820269 0.895803 -1.234004 0.65604 -1.81175 0.563308 0.978367 -0.070941 1.565459 -0.880938 1.826581 0.572826 2.589869 1.287011 -0.657572 -0.309086 -0.023455 10.308358 -0.214437 -3.256771 0.31234 0.615728 -0.092391 1.5079 -2.01883 1.46092 1.074176 -0.205278 3.442272 1.381666 -0.522437 -0.095701 1.875421 0.075492 -0.193079 3.716153 -4.080718 2.414694 -1.539676 0.230437 -1.246034 -5.17002 2.146922 -0.326493 -1.312411 2.300016 -3.001758 2.059286 0.305104 -0.046628 2.505861 -0.315042 -0.936878 -0.958449 3.78413 -0.694566 1.617704 2.517104 2.646605 0.45821 0.587382 -0.261856 3.053952 -3.049001 3.460339 -3.288937 -1.762106 -0.173281 1.113399 -1.916837 -1.528373 -0.370786 -0.259968 -0.12517 1.447 -1.532219 -3.398047 -0.261617 2.251161 -2.699666 2.373557 -1.771922 -1.8599 -0.430755 -0.002724 -5.023784 0.200127 0.254771 1.225987 3.246833 -0.326712 -3.713554 1.450624 -1.004272 -0.011687 2.234344 0.731349 0.912575 1.091744 -3.127434 0.882798 -1.935221 0.568425 -0.248616 1.555957 -2.380912 1.227722 -0.832665 0.90707 0.386741 -0.378561 -2.775745 0.326657 2.339314 -1.201766 -0.981821 0.438979 0.810659 0.275774 -1.007561 -25.783525 1.220559 -1.609688 -1.740408 0.417713 -0.26224 0.585384 0.469285 -4.197123 0.88773 0.58462 -1.126147 -0.834127 -0.829765 -1.448202 -1.431254 0.046775 -0.139044 1.332388 -1.334476 2.205488 1.623157 0.840421 0.283738 2.12092 0.890765 -1.672263 -1.40268 -0.059734 -2.646208 -1.808255 -1.073357 0.577609 -0.034816 -0.266372 -1.078307 0.901482 -0.320219 3.992381 1.485272 -0.133848 2.607596 0.868808 2.482745 3.031889 -0.530373 0.943009 0.38847 -1.136057 3.954074 2.019388 2.045528 4.713621 -1.466326 1.403246 0.237524 2.947847 1.867494 -0.315511 -3.047992 2.95725 -2.610791 2.841337 1.620959 0.052461 -1.821245 0.611517 -0.574043 1.575465 -1.914339 0.775183 0.539394 1.07447 -10.879776 -1.019976 0.452405 -3.531064 0.560651 1.300075 -2.760196 -0.983135 -0.061589 0.370394 1.032287 -2.607462 2.471545 1.348143 -0.180938 -2.982308 1.804613 -1.195469 0.443557 -0.791734 0.230398 -2.188659 0.805746 2.110715 -1.913714 -0.215234 0.744672 -3.582359 -1.221742 -3.969129 1.288364 -2.517282 -1.705771 -3.006761 -0.412983 -2.763979 1.321023 2.087753 1.848433 2.531506 -0.002497 2.311903 0.572081 -0.257174 0.706187 0.849501 1.737623 0.934401 -0.402895 3.916759 1.640271 0.309356 0.991218 -0.497537 -4.166875 -4.041308 -1.340976 1.848792 0.031062 0.363636 -2.239961 -2.315703 -1.701508 -2.637071 1.723609 -0.590001 3.372922 1.547628 -1.314703 -1.544383 0.5878 0.294247 3.173539 -1.733387 0.117219 1.284514 5.055257 -1.17872 -3.773044 -0.21902 0.456642 0.133055 -0.022615 1.331876 -2.658689 -0.200815 -1.327241 -1.626547 -1.566799 -10.012593 1.554104 0.781106 -1.938225 1.257586 -0.862247 -1.059554 1.764884 0.894855 -0.593722 -2.154803 1.992986 -0.756564 -1.416192 1.02283 -0.042995 0.847916 -0.769966 0.161752 1.722891 0.013982 2.041178 0.458215 -1.827755 -4.034576 -0.705659 0.424601 2.161256 -0.087069 -1.436014 1.053645 -1.590591 -1.81426 1.199341 0.824347 0.554523 2.451757 0.16832 -0.505372 -0.795559 0.724619 2.251063 -2.684815 0.30187 2.876226 -0.672586 0.359344 0.375271 2.366714 -0.624024 -0.511905 -2.889375 -4.026947 -3.200448 1.00889 2.224937 -0.814537 1.206933 -4.441832 -2.982015 0.69992 -2.052736 0.102709 -0.850863 1.096573 -1.805884 0.383035 -3.388792 -2.40817 0.062928 1.706589 -0.298197 2.317908 2.682529 -1.198484 3.096936 1.253901 -1.481302 0.25282 -2.872952 -0.901637 -2.629331 -3.541641 1.131619 -1.542685 0.180782 2.131458 2.235301 -1.624758 -0.417556 -3.098223 -0.57539 3.376354 -0.36442 -0.444909 -1.601031 1.27629 -0.515659 -2.556298 2.24924 -0.455706 0.165722 1.371243 -0.033998 1.56856 2.166023 2.765495 -0.717799 0.043657 1.156951 -0.814453 -0.774705 -1.029566 -1.243313 -0.766608 0.495109 1.015988 0.507709 1.496256 2.369613 1.147522 0.251833 -1.570513 -0.451597 -0.514126 -1.85571 -2.597614 -0.642897 0.712057 0.905311 -2.405208 -0.19042 -0.350821 0.526023 -1.820772 -0.804809 -2.893834 1.95596 -2.099231 3.072099 -0.865544 1.049215 0.075399 0.838074 -2.589318 0.600451 0.514846 -3.334402 1.485746 -1.373581 0.271947 -1.442538 -1.412333 -0.132955 -1.223078 -0.533344 -1.285092 1.666572 -0.436654 -0.916068 6.428388 0.762108 0.318866 0.352716 -0.655592 -2.936513 0.971352 0.4105 0.08298 -2.025551 -2.186106 0.095302 -0.993486 -1.231515 1.727804 1.743035 -4.169454 2.202372 -2.242148 1.041536 -0.674852 -0.777024 0.405386 4.14485 -1.599266 -0.779364 -1.516986 -1.350215 -0.420002 1.528627 0.650783 1.473643 1.809091 -1.054904 3.74426 -1.417855 -2.058485 -2.976399 -0.881124 2.527655 1.393935 0.778152 0.248858 -0.362338 -0.738952 -2.117826 1.107325 -0.386314 1.069102 0.114659 1.861722 0.430764 1.565102 0.795166 -3.413404 1.75454 -0.942893 1.134495 -0.57405 -0.466652 -1.615194 -1.926334 0.704413 1.028673 -0.393146 0.008928 0.387996 1.722628 2.355728 0.844606 2.39615 0.648305 -0.854985 1.123853 -0.539766 0.608751 0.989764 -2.765722 1.876361 2.641637 -1.35945 -1.320278 -0.445047 1.243368 -1.263286 1.588272 -1.037107 -0.217751 0.044352 -0.884316 0.662789 2.041218 -2.156514 1.37662 1.090057 0.008178 0.448591 0.084697 0.676635 -1.270752 0.405454 3.289018 -3.856274 -1.297293 -1.788465 -0.758324 2.062205 1.775315 -0.304902 2.589447 -0.998415 0.721109 -0.629369 1.823998 -0.394287 0.921677 0.680048 1.622429 -2.161515 -0.109644 -0.39837 0.771282 -9.862056 -0.507266 -2.122223 -0.988015 0.652379 -1.570736 0.142226 1.197274 -0.347105 -0.54106 1.426019 -2.489252 1.237255 -1.150878 -0.106638 2.488281
river -4.201004 -1.797484 -1.96577 -0.698423 1.423471 1.275416 1.762808 1.184224 -0.333348 -2.63847 0.644812 0.884513 0.287996 1.878398 -0.226593 0.661013 -2.409516 1.900376 0.701532 -3.23555 -0.15951 -1.078241 -0.851327 2.317373 0.794451 -0.994915 -1.086451 1.982958 -0.39599 -0.155241 0.323718 2.428796 -1.826994 -1.260515 2.273065 0.504845 -0.145998 -0.66242 -1.431366 2.540411 1.316251 0.060919 -0.637875 -2.010503 1.770272 0.703616 -13.891473 2.431315 -1.73907 -2.33996 1.107791 1.290808 -0.574413 1.290216 2.895704 1.294641 0.569598 -0.749015 0.66147 -0.251272 1.192136 -1.755923 -1.576095 1.102024 -1.597384 -0.060455 2.667545 1.135709 -1.579934 2.656663 -0.718297 -0.628172 0.158639 1.147424 -0.869558 -0.718855 0.126105 0.128403 -2.580768 -1.002236 1.606575 2.737465 1.272332 1.040876 -0.740656 1.209032 0.115623 -4.649229 -2.057949 0.908672 -2.711476 -0.488126 -0.340265 0.208507 2.566949 -0.278514 -0.764741 -0.321662 0.972938 -0.470287 -0.884271 0.798992 -0.001813 -0.342619 -0.20043 -0.142063 0.05548 -1.530372 -0.039561 -3.569991 -1.007536 1.306469 0.444132 -0.066268 -1.860776 2.49687 1.370126 0.311057 1.123462 -2.547859 0.406971 1.051566 0.969226 -1.064517 2.387576 1.500634 0.530004 -0.970018 0.085488 2.525828 1.347365 2.769446 -1.644022 -0.461477 0.345932 -0.062104 1.364471 0.414822 -2.257883 -0.06012 -3.732394 -1.162693 -7.108283 -0.040895 3.145075 1.472334 -2.606071 -0.163262 0.335987 -0.008802 -0.006068 1.577024 -1.094866 2.807341 -1.255128 0.828589 -0.91842 -2.370774 3.143051 1.188255 -0.060957 0.924734 2.245219 -2.369364 0.137149 -2.635696 -0.816814 1.83348 0.356549 -1.22501 -1.181041 0.179977 2.221142 -1.009167 2.04813 -1.852145 -0.780352 -1.11146 -0.367323 0.39692 0.073882 2.479976 0.583717 2.343472 0.290802 -0.440098 1.283785 -0.848921 0.596625 0.749258 2.025212 1.106851 -0.801365 0.432023 1.726196 -1.004152 0.545833 -2.217546 2.594902 -2.238541 -0.171483 -0.993867 0.538248 -2.317043 -0.427909 9.940296 -1.474817 -4.070612 1.033786 -0.325062 -1.422155 0.689576 -3.074527 -1.44785 0.345704 1.290346 2.905654 -1.563052 0.916748 -1.094143 2.098561 1.336854 1.773189 0.930225 -1.528839 2.108399 1.038552 -0.403562 -1.229037 -5.658871 0.615758 0.142658 -2.205862 1.065727 -2.076448 0.421528 0.982169 0.58408 2.224991 0.062798 -0.906515 -0.475333 3.444861 1.153898 2.743413 3.077317 3.006382 -0.75802 -0.642441 -0.993849 1.682496 -1.021353 1.718131 -2.576428 -0.432537 -1.017684 0.422629 -1.680798 -2.622718 0.129974 -2.161767 -0.392589 -0.128827 0.191301 -1.231769 0.056791 0.918061 -3.744107 0.377499 -2.608353 -2.894086 3.062049 -0.608813 -7.32864 0.586906 0.783907 1.291021 2.7039 0.621914 -1.681016 2.773165 -0.599523 -1.865878 0.413596 1.80904 0.420209 -0.690032 -1.994868 1.837974 0.059507 0.77622 0.014842 -0.749488 -0.862736 1.63205 -2.53879 2.002574 0.281916 -0.841225 -2.072308 0.626496 1.660005 0.562269 0.021625 0.290608 -0.340687 1.333402 -1.572154 -32.092548 0.757662 0.631669 -1.230782 0.254968 -1.318505 -0.085448 -0.824797 -1.60057 0.750762 -1.053513 -1.449982 -0.403468 -2.781246 0.035021 -1.569697 -0.393447 1.117969 -0.936353 -2.651832 1.483728 0.547701 -0.69256 0.120428 -1.616893 0.401009 -1.958808 -0.12556 -1.855127 -1.022673 -2.85311 -0.784487 -0.953906 -0.682874 -0.611521 -1.22492 -1.682079 0.97937 5.169788 3.160788 -1.374903 3.598924 0.623805 1.480182 1.78717 0.987798 0.686266 0.544935 0.73309 2.253407 2.525925 1.775914 5.306541 -2.877367 1.544521 0.058545 2.040012 0.523846 0.781923 -1.193815 1.90034 0.82854 1.973564 2.674171 1.660352 -2.104266 1.744347 -1.724311 0.828106 -1.586856 -0.458902 0.311205 -0.59447 -10.777929 -1.187517 1.371595 -4.44582 0.255303 1.929991 -3.280084 -2.520535 0.381051 2.594255 0.82432 -1.511672 0.904638 -0.665675 -0.426208 -1.932017 0.667037 0.015001 -0.351482 0.125895 2.766953 -2.029771 1.016347 0.473064 -1.066408 0.300474 1.947822 -0.268231 -2.720269 -2.891423 -0.208683 -0.48428 -2.749224 -0.09238 0.650458 -2.235067 0.329389 1.71767 0.900634 0.770776 -0.301037 2.66035 2.493444 -1.743641 -0.622777 1.730574 1.783992 -1.102312 0.256024 1.781917 0.594915 2.11492 -0.439656 -1.041708 -1.304469 -4.142559 0.999627 3.438471 -1.35055 0.391564 -2.888647 -2.581028 -1.630775 -1.951638 1.780817 0.758832 2.914719 0.401255 1.162119 -0.812372 2.657082 -2.040201 2.15976 -2.548248 -0.719913 0.635725 3.813152 -0.882847 -3.801354 1.142198 1.344489 -0.234336 0.51082 1.806782 -2.120597 -0.85078 0.372314 -0.509715 -1.586536 -9.659771 2.056543 -0.448632 -1.05768 0.498555 1.661749 -0.329662 2.17012 -0.427563 0.559439 -1.087348 0.296628 -3.19989 -0.24072 1.603103 0.793977 0.985724 -0.228366 -0.640346 1.128742 -0.720906 4.088562 -1.504978 -2.891727 -2.616549 -0.719409 0.492125 1.901294 -1.034983 0.115588 1.827582 -1.224707 -3.306659 2.080572 0.925511 3.122023 2.746767 0.230132 0.387453 -2.469988 -0.171888 3.749508 -2.616593 -0.721227 4.058991 0.311733 0.166565 -0.670671 3.002988 -0.128277 1.014727 -0.789516 -1.654407 -1.099875 0.718136 2.703948 -1.58373 1.129522 -2.205939 -1.672201 0.204693 -2.0269 0.500613 3.141397 -1.103998 -1.86775 -1.298898 -0.753473 -1.873861 0.896045 1.837843 0.560266 1.508566 2.709091 -0.608125 2.09815 1.724994 0.47111 1.630634 -2.32013 -2.091389 -2.658081 -2.46154 1.676757 -1.090618 -2.804703 1.259666 1.289593 0.388502 0.677773 -1.792501 -0.917749 2.315606 -0.705802 0.551316 -0.082343 0.983697 -1.421859 -1.980832 -0.031523 -0.996008 0.978212 2.686318 -1.570863 0.10023 2.147853 1.891755 -0.399051 1.340644 0.035017 0.768277 -0.528497 -1.605758 0.074792 -1.116418 0.813464 -0.16124 1.185569 0.410218 1.168943 0.225968 -0.497177 -1.108426 2.265239 -1.988192 0.025703 1.138124 1.201647 0.668461 -0.271287 -4.46672 -1.492954 -2.263844 -0.237348 -0.449813 -0.17226 -0.934443 1.630339 -2.609829 1.732914 0.395748 -1.611965 0.468541 0.000289 -2.051242 -1.587755 -0.533819 -2.615636 1.120722 1.007935 -0.41002 0.444655 0.29971 1.929272 -0.281839 0.227788 0.960915 0.675193 0.970266 -0.476345 5.25552 0.607454 0.047828 2.590798 -1.106177 -3.488925 -0.52832 1.709862 -0.494493 -3.371142 -2.083996 0.355901 0.144117 -2.152218 0.377104 0.49303 -3.154558 1.071874 -1.588721 0.724817 -0.378722 0.063332 3.580114 0.518241 0.52349 -0.01149 -2.199003 -1.162 0.076104 0.634027 0.4715 1.030737 2.04903 -0.977481 3.74195 -2.74946 -0.043327 -4.458781 -0.565469 3.096104 2.32108 1.72053 0.709853 -1.464765 0.030756 -1.703187 -0.379447 -1.499027 0.547371 -0.440305 0.353292 1.242544 1.423682 -0.195568 -5.980024 0.975959 -1.765613 -0.825758 -0.764189 0.662885 -1.99298 -2.165688 -0.305685 0.596269 0.121371 0.51737 -1.719726 0.140249 0.050432 1.60285 1.565379 -0.805689 0.06029 1.341513 -1.8527 1.352931 -0.207089 -1.680897 1.24705 -0.75553 -0.39556 0.427971 -1.803465 1.058407 -3.455949 1.169017 -1.768838 2.339147 2.912319 0.240112 0.591683 2.195325 -1.73906 0.684697 2.296155 0.649623 0.648747 0.165973 -0.865376 -2.638122 0.702325 1.675901 -2.788404 -2.365676 -2.108396 -1.046457 0.22749 1.934178 -0.605783 1.612214 0.405678 1.773971 0.029536 -1.430667 0.070906 1.204067 1.007706 -0.253653 -1.742502 0.88034 2.181051 1.732871 -9.828764 -3.242733 0.206357 -1.454037 -1.216814 0.037204 -0.624419 0.261835 1.000424 -0.32545 1.679641 -3.078589 3.220835 -1.807819 -0.577775 3.331753
nail -5.829728 0.797476 -3.104061 -1.751358 1.459 -1.232579 -0.297417 1.081049 0.064539 -1.830261 -0.27247 0.513603 0.627517 -0.288809 0.625157 0.937769 -2.869918 2.207561 0.304665 -3.321983 -1.97189 -0.031895 -2.295161 1.433632 1.054441 -0.876463 0.243022 2.529362 -1.575482 2.002508 -0.591792 1.293342 -2.430112 1.415286 -2.522529 1.398486 -0.343186 1.029766 -0.946874 1.103932 -0.37832 -0.190857 0.925615 -0.478668 -2.185139 -1.75743 -12.965853 1.753982 -0.748743 -3.97574 -2.954347 0.192478 1.038522 2.37103 2.212365 0.001413 0.464161 -1.576331 -1.380016 -0.484085 -0.40273 -0.422337 0.12622 1.683183 -0.555958 0.487563 2.055928 1.243851 -0.839808 1.573981 -3.120962 0.460965 1.735624 1.823293 -0.888289 0.46943 1.63407 0.362145 -1.334068 -0.521807 -1.345559 -1.702125 0.207911 0.685461 -0.183661 0.978243 0.199935 -4.401903 -2.445436 1.232853 -0.727106 0.122893 1.886804 1.383794 2.350019 -1.942937 -0.186522 -1.054367 -0.324795 -1.855525 -2.21952 0.981265 2.569629 -1.418327 -2.003923 0.589866 -2.293513 -1.438565 -1.749535 -4.317787 1.388504 1.809424 0.972448 -1.076688 -1.422501 1.799708 0.372002 1.290955 1.487592 -1.693115 -0.561185 1.325705 -0.042269 -1.041497 1.298948 3.049594 0.705872 0.474367 -0.854914 -0.111975 -0.452742 3.309661 -0.079887 0.830087 0.093404 0.070895 0.221614 -0.232634 -0.05509 -0.740653 -1.324401 -1.533766 -6.475385 -0.524782 2.060009 -2.736537 -0.799268 0.729195 -0.256891 -0.694594 0.567624 0.787858 0.141022 0.712172 0.96883 -0.328427 -0.396823 -1.388719 1.240594 -1.075645 -0.640794 0.687144 0.791631 -1.109456 -0.333153 -2.149113 0.285405 3.30767 1.800756 -0.271305 -2.055773 0.900406 2.01112 -0.129448 -0.613981 1.330927 2.793838 -0.38481 0.053945 0.505126 -0.405671 1.158242 -0.799478 -1.071343 -0.125768 0.534132 3.151225 -4.289242 0.6104 2.053531 -0.464624 1.89329 1.613376 -0.678366 1.489812 -0.542221 -0.16748 -1.435038 3.158323 0.970162 0.08146 0.622574 0.365068 -2.271877 1.69692 11.70757 -0.716529 -1.719903 0.371604 1.116922 -1.472252 4.176464 -0.66836 -1.692814 -1.143699 -0.382768 2.412161 0.7863 0.839723 0.276292 1.788795 -0.23794 1.77804 3.526574 -2.066699 0.705147 0.016089 -0.963999 -2.354428 -6.192168 -1.211669 -0.998641 -0.422895 2.819646 -2.943516 2.482908 -0.674467 -0.186624 1.522042 -0.025748 -0.090941 -0.109153 2.607702 0.564566 -0.995413 1.202622 3.833146 0.294851 -0.079959 0.119283 1.925824 -1.529861 0.715244 -3.554251 -1.790994 -2.540266 0.773658 -2.035632 -2.659964 -0.316479 -1.294352 -2.169583 1.089149 -1.11926 -0.530213 -0.078814 1.856077 -1.530175 1.385266 -1.976783 -5.383643 0.953824 -1.137876 -6.390136 1.436169 -0.08624 3.921716 3.802937 0.354126 0.338421 2.130599 -3.747026 -0.419904 0.990785 2.388795 -1.618136 -0.359071 -4.065529 2.255802 -2.035767 1.44899 -0.055451 -0.284741 -0.433132 2.576971 -0.627789 -1.330996 1.212525 -2.10683 -0.278171 1.353156 2.753833 -2.343265 0.359061 -0.884435 2.202331 -0.944914 -0.817531 -28.501066 0.469152 -0.777247 -3.537746 0.853917 0.560152 1.57105 0.150276 -1.772052 0.888057 2.371877 -0.458699 -1.622208 -1.031384 -1.088758 -2.406284 -1.742033 1.2283 0.292926 1.14191 0.652733 -0.485378 -0.411345 -1.391717 -0.823173 0.250468 -1.485797 -0.128426 -2.009015 1.117283 -1.964076 -1.725356 -0.340166 0.672687 -1.152538 -1.467038 3.144408 1.092571 5.776111 1.342722 -0.662848 2.160761 0.012671 2.437651 2.31901 -0.140306 0.63809 -1.354648 -1.249786 1.926501 0.260927 2.090976 6.976082 -1.92709 2.874595 -1.951959 1.371792 0.8598 0.51225 -2.985759 3.377246 -0.200922 3.787242 2.802744 -1.42782 -1.701203 -0.223433 -1.566962 1.296517 -0.951269 0.915139 0.164107 0.688512 -10.193989 -1.391773 1.637946 -2.26023 0.157102 2.683251 -1.723314 -0.772071 -0.586913 2.032732 0.560977 -0.278201 1.985838 1.797246 -1.138179 0.116433 1.285372 -4.319293 1.618245 -0.883586 -1.272058 0.690124 -0.069267 2.707585 -3.216107 0.189942 0.872533 -2.750359 -1.409325 -3.305666 0.497445 -1.545863 -0.297309 -1.306707 0.49651 -0.943207 -0.209999 2.933518 1.576711 3.099523 -0.105253 2.324503 1.025986 -1.631627 -1.895806 -1.515043 0.830761 -1.91033 0.303141 0.387115 1.197191 0.938499 -0.940424 0.046317 -3.228114 -4.211289 1.066281 1.862168 -1.678407 1.340913 -0.591389 -2.473121 -1.436924 -1.51393 1.273035 -2.211768 3.858839 1.054028 1.488314 -0.743074 1.826739 2.178053 1.394683 -1.616875 -1.672261 0.368528 1.013979 -0.069163 -2.735669 2.478503 1.511357 1.054012 0.170756 1.608228 -4.514399 0.753684 0.542955 -1.186451 -1.299423 -9.393884 4.034618 -0.879581 -1.222013 1.152187 1.593635 -2.738932 2.316874 0.481643 -0.140306 -0.548543 0.392108 -0.831164 0.434996 -0.582214 -0.528648 2.705603 0.855225 1.23013 1.443449 0.54498 1.294576 0.982487 -1.697354 -2.307277 -1.452059 -1.854887 2.408411 -3.28654 -1.334314 1.569414 -2.533721 -2.36164 0.416511 1.70008 2.425051 1.36652 2.397545 0.4038 -1.719805 -1.620511 1.07424 -1.241855 -0.127748 4.151592 0.016102 1.062615 -0.994795 4.598063 0.384918 -0.704898 -1.486893 -3.056954 -2.051997 0.185487 1.400946 0.539855 -0.759121 -1.413206 -1.111652 -0.309476 0.971428 2.671316 1.660829 -0.253346 -2.267545 1.445309 -0.113766 -0.159101 0.096088 1.649765 -1.860133 1.38673 -0.467958 -1.752439 0.954241 -0.880569 -1.246242 0.766996 -5.401773 -1.735905 -2.06602 -2.563958 -1.145129 -0.970002 1.330795 2.559107 4.207858 -0.189086 -0.783958 -1.10208 -0.059861 1.987196 -2.83828 -0.356419 -0.054453 -0.53126 -1.578539 -2.406417 2.664726 -0.457132 0.361081 1.97521 0.795843 1.107294 1.469653 3.54623 0.642959 0.330597 0.137634 -0.766696 2.755728 -1.384898 -1.17205 0.06216 2.509326 0.861897 1.245925 3.113071 1.783967 0.105741 0.116972 -1.937323 -0.193253 1.498119 -2.890765 0.496073 0.455643 -1.477249 0.471188 -2.617225 0.531384 1.401807 1.47241 -1.519519 -0.667909 -0.738069 2.275982 -0.085634 1.184194 0.337539 0.208102 -0.744546 1.013135 -1.691229 0.749932 -1.097741 -0.014375 -1.387425 -2.25167 -0.748384 -1.519181 -0.366084 0.21007 -1.071143 -1.319594 0.889102 0.317069 0.444622 1.797394 4.641236 1.486945 2.850529 0.923578 -0.548915 -1.829882 -0.992994 1.337548 0.939282 -2.322411 -1.17836 1.47128 0.473018 -0.447446 3.384694 2.197536 -3.678804 2.89555 -1.749344 -0.411023 0.997312 -0.15712 1.19203 3.398166 0.65529 -1.648962 -1.423358 0.551254 1.288978 -0.676473 -3.283021 0.652534 0.435713 -0.42562 1.078258 -1.066147 -1.045041 -4.75958 -0.448448 2.887255 2.2194 0.885336 -0.610004 0.417182 -0.723189 -1.969178 -0.673596 -0.296701 0.931393 -0.121293 1.659005 1.328134 0.144478 -1.127699 -4.340779 1.001554 -2.040284 -1.824858 -1.72786 -1.999243 -0.16149 -0.287807 2.069435 -1.390554 -0.952164 -0.557958 0.970423 0.340858 1.57084 1.215073 1.12634 -0.677319 -0.143554 -0.102403 0.912016 1.012845 -0.056208 -1.205826 0.126885 1.009701 -1.708921 -1.120284 -1.076266 2.530687 -2.959769 1.262663 -0.394415 -0.510048 0.575921 0.373844 0.430172 2.171635 0.073036 -0.13264 -0.023147 -0.593629 0.752143 1.965173 0.011721 -0.885704 0.151732 0.271974 -3.71905 -2.390975 -1.857905 0.789146 1.672711 3.106286 1.419469 1.503311 -0.474471 1.597595 1.632658 0.938768 -3.114501 -1.685413 0.316119 -0.291388 -0.674852 0.890041 -0.481227 -0.374768 -10.41779 -0.934632 -0.803331 0.047607 -1.33114 -0.389061 0.259164 -0.121244 -0.312764 -0.500849 -0.149294 -0.696388 1.901786 -0.842638 0.442462 0.256532
girl -4.074848 -0.53975 -2.711936 -1.576008 0.031846 -0.707353 1.136479 1.730221 1.297741 -0.870398 -0.296165 1.475071 0.281618 0.262735 -0.326339 -0.055489 -1.003728 3.363836 -0.954266 -1.421085 -1.469474 -0.314622 -1.491264 -0.116813 1.180736 -0.53329 0.078495 1.787942 -1.816137 0.334978 0.593095 0.483247 -1.150033 0.986354 -0.701663 0.676371 0.58999 -0.537235 -1.294967 1.383975 -1.064536 -1.033211 -0.08685 -1.719857 -1.566427 -1.743138 -13.579795 0.441086 -0.065854 -3.232633 -0.008937 -1.690355 -0.016856 2.182115 3.335041 0.931376 1.216808 -0.320188 -0.523054 -1.057739 1.287029 1.260342 -1.125272 0.501872 -1.683908 0.761586 2.805719 0.84394 -3.179069 3.13613 -3.708235 -1.970722 2.282058 1.008378 -1.823741 -0.993826 1.447874 0.223657 -1.518096 -2.118072 -0.774664 0.886545 0.874754 0.969929 -1.116471 0.222217 1.442503 -5.191772 -1.438101 2.365206 -1.384151 0.759726 0.512883 1.30094 0.798032 0.776955 -1.620282 -1.562266 0.95571 -2.273698 -2.327098 0.385941 1.664125 -1.718768 -1.181022 -0.327018 -1.627429 -0.776616 -2.636178 -2.901574 0.585811 0.665985 1.015809 -2.413928 -2.169936 2.117412 -0.339794 1.610482 0.300202 -0.116363 -0.698998 0.879685 -0.2857 -0.921804 1.69313 1.577461 1.382704 0.359623 2.192019 0.393989 0.188365 1.555637 0.155667 -0.228082 -1.003134 0.89648 2.411634 -0.004238 -1.64541 -0.269111 -4.785069 -1.296813 -7.189603 0.850894 3.020626 -0.549373 -1.759495 1.028158 -0.083234 1.117706 -0.39249 -0.19236 0.830079 0.460552 -2.157108 -0.687441 -1.340573 -1.823847 2.455036 0.663023 -0.400123 0.840178 0.720663 -1.341797 0.098785 -1.697359 0.337386 2.961912 1.607672 -1.003487 -0.030815 -1.294637 3.440961 1.107871 2.048256 0.696207 0.552102 0.227351 -1.772562 0.935725 -0.989693 2.626072 0.992772 1.745282 1.587426 -1.765828 0.928517 -1.17189 -0.494874 1.092257 -1.254968 1.496989 -0.475804 -1.016908 -0.654027 -0.158279 2.242683 -0.741342 1.436993 -0.225167 -1.591316 -0.113066 -0.389607 -0.767811 -0.004678 11.775228 -0.410613 -0.858066 0.688215 0.487591 -1.892799 4.014435 -1.005924 0.201499 -0.367603 1.857768 2.526403 0.971605 0.795385 -1.060974 1.729301 0.152942 -0.400989 1.628666 -2.592207 1.483693 -0.700661 -0.293268 -0.711237 -4.724126 2.048785 0.491747 -2.783131 1.514171 -3.396836 0.210144 0.200577 0.13868 1.606602 1.263235 -2.596953 2.153269 4.007881 0.184079 0.434495 2.585669 3.841232 -1.076303 1.471086 0.936963 1.46801 -1.643616 0.039795 -3.2086 -1.05948 -1.89543 -0.593147 -2.294344 0.855549 -0.559624 -0.987031 -0.509057 0.221759 -0.993692 -1.652057 -0.76931 1.539918 -2.258602 0.500767 -3.010146 -2.106916 1.728734 1.203245 -5.431465 0.503917 -0.798658 2.383177 3.773563 0.605239 -2.001393 1.256901 -0.796886 -1.411179 1.181972 1.933102 1.052262 0.064882 -2.428039 1.34575 -1.994744 0.411972 -1.369894 0.161205 -0.490328 2.688896 -0.904885 0.227189 1.730536 -1.610187 -2.811143 0.265741 2.895131 -0.26579 -0.92738 -0.147588 2.62289 0.737541 -1.091474 -27.670552 1.2831 1.354441 -1.183995 0.420066 -0.586197 -0.790097 -0.138938 -2.215719 2.102704 1.029885 -1.673584 -1.681595 -0.778988 -0.674983 -2.030208 0.939181 0.00444 0.941345 -0.276247 1.038266 1.49483 -0.0873 0.621581 -0.683727 -0.616526 -2.446044 -2.013425 -0.684621 -2.395081 -2.086118 -1.101618 0.324987 1.765766 0.780882 -0.592892 1.552445 -0.31463 4.477986 2.425189 -0.373265 2.820091 -0.637409 2.000355 4.526646 -0.538001 0.901305 0.470658 -2.029207 2.625433 3.138129 0.467426 6.305644 -1.321358 1.489665 -0.206321 1.565615 0.950641 -0.067305 -2.909778 2.306323 -0.699488 2.020688 -0.009862 0.32621 -2.391097 0.631521 -1.425054 -0.330688 -0.366232 1.184011 0.761748 0.883099 -11.414182 -1.584526 0.153125 -2.933968 3.419817 1.166042 -1.005866 -0.855624 -2.059246 0.576334 1.417145 -3.652669 2.592386 2.291944 -0.075341 -2.388149 0.84844 -2.07384 1.988208 -0.992121 0.577757 -1.287195 1.345645 1.259758 -3.146602 -1.087497 0.919836 -3.474162 -3.143662 -2.607691 0.122921 -0.601504 -1.498075 -2.826772 0.989629 -1.866082 0.386003 3.041757 1.958341 1.014208 1.122772 2.99166 0.797551 -0.72619 1.626863 1.076928 1.334167 1.023447 -1.424125 1.406053 0.039378 0.954046 -0.042024 -2.162883 -3.091343 -2.52059 0.319949 1.422936 0.08435 0.082248 -3.152328 -3.037119 -0.956852 -2.565661 2.883319 -1.686997 3.054311 3.094273 0.452757 -1.488806 1.961131 1.16027 2.684901 -0.326576 -0.18566 1.462096 3.459132 0.165747 -4.385733 3.238562 -0.775574 1.0689 0.980089 -1.336937 -1.893283 -1.122042 0.239282 -0.703181 -3.504111 -9.401648 0.157414 1.713899 -1.193706 1.095899 0.551235 -2.45905 3.066341 2.094441 -0.537284 -0.966443 3.247535 0.733522 -0.588803 1.05484 -1.559598 2.011205 -1.26006 -1.49642 1.754567 0.072432 2.008735 2.154263 0.561217 -2.485751 -0.311882 -0.506867 3.508182 -1.614522 0.096533 2.530388 -1.999416 -2.223892 1.995201 1.0437 1.450001 1.045668 1.426642 0.306211 -2.555989 0.262623 0.993231 -1.143287 0.477235 3.371401 0.416867 0.41546 -2.043946 2.753838 -0.213852 -2.088344 -1.243623 -1.640064 -2.035873 0.104543 2.288162 -0.465699 0.119374 -1.953511 -2.720268 0.810096 -1.077 0.854422 0.072184 -0.698808 -2.82086 0.449499 -1.621151 -0.525718 0.716274 0.150765 0.965552 0.08643 1.07168 -1.917964 1.297631 -0.067966 -1.259448 1.957125 -3.009604 -1.171387 -1.97545 -0.898571 1.544797 -1.340896 -0.556508 1.460207 1.960791 -1.290443 1.469964 -1.305621 -1.594946 1.80137 -1.193495 -0.959657 -0.457536 -0.164407 -0.908524 -1.293607 0.784704 -1.426215 0.682404 1.439653 0.625467 0.911407 2.116086 1.231982 1.422515 -1.451415 -0.384928 1.21228 0.965041 -2.10429 -0.495536 -1.064846 -1.264633 0.391654 -0.050615 2.157256 2.292214 0.085083 0.956005 -0.297805 -0.044046 -1.121548 -1.1013 -0.954831 0.994518 -0.118906 -0.307956 -2.884503 -1.492861 1.572465 1.796879 -2.076923 0.242434 -1.702784 1.088717 -1.397766 1.673763 -0.906825 -0.708985 1.057947 2.824923 -0.622063 1.687145 0.418619 -1.549136 -1.031852 -1.076775 -1.095335 -0.255693 0.442025 -0.36239 -1.971958 -1.325269 1.618843 0.034578 1.563007 -1.753241 4.791102 1.823042 0.90033 2.063105 -1.120069 -3.300615 -0.659743 2.175941 -0.253064 -2.617553 0.355621 0.807336 0.426245 -1.442254 2.612 2.585161 -5.158687 3.125151 -0.617439 -1.236175 1.328763 -1.42198 1.448896 1.898561 1.163724 -2.105708 -1.490128 -0.441996 -0.2758 1.952578 -0.407401 1.818287 0.731925 -0.404084 1.673539 -2.016674 -2.512286 -4.669364 -0.06064 1.88389 2.401973 1.715134 0.901661 -0.286984 -0.456265 -1.162641 -1.138327 -0.140252 0.933638 0.261927 -0.642853 -0.295849 1.367989 -0.232908 -3.305584 -1.040028 -1.186469 -1.063678 -1.707182 -0.911406 -1.385617 -0.675649 1.414854 -0.939591 -1.417672 1.281333 1.733075 1.157066 2.501876 1.244129 0.068778 -0.691607 0.431187 0.348448 -0.448587 1.810227 -0.675653 -0.837689 1.400019 0.902135 -1.179348 -0.718628 -0.393226 2.740648 -2.608884 2.428499 0.043495 0.391553 1.218266 1.476329 0.219104 1.65026 0.22304 -1.240211 1.238976 1.302068 0.35345 -0.294103 0.433589 -1.464681 0.439996 1.589631 -3.51737 -0.99913 -1.792686 -1.804636 0.544954 0.928184 1.489732 2.195048 -1.600345 0.779414 -0.724677 0.218105 0.016694 -1.605336 -0.728137 0.919592 -0.398932 -0.078611 -0.308421 0.559114 -11.124289 -1.590855 -2.342049 2.049067 -0.454982 -0.913452 -0.42136 0.650657 -0.920578 0.019453 -0.029758 -0.951817 1.395362 -1.474009 0.748388 1.605596
cat -4.603208 -0.264174 -0.797515 -2.276241 0.773487 -0.94241 -0.286093 1.655794 -0.527483 -0.907141 0.280425 2.59162 0.248426 -0.51631 0.054855 1.147794 -1.341206 1.360672 0.970755 -2.32838 -1.117603 -1.154752 -1.321593 0.78292 0.589789 -0.26853 -0.126163 1.745939 -0.882871 0.334458 0.086424 1.016818 -3.03273 -1.225161 -0.594072 -0.707938 -0.54253 -0.525659 -1.258907 1.89775 0.397541 -1.126674 -0.025028 -0.686706 0.404941 -0.834724 -14.596065 1.794292 -0.735737 -0.851807 -0.160611 -1.152146 1.441202 1.61132 2.304136 1.011911 0.32822 -1.323464 -0.908322 -0.410469 0.176209 0.265984 -0.095883 0.835344 -1.286137 2.591592 1.197116 1.40459 -1.249906 3.691848 -2.414994 -0.610924 0.293957 1.855264 -1.774822 -0.732937 -0.032282 -0.445437 0.070672 0.460056 -0.902915 0.484224 0.769 1.417035 -1.657201 0.47913 -0.857163 -4.978182 -1.415214 1.519263 -1.790185 1.33117 1.381389 1.683222 1.571625 0.159636 -1.053101 -1.460452 -0.017043 -2.2715 -3.158258 0.25648 0.958299 -0.73891 -2.099998 0.371793 -1.960517 -0.871147 -0.715163 -2.132276 0.834677 0.847813 -0.156981 -0.636412 -1.391137 1.272049 -0.160515 0.642391 1.72518 0.40774 -0.653826 1.915805 -0.287502 -1.222919 0.651782 1.566443 0.286191 -0.507968 1.015594 0.287125 0.234213 0.774071 -1.178685 -0.105817 -0.080231 0.916718 0.048701 0.906121 -0.106188 -0.954117 -2.697533 -2.060669 -7.344511 1.149228 2.83675 -2.335628 -0.772507 -0.195347 -1.353365 1.41413 -0.439119 1.245032 0.201786 0.991901 -0.903554 -0.490565 -0.271663 -1.71802 0.687992 0.54926 -0.741266 0.89109 0.602465 -1.271182 0.670989 -1.273667 0.070889 3.080204 -0.453812 -1.245274 -1.152811 0.75436 1.932376 0.14929 2.337194 0.699147 -0.278366 -0.753765 -0.240479 1.234958 -0.237603 2.061015 0.887461 0.309596 0.100622 -1.007506 2.680503 -2.192166 0.490195 1.213009 0.187714 0.64659 1.397772 -1.443705 1.073645 0.239697 0.00519 -1.191628 2.882404 0.257919 0.468805 -0.496711 0.926318 -1.55163 -0.264197 11.709875 -1.367583 -2.25998 1.016354 1.053897 -0.302272 2.067002 -3.116957 0.156371 0.014675 0.024351 3.245551 -0.361012 1.24041 -0.411671 1.417155 -0.111152 -0.195297 1.386379 -2.053709 2.573049 0.035922 0.339379 -0.249448 -4.66933 1.533168 0.270665 -3.592621 2.6836 -3.955042 0.958201 2.079642 1.134717 2.125637 -0.937005 -0.176508 -0.793256 4.639797 -0.365433 -0.317409 1.226836 3.240181 -0.009271 0.121072 0.901611 3.009826 -2.164244 -0.037985 -1.419991 -0.781161 -0.647471 -0.592079 -1.300031 -1.424807 1.447823 -0.932427 -0.217068 0.111664 -2.403225 -0.407582 -0.275444 -0.075557 -3.46086 0.872089 -1.721752 -3.78885 0.385571 0.805395 -6.222087 -0.674413 0.166232 2.530332 3.32905 1.25113 -1.466199 2.095402 -2.378298 -0.774513 -0.101613 1.265643 -0.687082 1.692154 -3.640971 0.447563 -1.885096 2.224967 0.90606 0.783166 -1.258034 2.085776 -0.89171 -0.639622 1.199744 -1.200237 -1.701785 0.264239 3.35506 -0.194288 -0.642193 -1.19842 2.10849 -1.052645 -0.964658 -33.202765 -0.376707 -0.689365 -2.370357 0.909189 -0.143159 0.252757 -0.335914 -2.898637 2.469767 0.67048 -0.798749 -0.334873 -0.939048 -1.118446 -2.374236 -1.471839 -0.983237 -0.568151 -0.276776 1.239587 0.235566 0.311796 0.001701 -1.245474 1.298225 -1.688637 -0.250873 -2.346644 0.486058 -2.45771 -2.135618 -1.381148 0.39179 0.376776 -0.881227 0.380997 0.949602 3.330311 2.421364 -0.788358 3.219936 -0.42363 1.679615 2.344558 1.130042 1.705308 0.016636 -1.144961 1.178451 0.352799 1.680787 6.0455 -3.02925 2.994828 -1.551765 1.921488 0.726196 0.095804 -2.55834 2.386114 -0.123315 1.598852 1.013943 -1.884508 -0.498907 0.489834 -2.896123 -0.389525 0.107463 -0.325681 -0.179038 1.595083 -11.019508 -1.204476 0.823825 -3.409816 0.995996 1.783126 -1.355538 -1.930174 -1.927884 0.090825 -0.409533 -2.23318 1.592119 1.439894 0.400324 -1.378871 -0.188918 -1.96806 0.914909 -0.85432 -0.083704 -1.468146 0.591693 1.565307 -4.482517 -0.184233 2.910894 -1.296853 -2.473176 -3.559874 0.321643 -0.53957 -1.356422 -2.625373 0.464802 -0.418738 0.190655 0.809994 2.054467 0.756611 0.773868 2.49438 2.11943 -1.715264 -0.843089 -0.410319 0.875956 -1.643875 -0.831354 2.067948 1.675921 -0.367785 -0.342145 0.240195 -4.217867 -3.500064 0.018737 2.64872 -0.914651 0.333888 -1.932654 -2.929707 -1.005953 -2.212008 2.186484 -1.391055 2.669506 3.138175 0.65973 -0.175302 2.532145 0.072076 2.50404 -0.948558 -1.285793 0.958659 4.611599 1.29896 -3.065765 2.679995 1.413451 0.549491 -0.927757 0.374011 -2.618785 -0.538136 1.016012 -0.649733 -2.47818 -7.808219 1.513533 2.362179 -0.967449 2.681917 0.631018 -1.272359 2.619804 -0.089167 0.030209 -2.001076 1.419933 -1.075334 -0.114357 2.096784 -0.833425 2.535034 -0.957815 -0.108363 2.260852 -1.106434 1.049709 0.35402 -1.683834 -1.301337 -1.640584 -0.383762 3.874454 -2.718709 0.084617 1.172983 0.192495 -1.283792 1.229979 1.866212 1.990245 1.757369 2.520955 0.422997 -1.278279 -0.692677 0.138059 -0.704258 2.136389 5.368496 -1.230502 0.019482 -0.668478 3.847438 -0.323896 0.157979 -0.502621 -1.639155 -1.906166 -0.478369 3.460561 1.098446 -0.301205 -2.702241 -2.036607 -1.056605 -1.630101 2.069287 1.036466 -0.62902 -1.631757 0.170564 -0.016255 -1.176574 2.658952 2.241807 1.029087 0.38277 -0.385588 -2.65664 1.095145 0.722665 -1.489352 1.410383 -3.65414 -1.196203 -3.564825 -0.14871 0.996989 -1.072612 -1.925664 0.328727 3.306566 -0.302252 -0.168691 -1.105597 -1.19554 1.810899 -1.99221 -0.416108 0.260485 0.222453 -1.206565 -1.950224 -0.321188 -1.230646 0.622524 0.850679 1.080559 1.723157 1.23432 2.521044 0.734474 -0.790302 0.505554 0.594886 2.122646 -2.878997 -2.164702 -0.390343 -1.113807 -1.023249 -0.213572 2.2077 1.469936 1.161651 1.287049 0.29466 -0.738153 0.680847 -1.507235 1.416339 -0.259703 -0.55401 0.439987 -3.602972 0.932119 -0.577178 0.052171 -0.67258 0.741119 -1.068527 1.777582 -2.912543 1.666797 -0.641895 1.608634 1.024306 -0.187102 -2.304516 1.433215 -0.097976 -1.790851 -1.064493 -2.151914 -0.705482 0.688723 -0.656893 1.249963 -0.313456 -1.319773 0.264892 0.19026 0.582019 -2.081807 5.016857 2.08976 1.127412 0.073693 -1.900953 -2.237718 -0.108956 0.078559 1.485958 -2.210533 -0.237136 -0.477822 1.227264 -0.11003 2.377301 2.652049 -3.602461 3.629256 -1.905361 -0.947907 0.076695 -0.105033 2.947321 1.601981 1.134933 -0.406345 -1.855428 0.083509 1.180433 3.158231 -1.917817 -0.067838 1.458103 -1.272186 1.846508 -2.486961 -1.77474 -4.546977 0.992164 3.321396 2.744936 1.846583 1.299254 0.34538 -0.770477 -2.656213 0.26308 -0.362768 0.657377 -0.765892 0.784272 0.664195 -0.525033 -1.120142 -2.004702 0.429853 -1.779987 -0.732952 -1.286995 -1.107488 0.005754 -0.765602 1.138318 -0.416556 0.37653 0.122032 0.611357 0.38725 3.201587 2.938654 0.501255 -1.27975 0.352001 0.179988 -0.478068 1.47481 -1.67565 -0.326554 -0.046593 0.958883 -0.160245 -0.948921 1.171601 1.11594 -2.768117 1.879093 -1.455296 0.545537 1.909081 0.177607 0.400461 0.967672 -0.098678 1.653743 0.890087 1.087404 -0.383544 1.165463 0.408311 -1.967422 1.59515 0.735756 -3.993046 -2.698945 -1.145395 -0.361668 0.656406 2.003855 -0.746825 1.778197 -1.427447 0.567986 0.393623 0.342452 0.277722 -1.273257 -0.204335 1.031693 -0.509922 0.470812 0.4529 0.0651 -10.156159 -0.148299 -1.313971 -0.020045 -2.362389 -1.48766 1.195931 0.478698 -1.415664 0.02829 0.658279 -2.920643 1.89369 -0.828859 1.458845 2.279819
woman -4.622909 0.645882 -3.055998 -1.196684 0.356489 0.427582 0.100071 0.478489 1.818835 -1.985951 -0.451957 1.51627 0.299347 -0.432188 -0.153747 0.624046 -1.817117 3.923224 -0.704011 -0.471809 -0.702429 0.633783 -1.665322 -0.702254 1.386719 -0.602645 0.019027 1.065005 -2.373658 0.43352 0.937512 0.396183 -1.347641 1.207163 -0.68362 1.040358 -1.020926 -0.198008 -1.90967 2.005691 -0.36527 -0.993805 0.22785 -1.075019 -1.330218 -2.349958 -13.519826 0.962033 -0.045643 -2.815481 -1.244908 -1.774964 0.165935 2.901347 2.031229 1.397265 0.570492 -1.013696 -0.890477 -0.88002 0.975868 0.838086 -0.985959 0.454046 -2.090442 0.398981 3.131359 0.460188 -2.725298 3.095126 -3.030398 -1.823173 2.064161 2.399284 -1.47288 -1.811485 1.045735 -0.241981 -1.196781 -1.77547 -0.632768 1.118118 0.862684 -0.023988 -0.872913 0.660532 0.950956 -4.672817 -1.127184 1.712506 -0.777189 0.455547 -0.004143 0.528798 1.683696 0.760268 -1.188693 -0.724504 1.063702 -2.579791 -2.62616 0.315227 1.368102 -2.068861 -0.609281 0.874406 -0.94832 -0.03281 -2.218619 -2.682862 0.329234 0.483155 0.24471 -2.495515 -2.343954 2.782688 -0.062567 0.338324 0.862031 -0.709629 -0.0951 0.226911 -0.002956 -1.044252 1.975018 2.126592 1.04303 0.182489 2.003714 0.470591 1.159918 1.566789 -0.779199 -0.583949 -0.92899 1.135414 2.639748 -0.120846 -1.204808 0.987754 -4.153966 -1.316621 -6.839395 2.209027 3.710271 -0.902827 -1.358175 1.181883 0.068212 1.487129 -0.245332 0.156587 0.894249 0.20291 -0.90783 0.208243 -0.375334 -2.33614 1.778519 0.456962 0.572505 0.269683 0.590831 -2.480102 0.48427 -0.766909 0.109227 2.681663 1.723323 -2.05634 -0.378707 -0.644333 4.018051 0.666067 1.031517 1.948674 0.230283 0.931984 -1.981795 1.751832 -1.105143 3.265471 1.091046 1.235109 2.161827 -1.131756 1.381031 -1.636403 0.466835 1.04222 -0.45627 1.223675 -1.676444 -0.724559 -0.430678 -0.253251 1.460847 -1.325123 1.961938 -0.496479 -0.727109 0.651042 -0.677162 -1.333044 -0.69753 11.693355 -0.122981 -1.789066 0.685045 0.885135 -0.73393 2.977214 -1.640074 0.549234 -0.132428 0.764378 2.82229 0.438132 0.482203 -0.493823 2.655946 0.48583 0.234345 2.52007 -3.777745 1.763761 -0.850215 -0.591361 -1.636926 -4.622132 1.877808 -0.281249 -1.838375 1.026003 -3.518155 0.496102 0.015447 0.108793 1.489126 2.047706 -2.23505 2.08598 3.84148 0.321905 -1.089095 1.865965 3.885083 -0.637359 1.951126 0.685717 0.601782 -2.025339 0.960751 -3.576515 -0.529625 -1.716834 0.486405 -2.221276 0.135849 -1.019196 -0.798926 -0.522112 1.102752 -2.192889 -0.440982 -0.679073 2.785573 -3.773536 0.709529 -1.929406 -2.112557 2.555834 0.395541 -5.306803 0.569508 0.388844 2.592349 4.070191 0.34401 -1.68644 2.755157 -0.729771 -0.610112 0.335273 1.525487 1.299729 0.130185 -3.385143 1.201221 -1.758405 0.530247 -0.8166 0.925843 -0.732686 3.761476 -1.247042 0.487708 0.99092 -1.412449 -2.532097 -0.456535 1.990083 -0.545213 -0.599767 -0.169691 1.50265 0.849896 -1.176226 -27.629386 1.671213 0.987797 -2.384332 0.375013 -1.203824 -0.325917 -0.320358 -1.201425 2.004487 1.89108 -0.555094 -1.049784 -0.191365 -0.17536 -1.610569 0.654625 1.715788 0.979091 -1.671299 0.253052 1.560662 0.222239 -0.206924 -0.262742 -0.436887 -3.281737 -2.15101 -1.54049 -2.338835 -3.316101 -0.357445 0.120087 0.959975 0.315294 -1.129057 1.462201 -0.549607 6.354953 2.595417 -0.064524 2.814353 -0.189652 2.447357 3.873801 0.045579 0.271318 0.579485 -1.147381 3.031835 1.531414 1.461911 7.181552 -1.535019 2.360698 -0.305661 2.107773 1.786455 0.316586 -3.630139 2.776485 -0.443646 2.22719 -0.14423 -0.507941 -1.617557 1.107195 -1.715999 -0.356471 -0.763479 1.58365 1.989564 1.496692 -10.54541 -0.87459 -0.265208 -3.95722 3.522402 1.942915 -2.891415 -1.31813 -0.885749 1.176236 2.01259 -2.145447 2.83443 1.104085 -0.632697 -2.354617 0.812311 -1.763889 1.134711 -0.554842 1.202778 -1.146586 1.140797 1.686863 -3.152516 -0.682653 1.290356 -3.379002 -2.193266 -3.276272 -0.003171 -0.803119 -1.845183 -2.864239 1.76534 -1.042756 -0.457354 3.200498 2.235256 1.164302 1.555683 2.964879 0.887317 -1.331736 1.05131 1.455916 2.722423 0.80417 -1.077338 1.417169 0.43568 0.551165 0.634162 -1.526134 -3.297189 -3.616216 0.294893 1.624102 0.17075 -0.250782 -3.842007 -2.998426 -1.026163 -2.520708 3.025759 -1.344048 3.559524 3.226399 -0.098948 -2.513347 2.043538 1.430598 2.130826 -0.786995 0.073271 1.475353 4.158903 -0.242415 -3.695037 3.587359 -0.193703 0.757949 0.438091 -1.646764 -1.940276 -0.283977 -1.088463 -1.899742 -3.1097 -10.259188 1.022429 0.950229 -0.683663 1.708412 0.520647 -2.149052 4.071836 1.365484 -0.791059 -0.321495 1.661104 -0.27538 -0.206395 1.354519 -0.909682 1.947373 0.769009 -0.401771 2.303669 -0.039561 0.703084 1.525003 -0.490822 -2.095028 -0.724136 0.393689 3.706921 -0.885587 -1.558597 2.289852 -3.132921 -1.53542 1.468454 0.86105 2.207549 0.844419 1.975332 -0.143166 -2.16688 -0.962642 0.640822 -1.967616 -0.04552 3.106651 -0.655823 0.371349 -1.655233 2.740315 -0.014936 -2.06058 -0.499234 -2.466801 -1.597964 0.495898 2.894816 -0.639535 -1.256458 -2.751683 -3.788396 0.927436 -1.358002 0.903016 0.586523 -1.265803 -2.539028 0.730837 -1.758256 -2.468337 0.101566 0.635618 -0.098227 0.503305 0.734374 -1.936302 0.538127 -0.0169 -2.038863 2.574968 -2.207276 -0.611018 -2.890126 -0.740432 1.601041 -2.116596 -2.119862 1.433389 3.390214 -1.762928 -0.526248 -1.907495 -1.13522 2.004193 -1.101933 0.289417 0.211045 -0.408739 -1.3471 -0.746932 1.957641 -0.883284 0.879804 1.523429 0.802915 1.433123 2.933494 1.868882 1.314072 -1.50904 1.106442 0.127576 0.661543 -3.103515 -0.374945 -1.355407 -0.046469 0.173347 -0.04302 2.28832 1.623046 -0.640847 1.911415 -0.471256 -1.401678 -1.400452 -1.888559 -2.1168 -0.109147 -0.222607 -1.440333 -2.352786 -2.083846 0.298175 1.50206 -3.080487 -0.968648 -1.730295 0.797714 -2.281076 2.750765 -0.836874 -0.557067 0.82122 1.732813 -0.505102 0.646582 -0.380258 -1.564011 -0.093002 -1.445038 -0.238256 0.400221 0.19634 -1.423498 -1.97675 -1.069453 0.737967 1.11505 0.338176 -1.551294 5.172466 2.072044 1.018851 3.036857 -0.978079 -2.55633 -1.869432 1.657587 -0.005978 -2.199042 -1.334268 1.158295 0.647705 -0.98988 2.027178 3.150488 -4.988658 3.042854 -0.820567 -0.175287 0.885201 -1.867886 2.102624 2.251364 0.93624 -1.176059 -1.204994 -1.072409 0.369036 1.591992 0.026667 2.472759 1.671222 -0.531217 2.489418 -2.28559 -2.446767 -4.696099 -0.172181 1.230106 2.365618 1.808368 0.595705 -0.983188 0.102524 -1.428006 -1.07874 -0.37345 1.78311 -0.868216 -1.243512 -0.777824 1.276257 -0.693975 -2.999906 -0.334723 -1.334463 -0.738623 -3.370446 -1.384005 -0.91851 -1.923644 1.268755 -0.919838 -0.97979 0.521105 1.567986 0.718379 2.64194 1.784022 1.362597 -0.550959 1.368577 0.042944 -0.915802 1.576303 0.178155 -1.223674 1.457989 2.962115 -1.612833 -1.328869 -0.080454 1.586409 -2.563687 1.774469 -0.75131 0.50501 0.12956 0.986428 0.068146 1.684397 -0.356757 0.285883 1.696346 -0.122022 0.840359 -1.08432 -0.693347 -1.631622 0.106304 1.002373 -2.357784 -2.361615 -1.937335 -1.589985 1.244069 1.804978 0.825282 2.363941 -1.611178 1.106668 0.096604 -0.652456 -0.066142 -2.029855 0.506096 0.401201 -0.529948 0.228508 -0.407631 -0.314359 -10.633089 -1.676692 -2.234824 2.491145 0.504162 -1.167309 -0.362196 -0.628454 -0.578615 -0.445712 -1.237736 -1.461149 1.8065 -2.220536 0.300995 1.836294
