building.n -0.88933 0.12723 -0.4333 -0.57073 -0.072018 0.11595 0.078853 -0.42906 0.16951 1.087 0.091165 -0.41149 -0.12297 -0.20345 -1.0901 -0.068592 0.73798 0.22897 0.17272 0.29816 0.25788 0.40764 0.27947 -0.098232 0.0463 -0.27562 -0.10727 -0.57575 -0.65566 0.71443 0.00080815 -1.3636 -0.78468 -0.49763 -0.3435 -0.79576 -0.5879 0.10173 -0.23331 -0.44153 -0.011664 -0.45314 0.1198 0.19037 -0.070582 -0.54196 -0.20016 -0.051073 0.73591 -0.45516 -0.49114 0.82015 -0.11632 -0.019091 0.1318 -0.53209 -0.76079 0.51473 0.13348 -1.266 -0.34813 -0.19574 0.71293 0.5966 -0.8966 -0.3916 -0.51284 1.0119 0.31093 -0.17583 -1.5346 0.13878 -0.039974 -0.72245 -0.26671 -1.0471 0.38171 0.47087 0.37719 -0.10889 -0.3301 0.24556 -0.21825 -0.23924 0.36947 -0.38189 0.26529 -0.2375 0.51627 0.25453 0.63668 -0.73444 -0.19666 -0.0020772 -0.27459 0.59209 0.17022 0.63906 0.040331 0.36346
window.n -0.69952 -0.063566 -0.17754 0.34868 0.46001 -0.4475 -0.41151 0.11578 0.37702 1.5131 0.076066 -0.32492 0.2599 0.38742 -0.73595 -0.54944 -0.19536 0.083644 0.30905 -0.0098767 0.3111 1.188 0.11203 0.29577 0.49702 -1.0664 0.46703 -0.49295 -0.60154 0.044556 0.31529 -0.42296 -0.43519 -1.0289 -0.94886 -0.30416 -0.79744 0.42195 0.26923 -0.43964 -0.28226 -0.2165 -0.4464 0.61941 0.79205 0.37845 -0.38383 -0.2599 0.65477 -0.35742 -0.29556 0.074101 -1.2017 0.29333 0.40802 0.37169 -0.67793 0.96104 0.80834 -0.22055 -0.76016 -0.34085 0.54801 0.80512 -1.0723 -0.0057708 -0.582 0.60936 -0.11501 -0.6266 -1.1685 -0.52784 -0.96824 -0.27206 0.21088 -0.36198 0.30613 0.20072 0.35987 -0.18044 0.476 0.014762 0.2794 -0.76365 0.21188 0.01655 0.35493 -0.030462 0.59094 0.29318 0.93375 -0.7559 -0.29837 0.11035 -0.075808 -0.60703 -0.35957 0.73873 -0.041383 -0.34539
man.n -0.17165 0.88098 0.36316 0.11115 0.06525 0.21198 0.28882 0.19149 -0.10601 0.29118 0.89111 0.024223 -0.079296 -1.0893 -0.42252 -0.0043035 0.76123 -0.142 0.18306 0.45717 0.4092 1.1943 -0.15994 -0.034012 -0.44641 -0.40406 -0.49547 -0.17344 0.31302 0.37007 -0.34669 -0.60324 -0.83975 -0.18243 -0.15429 -0.16712 -0.52015 0.16951 -0.72814 -0.6648 0.51 0.48621 0.20437 -0.6929 0.57611 0.13142 0.13537 -0.14151 0.51155 -0.56193 -0.21609 0.51098 -0.50893 0.39688 0.13779 0.53969 -0.83824 0.36914 -0.62564 -0.010553 0.23911 -0.0052775 -0.29186 0.62502 0.15604 0.50525 -0.69203 0.050163 -0.57149 -0.48923 -0.36307 -0.25963 0.329 -0.28176 -0.58361 0.31294 0.57684 0.040712 -0.017546 0.020336 -0.54816 0.45629 0.20566 -0.18939 0.84006 0.16977 -0.18837 -0.43982 -0.42677 -0.0024043 1.0875 0.3802 0.54776 0.24241 0.25255 0.18638 0.038617 0.49739 -0.18556 -0.84204
wall.n -0.89824 0.54536 -0.44528 -0.17986 0.52161 0.75436 -0.088852 0.52487 -0.12759 0.4928 -0.35817 -0.58843 0.35326 -0.073423 -0.64001 0.32302 0.36393 -0.22337 0.60771 -0.01094 1.0014 0.20938 0.3728 -0.56064 0.23251 -0.7444 -0.2623 0.72608 -1.0997 0.34122 0.2205 -0.36826 -1.1537 -0.33689 -0.51181 -0.48757 0.3876 0.071217 -0.044342 -0.049804 0.26726 -0.074368 -0.3324 -0.24956 -0.2246 -0.24542 -0.099986 -0.79861 0.55761 -0.19965 -0.046697 0.26626 0.32542 -0.24955 0.4328 -0.64181 -0.37298 0.24033 0.4784 -0.51716 -0.086573 0.26777 0.057221 0.14541 -0.99948 0.34617 0.18034 0.069389 0.003841 -0.31418 -0.34168 -0.40576 -0.70455 -0.34044 0.13128 0.23485 0.89685 0.19225 0.39456 -0.037885 0.04515 0.17063 1.0271 -1.0376 0.78308 0.12011 0.36774 -0.28929 -0.30311 0.23232 1.2872 -0.40597 -0.20015 -0.39868 -0.46212 0.1941 -0.39089 0.4774 0.60058 -0.42226
car.n 0.033169 0.18608 -0.071991 -0.67224 -0.28709 0.26657 0.056013 -0.12395 0.31728 0.1234 -0.18151 -0.74196 0.093971 0.45599 -0.70888 0.27543 -0.11343 0.38853 0.52342 -0.36363 -0.44028 0.76172 -0.72094 0.27726 -0.040496 -0.2217 -0.17808 -0.32351 0.41432 0.87258 -0.48103 -1.3645 -0.70621 -0.4409 -0.85098 0.10314 -0.36394 -0.10192 -0.56241 0.14091 0.17384 -0.30235 -0.14791 -0.51246 -0.067232 -0.66728 0.14164 -0.20119 -0.049387 -0.14381 -0.52566 0.18453 -1.1479 0.7332 0.25258 -0.44285 0.12217 0.4736 0.70872 -0.51405 -0.74823 0.46856 0.48263 0.90792 -0.12687 0.32771 -0.90447 0.51588 -0.80274 -0.61188 -0.51204 -0.16493 -0.3546 -0.66308 0.45823 0.0074506 0.91153 -0.29085 -0.29815 -0.19341 -0.2054 0.07659 0.1167 0.73332 0.73504 -0.688 0.89502 -0.58718 -0.42339 -0.36427 0.89238 -0.54332 -0.13003 0.08217 -0.29008 -0.5567 0.5269 1.1941 -0.38212 -0.71689
tree.n -0.50074 0.58362 -0.062086 0.016516 -0.35781 -0.19068 0.32711 -0.188 0.72364 0.98606 0.57431 -0.79065 -0.38119 0.12551 -0.23155 0.052114 0.26035 -0.51404 0.065075 0.12903 -0.23834 0.17016 0.83067 -0.34909 -0.16991 -0.31651 -0.54236 0.64422 -0.10001 0.58653 0.29179 -0.82632 -1.447 -1.0887 -0.8464 -0.25812 -0.41976 0.0069935 -0.48912 -0.3877 -0.90628 -0.22444 -0.17954 0.48258 0.88864 -0.63894 -0.63099 0.40236 0.93822 0.35165 -0.64091 -0.41628 -0.38125 0.12027 -0.32087 0.20762 -0.054526 -0.12485 0.15083 -0.83126 -0.41651 -0.29546 0.12009 0.60577 0.32145 0.95143 -0.37612 0.16158 -0.80389 -0.33177 -1.3088 0.55991 -0.57348 -0.83817 -0.61646 -0.95467 0.30608 0.57037 -0.16818 -0.25024 0.0015365 0.8824 0.35669 0.070117 0.87917 0.15763 0.48566 -0.047848 -0.50612 -0.021582 0.78793 0.63528 -0.42647 0.44509 -0.049762 -0.30848 -0.027581 0.63527 -0.32795 -0.82807
table.n -0.16396 0.40897 0.018391 0.18968 -0.19151 0.61926 0.33442 -0.21623 0.43465 0.23955 0.28306 0.39386 0.8613 0.28567 -0.64502 -0.18624 1.1027 -0.55311 -0.12974 0.45965 0.27679 0.8811 0.041316 0.5995 -0.63757 -0.42089 -0.2118 0.29747 -0.4382 -0.4377 -0.31807 -0.75568 -0.64444 -0.16802 -0.34896 0.83 0.1361 0.62058 0.03451 -0.48343 0.051975 -0.19478 -0.17133 -0.67998 0.55184 -0.25302 -0.98005 0.16641 0.14498 0.090891 -0.40078 0.051815 0.081667 0.97829 -0.066694 0.41371 -0.96359 -0.39229 -0.094562 -0.81113 -0.73241 0.094914 -0.29045 0.61662 -0.29135 0.15673 -0.36572 0.16142 0.12033 -0.36557 -0.54945 -0.46763 -0.71813 -0.37838 0.16093 -0.1274 0.19854 0.15398 -0.66044 0.26504 0.32282 0.12458 0.038979 -0.50224 0.73124 -0.4501 1.4187 -0.016795 -0.88195 0.47586 0.67507 -0.32703 -0.0089858 -0.10668 0.38213 -0.095858 -0.72722 0.50194 0.68378 -0.63694
street.n -0.016977 0.62001 -0.26778 0.2028 -0.51226 0.029504 0.15341 0.078147 -0.022771 0.24515 0.099986 -0.19583 0.0033232 0.20533 -0.30203 -0.45604 0.33655 -0.49192 -0.16443 0.3711 -0.1206 0.24537 -0.25121 0.61913 0.10105 0.073327 -0.16995 0.049868 -0.3401 0.0022234 0.093566 -0.76741 -0.28476 -0.77738 -0.45989 -0.56992 -0.43151 -0.26008 -0.79044 -0.5849 -0.70717 0.13743 0.10663 0.015167 -0.082556 -0.73585 -0.49495 -0.036551 0.33783 0.01303 -0.17217 0.57601 -0.51705 -0.34672 0.6951 -0.20968 -0.41661 -0.55613 0.98161 -0.61928 -0.65447 -0.28374 0.66763 0.43147 -0.15674 0.33939 -0.82952 0.69424 -0.10491 -0.0073 -1.1154 -0.19533 -0.12304 -0.76376 -0.70046 -0.88671 1.2046 0.42661 0.77634 0.23302 -0.5475 -0.15921 0.68742 0.068199 1.0076 -0.70805 0.19514 -1.075 -0.090531 -0.10036 0.58892 0.13733 0.10409 0.14419 -0.074422 -0.21448 0.22997 1.0364 0.079381 -0.25624
woman.n 0.27234 0.80072 0.11304 0.24343 0.2083 0.23419 -0.22713 -0.067705 0.14457 0.2279 0.6388 0.46938 -0.045386 -1.2021 -0.77384 0.21064 0.85538 0.17455 0.19803 0.22629 0.4064 1.0003 -0.40977 -0.18001 -0.19343 -0.37015 0.097215 -0.56736 -0.090301 0.49573 -0.091657 -0.62913 -0.76981 -0.065721 0.22502 -0.059623 -0.61639 0.22404 -0.5431 -0.50477 0.38167 0.46026 -0.29543 -0.58611 0.18978 0.16298 0.0073287 -0.15146 0.8738 -0.75139 -0.097138 0.72767 -0.7153 0.071791 0.19575 0.36247 -0.81663 0.12537 -0.46383 -0.28434 0.25669 -0.022789 -0.61935 0.57742 0.39872 -0.031136 -0.91831 0.39964 0.030667 -0.22995 -0.91557 -0.39062 0.20033 -0.67535 -0.10787 0.13922 0.088799 -0.031123 0.11805 -0.080884 -0.59815 0.6724 0.21456 -0.25264 0.86579 -0.066395 0.084063 -0.46277 -0.82378 -0.13358 0.9317 0.09558 0.25527 0.057379 0.1669 -0.39764 -0.016957 0.21987 -0.18625 -1.086
light.n -0.51073 0.51118 0.51392 -0.7477 0.41315 0.15291 -0.61957 0.19509 0.10436 0.27605 -0.16566 0.32377 -0.16913 -0.10623 -0.35804 0.60087 -0.030769 -0.085477 0.65962 0.1927 -0.1402 0.91991 0.084181 0.29421 0.64002 0.16654 -0.045903 -0.22522 -1.0514 0.21552 0.94562 -0.87289 -0.29049 -0.49035 -0.13394 -0.19976 -0.95076 -0.55078 -0.58894 -0.093649 -0.1345 0.5473 0.27561 -0.41341 0.15579 -0.9006 0.11194 0.030626 0.30943 0.16389 0.5296 -0.67712 -0.62445 0.20124 0.11048 0.012307 -1.017 -0.098604 0.43848 -0.23335 -0.51362 -0.29083 -0.45619 0.21522 -0.10401 0.95866 -0.72555 0.22223 0.36439 -0.62722 -0.80083 0.0090862 -0.42038 -0.62877 -0.27309 -0.21017 0.7784 -0.17955 0.34874 0.012013 -0.10654 0.87428 0.28959 0.10193 0.83357 -0.688 -0.24159 -0.24532 0.10128 -0.060382 0.47921 0.0079079 -0.45473 -0.007909 -0.23418 0.34616 -0.52531 0.67115 0.1258 -0.51505
shirt.n 0.14906 0.2189 0.83505 -0.0888 -0.0032325 0.27409 0.021231 0.14298 -0.37441 0.73106 0.60832 -0.15708 0.21963 -0.95674 -0.29005 0.56954 0.5443 -0.22017 -0.19409 -0.2912 -0.13826 0.55191 0.010376 0.40657 0.11572 -0.53779 -0.15811 -0.19246 0.2783 0.35585 -0.048558 -0.30916 -0.93466 -0.37193 -0.069763 0.074348 -0.011559 -0.2188 -1.3047 -0.80975 -0.24517 0.6992 -0.69341 -0.39515 0.81882 -0.46352 0.73004 -0.41851 1.2093 -0.64528 -0.19889 0.93939 -0.59123 -0.15471 -0.14086 0.026389 -0.56553 0.0037567 -0.17686 -0.58172 -0.822 0.45449 -0.42158 0.97488 -0.40501 0.81744 -0.44043 0.9913 -0.093064 -0.71118 0.21849 -0.32843 0.10093 -0.57858 0.45971 -0.069319 0.14459 0.066082 0.27443 -0.44007 -0.8401 -0.21012 0.74102 -0.77181 0.51539 0.087757 0.47785 -0.32169 -0.72717 -0.25351 0.44528 -0.0038886 0.72945 0.53587 -0.16373 0.12793 0.027442 0.33957 -0.075098 -0.91745
glass.n -1.2158 1.0728 0.09533 0.23947 -0.31977 0.46997 0.10168 0.56688 0.72521 0.70137 0.33414 0.96299 0.62539 -0.075815 -1.0751 0.32392 -0.15844 0.14585 0.29916 0.57639 -0.57527 1.1372 0.65766 0.26485 0.034972 -0.37868 0.8339 -0.18647 -0.009095 0.18279 0.38029 -0.64399 0.036715 -0.61256 -0.15408 -0.36056 -0.11138 -0.27568 -0.1675 -0.95719 -0.43882 -0.29052 -0.56057 -0.24734 0.23874 0.29926 -0.50212 -0.7368 -0.040701 -0.39595 -0.3865 -0.20903 -0.087566 0.40014 -0.4554 0.5202 -0.37844 0.31435 0.30462 -0.82328 -0.22287 -0.54196 0.61129 0.87457 -0.57155 0.095573 -0.076445 1.1462 -0.51468 -0.44854 -0.54151 0.18684 -1.046 0.087586 -0.0823 0.65571 0.28281 0.15555 -0.53592 0.74914 -0.75679 0.40891 1.4923 -0.27132 0.49927 -0.31279 0.2051 -0.3668 0.44652 0.27894 0.69613 -0.72779 -0.013501 -0.49564 0.18153 -0.44048 -0.27826 0.42406 -0.36474 -0.07417
sky.n 0.38989 1.1641 -0.15928 -0.39966 0.037233 0.84262 0.34051 0.14533 0.29511 -0.51492 0.84088 -0.59274 -1.4846 -0.59498 -0.819 0.012613 -1.1075 -0.25218 -0.76435 -0.74073 0.43745 0.28683 0.93119 0.06565 -0.04229 -0.7541 0.91825 0.57951 -0.66959 0.26105 0.49366 -0.23194 0.094469 -0.43646 -0.21269 0.28407 -0.21445 0.019871 -0.12348 0.054284 -0.39362 0.44348 0.62435 -0.09026 1.9787 -0.9842 -1.0473 -0.14831 0.38011 0.065922 0.26607 0.7152 -1.0331 0.29911 0.24457 0.59703 -0.37679 -0.40731 0.24571 -1.2302 -1.4419 -0.79625 0.78345 1.0452 -0.7641 0.28916 -0.91117 0.69844 -0.90085 -0.089061 -0.55942 -0.088882 -0.71664 -1.0286 -0.41941 -0.089411 -0.14688 -0.040426 -0.10097 -1.1769 -0.1556 -0.17117 1.3651 -0.46488 0.86894 -0.34803 0.40603 -0.36554 0.48456 0.21094 0.9309 -0.14273 -0.43508 -0.62753 -0.54194 -0.18822 0.45912 0.91051 0.12459 -1.2453
chair.n 0.82103 0.32131 0.1814 -0.38129 -0.070638 -0.058419 -0.76254 0.12918 -0.12591 0.7844 0.40645 -0.32354 0.80017 0.25753 -0.10057 0.78656 0.40409 0.13731 -0.062005 -0.60929 0.13299 1.063 0.64001 0.38366 0.096431 0.13251 -0.13948 0.11353 -0.66315 0.3754 -0.64202 -0.88001 -1.0138 0.20369 -0.19385 0.81995 -0.80368 0.44753 -0.42202 0.13214 -0.10057 -0.075302 -0.19446 0.33254 1.004 0.23963 -0.056884 -0.10002 -0.18993 -0.21776 0.8033 0.17198 -0.72118 0.94951 0.37873 0.22623 -1.2653 -0.072677 -0.32924 -1.3441 -0.83226 0.4444 0.07194 0.74496 -0.15451 -0.12734 0.063695 0.24239 -0.78131 -0.56432 -0.52966 -0.014456 -0.55884 -0.7122 0.23752 -0.55188 -0.43514 -0.46139 -0.22771 0.39814 -0.46599 0.6016 0.18002 -0.73944 1.38 -0.88504 0.50875 -0.80414 -0.89064 0.81351 1.1854 -0.80853 0.46389 -0.057093 0.57202 0.1031 0.13494 0.14614 0.11305 -0.21031
road.n -0.15391 1.0773 -0.020057 -0.029655 -0.12778 0.70879 -0.12742 -0.38303 -0.39184 -0.052285 -0.17803 -0.35808 -0.13158 0.30043 -0.20062 -0.13506 0.27665 -0.85833 -0.09283 0.38689 0.099007 0.52925 -0.14479 0.80515 0.35548 0.0010032 0.011714 0.16753 0.31083 -0.039991 -0.25263 -0.56663 -0.33888 -0.84817 -0.73052 -0.7399 -0.57855 -0.34527 -0.37703 -0.39699 -0.61177 0.11449 0.32736 0.45308 -0.21949 -1.0909 -0.41794 -0.11026 0.30609 0.028338 -0.32251 1.0154 -0.43672 -0.75835 0.48825 -0.49333 0.035203 0.2175 0.84328 -0.89166 -0.45622 -0.14604 0.41421 0.22689 -0.10535 0.42546 -0.16588 0.11419 0.055478 -0.079474 -1.3398 -0.22458 -0.093166 -0.5498 -0.33387 -0.523 1.2348 0.10844 0.014676 0.2026 -0.66435 0.12768 0.97254 -0.042778 1.025 -0.51576 0.42846 -1.123 -0.35222 0.13113 0.59786 0.45407 0.17353 -0.057251 -0.23316 -0.0035608 0.40442 1.2384 0.024994 -0.37109
water.n -0.074279 0.71996 0.3096 0.066555 -0.18846 0.24455 -0.054226 -0.046888 0.26361 0.74569 0.6266 -0.78284 0.37141 -0.79707 -0.51282 -0.34075 -0.11058 -0.21276 -0.48887 -0.054975 -0.43975 0.00038751 0.1009 0.10393 0.029887 -1.1802 -0.24651 -0.050547 -0.69361 -0.0079019 0.70137 -0.40388 0.53623 -0.61013 -1.3382 0.2727 -0.17011 -0.064516 -0.32049 -0.31113 -0.13026 -0.045403 -0.050656 -0.053434 -0.058473 -0.68936 0.56116 -0.027586 -0.1248 -0.58592 0.16613 1.0317 -0.69099 0.91339 -0.32952 0.75777 -0.28316 0.3264 0.064795 -1.2079 -0.0023388 -0.4623 -0.60163 -0.085741 -0.29093 0.43672 0.28838 -0.012908 0.055791 -0.64471 -0.91345 0.096673 0.96644 -0.63395 -0.47903 0.027038 0.79791 -0.30236 -0.048709 -0.31664 0.25583 0.50491 1.3648 -0.55725 0.7422 -0.59479 0.39129 0.37483 0.066297 0.82429 0.98999 -0.06646 -0.35155 -0.58547 -0.44766 -0.059574 0.040438 0.56311 -0.14217 -0.46677
sidewalk.n -0.36468 0.23238 0.094822 -0.13893 -0.37702 0.27079 -0.11395 0.1543 -0.73877 0.24168 0.50833 0.22199 0.11341 0.035401 -0.1417 -0.016896 0.6943 -0.50813 -0.74009 0.44263 0.23704 -0.082743 -0.18931 0.36382 0.37176 -0.41627 0.04927 0.20841 -0.17723 -0.029539 0.46417 -0.51086 -0.60953 -1.0173 -0.35917 -0.73753 -0.11586 0.11835 -0.60157 -0.63644 -0.60471 0.15855 -0.32523 -0.32005 -0.51395 -0.28056 -0.48505 -0.14544 -0.047114 -0.069076 -0.59637 0.89653 -0.016921 -0.40445 0.79868 -0.014884 -0.93504 0.23776 0.73925 -0.72 -0.62099 -0.28397 0.42085 -0.11056 0.065523 0.8078 -0.14394 0.54761 0.060026 -0.19257 -1.0711 -0.24477 -0.047874 -0.85206 -0.010365 -0.39041 1.0761 0.50284 0.425 0.23088 -0.57421 0.35252 0.20452 -0.0022429 1.1498 -0.39776 0.22713 -0.89338 -0.6775 -0.26665 0.87042 0.105 0.11318 0.19177 -0.28346 0.19367 -0.33057 0.97073 0.16151 -0.39855
door.n -1.4603 0.46418 -0.061675 0.48347 0.69857 -1.0317 -0.6329 0.27541 -0.25324 0.53359 -0.086839 -0.65117 0.38507 0.21093 -0.90938 0.14516 0.35284 0.018753 0.49529 0.034978 0.28568 0.37903 0.0014192 -0.20658 0.33864 -0.87278 0.21887 -0.054146 -0.022853 -0.66714 0.54375 -0.69064 -0.34584 -0.65257 0.051233 0.2996 -0.047297 -0.1757 -0.47469 -0.069759 0.044677 -0.33158 1.0992 0.17627 0.28585 -0.20033 -0.080136 -0.71013 -0.076088 -0.075485 0.09235 0.26573 -1.0741 0.10329 0.13942 -0.66837 -0.61893 1.1126 0.47788 -0.71804 -0.49301 0.036442 -0.0060643 1.1291 -0.24097 -0.075165 -0.11254 0.33411 0.0068515 -1.0298 -0.55716 -0.26962 -0.54498 -0.068214 -0.18527 -0.39902 0.68767 0.33293 0.097937 0.086044 -1.0108 -0.22458 0.83269 -0.51373 0.12635 0.024108 0.39344 0.30491 -0.66572 0.019943 1.0019 -0.22584 -0.10128 0.067166 -0.074289 -0.64242 -0.029276 0.91099 0.036901 -0.35539
people.n -0.01536 1.1057 0.44894 0.16572 0.43856 0.40401 0.30694 -0.11458 0.42976 0.25274 1.5857 -0.48287 -0.059449 0.1529 -0.66122 -0.26559 0.98279 0.097791 0.10553 0.48171 0.41794 0.64413 -0.062505 -0.0094627 0.76481 -0.82851 0.70821 -0.44391 -0.27449 0.081754 0.13466 -0.64238 -0.98156 -0.41459 -0.58873 -0.26997 -0.11348 0.39313 0.40867 -0.36656 -0.21871 0.29017 -0.20892 0.42095 0.18145 -0.43684 -0.082703 0.36222 0.54022 -0.33484 0.13714 0.63967 -0.31546 0.5413 0.079485 0.7699 -0.37799 0.024784 -0.54544 0.23367 -0.015062 -0.18584 -0.25405 0.23572 0.29774 0.33933 -0.42133 0.20295 0.11273 0.40459 -0.87712 -0.33189 0.12418 -1.0111 -0.6009 -0.13537 0.43264 0.28263 -0.013135 0.17637 -0.28647 0.10952 0.47533 -0.31687 0.58703 -0.036174 0.22057 -0.16469 -0.69569 -0.71382 0.86488 -0.42823 0.049721 -0.52661 0.41188 -0.20619 0.65581 0.86414 0.10082 -1.169
bus.n 0.18364 0.67759 -0.0637 -0.26646 -0.24752 0.45816 0.11444 -0.13203 -0.60645 1.0045 0.15539 -0.14837 0.10766 0.35896 -1.059 0.67482 0.39578 0.28079 0.73177 -0.61383 -0.69181 0.21052 0.0813 0.33719 0.38191 -0.29905 -0.041129 -0.6378 0.21734 0.055571 -0.81476 -0.73699 -0.36895 -0.17834 -0.92306 0.39427 -0.22238 0.17249 -0.12518 -0.13419 -0.26752 -0.29794 -0.18507 -0.32602 -0.56131 -0.65761 -0.21536 0.30644 0.22916 -0.16426 -0.24756 -0.26532 -0.35263 0.14089 -0.021721 0.068048 -0.43845 0.25393 0.29767 -0.97378 -0.14421 0.28329 0.59181 1.5854 -0.4177 -0.024152 -0.76153 0.74166 0.088594 -0.31629 -0.7 0.22639 -0.39007 -1.2008 0.74255 -0.42303 0.47222 0.54683 0.093573 -0.42259 0.15058 0.04307 0.29168 -0.19962 0.79008 -0.30478 0.59675 -0.4417 -0.27314 -0.68081 0.47779 0.3295 0.13814 0.33129 -0.38906 0.091546 0.6575 1.3215 -0.70677 0.146
floor.n -0.43543 0.55836 0.35502 -0.086026 0.30723 -0.0015045 -0.67559 -0.48243 -0.21466 0.14104 0.40981 0.27135 0.16233 0.25348 -0.84747 0.24252 0.83018 -0.47789 -0.45933 0.15562 0.050426 0.17222 0.2502 -0.20511 0.34382 -0.45608 0.41248 0.3509 -0.45641 0.098018 -0.29307 -0.75433 -0.97931 -0.16454 -0.18 0.10261 0.17373 -0.58351 -0.30266 0.52761 0.18312 -0.021927 -0.70462 -0.6053 0.56668 0.17462 -0.58772 -0.6437 -0.55273 0.01514 0.063981 0.35285 -0.43645 -0.035712 0.66736 -0.038023 -1.5432 -0.035139 0.91772 -0.70966 -1.4048 -0.15679 0.0398 0.29425 -0.96337 -0.099469 -0.084856 0.2741 -0.078504 -0.73053 -0.64599 0.10712 -0.082619 0.13798 -0.5015 0.22762 0.85037 0.51971 -1.0445 -0.52851 -0.90254 0.18265 0.25236 -0.31641 0.35045 0.57148 0.78846 -0.1551 0.011247 0.18726 0.92316 -0.078304 -0.35112 0.089012 0.48743 0.17809 -0.70056 0.59113 0.34096 -0.64945
grass.n 0.34844 -0.4695 0.63686 -0.52577 -0.11315 0.5533 0.43086 -0.0054662 0.029643 0.69841 0.74333 -0.16089 -0.36823 -0.080113 -0.10936 -0.09978 0.52884 -0.30554 0.38292 0.7656 -0.19407 -0.092182 0.6771 -0.073081 -0.0026045 -0.50248 0.31658 0.48017 0.45967 0.81616 0.10939 -0.653 -0.29237 -0.69364 -0.16112 -0.63528 -0.55468 -0.41443 -0.034911 -0.77062 -0.95577 -0.51544 0.27103 0.014636 0.49549 -0.28107 -0.43861 0.091825 0.27233 0.53557 -1.1308 0.70062 -0.92492 -0.41862 0.36578 0.51221 -0.47124 0.07737 0.2247 -1.0514 -0.52689 -0.074006 -0.45426 0.52071 0.35944 0.9224 0.31915 -0.085392 -0.70941 0.21087 -1.0022 0.23487 -0.32685 -0.50882 0.34426 -0.57643 0.54851 -0.41671 -0.7644 0.46628 -0.71413 0.25106 0.84161 -0.79558 1.3088 -0.080378 0.12444 -0.032073 -0.31181 -0.15862 0.6459 -0.2571 -0.54607 -0.34952 0.12048 -0.046486 -0.39652 0.94482 0.39257 -0.51777
house.n 0.14348 -0.055368 0.021375 -0.62548 0.24474 -0.18854 -0.27837 -0.29144 0.55164 1.0183 0.31359 -0.2448 -0.062067 -0.10829 -0.85611 0.33661 0.50882 0.46377 0.3748 -0.092981 0.73835 -0.20653 0.13615 -0.14323 0.45737 -0.62528 0.63242 -0.030667 -0.55924 0.93345 0.19635 -1.1794 -0.75069 -0.5286 -0.038513 -0.60337 -0.97538 0.34929 -0.73099 -0.03605 0.16867 -0.45789 0.49866 0.25295 0.045826 -0.51654 -0.45403 -0.17911 -0.067282 0.31522 -0.22522 0.62047 -0.39 -0.27959 -0.31768 -0.76333 -0.80916 0.41811 -0.17646 -1.1506 -0.67944 -0.26158 0.64487 0.6758 -0.81821 -0.50914 -0.37422 0.33031 0.1167 -0.54643 -1.3863 -0.090097 -0.20305 -0.48697 0.53415 -0.42136 0.19115 0.31384 -0.32387 -0.20415 -0.32602 0.46375 -0.020265 -0.15252 0.082012 -0.27928 0.070856 -0.55599 -0.20266 -0.042122 0.8376 -0.32018 0.014501 -0.19793 -0.41533 0.46618 -0.0097644 0.30249 0.025917 0.039588
brick.n -0.41391 0.20409 -0.045906 -0.46101 0.052999 0.22329 0.20254 0.34801 0.27426 0.68021 0.069044 0.0094561 0.074371 -0.51101 -0.49094 -0.2337 0.64056 0.16237 -0.33685 -0.4308 0.30658 0.42061 0.72272 -0.15972 0.72796 -1.0554 -0.15118 -0.88248 -0.23445 0.25971 0.44937 -0.58328 -1.7069 -0.41541 -0.42722 -0.58622 -0.55414 0.70447 0.0098894 0.20845 -0.97432 -0.059267 -0.40651 -0.13825 -0.0097498 -0.31902 -0.35146 0.5148 -0.26744 0.0075764 -0.20804 0.56288 -0.94772 -0.28589 0.12823 -0.29778 -0.14052 0.36155 0.32974 -1.1771 -0.31324 0.21511 1.0254 0.69372 -0.45436 0.13105 -0.148 1.246 0.21752 -0.025066 -1.3337 -0.27177 -0.38667 0.12144 -0.32839 -0.6006 0.5436 0.37208 0.55578 -0.28411 -0.91214 0.7641 -0.24168 -0.061683 0.53818 -0.64419 -0.18033 0.42745 0.14276 0.096577 0.7708 -0.62166 0.12143 0.24019 -0.34034 0.29104 0.07575 0.90866 -0.35035 -0.32452
train.n 0.12183 0.99024 0.64603 -0.16229 0.32681 0.60615 -0.013662 0.031464 -0.23993 0.31832 -0.44474 -0.51746 0.74409 -0.24124 -0.57541 -0.18496 1.1353 0.50728 0.64862 -0.012329 -0.16927 0.12771 0.16967 0.26615 0.12555 -0.074601 0.46442 0.211 0.21809 0.22942 -0.54593 -0.61344 -0.27957 -0.85597 -0.62992 0.48688 -0.50879 0.37464 -0.11041 -0.29605 -0.016342 -0.020549 -0.23835 0.40702 -0.48818 -1.2794 -0.31033 -0.77958 0.07028 -0.075232 0.19694 0.65345 -0.83991 -0.4375 -0.23566 -0.59652 -0.017686 0.6095 -0.22166 -1.122 -0.36346 -0.22456 0.38529 0.93204 -0.61831 -0.47131 -0.69822 0.51161 -0.28523 -0.36221 -1.1397 0.78001 -0.19171 -0.95434 -0.22608 -0.12402 0.52953 -0.40855 -0.063674 0.22184 -0.53926 0.51636 0.15947 0.43355 0.43551 -0.29508 1.3191 -0.18776 -0.0050826 -0.43671 0.35938 0.20493 -0.40262 0.098895 -0.18293 0.41876 0.25841 0.87299 -0.96213 0.34453
lamp.n 0.46587 0.0024964 -0.15474 -0.25339 -0.11044 0.23801 0.27476 0.37974 0.75145 0.64144 -0.14022 -0.26462 0.14882 0.31011 -0.88383 0.46048 0.50575 -0.50518 0.49411 -0.25188 0.1531 0.81708 0.22629 -0.20189 0.1168 0.38432 -0.018624 -0.13891 -1.0759 0.053726 0.14623 -0.70922 -0.58768 0.092554 0.030252 0.057909 -0.078849 -0.72857 -0.91615 -0.48993 -0.37918 0.35558 0.31849 -0.040817 0.58299 -0.38534 -0.62314 0.16254 0.74208 0.10954 0.46775 -0.64093 -0.63323 0.73613 0.059648 -0.63022 -0.82374 0.2474 0.46501 -0.37986 -0.20942 -0.69071 -0.51899 0.5277 -0.51756 0.38312 0.016682 -0.39428 0.28347 -0.84802 -1.5378 -0.66435 -0.24404 -0.89524 -0.44493 -0.62709 0.78741 0.62224 0.16571 0.684 -0.83107 0.84902 0.37817 -0.74325 1.1934 -1.2061 -0.087169 0.39529 0.090878 -0.052354 0.55459 -1.2908 -0.47073 0.22482 -0.38395 -0.21445 0.10454 0.77321 -0.19992 -0.59289
boat.n 0.10243 0.8195 -0.17699 -0.4175 0.27303 -0.041364 0.24801 0.30448 -0.48481 0.8707 0.76391 -0.64082 0.32567 -0.1081 -1.3739 0.66163 0.37909 -0.36061 0.12266 -0.53486 0.79672 0.26185 -0.35323 0.27889 -0.60148 -0.61643 0.18394 -0.0071396 0.3596 0.86564 0.1983 -1.1027 0.025762 -0.72972 -0.81541 0.5094 -0.46291 0.24992 -0.70075 -0.8206 -0.0084049 0.12493 -0.79238 0.08192 -0.1362 -1.2361 0.46519 0.35324 -0.27174 0.23413 0.58112 0.49809 -0.14048 0.19995 -0.42883 0.63763 -0.56195 1.16 0.37813 -1.446 0.1888 -0.22299 0.4917 0.50858 -0.71862 -0.67375 -0.0081738 0.61886 0.15151 -0.079013 -0.31768 0.37351 -0.051592 -0.23759 -0.32312 -0.093624 0.51444 0.35131 -0.16686 -0.099031 -0.33284 -0.19891 0.6427 0.031931 0.73512 -0.13791 0.15483 -0.14917 0.46918 -0.10124 -0.13716 0.15113 -0.2136 0.22836 0.00091584 0.66571 0.0051249 0.73997 0.42308 -0.25935
truck.n -0.089908 0.49393 -0.46353 -0.77778 0.22521 0.019408 0.68594 0.10164 -0.14121 0.28026 0.0098869 -0.72531 0.23379 -0.12833 -0.79512 -0.41309 0.094605 -0.16271 0.61221 0.095971 0.12292 0.21381 -0.38513 -0.23842 -0.49227 0.017161 -0.095283 0.11782 0.37712 0.96852 -0.6738 -0.75555 -0.55413 -0.33945 -0.56686 0.28884 -0.25859 0.12405 -0.53317 -0.06683 -0.85754 -0.005261 -0.2257 -0.60797 -0.63583 -0.87128 0.29072 -0.42448 -0.043262 0.22591 0.054382 0.51417 -0.58564 0.39454 -0.49754 -0.33912 0.10059 0.52773 -0.0098755 -0.74033 -0.64793 0.013642 0.23671 1.6681 0.30029 -0.20552 -1.0272 0.095778 -0.50292 -0.59893 -0.6228 0.015324 -0.16871 -0.87093 0.81679 0.22652 0.88326 0.49024 0.20898 -0.14897 -0.21274 0.24856 -0.16869 0.058653 0.38431 -1.022 0.22441 -0.37779 -0.14791 -0.29979 0.57033 -0.28542 0.10584 0.18971 -0.27392 0.47035 -0.083279 1.1131 -0.13332 -0.19557
snow.n -0.37373 0.13365 0.073893 -0.33761 0.50892 1.0403 -0.10047 0.18046 0.13575 -0.03258 0.67185 -0.58254 0.35925 -0.5576 -0.56467 -0.47284 0.19066 -0.095779 -0.42093 -0.31999 0.62476 -0.2201 0.23395 -0.13877 0.15688 -0.43607 0.68158 0.35627 0.58245 0.77686 0.15437 -0.6134 -0.66389 -0.55631 -1.129 0.17703 -1.2936 0.023671 0.33072 -0.39161 -1.1447 0.040558 -0.28552 -0.28251 0.5635 0.12238 -0.28555 -0.23487 0.30938 -0.0092379 -0.33506 0.61206 -1.0438 -0.43612 0.09177 0.063901 -0.61209 -0.16077 0.86923 -0.69597 -0.34846 -1.19 1.2417 0.47908 -0.38158 0.92832 -0.17726 -0.17205 -0.34545 -0.55836 -0.32142 -0.056004 0.81616 -1.4644 -0.10027 -0.61076 -0.091195 -0.91549 0.045917 0.10946 -0.54605 0.80202 0.26296 -0.32863 -0.12859 -0.14572 -0.078341 -0.38644 0.11978 -0.22682 -0.25921 0.10518 0.16103 -0.14306 -0.15641 -0.24771 0.54 1.2116 -0.72946 -0.97534
head.n 0.0397 0.19635 0.61312 0.069187 0.39762 0.18459 -0.59511 -0.25083 -0.11943 0.074273 -0.0042128 -0.13342 0.42265 -0.53975 -0.55529 0.2318 0.36714 0.26681 0.45966 1.1608 0.5349 -0.088476 -0.18492 0.30603 0.15736 -0.29907 0.24821 -0.24326 -0.065061 -0.0098111 -0.1169 -0.045219 -0.0010192 -0.46952 -0.52709 -0.30878 -0.75151 -0.77213 -0.21537 -0.31597 0.32505 -0.3802 -1.0132 -0.1473 0.74455 -0.69797 -0.47958 -0.55256 1.0779 0.15236 0.1648 0.19752 0.36322 0.58534 0.35556 0.41598 -0.55841 -0.080797 0.23053 -0.9008 -0.78908 0.0061751 -0.32878 1.2863 -0.0037037 0.73343 -1.4738 -0.55045 -1.1538 -0.97425 -0.50883 -0.86375 -0.31177 0.023915 -0.40778 -0.58122 0.66143 -0.83986 0.62503 0.3956 -0.26026 0.33017 0.54989 -0.60467 0.74079 0.75531 0.13377 -0.41556 -0.45874 0.62526 -0.091421 0.15417 0.064518 -0.22731 0.069384 0.36598 0.25766 0.26514 -0.46652 -0.85307
wood.n -0.34997 0.48911 0.19164 0.27167 0.34903 0.648 -0.50821 -0.16454 0.28333 0.79002 -0.33784 -0.21702 0.47565 -0.19331 -0.3711 0.22282 0.48188 -0.068231 0.033182 1.1208 1.3126 0.096102 0.70172 0.46476 -0.24683 0.090994 0.57765 0.79118 -0.16003 -0.21727 0.033392 -0.85176 -1.3169 -0.24577 -0.27065 0.48109 -0.011471 1.0021 0.2728 -0.083091 -0.052972 0.022241 -0.62135 -0.5689 0.1944 -0.15558 -0.48733 0.17722 -0.4683 -0.13064 -0.11451 -0.64739 -0.90538 0.24971 -0.77979 -0.30148 -0.71862 0.58036 0.47146 -1.2182 -0.42757 -0.016019 -0.60888 0.803 -0.13096 0.29884 -0.27675 0.15339 0.39841 -0.22632 -0.51164 0.1067 -0.069005 -0.23662 -0.030969 -0.33509 0.67245 -0.10538 -0.30652 0.25071 -1.1138 0.43618 0.20734 0.1191 0.63848 -0.2655 -0.76562 -0.12797 0.019738 0.16224 0.77291 -0.49409 -0.13933 -0.37541 -0.59043 0.054829 -0.60097 0.28879 -0.016939 -0.43707
hair.n 0.70475 0.32952 0.79866 0.33119 -0.47799 0.37522 -0.29989 -0.56793 -0.3956 0.50635 0.13321 -0.23135 0.15539 -1.5168 -1.0369 0.95347 -0.4689 0.0071018 -0.062167 0.75269 -0.3524 0.85219 -0.0079306 0.25328 -0.27419 -0.29862 -0.22932 -0.026192 -0.081965 0.068744 0.4032 -0.75637 -1.1522 -0.028169 0.44435 0.23889 -0.52971 0.10784 -0.68281 0.016638 0.37091 0.29628 -1.2413 0.1428 0.30645 -0.18886 -0.70439 0.048423 1.0171 -0.36709 0.37205 0.22329 -1.4988 0.098929 0.24981 0.26172 -0.42438 0.28307 0.091097 -1.5583 -0.58114 0.7197 -0.17548 0.83925 -0.084718 0.48114 -0.4816 0.11412 -1.0367 -0.46422 -0.070444 -0.37845 -0.39423 -0.91855 -0.079823 0.27961 -0.11541 -0.66915 -0.27773 -0.30678 -0.61904 0.81876 0.41657 -0.56412 0.40341 -0.77642 0.014101 -0.41335 -1.2563 0.655 -0.098608 0.031651 0.60336 0.28068 0.01848 -0.10244 0.091818 0.15719 0.091705 -0.37516
picture.n -1.326 0.26778 0.23112 0.27376 -0.49589 0.15537 0.40797 -0.27671 -0.10187 0.34626 0.25905 0.16696 0.22936 -0.44614 -0.76109 -0.58587 0.025502 0.36177 0.24288 -0.075195 0.45892 0.56248 0.58577 -0.27346 0.23065 -0.41825 -0.067292 0.19834 -0.43835 0.67026 -0.13118 -1.2383 -0.38807 0.13967 -0.0092951 0.47887 -0.34697 0.64894 -0.2722 -0.64107 -1.0283 -0.3556 0.27587 -0.13179 0.75334 -0.54466 -0.66867 -0.025936 0.97201 0.23187 0.77297 -0.04558 0.0020902 0.33154 -0.39633 -0.078565 -0.70304 0.63845 -0.028218 -0.17197 -0.16787 0.066156 -0.1676 0.50449 0.34752 -0.015886 -0.019793 0.21671 0.37223 0.1887 -0.44812 -0.81552 -0.55217 -0.22116 -0.5784 -0.42418 0.95593 -0.35626 0.28598 -0.64968 0.0011896 0.4967 1.59 -0.37046 0.72937 -0.75021 0.10394 -0.35163 -0.86632 -0.042298 0.24761 -0.8371 -0.13379 -0.30862 -0.425 0.12183 -0.03948 0.37823 0.50798 -0.25108
fence.n 0.012754 0.27898 -0.40235 -0.58622 -0.034233 0.92132 -0.30068 -0.18509 -0.10859 0.31445 0.30699 -0.37513 0.30857 -0.13914 0.26122 -0.1197 0.67993 0.34613 0.7461 -0.49865 -0.03621 -0.082911 -0.32602 -0.13634 0.15897 -0.58993 0.11608 0.66797 -0.02583 0.15142 0.55718 -0.60287 -1.1564 -0.39117 0.31515 -0.53698 -0.52674 0.3357 -0.81053 -0.59638 -0.39709 0.37891 0.31333 0.80986 0.65828 -1.1824 -0.20163 0.038259 0.083385 0.15803 -0.039202 0.071087 -0.69268 0.31823 0.69668 0.069018 -0.78863 0.69385 -0.3883 -1.1976 -0.3547 0.21341 0.45789 -0.00070231 -0.15742 0.29526 0.20723 -0.020588 -0.20485 -0.72452 -0.93303 0.47412 -0.33998 -0.65087 0.083829 -0.15059 0.31576 -0.77738 -0.28748 0.61029 -0.93807 0.38811 0.16517 -0.18277 0.82697 0.12124 0.15665 -0.10712 -0.18313 -0.29857 0.91043 -0.57511 0.040356 -0.098163 -0.73258 0.24602 0.026529 0.84311 0.51132 -0.29551
computer.n -0.34388 0.87485 0.45522 0.30954 -0.56312 0.048625 0.91178 -0.43401 -0.31102 0.36051 -0.22986 0.095157 1.1093 -0.14888 0.15537 -0.28501 -0.022913 0.09106 -0.33408 -0.60718 0.49764 0.70742 0.29838 0.12509 0.39656 -0.29853 0.12925 0.057558 -0.4587 -0.50671 -0.60637 -1.0713 -0.84325 -0.42419 -0.29734 0.068428 0.06504 0.35191 -0.27642 -0.57809 0.12312 0.19868 -0.22269 -0.60773 0.86184 -0.75175 0.032672 -0.54479 0.25752 -0.11496 0.13067 0.27391 -0.56229 1.1405 -0.4875 0.27246 -0.29255 -0.36299 0.32437 -0.3141 -0.54566 -0.75869 0.31356 0.44414 -1.5895 0.53966 0.15475 -0.13245 -0.47603 -1.1332 -1.0092 -1.0793 0.34932 -0.43629 0.28104 -0.58083 0.30569 -0.070696 -0.065762 -0.52801 -0.86053 -0.28824 0.64181 -0.70434 0.48989 -1.3174 0.36177 0.014966 -0.52685 -0.020855 0.55037 -0.67118 -0.89594 -0.23408 0.55417 0.2126 0.16693 0.19871 -0.4343 -0.2142
jacket.n 0.13116 -0.37846 0.23223 0.057506 -0.077988 0.40726 -0.037112 0.30472 -0.97939 0.59333 0.75885 -0.10191 0.2919 -0.81682 -0.74157 0.61474 0.58742 -0.27897 0.26362 -0.63782 -0.40947 0.30042 -0.25749 1.1283 0.048828 -0.65547 0.10512 -0.36871 0.27699 0.51205 -0.22099 -0.32052 -0.83734 0.018451 -0.18903 0.31064 -0.50732 0.46572 -0.58766 -0.85139 -0.48036 0.67611 -0.50171 -0.32832 0.5035 -0.51603 0.33998 -0.11491 0.97292 -0.69542 0.087696 0.50447 -0.83578 0.18472 -0.21391 0.074033 -0.19845 0.085861 -0.4805 -0.95647 -0.67514 -0.032889 0.29452 0.6041 -0.28673 0.86339 -1.2341 0.47519 -0.27026 -0.46618 -0.36283 -0.57369 0.23445 -0.72252 0.10903 -0.3591 0.065264 -0.049765 0.79452 -0.3554 -0.71197 0.21861 0.96559 0.08673 0.45691 -0.12582 0.1998 -0.60169 -0.34215 0.032655 0.20006 -0.50648 0.016615 0.17808 -0.18793 0.060383 -0.052284 0.27213 -0.33986 -0.70467
bed.n 0.12639 -0.29885 -0.44395 -0.13372 0.23936 0.058506 -0.51778 -0.261 -0.50551 0.080138 0.27708 0.086876 0.018013 -0.17599 -0.053139 0.81748 0.87335 0.10768 0.45588 0.11111 1.0308 0.065824 -0.19231 0.13499 -0.60207 0.2485 1.5167 -0.092415 -0.10208 -0.077999 -0.6872 -0.22513 -0.41361 0.087874 -0.82197 0.78884 -0.31575 -0.086665 -0.42408 -0.5206 -0.35945 0.41125 -0.10553 -0.71706 0.79849 -0.79434 -0.086174 -0.7602 0.71468 0.30899 0.085058 0.81309 -0.36164 -0.09952 0.11946 -0.15253 -1.3941 -0.31282 0.80468 -0.45735 -0.37642 -0.95454 0.23597 0.52329 -0.08307 0.066755 0.81352 -0.14802 -0.26523 -0.98996 -0.91729 -0.34553 -1.1943 0.033977 -0.073088 -0.87405 1.2262 0.3255 -0.98237 -0.17466 -0.85371 1.0412 0.70748 -0.17996 1.2752 -0.76961 -0.23871 -0.25728 -0.1818 0.61991 0.74143 -0.48224 -0.22783 0.91689 -0.34717 -0.50374 -0.074934 0.32949 -0.064684 -0.021184
bottle.n -0.29446 0.71138 0.26044 -0.33737 -0.25849 -0.025172 -0.03754 0.54348 0.095614 0.98755 1.1206 0.79069 0.4413 -0.8821 -1.2205 1.1912 0.015984 -0.67912 0.12596 0.38127 0.28086 1.2116 -0.19835 -0.10033 0.1328 -0.45707 0.62787 0.40768 -0.1638 -0.10084 -0.16524 -0.40584 -0.34838 -0.34924 0.11144 0.72402 -0.29594 0.060387 0.33117 -0.77594 -0.33637 -0.56555 -0.24181 0.0083629 -0.35434 0.51667 -0.6181 -0.54287 0.54924 -0.57072 -0.43772 0.047229 0.40343 0.94673 -0.46337 -0.47251 -0.13701 0.52452 0.16521 -1.0899 -0.23491 0.21529 0.55737 1.0081 -0.026462 -0.11786 -0.049674 0.22523 -1.2116 -1.0861 -0.73198 -0.17458 0.67806 -1.1893 -0.2513 -0.2455 0.20656 0.13107 0.070966 -0.13892 0.058689 -0.091032 1.9808 -0.70512 0.54819 -0.59316 0.31774 0.64577 0.055112 -0.31002 -0.17385 -0.013264 0.25535 -0.023207 0.25157 -0.3655 -0.71581 0.49843 0.68725 -0.21325
field.n 0.089086 -0.45562 0.32041 0.19514 -0.10748 0.34969 1.1017 -0.20421 -0.16491 0.18354 -0.12317 -0.24288 -0.10505 -0.30284 -0.31928 -0.38212 0.62369 -0.50548 0.36605 0.604 0.36687 -0.5539 -0.30027 0.10518 0.60404 -1.1094 0.22899 0.27677 -0.067974 0.50748 -0.21964 -0.99808 -0.20816 -0.49945 -0.47522 -0.67076 -0.20392 -0.14584 -0.49542 -1.0483 -0.85697 -0.73567 -0.075666 0.85502 0.69023 -0.38126 -0.099892 0.18743 0.69729 0.050545 -0.91137 0.57393 -1.135 -0.58428 -0.0049145 -0.46671 -0.51945 0.28033 -0.38079 -1.2156 -0.73213 -0.40455 -0.23835 0.35009 0.35981 0.76654 -0.12265 0.047959 -0.39977 -0.67726 -0.70035 -0.15573 -0.67656 -0.62906 0.10545 -0.040975 0.99932 -0.89806 -0.30308 0.15128 -0.055983 -0.74887 0.9116 -0.92267 0.81327 0.35234 -0.12539 -0.28275 0.11645 -0.26069 0.96024 -0.11835 -0.81402 -0.51892 -0.24724 -0.21038 0.50663 0.57058 0.33421 -0.53483
bag.n -0.35875 0.69616 0.038784 -0.64311 -0.44903 0.014345 -0.1838 -0.27847 -0.77331 0.86548 0.90948 0.52581 0.34453 -0.45212 -0.38152 0.21018 0.89041 -0.48523 -0.11241 0.45965 -0.37192 -0.30446 -0.60018 0.3777 0.76205 0.023183 0.12765 -0.12802 0.027811 0.64689 -0.45813 -0.60714 -0.94767 0.082417 -0.38044 -0.092081 -0.47327 0.42777 -0.22466 -0.25999 -0.8964 0.75398 -0.24438 -0.52374 0.6336 0.21246 0.30476 -0.96022 0.41697 -0.69764 0.31013 0.10699 -0.10035 1.0344 0.24032 -0.69321 -0.33922 -0.21261 -0.61727 -0.31748 -0.28423 0.2206 -0.019759 0.98461 0.48106 0.31129 -0.81894 -0.4185 -0.29778 -0.3335 -0.58335 -0.84463 -0.045805 -0.25883 0.54811 -0.63428 0.51614 0.15584 0.1936 -0.1722 -0.65064 -0.32539 1.4577 0.064409 0.12762 -1.2899 0.71508 -0.36822 -0.44891 0.72796 -0.074363 0.39541 -0.34603 0.47302 0.011501 0.18856 -0.79849 0.45405 0.18518 -0.82377
line.n 0.063172 0.51195 -0.25805 -0.57811 -0.020765 0.77801 0.80655 -0.50504 -0.012851 0.8265 0.30192 -0.1075 -1.0497 -0.035523 -0.45574 0.309 0.48242 0.015291 0.4836 0.58171 -0.066082 0.50628 0.063701 0.89435 0.29578 -0.67595 -0.058501 -0.2156 -0.35431 0.21601 0.2675 -0.59537 -1.1125 0.30283 -0.22449 0.072236 -0.61655 0.50122 -0.61447 -0.56638 0.061375 0.774 0.62872 0.37306 0.36977 -0.89171 -0.64989 0.47992 -1.0045 0.33493 -0.1291 0.36078 -0.34456 -0.081469 0.12048 -0.55161 -0.57353 0.064289 -0.41791 -0.65296 -0.56029 0.05956 0.39128 0.30539 -0.67919 0.94446 -0.88607 -0.10714 0.33218 -0.30851 0.052793 -0.2849 0.56109 -1.0037 -0.33398 0.3733 1.3728 -0.023384 0.28908 -0.11301 -0.3848 0.36985 0.46234 -0.83587 0.27467 -0.40216 0.14629 -0.44073 0.0038065 -0.27353 0.16598 0.9566 -0.20283 0.218 -1.0163 -0.18532 0.40679 1.0509 0.90217 0.048279
hand.n 0.039642 0.41657 0.27297 0.323 -0.43935 -0.53786 -0.69739 0.075534 -0.080797 0.35955 0.98073 0.14882 0.35576 -0.66764 -0.47559 -0.51597 0.21735 0.62812 0.2519 0.60257 0.26411 0.74172 0.16762 0.61139 -0.5499 -0.6357 0.3182 0.58273 0.10451 0.49884 -0.21615 -0.7578 -0.55141 -0.5504 -0.22638 0.60136 -0.34452 -0.20621 -0.086903 -0.61522 0.36385 -0.095798 -0.43875 -0.3134 0.39427 -0.56954 0.15816 0.042918 1.4111 -0.40245 -0.69923 0.077174 -0.26944 0.57891 0.77217 0.18163 -0.30612 0.11676 -0.12889 -1.1862 0.59042 0.26124 0.77198 -0.11176 0.38468 0.13132 -0.79288 0.0011985 0.38472 -0.39647 -0.23079 -0.65274 -0.64296 -0.56345 -0.33603 0.7275 0.74917 -0.67053 -0.40726 0.38207 -0.28916 0.33175 1.1727 -0.34311 -0.060225 0.22015 0.27325 -0.21438 -0.9954 0.66168 -0.1476 0.63637 -0.20283 -0.050604 -1.2688 0.49489 -0.70154 1.0153 -0.064945 -0.47227
roof.n -0.22719 0.82928 -0.79861 0.0748 0.75522 0.088032 -0.56678 0.12661 0.58816 0.58356 0.43564 -0.29005 -0.30763 0.028133 -0.19507 0.5239 -0.25707 -0.28191 0.49018 -0.15721 -0.15667 -0.54036 0.48272 -0.23976 0.083523 -1.3827 -0.091258 -0.096094 0.21605 -0.27112 0.14614 -0.44867 -1.2008 -0.45559 0.084638 -0.19218 -0.3637 -0.22346 -0.83183 0.27087 -0.40445 -0.12819 0.0077146 -0.32638 0.13271 -0.25762 0.035962 -0.73125 -0.31791 0.2524 -0.3914 0.31498 -0.39636 -0.75368 0.13722 0.061444 -1.085 0.33655 1.0313 -1.0348 -0.69748 -0.096536 0.71419 0.4878 -1.0442 -0.23591 -0.83234 0.70415 -0.29776 -0.30352 -1.2477 0.28021 -0.12565 -0.95273 -0.86208 -0.73731 0.22612 -0.74373 -0.21564 0.00061 -0.68075 0.076721 -0.14341 -0.025372 -0.79074 -0.52656 0.42601 0.053859 0.076905 0.60744 1.3146 -0.29682 -0.033464 0.18199 -0.53972 0.4186 -0.22053 0.67476 0.51919 -0.69195
traffic.n 0.34687 0.86646 0.10715 0.56332 -0.16394 0.54381 0.44223 0.51065 -0.059735 0.37399 0.37573 -0.48667 -0.5191 -0.0029644 -0.44066 -0.082426 0.47861 -0.31536 0.33795 0.045073 -0.34216 0.90021 0.24967 -0.00064084 0.587 0.37323 -0.35475 -0.17241 -0.42286 -0.57379 0.021689 -0.45476 -0.29609 -0.027198 -0.097124 -0.58844 0.090495 0.12946 -0.11248 0.067147 -0.2026 -0.052871 0.59458 0.048646 0.040997 -1.3404 0.29461 0.12507 0.4848 0.19696 0.34483 -0.24232 -0.7405 -0.30715 0.19393 -0.094218 -0.57961 -0.70819 1.0774 -1.3984 -0.95562 0.023798 0.15178 0.27389 -0.11397 0.17779 -1.1933 0.28192 -0.25442 0.067754 -1.2854 0.27642 -0.31485 -1.2518 -0.10769 -0.53892 0.8901 -0.78494 0.24141 0.52154 -1.2962 0.24917 0.73931 -0.20585 1.1093 -0.47056 0.91719 -0.45589 0.014505 -0.55555 0.55256 -0.47669 -0.4852 0.33517 -0.13123 0.54159 0.086912 1.2193 -0.27053 -0.31949
hat.n 0.066853 0.0030436 0.35035 0.279 -0.1928 0.67982 -0.0015222 0.6162 -0.26994 0.85398 0.81112 0.07296 0.37112 -0.35879 -0.41902 0.75063 0.1423 -0.37557 -0.13152 0.1937 0.19679 0.35159 0.041071 -0.30422 -0.11176 -0.59 -0.25071 0.6236 0.68661 0.80956 -0.22074 -0.44546 -0.78932 0.22349 0.06037 0.0094958 -0.42739 -0.021562 -0.90342 -0.57377 -0.21275 -0.021075 -0.859 0.15919 0.43067 -0.28399 0.14344 -0.4386 0.98156 -0.11778 -0.23495 0.3245 -0.72639 -0.11003 -0.32663 0.38814 -0.61882 0.17552 0.28946 -0.87454 -0.30597 0.55673 0.14897 0.58054 0.039454 0.55221 -1.414 0.47536 -0.59142 -0.37606 -0.16067 -1.2334 -0.10652 -0.65366 -0.47415 0.023064 -0.083671 -0.63036 -0.2098 -0.7655 -0.28379 -0.21954 0.74263 0.28222 0.23821 -0.40897 -0.11177 -0.75007 0.47184 -0.17459 -0.52986 -0.50645 0.26441 -0.069468 -0.1567 0.34965 -0.60335 0.6819 -0.56429 -0.59116
plant.n -0.30424 0.26704 -0.10016 -0.21003 -0.91126 -0.49861 -0.023221 0.18874 0.56231 1.0021 1.2443 -0.07832 -0.74021 -0.14041 -0.55575 0.33836 0.76524 0.12577 -0.41646 1.0239 -0.10889 0.52234 0.13575 -0.80126 0.185 -0.58724 -0.063476 -0.17103 -0.39571 0.61714 0.33011 -0.31059 -1.7237 -0.22432 -0.30496 0.65885 -0.15442 -0.17806 -0.22676 -0.198 -0.5498 0.34724 -0.36589 -0.042863 0.34062 -0.7627 -0.43226 -0.080988 0.1568 1.2492 -0.33564 -0.25145 -0.51882 0.10585 -0.75821 -0.83053 -0.23395 0.55606 -0.0071395 -0.92459 -0.32017 -0.39004 0.11744 0.55635 0.021578 0.098612 -0.47179 0.759 0.41717 -1.0651 -1.3396 0.3331 -0.34721 0.037764 -0.13789 -0.45132 0.10756 -0.038483 -0.25539 -0.5402 0.069506 1.0307 0.49078 -0.86227 1.231 -0.70542 0.60504 0.065535 -0.040213 -0.38212 0.98997 0.61242 -0.89039 -0.077863 -0.12498 0.22246 -0.87927 -0.0087899 -0.065956 -0.38236
girl.n 0.39724 0.55729 0.47778 0.56307 0.3063 0.5003 -0.037644 0.31685 -0.081959 0.29654 0.56241 -0.068454 0.20546 -1.1828 -1.1467 0.25457 0.69624 -0.1701 -0.039193 0.1622 0.48829 0.83759 -0.92514 -0.26047 0.41508 -0.48336 0.40617 -0.20682 -0.013387 0.42708 0.02287 -0.27945 -0.89742 -0.074669 0.13746 0.13757 -0.97823 0.10453 -0.82724 -0.42701 0.42451 0.057274 0.044334 -0.45595 0.36505 0.047085 -0.14606 0.059348 1.1265 -0.42114 -0.21882 0.68547 -0.6498 0.196 0.037735 0.62628 -0.76059 0.12695 -0.30043 -0.19589 0.23092 -0.46864 -0.39437 0.51982 0.38612 0.056335 -0.46855 -0.1246 0.17429 -0.49403 -0.45926 -0.23472 -0.0013699 -0.87419 -0.19851 0.17393 -0.030411 -0.18026 -0.22475 -0.47543 -0.13883 0.79182 0.31451 -0.42808 0.79265 0.041537 -0.21061 -0.59469 -0.56138 0.039102 0.85263 0.023568 0.34744 0.34783 -0.016056 -0.50644 -0.23484 0.32854 -0.25276 -1.295
room.n -0.20912 0.34684 -0.32443 1.0346 -0.64084 -0.20831 0.37742 0.3006 0.10463 0.86858 0.49914 -0.19669 -0.057235 0.099009 -0.48498 0.31762 0.031237 0.40342 -0.0060685 0.27514 0.44406 0.45052 0.32075 0.54195 0.25262 -0.62247 0.54381 -0.24533 -0.99424 -0.072678 -0.43279 -0.92627 -0.8737 0.27232 -0.42142 0.33732 -0.27328 -0.19178 -0.096987 0.4206 -0.25631 -0.13272 -0.6058 -0.468 0.27651 -0.21862 0.12707 -0.16339 0.13539 -0.43362 -0.067478 -0.45283 -0.5107 -0.68104 -0.1698 -1.2489 -1.7367 -0.28506 -0.2972 -1.167 -1.316 -0.14295 0.098047 0.58513 -0.40506 0.43539 -0.12749 0.6083 0.43119 -0.41409 -0.16872 -0.16594 -0.43035 -0.57067 -0.60644 -0.77263 1.0223 -0.27984 -0.6932 -0.28957 -0.57856 0.17514 0.61275 0.0057996 0.62379 -0.45402 -0.018423 -0.49877 -0.5525 0.5 0.94849 -0.50724 -0.084879 -0.5123 0.051874 0.69899 0.4838 -0.18794 0.40362 -0.18457
flower.n -0.40938 0.3351 -0.33724 -0.012346 0.30813 -0.47355 -0.29715 -0.13116 0.44372 1.4529 0.47445 0.75269 -0.4319 -0.39922 -0.45992 0.13451 1.121 -0.11345 -0.3279 0.18682 0.13508 0.36974 -0.32236 -0.58943 0.32687 -0.72961 0.35646 -0.72186 -1.0747 1.6208 0.46515 -0.05936 -1.0522 0.020616 -0.33072 0.36803 -0.0114 -0.65209 0.021691 -0.08669 -0.12736 0.76587 -0.61 -0.34053 0.83206 -1.0402 -0.81157 0.22863 0.5131 0.36624 -0.1583 0.58519 -0.42947 0.18941 -0.61083 -0.8817 -0.46042 -0.26344 0.60702 -0.78807 -0.68709 -0.16855 0.37013 0.065837 0.14376 -0.22665 -0.57004 0.041662 0.22965 -1.0303 -0.63302 0.2627 -0.5003 -0.38846 0.58337 -0.22219 -0.26126 -0.34521 -0.95305 0.44348 -0.46126 0.183 0.61443 -1.0806 1.0429 -0.19152 0.36896 0.20119 -0.20461 0.14922 0.79616 0.34471 -0.22672 0.20186 0.12531 -0.69188 -0.47915 0.34859 -0.39243 -0.10908
umbrella.n -0.33518 0.11068 0.65663 -0.0057053 0.42695 -0.27423 0.0013797 0.22938 0.1041 0.3798 1.4408 -0.10268 0.73396 -0.25882 -0.45278 0.24494 1.3418 -0.037581 0.15407 -0.50136 -0.46702 0.26048 0.099624 -0.15457 0.071833 -0.3285 -0.14706 -0.037265 -0.22327 -0.091853 0.65504 -0.98894 -0.48011 -0.93179 -0.39046 0.7213 0.063405 0.21097 -0.74142 -0.39829 -0.73251 0.88018 0.17535 -0.23437 0.65626 -0.011717 0.14288 0.12064 0.38692 -0.48498 0.24089 0.2156 -0.43189 -0.23436 -0.47064 -0.4379 -0.12911 -0.095806 0.48257 -0.31692 -0.85766 0.015239 -0.11995 0.56489 -0.36757 -0.39906 -1.392 0.057906 0.13723 0.15835 -0.33595 -0.5777 -0.18376 -0.34404 0.067096 -0.65915 -0.34258 0.41049 -0.13655 0.41295 -0.40537 -0.46902 1.2094 -0.7531 0.91717 -1.0242 -0.21872 -0.30144 -0.17694 0.13702 0.11154 -0.10841 -0.095498 -0.35058 0.098379 -0.29644 -0.53126 1.074 0.12383 -1.5877
color.n -0.75924 -0.15263 0.57163 -0.057887 1.2476 -0.58169 0.3762 -0.34029 0.14439 0.070302 -0.006703 1.062 0.78709 -0.2031 -0.50934 0.016692 -0.68089 -0.57255 -0.11468 -0.34265 0.52963 0.14382 0.062115 0.71469 0.14393 -0.50217 0.072069 0.40885 0.27743 0.12711 -0.030011 -0.45494 -0.95295 0.23331 -0.71154 -0.16415 -0.089935 0.050121 -0.43569 -0.47855 0.49912 0.72911 0.40404 -0.79034 0.31435 -0.33028 0.36733 0.8828 0.43555 0.16603 -0.12199 0.64507 -0.42464 -0.19539 -0.0040413 -0.68212 -0.57461 0.52417 -0.070536 -1.1433 -0.31032 0.0065209 0.29642 0.59966 0.45038 0.026249 -0.23955 0.51941 -0.030842 -0.72683 -0.21829 0.54018 -0.41347 -0.40618 -0.77122 -0.20413 0.8345 -0.14779 0.037549 -0.35907 -0.40601 0.54205 0.77686 -0.00040775 0.39038 -0.38858 0.28975 -0.53441 -0.1504 -0.14012 0.34754 -0.29894 -0.2027 -0.56533 -0.48156 -0.79288 -0.085149 0.4513 0.10819 -0.54248
bench.n 0.19567 0.75316 0.97131 -0.26119 -0.69761 0.49314 -0.92794 -0.6251 0.040621 0.13876 0.45139 -0.11042 0.68292 0.041626 0.015506 0.36293 1.1318 0.20909 0.036331 0.2858 0.24915 0.70375 -0.10977 0.17195 -0.31872 -0.15968 -0.31288 0.16567 -0.27813 0.38156 0.08701 -1.0296 -0.95786 -0.26559 -0.36242 0.086632 -0.50733 0.6273 -0.33974 0.067519 -0.79201 0.18443 0.083442 0.32162 -0.16326 -0.49205 -0.60635 -0.059246 0.19933 -0.070585 0.48105 0.70298 -0.50367 0.96507 0.10999 0.38799 -1.2694 0.49255 0.50741 -0.55399 -0.3865 0.058541 0.15929 0.26741 0.092657 0.48591 0.17299 0.75095 -0.52799 -0.2896 -0.95642 -0.0014428 -0.61363 -0.034825 0.19243 -0.14401 0.22918 -0.0095803 -0.17949 0.68424 0.00024046 -0.048116 0.26075 -0.095203 0.85566 -0.1818 0.35314 -0.61765 -0.36139 0.03736 0.87376 -0.089677 -0.24788 -0.21687 0.22266 -0.20037 -0.076076 0.65466 0.066705 -0.50893
van.n -0.14354 0.83682 -0.22063 -0.57699 -0.21864 0.35898 0.087641 0.13683 0.0023002 0.33502 -0.06903 -0.22449 0.21027 0.4369 -0.87847 0.41495 -0.057202 0.062866 0.41337 -0.4387 -0.18587 0.71605 -0.85383 -0.33005 -0.19994 -0.12834 0.29944 -0.056228 0.20584 0.65865 -0.99431 -0.87921 -0.56267 -0.29608 -0.73302 0.15089 -0.4385 -0.20372 -0.91272 -0.15592 -0.48988 0.3241 0.38725 -0.42565 -0.25127 -0.55871 0.37755 -0.28013 0.096542 -0.092393 -0.05442 0.016898 -0.77834 -0.14722 -0.11052 -0.16157 -0.065049 0.85436 0.45386 -0.59162 -0.81972 0.33079 0.63152 0.87711 -0.45245 0.041751 -0.52582 0.75847 -0.71017 -0.88142 -0.36479 -0.068053 0.10145 -0.63401 0.81768 -0.10293 0.84814 0.1631 -0.093428 -0.14872 -0.045023 0.086705 0.32754 -0.10206 0.66009 -0.91569 0.39283 -0.29976 -0.25309 -0.29042 0.77389 -0.29275 0.030078 -0.16286 -0.46917 -0.1605 0.7352 1.0532 -0.28694 -0.31994
ceiling.n -0.22289 0.2351 -0.090905 0.41826 0.030639 0.54875 0.41088 -0.30157 0.23724 0.92195 0.15455 0.049933 0.19059 0.0024935 -0.91512 0.11645 -0.26781 -0.23888 0.25235 0.8293 0.30091 0.46978 0.58436 -0.36623 0.39185 -0.45237 0.67115 0.14406 -1.124 0.029336 0.34408 -0.94199 -0.29395 -0.53055 0.24512 -0.0467 0.20446 -0.11862 -0.39098 0.85679 -0.2095 -0.30303 -0.43693 -0.49104 0.48805 -0.82497 -0.22549 -0.88327 -0.58533 0.99924 0.48067 -0.13817 0.44998 -0.31593 0.87248 -0.96059 -0.79776 0.037507 0.74024 -1.3046 -0.36945 -0.86408 -0.50019 0.99648 -0.47123 0.036803 -0.9744 0.8782 0.091745 -0.31332 -0.45735 0.12728 -0.50598 -0.86339 -0.42927 -0.42275 0.65277 0.025045 0.35713 -0.087089 -1.1297 0.10745 0.5385 -0.80762 0.094666 -0.090885 0.77916 -0.18324 -0.16307 0.76163 1.1941 -0.61535 -0.55846 0.46389 0.034815 0.59511 -0.32479 0.4676 0.13207 -0.53281
city.n 0.30704 0.55575 -0.12675 -0.32714 -0.44694 -0.06642 0.2202 0.52901 -0.022884 0.10673 -0.13814 0.019302 -0.87872 0.32642 -0.53491 -0.4052 -0.11686 0.057019 -0.21123 -0.2485 0.029523 0.29148 0.66278 -0.18091 0.41936 -0.85125 0.1087 -0.89816 -0.8193 0.43742 -0.41642 -0.84523 -0.33561 -0.99693 -0.9449 -0.46075 -0.18769 0.90455 -0.14187 -0.9658 -0.80034 -0.65439 -0.73066 -0.017658 0.16479 -0.40583 -0.5883 0.29829 0.73259 -0.29717 0.38161 0.55712 -0.79954 -0.10771 0.24829 0.039988 -0.42739 0.049171 0.23051 -0.58156 -1.038 -0.36387 0.47187 0.54141 -0.4405 0.57054 -1.0454 0.78578 -0.047337 -0.35581 -1.3921 -0.055905 0.037965 -1.3813 0.12102 -0.46157 0.71386 0.6748 0.54758 0.058302 -0.67986 -0.36337 0.60005 0.025041 1.2738 -0.17591 -0.27517 -0.25701 0.76112 -0.55554 0.51564 0.23444 -0.027737 0.074228 -0.062379 -1.05 0.35741 0.65017 0.034748 -0.73713
tile.n -0.84393 0.098489 -0.56465 -0.46809 -0.015449 -0.11291 -0.69583 0.33187 0.27792 0.38375 0.44965 -0.27105 -0.21076 -0.85549 -1.1726 0.10267 0.39399 -0.67869 -0.17202 0.15505 -0.027002 0.6231 -0.030207 -0.28817 0.73335 -0.90217 -0.24174 0.077226 -0.089543 0.71652 0.20161 -0.13991 -1.409 -0.22832 -0.56781 0.075381 0.1373 0.16307 0.028531 -0.66505 0.054851 -0.25144 -0.70247 -0.8536 0.37877 0.38582 -0.40288 0.95644 -0.38725 -0.18569 0.83567 0.47644 -0.89237 -0.37107 0.49165 -0.78139 -0.78388 0.36765 -0.13348 -1.0059 -0.37917 -0.62805 0.31919 0.95704 -0.99166 0.22602 -0.38967 1.2183 0.045062 -0.23707 -0.78961 -1.0079 0.22564 -0.71027 -0.1286 -0.32588 0.99062 -0.53314 -0.46115 -0.768 -1.0488 0.81215 0.49125 -0.06915 0.58247 -0.30212 0.30806 0.16066 0.22486 0.28735 1.1894 -1.007 -0.53945 0.31637 0.39153 0.43404 -0.49175 0.090804 0.085021 -1.0167
paper.n 0.0074751 0.85172 0.048248 -0.032312 -0.042862 -0.25597 -0.11116 -0.20565 -0.34731 0.70214 0.24414 -0.25393 0.21419 -0.62668 -0.033381 -0.56783 0.40065 -0.26159 -0.37561 0.38216 0.42755 0.33177 0.30797 -0.013034 0.14796 -0.25455 0.028809 0.18034 0.3188 0.77467 -0.32287 -0.46587 -1.4028 0.29026 -0.42961 1.2774 -0.41771 -0.31303 -0.23213 -1.1184 -0.096582 -0.13304 -0.37341 -0.58451 -0.044084 -0.83103 0.012556 -0.035236 0.32759 -0.72006 0.27162 0.105 -0.0039606 0.68526 -0.61963 -1.0094 -0.9585 -0.44895 0.47608 0.25599 0.19424 0.059868 -0.11699 0.37933 -0.79721 0.084581 0.36167 0.68124 -0.24378 -0.38519 -0.27508 -0.58607 -0.39201 -1.0333 0.61619 -0.61482 0.25636 0.070113 -0.34465 0.22965 -0.8036 0.89499 0.8472 -0.3618 0.12386 -1.0151 0.60217 -0.9906 -0.12432 0.45868 0.11831 0.20601 -0.07931 0.55974 -0.051331 -0.27703 -1.112 0.74096 0.23601 -0.20699
book.n -0.21066 0.88373 0.14791 0.85932 -0.65739 -0.05406 0.21637 0.047828 -0.22739 -0.28856 0.072333 -0.062017 -0.27924 -0.41448 -0.61831 0.59618 0.75131 -0.50054 0.075985 -0.12493 0.86296 0.98483 0.065534 -0.097275 0.15848 -0.12358 0.67517 0.71772 0.33612 0.28118 -0.24193 -0.16219 -1.7789 -0.15672 -0.37526 0.70323 0.12176 -0.050689 -0.7657 -0.7868 -0.32309 -0.36607 -0.34176 0.0242 0.27674 -0.3025 -0.34463 -0.45314 0.73636 -0.93335 -0.40641 -0.19278 0.38507 0.33102 -0.44963 -0.61073 -1.2108 -0.033676 0.36784 -0.46355 -0.74826 -0.44676 0.69675 0.23288 -0.42263 0.19229 -0.79384 0.34857 -0.42464 -0.50246 -0.64693 -0.85066 -0.20478 0.66127 -0.039131 -0.12278 0.75919 0.46599 0.65602 -0.55626 -0.94654 0.37003 0.36846 -1.3704 0.98153 -1.2898 -0.17147 -0.19874 -0.043715 0.16346 -0.5763 -0.4526 0.035659 -0.38418 0.10476 -0.69487 -0.27224 1.009 0.010553 -0.52503
keyboard.n 0.085951 0.757 0.46559 -0.20956 -0.39144 0.25356 0.31116 0.024143 -0.48253 0.87957 0.40489 0.406 0.11174 -0.56116 0.23438 0.15349 -0.29612 -0.14407 0.51295 -0.14115 0.97082 0.83966 0.089712 0.018514 0.48872 -0.057104 0.19531 0.22601 -0.35519 0.2084 -1.0013 -1.4138 -1.6419 -0.75122 -0.30757 0.076145 0.279 0.26867 -0.80233 -1.4026 1.3048 -0.24591 -0.30685 -0.5964 1.0106 -1.0412 0.11913 -0.59727 0.33639 -0.41287 0.0044096 -0.088343 -0.96457 0.90665 -0.30254 0.13615 0.10558 0.20393 0.62495 -1.1213 -0.16162 -0.33552 0.76988 0.53892 -1.2638 0.95941 0.31344 -0.017426 -0.56542 -0.89333 -0.5557 -0.93086 0.13874 -0.092811 0.28236 -0.45841 0.75741 0.34821 -0.082104 0.26471 -0.71578 -0.13157 1.4352 -0.68233 0.54667 -1.2167 0.99478 -0.0066328 -0.52833 -0.23353 0.23302 -0.12732 -0.78519 0.61994 0.73114 0.37128 -0.28461 0.29357 -0.13256 -0.27936
vehicle.n 0.34644 0.61754 -0.42121 -0.91249 0.088071 0.32632 -0.089346 0.10077 0.043114 0.15377 -0.1656 -0.50142 -0.16757 0.60766 -0.81491 0.19369 0.2807 -0.15764 0.13358 0.2815 -0.33234 0.57825 -0.56076 -0.13314 0.012663 -0.28675 0.078895 0.047558 -0.020442 0.52025 -0.57973 -1.5025 -0.48437 -0.60552 -0.72567 0.44001 -0.042312 -0.27684 -0.65012 -0.015899 -0.0098686 -0.09589 -0.16388 -0.41837 -0.54686 -0.34335 0.40016 -0.24002 -0.29607 -0.22204 -0.2597 0.5559 -0.80184 0.13567 0.081021 0.059612 0.51434 0.2315 0.28043 -0.87746 -1.2609 0.30326 0.18034 0.99138 -0.56584 0.095248 -0.86784 0.44798 -0.43833 -1.0734 -0.65594 0.082244 0.072245 -1.149 0.84699 0.092618 0.67749 -0.0119 0.2186 -0.63996 -0.62751 -0.055672 0.10091 -0.22522 0.61075 -0.3724 0.4459 -0.086085 -0.43868 -0.14154 0.33792 -0.55935 -0.21933 -0.126 -0.24508 0.49301 0.96969 1.2182 -0.59737 -0.48878
pillow.n -0.71265 -0.1313 -0.28107 0.38216 0.0413 0.62919 0.21235 0.69505 -0.48124 -0.14943 0.25664 -0.60058 0.35966 -0.049023 -0.2723 0.53217 0.54905 -0.39237 0.43076 -0.37171 0.77621 0.69991 -0.18467 0.30155 0.30713 -0.10566 0.33192 -0.64122 -0.13985 0.66119 -0.48285 0.15211 -1.4616 0.93923 -0.99016 0.5124 -0.63063 0.38023 -0.37656 -0.62382 -0.65035 1.0059 -0.7858 -0.58836 1.2673 -0.7226 -0.19195 -0.86547 0.43343 0.064742 0.017588 0.52766 0.3741 0.46747 -0.22596 -0.1364 -0.13425 -0.40606 0.79812 -0.88617 -0.95871 -0.46795 0.27879 1.7094 0.31481 -0.23073 -0.52368 0.54916 0.094825 -0.71465 -0.97046 -0.50977 -0.14016 -0.073094 -0.27031 -0.56325 0.062459 -0.57563 -0.82239 -0.1834 -0.033752 0.044632 0.87245 -0.52641 1.2159 -0.40423 0.31496 0.21921 -0.59851 0.685 0.23257 -0.9945 -0.73339 -0.046619 0.149 -0.077922 -0.23699 0.91351 0.44787 -0.27802
parking.n -0.13268 0.36244 -0.6327 -0.91583 0.0034634 -0.396 0.34906 0.18262 -0.47043 -0.095958 -0.033591 -0.040397 -0.37412 0.509 -0.88409 -0.42699 0.054027 0.070662 -0.26794 0.3908 -0.64899 0.70919 -0.66123 -0.54719 0.40389 -0.12452 0.25227 0.064846 -0.089388 -0.050859 -0.14443 -0.81187 -1.124 -0.89619 0.31476 -1.025 -0.55032 0.64051 -0.39776 0.078205 -0.46283 -0.22636 0.66908 0.082277 0.3151 -1.2449 -0.73226 0.59459 0.073317 -0.44106 -0.16711 0.28957 -1.1619 -0.24011 0.50821 -0.50957 -0.49585 -0.17925 0.22858 -1.5763 -0.4152 -0.077853 0.58618 -0.16912 0.44641 0.36185 0.17054 0.98914 -0.39131 -0.64951 -0.27998 -0.24487 -0.23384 -0.93712 0.048835 -0.84953 1.2232 0.36985 -0.23608 -0.014776 -0.96902 -0.25047 1.1078 -0.24902 0.41785 -0.3587 0.76394 -0.88965 0.077741 -0.55934 0.69352 -0.14905 -0.0011571 0.29736 0.032325 -0.10398 0.21156 0.68548 -0.36286 -0.44837
rock.n -0.46701 0.19241 -0.2737 -0.82767 0.38863 0.50566 0.26148 0.23317 0.26981 0.53449 0.47536 -0.5961 -0.21443 -1.5307 0.3408 -0.028162 0.42474 -0.40399 -0.12825 -0.30157 0.03882 -0.16281 0.27497 -0.070207 -0.050972 -0.82502 0.25724 -0.54624 0.3265 0.68218 0.42615 -0.98231 -1.0675 -0.62242 -0.77881 -0.51304 -0.84525 0.13781 0.12827 -0.43964 -0.73138 -0.65922 -0.54359 0.53402 0.76018 -0.5009 -0.46087 0.58301 -0.31971 -0.077892 -0.084687 0.31801 -0.42128 -0.33982 0.16921 -0.54889 -0.019545 -0.039263 0.63315 -1.2349 0.20181 -0.38381 0.53333 0.84811 -0.10981 0.3545 0.25831 -0.20293 -0.39798 -0.47669 -1.4258 -0.10925 0.14512 0.55714 -0.39981 -0.47247 0.12261 0.15487 -0.47472 -0.4474 -0.10848 0.67788 -0.13775 -0.26377 0.67328 -0.97411 0.27127 -0.03376 -0.93492 0.65721 0.54924 -0.37223 -0.57387 -0.1183 -0.24658 0.73914 -0.055264 0.66174 0.7609 -0.89298
flag.n -0.37468 0.63524 -0.13409 -1.0038 1.0972 0.26487 0.24044 0.78701 0.84495 0.57716 0.85234 0.24409 0.13192 -0.077555 -0.77261 0.2684 0.72182 -0.34946 -0.25367 -0.82492 -0.71842 0.28984 0.44481 -0.79887 0.16473 -0.77081 -0.23759 0.39417 -0.46434 0.8257 -0.22914 -0.38768 -0.57493 -0.84156 0.53727 0.48589 -0.21028 -0.24127 -0.22564 -0.43062 -1.0455 0.50556 -0.23368 0.064268 0.75516 -0.65174 -0.21285 -0.37335 1.2675 0.689 0.7574 -0.15741 -0.34353 -0.33643 0.28511 0.18509 -1.0126 -0.065941 0.50923 -0.59923 0.08733 0.05884 0.24136 0.072515 -0.58078 -0.54411 -0.49633 0.4399 -0.32604 -0.25278 -0.43192 -0.1702 -0.47942 -0.8603 -0.31919 -0.13718 0.092266 -0.92154 0.12863 -0.19667 -0.8257 -0.40341 0.68366 -0.011327 0.74601 0.081355 0.13256 0.26008 0.44218 0.51142 0.92814 -0.076948 -0.20072 0.66849 -0.69409 0.1926 0.079065 1.5593 -0.064576 -0.30441
shadow.n -0.43384 0.44635 1.0386 -0.9983 0.37629 0.39588 -0.4845 -0.70893 0.19045 0.74926 0.40845 -0.1646 -0.12519 -0.080573 -0.035019 -0.43892 0.40161 -0.047496 -0.33924 1.0042 -0.075374 0.39836 0.023906 0.37593 -0.069029 -0.72394 -0.058068 -0.20794 -0.016788 0.27783 0.11707 -0.32424 -0.30534 -0.34912 -0.090031 0.16118 -0.39516 -0.061066 -0.38593 0.010849 -0.81055 -0.32443 -0.23801 0.30883 0.53598 0.61547 -0.49958 0.41426 0.22732 0.090281 -0.46985 0.074079 -0.10277 0.36698 0.02932 0.28316 -0.35466 -0.040176 0.059287 -0.65826 -0.33835 -0.12296 0.36417 -0.29855 -0.16661 0.7982 -0.44307 0.27676 -0.2303 -0.98977 -0.23034 0.017505 -0.37666 -0.84549 0.16892 -0.31142 0.93202 -0.13578 -0.0077216 0.26622 -0.16678 0.67253 0.53975 -0.63208 0.6382 0.0098933 -0.23556 -0.22566 0.2514 0.24208 0.23355 -0.56692 -0.47254 -0.20782 -0.63765 0.03868 0.51022 1.1606 0.077596 -1.4121
tower.n 0.4271 0.56415 -0.31017 -0.35654 -0.20521 -0.52148 0.42329 0.21646 0.96761 0.72885 0.0086325 -0.13456 -0.14952 -0.23991 -0.33082 -0.29843 0.13199 0.33571 0.20588 -0.17213 0.71142 0.82171 0.38438 0.031342 -0.09274 -0.79694 -0.23072 -0.43357 0.25436 0.86992 -0.17005 -0.23573 -0.89918 -0.39423 -0.44501 -0.088491 0.61136 -0.24041 -0.59159 -0.90248 0.93207 -0.0038366 -0.38586 0.49492 0.3635 -0.70835 -0.44904 0.28781 0.42181 0.30551 -0.28138 0.47657 -0.28909 0.13793 -0.09821 -0.1867 -0.15534 -0.42497 0.98784 -0.88079 -0.062996 0.085287 0.58416 0.39018 -1.5508 0.10698 -0.50591 0.22338 0.50622 -0.57169 -1.5306 0.59785 0.59706 -0.94623 -0.40411 -0.1271 0.23573 0.32547 -0.25334 -0.20076 -0.5398 -0.63194 0.8432 -0.2647 -0.022385 -1.1175 -0.27161 0.56333 -0.12644 0.30958 1.4461 -0.48582 -0.15932 -0.16626 0.37737 0.16443 -0.4975 0.92669 -0.44547 0.26405
coffee.n -0.54788 0.68329 0.68234 0.56521 0.036817 0.63276 -0.41249 0.24981 0.18555 -0.27201 0.57357 0.75412 0.16087 -0.83984 -0.57963 0.45722 0.15762 -0.28107 -0.044242 0.075323 -0.2137 0.69193 0.33603 0.11652 0.37108 -0.61806 -0.33934 0.43077 -0.3554 -0.53043 -0.4185 -0.98795 -0.88875 0.24201 -0.60091 0.51172 0.14165 0.030272 -0.28942 -0.49574 -0.47158 0.0089161 0.099516 -0.055533 0.29732 -0.37006 -0.7886 -0.46569 0.094972 -0.18929 -0.50736 -0.58903 -0.24025 0.40512 -0.10083 -0.18787 -1.022 -0.66848 -0.033292 -0.64534 -0.81456 -0.00049422 0.18173 0.56342 -0.23605 -0.3422 0.193 0.72508 0.25179 -1.7217 -0.40202 -0.034881 0.16736 0.11256 0.2965 -0.42462 0.16932 -0.58536 -0.013152 0.27621 -0.59051 0.26369 0.1626 -0.94768 0.73175 -0.94439 1.5387 -0.095593 -0.19695 0.20233 0.81999 -0.44098 -0.89237 0.18893 0.031464 -0.67955 -0.15725 -0.0084913 0.20692 -0.071795
kitchen.n -0.9194 0.1156 -0.39758 0.39387 -0.014488 -0.0256 0.36433 -0.3861 -0.36327 0.28958 0.7994 0.20474 -0.24089 -0.75899 -0.47399 -0.01146 0.41707 0.10849 0.082373 0.7662 0.35151 0.41617 -0.0047983 0.23883 0.3171 -0.53526 0.41713 0.45419 -0.25734 -0.39076 0.20114 -1.455 -0.30046 0.2249 -0.37893 0.27855 0.03601 0.28106 -0.61917 -0.083727 -0.12851 -0.12879 -0.098322 0.06201 0.38155 -0.063001 -0.50344 0.35377 -0.30832 -0.27356 0.34723 -0.40826 -0.34088 0.03306 0.66766 -0.28662 -0.86567 0.20185 -0.14449 -1.1301 -0.38798 0.02916 0.23104 0.50052 -0.2486 0.88524 -0.50417 1.0229 0.69263 -0.73216 -0.12878 -0.55162 -0.203 -0.17828 0.24964 -0.32451 0.90997 0.011848 -0.18908 -0.21508 -0.17306 0.35255 1.0263 0.58734 -0.067451 -0.9033 0.6574 0.069779 -0.11576 0.48168 1.0094 -0.31948 -0.43632 -0.31517 0.29148 -0.28943 -0.60422 -0.36651 -0.33552 -0.27476
food.n -1.1958 1.1992 0.039965 0.085881 -0.098199 0.26685 0.31308 0.60858 0.0026882 -0.27065 0.5211 -0.32157 0.15426 -0.42591 -0.27527 0.22076 -0.1915 0.42464 0.66279 1.1423 0.21837 0.27242 -0.1098 -0.47418 0.28496 -0.38562 0.38751 0.13778 0.20238 0.15273 -0.14721 -0.77282 -0.38927 -0.31395 -0.20802 0.49298 -0.23338 -0.15434 0.14498 -0.73221 -0.23681 -0.21961 -0.50098 -0.081736 0.58902 0.18442 -0.26914 0.12792 -0.81502 -0.80799 -0.4863 0.099879 0.056861 0.91081 -0.91285 -0.49779 -0.67754 0.15553 0.62441 -0.46506 -0.67172 0.14467 -0.53055 0.025175 0.58171 0.59988 -0.65959 -0.1362 -0.71496 -0.10401 -0.72733 -0.27197 -0.39627 -0.76917 0.49007 -0.29232 0.20242 0.064545 -0.047458 0.25954 -0.62321 0.061489 -0.085224 -0.13211 -0.11703 -0.95119 0.99976 -0.93235 0.092237 0.089074 0.3613 0.27304 -0.18411 -0.38637 -0.71305 -0.32887 -0.34358 0.98738 -0.25364 -0.44614
leg.n 0.089544 0.016902 0.75085 -0.86 0.36873 -0.15452 -0.62645 0.52661 0.21088 -0.065617 0.10009 -0.29654 0.013922 -0.22373 -0.17401 0.17888 0.19523 0.66969 0.2539 0.9731 0.32715 0.57832 -0.31222 1.0944 0.28465 -0.57335 -0.15385 -0.14497 -0.17438 -0.34277 -0.33888 -0.77054 -1.4444 -0.45776 -0.6557 0.2063 -0.53424 -0.082217 -1.2987 -0.21682 0.01954 0.14381 -0.28658 0.41176 0.7443 -0.16214 -0.30431 -0.96419 0.9457 -0.50921 -0.78563 0.052819 -0.11256 1.1432 -0.2506 0.13274 -0.62021 0.075093 0.11618 -1.2918 -0.99181 -0.0067846 -0.88704 1.0264 -0.361 0.032648 0.079548 -0.53745 0.01442 -0.35919 0.002401 -0.29092 0.2808 -0.19005 -0.57358 -0.276 0.051082 -1.5551 -0.4208 0.49874 -0.71856 -0.15458 0.81793 -0.31574 0.61122 -0.037115 -0.49956 -0.27861 -0.42118 0.38996 0.61548 -0.56618 -0.77865 -0.71816 -0.31552 -0.35236 0.33897 1.3037 -0.29894 -0.98978
leaf.n -0.4053 1.0623 0.52349 -0.67954 -0.017964 -0.053258 -0.5677 -0.040495 0.24975 1.7324 0.10735 -0.19334 -0.13089 0.98148 -0.62512 0.6183 0.60602 -1.0238 -0.25177 1.1058 -0.49579 0.54766 0.47512 -0.25664 0.088804 -0.81882 0.24328 -0.23045 -0.39243 0.93205 1.0606 -0.26948 -1.1149 -0.013791 -0.19027 -0.32356 -0.15176 -0.05486 0.20717 -0.70727 -0.70479 0.15596 -0.33534 -0.14703 0.89412 -0.36658 -0.25708 -0.12487 0.73459 -0.33888 -0.61065 0.46903 -0.5645 0.44804 -0.47504 -0.33872 -0.067472 -0.4362 0.85709 -1.4656 -0.10351 0.43623 -0.18153 1.079 0.15402 -0.26193 -0.35914 -0.66576 -0.052479 -0.763 -0.2796 0.23146 -0.19628 -0.18299 0.64601 -0.93078 0.064703 -0.91411 -0.86413 -0.96708 0.47966 0.59931 0.89543 -0.7873 1.0325 -0.113 0.27059 0.47711 0.37707 -0.046411 0.51444 -0.25939 -0.84576 0.29789 0.61528 -0.45546 0.17383 1.0391 -0.13734 -1.1408
mountain.n -0.29195 0.13766 0.034995 -0.23645 0.075064 0.51122 0.31131 0.29208 0.33779 -0.44599 0.0022572 -0.53376 -0.8223 -0.032973 -0.80074 0.49301 0.147 -0.63719 0.28294 -0.49334 0.46733 -0.70045 -0.14792 -0.78096 -0.70915 -0.84122 -0.011429 -0.13209 -0.11771 0.47742 -0.083836 -0.64067 -0.50915 -0.45592 -1.0956 -0.11945 -0.67809 0.18324 -0.089478 -0.40788 -0.61457 -0.69393 0.16251 1.0499 0.5703 -0.88723 -0.98983 -0.36771 0.82894 -0.47938 -0.49562 0.71171 -0.4904 -0.076552 0.23888 0.54768 -0.21534 -0.16777 0.18523 -1.2641 -0.14231 -0.91162 0.61876 0.43276 -0.4304 0.6931 -0.24351 -0.09243 -0.1705 -0.040952 -1.2909 0.27727 0.096554 -2.0877 -0.081646 -0.022309 0.60011 -0.59246 -0.1012 -0.20597 0.016116 0.61063 0.92576 -0.72916 0.2079 -0.88311 0.10161 0.033914 -0.094698 0.24942 0.69504 -0.091581 0.17118 -0.77952 -0.0039696 0.28587 0.066035 0.83979 0.20992 -0.41101
face.n -0.20072 0.59107 0.77023 -0.81907 -0.93358 0.58414 0.38192 -0.40596 -0.14343 0.43524 -0.14884 0.037604 -0.15335 -0.84433 -0.95204 -0.70258 0.1022 0.4106 0.69193 0.78373 0.74617 0.87849 0.098566 -0.27016 0.12667 -0.40729 -0.15805 -0.060193 0.77404 0.039322 0.33117 -0.40659 -0.21157 -0.5438 -0.39926 0.80682 -0.1998 -0.55178 -0.64352 -0.70148 0.7937 -0.35904 -0.90028 0.32732 0.42754 -0.48059 -0.9772 0.12328 0.97084 0.35167 -0.56285 0.091287 0.2364 -0.059246 0.60341 0.083199 -0.67639 0.084013 0.67318 -0.73664 -1.1657 0.84628 -0.091232 0.1713 -0.70358 0.46965 -0.54777 0.34903 -0.71156 -0.48709 -0.90516 -1.1605 0.32393 -0.030892 -0.4279 0.71541 0.40206 -0.48477 0.5294 0.24337 -0.96832 0.0076377 0.46594 -0.38943 -0.1118 -0.14616 -0.53782 -0.21838 -0.26866 0.87629 0.095807 0.021426 0.12916 -0.683 -0.48376 0.11328 -0.01455 0.43105 -0.17683 -0.96091
beach.n -0.40273 0.35008 0.10249 -0.33749 0.078658 0.085282 0.25434 -0.5748 -0.52075 -0.076567 1.0681 -0.075629 0.37699 -0.183 0.067128 0.2246 1.2697 -0.010729 -0.45291 0.48414 0.34784 0.24463 0.017091 0.4622 -0.85403 -0.91954 0.73365 -0.10513 -0.088408 0.76615 0.6619 -1.0811 -0.04378 -0.18646 -0.20755 0.43823 -0.50867 0.18581 -0.81149 -0.082592 -0.35835 -0.29451 -0.16228 0.39803 0.74304 -0.13001 0.68319 0.086129 -0.073876 -0.31351 -0.084065 0.9764 -0.74646 -0.22173 -0.062981 0.31588 -0.88382 0.38038 0.6472 -0.41696 -0.42046 -0.13315 -0.34741 0.086097 -0.2529 0.21327 -0.043884 0.7233 -0.16565 0.15767 -1.1686 -0.29435 0.16039 -0.35854 -0.65571 -0.28408 0.42315 -0.20682 -0.47697 -0.20135 -0.047412 0.21097 0.3194 -0.41456 0.71475 -0.48637 0.11423 -0.63329 -0.074768 0.85141 0.55179 0.44574 -0.30211 -0.16144 -0.13431 -0.084091 0.55544 1.6407 0.97459 -0.28933
wine.n 0.05592 0.69202 0.066177 0.24963 -0.60066 0.47015 0.76847 0.52742 0.37784 1.7867 1.013 0.49373 0.59075 -0.61555 -0.94103 0.24572 0.4643 0.333 0.073543 0.30031 -0.14047 1.9328 -0.0016233 0.32405 0.44372 -0.67922 0.33051 0.48217 -0.021002 -0.37268 0.86136 -0.67653 -0.53141 -0.26072 -0.022709 1.0071 -0.15737 0.11863 0.97362 -0.36716 -0.27819 0.014475 -0.17655 0.78811 0.059971 -0.24722 -0.96377 0.3138 0.009323 -0.74978 -0.82534 0.038163 0.0046401 0.57576 -0.53325 0.1713 -0.29849 0.22695 0.11421 -0.61336 -1.0922 -0.19987 0.058022 0.33659 -0.55639 -0.046621 -0.44648 0.003435 -0.12301 -0.90799 -0.095778 -0.56891 -0.43505 -0.48422 -0.27728 -0.25176 -0.3138 -0.51461 0.42861 -0.3978 -0.024222 0.066949 1.3414 -0.88274 0.6359 -1.2468 0.40981 -0.26446 -0.084897 0.030634 0.44964 -0.037713 -0.23388 0.10859 -0.58294 -0.69103 -0.45754 0.70849 -0.18683 0.1956
baseball.n -0.13453 0.58263 0.48005 -0.52713 -0.31618 0.48978 0.15097 -0.035237 -0.43121 0.14882 0.45514 -0.5103 0.93037 -0.62276 0.27324 0.44491 1.2731 -0.6698 0.0327 -0.25287 0.46865 0.60917 -0.23153 -0.67495 0.23701 -0.59524 0.014975 0.62765 -0.40841 0.032625 -0.5678 -1.187 -0.62242 0.91347 0.050762 -0.22252 -0.67902 -0.77724 -0.23665 -0.49387 -0.052958 -0.42149 -0.58696 -0.27235 1.1907 -0.090167 -0.20686 -0.5394 -0.069779 0.43533 -0.64249 -0.4251 -0.83003 0.62994 -0.30233 -0.22405 -0.35893 -0.040331 -0.51741 -1.249 -0.14688 0.32947 0.19967 0.76446 -0.18467 0.44123 -0.83323 0.45111 -0.37643 -0.81011 -0.75237 0.054881 -0.10255 -1.0459 0.1143 -0.16916 0.81113 -0.31058 0.58554 -0.59115 0.37785 -0.85561 1.5499 -0.77524 -0.23814 0.76235 -0.50461 -0.11887 -0.44687 0.57169 0.9105 0.56738 0.4289 -0.027429 -0.14293 0.27751 -0.03328 0.99957 -0.38862 -0.74549
horse.n 0.87601 -0.084028 0.33302 -0.27681 0.25107 0.76018 0.0028574 -0.0024718 -0.11558 0.096546 0.23597 0.042621 -0.29544 -0.4556 0.0081677 0.85434 0.61295 0.085773 0.025539 0.11014 1.124 0.28016 -0.53568 -0.45345 -0.1612 -0.50608 0.45639 0.65741 0.74337 0.53615 -0.10545 -1.9056 -1.1921 -0.1505 -0.51426 -0.24805 -1.0879 -0.34084 -0.19401 0.134 -0.36276 -0.044511 -0.15493 0.1525 0.35143 -0.23527 0.057661 -0.060021 0.29969 0.7376 0.3825 0.73787 -1.1414 0.35332 -0.19834 -0.32121 -0.11479 0.13214 0.86454 -0.2326 -0.26106 0.54849 -0.27803 1.6884 0.14834 -0.97623 -0.6975 0.025898 -0.85253 -0.51192 -0.25161 0.064883 -0.18477 0.0049052 0.21353 0.086829 0.35788 -0.10626 0.54584 0.27416 -1.3973 -0.92756 0.75757 -0.41276 0.85751 -0.64873 -0.71656 -0.18741 -0.66995 0.38355 0.33688 0.034384 0.2451 0.31642 0.12909 0.038493 0.41928 1.0063 0.13356 -0.18968
bicycle.n 0.05469 0.65984 -0.26887 -0.23618 -0.18129 -0.26619 -0.37722 0.63 -0.7885 0.81307 0.67898 -0.046742 0.26894 -0.342 -0.53428 0.072474 1.2858 0.7321 0.12132 -0.3288 0.38798 0.51787 -0.22721 -0.099377 0.29471 0.098037 -0.10929 0.47286 0.33365 0.5869 0.16569 -0.78883 -1.1815 -0.28247 -0.65948 0.12086 -0.020521 0.24441 -0.57815 0.075289 -1.0464 0.36807 -0.3779 -0.321 0.23137 -0.89476 0.183 0.36863 -0.32406 0.24585 -0.46481 0.098112 -0.24333 0.64201 -0.11783 0.31644 -0.070743 0.1413 0.93054 -0.65415 -0.57463 0.18091 0.52421 0.1203 0.067722 0.078768 -0.16875 -0.18677 -0.22812 -0.82083 -0.42221 -0.1321 -0.42813 -1.0086 0.80852 -0.084129 0.89163 -0.57136 1.3493 0.013131 -0.31317 -0.12395 0.23656 -0.30647 1.5057 0.63958 0.20258 0.014301 -0.69256 -0.18399 0.3315 -0.37427 0.06101 0.51261 0.019198 0.16739 0.545 0.74505 -0.61128 -0.99863
arm.n 0.28599 -0.0044851 0.27238 0.080725 -0.20083 -0.22205 -0.26551 0.72427 -0.41086 -0.24712 0.7543 -0.016317 0.74791 -0.18774 -0.054197 -0.33311 0.10202 0.64078 0.13441 0.46044 0.13533 0.71797 0.093422 0.66591 0.033505 0.13946 -0.44812 -0.46039 -0.52282 0.064097 -0.84197 -0.3025 -1.1344 -0.38295 -0.61129 0.52115 0.030722 -0.65035 -0.68469 0.041238 0.01129 0.39686 -0.99241 0.32543 0.67727 -0.48334 -0.062073 -0.28754 0.71709 -0.38101 -0.31269 0.343 -0.0018076 0.78495 0.43892 -0.18708 -0.84629 -0.20088 0.2627 -1.8874 -0.054086 0.45751 -0.44474 0.36457 -0.19345 0.10133 -0.48635 -0.33144 0.01675 -0.75021 -0.82536 -0.66894 -0.20651 -0.34871 -0.46283 -0.22082 -0.20842 -0.6172 0.2179 0.58873 -1.0176 -0.032974 0.30518 -0.37641 0.59016 0.25862 -0.32672 -0.6751 -1.1415 0.78487 0.50258 0.27722 -0.42821 -0.47927 -1.1559 0.47284 -0.45996 1.0116 0.0020103 -0.44696
cat.n -0.030563 0.59238 0.738 0.49526 -0.97629 0.37666 0.1687 0.40908 0.19724 0.30629 0.051234 -0.089694 -0.17863 -0.32076 -0.90956 0.42813 0.60983 0.18776 -0.2287 0.64312 0.68488 0.34333 -0.051248 0.24675 0.45932 -0.6633 0.45893 -0.72135 0.6001 0.476 -0.83473 -0.62005 -0.73072 0.70966 -0.37117 -0.23215 -0.55687 -0.87806 -0.98579 0.31479 -0.042214 0.73379 -0.40271 -0.14751 0.37503 -0.71387 0.34516 -0.29289 0.39911 -0.4407 -0.18234 0.95979 -0.97741 0.79707 0.36562 -0.27677 -0.38696 0.09635 -0.0287 0.1932 -0.55948 0.76964 0.16638 0.63726 0.062607 -0.54452 -0.88252 0.11157 -0.18922 -1.2584 -0.42923 -0.71601 0.30054 0.28571 -0.199 -0.14291 -0.013697 -0.69597 -0.94624 -0.14353 -0.21103 -0.22339 0.9744 -0.05989 0.42679 -1.0514 -0.028114 0.36793 -0.60248 0.19695 0.71681 -0.343 -0.86896 -0.95526 0.32002 0.015939 -0.7187 1.1063 0.13591 -0.99954
bridge.n 0.17033 0.80754 0.065656 -0.39569 -0.0068249 0.14093 0.29809 -0.15894 0.44726 0.076255 0.16541 0.19452 -0.32532 -0.48422 -0.25411 0.0045432 0.6865 0.11759 0.24043 0.012845 0.69645 0.14364 0.50187 0.73716 -0.19784 -0.17844 0.25446 -0.094549 -0.080515 0.34828 0.76795 -0.51807 0.028582 -0.86834 -1.0266 -0.81822 -0.818 0.78747 -0.70076 -0.046417 -0.41313 -0.13699 -0.24994 0.30899 0.16293 -0.83376 -0.10415 -0.11117 -0.023469 0.17392 0.42147 1.0405 -0.58204 0.24128 0.2711 0.073311 -0.36379 0.10909 0.96176 -1.2118 0.32535 0.068662 1.0256 0.73829 -0.71434 0.23567 -0.80946 -0.051579 0.40541 0.71524 -1.3815 0.4116 -0.22367 -0.55142 0.071566 -0.6211 0.99639 -0.19593 -0.027025 0.41071 -1.179 -0.11912 0.78501 0.38266 0.50592 -0.75638 0.43804 0.82343 -0.50653 0.0059365 0.67195 -0.11358 -0.49287 -0.026245 -0.42938 0.26563 -0.23465 1.1613 0.37495 -0.57273
eye.n -0.49101 -0.055086 0.40696 -0.5143 -0.98607 0.048373 0.00011478 0.085724 -0.4061 0.63315 0.21061 -0.14385 -0.24966 -1.1646 -0.81523 0.11902 0.20086 0.75613 0.6533 0.60961 -0.19276 0.4059 0.44317 0.39525 0.082862 -0.75955 -0.76645 0.012063 0.55062 -0.56334 -0.001976 -0.14452 -0.33787 -1.1031 0.047468 0.3072 -0.084392 -0.65948 0.23459 0.23306 -0.12249 -0.26266 -0.2404 0.38872 0.76874 -0.75787 -0.88757 0.22198 1.3193 -0.14394 0.26579 0.75189 0.15594 0.043149 -0.25646 0.98098 -0.34682 0.62376 0.98447 -0.77385 -1.3917 0.23124 -0.90859 1.3457 -0.27159 -0.30643 -0.49803 -0.17442 -1.2059 -0.52481 -1.0426 -0.91354 -0.11864 0.20933 -0.22915 0.28672 0.81449 -0.98611 -0.18347 -0.54397 -0.56703 0.39341 0.82938 -0.44218 0.60554 -0.52858 0.24579 -0.26883 -0.52285 0.95703 -0.14708 -0.5751 0.16342 -0.57295 -0.68975 -0.4155 0.23612 0.85767 -1.3514 -0.63444
cloud.n 0.12901 0.40707 -0.08101 -0.3245 -0.25462 0.61688 0.63515 0.56207 -0.74343 0.13806 0.79121 -0.85384 -1.2979 -0.69828 -0.91057 -0.13663 -1.0998 -0.30702 0.24441 -0.36153 0.85568 0.48829 0.75545 -0.40908 0.18542 -0.65453 0.87913 -0.24677 0.12784 0.50465 0.42752 0.041645 -0.99195 -0.5571 -0.72042 0.56815 -0.51168 -0.56142 -0.86558 -0.57478 -0.23594 0.56818 0.18441 0.012907 1.6859 -1.1972 -0.30043 0.068297 0.17535 -0.32504 0.13287 0.96806 -0.45862 -0.29104 0.70814 -0.59132 -0.22139 0.32047 0.033346 -1.097 -0.83973 -1.1343 0.2065 0.89694 -1.0461 0.77756 -0.20704 0.24371 -0.95435 -0.58832 -0.89482 0.13705 -0.57431 -0.84555 -0.081917 -0.84581 3.291e-05 -0.025371 -0.0039779 -1.3292 -0.13064 -0.71007 0.612 0.24801 0.87944 -0.90324 0.31271 0.089385 0.4377 1.2128 0.51338 0.2718 -0.58106 -0.35161 0.15779 -0.20989 0.34673 1.0384 0.43466 -1.5559
basket.n 0.021793 0.54434 -0.85178 -0.089753 -0.1583 -0.37957 -0.092086 0.030666 -0.76165 1.0494 0.59242 0.29753 0.34773 -0.34441 -0.63569 0.59157 0.45047 -0.69112 0.19779 0.44465 -0.21306 -0.52413 -0.86306 0.29266 1.0078 -0.18725 0.4133 0.94251 0.089848 0.42913 -0.27381 -0.67173 -1.5557 0.32519 -0.069829 0.27039 -0.58347 -0.36156 -0.45837 -0.26869 -1.1243 -0.20711 0.15893 0.31101 0.49297 0.6178 -0.54153 0.029025 -0.2168 -0.036704 0.39501 -0.17013 0.21025 0.93753 -0.17539 -0.47046 -0.67522 0.32993 -1.3099 -0.81026 -0.11086 -1.052 -0.15041 0.34741 0.74381 -0.16595 -0.64674 0.22658 -0.28274 -0.68694 -0.77586 -0.36083 -0.86387 -0.52119 0.14635 -0.55998 0.10754 -0.42449 0.067115 -0.042481 -0.43063 0.40403 1.0903 -0.49133 0.48396 -0.75297 0.39203 -0.26204 -0.40228 0.63378 0.59587 -0.57463 0.1666 0.42304 0.29994 -0.32219 -0.44023 0.52129 0.5611 -0.79743
bird.n 0.75906 0.46907 0.1936 -0.74392 0.66753 0.36706 0.66237 0.72959 0.61717 0.28737 0.12939 -0.60884 0.12555 -1.0445 -0.62732 0.13839 -0.070108 -0.0043215 -0.29361 0.52426 0.88281 0.10779 -0.1121 -0.69473 -0.12895 -0.29405 0.2948 -0.026533 0.29871 0.01213 0.46344 -0.90614 -0.99956 -0.55821 -0.17454 0.27992 0.032906 -0.47982 -0.54572 -0.35279 -0.49704 0.82998 0.075649 0.57103 1.1242 -0.5159 0.054051 1.0396 0.31217 0.80501 0.51371 0.34917 -0.91068 0.29068 -0.36711 0.53968 -0.7297 0.41942 0.02866 -0.24209 -0.10748 0.29556 0.29593 0.72406 -0.15063 -0.20853 -0.38939 0.070286 -0.0026023 -0.67166 -0.64824 0.014552 -0.4034 0.0071339 -0.11263 0.20271 0.0072771 -0.86471 0.10334 -0.41262 0.0392 0.27391 1.2149 -0.53021 1.102 -0.73203 0.13193 0.27648 0.091666 -0.0041719 0.22359 0.31151 -0.64811 0.10708 -0.25512 0.016241 -0.033873 0.87103 0.19011 -0.70492
ear.n 0.25439 -0.47348 0.23748 -0.11018 -0.2372 0.032097 0.2689 0.081165 -0.84237 0.052231 0.17397 -0.62033 -0.10483 -1.3103 -0.82064 -0.045999 0.49948 1.2024 0.26809 0.53895 -0.38807 0.63046 0.17267 -0.16994 0.042076 -0.94663 -0.64999 -0.51895 0.49557 -0.59441 -0.87007 -0.64707 -1.6647 -1.0549 0.42186 -0.47565 -0.43942 -0.5895 -0.063768 0.33888 0.15764 -0.66177 -0.73157 -0.049924 0.97938 -0.92479 -0.90401 0.020038 1.748 0.13305 -0.62818 0.27806 -0.51897 0.34542 -0.21886 0.0020407 -0.42006 0.7478 0.67861 -0.77853 -0.28062 0.12186 -0.11668 0.86504 0.013721 0.078531 -0.6177 -0.78388 -0.32747 -0.87352 -0.56982 -0.94373 -0.47733 -0.18432 -0.33466 0.077263 0.67193 -0.81405 -0.6419 -0.073611 0.26712 0.4262 1.0913 -0.25241 0.4745 -0.83078 0.83519 -0.89986 -0.67526 1.1096 -0.58148 -0.5685 -0.56017 0.14881 -0.44675 -0.2485 -0.091888 1.0467 -0.63882 -0.18275
dirt.n -0.076851 0.51801 -0.32289 -0.20123 0.059036 0.91115 0.16186 -0.4094 -0.38842 -0.26627 0.34245 -0.08742 -0.18679 -0.42584 -0.23496 -0.44918 0.32556 -0.75936 0.20627 0.65377 -0.5623 -0.37219 0.39856 0.53934 0.28608 -0.5106 -0.24036 0.52291 0.066918 0.77163 -0.057839 -0.87788 -1.0078 -0.67098 -0.51324 -0.85326 -0.81016 -0.48197 -0.15514 -0.20948 -0.78584 -0.20338 -0.27386 0.42691 0.65936 -0.0010647 -0.20741 0.57426 0.0894 0.10242 -0.98567 0.6127 -1.1776 -0.019155 -0.34863 0.0056012 -0.07624 0.067024 0.042138 -0.48814 -0.21781 -0.030959 -0.00092116 0.38955 0.43377 1.278 0.16476 0.16349 -0.23669 -0.408 -0.49608 -0.1275 -0.27159 -0.49281 0.26141 -0.32137 0.78493 -0.80331 -0.60981 0.18103 -0.74275 0.63325 0.52033 -0.45017 0.47922 -0.45533 0.18064 -0.3338 -0.57113 -0.2705 0.75454 -0.45878 -0.42502 -0.12968 -0.013953 0.51322 0.018012 0.72902 0.2675 -0.91241
shoe.n -0.83464 0.39509 0.82325 -1.1472 -0.00015629 -0.12371 -0.25456 0.5409 -0.95914 0.79153 1.2217 -0.4563 0.1856 -0.89166 -0.54106 0.90463 0.21515 -0.87648 0.28329 0.33508 0.1432 -0.22306 -0.83547 0.081317 0.39476 0.031919 -0.81728 0.33024 -0.065798 0.06791 -0.80425 -0.40891 -1.04 0.72413 -0.046745 0.52025 -0.46407 -0.83873 -0.19919 -0.25323 -0.14146 -0.37056 -0.58819 0.39608 1.3396 0.3283 0.40812 -0.024325 1.3805 -0.34846 -0.33076 0.26654 -0.30569 0.38509 -0.15773 0.13704 -0.40931 0.20505 0.48222 -1.8303 -0.49194 -0.075943 0.054062 0.093141 -1.4505 0.1098 -0.5031 0.73131 -0.11954 -0.50151 -0.90407 -0.71988 -0.80494 0.59572 0.27821 0.48289 0.66165 -1.0044 0.070954 -0.86856 -0.91108 -0.038734 0.33228 -1.3368 -0.23602 -0.39169 0.10677 -0.89705 -0.56576 -0.4733 0.037233 -0.71731 -0.099788 0.35092 -0.99632 0.24271 -0.11178 1.1405 -0.55791 -0.59607
display.n -0.9059 1.2437 -0.17154 0.13668 0.33288 0.30039 0.67931 0.21198 -0.51863 -0.022144 0.66616 0.37069 -0.04355 0.23766 -0.51132 0.20043 0.56376 0.047584 0.77452 0.3051 0.39342 0.83329 -0.059733 -0.59842 -0.40736 -0.32402 0.42709 -0.27467 0.3368 0.50598 -0.2096 -0.26437 -0.80704 -0.41315 -0.0084578 -0.045333 0.033942 -0.06806 -0.2137 -1.1591 -0.68556 -0.97821 0.20439 0.066833 0.81196 0.10155 0.29498 -0.12886 -0.065415 -0.13644 -0.29133 -0.067201 0.34231 0.22619 -0.38845 0.47585 -1.0416 -0.042028 0.26523 -0.31238 -0.06917 -0.62307 -0.046695 0.192 0.17643 0.17346 -1.6709 0.45549 0.30078 -0.41064 0.022544 -0.085064 -1.2968 0.022955 -0.40655 0.47967 0.6775 0.057682 -0.41105 -0.5374 -0.53739 0.30063 0.56161 -0.49184 0.42082 -0.30305 0.88054 -0.13513 0.22702 0.33496 0.54066 -0.88332 -0.24185 0.22654 -0.74008 -0.2155 0.2449 -0.22504 0.2631 0.35668
ski.n -0.44925 0.61099 0.16638 -0.61813 0.091864 0.85539 0.083998 0.26334 -0.28156 -0.29491 0.94212 -0.16206 0.30873 -0.93106 0.18013 0.28824 0.48813 0.39046 0.169 -0.99764 -0.072763 0.099565 0.020489 -0.34736 0.056672 -0.27681 0.097367 0.96508 -0.094418 0.2917 0.47921 -0.68298 -0.55585 -0.4016 -0.15397 0.64889 -0.92488 0.61798 0.90657 -0.47485 -0.92491 -0.16672 0.35878 -0.60704 0.63987 -0.85582 -0.47996 -0.53322 0.63156 0.057158 -0.17729 0.44954 -1.3668 -0.029803 -0.162 0.53732 -0.22788 -0.96441 0.53844 -1.1648 -0.67522 -0.41298 1.7606 0.652 -0.47888 0.29295 -1.5292 -0.23219 0.043837 -0.35119 0.20552 -0.10007 0.018875 -1.4933 -0.67339 -0.093951 -0.047162 -0.84377 0.64304 0.51003 -1.0592 0.23148 1.6443 -0.12201 0.014612 0.14636 -0.77129 -0.12657 -0.6458 -0.70136 0.44914 0.30588 -0.18628 0.31703 0.22618 -0.218 -0.054142 1.0094 -0.9184 -0.81641
lady.n 0.31555 0.80513 -0.018687 0.2731 -0.070966 -0.055471 -0.083572 0.13048 0.18347 0.40992 0.64266 0.46879 -0.044374 -0.9233 -0.49955 0.41944 0.71178 -0.16087 -0.09705 0.40445 0.53222 0.70764 -0.50455 -0.24992 0.024453 -0.3425 0.20465 -0.23399 -0.054035 0.41703 0.062741 -0.65281 -0.63613 0.049558 0.23028 -0.1046 -0.77432 0.19855 -0.61225 -0.46035 0.17587 0.65344 -0.15018 -0.31075 0.29374 0.20494 -0.17737 -0.014012 0.93517 -0.74208 -0.32337 0.73873 -0.57146 0.21528 0.0826 0.44812 -0.6351 0.29233 -0.71162 0.058221 0.39641 -0.21059 -0.595 0.53156 0.5749 0.21127 -0.92268 0.065849 -0.12781 -0.29035 -0.78623 -0.55683 0.029306 -1.0475 0.093331 0.031708 -0.08811 0.19982 0.28533 -0.29319 -0.57797 0.50425 0.31488 -0.076405 0.69225 -0.28179 0.27198 -0.13531 -0.71346 -0.29285 0.97848 -0.042696 0.12243 0.53229 0.087473 -0.36991 -0.045116 0.34995 -0.44506 -1.1439
child.n 0.12 0.39187 1.0078 0.50146 0.1803 0.13185 0.28848 0.77096 0.10695 -0.068427 1.0348 0.30888 -0.051107 -0.75947 -0.59632 0.70714 0.51607 0.028314 -0.22702 0.029099 0.53819 0.89676 -0.6679 -0.020302 0.23802 -0.71198 0.39603 -0.042112 -0.059906 0.9594 -0.17108 -0.30512 -0.6664 0.38963 -0.039405 0.41727 -0.93958 0.31119 -0.44188 -0.15216 -0.14638 0.0046781 -0.34533 -0.088345 0.64791 -0.073718 0.32499 0.24877 0.91517 -0.30143 -0.32634 0.90354 -0.39939 0.40365 0.015173 0.46416 -0.53336 0.13665 -0.60783 -0.20946 0.55303 -0.60144 0.11512 1.2046 0.61628 0.13475 -0.46861 -0.28867 -0.0096512 -0.32206 -0.45842 -0.36559 -0.16827 -0.7649 -0.19021 0.27625 0.80975 -0.22128 -0.66313 0.058684 -0.24834 0.1565 0.37618 0.21526 0.5475 0.055052 -0.50509 -0.66625 -0.64816 0.036069 0.99006 0.1026 0.37823 0.25821 0.76848 -0.31589 -0.054408 0.45613 -0.46576 -1.271
elephant.n 0.3232 0.41374 -0.10221 -0.22733 0.25399 0.060569 0.23009 0.17412 0.1068 -0.32536 0.6255 -0.078538 -0.036926 -1.122 -0.42944 0.73429 0.22668 0.82263 -0.40991 0.65467 0.47081 0.65676 0.27866 -0.63868 0.13592 -0.35172 -0.24383 -0.34436 -0.26994 -0.096688 -0.41264 -0.99971 -1.0478 -0.55751 -0.81691 -0.47752 -0.87444 -0.46667 0.24884 0.33703 -0.85439 0.74906 -0.50902 0.48112 0.31789 -0.73314 -0.35812 0.8114 0.93422 1.5335 0.37647 0.75776 -0.23299 0.19714 0.3895 0.10532 -0.035757 -0.078347 0.267 -0.6913 -0.25535 -0.33925 0.19674 1.2942 -0.16705 -0.80082 -0.48358 -0.20479 -0.71322 -1.1062 -0.84562 -0.35151 0.042465 -0.36588 -0.093633 -0.23501 -0.44847 0.25604 0.047733 -0.33813 -0.54057 0.1206 0.49301 0.23096 1.5011 -0.2768 -0.22498 -0.28268 -1.1077 -0.03222 0.6362 0.9301 -0.43483 -0.19396 0.22334 0.098468 -0.029102 0.81675 0.041873 -0.9315
skateboard.n 0.12166 0.66434 0.92848 -0.67643 -0.57326 0.24149 0.41966 0.15141 -1.1778 0.44549 0.50822 -0.60529 0.97794 -1.1087 -0.005586 0.5003 0.33667 0.28225 0.069813 -0.28146 0.025512 1.237 -0.37251 -0.80524 0.45828 0.045498 0.054571 0.51273 -0.83014 0.82559 -0.23615 -0.84165 -1.8483 -0.5326 -0.83276 0.4723 -0.16674 0.027229 -0.44265 -0.65827 -0.0086762 0.12583 0.2983 0.074612 0.45839 -0.52684 0.36349 0.33673 -0.24383 0.18843 0.24356 0.19004 -0.69594 0.2531 -0.47452 1.8469 -0.15386 -0.24165 0.76397 -0.94887 -0.6246 0.22719 1.1432 0.59025 -0.67441 0.67151 -0.29766 -0.062277 0.1937 -0.089838 -0.096702 0.52223 -0.088789 -0.32617 -0.35207 -0.46255 0.60282 -0.40628 0.36805 -0.12321 -0.48377 -0.17917 1.4553 -0.7161 0.21234 0.08469 0.013008 -0.11257 -0.37569 -0.45275 -0.0033822 -0.080248 0.4433 0.32255 0.25706 0.97597 -0.32938 0.68999 -0.49701 -1.1894
airplane.n -0.50413 1.2267 0.2641 -1.1492 -0.65216 0.31822 1.5574 0.74374 -0.6669 0.26259 0.51565 -0.4153 -0.15915 -0.18296 -1.2216 0.19768 0.4952 1.0641 0.13553 0.40275 -0.70812 1.1319 0.24552 -0.21802 0.064195 -0.33758 0.39081 0.3866 0.61597 0.61619 -0.6338 -1.0324 -0.87223 -0.62162 -0.41216 1.2777 -0.31779 -0.53295 0.016545 0.17152 -0.23288 0.38554 -0.12904 0.69327 -0.44958 -1.0991 2.4239e-06 -0.1896 -0.17885 0.80069 0.33117 0.81249 -0.56331 -0.38219 -0.23927 -0.0034096 -0.29677 0.090705 -0.54071 -1.1804 -0.57782 0.11636 0.80978 0.78699 -0.61165 -0.99167 -0.81004 0.099139 0.63665 -0.51332 -0.66323 0.54271 -0.19391 -0.077725 0.31898 -0.198 0.41407 0.054306 0.25124 -1.0137 0.010368 -0.32431 -0.32541 -0.61667 0.59041 -0.63079 0.19465 -0.15734 0.095721 -0.10733 0.45019 -0.11852 -0.34889 0.12105 -0.29032 0.84464 0.3604 1.0292 -0.26558 -0.70106
sand.n -0.22507 0.38526 -0.065969 -0.25691 0.4959 0.19553 -0.34103 -0.70615 -0.4831 0.22963 1.204 -0.58776 0.70683 -0.18963 -0.36286 -0.27114 0.9791 -0.95875 -0.39743 -0.19598 0.51281 -0.15166 0.19124 0.27102 -0.82327 -0.65328 0.29395 0.4847 0.45264 0.9333 0.13896 -1.3296 -0.40263 -0.04402 -0.80645 0.18168 -0.74769 0.0011978 -0.053808 -0.22785 -0.25323 -0.29514 -0.66297 0.43226 1.0579 0.51498 0.34895 0.85827 0.15026 -0.13069 -0.7974 0.61012 -1.1143 -0.53582 0.53002 0.38277 -0.67729 0.41638 0.76229 -1.1311 -0.44379 -0.17388 -0.095747 -0.03814 -0.12609 0.61426 -0.31582 0.10494 0.10169 0.20499 -0.63798 -0.62919 0.38647 0.0035913 -0.070519 0.13033 -0.13582 -0.30277 -1.0115 -0.078962 -0.27437 0.13853 0.78434 -0.59916 0.57498 -0.52356 0.45707 -0.69948 -0.090536 0.42197 0.050932 0.21708 -0.41983 0.14835 -0.70497 0.18033 0.46758 1.4931 1.1195 -0.24534
fire.n 0.089398 -0.4021 -0.57148 -0.2591 0.15464 0.58422 0.92164 0.76052 0.012129 0.47858 0.23498 -0.67716 0.87458 -0.52931 -0.11001 -0.0043386 0.60889 -0.31955 0.52792 0.48095 0.45922 0.57744 0.86839 -1.0034 0.74995 -1.0916 -0.0023005 0.75785 -0.24862 -0.013778 -0.076333 -0.3657 -0.51315 -0.43014 -0.64347 0.42423 -0.17947 -0.18624 -0.22512 -0.31265 -0.90666 -0.3259 -0.24734 -1.0027 -0.454 -1.7019 -0.45272 -0.17217 -0.20436 0.67137 -0.44264 0.3399 -0.7465 0.63049 0.52308 -0.53082 -0.46826 0.80039 -0.24119 -0.14653 -0.078916 -0.10609 0.78992 0.30666 0.27533 0.40132 -0.050732 0.062314 -0.99692 -0.62248 -0.69649 -0.35533 0.21462 -0.48228 -0.28742 0.68809 0.90112 -0.4398 0.61708 -0.28941 -0.55867 0.36448 0.24287 -0.15367 0.70909 -0.43353 0.25003 0.3337 0.43287 -0.15539 1.2196 -1.0954 1.3784 -0.1975 0.15037 0.52827 -0.24616 1.0094 -0.37072 -1.0349
air.n 0.013904 0.22865 0.72296 -0.43859 0.48966 0.00372 1.031 -0.0014042 -0.79571 0.08924 0.41946 -0.89423 -0.14006 -1.3272 -1.0365 -0.040855 -0.23185 0.39979 -0.83465 0.29531 -0.47987 0.76553 0.6061 0.33325 -0.25393 -0.061699 0.66027 0.12104 -0.34461 0.023614 -0.33387 -1.1535 -0.9095 -0.51141 0.4689 1.3742 0.012144 -0.069416 -0.11264 0.26367 0.38144 -0.46849 -0.28101 0.66916 0.20105 -0.29838 0.20108 0.17768 0.098121 0.33089 0.80614 0.036159 -0.98518 -0.073579 0.6111 0.11646 -0.76088 -0.087141 -0.72771 -2.0908 -0.19172 -0.5706 0.84937 0.3999 -0.37158 -0.44172 -1.0816 0.11393 -0.154 -0.85223 0.19639 1.0981 -0.76951 -1.5383 0.11362 0.66058 0.10467 -0.22792 0.078383 -0.80762 -0.14158 0.11523 -0.31683 -1.6167 -0.23416 -0.043972 0.14963 -0.82834 0.13155 0.70876 0.56472 -0.27058 -0.29593 -0.073902 -0.49375 0.59895 0.074243 0.84384 0.46756 -0.77021
bathroom.n -0.75513 0.24649 -0.97402 0.19442 -0.63673 -0.36346 -0.21223 0.47454 -0.62331 1.0206 0.26343 0.17613 -0.36584 -0.61342 -0.84434 0.042825 0.31305 -0.34356 0.020673 0.18878 0.25701 0.23927 0.19235 0.083712 0.36537 -0.0534 0.047394 0.11859 -0.17278 0.48431 -0.041595 -0.69852 -0.21491 0.74327 -0.95256 0.61911 -0.24241 -0.435 -0.11901 0.26585 -0.18789 -0.27847 -0.44484 -0.41678 0.52192 -0.23791 -0.21619 0.35206 -0.40468 -0.47377 -0.085333 -0.013719 -0.38105 -0.083114 0.60153 -0.97004 -0.89769 0.34083 -0.13222 -0.92312 -0.73132 0.011354 0.27595 0.60763 -1.1361 0.32759 -0.16399 0.74979 0.22897 -1.0445 -0.49616 -0.53805 0.011585 -1.1549 0.090017 -0.086274 1.5768 -0.086273 -0.36917 -0.36399 -0.22886 0.23362 1.3708 0.13768 -0.0050689 -0.55683 0.21475 0.054219 -0.34464 0.72629 1.1336 -0.24749 -0.34527 -0.090092 0.19517 -0.096224 -0.60564 0.17693 0.2493 -0.86202
park.n 0.26607 0.50266 0.56069 -0.76979 0.047399 -0.28282 -0.035612 0.10338 -0.32134 -0.042774 0.49579 -0.19124 0.40378 0.24984 0.24607 -0.44748 0.68705 0.13124 -1.0194 0.57099 0.112 0.69182 -0.65898 -0.34111 0.12005 -0.25569 0.49705 -0.16856 -0.49535 0.75321 0.50006 -0.91367 -1.0437 -0.86762 -0.24003 -0.61791 -0.67098 0.73956 -0.59808 0.080516 -0.38938 -0.47983 0.74941 0.7834 0.52364 -0.41494 -0.45406 1.2939 0.49147 -0.22627 -0.13505 0.57909 -0.98384 -0.055235 -0.044621 0.13328 -1.0133 0.14344 -0.078078 -1.006 -0.73751 -0.33933 0.53627 0.049889 0.18599 0.91968 0.40115 0.60082 -0.10263 -0.28024 -0.71477 0.37515 -0.39542 -0.62836 -0.23584 -1.0562 0.51743 0.11217 -0.016506 -0.18745 -0.94302 -0.6279 1.4997 -0.37246 1.0731 0.22547 0.27973 -0.46907 -0.23489 -0.11994 -0.12939 -0.18045 0.47794 -0.24619 -0.26874 0.00062155 -0.21502 0.59502 0.26068 -0.47445
hill.n -0.16499 0.48813 -0.095079 -0.25444 0.099959 0.53559 0.24639 -0.22543 0.15023 -0.30759 0.49626 -0.13805 -0.32586 -0.15138 -0.42271 0.038607 0.50555 -0.28431 0.23755 -0.63731 0.18872 -0.45386 0.061314 -0.012087 -0.6127 -0.88058 0.34396 -0.13368 -0.55317 0.66522 -0.19022 -0.85526 -0.51774 -0.49059 -0.84522 -0.3986 -0.63748 -0.12581 -0.41596 -0.45993 -0.61232 -0.85754 -0.11783 1.0686 0.62571 -0.56522 -0.49583 -0.17623 0.59104 -0.0062488 -0.81931 0.6987 -0.66197 -0.37421 -0.19811 0.12672 -0.33954 -0.42933 0.96233 -1.0789 -0.48389 -0.86645 1.0377 0.73722 -0.64383 0.5968 -0.45818 -0.85939 -0.47449 -0.35597 -1.1106 0.10026 -0.24252 -1.0211 -0.17854 0.09476 0.67571 -0.42997 -0.6428 0.11963 -0.069266 0.052206 0.40338 -0.67421 -0.34895 -0.52727 -0.55966 -0.54127 -0.092302 -0.38229 0.59439 -0.2957 -0.18029 -0.71834 0.043229 0.097053 0.12172 1.3723 0.56923 -0.37742
shade.n 0.023156 0.34772 0.25858 -0.29181 0.12876 0.15721 0.035462 -0.03198 0.6232 0.47315 0.47495 0.1057 0.25125 0.12479 -0.93279 0.67307 0.31146 -0.22748 -0.49988 0.30749 0.51917 0.20007 -0.072102 -0.14454 -0.15337 -0.7306 -0.2896 -0.49314 0.20845 -0.026547 0.30019 -0.64802 0.24959 0.040619 0.22103 0.69044 -0.054517 -0.69272 -1.1282 -0.10718 -0.59246 0.3843 0.27419 -0.20305 0.73596 0.6606 -0.27104 0.48055 0.55797 0.12084 -0.089831 -0.10499 -0.24745 0.15136 0.048413 -0.72683 -0.41425 -0.13801 0.34701 -0.8922 -1.6548 -0.54818 -0.34692 0.19592 -0.51681 0.037533 -0.0093591 0.7966 0.16217 -0.87104 -1.0754 -0.72724 -0.44531 -0.86459 0.04202 -1.2321 0.54135 0.40252 -0.21273 0.62662 -0.54876 0.83477 0.52466 -0.45918 0.51048 -1.2347 -0.18303 -0.098031 0.48441 0.43013 -0.31199 -0.48237 -0.2541 -0.083592 -0.63277 0.26655 0.49567 1.3127 -0.12492 -1.3344
palm.n -0.05907 0.52421 0.61124 -0.75097 -0.40985 -0.35336 0.11795 -0.4572 0.83255 0.36394 0.83643 -0.75161 -0.46019 0.16706 -0.58605 0.14214 0.41333 -0.15024 0.055445 0.29649 0.3501 0.054358 0.50067 -0.32095 0.42996 -0.32117 -0.070372 -0.056527 -0.47129 0.13146 0.92482 -1.1778 -0.88489 -1.0668 0.085718 -0.44366 -0.12979 0.61727 -0.25877 -0.77395 -0.40089 -0.20153 0.18564 0.62345 0.32435 -0.94722 -0.11569 0.24488 0.68476 0.29952 -0.42345 0.15482 -0.31325 0.094656 -0.13653 0.051399 -0.30282 0.11827 -0.12544 -0.36643 -0.55701 -0.058438 -0.15469 0.61864 -0.27663 0.53787 -0.14952 0.38674 -0.20691 -0.99141 -0.77091 0.5318 -0.2106 -0.25621 0.025726 -0.57707 0.1116 -0.17285 -0.335 -0.40365 -0.14172 0.31213 0.9098 -0.043547 1.1974 -0.68702 -0.09858 0.21126 -0.16962 -0.2703 0.53858 0.010859 -0.26582 -0.14693 -0.47272 -0.70072 -0.11735 0.73606 -0.28297 -0.053537
foot.n -0.37474 0.34486 0.41783 -1.2922 0.61513 -0.26377 -0.062562 0.80652 -0.12839 -0.75052 0.59248 -1.0046 0.16568 -0.21963 0.084359 0.36067 -0.06163 0.35415 0.48271 0.48154 0.33077 -0.033867 -1.0917 -0.071902 -0.37688 -0.23893 -0.044537 0.091556 -0.86891 0.21576 -0.3863 -0.26451 -1.5003 -0.55393 -0.97953 0.67928 -0.46392 -0.20273 -0.25849 0.094495 0.43715 0.18044 -0.93485 -0.084521 1.5765 0.37104 -0.25022 -0.09082 0.70308 -0.25597 -0.57339 0.082716 0.035804 0.077041 -0.30063 -0.0065062 -0.99388 -0.1936 1.1711 -1.5277 -0.23565 -0.1209 -0.075405 0.062663 -0.48024 0.70379 -0.4798 -0.24882 0.39316 -0.38311 -0.59832 -0.4316 -0.14581 0.11414 -0.37247 -0.41688 0.5886 -1.0626 -0.60239 -0.080934 -1.2896 0.53893 0.072606 -0.84314 0.42377 -0.025389 -0.078932 -0.65428 -0.64321 0.18733 0.0139 -0.34188 -0.60679 -0.1705 -0.57784 -0.12371 0.51174 1.1798 -0.56353 -0.69197
sunglasses.n -0.601 0.37939 0.83336 0.10157 -0.38846 0.78967 0.12828 -0.41954 0.2097 0.62712 0.66423 0.59346 0.31024 -0.63569 -1.1385 0.19123 0.45432 -0.00032274 0.10572 0.54995 0.29955 0.94539 -0.11124 0.20709 0.016424 -0.45577 -0.18052 0.0024813 0.19828 0.10468 -0.035565 -0.54043 -0.33946 -0.0041482 0.35446 -0.28846 -0.52033 -0.076584 -0.15468 -0.60315 -0.55863 0.34236 -0.6747 0.080366 0.75025 -0.33267 -0.2724 -0.45179 1.1329 -0.66315 0.29024 0.36576 -0.064919 0.43705 -0.10032 0.86745 -0.20293 0.05598 0.28392 -0.69405 -0.44932 0.49304 0.082849 0.34535 -0.68752 0.63425 -0.39964 0.4955 -0.86504 -0.63964 -0.53877 -0.72411 -0.019254 -0.37274 -0.039065 0.3309 0.24747 -0.1308 0.66783 -0.21535 -0.94167 0.063046 1.3466 -0.05625 0.73648 -0.61111 -0.14033 -0.83947 -0.17182 0.14396 0.14592 -0.73128 0.44917 -0.058272 0.28643 -0.50946 0.19918 0.67945 -0.84759 -0.31452
cow.n 0.63046 -0.17508 0.24375 0.71192 0.46992 1.413 0.24413 -0.24277 -0.064758 -0.1418 0.148 -0.091582 -0.07492 -0.88248 -0.65134 0.1945 0.5466 0.4067 0.41029 -0.13528 0.63267 -0.19363 0.42105 -0.21512 0.37487 -0.68829 0.28714 0.25279 0.884 0.19042 -0.62844 -1.4605 -0.91408 -0.12657 -0.62037 -0.85223 -0.89478 -0.19807 0.28651 -0.172 -0.16277 0.32145 -0.34659 0.32971 1.2026 -0.066307 0.23724 0.40913 1.0743 0.52628 -0.0079856 0.51538 -1.3122 0.40005 0.18415 -0.20816 -0.11671 0.28987 0.11047 -0.1485 -0.88463 0.43371 -0.23749 1.523 0.26646 -0.68727 -0.4503 -0.44787 -0.55794 -1.3546 -0.60102 0.17439 -0.14551 -0.20735 0.44497 -0.014326 0.90533 -0.51133 -0.17319 0.36236 -0.18791 0.07298 0.79681 -1.2548 0.60548 -0.4391 -0.12494 0.20635 0.17479 -0.37654 0.78912 -0.23887 -0.65514 0.21345 -0.4019 -0.33233 0.045921 0.72347 0.14939 -0.54667
pizza.n -1.0101 1.3183 0.49618 0.14672 -0.38662 0.13579 0.29028 -0.68055 -1.0219 0.77959 0.64362 -0.74807 0.25067 -1.1336 0.079623 -0.17847 -0.36214 0.67102 0.4099 0.87695 0.68196 0.58088 -0.68061 -0.94094 1.0506 -0.5029 0.12368 0.52113 0.5593 0.13453 0.90359 -1.4711 -1.0162 -0.31012 0.40669 0.34992 -0.18982 0.2202 0.061569 -1.303 -0.30539 -0.60075 -0.12242 -0.66238 0.89261 -0.81207 -0.14667 0.52181 0.46187 -0.34655 -0.15546 0.30222 0.3908 0.58038 -0.34378 -0.024619 -0.29626 0.37452 0.84828 -0.75721 -0.76528 -0.73641 0.088751 0.94492 0.13335 0.84683 0.14917 -0.18766 -0.37946 -0.53741 0.26691 -0.7218 -0.064496 -0.38931 0.75195 -0.36796 -0.1615 -0.65571 0.035571 0.58473 -0.042399 -0.63656 0.43354 0.2173 0.22226 -0.57742 0.80748 -0.071014 -0.14009 0.056422 0.56262 0.31111 0.34867 0.0011718 0.34578 -0.13715 -0.52288 0.63679 -0.39505 0.024151
painting.n -1.2905 -0.26383 0.39565 -0.1428 -0.32799 0.38012 0.58731 0.031024 0.014445 0.54837 0.18651 -0.11513 -0.19821 -0.7158 -0.78343 -0.64737 0.27831 0.64279 0.2227 0.39171 -0.27428 0.22777 0.25042 -0.30369 0.22461 -0.79515 0.26102 0.23085 -0.86041 0.44637 -0.4256 -0.19002 -0.81667 -0.042189 -0.2864 0.32211 -0.2504 0.74609 -0.14252 -0.29705 -1.2474 -0.42279 0.29185 0.18725 0.12839 -1.0787 -0.27724 0.25289 0.39865 0.070378 0.48585 0.10748 0.54261 -0.42971 -0.32409 -0.57034 -0.49111 0.26628 0.27575 -0.094836 -0.03879 -0.081124 -0.28125 0.6789 -0.065099 -0.20302 0.25977 1.0296 0.0025395 -0.31635 -0.23814 -0.99931 -0.90748 -0.16512 -0.19364 -0.32282 0.17605 -0.28079 -0.12205 -0.58261 -0.67755 0.31773 1.2207 -0.84859 0.80831 -0.45759 -0.013408 -0.32243 -0.66028 0.23257 0.22349 -0.62706 0.21981 0.13769 0.012757 0.044646 -0.10092 -0.063075 -0.09111 -0.8884
dress.n 0.18493 -0.17982 0.25935 0.2858 -0.14553 0.39872 -0.003593 0.12266 -0.47073 0.14766 0.2046 0.60467 -0.19908 -0.63745 -1.1014 0.54218 1.3695 0.087256 0.36337 -0.37968 -0.38964 0.80911 -0.072172 -0.046776 0.1846 -0.87471 -0.20601 0.062169 -0.12073 0.70573 0.040713 -0.029756 -0.70703 0.19733 -0.0018451 0.16322 -0.22651 -0.092271 -1.0167 -0.39831 -0.34534 0.2151 -0.59514 -0.6865 0.63139 -0.079788 -0.49662 -0.39268 0.6982 -0.43766 -0.38864 0.90351 -0.50131 -0.061156 -0.12619 0.027163 -0.7881 -0.45665 -0.072168 -0.8413 -0.40749 0.045558 -0.21753 0.95985 -0.54528 0.56008 -0.77671 0.061994 0.30652 -0.00018624 -0.19866 -0.90655 -0.72702 -0.028728 0.49492 0.4012 0.16621 -0.14145 -0.06364 -0.33799 -1.171 -0.25314 0.99619 -0.46016 0.88974 -0.30886 0.39237 -0.55225 -0.50595 -0.064739 0.37829 -0.35948 0.3939 0.3222 -0.24425 -0.94889 0.31599 0.070789 -0.54206 -0.46515
television.n -0.93712 0.32386 1.2498 0.62059 -0.37841 -0.49534 0.069822 0.086502 0.095557 0.34741 0.033389 0.34914 0.36296 -0.49227 -0.40899 0.24257 -0.026635 0.48649 -0.13091 0.1313 0.83121 0.096815 0.15959 -0.35287 0.95312 -0.69025 -0.080539 0.43747 -0.017229 -0.27617 -0.54576 -1.3604 -0.83016 0.22269 -0.21404 -0.11486 0.12324 -0.23274 -0.36919 0.054055 -0.72178 -0.42859 -0.24727 0.11743 0.65079 -0.92905 -0.04293 0.055317 0.23046 0.54663 0.048344 -0.80554 -0.7624 0.18156 0.050765 -0.35826 -0.51044 -0.48911 0.051569 -0.62366 0.14383 -0.64177 0.14293 0.23606 -1.5615 0.63566 -0.33029 -0.20949 -0.28043 -0.58194 -1.6964 -0.23416 -0.42661 -0.23715 -0.018104 0.13754 0.30906 0.077063 -0.16924 -0.61781 -0.61795 -0.021376 0.54472 -0.25074 1.1381 -0.50193 0.27199 0.30342 -0.67334 -0.24619 0.47908 -0.87675 -0.64667 0.14853 0.31136 0.50554 -0.24042 0.65126 0.15453 -0.30048
giraffe.n 0.67108 0.13374 0.2234 0.27245 -0.092842 0.85378 0.4389 -0.35247 -0.43004 -0.34638 -0.096031 -0.4695 -0.12417 -0.32582 -0.74021 0.22105 0.41693 0.4358 -0.33589 0.59555 0.35877 0.24055 0.065481 -1.1032 0.4079 0.013392 0.11573 -0.52949 0.36655 0.19767 0.33466 -1.4908 -1.2318 -0.14067 -0.55836 -0.84763 -0.65345 -0.030953 -0.17891 -0.13012 -0.037764 -0.17621 0.053898 0.084036 1.0687 -0.79937 -0.11241 -0.025705 0.66771 0.3549 0.073322 0.72554 -1.1658 0.24345 -0.041498 0.51454 -0.060904 0.45176 0.15649 -0.5923 -0.66942 0.66014 -0.36983 1.0041 0.26847 -0.84306 -0.25929 -0.097779 -0.0064574 -1.4523 -0.78727 0.12252 -0.065402 0.23271 0.4351 -0.75216 0.23096 -0.56533 -0.6434 0.15618 -0.26173 0.79533 1.0237 -0.36909 1.0865 -0.99119 -0.39994 -0.19224 -0.33914 0.070642 0.8314 0.3313 -0.88591 -0.33065 0.35814 0.1938 0.20359 0.68288 -0.18074 -0.60034
zebra.n 1.079 0.50258 0.37351 -0.25157 -0.45977 1.0335 0.63263 -0.038244 -0.39874 0.030695 0.50407 -0.73862 0.044354 0.00072358 -1.6523 0.070165 0.021184 0.14167 0.2407 0.7989 0.036395 0.52759 0.13129 -0.60472 -0.33564 -0.13541 -0.35553 -0.48645 0.69102 0.34005 -0.7908 -1.1239 -0.75992 0.20477 -1.0715 -0.29926 -0.52728 -0.21713 0.10767 -0.24005 -0.2779 0.7867 -0.75955 0.072229 1.3275 -0.27922 -0.4097 -0.18664 1.0328 0.51207 0.37604 0.5387 -1.0136 -0.21888 0.56593 0.13836 0.22167 -0.1221 -0.42371 -0.35923 -1.0541 0.71209 -0.004436 1.4391 -0.045402 -0.37835 -0.10159 0.058129 0.31379 -0.82638 -0.7758 -0.1136 -0.13552 0.015112 0.26062 -0.22606 0.70007 -0.26218 -0.58002 0.35414 0.082909 -0.2552 0.66265 -0.95289 1.0303 -0.33934 -0.3027 0.28984 -0.5297 0.12318 0.81433 0.65652 -1.0707 -0.375 0.39045 0.0075249 -0.043459 0.95986 0.25981 -0.7924
button.n -1.4313 0.46854 1.3788 0.59101 0.48936 0.083892 -0.43244 -0.059118 0.40668 0.12927 -0.18472 0.12692 -0.39216 -0.4941 -0.68507 0.39806 0.12475 0.20597 -0.27904 -1.25 0.15591 1.6976 0.41063 1.1004 0.35298 -0.75982 0.22395 -0.29275 0.74266 0.015371 -0.89363 -1.1148 -1.3014 0.16249 0.035811 0.07953 0.22795 -0.32563 -1.111 -0.93052 0.26759 0.64547 -0.664 -0.85056 0.39764 -1.0253 -0.055802 -0.64945 0.093706 -0.66132 -0.2664 0.37407 0.10102 0.50943 0.16295 -0.030777 -0.3985 -0.065458 0.43336 -1.113 0.49215 -0.17568 0.49096 1.0368 -0.5042 0.45213 -0.9776 -0.23293 0.40779 -0.61692 -0.54554 -0.8044 -0.13458 -1.2546 0.51336 -0.31782 1.0971 -0.080635 0.019323 -0.042504 0.0068953 0.42729 0.11404 -0.27391 0.31939 0.18121 0.53644 -0.31875 -0.42177 0.56636 0.70431 -0.090471 -0.6838 0.31509 -0.32824 0.10541 -0.30545 0.41518 -0.13957 -0.23004
candle.n -0.18487 -0.18047 0.39526 0.16469 -0.46684 0.3716 -0.42769 0.50396 0.96313 1.0162 1.0997 -0.0076147 0.37085 -0.01917 -0.53461 0.25964 0.44235 -0.1009 -0.079829 0.66274 0.8637 1.6099 0.35083 0.095793 0.89721 -0.2823 0.71345 -0.54855 0.19386 0.41248 0.60611 -1.1683 -0.8427 -0.046925 0.097541 0.043624 0.46763 -0.36912 -0.72866 -0.43573 -0.89296 -0.80112 -0.24806 -0.78468 0.17275 -0.71408 -0.48342 0.73052 0.93845 0.017599 0.26198 -0.26336 -0.49721 0.72765 0.36125 -1.2879 -0.91849 0.15987 0.68065 -0.40063 0.20739 -0.12467 -0.36601 0.98113 -0.12733 -0.0094603 -0.52895 0.49981 0.020973 -1.1346 -0.50468 -0.66863 -0.68665 -1.6981 -0.62851 0.28642 -1.0093 -0.81131 -0.62533 -0.098846 0.17458 0.014799 0.49146 0.32019 0.86106 -1.0118 0.95011 0.82689 0.054388 -0.057259 0.28557 -0.86344 0.22768 0.37315 -0.63489 -0.014114 -0.94056 0.81978 0.13515 -0.45385
step.n -0.76338 0.57611 0.12862 -0.14519 0.08361 -0.10501 -0.40994 -0.13373 0.28228 0.26039 0.48297 -0.81857 0.064949 0.37246 -0.089908 0.5339 1.2464 -0.012007 -0.19604 1.2003 -0.70792 1.1736 0.2879 0.24471 0.27908 -0.8553 0.17136 -0.31823 -0.34421 0.062533 0.59538 -1.078 -1.7907 -0.15099 -0.1955 -0.11756 0.052032 0.2845 -0.21454 -0.8649 -0.40154 -0.14589 -0.62911 0.32479 0.58542 -0.45093 -1.1262 -0.53017 0.059383 0.12295 -0.78177 1.6533 -0.74916 0.44198 -0.031643 0.30265 -0.39618 0.72502 0.25048 -0.59735 0.27582 -0.129 1.2286 1.2604 -0.51513 0.64211 -0.2036 0.42835 0.30472 -0.2811 -0.10839 0.47464 -0.76894 -0.20234 -0.67603 -0.021584 1.5459 -0.77911 0.1561 -0.34888 -0.50022 0.010253 0.33898 -0.80446 0.24297 -0.21498 0.83206 -0.60901 -1.0062 0.21242 0.78383 -0.73192 -0.16605 -0.079346 0.39285 0.52499 -0.34554 0.034878 0.086365 -0.95574
camera.n -0.57469 0.35857 0.9216 0.093349 -0.58642 0.1689 0.40216 -0.17158 0.52505 -0.22869 0.48391 0.32907 0.49001 -0.46108 -0.55372 -0.032645 -0.11842 0.96384 -0.16522 0.2608 -0.037262 0.30392 -0.56005 -0.444 -0.053053 -0.22514 -0.29296 -0.27264 0.29471 0.030754 0.23381 -1.2403 0.16324 -0.26017 0.24155 0.39504 -0.40913 0.2508 -0.16802 -0.36159 -0.19586 0.22044 -1.0252 -0.39825 1.1224 -0.25633 0.3736 -0.87216 0.96131 -0.26111 0.28746 -0.49057 -0.75049 0.36455 0.25013 0.22516 -0.61209 -0.12813 0.31209 0.1633 0.033655 0.18311 0.30488 0.47018 -0.089713 0.11564 -0.53514 -0.24108 -0.40002 -0.57973 -0.61126 -0.57862 0.017683 -1.208 -1.0973 0.040647 0.93915 -0.21632 0.49137 -0.3323 -1.086 -0.19709 0.91274 -0.21834 0.65522 -0.91608 0.24982 -0.12628 -0.2372 0.10821 1.3257 -0.70341 -0.27082 0.0088082 -0.17588 0.60569 0.18966 0.67877 -0.033516 -0.36891
