accountant -0.24086 0.45041 -0.011977 0.10834 0.17355 0.13802 0.16716 0.02874 -0.030382 -0.02472 0.42566 -0.031308 -0.081525 -0.071521 -0.49127 0.07171 0.1764 -0.29309 -0.010175 0.14275 0.28765 0.098572 0.13956 -0.25471 -0.15624 -0.60801 -0.076459 0.0043103 -0.17592 -0.16134 0.021987 -0.32206 -0.37224 0.092112 -0.25577 -0.07373 -0.27085 0.27875 -0.063359 -0.46547 -0.22525 -0.25871 0.0019751 0.040181 0.32884 -0.3853 -0.24048 -0.047934 0.39554 0.32237 -0.0048097 -0.033703 -0.12439 0.22241 0.23545 0.067184 -0.51247 -0.17354 0.21628 -0.54853 -0.041889 -0.14796 0.39152 0.3269 -0.24698 0.26119 -0.4751 0.45373 -0.11157 -0.098964 -0.38033 -0.18106 0.15109 -0.693 0.12982 -0.065637 0.21174 0.21921 -0.0091696 -0.23359 0.096908 0.12645 0.31032 -0.11745 0.33262 -0.3075 0.31003 -0.2347 0.053581 0.025119 0.62624 -0.18126 0.25167 -0.3748 -0.14192 0.14848 -0.1975 0.16013 0.12478 -0.19933
rein -0.19338 0.67469 0.45284 -0.32333 0.19399 -0.29795 0.10616 0.24793 -0.2431 0.097893 -0.039095 0.13386 0.28803 -0.30474 -0.23761 -0.16749 0.50066 0.37643 0.082555 0.37538 0.059704 0.4393 -0.14109 0.29113 0.21249 -0.3709 -0.31612 0.010323 0.2593 0.13238 0.028261 -0.57209 -0.34894 -0.32531 -0.10502 0.10255 -0.50843 0.25436 -0.45205 -0.45282 0.10858 -0.13023 -0.17468 0.10713 0.28536 -0.27259 0.054049 -0.19766 0.28948 -0.10676 -0.31229 0.051005 -0.21987 0.48819 0.21783 0.071062 -0.61265 0.072754 0.17691 -0.54013 0.0004157 0.04122 0.22388 0.5065 0.076985 -0.076938 -0.43756 -0.10288 -0.0094074 -0.33935 -0.28707 -0.218 0.065635 -0.50705 -0.075116 0.21826 0.75043 -0.21098 -0.20415 0.023513 -0.51173 0.090119 0.4685 -0.2608 0.26813 -0.19181 0.2789 -0.46863 -0.11303 0.27335 0.22039 -0.24435 0.041876 -0.1674 -0.60929 0.15578 0.22759 0.48073 -0.25454 -0.12225
graffito -0.47567 0.42672 0.28738 -0.25455 0.12133 0.23324 0.144 -0.072006 0.081835 0.6419 0.015521 -0.30186 -0.025885 -0.27586 -0.35704 -0.35967 0.19011 0.013571 0.031331 0.2813 -0.16238 0.41537 0.16349 -0.11895 0.21864 -0.10029 0.053687 0.20568 -0.15536 0.41275 0.14163 -0.45342 -1.2073 -0.25251 -0.17507 -0.31127 -0.27742 0.22851 -0.17053 -0.35963 -0.32598 0.015172 0.73612 -0.036033 0.036288 -0.75563 0.14441 -0.057911 -0.011078 0.06516 -0.15968 0.19889 -0.49107 -0.043378 0.012809 -0.1326 -0.41394 0.30456 0.64455 -1.003 -0.2734 0.1336 0.37458 0.33353 -0.071711 0.042662 -0.062561 0.32653 -0.29132 0.0058924 -0.68846 0.0098005 -0.19449 -0.51122 0.45082 -0.3962 0.77951 -0.14671 -0.31362 0.40576 -0.81058 0.057042 0.60755 -0.48806 0.44774 0.012999 0.16226 -0.20606 0.034345 -0.043378 0.39906 -0.29686 -0.11467 -0.089316 -0.10212 0.29057 -0.15388 0.48224 -0.021326 -0.20502
building -0.88933 0.12723 -0.4333 -0.57073 -0.072018 0.11595 0.078853 -0.42906 0.16951 1.087 0.091165 -0.41149 -0.12297 -0.20345 -1.0901 -0.068592 0.73798 0.22897 0.17272 0.29816 0.25788 0.40764 0.27947 -0.098232 0.0463 -0.27562 -0.10727 -0.57575 -0.65566 0.71443 0.00080815 -1.3636 -0.78468 -0.49763 -0.3435 -0.79576 -0.5879 0.10173 -0.23331 -0.44153 -0.011664 -0.45314 0.1198 0.19037 -0.070582 -0.54196 -0.20016 -0.051073 0.73591 -0.45516 -0.49114 0.82015 -0.11632 -0.019091 0.1318 -0.53209 -0.76079 0.51473 0.13348 -1.266 -0.34813 -0.19574 0.71293 0.5966 -0.8966 -0.3916 -0.51284 1.0119 0.31093 -0.17583 -1.5346 0.13878 -0.039974 -0.72245 -0.26671 -1.0471 0.38171 0.47087 0.37719 -0.10889 -0.3301 0.24556 -0.21825 -0.23924 0.36947 -0.38189 0.26529 -0.2375 0.51627 0.25453 0.63668 -0.73444 -0.19666 -0.0020772 -0.27459 0.59209 0.17022 0.63906 0.040331 0.36346
window -0.69952 -0.063566 -0.17754 0.34868 0.46001 -0.4475 -0.41151 0.11578 0.37702 1.5131 0.076066 -0.32492 0.2599 0.38742 -0.73595 -0.54944 -0.19536 0.083644 0.30905 -0.0098767 0.3111 1.188 0.11203 0.29577 0.49702 -1.0664 0.46703 -0.49295 -0.60154 0.044556 0.31529 -0.42296 -0.43519 -1.0289 -0.94886 -0.30416 -0.79744 0.42195 0.26923 -0.43964 -0.28226 -0.2165 -0.4464 0.61941 0.79205 0.37845 -0.38383 -0.2599 0.65477 -0.35742 -0.29556 0.074101 -1.2017 0.29333 0.40802 0.37169 -0.67793 0.96104 0.80834 -0.22055 -0.76016 -0.34085 0.54801 0.80512 -1.0723 -0.0057708 -0.582 0.60936 -0.11501 -0.6266 -1.1685 -0.52784 -0.96824 -0.27206 0.21088 -0.36198 0.30613 0.20072 0.35987 -0.18044 0.476 0.014762 0.2794 -0.76365 0.21188 0.01655 0.35493 -0.030462 0.59094 0.29318 0.93375 -0.7559 -0.29837 0.11035 -0.075808 -0.60703 -0.35957 0.73873 -0.041383 -0.34539
car 0.033169 0.18608 -0.071991 -0.67224 -0.28709 0.26657 0.056013 -0.12395 0.31728 0.1234 -0.18151 -0.74196 0.093971 0.45599 -0.70888 0.27543 -0.11343 0.38853 0.52342 -0.36363 -0.44028 0.76172 -0.72094 0.27726 -0.040496 -0.2217 -0.17808 -0.32351 0.41432 0.87258 -0.48103 -1.3645 -0.70621 -0.4409 -0.85098 0.10314 -0.36394 -0.10192 -0.56241 0.14091 0.17384 -0.30235 -0.14791 -0.51246 -0.067232 -0.66728 0.14164 -0.20119 -0.049387 -0.14381 -0.52566 0.18453 -1.1479 0.7332 0.25258 -0.44285 0.12217 0.4736 0.70872 -0.51405 -0.74823 0.46856 0.48263 0.90792 -0.12687 0.32771 -0.90447 0.51588 -0.80274 -0.61188 -0.51204 -0.16493 -0.3546 -0.66308 0.45823 0.0074506 0.91153 -0.29085 -0.29815 -0.19341 -0.2054 0.07659 0.1167 0.73332 0.73504 -0.688 0.89502 -0.58718 -0.42339 -0.36427 0.89238 -0.54332 -0.13003 0.08217 -0.29008 -0.5567 0.5269 1.1941 -0.38212 -0.71689
tree -0.50074 0.58362 -0.062086 0.016516 -0.35781 -0.19068 0.32711 -0.188 0.72364 0.98606 0.57431 -0.79065 -0.38119 0.12551 -0.23155 0.052114 0.26035 -0.51404 0.065075 0.12903 -0.23834 0.17016 0.83067 -0.34909 -0.16991 -0.31651 -0.54236 0.64422 -0.10001 0.58653 0.29179 -0.82632 -1.447 -1.0887 -0.8464 -0.25812 -0.41976 0.0069935 -0.48912 -0.3877 -0.90628 -0.22444 -0.17954 0.48258 0.88864 -0.63894 -0.63099 0.40236 0.93822 0.35165 -0.64091 -0.41628 -0.38125 0.12027 -0.32087 0.20762 -0.054526 -0.12485 0.15083 -0.83126 -0.41651 -0.29546 0.12009 0.60577 0.32145 0.95143 -0.37612 0.16158 -0.80389 -0.33177 -1.3088 0.55991 -0.57348 -0.83817 -0.61646 -0.95467 0.30608 0.57037 -0.16818 -0.25024 0.0015365 0.8824 0.35669 0.070117 0.87917 0.15763 0.48566 -0.047848 -0.50612 -0.021582 0.78793 0.63528 -0.42647 0.44509 -0.049762 -0.30848 -0.027581 0.63527 -0.32795 -0.82807
person 0.038356 1.0631 0.39682 -0.12122 0.54047 0.44647 -0.056216 0.42132 0.5418 0.5222 0.84426 -0.27911 -0.088637 -0.57914 -0.47541 -0.017388 0.93178 0.11426 -0.28204 0.21456 0.50611 1.1718 0.105 -0.66589 -0.21452 -0.66956 0.564 -0.75371 -0.014537 0.81452 -0.28175 -1.1033 -0.70473 0.33745 -0.13049 -0.41581 -0.54418 0.15321 -0.51132 -0.28745 0.24901 0.37351 0.19058 0.010122 0.66623 0.10765 0.17878 -0.029046 0.62663 -0.57878 -0.057801 1.3102 -0.81641 0.37921 -0.12715 0.40572 -0.70035 0.35997 -0.65653 -0.28929 0.48499 -0.41777 0.10575 0.6386 0.27172 0.85322 -0.99949 -0.29545 0.11137 -0.02119 -0.6477 -0.10787 0.1168 -0.70225 -0.29243 0.30068 0.40114 0.038181 0.22236 0.47363 -0.34789 0.4484 -0.1715 -0.5363 0.41207 -0.081482 -0.019147 -0.60797 -0.44962 -0.19111 0.69834 0.073507 0.40541 0.16777 0.60505 -0.31096 -0.067201 0.76176 -0.08819 -1.4978
side -0.85252 0.44773 -0.057967 -0.6635 0.28494 0.29408 0.068776 0.39826 0.18994 0.80327 -0.082248 0.11891 0.077799 -0.46406 -0.36865 -0.25839 0.0075032 -0.34964 0.2657 0.45241 0.11739 -0.26523 0.30838 -0.072911 0.3027 -0.30801 0.20217 -0.38389 -0.15464 -0.042751 -0.46267 -0.086496 -0.66077 -0.39256 -0.20428 -0.066134 -0.14416 0.34952 -0.61352 -0.29112 -0.22285 -0.82227 0.073173 -0.37458 -0.032457 -0.4462 0.21483 -0.11877 0.29923 0.065264 -0.29242 0.51196 -0.24497 0.63229 -0.0908 0.11924 -0.27269 0.84407 0.48652 -0.32974 -0.3009 0.39724 0.50011 -0.10478 -0.67479 -0.059366 -0.69014 0.9371 0.29729 -0.96831 -0.82079 -0.034141 -0.21757 -0.49861 -0.28212 -0.11905 1.0062 0.088955 0.019883 0.87641 -0.0042199 0.59896 0.27932 -0.61656 0.71477 -0.11407 0.10321 -0.38408 -0.98209 0.033081 0.091186 0.14061 -0.58178 -0.04498 -0.2246 -0.25404 0.68515 1.2694 0.59567 -0.51525
table -0.16396 0.40897 0.018391 0.18968 -0.19151 0.61926 0.33442 -0.21623 0.43465 0.23955 0.28306 0.39386 0.8613 0.28567 -0.64502 -0.18624 1.1027 -0.55311 -0.12974 0.45965 0.27679 0.8811 0.041316 0.5995 -0.63757 -0.42089 -0.2118 0.29747 -0.4382 -0.4377 -0.31807 -0.75568 -0.64444 -0.16802 -0.34896 0.83 0.1361 0.62058 0.03451 -0.48343 0.051975 -0.19478 -0.17133 -0.67998 0.55184 -0.25302 -0.98005 0.16641 0.14498 0.090891 -0.40078 0.051815 0.081667 0.97829 -0.066694 0.41371 -0.96359 -0.39229 -0.094562 -0.81113 -0.73241 0.094914 -0.29045 0.61662 -0.29135 0.15673 -0.36572 0.16142 0.12033 -0.36557 -0.54945 -0.46763 -0.71813 -0.37838 0.16093 -0.1274 0.19854 0.15398 -0.66044 0.26504 0.32282 0.12458 0.038979 -0.50224 0.73124 -0.4501 1.4187 -0.016795 -0.88195 0.47586 0.67507 -0.32703 -0.0089858 -0.10668 0.38213 -0.095858 -0.72722 0.50194 0.68378 -0.63694
light -0.51073 0.51118 0.51392 -0.7477 0.41315 0.15291 -0.61957 0.19509 0.10436 0.27605 -0.16566 0.32377 -0.16913 -0.10623 -0.35804 0.60087 -0.030769 -0.085477 0.65962 0.1927 -0.1402 0.91991 0.084181 0.29421 0.64002 0.16654 -0.045903 -0.22522 -1.0514 0.21552 0.94562 -0.87289 -0.29049 -0.49035 -0.13394 -0.19976 -0.95076 -0.55078 -0.58894 -0.093649 -0.1345 0.5473 0.27561 -0.41341 0.15579 -0.9006 0.11194 0.030626 0.30943 0.16389 0.5296 -0.67712 -0.62445 0.20124 0.11048 0.012307 -1.017 -0.098604 0.43848 -0.23335 -0.51362 -0.29083 -0.45619 0.21522 -0.10401 0.95866 -0.72555 0.22223 0.36439 -0.62722 -0.80083 0.0090862 -0.42038 -0.62877 -0.27309 -0.21017 0.7784 -0.17955 0.34874 0.012013 -0.10654 0.87428 0.28959 0.10193 0.83357 -0.688 -0.24159 -0.24532 0.10128 -0.060382 0.47921 0.0079079 -0.45473 -0.007909 -0.23418 0.34616 -0.52531 0.67115 0.1258 -0.51505
shirt 0.14906 0.2189 0.83505 -0.0888 -0.0032325 0.27409 0.021231 0.14298 -0.37441 0.73106 0.60832 -0.15708 0.21963 -0.95674 -0.29005 0.56954 0.5443 -0.22017 -0.19409 -0.2912 -0.13826 0.55191 0.010376 0.40657 0.11572 -0.53779 -0.15811 -0.19246 0.2783 0.35585 -0.048558 -0.30916 -0.93466 -0.37193 -0.069763 0.074348 -0.011559 -0.2188 -1.3047 -0.80975 -0.24517 0.6992 -0.69341 -0.39515 0.81882 -0.46352 0.73004 -0.41851 1.2093 -0.64528 -0.19889 0.93939 -0.59123 -0.15471 -0.14086 0.026389 -0.56553 0.0037567 -0.17686 -0.58172 -0.822 0.45449 -0.42158 0.97488 -0.40501 0.81744 -0.44043 0.9913 -0.093064 -0.71118 0.21849 -0.32843 0.10093 -0.57858 0.45971 -0.069319 0.14459 0.066082 0.27443 -0.44007 -0.8401 -0.21012 0.74102 -0.77181 0.51539 0.087757 0.47785 -0.32169 -0.72717 -0.25351 0.44528 -0.0038886 0.72945 0.53587 -0.16373 0.12793 0.027442 0.33957 -0.075098 -0.91745
glass -1.2158 1.0728 0.09533 0.23947 -0.31977 0.46997 0.10168 0.56688 0.72521 0.70137 0.33414 0.96299 0.62539 -0.075815 -1.0751 0.32392 -0.15844 0.14585 0.29916 0.57639 -0.57527 1.1372 0.65766 0.26485 0.034972 -0.37868 0.8339 -0.18647 -0.009095 0.18279 0.38029 -0.64399 0.036715 -0.61256 -0.15408 -0.36056 -0.11138 -0.27568 -0.1675 -0.95719 -0.43882 -0.29052 -0.56057 -0.24734 0.23874 0.29926 -0.50212 -0.7368 -0.040701 -0.39595 -0.3865 -0.20903 -0.087566 0.40014 -0.4554 0.5202 -0.37844 0.31435 0.30462 -0.82328 -0.22287 -0.54196 0.61129 0.87457 -0.57155 0.095573 -0.076445 1.1462 -0.51468 -0.44854 -0.54151 0.18684 -1.046 0.087586 -0.0823 0.65571 0.28281 0.15555 -0.53592 0.74914 -0.75679 0.40891 1.4923 -0.27132 0.49927 -0.31279 0.2051 -0.3668 0.44652 0.27894 0.69613 -0.72779 -0.013501 -0.49564 0.18153 -0.44048 -0.27826 0.42406 -0.36474 -0.07417
chair 0.82103 0.32131 0.1814 -0.38129 -0.070638 -0.058419 -0.76254 0.12918 -0.12591 0.7844 0.40645 -0.32354 0.80017 0.25753 -0.10057 0.78656 0.40409 0.13731 -0.062005 -0.60929 0.13299 1.063 0.64001 0.38366 0.096431 0.13251 -0.13948 0.11353 -0.66315 0.3754 -0.64202 -0.88001 -1.0138 0.20369 -0.19385 0.81995 -0.80368 0.44753 -0.42202 0.13214 -0.10057 -0.075302 -0.19446 0.33254 1.004 0.23963 -0.056884 -0.10002 -0.18993 -0.21776 0.8033 0.17198 -0.72118 0.94951 0.37873 0.22623 -1.2653 -0.072677 -0.32924 -1.3441 -0.83226 0.4444 0.07194 0.74496 -0.15451 -0.12734 0.063695 0.24239 -0.78131 -0.56432 -0.52966 -0.014456 -0.55884 -0.7122 0.23752 -0.55188 -0.43514 -0.46139 -0.22771 0.39814 -0.46599 0.6016 0.18002 -0.73944 1.38 -0.88504 0.50875 -0.80414 -0.89064 0.81351 1.1854 -0.80853 0.46389 -0.057093 0.57202 0.1031 0.13494 0.14614 0.11305 -0.21031
water -0.074279 0.71996 0.3096 0.066555 -0.18846 0.24455 -0.054226 -0.046888 0.26361 0.74569 0.6266 -0.78284 0.37141 -0.79707 -0.51282 -0.34075 -0.11058 -0.21276 -0.48887 -0.054975 -0.43975 0.00038751 0.1009 0.10393 0.029887 -1.1802 -0.24651 -0.050547 -0.69361 -0.0079019 0.70137 -0.40388 0.53623 -0.61013 -1.3382 0.2727 -0.17011 -0.064516 -0.32049 -0.31113 -0.13026 -0.045403 -0.050656 -0.053434 -0.058473 -0.68936 0.56116 -0.027586 -0.1248 -0.58592 0.16613 1.0317 -0.69099 0.91339 -0.32952 0.75777 -0.28316 0.3264 0.064795 -1.2079 -0.0023388 -0.4623 -0.60163 -0.085741 -0.29093 0.43672 0.28838 -0.012908 0.055791 -0.64471 -0.91345 0.096673 0.96644 -0.63395 -0.47903 0.027038 0.79791 -0.30236 -0.048709 -0.31664 0.25583 0.50491 1.3648 -0.55725 0.7422 -0.59479 0.39129 0.37483 0.066297 0.82429 0.98999 -0.06646 -0.35155 -0.58547 -0.44766 -0.059574 0.040438 0.56311 -0.14217 -0.46677
door -1.4603 0.46418 -0.061675 0.48347 0.69857 -1.0317 -0.6329 0.27541 -0.25324 0.53359 -0.086839 -0.65117 0.38507 0.21093 -0.90938 0.14516 0.35284 0.018753 0.49529 0.034978 0.28568 0.37903 0.0014192 -0.20658 0.33864 -0.87278 0.21887 -0.054146 -0.022853 -0.66714 0.54375 -0.69064 -0.34584 -0.65257 0.051233 0.2996 -0.047297 -0.1757 -0.47469 -0.069759 0.044677 -0.33158 1.0992 0.17627 0.28585 -0.20033 -0.080136 -0.71013 -0.076088 -0.075485 0.09235 0.26573 -1.0741 0.10329 0.13942 -0.66837 -0.61893 1.1126 0.47788 -0.71804 -0.49301 0.036442 -0.0060643 1.1291 -0.24097 -0.075165 -0.11254 0.33411 0.0068515 -1.0298 -0.55716 -0.26962 -0.54498 -0.068214 -0.18527 -0.39902 0.68767 0.33293 0.097937 0.086044 -1.0108 -0.22458 0.83269 -0.51373 0.12635 0.024108 0.39344 0.30491 -0.66572 0.019943 1.0019 -0.22584 -0.10128 0.067166 -0.074289 -0.64242 -0.029276 0.91099 0.036901 -0.35539
plate -0.9665 0.88155 -0.9411 -0.15552 0.0719 0.97439 -0.0044855 0.012799 -0.24851 0.69407 0.11164 -0.33097 0.52987 -0.015469 -0.2642 -0.18092 0.25185 -1.0301 0.024143 0.82669 -0.044471 1.2184 -0.30276 -0.24583 1.49 -0.32795 0.3069 0.034231 0.73394 -0.61987 -0.84671 -0.34389 -0.54978 -0.50046 -0.2314 0.81465 -0.93491 -0.15695 -0.34573 -1.317 -0.50827 0.31331 0.42297 -0.34468 0.48682 -0.34429 -0.62481 -0.27461 0.22302 0.16082 0.51269 -0.21469 -0.13974 0.041795 -1.0226 0.06629 -0.24797 0.099683 0.4794 -0.22371 -0.024688 -0.4377 -0.36917 1.1345 0.34011 0.18006 0.23598 0.19733 -0.19942 -0.55186 -1.4301 -0.20675 -1.0023 -0.11952 -0.14361 -0.39363 0.2589 -0.85029 -0.45554 -0.67965 0.10348 0.36037 1.1089 0.3883 -0.32224 -0.027496 1.0903 -0.17144 -0.51349 0.65973 0.34941 -0.057923 -0.52749 -0.28582 -0.088262 -0.24811 -0.33061 0.29109 -0.10597 -0.65665
bus 0.18364 0.67759 -0.0637 -0.26646 -0.24752 0.45816 0.11444 -0.13203 -0.60645 1.0045 0.15539 -0.14837 0.10766 0.35896 -1.059 0.67482 0.39578 0.28079 0.73177 -0.61383 -0.69181 0.21052 0.0813 0.33719 0.38191 -0.29905 -0.041129 -0.6378 0.21734 0.055571 -0.81476 -0.73699 -0.36895 -0.17834 -0.92306 0.39427 -0.22238 0.17249 -0.12518 -0.13419 -0.26752 -0.29794 -0.18507 -0.32602 -0.56131 -0.65761 -0.21536 0.30644 0.22916 -0.16426 -0.24756 -0.26532 -0.35263 0.14089 -0.021721 0.068048 -0.43845 0.25393 0.29767 -0.97378 -0.14421 0.28329 0.59181 1.5854 -0.4177 -0.024152 -0.76153 0.74166 0.088594 -0.31629 -0.7 0.22639 -0.39007 -1.2008 0.74255 -0.42303 0.47222 0.54683 0.093573 -0.42259 0.15058 0.04307 0.29168 -0.19962 0.79008 -0.30478 0.59675 -0.4417 -0.27314 -0.68081 0.47779 0.3295 0.13814 0.33129 -0.38906 0.091546 0.6575 1.3215 -0.70677 0.146
floor -0.43543 0.55836 0.35502 -0.086026 0.30723 -0.0015045 -0.67559 -0.48243 -0.21466 0.14104 0.40981 0.27135 0.16233 0.25348 -0.84747 0.24252 0.83018 -0.47789 -0.45933 0.15562 0.050426 0.17222 0.2502 -0.20511 0.34382 -0.45608 0.41248 0.3509 -0.45641 0.098018 -0.29307 -0.75433 -0.97931 -0.16454 -0.18 0.10261 0.17373 -0.58351 -0.30266 0.52761 0.18312 -0.021927 -0.70462 -0.6053 0.56668 0.17462 -0.58772 -0.6437 -0.55273 0.01514 0.063981 0.35285 -0.43645 -0.035712 0.66736 -0.038023 -1.5432 -0.035139 0.91772 -0.70966 -1.4048 -0.15679 0.0398 0.29425 -0.96337 -0.099469 -0.084856 0.2741 -0.078504 -0.73053 -0.64599 0.10712 -0.082619 0.13798 -0.5015 0.22762 0.85037 0.51971 -1.0445 -0.52851 -0.90254 0.18265 0.25236 -0.31641 0.35045 0.57148 0.78846 -0.1551 0.011247 0.18726 0.92316 -0.078304 -0.35112 0.089012 0.48743 0.17809 -0.70056 0.59113 0.34096 -0.64945
house 0.14348 -0.055368 0.021375 -0.62548 0.24474 -0.18854 -0.27837 -0.29144 0.55164 1.0183 0.31359 -0.2448 -0.062067 -0.10829 -0.85611 0.33661 0.50882 0.46377 0.3748 -0.092981 0.73835 -0.20653 0.13615 -0.14323 0.45737 -0.62528 0.63242 -0.030667 -0.55924 0.93345 0.19635 -1.1794 -0.75069 -0.5286 -0.038513 -0.60337 -0.97538 0.34929 -0.73099 -0.03605 0.16867 -0.45789 0.49866 0.25295 0.045826 -0.51654 -0.45403 -0.17911 -0.067282 0.31522 -0.22522 0.62047 -0.39 -0.27959 -0.31768 -0.76333 -0.80916 0.41811 -0.17646 -1.1506 -0.67944 -0.26158 0.64487 0.6758 -0.81821 -0.50914 -0.37422 0.33031 0.1167 -0.54643 -1.3863 -0.090097 -0.20305 -0.48697 0.53415 -0.42136 0.19115 0.31384 -0.32387 -0.20415 -0.32602 0.46375 -0.020265 -0.15252 0.082012 -0.27928 0.070856 -0.55599 -0.20266 -0.042122 0.8376 -0.32018 0.014501 -0.19793 -0.41533 0.46618 -0.0097644 0.30249 0.025917 0.039588
brick -0.41391 0.20409 -0.045906 -0.46101 0.052999 0.22329 0.20254 0.34801 0.27426 0.68021 0.069044 0.0094561 0.074371 -0.51101 -0.49094 -0.2337 0.64056 0.16237 -0.33685 -0.4308 0.30658 0.42061 0.72272 -0.15972 0.72796 -1.0554 -0.15118 -0.88248 -0.23445 0.25971 0.44937 -0.58328 -1.7069 -0.41541 -0.42722 -0.58622 -0.55414 0.70447 0.0098894 0.20845 -0.97432 -0.059267 -0.40651 -0.13825 -0.0097498 -0.31902 -0.35146 0.5148 -0.26744 0.0075764 -0.20804 0.56288 -0.94772 -0.28589 0.12823 -0.29778 -0.14052 0.36155 0.32974 -1.1771 -0.31324 0.21511 1.0254 0.69372 -0.45436 0.13105 -0.148 1.246 0.21752 -0.025066 -1.3337 -0.27177 -0.38667 0.12144 -0.32839 -0.6006 0.5436 0.37208 0.55578 -0.28411 -0.91214 0.7641 -0.24168 -0.061683 0.53818 -0.64419 -0.18033 0.42745 0.14276 0.096577 0.7708 -0.62166 0.12143 0.24019 -0.34034 0.29104 0.07575 0.90866 -0.35035 -0.32452
desk -0.14265 0.5199 0.10929 0.41781 -0.46383 0.041736 0.72065 -0.54121 -0.27119 -0.10835 0.028448 0.47519 0.86591 0.20447 -0.17375 -0.19877 0.40646 -0.49127 0.0096822 -0.26454 0.80049 0.64631 0.60184 0.62812 -0.23181 -0.17097 0.19277 0.35472 -0.88458 0.065896 -0.63381 -0.98174 -1.0089 -0.15551 0.023787 0.771 0.10955 0.43437 -0.42403 0.14457 0.23133 -0.22346 0.34932 -0.49235 0.599 -0.77774 -0.31969 -0.269 0.21973 -0.0045191 -0.24086 0.13684 -0.098729 1.1783 -0.10529 0.19836 -0.84661 -0.60607 0.094276 -0.58171 -0.44577 -0.40406 0.5664 0.3454 -0.97687 0.051361 0.39585 0.10107 -0.29888 -1.3717 -0.8178 -1.0275 -0.17969 -0.40059 -0.066915 -0.25171 0.45385 0.47878 -0.32634 -0.014253 -0.43205 -0.28856 0.44109 -0.81663 0.73336 -1.0635 0.93591 -0.38283 -0.33929 0.54612 0.78211 -0.11187 -0.18032 0.031432 0.16281 -0.19451 -0.5018 0.32513 0.55779 -0.35075
train 0.12183 0.99024 0.64603 -0.16229 0.32681 0.60615 -0.013662 0.031464 -0.23993 0.31832 -0.44474 -0.51746 0.74409 -0.24124 -0.57541 -0.18496 1.1353 0.50728 0.64862 -0.012329 -0.16927 0.12771 0.16967 0.26615 0.12555 -0.074601 0.46442 0.211 0.21809 0.22942 -0.54593 -0.61344 -0.27957 -0.85597 -0.62992 0.48688 -0.50879 0.37464 -0.11041 -0.29605 -0.016342 -0.020549 -0.23835 0.40702 -0.48818 -1.2794 -0.31033 -0.77958 0.07028 -0.075232 0.19694 0.65345 -0.83991 -0.4375 -0.23566 -0.59652 -0.017686 0.6095 -0.22166 -1.122 -0.36346 -0.22456 0.38529 0.93204 -0.61831 -0.47131 -0.69822 0.51161 -0.28523 -0.36221 -1.1397 0.78001 -0.19171 -0.95434 -0.22608 -0.12402 0.52953 -0.40855 -0.063674 0.22184 -0.53926 0.51636 0.15947 0.43355 0.43551 -0.29508 1.3191 -0.18776 -0.0050826 -0.43671 0.35938 0.20493 -0.40262 0.098895 -0.18293 0.41876 0.25841 0.87299 -0.96213 0.34453
lamp 0.46587 0.0024964 -0.15474 -0.25339 -0.11044 0.23801 0.27476 0.37974 0.75145 0.64144 -0.14022 -0.26462 0.14882 0.31011 -0.88383 0.46048 0.50575 -0.50518 0.49411 -0.25188 0.1531 0.81708 0.22629 -0.20189 0.1168 0.38432 -0.018624 -0.13891 -1.0759 0.053726 0.14623 -0.70922 -0.58768 0.092554 0.030252 0.057909 -0.078849 -0.72857 -0.91615 -0.48993 -0.37918 0.35558 0.31849 -0.040817 0.58299 -0.38534 -0.62314 0.16254 0.74208 0.10954 0.46775 -0.64093 -0.63323 0.73613 0.059648 -0.63022 -0.82374 0.2474 0.46501 -0.37986 -0.20942 -0.69071 -0.51899 0.5277 -0.51756 0.38312 0.016682 -0.39428 0.28347 -0.84802 -1.5378 -0.66435 -0.24404 -0.89524 -0.44493 -0.62709 0.78741 0.62224 0.16571 0.684 -0.83107 0.84902 0.37817 -0.74325 1.1934 -1.2061 -0.087169 0.39529 0.090878 -0.052354 0.55459 -1.2908 -0.47073 0.22482 -0.38395 -0.21445 0.10454 0.77321 -0.19992 -0.59289
back 0.15449 0.90371 -0.21357 -0.48539 0.62662 0.24556 0.0074024 -0.072996 -0.65659 0.58007 -0.17175 0.16739 0.49898 0.014695 0.27543 -0.42947 -0.4129 0.41654 0.54908 -0.067082 -0.11674 0.097659 -0.3806 0.6265 0.33191 -0.075276 0.061242 -0.31 -0.17545 0.045328 -0.2841 -0.2807 -0.67389 -0.01727 -0.84169 -0.015259 -0.62357 -0.031251 -0.4763 0.027329 -0.81422 -0.056333 -0.43773 -0.51389 0.54188 0.075127 0.43422 -0.24927 0.51443 0.37966 0.15272 -0.17553 -0.093611 0.92875 -0.058542 0.29131 -1.0816 0.56268 -0.36251 -1.0095 -0.14601 0.24515 0.22609 0.49887 -0.031283 0.20328 -0.66317 0.12554 -0.11278 -0.39795 -0.23266 -0.38089 -0.024344 -0.45887 -0.067956 -0.41064 0.72439 -0.15643 0.31231 -0.59695 -0.53313 0.27842 0.46274 0.2636 0.47437 -0.35072 0.34662 -0.49564 -0.58032 0.53263 0.25605 0.39283 -0.28943 -0.60811 0.14125 0.064019 0.42973 0.87324 0.46086 -0.52983
truck -0.089908 0.49393 -0.46353 -0.77778 0.22521 0.019408 0.68594 0.10164 -0.14121 0.28026 0.0098869 -0.72531 0.23379 -0.12833 -0.79512 -0.41309 0.094605 -0.16271 0.61221 0.095971 0.12292 0.21381 -0.38513 -0.23842 -0.49227 0.017161 -0.095283 0.11782 0.37712 0.96852 -0.6738 -0.75555 -0.55413 -0.33945 -0.56686 0.28884 -0.25859 0.12405 -0.53317 -0.06683 -0.85754 -0.005261 -0.2257 -0.60797 -0.63583 -0.87128 0.29072 -0.42448 -0.043262 0.22591 0.054382 0.51417 -0.58564 0.39454 -0.49754 -0.33912 0.10059 0.52773 -0.0098755 -0.74033 -0.64793 0.013642 0.23671 1.6681 0.30029 -0.20552 -1.0272 0.095778 -0.50292 -0.59893 -0.6228 0.015324 -0.16871 -0.87093 0.81679 0.22652 0.88326 0.49024 0.20898 -0.14897 -0.21274 0.24856 -0.16869 0.058653 0.38431 -1.022 0.22441 -0.37779 -0.14791 -0.29979 0.57033 -0.28542 0.10584 0.18971 -0.27392 0.47035 -0.083279 1.1131 -0.13332 -0.19557
head 0.0397 0.19635 0.61312 0.069187 0.39762 0.18459 -0.59511 -0.25083 -0.11943 0.074273 -0.0042128 -0.13342 0.42265 -0.53975 -0.55529 0.2318 0.36714 0.26681 0.45966 1.1608 0.5349 -0.088476 -0.18492 0.30603 0.15736 -0.29907 0.24821 -0.24326 -0.065061 -0.0098111 -0.1169 -0.045219 -0.0010192 -0.46952 -0.52709 -0.30878 -0.75151 -0.77213 -0.21537 -0.31597 0.32505 -0.3802 -1.0132 -0.1473 0.74455 -0.69797 -0.47958 -0.55256 1.0779 0.15236 0.1648 0.19752 0.36322 0.58534 0.35556 0.41598 -0.55841 -0.080797 0.23053 -0.9008 -0.78908 0.0061751 -0.32878 1.2863 -0.0037037 0.73343 -1.4738 -0.55045 -1.1538 -0.97425 -0.50883 -0.86375 -0.31177 0.023915 -0.40778 -0.58122 0.66143 -0.83986 0.62503 0.3956 -0.26026 0.33017 0.54989 -0.60467 0.74079 0.75531 0.13377 -0.41556 -0.45874 0.62526 -0.091421 0.15417 0.064518 -0.22731 0.069384 0.36598 0.25766 0.26514 -0.46652 -0.85307
wood -0.34997 0.48911 0.19164 0.27167 0.34903 0.648 -0.50821 -0.16454 0.28333 0.79002 -0.33784 -0.21702 0.47565 -0.19331 -0.3711 0.22282 0.48188 -0.068231 0.033182 1.1208 1.3126 0.096102 0.70172 0.46476 -0.24683 0.090994 0.57765 0.79118 -0.16003 -0.21727 0.033392 -0.85176 -1.3169 -0.24577 -0.27065 0.48109 -0.011471 1.0021 0.2728 -0.083091 -0.052972 0.022241 -0.62135 -0.5689 0.1944 -0.15558 -0.48733 0.17722 -0.4683 -0.13064 -0.11451 -0.64739 -0.90538 0.24971 -0.77979 -0.30148 -0.71862 0.58036 0.47146 -1.2182 -0.42757 -0.016019 -0.60888 0.803 -0.13096 0.29884 -0.27675 0.15339 0.39841 -0.22632 -0.51164 0.1067 -0.069005 -0.23662 -0.030969 -0.33509 0.67245 -0.10538 -0.30652 0.25071 -1.1138 0.43618 0.20734 0.1191 0.63848 -0.2655 -0.76562 -0.12797 0.019738 0.16224 0.77291 -0.49409 -0.13933 -0.37541 -0.59043 0.054829 -0.60097 0.28879 -0.016939 -0.43707
hair 0.70475 0.32952 0.79866 0.33119 -0.47799 0.37522 -0.29989 -0.56793 -0.3956 0.50635 0.13321 -0.23135 0.15539 -1.5168 -1.0369 0.95347 -0.4689 0.0071018 -0.062167 0.75269 -0.3524 0.85219 -0.0079306 0.25328 -0.27419 -0.29862 -0.22932 -0.026192 -0.081965 0.068744 0.4032 -0.75637 -1.1522 -0.028169 0.44435 0.23889 -0.52971 0.10784 -0.68281 0.016638 0.37091 0.29628 -1.2413 0.1428 0.30645 -0.18886 -0.70439 0.048423 1.0171 -0.36709 0.37205 0.22329 -1.4988 0.098929 0.24981 0.26172 -0.42438 0.28307 0.091097 -1.5583 -0.58114 0.7197 -0.17548 0.83925 -0.084718 0.48114 -0.4816 0.11412 -1.0367 -0.46422 -0.070444 -0.37845 -0.39423 -0.91855 -0.079823 0.27961 -0.11541 -0.66915 -0.27773 -0.30678 -0.61904 0.81876 0.41657 -0.56412 0.40341 -0.77642 0.014101 -0.41335 -1.2563 0.655 -0.098608 0.031651 0.60336 0.28068 0.01848 -0.10244 0.091818 0.15719 0.091705 -0.37516
tire -0.49596 0.62907 -0.80746 -0.53462 1.0592 0.4573 -0.16269 0.53152 -0.16914 0.7198 -0.055481 -0.41791 -0.34694 0.29101 -0.61364 -0.48459 -0.080482 -0.7113 0.63137 0.68368 -0.16017 0.21313 0.32695 0.44946 0.74685 -0.64168 0.0025825 0.28013 0.36005 0.46988 -1.2615 -0.65529 -1.3131 -1.028 -0.48965 0.62427 -0.34016 -0.49629 -0.83122 -0.13255 -0.60864 -0.31982 -0.062931 -0.1714 0.60073 -0.70237 -0.73631 -0.052866 0.20696 -0.10965 -0.031383 0.30531 -0.93558 0.55 0.37791 0.6224 0.15775 1.0778 -0.52091 -0.73131 -0.33845 -0.80856 -0.13194 1.2409 0.2726 0.51701 -0.11333 -0.17709 -0.82746 -0.61367 -1.4112 -0.19534 0.037 -0.98918 0.14675 0.099845 0.96924 -1.1573 0.19295 -0.31058 -0.9265 -0.35219 0.3896 0.055408 0.32457 -0.090531 0.39399 -0.27141 -0.19884 -0.025598 0.083201 -0.87437 0.56356 0.42647 0.6609 0.33141 -0.034897 1.3241 -0.44788 -0.60234
computer -0.34388 0.87485 0.45522 0.30954 -0.56312 0.048625 0.91178 -0.43401 -0.31102 0.36051 -0.22986 0.095157 1.1093 -0.14888 0.15537 -0.28501 -0.022913 0.09106 -0.33408 -0.60718 0.49764 0.70742 0.29838 0.12509 0.39656 -0.29853 0.12925 0.057558 -0.4587 -0.50671 -0.60637 -1.0713 -0.84325 -0.42419 -0.29734 0.068428 0.06504 0.35191 -0.27642 -0.57809 0.12312 0.19868 -0.22269 -0.60773 0.86184 -0.75175 0.032672 -0.54479 0.25752 -0.11496 0.13067 0.27391 -0.56229 1.1405 -0.4875 0.27246 -0.29255 -0.36299 0.32437 -0.3141 -0.54566 -0.75869 0.31356 0.44414 -1.5895 0.53966 0.15475 -0.13245 -0.47603 -1.1332 -1.0092 -1.0793 0.34932 -0.43629 0.28104 -0.58083 0.30569 -0.070696 -0.065762 -0.52801 -0.86053 -0.28824 0.64181 -0.70434 0.48989 -1.3174 0.36177 0.014966 -0.52685 -0.020855 0.55037 -0.67118 -0.89594 -0.23408 0.55417 0.2126 0.16693 0.19871 -0.4343 -0.2142
jacket 0.13116 -0.37846 0.23223 0.057506 -0.077988 0.40726 -0.037112 0.30472 -0.97939 0.59333 0.75885 -0.10191 0.2919 -0.81682 -0.74157 0.61474 0.58742 -0.27897 0.26362 -0.63782 -0.40947 0.30042 -0.25749 1.1283 0.048828 -0.65547 0.10512 -0.36871 0.27699 0.51205 -0.22099 -0.32052 -0.83734 0.018451 -0.18903 0.31064 -0.50732 0.46572 -0.58766 -0.85139 -0.48036 0.67611 -0.50171 -0.32832 0.5035 -0.51603 0.33998 -0.11491 0.97292 -0.69542 0.087696 0.50447 -0.83578 0.18472 -0.21391 0.074033 -0.19845 0.085861 -0.4805 -0.95647 -0.67514 -0.032889 0.29452 0.6041 -0.28673 0.86339 -1.2341 0.47519 -0.27026 -0.46618 -0.36283 -0.57369 0.23445 -0.72252 0.10903 -0.3591 0.065264 -0.049765 0.79452 -0.3554 -0.71197 0.21861 0.96559 0.08673 0.45691 -0.12582 0.1998 -0.60169 -0.34215 0.032655 0.20006 -0.50648 0.016615 0.17808 -0.18793 0.060383 -0.052284 0.27213 -0.33986 -0.70467
shelf -0.37783 0.83597 -0.43871 0.69119 -0.32764 0.094807 0.23778 -0.29351 0.38674 0.009972 0.35767 0.43255 -0.039116 -0.37669 -0.59345 0.050461 0.20595 -0.59273 0.002484 0.33757 0.93792 0.1049 0.29168 -0.010633 0.037286 -0.55244 0.57973 0.91253 -0.080036 0.05476 -0.24339 -0.65751 -1.1173 0.43819 -0.39236 0.20805 -0.27576 -0.30332 -0.3418 -0.29344 -0.27915 -1.0433 0.099663 0.52417 0.24801 -0.21355 -0.16806 -0.38794 0.15093 -0.47831 -0.21085 0.42349 0.18728 1.0283 0.36448 0.61318 -1.1945 -0.39316 0.3572 -0.92764 -0.69697 -0.13077 0.39618 0.097062 -0.66584 -0.41044 -0.32782 0.79864 -0.35632 -0.75856 -0.32058 -0.85823 -1.1952 0.27731 -0.084305 0.79011 1.0226 0.077632 0.17231 -0.16995 -0.33969 0.52002 -0.24468 -1.1747 0.63742 -0.58353 1.2331 0.3096 -0.34052 0.46052 0.72904 -0.6067 0.16204 0.047232 -0.3183 -0.35568 -0.8045 0.57389 -0.06491 0.16537
bed 0.12639 -0.29885 -0.44395 -0.13372 0.23936 0.058506 -0.51778 -0.261 -0.50551 0.080138 0.27708 0.086876 0.018013 -0.17599 -0.053139 0.81748 0.87335 0.10768 0.45588 0.11111 1.0308 0.065824 -0.19231 0.13499 -0.60207 0.2485 1.5167 -0.092415 -0.10208 -0.077999 -0.6872 -0.22513 -0.41361 0.087874 -0.82197 0.78884 -0.31575 -0.086665 -0.42408 -0.5206 -0.35945 0.41125 -0.10553 -0.71706 0.79849 -0.79434 -0.086174 -0.7602 0.71468 0.30899 0.085058 0.81309 -0.36164 -0.09952 0.11946 -0.15253 -1.3941 -0.31282 0.80468 -0.45735 -0.37642 -0.95454 0.23597 0.52329 -0.08307 0.066755 0.81352 -0.14802 -0.26523 -0.98996 -0.91729 -0.34553 -1.1943 0.033977 -0.073088 -0.87405 1.2262 0.3255 -0.98237 -0.17466 -0.85371 1.0412 0.70748 -0.17996 1.2752 -0.76961 -0.23871 -0.25728 -0.1818 0.61991 0.74143 -0.48224 -0.22783 0.91689 -0.34717 -0.50374 -0.074934 0.32949 -0.064684 -0.021184
bottle -0.29446 0.71138 0.26044 -0.33737 -0.25849 -0.025172 -0.03754 0.54348 0.095614 0.98755 1.1206 0.79069 0.4413 -0.8821 -1.2205 1.1912 0.015984 -0.67912 0.12596 0.38127 0.28086 1.2116 -0.19835 -0.10033 0.1328 -0.45707 0.62787 0.40768 -0.1638 -0.10084 -0.16524 -0.40584 -0.34838 -0.34924 0.11144 0.72402 -0.29594 0.060387 0.33117 -0.77594 -0.33637 -0.56555 -0.24181 0.0083629 -0.35434 0.51667 -0.6181 -0.54287 0.54924 -0.57072 -0.43772 0.047229 0.40343 0.94673 -0.46337 -0.47251 -0.13701 0.52452 0.16521 -1.0899 -0.23491 0.21529 0.55737 1.0081 -0.026462 -0.11786 -0.049674 0.22523 -1.2116 -1.0861 -0.73198 -0.17458 0.67806 -1.1893 -0.2513 -0.2455 0.20656 0.13107 0.070966 -0.13892 0.058689 -0.091032 1.9808 -0.70512 0.54819 -0.59316 0.31774 0.64577 0.055112 -0.31002 -0.17385 -0.013264 0.25535 -0.023207 0.25157 -0.3655 -0.71581 0.49843 0.68725 -0.21325
field 0.089086 -0.45562 0.32041 0.19514 -0.10748 0.34969 1.1017 -0.20421 -0.16491 0.18354 -0.12317 -0.24288 -0.10505 -0.30284 -0.31928 -0.38212 0.62369 -0.50548 0.36605 0.604 0.36687 -0.5539 -0.30027 0.10518 0.60404 -1.1094 0.22899 0.27677 -0.067974 0.50748 -0.21964 -0.99808 -0.20816 -0.49945 -0.47522 -0.67076 -0.20392 -0.14584 -0.49542 -1.0483 -0.85697 -0.73567 -0.075666 0.85502 0.69023 -0.38126 -0.099892 0.18743 0.69729 0.050545 -0.91137 0.57393 -1.135 -0.58428 -0.0049145 -0.46671 -0.51945 0.28033 -0.38079 -1.2156 -0.73213 -0.40455 -0.23835 0.35009 0.35981 0.76654 -0.12265 0.047959 -0.39977 -0.67726 -0.70035 -0.15573 -0.67656 -0.62906 0.10545 -0.040975 0.99932 -0.89806 -0.30308 0.15128 -0.055983 -0.74887 0.9116 -0.92267 0.81327 0.35234 -0.12539 -0.28275 0.11645 -0.26069 0.96024 -0.11835 -0.81402 -0.51892 -0.24724 -0.21038 0.50663 0.57058 0.33421 -0.53483
bag -0.35875 0.69616 0.038784 -0.64311 -0.44903 0.014345 -0.1838 -0.27847 -0.77331 0.86548 0.90948 0.52581 0.34453 -0.45212 -0.38152 0.21018 0.89041 -0.48523 -0.11241 0.45965 -0.37192 -0.30446 -0.60018 0.3777 0.76205 0.023183 0.12765 -0.12802 0.027811 0.64689 -0.45813 -0.60714 -0.94767 0.082417 -0.38044 -0.092081 -0.47327 0.42777 -0.22466 -0.25999 -0.8964 0.75398 -0.24438 -0.52374 0.6336 0.21246 0.30476 -0.96022 0.41697 -0.69764 0.31013 0.10699 -0.10035 1.0344 0.24032 -0.69321 -0.33922 -0.21261 -0.61727 -0.31748 -0.28423 0.2206 -0.019759 0.98461 0.48106 0.31129 -0.81894 -0.4185 -0.29778 -0.3335 -0.58335 -0.84463 -0.045805 -0.25883 0.54811 -0.63428 0.51614 0.15584 0.1936 -0.1722 -0.65064 -0.32539 1.4577 0.064409 0.12762 -1.2899 0.71508 -0.36822 -0.44891 0.72796 -0.074363 0.39541 -0.34603 0.47302 0.011501 0.18856 -0.79849 0.45405 0.18518 -0.82377
roof -0.22719 0.82928 -0.79861 0.0748 0.75522 0.088032 -0.56678 0.12661 0.58816 0.58356 0.43564 -0.29005 -0.30763 0.028133 -0.19507 0.5239 -0.25707 -0.28191 0.49018 -0.15721 -0.15667 -0.54036 0.48272 -0.23976 0.083523 -1.3827 -0.091258 -0.096094 0.21605 -0.27112 0.14614 -0.44867 -1.2008 -0.45559 0.084638 -0.19218 -0.3637 -0.22346 -0.83183 0.27087 -0.40445 -0.12819 0.0077146 -0.32638 0.13271 -0.25762 0.035962 -0.73125 -0.31791 0.2524 -0.3914 0.31498 -0.39636 -0.75368 0.13722 0.061444 -1.085 0.33655 1.0313 -1.0348 -0.69748 -0.096536 0.71419 0.4878 -1.0442 -0.23591 -0.83234 0.70415 -0.29776 -0.30352 -1.2477 0.28021 -0.12565 -0.95273 -0.86208 -0.73731 0.22612 -0.74373 -0.21564 0.00061 -0.68075 0.076721 -0.14341 -0.025372 -0.79074 -0.52656 0.42601 0.053859 0.076905 0.60744 1.3146 -0.29682 -0.033464 0.18199 -0.53972 0.4186 -0.22053 0.67476 0.51919 -0.69195
traffic 0.34687 0.86646 0.10715 0.56332 -0.16394 0.54381 0.44223 0.51065 -0.059735 0.37399 0.37573 -0.48667 -0.5191 -0.0029644 -0.44066 -0.082426 0.47861 -0.31536 0.33795 0.045073 -0.34216 0.90021 0.24967 -0.00064084 0.587 0.37323 -0.35475 -0.17241 -0.42286 -0.57379 0.021689 -0.45476 -0.29609 -0.027198 -0.097124 -0.58844 0.090495 0.12946 -0.11248 0.067147 -0.2026 -0.052871 0.59458 0.048646 0.040997 -1.3404 0.29461 0.12507 0.4848 0.19696 0.34483 -0.24232 -0.7405 -0.30715 0.19393 -0.094218 -0.57961 -0.70819 1.0774 -1.3984 -0.95562 0.023798 0.15178 0.27389 -0.11397 0.17779 -1.1933 0.28192 -0.25442 0.067754 -1.2854 0.27642 -0.31485 -1.2518 -0.10769 -0.53892 0.8901 -0.78494 0.24141 0.52154 -1.2962 0.24917 0.73931 -0.20585 1.1093 -0.47056 0.91719 -0.45589 0.014505 -0.55555 0.55256 -0.47669 -0.4852 0.33517 -0.13123 0.54159 0.086912 1.2193 -0.27053 -0.31949
hat 0.066853 0.0030436 0.35035 0.279 -0.1928 0.67982 -0.0015222 0.6162 -0.26994 0.85398 0.81112 0.07296 0.37112 -0.35879 -0.41902 0.75063 0.1423 -0.37557 -0.13152 0.1937 0.19679 0.35159 0.041071 -0.30422 -0.11176 -0.59 -0.25071 0.6236 0.68661 0.80956 -0.22074 -0.44546 -0.78932 0.22349 0.06037 0.0094958 -0.42739 -0.021562 -0.90342 -0.57377 -0.21275 -0.021075 -0.859 0.15919 0.43067 -0.28399 0.14344 -0.4386 0.98156 -0.11778 -0.23495 0.3245 -0.72639 -0.11003 -0.32663 0.38814 -0.61882 0.17552 0.28946 -0.87454 -0.30597 0.55673 0.14897 0.58054 0.039454 0.55221 -1.414 0.47536 -0.59142 -0.37606 -0.16067 -1.2334 -0.10652 -0.65366 -0.47415 0.023064 -0.083671 -0.63036 -0.2098 -0.7655 -0.28379 -0.21954 0.74263 0.28222 0.23821 -0.40897 -0.11177 -0.75007 0.47184 -0.17459 -0.52986 -0.50645 0.26441 -0.069468 -0.1567 0.34965 -0.60335 0.6819 -0.56429 -0.59116
plant -0.30424 0.26704 -0.10016 -0.21003 -0.91126 -0.49861 -0.023221 0.18874 0.56231 1.0021 1.2443 -0.07832 -0.74021 -0.14041 -0.55575 0.33836 0.76524 0.12577 -0.41646 1.0239 -0.10889 0.52234 0.13575 -0.80126 0.185 -0.58724 -0.063476 -0.17103 -0.39571 0.61714 0.33011 -0.31059 -1.7237 -0.22432 -0.30496 0.65885 -0.15442 -0.17806 -0.22676 -0.198 -0.5498 0.34724 -0.36589 -0.042863 0.34062 -0.7627 -0.43226 -0.080988 0.1568 1.2492 -0.33564 -0.25145 -0.51882 0.10585 -0.75821 -0.83053 -0.23395 0.55606 -0.0071395 -0.92459 -0.32017 -0.39004 0.11744 0.55635 0.021578 0.098612 -0.47179 0.759 0.41717 -1.0651 -1.3396 0.3331 -0.34721 0.037764 -0.13789 -0.45132 0.10756 -0.038483 -0.25539 -0.5402 0.069506 1.0307 0.49078 -0.86227 1.231 -0.70542 0.60504 0.065535 -0.040213 -0.38212 0.98997 0.61242 -0.89039 -0.077863 -0.12498 0.22246 -0.87927 -0.0087899 -0.065956 -0.38236
room -0.20912 0.34684 -0.32443 1.0346 -0.64084 -0.20831 0.37742 0.3006 0.10463 0.86858 0.49914 -0.19669 -0.057235 0.099009 -0.48498 0.31762 0.031237 0.40342 -0.0060685 0.27514 0.44406 0.45052 0.32075 0.54195 0.25262 -0.62247 0.54381 -0.24533 -0.99424 -0.072678 -0.43279 -0.92627 -0.8737 0.27232 -0.42142 0.33732 -0.27328 -0.19178 -0.096987 0.4206 -0.25631 -0.13272 -0.6058 -0.468 0.27651 -0.21862 0.12707 -0.16339 0.13539 -0.43362 -0.067478 -0.45283 -0.5107 -0.68104 -0.1698 -1.2489 -1.7367 -0.28506 -0.2972 -1.167 -1.316 -0.14295 0.098047 0.58513 -0.40506 0.43539 -0.12749 0.6083 0.43119 -0.41409 -0.16872 -0.16594 -0.43035 -0.57067 -0.60644 -0.77263 1.0223 -0.27984 -0.6932 -0.28957 -0.57856 0.17514 0.61275 0.0057996 0.62379 -0.45402 -0.018423 -0.49877 -0.5525 0.5 0.94849 -0.50724 -0.084879 -0.5123 0.051874 0.69899 0.4838 -0.18794 0.40362 -0.18457
counter -0.57399 0.66674 -0.53884 0.77307 -0.17702 0.24725 -0.45616 -0.5831 -0.4846 0.31809 0.64348 0.43372 0.10753 -0.50328 -0.56405 0.13603 0.58465 -0.61652 0.27554 0.34761 0.50984 0.15155 -0.092699 0.41703 -0.16504 -0.88265 0.087636 0.88941 -0.10485 -0.51589 -0.19782 -0.69997 -0.73981 0.066949 -0.64098 0.33966 0.33168 0.31023 -0.016411 -0.54765 0.24757 -0.59171 -0.069544 -0.2879 -0.013142 -0.42577 -0.20561 0.079714 0.079115 -0.088685 -0.23641 -0.088837 0.30934 1.106 0.31927 0.33714 -0.86322 -0.74716 0.43334 -0.99816 -0.16578 -0.27627 0.48038 0.47832 -0.51835 0.6462 -0.58091 1.032 0.14976 -0.59529 -0.29539 -0.78987 0.027303 -0.68567 0.49223 0.20434 0.51712 -0.34332 -0.24012 -0.010173 0.65367 0.386 0.98684 0.097605 0.10328 -0.71262 1.4874 -0.22944 -0.3572 0.10107 1.2288 -0.31476 -0.20535 -0.089933 0.49473 -0.20631 -1.0036 0.24311 0.37953 -0.54211
flower -0.40938 0.3351 -0.33724 -0.012346 0.30813 -0.47355 -0.29715 -0.13116 0.44372 1.4529 0.47445 0.75269 -0.4319 -0.39922 -0.45992 0.13451 1.121 -0.11345 -0.3279 0.18682 0.13508 0.36974 -0.32236 -0.58943 0.32687 -0.72961 0.35646 -0.72186 -1.0747 1.6208 0.46515 -0.05936 -1.0522 0.020616 -0.33072 0.36803 -0.0114 -0.65209 0.021691 -0.08669 -0.12736 0.76587 -0.61 -0.34053 0.83206 -1.0402 -0.81157 0.22863 0.5131 0.36624 -0.1583 0.58519 -0.42947 0.18941 -0.61083 -0.8817 -0.46042 -0.26344 0.60702 -0.78807 -0.68709 -0.16855 0.37013 0.065837 0.14376 -0.22665 -0.57004 0.041662 0.22965 -1.0303 -0.63302 0.2627 -0.5003 -0.38846 0.58337 -0.22219 -0.26126 -0.34521 -0.95305 0.44348 -0.46126 0.183 0.61443 -1.0806 1.0429 -0.19152 0.36896 0.20119 -0.20461 0.14922 0.79616 0.34471 -0.22672 0.20186 0.12531 -0.69188 -0.47915 0.34859 -0.39243 -0.10908
color -0.75924 -0.15263 0.57163 -0.057887 1.2476 -0.58169 0.3762 -0.34029 0.14439 0.070302 -0.006703 1.062 0.78709 -0.2031 -0.50934 0.016692 -0.68089 -0.57255 -0.11468 -0.34265 0.52963 0.14382 0.062115 0.71469 0.14393 -0.50217 0.072069 0.40885 0.27743 0.12711 -0.030011 -0.45494 -0.95295 0.23331 -0.71154 -0.16415 -0.089935 0.050121 -0.43569 -0.47855 0.49912 0.72911 0.40404 -0.79034 0.31435 -0.33028 0.36733 0.8828 0.43555 0.16603 -0.12199 0.64507 -0.42464 -0.19539 -0.0040413 -0.68212 -0.57461 0.52417 -0.070536 -1.1433 -0.31032 0.0065209 0.29642 0.59966 0.45038 0.026249 -0.23955 0.51941 -0.030842 -0.72683 -0.21829 0.54018 -0.41347 -0.40618 -0.77122 -0.20413 0.8345 -0.14779 0.037549 -0.35907 -0.40601 0.54205 0.77686 -0.00040775 0.39038 -0.38858 0.28975 -0.53441 -0.1504 -0.14012 0.34754 -0.29894 -0.2027 -0.56533 -0.48156 -0.79288 -0.085149 0.4513 0.10819 -0.54248
van -0.14354 0.83682 -0.22063 -0.57699 -0.21864 0.35898 0.087641 0.13683 0.0023002 0.33502 -0.06903 -0.22449 0.21027 0.4369 -0.87847 0.41495 -0.057202 0.062866 0.41337 -0.4387 -0.18587 0.71605 -0.85383 -0.33005 -0.19994 -0.12834 0.29944 -0.056228 0.20584 0.65865 -0.99431 -0.87921 -0.56267 -0.29608 -0.73302 0.15089 -0.4385 -0.20372 -0.91272 -0.15592 -0.48988 0.3241 0.38725 -0.42565 -0.25127 -0.55871 0.37755 -0.28013 0.096542 -0.092393 -0.05442 0.016898 -0.77834 -0.14722 -0.11052 -0.16157 -0.065049 0.85436 0.45386 -0.59162 -0.81972 0.33079 0.63152 0.87711 -0.45245 0.041751 -0.52582 0.75847 -0.71017 -0.88142 -0.36479 -0.068053 0.10145 -0.63401 0.81768 -0.10293 0.84814 0.1631 -0.093428 -0.14872 -0.045023 0.086705 0.32754 -0.10206 0.66009 -0.91569 0.39283 -0.29976 -0.25309 -0.29042 0.77389 -0.29275 0.030078 -0.16286 -0.46917 -0.1605 0.7352 1.0532 -0.28694 -0.31994
box -0.032521 0.89091 -0.0030882 -0.22164 0.024728 -0.30401 -0.083186 -0.3384 -0.40344 0.6613 0.40314 -0.22277 0.80191 -0.10273 -0.8939 0.75574 0.30172 -0.34993 -0.081692 -0.13144 0.03265 0.2355 -0.46193 -0.43681 0.70174 0.062571 -0.030158 1.2231 0.68477 -0.13561 -0.37343 0.49757 -1.3224 -0.53528 -0.35642 -0.10588 -0.31079 -0.38476 -0.44011 -0.95897 0.2175 -0.20317 0.14024 -0.55903 -0.16099 -0.23169 -0.35529 -0.061968 0.10065 0.14524 -0.0052105 -0.62232 -0.12884 0.74249 -0.47177 -0.3858 -1.0743 0.64824 -0.43888 -0.22641 -0.19764 -0.87442 0.085191 0.3557 -0.17964 0.19252 -1.0158 -0.22547 -0.049935 -1.2108 -1.2262 -0.33586 -0.42251 -0.030323 0.26098 -0.13011 0.64814 0.41431 -0.48546 -0.0036938 -0.55588 -0.010564 0.32781 -0.49898 0.21988 -0.32646 0.55145 -0.15343 0.31869 0.15511 -0.19106 0.093504 0.067947 -0.18832 -0.36246 0.38446 -0.34072 0.18325 1.0954 -0.38603
ceiling -0.22289 0.2351 -0.090905 0.41826 0.030639 0.54875 0.41088 -0.30157 0.23724 0.92195 0.15455 0.049933 0.19059 0.0024935 -0.91512 0.11645 -0.26781 -0.23888 0.25235 0.8293 0.30091 0.46978 0.58436 -0.36623 0.39185 -0.45237 0.67115 0.14406 -1.124 0.029336 0.34408 -0.94199 -0.29395 -0.53055 0.24512 -0.0467 0.20446 -0.11862 -0.39098 0.85679 -0.2095 -0.30303 -0.43693 -0.49104 0.48805 -0.82497 -0.22549 -0.88327 -0.58533 0.99924 0.48067 -0.13817 0.44998 -0.31593 0.87248 -0.96059 -0.79776 0.037507 0.74024 -1.3046 -0.36945 -0.86408 -0.50019 0.99648 -0.47123 0.036803 -0.9744 0.8782 0.091745 -0.31332 -0.45735 0.12728 -0.50598 -0.86339 -0.42927 -0.42275 0.65277 0.025045 0.35713 -0.087089 -1.1297 0.10745 0.5385 -0.80762 0.094666 -0.090885 0.77916 -0.18324 -0.16307 0.76163 1.1941 -0.61535 -0.55846 0.46389 0.034815 0.59511 -0.32479 0.4676 0.13207 -0.53281
paper 0.0074751 0.85172 0.048248 -0.032312 -0.042862 -0.25597 -0.11116 -0.20565 -0.34731 0.70214 0.24414 -0.25393 0.21419 -0.62668 -0.033381 -0.56783 0.40065 -0.26159 -0.37561 0.38216 0.42755 0.33177 0.30797 -0.013034 0.14796 -0.25455 0.028809 0.18034 0.3188 0.77467 -0.32287 -0.46587 -1.4028 0.29026 -0.42961 1.2774 -0.41771 -0.31303 -0.23213 -1.1184 -0.096582 -0.13304 -0.37341 -0.58451 -0.044084 -0.83103 0.012556 -0.035236 0.32759 -0.72006 0.27162 0.105 -0.0039606 0.68526 -0.61963 -1.0094 -0.9585 -0.44895 0.47608 0.25599 0.19424 0.059868 -0.11699 0.37933 -0.79721 0.084581 0.36167 0.68124 -0.24378 -0.38519 -0.27508 -0.58607 -0.39201 -1.0333 0.61619 -0.61482 0.25636 0.070113 -0.34465 0.22965 -0.8036 0.89499 0.8472 -0.3618 0.12386 -1.0151 0.60217 -0.9906 -0.12432 0.45868 0.11831 0.20601 -0.07931 0.55974 -0.051331 -0.27703 -1.112 0.74096 0.23601 -0.20699
handle -0.44744 0.72233 0.12906 0.45318 0.2199 -0.61831 -1.3955 0.45827 -0.071419 0.44606 0.96434 0.89339 -0.30578 -0.29644 -0.60359 -0.35489 0.2318 0.174 0.51704 1.2274 0.37889 1.2946 0.16935 1.3044 0.14654 -0.394 0.84488 0.90454 0.15544 0.22151 -0.11429 -0.79203 -0.6787 -0.41827 0.47786 0.40015 0.078207 -0.36496 -0.89562 0.3195 -0.21118 -0.021908 0.058896 -0.61635 -0.21857 -0.92239 -0.24646 0.23683 1.0283 -0.38614 -0.21291 -0.040242 -0.77082 1.0695 0.63903 -0.92952 -0.12559 0.96349 0.12376 -1.0799 0.44584 0.24222 -0.11715 1.0293 0.45201 0.062764 -0.44711 0.17463 0.29118 -0.83988 -0.79587 -1.0917 -0.83376 -0.92696 -0.15015 0.40854 0.57844 -0.57229 -0.24904 -0.015406 -0.38 0.3402 0.51855 0.17373 -0.11617 0.072618 0.75981 0.5504 -0.7136 0.50271 0.20232 0.18405 -0.15857 0.40757 -0.19101 -0.13449 -0.70739 0.9379 0.018853 -0.9349
book -0.21066 0.88373 0.14791 0.85932 -0.65739 -0.05406 0.21637 0.047828 -0.22739 -0.28856 0.072333 -0.062017 -0.27924 -0.41448 -0.61831 0.59618 0.75131 -0.50054 0.075985 -0.12493 0.86296 0.98483 0.065534 -0.097275 0.15848 -0.12358 0.67517 0.71772 0.33612 0.28118 -0.24193 -0.16219 -1.7789 -0.15672 -0.37526 0.70323 0.12176 -0.050689 -0.7657 -0.7868 -0.32309 -0.36607 -0.34176 0.0242 0.27674 -0.3025 -0.34463 -0.45314 0.73636 -0.93335 -0.40641 -0.19278 0.38507 0.33102 -0.44963 -0.61073 -1.2108 -0.033676 0.36784 -0.46355 -0.74826 -0.44676 0.69675 0.23288 -0.42263 0.19229 -0.79384 0.34857 -0.42464 -0.50246 -0.64693 -0.85066 -0.20478 0.66127 -0.039131 -0.12278 0.75919 0.46599 0.65602 -0.55626 -0.94654 0.37003 0.36846 -1.3704 0.98153 -1.2898 -0.17147 -0.19874 -0.043715 0.16346 -0.5763 -0.4526 0.035659 -0.38418 0.10476 -0.69487 -0.27224 1.009 0.010553 -0.52503
plastic -0.15537 0.73129 -0.1924 -0.17523 0.15552 -0.068548 0.13331 0.53683 -0.35637 0.26583 0.80603 0.92479 0.93462 -0.34895 -0.33052 -0.025723 0.052972 -0.23564 -0.30584 0.84519 0.30304 0.56223 0.14892 0.45211 0.30058 0.079379 0.29566 0.076038 -0.017006 0.66323 0.059313 -0.60119 -0.77523 -0.050036 -0.74005 0.72208 -0.37154 -0.051188 -0.12242 -0.55634 -0.069888 0.26673 0.0014832 -0.82719 0.10285 -0.73772 0.17454 -0.13494 -0.30436 -0.246 -0.49225 0.16428 -0.29866 0.89478 -0.067904 0.22705 0.042774 -0.21676 -0.19421 -0.6516 -0.75974 -0.47939 -0.063757 0.21873 0.19774 -0.053213 -0.73462 0.22525 0.12896 -0.59294 -0.92456 -0.3938 -0.33447 -0.44644 0.14725 0.33244 0.24227 -0.043383 0.17631 -0.12441 -0.33308 -0.058589 0.71369 -0.29207 0.19394 -0.38696 0.48632 -0.15493 0.040287 0.54475 0.099294 0.45833 -0.87182 -0.36417 -0.35441 0.35204 -1.098 0.17028 0.31108 -0.37777
vehicle 0.34644 0.61754 -0.42121 -0.91249 0.088071 0.32632 -0.089346 0.10077 0.043114 0.15377 -0.1656 -0.50142 -0.16757 0.60766 -0.81491 0.19369 0.2807 -0.15764 0.13358 0.2815 -0.33234 0.57825 -0.56076 -0.13314 0.012663 -0.28675 0.078895 0.047558 -0.020442 0.52025 -0.57973 -1.5025 -0.48437 -0.60552 -0.72567 0.44001 -0.042312 -0.27684 -0.65012 -0.015899 -0.0098686 -0.09589 -0.16388 -0.41837 -0.54686 -0.34335 0.40016 -0.24002 -0.29607 -0.22204 -0.2597 0.5559 -0.80184 0.13567 0.081021 0.059612 0.51434 0.2315 0.28043 -0.87746 -1.2609 0.30326 0.18034 0.99138 -0.56584 0.095248 -0.86784 0.44798 -0.43833 -1.0734 -0.65594 0.082244 0.072245 -1.149 0.84699 0.092618 0.67749 -0.0119 0.2186 -0.63996 -0.62751 -0.055672 0.10091 -0.22522 0.61075 -0.3724 0.4459 -0.086085 -0.43868 -0.14154 0.33792 -0.55935 -0.21933 -0.126 -0.24508 0.49301 0.96969 1.2182 -0.59737 -0.48878
motorcycle -0.17456 0.50527 -0.091005 -0.32622 -0.070815 -0.27671 -0.25738 0.25671 -0.87272 0.61404 0.6597 -0.59613 0.29363 0.15967 -0.68369 0.2566 0.94495 0.43256 0.10522 0.018621 0.20902 0.37979 -0.62274 -0.69378 0.085903 -0.23631 -0.18658 0.10876 0.32544 0.40592 -0.20435 -0.98494 -0.3616 -0.085719 -0.84296 0.26775 -0.11826 0.062331 -0.37873 0.21119 -0.42742 0.37179 -0.63168 -0.7357 -0.037754 -0.79367 0.4756 0.19857 -0.58903 0.21454 -0.21704 0.37469 -0.7278 0.56757 -0.13834 0.1673 0.15267 0.46944 0.65029 -0.48148 -0.52292 0.022393 0.20676 0.26164 -0.16104 0.18091 -0.56276 0.34465 -0.46495 -0.89009 -0.79846 -0.2933 -0.12368 -0.90054 0.64813 0.32469 0.60812 -0.56797 1.1325 -0.52945 -0.20287 -0.33157 0.043104 0.035132 1.35 0.3798 0.43949 -0.1586 -0.57404 -0.35841 0.44762 -0.56829 0.097467 -0.022066 0.35937 0.024973 0.65528 1.1962 -0.76227 -0.52392
pillow -0.71265 -0.1313 -0.28107 0.38216 0.0413 0.62919 0.21235 0.69505 -0.48124 -0.14943 0.25664 -0.60058 0.35966 -0.049023 -0.2723 0.53217 0.54905 -0.39237 0.43076 -0.37171 0.77621 0.69991 -0.18467 0.30155 0.30713 -0.10566 0.33192 -0.64122 -0.13985 0.66119 -0.48285 0.15211 -1.4616 0.93923 -0.99016 0.5124 -0.63063 0.38023 -0.37656 -0.62382 -0.65035 1.0059 -0.7858 -0.58836 1.2673 -0.7226 -0.19195 -0.86547 0.43343 0.064742 0.017588 0.52766 0.3741 0.46747 -0.22596 -0.1364 -0.13425 -0.40606 0.79812 -0.88617 -0.95871 -0.46795 0.27879 1.7094 0.31481 -0.23073 -0.52368 0.54916 0.094825 -0.71465 -0.97046 -0.50977 -0.14016 -0.073094 -0.27031 -0.56325 0.062459 -0.57563 -0.82239 -0.1834 -0.033752 0.044632 0.87245 -0.52641 1.2159 -0.40423 0.31496 0.21921 -0.59851 0.685 0.23257 -0.9945 -0.73339 -0.046619 0.149 -0.077922 -0.23699 0.91351 0.44787 -0.27802
parking -0.13268 0.36244 -0.6327 -0.91583 0.0034634 -0.396 0.34906 0.18262 -0.47043 -0.095958 -0.033591 -0.040397 -0.37412 0.509 -0.88409 -0.42699 0.054027 0.070662 -0.26794 0.3908 -0.64899 0.70919 -0.66123 -0.54719 0.40389 -0.12452 0.25227 0.064846 -0.089388 -0.050859 -0.14443 -0.81187 -1.124 -0.89619 0.31476 -1.025 -0.55032 0.64051 -0.39776 0.078205 -0.46283 -0.22636 0.66908 0.082277 0.3151 -1.2449 -0.73226 0.59459 0.073317 -0.44106 -0.16711 0.28957 -1.1619 -0.24011 0.50821 -0.50957 -0.49585 -0.17925 0.22858 -1.5763 -0.4152 -0.077853 0.58618 -0.16912 0.44641 0.36185 0.17054 0.98914 -0.39131 -0.64951 -0.27998 -0.24487 -0.23384 -0.93712 0.048835 -0.84953 1.2232 0.36985 -0.23608 -0.014776 -0.96902 -0.25047 1.1078 -0.24902 0.41785 -0.3587 0.76394 -0.88965 0.077741 -0.55934 0.69352 -0.14905 -0.0011571 0.29736 0.032325 -0.10398 0.21156 0.68548 -0.36286 -0.44837
wheel -0.61774 0.47497 0.40626 -0.35433 1.1239 -0.61357 -0.27459 0.8641 -0.26296 0.67032 0.44682 -0.044259 -0.073927 -0.12734 -0.11072 -0.47049 -0.26798 -0.057511 -0.15945 0.60615 -0.19064 0.68826 -0.1514 0.72072 0.71753 -0.084261 0.66071 -0.33175 -0.67171 0.77106 -1.2283 -1.0258 -1.5873 -0.45532 -0.31547 0.042055 -0.21245 -0.60694 -0.98958 0.20856 -0.46985 -0.17164 -0.13143 -0.12967 -0.0053188 -0.68934 0.04054 -0.16785 -0.13796 -0.20807 -0.33401 0.37995 0.043201 0.77994 0.26293 1.0639 0.12997 0.75824 -0.5225 -0.47318 -0.23539 -0.46598 -0.40771 1.4966 0.1615 0.20917 0.284 -0.38442 -0.35969 -0.45519 -1.2487 0.1228 -0.34714 -0.49834 0.21241 -0.13452 0.96517 -0.87214 -0.10915 -0.40045 -0.89648 -1.0966 0.042535 -0.23379 0.47541 -0.31291 0.5425 -0.39218 -0.56897 0.15439 0.29524 -0.59391 0.13561 0.41528 0.3261 0.48368 -0.18295 0.99563 -0.34168 -0.83344
frame -0.94257 0.52318 0.082362 0.032249 -0.45295 -0.019013 -0.18785 0.69713 0.41937 0.68225 -0.30944 -0.41463 0.38355 -0.40005 -0.33003 -0.2108 0.47502 0.72016 0.26165 0.41729 0.66121 -0.07484 0.32049 0.2695 0.061088 -0.83241 0.1026 0.13692 -0.68446 0.6769 0.66174 -0.81964 -1.6103 0.14705 0.020974 0.85552 -0.37606 0.29444 -0.50538 0.1188 0.48351 0.25223 0.24042 -0.2465 0.92601 -0.40855 -0.53871 -0.075906 0.73824 0.43123 0.62967 -0.32979 0.35859 0.4892 -0.097972 -0.75151 -0.52157 0.73561 -0.071993 -0.85998 -0.66515 0.91952 -0.067649 0.68831 -0.4256 0.65546 0.46491 0.35433 0.11311 0.26341 -1.0359 -0.5174 -0.82676 -0.45223 -0.6997 -0.064529 0.72651 0.50023 -0.24346 -0.11935 -0.71186 -0.0035115 1.3255 -0.25322 0.78638 -0.69876 0.82298 0.26736 -0.18341 -0.043152 0.22761 -0.19787 0.46629 0.24624 -0.58579 -0.3214 0.80445 -0.080416 -0.027216 -0.43859
flag -0.37468 0.63524 -0.13409 -1.0038 1.0972 0.26487 0.24044 0.78701 0.84495 0.57716 0.85234 0.24409 0.13192 -0.077555 -0.77261 0.2684 0.72182 -0.34946 -0.25367 -0.82492 -0.71842 0.28984 0.44481 -0.79887 0.16473 -0.77081 -0.23759 0.39417 -0.46434 0.8257 -0.22914 -0.38768 -0.57493 -0.84156 0.53727 0.48589 -0.21028 -0.24127 -0.22564 -0.43062 -1.0455 0.50556 -0.23368 0.064268 0.75516 -0.65174 -0.21285 -0.37335 1.2675 0.689 0.7574 -0.15741 -0.34353 -0.33643 0.28511 0.18509 -1.0126 -0.065941 0.50923 -0.59923 0.08733 0.05884 0.24136 0.072515 -0.58078 -0.54411 -0.49633 0.4399 -0.32604 -0.25278 -0.43192 -0.1702 -0.47942 -0.8603 -0.31919 -0.13718 0.092266 -0.92154 0.12863 -0.19667 -0.8257 -0.40341 0.68366 -0.011327 0.74601 0.081355 0.13256 0.26008 0.44218 0.51142 0.92814 -0.076948 -0.20072 0.66849 -0.69409 0.1926 0.079065 1.5593 -0.064576 -0.30441
cup -0.072447 0.86583 0.44784 -0.057648 0.028707 0.31885 -0.051216 0.69848 0.3451 0.36581 0.55052 0.047128 0.70394 -0.71541 -0.75325 1.0576 -0.097556 -0.32595 -0.80013 0.27209 -0.25899 0.51918 -0.30996 -0.059358 0.24154 -0.21025 -0.37611 -0.093431 0.27752 0.33587 -0.19776 -0.62179 -0.47462 -0.28513 -0.41454 0.67102 -0.27303 0.1703 -0.20709 -0.25421 -0.32243 0.079232 -0.27824 -0.64752 -0.17267 -0.13343 -0.90559 -0.71406 0.69368 -0.55054 -0.25848 -0.49655 0.31983 0.33095 -0.79866 -0.71402 -0.60149 -0.46091 0.33192 -1.1376 -0.31474 -0.30516 0.4953 0.58594 -0.053774 0.026993 0.24039 0.43946 0.0063842 -1.0435 -0.53669 -0.29117 0.18538 -0.30807 0.57294 -0.17202 0.47735 -0.27216 -0.4321 0.5019 -0.36242 0.31846 1.3371 -0.76796 0.36329 -1.1611 1.2917 -0.47188 -0.35298 0.64484 -0.35405 -0.21002 -0.10092 -0.17819 0.18305 -0.11288 -0.38903 0.36105 0.1541 -0.56211
bowl -0.49204 1.0614 -0.32649 0.1398 -0.24685 0.36668 -0.46809 0.34447 -0.25991 0.56101 0.3954 -0.34392 0.25982 -0.60525 -1.1655 0.62791 0.039057 -0.66325 0.14142 0.68777 0.23476 0.81455 -0.68117 0.039203 1.0191 -0.54527 0.25094 0.53728 0.47895 -0.063436 -0.41956 -0.42425 -0.67043 -0.13976 -0.44545 0.68048 -0.28865 -0.21587 -0.6946 -0.69656 -0.72275 -0.17642 -0.068305 -0.30535 0.33496 -0.58311 -0.88735 0.86202 -0.18728 -0.29669 0.48395 -0.23913 0.48113 0.033068 -0.69224 -0.6406 -0.87262 0.34236 -0.58388 -1.0018 -0.23602 -0.85004 -0.17042 0.61991 0.43238 0.23672 -0.18339 0.59188 -0.19593 -0.78479 -0.52159 -0.32754 -0.50348 -0.18778 0.070069 -0.07299 0.29578 -0.81302 -0.64579 -0.0777 0.2632 0.072764 1.1509 -0.64784 0.45565 -0.48585 0.82768 0.081826 0.057101 0.68312 -0.14222 0.16128 -0.25089 0.092563 0.37071 -0.26998 -0.29922 0.16834 0.49334 -0.15691
tower 0.4271 0.56415 -0.31017 -0.35654 -0.20521 -0.52148 0.42329 0.21646 0.96761 0.72885 0.0086325 -0.13456 -0.14952 -0.23991 -0.33082 -0.29843 0.13199 0.33571 0.20588 -0.17213 0.71142 0.82171 0.38438 0.031342 -0.09274 -0.79694 -0.23072 -0.43357 0.25436 0.86992 -0.17005 -0.23573 -0.89918 -0.39423 -0.44501 -0.088491 0.61136 -0.24041 -0.59159 -0.90248 0.93207 -0.0038366 -0.38586 0.49492 0.3635 -0.70835 -0.44904 0.28781 0.42181 0.30551 -0.28138 0.47657 -0.28909 0.13793 -0.09821 -0.1867 -0.15534 -0.42497 0.98784 -0.88079 -0.062996 0.085287 0.58416 0.39018 -1.5508 0.10698 -0.50591 0.22338 0.50622 -0.57169 -1.5306 0.59785 0.59706 -0.94623 -0.40411 -0.1271 0.23573 0.32547 -0.25334 -0.20076 -0.5398 -0.63194 0.8432 -0.2647 -0.022385 -1.1175 -0.27161 0.56333 -0.12644 0.30958 1.4461 -0.48582 -0.15932 -0.16626 0.37737 0.16443 -0.4975 0.92669 -0.44547 0.26405
coffee -0.54788 0.68329 0.68234 0.56521 0.036817 0.63276 -0.41249 0.24981 0.18555 -0.27201 0.57357 0.75412 0.16087 -0.83984 -0.57963 0.45722 0.15762 -0.28107 -0.044242 0.075323 -0.2137 0.69193 0.33603 0.11652 0.37108 -0.61806 -0.33934 0.43077 -0.3554 -0.53043 -0.4185 -0.98795 -0.88875 0.24201 -0.60091 0.51172 0.14165 0.030272 -0.28942 -0.49574 -0.47158 0.0089161 0.099516 -0.055533 0.29732 -0.37006 -0.7886 -0.46569 0.094972 -0.18929 -0.50736 -0.58903 -0.24025 0.40512 -0.10083 -0.18787 -1.022 -0.66848 -0.033292 -0.64534 -0.81456 -0.00049422 0.18173 0.56342 -0.23605 -0.3422 0.193 0.72508 0.25179 -1.7217 -0.40202 -0.034881 0.16736 0.11256 0.2965 -0.42462 0.16932 -0.58536 -0.013152 0.27621 -0.59051 0.26369 0.1626 -0.94768 0.73175 -0.94439 1.5387 -0.095593 -0.19695 0.20233 0.81999 -0.44098 -0.89237 0.18893 0.031464 -0.67955 -0.15725 -0.0084913 0.20692 -0.071795
laptop -0.236 0.92024 0.84709 0.75368 -0.46707 -0.29522 0.49406 -0.18195 -0.49342 0.50581 0.5732 0.015617 0.89707 -0.077466 0.10192 0.12107 0.077105 0.43952 0.26122 -0.43999 0.2749 0.39528 -0.091871 0.21932 -0.020103 -0.092972 -0.17786 -0.15569 0.073317 -0.47125 -0.47303 -1.0004 -0.66231 -0.6001 -0.12324 0.42871 -0.10843 -0.13295 -0.77671 -0.34964 0.29122 0.56847 -0.14027 -0.47677 0.78838 -0.54674 -0.48988 -0.40804 0.61714 -0.2994 0.38108 0.080394 0.085727 0.71768 -0.65825 0.058631 -0.086121 0.2112 0.30184 -0.4138 -0.73111 -0.84687 0.3314 0.31213 -1.0414 0.6618 -0.71303 -0.4775 -0.87027 -1.1074 -0.96281 -0.95605 0.30286 -0.56717 0.23799 -0.41888 0.14267 0.33076 -0.067619 -0.15881 -0.12431 0.0053376 0.65837 -0.95633 0.7404 -1.0416 0.8404 -0.20098 -0.60476 -0.44347 0.18169 -0.77155 -1.1236 -0.49876 0.76402 -0.106 -0.052587 0.53668 0.10407 -0.050977
mirror -1.2429 0.015521 -0.50444 0.075701 -0.0194 -0.18832 0.038604 0.57994 -0.3958 1.1032 -0.22269 0.042887 -0.11458 -0.35207 -0.64955 -0.50063 -0.22386 0.46487 0.095056 0.17269 0.60788 0.43773 0.27059 0.6743 0.67791 0.13559 -0.57446 -0.20882 -0.4558 -0.34956 0.0011145 -0.1627 0.22826 -0.042022 -1.0452 0.32054 -0.52911 0.17731 -0.11882 0.38606 -0.70099 -0.61578 -0.4705 0.10354 0.57201 -0.73078 -0.43083 0.32031 0.5361 -0.15151 0.15942 -0.66578 -0.053796 0.26216 0.32272 0.10961 -0.83458 0.89836 0.35361 -0.21694 -0.35467 0.29775 -0.17012 1.0909 -0.23354 0.76124 0.13376 0.16799 -0.59348 -0.75276 -1.5411 -0.66905 -1.0437 -0.84383 -0.24098 -0.16701 1.1404 -0.075295 -0.089548 -0.52344 -0.67604 0.069799 1.4507 -0.14022 0.86905 -0.178 0.27324 0.16671 -0.4313 0.34151 0.049683 -0.71122 -0.066284 0.24758 -0.0097925 -0.23455 -0.34195 0.93545 0.34864 -0.45323
tennis -0.15003 0.7456 0.63783 -0.67255 -0.53918 0.17742 0.81772 -0.065634 -0.35375 0.31181 0.59323 -0.42056 0.24248 -1.4056 -0.58827 1.2497 1.7202 -0.4719 -0.3959 0.47395 0.18214 0.18317 -0.83659 -0.24422 1.2012 -0.49447 -0.025832 0.58153 -0.73537 -0.1244 -0.53499 -1.2146 -0.57885 0.95524 0.46234 0.18148 0.029308 -0.23759 -0.5084 -0.89861 -0.099101 0.48009 0.26624 0.40083 1.1631 -0.33046 -0.28063 0.0091006 0.30508 -0.35415 -0.45899 0.24129 -0.56864 0.15974 0.34639 -0.44619 -0.2676 -0.46078 -0.092799 -1.4737 -0.46861 0.23667 0.25719 -0.51823 -0.12748 0.40514 -0.69426 -0.11273 0.23458 -0.105 -0.55332 0.13201 -0.20523 -0.51788 0.54657 0.26975 0.51704 -0.70388 0.46415 -0.47245 -0.27612 -0.40067 0.72822 -0.56265 0.10591 0.3209 -0.010236 -0.38442 -0.76485 0.054201 1.1606 0.14714 -0.23793 0.21735 -0.65196 -0.53669 0.15395 1.0902 0.25666 -0.65542
kitchen -0.9194 0.1156 -0.39758 0.39387 -0.014488 -0.0256 0.36433 -0.3861 -0.36327 0.28958 0.7994 0.20474 -0.24089 -0.75899 -0.47399 -0.01146 0.41707 0.10849 0.082373 0.7662 0.35151 0.41617 -0.0047983 0.23883 0.3171 -0.53526 0.41713 0.45419 -0.25734 -0.39076 0.20114 -1.455 -0.30046 0.2249 -0.37893 0.27855 0.03601 0.28106 -0.61917 -0.083727 -0.12851 -0.12879 -0.098322 0.06201 0.38155 -0.063001 -0.50344 0.35377 -0.30832 -0.27356 0.34723 -0.40826 -0.34088 0.03306 0.66766 -0.28662 -0.86567 0.20185 -0.14449 -1.1301 -0.38798 0.02916 0.23104 0.50052 -0.2486 0.88524 -0.50417 1.0229 0.69263 -0.73216 -0.12878 -0.55162 -0.203 -0.17828 0.24964 -0.32451 0.90997 0.011848 -0.18908 -0.21508 -0.17306 0.35255 1.0263 0.58734 -0.067451 -0.9033 0.6574 0.069779 -0.11576 0.48168 1.0094 -0.31948 -0.43632 -0.31517 0.29148 -0.28943 -0.60422 -0.36651 -0.33552 -0.27476
square -0.81769 0.46062 0.038837 0.13827 0.44384 0.49187 -0.47075 -0.14759 0.2307 0.42818 0.023581 0.042933 0.46692 0.030672 -0.5464 -0.16204 0.23847 -0.14605 0.062949 0.71697 -0.038733 0.39502 0.24284 -0.053011 0.4975 -0.33326 -0.49184 -0.79155 -0.58398 0.43857 -0.0017948 -0.63981 -1.1852 -0.16364 -0.5941 0.040575 -0.44127 -0.11307 -0.43739 -0.38731 0.21558 0.35804 0.2424 -0.74914 0.42048 -0.27243 0.30927 0.11699 -0.34124 0.70648 0.022596 -0.023858 -0.52631 0.16107 0.714 -0.66178 -0.86129 -0.22517 0.75803 -0.50539 -0.64237 0.085248 0.44208 0.13773 -0.19103 0.1297 0.39173 0.54558 -0.20672 -0.26002 -0.69654 -0.16957 -0.043496 -0.65984 0.20764 -0.094702 0.63979 0.73952 -0.99237 -0.1086 -0.023334 -0.086536 1.1006 -0.56903 0.50966 -0.23843 0.40418 0.011331 0.18838 -0.048114 0.32627 -0.90325 -0.46322 0.31348 -0.42113 -0.32302 0.013302 -0.11273 -0.21764 0.046424
monitor -0.38668 0.87956 0.56181 0.3719 -0.31914 -0.12066 0.53356 -0.078858 0.16303 0.77947 0.22815 -0.1085 0.77634 0.0052662 -0.33024 -0.0098165 -0.11046 0.072996 -0.42968 -0.42513 1.0616 0.41215 0.41094 -0.32894 0.36287 -0.17075 -0.073857 -0.048939 -0.18506 -0.077814 -0.8793 -0.86471 -1.0025 -0.13145 -0.35213 -0.11054 0.079402 0.26444 -0.47804 -0.49248 -0.056993 -0.19199 0.15307 -0.35248 0.51663 -0.89969 0.058216 -0.68798 0.44319 0.2245 0.27981 0.035107 -0.33686 0.54775 -0.60201 0.20292 -0.30031 -0.23821 0.82828 -0.42652 -0.43314 -0.76245 0.11761 0.80606 -1.4558 0.44423 0.097717 -0.33522 -0.36001 -0.94879 -1.3812 -1.0725 0.42905 -0.44058 0.54498 0.0048075 0.43472 0.30329 -0.05841 -0.89744 -0.48989 0.12076 0.95662 -0.79138 1.0272 -0.87338 0.73146 -0.19007 -0.3385 -0.35573 0.65689 -1.1097 -0.91949 -0.024341 0.31218 0.80161 0.1787 0.34586 -0.2064 0.25448
food -1.1958 1.1992 0.039965 0.085881 -0.098199 0.26685 0.31308 0.60858 0.0026882 -0.27065 0.5211 -0.32157 0.15426 -0.42591 -0.27527 0.22076 -0.1915 0.42464 0.66279 1.1423 0.21837 0.27242 -0.1098 -0.47418 0.28496 -0.38562 0.38751 0.13778 0.20238 0.15273 -0.14721 -0.77282 -0.38927 -0.31395 -0.20802 0.49298 -0.23338 -0.15434 0.14498 -0.73221 -0.23681 -0.21961 -0.50098 -0.081736 0.58902 0.18442 -0.26914 0.12792 -0.81502 -0.80799 -0.4863 0.099879 0.056861 0.91081 -0.91285 -0.49779 -0.67754 0.15553 0.62441 -0.46506 -0.67172 0.14467 -0.53055 0.025175 0.58171 0.59988 -0.65959 -0.1362 -0.71496 -0.10401 -0.72733 -0.27197 -0.39627 -0.76917 0.49007 -0.29232 0.20242 0.064545 -0.047458 0.25954 -0.62321 0.061489 -0.085224 -0.13211 -0.11703 -0.95119 0.99976 -0.93235 0.092237 0.089074 0.3613 0.27304 -0.18411 -0.38637 -0.71305 -0.32887 -0.34358 0.98738 -0.25364 -0.44614
concrete -0.32697 -0.055654 0.083391 -0.24483 -0.1878 0.42989 -0.090686 0.16964 -0.13924 -0.076294 0.10854 -0.24137 0.057967 -0.99662 -0.38105 -0.012883 0.63744 -0.50346 -0.5308 0.76881 -0.28689 0.59341 -0.079896 0.21137 0.86374 -0.20042 -0.01803 -0.17207 -0.33622 -0.24371 0.33012 -0.31754 -1.1256 -0.83324 -0.66993 -1.0144 -0.37942 0.77958 0.029394 -0.40686 -0.61653 0.0098839 -0.12099 -0.16053 0.067889 -0.75255 -0.29379 0.42059 -0.84461 -0.036166 -0.31791 0.56555 -1.0717 0.082068 -0.048725 -0.22033 -0.47556 0.55147 0.85755 -0.81894 0.10658 -0.8657 0.3055 0.61685 -0.21474 0.45338 0.25348 0.74587 0.29928 -0.20093 -1.1952 0.40365 0.13702 -0.50228 -0.25903 -0.047355 0.90687 0.13737 -0.48985 0.1741 -0.86897 0.18232 0.095281 -0.61636 0.47326 -0.26996 -0.12108 -0.29382 -0.16467 -0.12494 0.52289 -0.83248 -0.19813 0.066125 -0.57035 0.58488 -0.52226 0.25997 0.029104 -0.69852
board 0.084816 1.0299 0.085892 -0.83288 0.18076 0.21634 -0.18144 0.40554 -0.95807 1.094 0.43539 0.03423 0.67399 -0.94633 0.19827 -0.17625 -0.033819 -0.070776 0.69108 -0.13888 0.67126 0.56476 -0.38583 -0.49766 -0.30564 -0.29898 0.24465 0.4436 -0.36823 0.54179 0.13307 -0.72852 -1.2371 -0.26164 -0.99775 0.74852 -0.10693 0.6794 -0.38222 -1.4179 0.52483 -0.40454 0.048334 -0.17332 0.57567 -0.90266 0.59688 0.3813 0.1117 -0.037948 0.65206 -0.52882 -0.54409 0.49913 -0.75368 1.0185 -0.43126 0.20699 1.189 -0.78222 0.025672 -0.22865 0.60659 0.47363 -0.41523 0.54648 -0.45465 0.34397 -0.28641 0.42612 0.46076 0.21353 -1.1783 0.33818 -0.29024 -0.84653 0.74848 0.66475 -0.52038 0.47893 -0.56003 -0.10789 1.7543 -0.56101 0.17703 -0.39725 0.33668 -0.18127 -0.39904 -0.73061 -0.2706 0.030179 -0.27061 1.23 0.76062 1.0346 -0.73538 0.37802 0.36296 -0.44608
dog -0.087782 0.3125 0.97448 0.21981 -0.075141 0.6548 -0.22333 0.32071 -0.60644 0.53756 0.71107 -0.486 0.193 -0.48806 -1.3998 0.59756 -0.15559 -0.13545 -0.12757 -0.18578 0.78197 0.15225 -0.64763 -0.63402 0.49721 -0.90151 -0.26982 -0.50722 0.52873 0.0633 -0.18919 -1.3752 -0.58659 -0.005282 0.12783 0.49573 -0.71473 -0.057233 -0.82372 0.19162 0.17658 0.95976 -0.33054 0.13622 0.45594 0.29407 0.37685 0.40108 0.58649 0.4553 0.059481 0.7528 -0.72529 0.88684 0.60308 0.12758 -0.25853 -0.16914 0.026369 -0.074455 -0.0068993 0.73457 -0.18581 0.3626 0.78001 -0.27011 -0.16892 -0.49362 -0.59948 -0.65343 -0.43853 -0.13525 -0.29876 -0.088327 -0.42943 0.022899 0.72278 0.2699 -0.7835 0.87672 -0.50806 -0.38221 0.60004 -0.23364 0.87969 -0.57521 0.12413 0.49811 -0.029401 0.12794 0.86728 -0.27662 -0.51448 0.031298 0.2898 -0.27717 -0.074501 0.64426 -0.064257 -0.77774
leg 0.089544 0.016902 0.75085 -0.86 0.36873 -0.15452 -0.62645 0.52661 0.21088 -0.065617 0.10009 -0.29654 0.013922 -0.22373 -0.17401 0.17888 0.19523 0.66969 0.2539 0.9731 0.32715 0.57832 -0.31222 1.0944 0.28465 -0.57335 -0.15385 -0.14497 -0.17438 -0.34277 -0.33888 -0.77054 -1.4444 -0.45776 -0.6557 0.2063 -0.53424 -0.082217 -1.2987 -0.21682 0.01954 0.14381 -0.28658 0.41176 0.7443 -0.16214 -0.30431 -0.96419 0.9457 -0.50921 -0.78563 0.052819 -0.11256 1.1432 -0.2506 0.13274 -0.62021 0.075093 0.11618 -1.2918 -0.99181 -0.0067846 -0.88704 1.0264 -0.361 0.032648 0.079548 -0.53745 0.01442 -0.35919 0.002401 -0.29092 0.2808 -0.19005 -0.57358 -0.276 0.051082 -1.5551 -0.4208 0.49874 -0.71856 -0.15458 0.81793 -0.31574 0.61122 -0.037115 -0.49956 -0.27861 -0.42118 0.38996 0.61548 -0.56618 -0.77865 -0.71816 -0.31552 -0.35236 0.33897 1.3037 -0.29894 -0.98978
leaf -0.4053 1.0623 0.52349 -0.67954 -0.017964 -0.053258 -0.5677 -0.040495 0.24975 1.7324 0.10735 -0.19334 -0.13089 0.98148 -0.62512 0.6183 0.60602 -1.0238 -0.25177 1.1058 -0.49579 0.54766 0.47512 -0.25664 0.088804 -0.81882 0.24328 -0.23045 -0.39243 0.93205 1.0606 -0.26948 -1.1149 -0.013791 -0.19027 -0.32356 -0.15176 -0.05486 0.20717 -0.70727 -0.70479 0.15596 -0.33534 -0.14703 0.89412 -0.36658 -0.25708 -0.12487 0.73459 -0.33888 -0.61065 0.46903 -0.5645 0.44804 -0.47504 -0.33872 -0.067472 -0.4362 0.85709 -1.4656 -0.10351 0.43623 -0.18153 1.079 0.15402 -0.26193 -0.35914 -0.66576 -0.052479 -0.763 -0.2796 0.23146 -0.19628 -0.18299 0.64601 -0.93078 0.064703 -0.91411 -0.86413 -0.96708 0.47966 0.59931 0.89543 -0.7873 1.0325 -0.113 0.27059 0.47711 0.37707 -0.046411 0.51444 -0.25939 -0.84576 0.29789 0.61528 -0.45546 0.17383 1.0391 -0.13734 -1.1408
distance -0.081192 0.079552 -0.17548 -0.13173 0.48358 0.15596 1.2219 -0.049876 0.029596 0.27073 0.67857 -0.19822 -0.29296 0.37161 -0.38366 -0.30652 -0.63528 0.027136 0.26443 -0.55751 0.34934 0.10048 0.48435 0.27128 -0.22889 -1.1264 0.035601 -0.15094 0.20959 -0.032686 -0.36343 -0.33799 -0.58458 -0.84782 -0.24747 -0.78287 -0.31731 0.083263 -0.58758 -0.41275 -0.76456 -0.3509 -0.29429 0.38003 0.24107 -0.70176 -0.018391 0.008714 0.80237 -0.24752 -0.12228 0.38458 -0.60469 -0.27867 0.37848 0.20881 -0.75434 0.10579 0.3283 -1.3765 -0.62443 -0.5263 0.18889 -0.24573 -0.37958 0.67558 -0.83013 0.49131 -0.10072 -0.71947 -1.1753 0.13092 0.04112 -1.0389 -0.4836 -0.1108 0.39514 0.035386 -0.44918 -0.33873 -0.46393 0.32238 0.58082 0.12182 0.47025 -0.48484 0.040274 -0.28762 0.38323 0.39902 0.86769 0.083351 -0.49079 -1.1242 -0.24868 0.34421 0.62753 0.51656 0.52642 -0.24619
outside -0.7096 -0.019509 0.22834 -0.074287 0.13389 -0.085174 0.0077875 0.64615 -0.82056 0.39611 0.5296 0.028386 0.61122 -0.057612 -0.3461 -0.321 0.60153 -0.067651 -0.013729 0.39132 0.0453 -0.2268 0.43793 -0.29772 -0.22031 -0.79242 0.40409 -0.32752 0.092946 -0.0087693 0.53387 -0.45142 -0.7043 -0.20306 0.096856 -0.57489 0.043012 0.18954 -0.62446 -0.65804 -0.078705 -0.94153 -0.22074 0.084864 0.29127 0.20642 -0.059537 0.22479 0.048212 0.2174 0.39718 0.50772 -1.0238 0.49664 -0.025945 -0.43135 -0.82345 1.0147 -0.11649 -0.22365 -1.1806 -0.0099474 -0.14586 -0.24925 -0.26259 0.16993 -0.27963 0.74754 0.10203 -0.4999 -0.82279 0.35418 -0.46677 -0.7561 -0.027693 -0.51937 0.13684 0.049742 -0.054511 0.55653 -0.046037 0.12561 0.030288 -0.028742 0.38856 0.13184 0.50938 -0.83932 -0.63104 -0.022833 0.44867 -0.16784 0.35026 -0.75587 0.017571 0.26968 0.43265 1.1666 -0.07925 -0.62953
pair -0.13884 0.4476 0.12119 -1.0835 0.57848 0.38932 -0.016989 -0.15848 -0.89588 0.39414 1.0014 -0.19248 0.67563 -1.068 -0.22453 0.48199 -0.042673 0.30322 0.25855 0.87021 0.13783 0.24186 0.089198 0.58234 0.53584 0.1494 -0.48739 0.41159 -0.26493 0.20803 -0.4568 -0.82272 -0.78005 -0.19556 0.17864 0.27584 -0.37098 0.91569 -0.70919 0.31847 0.29024 -0.31877 0.62376 -0.39341 0.0036808 -0.70625 -0.9708 -0.24854 1.2745 -0.27161 -0.026446 0.57134 -1.0175 0.45285 0.1438 -0.060455 0.014749 -0.0207 -0.19564 -0.10138 -1.2164 -0.14603 -0.14541 0.47832 -1.2598 -0.19828 -0.78363 0.67276 0.24241 -0.55066 0.25965 -0.40101 -0.25816 -1.2521 -0.58605 0.37595 0.21744 -0.53239 0.33088 -0.084419 -0.52598 0.47804 0.37805 -1.1719 -0.066662 -0.012939 -0.31216 -0.34311 -0.1546 0.57419 -0.36793 -0.27255 0.41297 -0.4179 0.25309 -0.90326 0.27063 0.23797 0.28122 -0.48595
tail 0.20676 0.5244 0.089128 -0.4944 0.76798 0.15742 1.3017 0.76866 -0.036188 -0.10379 -1.0312 -0.16381 -0.083908 -0.058276 -1.4244 0.55593 -0.65524 -0.14518 0.31876 0.64395 -0.30986 0.70597 -0.59313 0.55227 0.047147 -0.62112 -0.22608 -0.12947 -0.1567 -0.29346 0.093675 -0.17588 -0.34873 -0.67497 -0.0041663 -0.089597 -0.1376 0.18828 -1.2126 0.39876 -0.094913 0.16203 -0.59127 0.014323 0.48693 -0.91368 -0.95612 -0.18856 1.0972 0.80461 -0.23123 1.0272 -0.62042 -0.4533 -0.012221 0.78821 -0.71169 0.55616 0.28659 -1.0175 -0.67653 0.13398 -0.10583 1.2302 -0.037155 -0.35012 -1.0545 -0.56115 -0.40973 0.11341 -0.7026 -0.35258 -1.1552 -0.12742 -0.58863 -0.51095 0.24395 -1.3933 -0.2807 -0.20515 -0.83186 -0.14957 0.50833 -0.39963 0.28993 -0.48107 1.2814 -0.40195 -0.44518 1.023 0.030409 -0.282 0.011099 0.21647 -0.081713 -0.012443 0.0053603 0.99131 -0.31146 -0.31369
coat 0.2673 -0.53756 0.30032 0.53777 0.21832 0.59655 -0.25497 0.24848 -0.64618 0.49987 0.9329 0.079702 -0.48092 -1.0102 -0.80055 0.39472 0.3335 0.069969 0.097682 -0.20923 0.25431 0.27709 -0.1345 0.8711 -0.082315 -0.96461 -0.032069 0.037493 0.26141 0.51205 -0.095956 -0.79306 -1.0879 -0.12933 -0.19266 -0.035821 -0.50969 0.61249 -0.81803 -0.63725 -0.53766 1.0862 -0.88695 -0.13606 0.21831 -0.58069 0.55285 -0.2725 0.8071 -0.82223 0.16407 0.62172 -0.98256 0.096493 0.072472 -0.40386 -0.3867 0.19501 0.033482 -0.76686 -0.80751 0.21156 -0.14184 0.58708 -0.20208 0.45452 -0.92715 0.48681 -0.18136 -0.46848 -0.28795 -0.41616 0.069805 -0.97502 -0.18085 -0.55031 -0.024225 -0.38123 0.74889 -0.68183 -0.71661 0.26948 0.50184 -0.11222 0.31766 -0.036697 -0.028133 -0.53503 -0.26768 -0.24807 0.04169 -0.39053 -0.10727 0.14138 -0.18097 -0.20232 -0.27757 0.41733 -0.4878 -0.68228
face -0.20072 0.59107 0.77023 -0.81907 -0.93358 0.58414 0.38192 -0.40596 -0.14343 0.43524 -0.14884 0.037604 -0.15335 -0.84433 -0.95204 -0.70258 0.1022 0.4106 0.69193 0.78373 0.74617 0.87849 0.098566 -0.27016 0.12667 -0.40729 -0.15805 -0.060193 0.77404 0.039322 0.33117 -0.40659 -0.21157 -0.5438 -0.39926 0.80682 -0.1998 -0.55178 -0.64352 -0.70148 0.7937 -0.35904 -0.90028 0.32732 0.42754 -0.48059 -0.9772 0.12328 0.97084 0.35167 -0.56285 0.091287 0.2364 -0.059246 0.60341 0.083199 -0.67639 0.084013 0.67318 -0.73664 -1.1657 0.84628 -0.091232 0.1713 -0.70358 0.46965 -0.54777 0.34903 -0.71156 -0.48709 -0.90516 -1.1605 0.32393 -0.030892 -0.4279 0.71541 0.40206 -0.48477 0.5294 0.24337 -0.96832 0.0076377 0.46594 -0.38943 -0.1118 -0.14616 -0.53782 -0.21838 -0.26866 0.87629 0.095807 0.021426 0.12916 -0.683 -0.48376 0.11328 -0.01455 0.43105 -0.17683 -0.96091
wine 0.05592 0.69202 0.066177 0.24963 -0.60066 0.47015 0.76847 0.52742 0.37784 1.7867 1.013 0.49373 0.59075 -0.61555 -0.94103 0.24572 0.4643 0.333 0.073543 0.30031 -0.14047 1.9328 -0.0016233 0.32405 0.44372 -0.67922 0.33051 0.48217 -0.021002 -0.37268 0.86136 -0.67653 -0.53141 -0.26072 -0.022709 1.0071 -0.15737 0.11863 0.97362 -0.36716 -0.27819 0.014475 -0.17655 0.78811 0.059971 -0.24722 -0.96377 0.3138 0.009323 -0.74978 -0.82534 0.038163 0.0046401 0.57576 -0.53325 0.1713 -0.29849 0.22695 0.11421 -0.61336 -1.0922 -0.19987 0.058022 0.33659 -0.55639 -0.046621 -0.44648 0.003435 -0.12301 -0.90799 -0.095778 -0.56891 -0.43505 -0.48422 -0.27728 -0.25176 -0.3138 -0.51461 0.42861 -0.3978 -0.024222 0.066949 1.3414 -0.88274 0.6359 -1.2468 0.40981 -0.26446 -0.084897 0.030634 0.44964 -0.037713 -0.23388 0.10859 -0.58294 -0.69103 -0.45754 0.70849 -0.18683 0.1956
corner -0.25402 0.033863 0.39731 -0.33529 0.17918 -0.35186 -0.038876 -0.033179 0.0052286 0.49213 0.32083 -0.10073 -0.14377 0.12941 -0.64385 -0.17577 -0.13627 0.096021 0.47683 0.35801 0.44798 -0.20735 0.25876 0.38097 0.28613 -0.73535 0.18782 0.15813 -0.41571 0.0067478 -0.77358 0.18127 -0.83635 -0.31814 -0.49043 -0.43444 -0.11303 0.056586 -0.39411 -0.47944 -0.28323 -0.22321 -0.19186 -0.54004 -0.27684 0.32552 0.17514 0.32817 0.36459 0.18111 -0.02299 -0.50371 -0.20199 0.47712 -0.084672 -0.53148 -1.4391 -0.20426 0.29124 -0.23686 -0.48767 0.052509 0.21004 0.59948 -0.22199 0.50441 -0.060713 0.43021 -0.10073 -1.0274 -0.4895 0.090668 -0.24127 -0.54901 0.15904 -0.31887 0.65563 0.25427 0.080431 0.73448 -0.45465 0.33823 0.31578 0.021425 0.80226 -0.46974 0.26783 -0.16309 -0.78646 0.047921 1.1798 0.1329 -0.13299 -0.77647 -0.27225 -0.40005 -0.34039 0.83213 0.039274 0.10088
inside -0.7861 0.42065 -0.28675 0.15315 0.20002 0.039792 -0.10982 0.38995 -0.45577 0.31456 0.60666 0.62605 0.20501 -0.81413 -0.92615 -0.37998 0.003211 -0.17405 0.56306 0.53834 -0.3575 -0.18613 0.36089 -0.48944 -0.12599 -0.69036 0.77825 0.023275 0.16834 -0.28592 0.23475 0.22521 -0.7396 -0.014249 -0.28196 -0.22148 0.48516 0.21034 -0.82358 -0.45298 -0.30658 -0.65925 -0.59806 0.22715 0.31408 -0.041144 -0.1949 -0.25017 -0.22812 0.41696 0.014228 0.15085 -0.28717 0.804 -0.50063 -0.55324 -1.0343 0.55566 0.34506 -0.12279 -1.1301 -0.11819 -0.034832 0.34164 0.67725 -0.26856 -0.31132 0.20486 0.28798 -0.82451 -0.084541 0.090252 -0.57502 -0.8416 -0.30728 0.36762 0.60835 -0.13954 -0.67032 0.55538 0.14373 -0.28343 0.10587 -0.31477 0.33725 0.032419 0.58521 -0.41316 -0.81493 0.40056 0.016655 -0.033302 0.30029 -0.50666 0.34825 0.022656 -0.22749 0.61359 0.17574 -0.42662
baseball -0.13453 0.58263 0.48005 -0.52713 -0.31618 0.48978 0.15097 -0.035237 -0.43121 0.14882 0.45514 -0.5103 0.93037 -0.62276 0.27324 0.44491 1.2731 -0.6698 0.0327 -0.25287 0.46865 0.60917 -0.23153 -0.67495 0.23701 -0.59524 0.014975 0.62765 -0.40841 0.032625 -0.5678 -1.187 -0.62242 0.91347 0.050762 -0.22252 -0.67902 -0.77724 -0.23665 -0.49387 -0.052958 -0.42149 -0.58696 -0.27235 1.1907 -0.090167 -0.20686 -0.5394 -0.069779 0.43533 -0.64249 -0.4251 -0.83003 0.62994 -0.30233 -0.22405 -0.35893 -0.040331 -0.51741 -1.249 -0.14688 0.32947 0.19967 0.76446 -0.18467 0.44123 -0.83323 0.45111 -0.37643 -0.81011 -0.75237 0.054881 -0.10255 -1.0459 0.1143 -0.16916 0.81113 -0.31058 0.58554 -0.59115 0.37785 -0.85561 1.5499 -0.77524 -0.23814 0.76235 -0.50461 -0.11887 -0.44687 0.57169 0.9105 0.56738 0.4289 -0.027429 -0.14293 0.27751 -0.03328 0.99957 -0.38862 -0.74549
horse 0.87601 -0.084028 0.33302 -0.27681 0.25107 0.76018 0.0028574 -0.0024718 -0.11558 0.096546 0.23597 0.042621 -0.29544 -0.4556 0.0081677 0.85434 0.61295 0.085773 0.025539 0.11014 1.124 0.28016 -0.53568 -0.45345 -0.1612 -0.50608 0.45639 0.65741 0.74337 0.53615 -0.10545 -1.9056 -1.1921 -0.1505 -0.51426 -0.24805 -1.0879 -0.34084 -0.19401 0.134 -0.36276 -0.044511 -0.15493 0.1525 0.35143 -0.23527 0.057661 -0.060021 0.29969 0.7376 0.3825 0.73787 -1.1414 0.35332 -0.19834 -0.32121 -0.11479 0.13214 0.86454 -0.2326 -0.26106 0.54849 -0.27803 1.6884 0.14834 -0.97623 -0.6975 0.025898 -0.85253 -0.51192 -0.25161 0.064883 -0.18477 0.0049052 0.21353 0.086829 0.35788 -0.10626 0.54584 0.27416 -1.3973 -0.92756 0.75757 -0.41276 0.85751 -0.64873 -0.71656 -0.18741 -0.66995 0.38355 0.33688 0.034384 0.2451 0.31642 0.12909 0.038493 0.41928 1.0063 0.13356 -0.18968
bicycle 0.05469 0.65984 -0.26887 -0.23618 -0.18129 -0.26619 -0.37722 0.63 -0.7885 0.81307 0.67898 -0.046742 0.26894 -0.342 -0.53428 0.072474 1.2858 0.7321 0.12132 -0.3288 0.38798 0.51787 -0.22721 -0.099377 0.29471 0.098037 -0.10929 0.47286 0.33365 0.5869 0.16569 -0.78883 -1.1815 -0.28247 -0.65948 0.12086 -0.020521 0.24441 -0.57815 0.075289 -1.0464 0.36807 -0.3779 -0.321 0.23137 -0.89476 0.183 0.36863 -0.32406 0.24585 -0.46481 0.098112 -0.24333 0.64201 -0.11783 0.31644 -0.070743 0.1413 0.93054 -0.65415 -0.57463 0.18091 0.52421 0.1203 0.067722 0.078768 -0.16875 -0.18677 -0.22812 -0.82083 -0.42221 -0.1321 -0.42813 -1.0086 0.80852 -0.084129 0.89163 -0.57136 1.3493 0.013131 -0.31317 -0.12395 0.23656 -0.30647 1.5057 0.63958 0.20258 0.014301 -0.69256 -0.18399 0.3315 -0.37427 0.06101 0.51261 0.019198 0.16739 0.545 0.74505 -0.61128 -0.99863
helmet -0.42698 -0.011536 -0.030669 -0.18166 -0.031585 0.23034 0.1317 0.81271 -0.66379 1.0184 0.49415 -0.077781 0.35612 -0.65703 -0.37809 0.45418 0.72443 -0.68319 -0.17783 0.30467 0.27856 0.31198 -0.59189 0.44379 0.39108 -0.080415 0.34699 0.1962 0.50017 0.4441 -0.19045 -0.3335 -0.53282 0.37273 -0.15166 0.3374 -0.87581 0.028182 -0.6119 -0.09485 -0.48472 0.20588 -0.21069 0.075084 1.017 -0.47328 0.015351 -0.12035 0.98971 -0.36965 0.13676 0.28893 -0.49665 0.38645 0.12281 0.30648 0.21586 0.26199 0.27434 -1.4333 -0.5875 0.11763 0.32898 0.57734 -0.45472 1.185 -1.3655 0.14342 -0.78369 -0.90987 -0.51855 -0.62472 -0.4764 -0.65262 -0.22677 0.71871 0.37277 -0.5543 0.90306 -0.71553 -0.51831 -0.41065 1.0874 -0.014484 0.23386 0.38108 0.13426 -0.51684 -0.064363 -0.2755 -0.4065 -0.82283 0.62342 0.43368 0.14422 0.21978 0.042809 1.0664 -0.68214 -0.4593
body -0.42808 1.3022 0.33898 -1.4497 0.42843 -0.33062 -0.1745 0.1455 -0.15934 0.30757 0.76024 -0.24345 0.45095 -0.63339 -0.94441 0.27091 -0.16672 0.31157 -0.1449 -0.14181 0.097812 -0.31411 -0.47039 0.089677 -0.11564 -0.62607 -0.040564 -0.23923 0.034124 0.56164 0.20606 -0.60657 0.093798 -1.0023 -0.61457 0.31361 -1.0256 0.20302 -0.10503 -0.34748 -0.058221 -0.1564 -0.89584 0.21245 0.34631 -0.477 -0.62815 0.038373 0.36603 -0.27171 -0.40414 0.59453 0.24764 0.15184 0.23592 0.3883 -0.69002 0.89313 -0.264 -1.145 -0.13597 0.054379 -0.084706 0.9955 -0.46823 0.055647 -0.92185 -0.081071 -0.30888 0.0056552 -1.5426 -0.66762 0.72535 -0.72063 -0.13804 -0.23774 0.40471 -0.34811 0.087201 -0.26831 -0.53884 -0.37417 0.94568 -0.047349 1.2107 -0.50101 -0.64229 -0.0016007 -0.013741 1.2648 -0.043106 -0.037873 -0.2416 -0.68498 -0.54914 -0.13895 0.1496 0.38445 0.55153 -0.69053
arm 0.28599 -0.0044851 0.27238 0.080725 -0.20083 -0.22205 -0.26551 0.72427 -0.41086 -0.24712 0.7543 -0.016317 0.74791 -0.18774 -0.054197 -0.33311 0.10202 0.64078 0.13441 0.46044 0.13533 0.71797 0.093422 0.66591 0.033505 0.13946 -0.44812 -0.46039 -0.52282 0.064097 -0.84197 -0.3025 -1.1344 -0.38295 -0.61129 0.52115 0.030722 -0.65035 -0.68469 0.041238 0.01129 0.39686 -0.99241 0.32543 0.67727 -0.48334 -0.062073 -0.28754 0.71709 -0.38101 -0.31269 0.343 -0.0018076 0.78495 0.43892 -0.18708 -0.84629 -0.20088 0.2627 -1.8874 -0.054086 0.45751 -0.44474 0.36457 -0.19345 0.10133 -0.48635 -0.33144 0.01675 -0.75021 -0.82536 -0.66894 -0.20651 -0.34871 -0.46283 -0.22082 -0.20842 -0.6172 0.2179 0.58873 -1.0176 -0.032974 0.30518 -0.37641 0.59016 0.25862 -0.32672 -0.6751 -1.1415 0.78487 0.50258 0.27722 -0.42821 -0.47927 -1.1559 0.47284 -0.45996 1.0116 0.0020103 -0.44696
seat -0.40323 0.85143 0.06128 0.12328 -0.18066 -0.092276 -0.77097 1.0182 -0.69736 0.46731 0.12418 0.12691 0.72103 0.71414 -0.80346 0.34194 0.57873 -0.40283 -0.13577 0.60197 -0.070626 0.6927 -0.2652 0.70998 0.27895 -0.48132 0.31168 0.098857 -0.23936 0.41727 -0.8692 0.57437 -0.80497 0.39481 -0.77527 0.66307 -0.40081 -0.075858 -0.49985 0.078469 -0.77564 0.13642 -0.11081 0.44705 0.81722 0.13841 0.59834 -0.17289 -0.08387 -0.69436 0.64423 0.53697 -0.47796 0.48055 0.65304 0.67314 -1.2035 0.69574 -0.65412 -0.81506 -0.54614 0.34119 -0.67514 1.3537 -0.023552 0.70992 -0.22304 0.43867 -0.81421 -1.0508 -1.0374 -0.4902 -0.10389 -0.44184 -0.21719 -0.21664 0.074364 -0.86971 -0.12769 0.18573 -0.2643 0.094606 0.60988 -0.20595 0.65201 0.068293 -0.18418 -0.69963 -0.55245 0.26376 0.57231 -0.73095 0.11611 -0.23983 0.43589 0.78016 -0.25241 0.78141 -0.030927 -0.068618
cap -0.040686 -0.68589 0.19708 -0.022072 -0.55481 0.86021 0.29562 0.34633 0.14018 0.44817 0.63977 0.19853 0.80642 -1.0153 -0.095798 0.15001 -0.35889 -0.43903 -0.17471 0.23518 -0.05497 0.20551 0.077961 0.42072 -0.10263 -0.63018 -0.60553 -0.02478 0.2596 0.74172 -0.068751 -0.35757 0.0086655 0.038134 -0.48614 0.21099 -1.1001 -0.30047 -1.1223 -0.74549 -0.38507 0.4483 -0.42614 -0.29006 0.36938 -0.71418 0.058687 -0.7563 0.77544 -0.20737 -0.79747 0.31666 -0.61558 1.0675 -0.30692 0.063779 -0.38877 0.30229 0.19242 -0.85029 -0.085542 0.6578 0.63819 0.31551 0.081506 0.95445 -0.78766 0.44927 -0.82977 -0.46429 -0.64953 -0.54293 0.18047 -1.2754 -0.076498 0.32965 0.40168 -0.50965 -0.069767 -0.41917 -0.14208 -0.34322 0.93973 -0.19521 0.21067 -0.48451 0.030333 -0.42315 0.39085 0.013788 1.2029 -1.1258 0.44591 0.056656 -0.38685 0.15965 -0.75718 0.41423 -0.058083 -0.087989
cat -0.030563 0.59238 0.738 0.49526 -0.97629 0.37666 0.1687 0.40908 0.19724 0.30629 0.051234 -0.089694 -0.17863 -0.32076 -0.90956 0.42813 0.60983 0.18776 -0.2287 0.64312 0.68488 0.34333 -0.051248 0.24675 0.45932 -0.6633 0.45893 -0.72135 0.6001 0.476 -0.83473 -0.62005 -0.73072 0.70966 -0.37117 -0.23215 -0.55687 -0.87806 -0.98579 0.31479 -0.042214 0.73379 -0.40271 -0.14751 0.37503 -0.71387 0.34516 -0.29289 0.39911 -0.4407 -0.18234 0.95979 -0.97741 0.79707 0.36562 -0.27677 -0.38696 0.09635 -0.0287 0.1932 -0.55948 0.76964 0.16638 0.63726 0.062607 -0.54452 -0.88252 0.11157 -0.18922 -1.2584 -0.42923 -0.71601 0.30054 0.28571 -0.199 -0.14291 -0.013697 -0.69597 -0.94624 -0.14353 -0.21103 -0.22339 0.9744 -0.05989 0.42679 -1.0514 -0.028114 0.36793 -0.60248 0.19695 0.71681 -0.343 -0.86896 -0.95526 0.32002 0.015939 -0.7187 1.1063 0.13591 -0.99954
bridge 0.17033 0.80754 0.065656 -0.39569 -0.0068249 0.14093 0.29809 -0.15894 0.44726 0.076255 0.16541 0.19452 -0.32532 -0.48422 -0.25411 0.0045432 0.6865 0.11759 0.24043 0.012845 0.69645 0.14364 0.50187 0.73716 -0.19784 -0.17844 0.25446 -0.094549 -0.080515 0.34828 0.76795 -0.51807 0.028582 -0.86834 -1.0266 -0.81822 -0.818 0.78747 -0.70076 -0.046417 -0.41313 -0.13699 -0.24994 0.30899 0.16293 -0.83376 -0.10415 -0.11117 -0.023469 0.17392 0.42147 1.0405 -0.58204 0.24128 0.2711 0.073311 -0.36379 0.10909 0.96176 -1.2118 0.32535 0.068662 1.0256 0.73829 -0.71434 0.23567 -0.80946 -0.051579 0.40541 0.71524 -1.3815 0.4116 -0.22367 -0.55142 0.071566 -0.6211 0.99639 -0.19593 -0.027025 0.41071 -1.179 -0.11912 0.78501 0.38266 0.50592 -0.75638 0.43804 0.82343 -0.50653 0.0059365 0.67195 -0.11358 -0.49287 -0.026245 -0.42938 0.26563 -0.23465 1.1613 0.37495 -0.57273
balcony -0.17129 -0.10691 -0.075283 -0.11772 -0.61448 -0.23386 -0.096392 0.23082 0.1184 0.87793 0.43583 -0.6416 0.63911 0.28831 -0.48859 -0.046436 1.2942 0.29045 0.31224 0.36249 -0.1515 0.28581 0.53732 0.74931 0.72914 -0.51652 0.50136 -0.059963 -0.54617 0.39053 0.67045 -0.60701 -0.97903 -0.63266 -0.5295 -0.52883 0.24662 0.032822 -0.87672 -0.23733 -0.50856 -0.23018 -0.19607 0.85288 1.245 0.15771 -0.15236 -0.50556 0.13475 0.26822 0.089225 0.12713 -0.9708 0.57277 0.92158 0.045153 -0.81669 1.0912 -0.14019 -1.1746 -0.17893 -0.3696 0.61108 0.66647 -1.0275 0.082962 -0.38914 0.5414 0.56548 -0.53977 -0.89502 -0.0033932 -0.51113 0.01133 -0.028458 -0.29344 0.27301 -0.16788 0.16124 0.54555 -0.33008 -0.08227 0.47393 -0.64019 0.011121 -0.5042 0.074604 -0.066128 0.22599 0.10091 0.45752 -0.43756 -0.092063 -0.24144 -0.30602 0.049821 -0.025665 0.73277 0.12502 -0.45943
trunk 0.4044 0.53315 0.048269 -0.25389 -0.65581 -0.15039 -0.63067 -0.23411 -0.33685 0.24522 -0.18988 -1.1769 0.033232 -0.20847 -0.11445 -0.11996 0.38665 -0.021663 0.47021 0.57021 0.21229 -0.073333 -0.083793 0.075738 -0.13938 -0.24385 0.00047615 0.39909 -0.26567 0.04951 0.76599 -0.46546 -1.638 -1.0147 -0.48667 -0.078 -0.14764 0.22135 -0.5281 0.010088 -0.68422 0.079878 -0.10799 0.58796 0.19739 -0.46766 -0.66804 0.49959 0.93984 0.26813 0.22439 0.5659 -0.11035 0.38135 -0.53959 -0.20738 0.1793 0.82826 0.059847 -0.98446 -0.53171 -0.45079 -0.37378 0.94193 -0.084234 0.2008 -0.44427 -1.0094 -0.95726 -0.65978 -0.78272 0.0099223 -0.08771 -1.0021 -0.15937 -0.46978 0.19139 -0.21302 -0.085753 -0.49846 -0.51818 0.55353 0.74327 0.164 0.81144 -0.92805 -0.54963 -0.058343 -0.61167 0.014512 0.44951 0.32022 -0.57572 0.010368 -0.32088 0.0063789 0.11515 0.75655 -0.54311 -0.3474
eye -0.49101 -0.055086 0.40696 -0.5143 -0.98607 0.048373 0.00011478 0.085724 -0.4061 0.63315 0.21061 -0.14385 -0.24966 -1.1646 -0.81523 0.11902 0.20086 0.75613 0.6533 0.60961 -0.19276 0.4059 0.44317 0.39525 0.082862 -0.75955 -0.76645 0.012063 0.55062 -0.56334 -0.001976 -0.14452 -0.33787 -1.1031 0.047468 0.3072 -0.084392 -0.65948 0.23459 0.23306 -0.12249 -0.26266 -0.2404 0.38872 0.76874 -0.75787 -0.88757 0.22198 1.3193 -0.14394 0.26579 0.75189 0.15594 0.043149 -0.25646 0.98098 -0.34682 0.62376 0.98447 -0.77385 -1.3917 0.23124 -0.90859 1.3457 -0.27159 -0.30643 -0.49803 -0.17442 -1.2059 -0.52481 -1.0426 -0.91354 -0.11864 0.20933 -0.22915 0.28672 0.81449 -0.98611 -0.18347 -0.54397 -0.56703 0.39341 0.82938 -0.44218 0.60554 -0.52858 0.24579 -0.26883 -0.52285 0.95703 -0.14708 -0.5751 0.16342 -0.57295 -0.68975 -0.4155 0.23612 0.85767 -1.3514 -0.63444
screen -1.0976 0.68484 0.93406 0.33389 -0.52623 -0.35295 0.18093 -0.30931 -0.039464 0.70618 0.21723 -0.35779 0.72581 -0.1568 -0.3984 0.32465 -0.40782 0.20938 0.019773 -0.11187 0.69748 0.11212 0.67551 -0.23882 0.085263 -0.28811 0.097404 -0.037329 -0.16168 0.089583 -0.81093 -0.71199 -0.95334 -0.51141 -0.65143 -0.11178 -0.022201 -0.032029 -0.68363 -0.1705 -0.56936 -0.27077 -0.19493 -0.33042 1.3583 -1.0867 0.17786 -0.57925 0.85182 0.38483 0.21193 -0.63386 -0.49603 0.46311 -0.30121 -0.015806 -0.68708 0.21807 0.149 -0.50218 0.32011 -0.37176 -0.21798 0.48989 -1.2239 0.87434 -0.61884 -0.02658 -0.17191 -0.28921 -1.1061 -0.45791 -0.093261 -0.73035 0.42745 0.17949 0.46065 0.59761 -0.5091 -0.67782 0.074572 0.20399 0.56318 -0.53964 0.48075 -0.65587 0.39208 -0.11152 -0.60919 -0.1655 0.21618 -1.1619 -0.5129 0.42412 0.058296 1.1029 0.47017 0.25141 -0.33275 0.23727
cloud 0.12901 0.40707 -0.08101 -0.3245 -0.25462 0.61688 0.63515 0.56207 -0.74343 0.13806 0.79121 -0.85384 -1.2979 -0.69828 -0.91057 -0.13663 -1.0998 -0.30702 0.24441 -0.36153 0.85568 0.48829 0.75545 -0.40908 0.18542 -0.65453 0.87913 -0.24677 0.12784 0.50465 0.42752 0.041645 -0.99195 -0.5571 -0.72042 0.56815 -0.51168 -0.56142 -0.86558 -0.57478 -0.23594 0.56818 0.18441 0.012907 1.6859 -1.1972 -0.30043 0.068297 0.17535 -0.32504 0.13287 0.96806 -0.45862 -0.29104 0.70814 -0.59132 -0.22139 0.32047 0.033346 -1.097 -0.83973 -1.1343 0.2065 0.89694 -1.0461 0.77756 -0.20704 0.24371 -0.95435 -0.58832 -0.89482 0.13705 -0.57431 -0.84555 -0.081917 -0.84581 3.291e-05 -0.025371 -0.0039779 -1.3292 -0.13064 -0.71007 0.612 0.24801 0.87944 -0.90324 0.31271 0.089385 0.4377 1.2128 0.51338 0.2718 -0.58106 -0.35161 0.15779 -0.20989 0.34673 1.0384 0.43466 -1.5559
basket 0.021793 0.54434 -0.85178 -0.089753 -0.1583 -0.37957 -0.092086 0.030666 -0.76165 1.0494 0.59242 0.29753 0.34773 -0.34441 -0.63569 0.59157 0.45047 -0.69112 0.19779 0.44465 -0.21306 -0.52413 -0.86306 0.29266 1.0078 -0.18725 0.4133 0.94251 0.089848 0.42913 -0.27381 -0.67173 -1.5557 0.32519 -0.069829 0.27039 -0.58347 -0.36156 -0.45837 -0.26869 -1.1243 -0.20711 0.15893 0.31101 0.49297 0.6178 -0.54153 0.029025 -0.2168 -0.036704 0.39501 -0.17013 0.21025 0.93753 -0.17539 -0.47046 -0.67522 0.32993 -1.3099 -0.81026 -0.11086 -1.052 -0.15041 0.34741 0.74381 -0.16595 -0.64674 0.22658 -0.28274 -0.68694 -0.77586 -0.36083 -0.86387 -0.52119 0.14635 -0.55998 0.10754 -0.42449 0.067115 -0.042481 -0.43063 0.40403 1.0903 -0.49133 0.48396 -0.75297 0.39203 -0.26204 -0.40228 0.63378 0.59587 -0.57463 0.1666 0.42304 0.29994 -0.32219 -0.44023 0.52129 0.5611 -0.79743
bird 0.75906 0.46907 0.1936 -0.74392 0.66753 0.36706 0.66237 0.72959 0.61717 0.28737 0.12939 -0.60884 0.12555 -1.0445 -0.62732 0.13839 -0.070108 -0.0043215 -0.29361 0.52426 0.88281 0.10779 -0.1121 -0.69473 -0.12895 -0.29405 0.2948 -0.026533 0.29871 0.01213 0.46344 -0.90614 -0.99956 -0.55821 -0.17454 0.27992 0.032906 -0.47982 -0.54572 -0.35279 -0.49704 0.82998 0.075649 0.57103 1.1242 -0.5159 0.054051 1.0396 0.31217 0.80501 0.51371 0.34917 -0.91068 0.29068 -0.36711 0.53968 -0.7297 0.41942 0.02866 -0.24209 -0.10748 0.29556 0.29593 0.72406 -0.15063 -0.20853 -0.38939 0.070286 -0.0026023 -0.67166 -0.64824 0.014552 -0.4034 0.0071339 -0.11263 0.20271 0.0072771 -0.86471 0.10334 -0.41262 0.0392 0.27391 1.2149 -0.53021 1.102 -0.73203 0.13193 0.27648 0.091666 -0.0041719 0.22359 0.31151 -0.64811 0.10708 -0.25512 0.016241 -0.033873 0.87103 0.19011 -0.70492
ear 0.25439 -0.47348 0.23748 -0.11018 -0.2372 0.032097 0.2689 0.081165 -0.84237 0.052231 0.17397 -0.62033 -0.10483 -1.3103 -0.82064 -0.045999 0.49948 1.2024 0.26809 0.53895 -0.38807 0.63046 0.17267 -0.16994 0.042076 -0.94663 -0.64999 -0.51895 0.49557 -0.59441 -0.87007 -0.64707 -1.6647 -1.0549 0.42186 -0.47565 -0.43942 -0.5895 -0.063768 0.33888 0.15764 -0.66177 -0.73157 -0.049924 0.97938 -0.92479 -0.90401 0.020038 1.748 0.13305 -0.62818 0.27806 -0.51897 0.34542 -0.21886 0.0020407 -0.42006 0.7478 0.67861 -0.77853 -0.28062 0.12186 -0.11668 0.86504 0.013721 0.078531 -0.6177 -0.78388 -0.32747 -0.87352 -0.56982 -0.94373 -0.47733 -0.18432 -0.33466 0.077263 0.67193 -0.81405 -0.6419 -0.073611 0.26712 0.4262 1.0913 -0.25241 0.4745 -0.83078 0.83519 -0.89986 -0.67526 1.1096 -0.58148 -0.5685 -0.56017 0.14881 -0.44675 -0.2485 -0.091888 1.0467 -0.63882 -0.18275
shoe -0.83464 0.39509 0.82325 -1.1472 -0.00015629 -0.12371 -0.25456 0.5409 -0.95914 0.79153 1.2217 -0.4563 0.1856 -0.89166 -0.54106 0.90463 0.21515 -0.87648 0.28329 0.33508 0.1432 -0.22306 -0.83547 0.081317 0.39476 0.031919 -0.81728 0.33024 -0.065798 0.06791 -0.80425 -0.40891 -1.04 0.72413 -0.046745 0.52025 -0.46407 -0.83873 -0.19919 -0.25323 -0.14146 -0.37056 -0.58819 0.39608 1.3396 0.3283 0.40812 -0.024325 1.3805 -0.34846 -0.33076 0.26654 -0.30569 0.38509 -0.15773 0.13704 -0.40931 0.20505 0.48222 -1.8303 -0.49194 -0.075943 0.054062 0.093141 -1.4505 0.1098 -0.5031 0.73131 -0.11954 -0.50151 -0.90407 -0.71988 -0.80494 0.59572 0.27821 0.48289 0.66165 -1.0044 0.070954 -0.86856 -0.91108 -0.038734 0.33228 -1.3368 -0.23602 -0.39169 0.10677 -0.89705 -0.56576 -0.4733 0.037233 -0.71731 -0.099788 0.35092 -0.99632 0.24271 -0.11178 1.1405 -0.55791 -0.59607
display -0.9059 1.2437 -0.17154 0.13668 0.33288 0.30039 0.67931 0.21198 -0.51863 -0.022144 0.66616 0.37069 -0.04355 0.23766 -0.51132 0.20043 0.56376 0.047584 0.77452 0.3051 0.39342 0.83329 -0.059733 -0.59842 -0.40736 -0.32402 0.42709 -0.27467 0.3368 0.50598 -0.2096 -0.26437 -0.80704 -0.41315 -0.0084578 -0.045333 0.033942 -0.06806 -0.2137 -1.1591 -0.68556 -0.97821 0.20439 0.066833 0.81196 0.10155 0.29498 -0.12886 -0.065415 -0.13644 -0.29133 -0.067201 0.34231 0.22619 -0.38845 0.47585 -1.0416 -0.042028 0.26523 -0.31238 -0.06917 -0.62307 -0.046695 0.192 0.17643 0.17346 -1.6709 0.45549 0.30078 -0.41064 0.022544 -0.085064 -1.2968 0.022955 -0.40655 0.47967 0.6775 0.057682 -0.41105 -0.5374 -0.53739 0.30063 0.56161 -0.49184 0.42082 -0.30305 0.88054 -0.13513 0.22702 0.33496 0.54066 -0.88332 -0.24185 0.22654 -0.74008 -0.2155 0.2449 -0.22504 0.2631 0.35668
lady 0.31555 0.80513 -0.018687 0.2731 -0.070966 -0.055471 -0.083572 0.13048 0.18347 0.40992 0.64266 0.46879 -0.044374 -0.9233 -0.49955 0.41944 0.71178 -0.16087 -0.09705 0.40445 0.53222 0.70764 -0.50455 -0.24992 0.024453 -0.3425 0.20465 -0.23399 -0.054035 0.41703 0.062741 -0.65281 -0.63613 0.049558 0.23028 -0.1046 -0.77432 0.19855 -0.61225 -0.46035 0.17587 0.65344 -0.15018 -0.31075 0.29374 0.20494 -0.17737 -0.014012 0.93517 -0.74208 -0.32337 0.73873 -0.57146 0.21528 0.0826 0.44812 -0.6351 0.29233 -0.71162 0.058221 0.39641 -0.21059 -0.595 0.53156 0.5749 0.21127 -0.92268 0.065849 -0.12781 -0.29035 -0.78623 -0.55683 0.029306 -1.0475 0.093331 0.031708 -0.08811 0.19982 0.28533 -0.29319 -0.57797 0.50425 0.31488 -0.076405 0.69225 -0.28179 0.27198 -0.13531 -0.71346 -0.29285 0.97848 -0.042696 0.12243 0.53229 0.087473 -0.36991 -0.045116 0.34995 -0.44506 -1.1439
stove -0.82881 0.48463 -0.12278 0.19586 0.63379 0.29601 -0.25423 0.23228 -0.31254 0.21042 0.51549 0.2019 -0.30856 -0.60345 -0.76808 0.53013 0.046741 0.41084 0.70894 1.0249 0.61977 -0.0095452 0.079382 -0.011125 -0.2478 -0.024524 0.46888 0.44004 0.66016 -0.24088 0.032845 -1.3177 -0.56827 0.0092331 -0.20471 -0.028694 0.73211 -0.041137 0.14841 -0.05676 -0.40715 -0.172 -0.12546 0.16863 0.91093 -0.93173 -0.63207 -0.19793 -0.1831 -0.40941 0.23464 0.18587 -0.64345 0.30587 0.91494 0.21055 -0.39466 0.23582 0.69925 -1.3532 0.67578 -0.46999 0.79021 0.89706 -0.67916 0.81041 -0.80552 0.707 -0.2919 -0.65737 -0.55383 -0.61733 -0.15946 -0.38793 0.52223 -0.54133 0.94108 -0.50146 0.47725 0.080039 0.20389 0.093364 0.26395 -0.0022723 0.28827 -1.0178 2.0235 0.23305 -0.23584 0.18231 1.2033 -0.8506 -0.84905 0.21018 -0.078399 -0.010069 -0.54349 -0.40498 -0.01031 -0.12242
key -0.58464 0.49572 0.2465 0.48165 0.30279 0.65549 0.23495 -0.30068 0.19165 0.78124 -0.20331 -0.35461 -0.45242 -0.38113 0.2762 0.070818 -0.17293 -0.0044645 -0.24316 0.22866 0.74128 1.188 0.63761 -0.04666 0.55124 -0.76342 0.43246 -0.040912 0.50183 0.18191 -0.51877 -1.8089 -2.3291 -0.73924 0.047657 -0.25652 0.3405 0.32246 -0.47913 -1.4954 1.0133 -0.42143 -0.73238 -0.9571 1.2696 -0.92316 -0.56682 -1.0334 0.80362 -0.40764 -0.039987 0.63458 -0.39953 1.1942 0.043036 -0.2586 0.084619 0.99458 0.44608 -1.1128 0.55664 -0.24044 0.89308 0.83337 -0.57721 0.67857 0.079445 -0.59226 -0.44181 -1.3219 -0.84928 -1.1477 -0.13716 -0.72252 0.62472 -0.63254 1.5812 -0.36654 0.3919 -0.032832 -0.55165 0.041966 0.5793 -1.0873 0.33844 -0.062231 1.1795 0.17473 -0.43742 0.47663 0.64509 0.070413 -0.44565 0.54691 0.27438 -0.25624 -0.23165 0.32697 -1.194 -0.49851
elephant 0.3232 0.41374 -0.10221 -0.22733 0.25399 0.060569 0.23009 0.17412 0.1068 -0.32536 0.6255 -0.078538 -0.036926 -1.122 -0.42944 0.73429 0.22668 0.82263 -0.40991 0.65467 0.47081 0.65676 0.27866 -0.63868 0.13592 -0.35172 -0.24383 -0.34436 -0.26994 -0.096688 -0.41264 -0.99971 -1.0478 -0.55751 -0.81691 -0.47752 -0.87444 -0.46667 0.24884 0.33703 -0.85439 0.74906 -0.50902 0.48112 0.31789 -0.73314 -0.35812 0.8114 0.93422 1.5335 0.37647 0.75776 -0.23299 0.19714 0.3895 0.10532 -0.035757 -0.078347 0.267 -0.6913 -0.25535 -0.33925 0.19674 1.2942 -0.16705 -0.80082 -0.48358 -0.20479 -0.71322 -1.1062 -0.84562 -0.35151 0.042465 -0.36588 -0.093633 -0.23501 -0.44847 0.25604 0.047733 -0.33813 -0.54057 0.1206 0.49301 0.23096 1.5011 -0.2768 -0.22498 -0.28268 -1.1077 -0.03222 0.6362 0.9301 -0.43483 -0.19396 0.22334 0.098468 -0.029102 0.81675 0.041873 -0.9315
airplane -0.50413 1.2267 0.2641 -1.1492 -0.65216 0.31822 1.5574 0.74374 -0.6669 0.26259 0.51565 -0.4153 -0.15915 -0.18296 -1.2216 0.19768 0.4952 1.0641 0.13553 0.40275 -0.70812 1.1319 0.24552 -0.21802 0.064195 -0.33758 0.39081 0.3866 0.61597 0.61619 -0.6338 -1.0324 -0.87223 -0.62162 -0.41216 1.2777 -0.31779 -0.53295 0.016545 0.17152 -0.23288 0.38554 -0.12904 0.69327 -0.44958 -1.0991 2.4239e-06 -0.1896 -0.17885 0.80069 0.33117 0.81249 -0.56331 -0.38219 -0.23927 -0.0034096 -0.29677 0.090705 -0.54071 -1.1804 -0.57782 0.11636 0.80978 0.78699 -0.61165 -0.99167 -0.81004 0.099139 0.63665 -0.51332 -0.66323 0.54271 -0.19391 -0.077725 0.31898 -0.198 0.41407 0.054306 0.25124 -1.0137 0.010368 -0.32431 -0.32541 -0.61667 0.59041 -0.63079 0.19465 -0.15734 0.095721 -0.10733 0.45019 -0.11852 -0.34889 0.12105 -0.29032 0.84464 0.3604 1.0292 -0.26558 -0.70106
one -0.22464 1.1173 -0.03122 -0.0472 0.58896 0.27099 0.38248 0.60153 0.15623 1.0279 0.39934 -0.085833 0.49959 -0.40356 -0.71444 -0.78759 0.5445 0.4329 0.63589 0.35862 -0.20939 0.5549 -0.12757 0.54472 0.35329 -0.24255 0.082801 0.13127 0.24188 -0.75683 0.28299 -0.56005 -0.44565 0.39562 0.26849 -0.26563 -0.75573 0.40715 0.19409 -0.0089716 0.055546 0.11038 0.084551 0.013176 0.27766 -0.30145 0.022201 0.17939 -0.10383 0.31442 -0.13722 -0.41891 -0.82223 -0.44839 0.012596 -0.23045 -0.36483 -0.70411 0.57271 -0.66453 -0.16151 0.026549 0.80195 0.28232 0.16764 0.24749 -0.19722 -0.15719 -0.20564 -0.95919 -0.10334 -0.68479 -0.061359 -0.36286 -0.67067 0.017098 -0.080782 0.090436 -0.67902 -0.32617 -0.16759 0.25268 -0.084844 -0.48634 0.53642 -0.87323 0.13895 -0.34527 -0.54372 0.51174 0.13626 0.18652 -0.25693 -0.30546 0.070359 0.083178 0.78759 0.10801 -0.38501 -0.44862
windshield -0.66203 0.60602 -0.064571 -0.14275 0.70274 -0.33116 0.010441 -0.00091108 0.02932 1.149 -0.28997 -0.072002 -0.057053 0.027313 -0.74448 -0.61222 -0.3842 -0.29488 0.61055 0.17977 -0.070816 0.61075 0.15361 0.59645 0.71149 -0.79859 0.60505 -0.68075 -0.21502 0.061077 -0.3596 -0.19896 0.12434 -0.68857 -0.91093 0.069278 -0.59477 -0.15828 0.16701 -0.17904 -0.40477 -0.18647 0.02832 0.49562 0.26798 -0.91451 -0.21306 -0.19023 0.6217 -0.3764 -0.2514 0.31745 -0.38804 0.42822 0.39123 0.68625 -0.23918 1.025 -0.01304 -0.73929 -0.34714 -0.32344 0.094655 1.7773 -0.55259 -0.081652 -0.77944 0.36307 -0.53878 -0.86388 -1.3722 -0.50476 -0.56035 -0.8683 0.49652 -0.11397 0.55828 -0.68369 0.64331 -0.33311 -0.44428 -0.49469 1.022 -0.29198 0.44862 -0.10607 0.72972 -0.30637 0.036897 -0.11467 0.39879 -0.30369 -0.14439 0.2664 0.066614 -0.48901 0.54913 1.2772 -0.53268 0.0047759
napkin -0.15234 0.27003 -0.58525 0.13564 0.1669 0.83016 0.42526 -0.14949 -0.0061378 0.62933 0.57931 -0.05326 0.85257 -0.23917 -0.54499 0.72717 0.47311 -0.42612 -0.23275 0.27131 -0.29734 1.2128 0.0060774 0.14325 0.31161 -0.85408 0.3591 -0.64274 0.45804 -0.033093 0.30992 -0.53937 -0.7924 -0.68414 -0.39632 1.3211 0.056114 -0.58903 -0.053612 -1.0328 0.36747 0.51321 -0.62819 -0.74612 0.80452 -0.64026 -0.51681 -0.039446 0.16112 -0.3603 0.32414 0.76164 0.51412 0.15446 -0.42515 -0.44642 -0.45048 0.16724 0.43577 -0.54646 -0.30287 0.30612 0.13904 0.74529 0.012716 -0.12454 0.42109 0.20959 -0.018953 -0.71027 -0.30683 -1.0186 -0.052736 -0.56393 0.38707 -0.54629 0.022465 -0.88364 -0.53542 0.70587 -0.11346 0.44584 0.97025 -0.54917 0.40243 -1.438 1.6032 -0.29465 -0.2448 0.83398 0.46985 -0.30203 -0.4029 -0.21245 -0.15732 0.29109 -1.1321 0.61847 -0.25918 -0.61582
park 0.26607 0.50266 0.56069 -0.76979 0.047399 -0.28282 -0.035612 0.10338 -0.32134 -0.042774 0.49579 -0.19124 0.40378 0.24984 0.24607 -0.44748 0.68705 0.13124 -1.0194 0.57099 0.112 0.69182 -0.65898 -0.34111 0.12005 -0.25569 0.49705 -0.16856 -0.49535 0.75321 0.50006 -0.91367 -1.0437 -0.86762 -0.24003 -0.61791 -0.67098 0.73956 -0.59808 0.080516 -0.38938 -0.47983 0.74941 0.7834 0.52364 -0.41494 -0.45406 1.2939 0.49147 -0.22627 -0.13505 0.57909 -0.98384 -0.055235 -0.044621 0.13328 -1.0133 0.14344 -0.078078 -1.006 -0.73751 -0.33933 0.53627 0.049889 0.18599 0.91968 0.40115 0.60082 -0.10263 -0.28024 -0.71477 0.37515 -0.39542 -0.62836 -0.23584 -1.0562 0.51743 0.11217 -0.016506 -0.18745 -0.94302 -0.6279 1.4997 -0.37246 1.0731 0.22547 0.27973 -0.46907 -0.23489 -0.11994 -0.12939 -0.18045 0.47794 -0.24619 -0.26874 0.00062155 -0.21502 0.59502 0.26068 -0.47445
nose -0.20925 0.23008 0.47398 -0.46354 -0.49975 -0.22303 0.39896 0.079357 -0.30213 0.61219 -0.13056 -0.3252 -0.18774 -0.91156 -0.94669 0.082206 0.038776 0.22039 0.086251 0.75959 -0.21438 0.091615 -0.17502 0.27436 0.13376 -0.70958 0.21434 -0.40818 0.23488 -0.22563 -0.053168 -0.46825 -0.9522 -0.81678 -0.025969 -0.26337 -0.637 -0.60305 -0.44622 -0.18433 -0.0054736 -0.32839 -0.8073 0.70261 1.068 -0.6564 -0.83133 -0.28895 1.1451 0.022416 -0.35271 1.4006 -0.46073 0.084993 -0.074094 0.77579 -0.1313 0.61216 0.82681 -0.74281 -0.5941 0.18519 -0.42763 0.91738 -0.58674 -0.79601 -0.26242 -0.44694 -0.47699 -0.063291 -0.56032 -0.63797 -0.33062 0.097669 -0.54004 0.39286 0.23805 -1.0949 -0.37895 0.06755 -0.81559 -0.15488 1.257 -0.92328 0.17214 -0.52099 0.17825 -0.95034 -0.031196 0.90061 -0.40136 -0.33411 -0.16258 -0.28164 -0.15648 0.025538 -0.0098974 0.88971 -0.79382 -0.28148
foot -0.37474 0.34486 0.41783 -1.2922 0.61513 -0.26377 -0.062562 0.80652 -0.12839 -0.75052 0.59248 -1.0046 0.16568 -0.21963 0.084359 0.36067 -0.06163 0.35415 0.48271 0.48154 0.33077 -0.033867 -1.0917 -0.071902 -0.37688 -0.23893 -0.044537 0.091556 -0.86891 0.21576 -0.3863 -0.26451 -1.5003 -0.55393 -0.97953 0.67928 -0.46392 -0.20273 -0.25849 0.094495 0.43715 0.18044 -0.93485 -0.084521 1.5765 0.37104 -0.25022 -0.09082 0.70308 -0.25597 -0.57339 0.082716 0.035804 0.077041 -0.30063 -0.0065062 -0.99388 -0.1936 1.1711 -1.5277 -0.23565 -0.1209 -0.075405 0.062663 -0.48024 0.70379 -0.4798 -0.24882 0.39316 -0.38311 -0.59832 -0.4316 -0.14581 0.11414 -0.37247 -0.41688 0.5886 -1.0626 -0.60239 -0.080934 -1.2896 0.53893 0.072606 -0.84314 0.42377 -0.025389 -0.078932 -0.65428 -0.64321 0.18733 0.0139 -0.34188 -0.60679 -0.1705 -0.57784 -0.12371 0.51174 1.1798 -0.56353 -0.69197
fork -0.37861 0.68393 -0.61989 0.15363 0.085623 0.88505 0.11532 0.29121 0.66838 -0.029289 0.56894 0.040516 0.71207 -0.33713 -0.32385 0.35318 0.3149 -0.10433 -0.026137 0.91813 -0.21796 0.96072 -0.67493 -0.28856 0.6197 -0.18084 0.24874 0.26379 0.48912 -0.057722 -0.010594 -1.1879 -0.12275 -0.77205 -0.19196 1.4346 -0.63367 0.069948 -0.11697 -0.64517 0.18306 0.32571 -0.36807 -0.50641 1.173 -1.0415 -0.75136 0.33577 -0.13793 -0.92723 0.11127 0.46443 0.33806 0.47474 -0.33312 -0.35535 0.28545 0.56837 0.86585 -1.1611 -0.085734 0.19989 0.41614 0.83972 0.12685 0.32157 0.75262 -0.3149 -0.087659 -0.029488 -0.71643 -0.40002 -0.57655 -0.16745 0.46092 -0.42913 0.50446 -0.8907 -0.5537 0.73153 -0.52053 0.34062 1.5106 -0.32193 0.75835 -0.68192 1.2204 -0.40536 -0.94135 1.0672 0.40565 -0.00058876 -0.37208 -0.26865 0.35271 0.0058699 -0.38502 1.3422 -0.64849 -0.51544
